23 128
172.016.114.050 -0.00034277793 0.0024800738 0.0021963755 5.772375e-05 0.0015903636 -0.0034523753 -0.0010388464 0.0003717661 -0.001110224 -0.0030014175 0.0019164659 0.0035370805 0.0028024914 0.0024408768 -0.0035628225 -0.0035486112 0.0027052376 -0.003355865 -0.0038591223 -0.0010402087 0.0012720566 -0.003262898 0.0028038241 0.0034493203 -4.3895132e-05 0.00030541795 0.0024833041 0.0021523442 -0.0018756676 -0.0011451393 -0.0038715824 -0.0015076846 -0.0010805496 -0.0016657304 0.0036989613 -0.00018666669 0.0039011007 0.0029865769 0.0025344577 -0.0018760893 0.0014415777 -0.0028742303 -0.0031804722 -0.0005178814 -0.0023906392 -0.00049612834 -0.0003433973 0.0021582274 0.001218849 0.0014979158 0.00010243862 0.0015763822 0.0028956153 0.002653168 -0.0030899895 -0.0014377938 0.0036004668 0.0002848806 -0.0009552168 -0.0017937741 -0.0015961934 -0.0036709215 0.003304977 -0.0014170288 0.0008061013 0.003331939 0.001942801 -0.0011655054 0.00089626934 -0.0002384179 -3.5130128e-05 0.0027091275 0.0032210448 0.0033445626 -0.002537648 -0.0001779394 -0.0020639144 0.003568446 0.003121265 0.000834537 0.0018911677 0.0033938733 0.0022107398 -0.0035672486 0.0027519404 -0.00014723786 -0.0009118627 0.0033129524 0.0022019618 -0.0036687362 -0.0009225697 0.0032626677 -0.003616793 0.0028398568 0.0026862572 -0.0035862343 -0.0038166035 -0.0010086398 -0.0025939867 0.0035566706 0.002426091 0.0027685808 -4.649313e-05 -0.0008345389 -0.0029390901 0.0017628132 -0.0034283197 0.00022057624 -0.0031033133 0.0012390227 0.0024295703 0.0021911166 0.001738692 0.0017587487 -0.0035181728 0.0027580075 0.00082837883 -0.0029361094 -0.0030063114 -0.002378295 0.0011388342 -0.0006949077 -0.0036666521 0.0008265633 -0.0031763678 -0.0006167008 -0.0032753937 -0.0026986536
172.016.113.204 0.00043907337 -0.0010431606 -0.00086091005 -0.0021280495 -0.0021189202 -8.502412e-05 0.002466327 0.0025483707 0.00033041454 -0.0026231252 -0.0009793227 0.0017668568 -0.00256744 -0.00014175127 -0.0022219042 -0.0012496607 -0.001589934 0.0036832409 0.0010140121 0.00044201483 -0.0029088147 -0.00090783025 0.0030886468 -0.002573824 0.0038795075 -0.0035294432 0.002511207 0.0014329898 0.0012135672 0.002290863 -0.0038878643 0.0016245021 -0.0015610474 0.0031829753 -0.0037399693 0.0021069928 0.0007294263 -0.0009681098 -0.0023886987 -0.0017418149 -0.003848729 -0.002433121 -0.0012239759 -0.0018450916 -0.0032302784 0.0016084136 0.0036572067 0.0018026786 -0.0030875255 0.00051572203 -0.0025047052 0.001209341 -0.0012391403 0.0028650104 0.0026678513 0.0024597999 0.0006065781 0.00015202137 -0.00032043972 0.0025457984 0.0013969898 0.00010033751 0.0010577148 -0.0032336675 0.00041471102 -0.0027803106 0.0021429977 0.0038966008 -0.0036774143 0.0009811266 0.0027369193 -0.0010779708 -0.0013145217 -0.0031098954 -0.0023676935 0.0010796797 0.0004632777 -0.0025869845 -0.003498029 0.0015719879 0.0026315888 -0.0008071083 -0.0002881428 0.0025737663 0.0012875797 -0.00021902236 -0.0020959962 0.0022050098 9.301538e-05 -0.0008102797 -0.00071483565 -0.0027757038 0.003002926 -2.5281832e-05 0.0028111993 0.0008917628 -0.0009417531 -0.001286248 0.0018048164 0.0019462906 0.0017452575 0.0021397679 -0.0002947293 -0.0021014342 0.0014986857 -0.0010763606 0.0034630056 0.0036071457 0.001187553 0.0005899618 -0.003617394 0.0023039295 -0.0005622643 -0.002567122 -0.002355916 -0.0020538836 -0.0010956406 0.0038008555 0.0020061273 -0.0035406358 -0.0018055072 0.0030945123 0.00012777084 0.0028431409 -0.0016364137 0.0024939713 -0.003678595 0.0036810522
135.013.216.191 -0.0001331481 4.186518e-06 -0.0016628655 0.0024704316 -0.0016146566 -0.0023664865 0.0035854056 0.00044713903 0.0019855106 -0.003601195 0.00041988268 0.0034750092 0.0019940427 0.0004130813 -0.0037955618 0.0015632783 -0.000129116 0.0018587899 -0.00050764077 -0.0038532994 0.0027955999 0.003900336 0.0038270988 -0.0027246184 0.0024122815 0.0011598066 -0.0025404654 0.0010488469 0.0017922451 0.00042100617 0.00078441174 0.0019141181 0.001298721 0.0034090017 0.00010210877 0.00068314985 -0.0011755738 0.0034136674 -0.0018039691 -0.0032528937 0.0035727278 0.0021171116 0.0032422936 -0.001845578 0.0016243049 0.002265214 0.0035355445 0.0022425156 0.0030174179 -0.0024811616 0.0021448787 -0.0013943621 0.00077608635 0.0028560807 -0.0038680837 -0.0007791197 2.9606448e-05 0.0029880924 -0.0014171931 -0.0023955558 0.0012664107 0.0034770772 0.0014445946 -0.003015693 0.0022436024 -0.0007699277 -0.0016927029 -0.0033185552 -0.00019057674 0.0003425448 -0.00051242154 0.00033602535 0.0001610525 -0.00017353671 -0.0015335068 -0.003093551 -0.0028658663 0.0014444495 -0.0026375765 -0.0009949825 0.0021779938 8.860176e-05 0.0031393848 -0.003825926 -0.00376542 -0.0029260784 0.001523704 0.0036144156 0.00019917148 0.00043352405 0.0027442325 -0.0011238647 -0.0009289102 -0.0036278742 -0.00022873517 -0.0003681884 0.0039027887 0.0016069494 0.0034960257 -0.0037253632 0.0021728098 -0.0030161364 0.0015588016 -0.0027752887 0.0037438986 -0.0037461224 0.002264416 -0.002685297 0.0017734616 0.0005219468 0.0035216415 -0.0016266083 -0.0037198642 0.0025205754 -0.0036073276 -0.0033864225 -0.001778218 -0.002476922 0.0029306163 -0.0034430027 -0.0026974438 0.0038482756 0.001306456 -0.0024910888 -0.0007240155 -0.0010160244 -0.00058974663 -0.00036666007
192.168.001.010 0.0022046259 -0.0031193828 0.0012965199 0.0029340582 0.0036648228 -0.0032938626 -0.00027805608 -0.0036113344 0.0028711827 0.0018852738 0.002898528 0.0008711096 0.00021119563 0.00018355317 -0.001619553 0.0032805046 0.0001495407 -0.0029166075 -0.0033959982 -0.003177171 0.0018604563 -0.0018466152 0.00264424 -0.0014027895 -0.0013835742 0.0027440065 -0.0010433864 -0.00031441287 -0.0012577629 0.0018390618 0.002111744 0.000860347 0.00222339 0.0034870328 0.003743032 0.0013271731 0.00076036144 0.0009273362 -0.0030194416 0.00083007826 0.0011807587 -0.000755209 0.00021282578 0.001506923 -0.0022799443 -0.0028192822 -0.0024283591 0.0013766136 -0.0011900198 -0.0037869536 -0.0020238368 0.0014557614 -0.0019616757 0.0031327722 0.00029407706 0.0030212835 -0.0013196636 0.0024202552 -0.0003718951 -0.0033901746 0.001184503 0.0028610823 0.0029292172 0.0015237214 0.0023354047 0.0022871352 -0.0007328392 -0.001073279 -0.0006759847 0.003741624 0.0030298524 0.0016589427 -0.0032654789 -0.0025448815 0.00030560407 -0.0025582719 0.0001940283 0.00060570834 0.003352731 0.0037660457 0.0009613955 -0.0018580075 0.0031287945 0.0009293632 0.0016044081 0.0029378692 0.0037735759 -0.002388475 0.0037266768 -0.00010478351 0.0014459318 -0.0015778873 -0.0026038168 0.0029786397 0.0033845585 0.0035228054 0.0030625276 -0.0023070131 -0.0027295584 0.0001803581 0.0015327884 -0.00064071995 0.000228846 0.0014656126 0.0001721735 -0.003223933 -0.002103482 0.0027995927 -0.0010102327 0.00065796624 -0.0012566696 -0.0018584484 0.003096143 0.001846099 -0.00010883189 -0.0017993835 -0.0022344503 -0.00042058332 0.0015438768 -0.0028083716 0.0011562163 0.0033257757 0.00034586995 -0.0007507354 -0.0026740467 -0.003061683 0.00252924 -0.0028016695
192.168.001.001 0.00041471235 0.0015966018 -0.00027070942 -0.0013193041 -0.0033022955 0.0016851121 -0.0030114516 0.0022232868 -0.0015765814 0.0022060494 -0.00070262596 -0.00018705789 0.00016000865 0.0026815187 0.00020059917 4.7497815e-05 -0.003535787 0.0038721748 -0.003700372 0.0029141246 2.5514326e-05 -0.0013493594 0.0017225993 0.0014778409 -0.003396573 0.0010048479 0.0019354182 -0.0029926926 2.7501797e-05 0.00083177246 0.002600422 0.0030522267 0.00070385844 0.00033800775 0.0021977618 -0.00038966574 0.001518338 -0.0005203355 -0.0021857463 0.003242296 0.0027775029 0.0023163252 4.142611e-05 -0.0031999925 0.002426291 0.00034547786 0.0017302599 0.0028102698 -0.0038702614 -0.0027894704 0.0036777062 0.0032709846 0.00189159 0.003229012 0.00020902588 0.0024266194 -0.001693051 -0.0027398071 0.002458958 -0.0038569 0.0019190023 0.00078928523 -0.0006817346 -0.00024219151 -0.0026814463 -0.003765689 0.002139826 -0.0037812616 -0.003262734 0.00015855998 0.00012971346 -0.0030563592 -0.0035194256 -0.00028744526 0.0016074271 -9.524795e-05 -0.002901566 0.0037263425 -0.0015071774 0.0017284859 0.0029826383 -0.0037291334 0.0021772552 -0.00049634295 -0.001464024 -0.0015890591 0.0023561327 0.0027978432 0.002745002 -0.0016978213 0.00013510014 -0.00077579304 0.0022120909 0.003268056 0.0033292244 0.001987663 0.00022237882 -0.0038940352 0.0022188362 -0.0008680918 -0.002204796 0.0026937646 0.00036566422 0.0031540121 0.0027342592 0.0020514266 -0.0025581105 -9.102971e-05 -0.002514174 -0.0024736193 -0.0021322004 0.000959386 0.0008904751 -0.0014442039 0.0020259295 0.00011395139 0.003430806 -0.0019102569 0.0011365053 0.00076563586 -0.0024959783 0.0017088198 0.002989307 -0.0007291676 0.0013413426 0.0027172747 -0.0016160948 0.0023875881
207.046.131.017 0.0034472162 0.002179981 -0.002598132 0.0006884873 -0.0025953304 0.0038682967 0.002794719 0.0019796218 0.002290888 -0.0036026693 0.0017508587 -0.00062088005 -0.0033681085 -0.0035285698 -0.0019940387 -0.0024344444 -0.00038804632 -0.0004952186 -0.0015062343 -0.0033526863 -0.003490104 0.0022496437 -0.0035649172 0.0017625778 -0.002731499 -0.0038149883 -0.00012070877 0.0026940661 0.002578643 0.0010804276 -0.00028449402 0.0027639295 -0.0036713989 -0.0033839312 0.003139408 -0.0022282947 -0.001581802 0.00025401273 -0.001584477 -0.0007336197 0.0037080054 -0.0026105733 0.0011628115 -0.00070531 0.0017638629 -0.003049137 -0.0008152086 0.0025246623 0.002458796 -0.0019758383 0.0009522009 0.0001533196 0.00036438124 0.0019173453 0.0026150423 -0.002225676 0.0024766691 0.0009403773 0.00331665 0.0029088964 0.00025477426 -0.0035022958 -0.0035666316 0.0029173607 -0.0011134036 -0.0035222266 -0.0008600053 0.0017404429 0.00056508865 0.0011696887 -0.0025889443 -0.0014815462 0.002738118 -0.00048617503 0.0004268215 -0.0011543457 0.00046676843 0.0017833473 -0.0035906255 0.0038732912 -3.2439984e-05 -0.00025085895 -0.0036538322 -0.0024493798 -0.0022522327 -0.001505905 -0.0009976607 0.0027557453 0.0010135234 0.0009894929 -0.00025902662 0.0023122577 -0.003350313 -0.002626874 0.00025107063 0.00024124661 0.0018722103 0.00014930454 0.0012107802 -0.0016443712 -0.0014703271 -0.003288441 -0.00084263465 -0.0022023425 0.00054167164 0.0010983603 -0.00013203877 -0.0020322278 0.0035921594 -0.0036591613 -0.0008668552 -0.0029120615 0.00012539545 -0.0017294183 -0.00028355405 -0.0017211561 -0.0033567217 0.001451792 -0.003717419 0.0024738687 -0.0027098428 0.003814501 -0.0035617743 0.0034249646 -0.003796037 -0.0030293234 0.0030042564 0.0023412884
194.007.248.153 -0.0023294913 -0.0022592929 0.0036232583 -0.0022817366 -0.003630645 0.003359165 -0.00044714683 -0.0014668574 -0.00080738345 -0.002478449 -0.00023564578 -0.0038857947 -0.0010504887 -0.0010663671 -0.001788201 0.002248507 0.003154638 -0.0034033286 -0.00039460638 0.0038175432 0.0017853227 0.0034171916 0.0019562147 -0.0008739618 -9.344113e-05 0.00086712244 -0.002166491 -0.0015635282 0.0037464863 0.00060550135 0.0003234862 0.0027816521 -0.002827165 -0.0025948132 -0.0016536919 0.00017826808 0.0022380943 -0.0010096122 -0.0037095281 -0.00284819 -0.0033529326 -0.0035716891 -0.0027370092 0.0036486425 0.002994298 0.002552998 0.0009959505 -0.00030917092 -0.00257347 0.0026457182 0.0035771728 -0.0023084192 -0.0038045899 0.003763285 -0.0025388764 0.0037623746 -0.0037996431 -0.00071794906 0.0031751578 -0.0038943302 0.00062030496 0.0025397588 0.0016332993 -0.0030826218 0.002421812 -0.0023934294 0.0015145019 -0.0016437967 -0.003226209 0.0038309363 -0.0015987323 -0.0010242547 -0.0031321421 0.0033617206 0.0006111906 -0.00032460407 -0.001706656 0.0001277722 0.00292972 0.0035867023 3.533587e-05 -0.0031023542 0.0037742541 0.0024556413 -0.00038906097 -0.0023594878 -0.00074270956 -0.0024929955 0.0013328758 -0.00019407745 0.0033531256 -0.0025149973 -0.0015251905 -0.0006307292 0.0004086497 0.0036203754 -0.0005647117 -0.0026682024 0.00095766253 -0.0008327641 0.0011304583 0.00061498705 -0.0035373645 -0.001094922 0.0035777618 0.0029560132 -0.0023518596 -0.0014610481 -0.0007512009 0.0024133495 -0.0022341337 -0.0013003475 -0.00090809294 -0.0011182503 -0.0029513452 -0.0033401826 -0.00034077538 0.0013916767 0.0006567448 0.0034564738 0.00049394515 -0.0014856865 0.0035065692 0.0030460267 -0.0020726465 0.00051661837 0.0008734649 6.835574e-05
172.016.112.050 -0.0030110362 -0.0016138834 0.0012806777 -0.00020752124 -0.0025905313 -0.0013007765 -0.002027704 0.0034506447 -0.0036568397 0.00234203 0.00037625278 0.0028311876 -0.0031151976 0.0020437057 -0.0029524704 -0.0014448847 -0.0015046851 -0.0034970408 -0.0019390993 -0.0026674427 0.0016489931 -0.0020971722 0.0034135405 0.001152124 0.0019097973 0.0034421277 0.0038155017 0.0027875702 -0.003842297 0.0010646208 0.00091041747 0.0005362295 0.002201581 0.0025304449 -0.0009482006 -0.0018985795 -0.002284135 0.00084783783 -0.0014103567 -0.00016189911 0.00011991138 0.002327402 -0.003837835 -0.0020125427 -0.0039019727 0.0011953621 -0.0037879986 0.0016216574 0.0004157551 -0.0037110355 -0.0014622046 0.00077931274 -0.0026393018 0.0012361675 -0.0009967027 -0.002915623 0.0019150277 -0.001771156 -0.0003130104 -5.6573906e-05 -0.0009387867 -0.0011847689 -0.0036511726 -0.002100737 -0.000879057 -0.0010799686 0.0035486417 0.0027642727 -4.953639e-05 0.0018130058 0.001643537 0.0028596679 -0.0019050996 0.001169368 -0.002364666 -0.0024795462 0.003513612 -0.00056700653 0.0014077404 -0.0031976234 -0.0033771754 0.0020956702 0.0029173205 0.0024430251 -0.0007245125 -0.002229361 -0.0015511563 0.0036458618 -0.0014067503 0.0022155016 0.0034285898 0.0006622853 -0.0011005686 -0.0013770002 0.000986835 -0.00033436538 -0.0030963568 0.00027960623 0.0003887615 -0.0019791091 0.0038528817 0.0011820591 0.0024779325 -0.0010000711 0.0011625276 0.0008007857 -0.00248764 -0.0021877966 0.0017383333 0.0016492688 -0.0032687879 0.001367295 0.0015798374 -0.0035121397 5.713403e-06 0.0020169055 -0.002003998 0.0025639767 -0.00019362045 -0.0038307395 -0.0015419365 0.000996224 0.0033748297 -0.0012503735 0.00029336105 0.0013147605 0.0009918252 -0.003128836
204.152.167.020 -0.0018352177 0.0012472003 0.0009676858 -0.0027137594 -0.001514954 6.264137e-05 -0.0003054708 -0.0023955018 -0.0026443966 0.0038247565 0.0033512642 0.00021218843 0.0006437054 0.00082235434 -0.0023624795 -0.0009220238 -0.0036761856 -0.001769274 -0.0037398087 -0.003331623 -0.0031657522 0.0019694886 -0.0012814024 -0.0032735313 0.0018145457 -0.0005650036 -0.0018269992 -0.0011146533 0.0011870746 0.0018256578 0.001521371 -0.0024560967 0.00022020955 -0.0010800366 -0.002630964 0.0022356794 -0.0019105612 0.001341784 -0.00091660867 0.0020078213 0.001550348 0.0009200663 0.00015871391 -0.0007664645 -0.00017480315 9.22396e-05 -0.003134431 -0.0034113869 -0.0019967677 0.0028155977 -0.0029109507 -0.00028679485 0.0003800451 -0.0027732751 0.00037742662 -0.0013493667 0.0008872648 0.002043753 0.0023404502 0.0016398714 0.0013065522 0.00093324104 -0.0022823657 -0.0038528254 0.0032357152 0.0032685453 -0.0006797837 0.0020669766 -0.001005687 -0.0008555598 0.0026795827 0.0026735915 -0.0023942767 0.0008382924 0.0010840126 0.0036828832 0.0032675979 -0.0011062212 -0.0014340347 -0.0018254486 -0.002670726 -0.0016128558 0.0033898996 -0.0021813328 -0.00049233076 0.0037653407 -0.0028913796 0.00010834167 0.0037729137 -0.00078876416 0.0025570393 0.0018630276 0.0028760387 0.00088838616 0.00031295046 0.0022036145 0.0008703192 0.0020223723 0.0013435081 0.0028280367 -0.0034099051 0.001684191 0.0027380083 0.0022173189 -0.00067501416 0.0009669254 -0.0035032867 0.0023130716 -0.0019859744 -0.0037358236 0.0005019571 0.00067410176 1.830486e-05 -0.0035499614 -0.0021420466 0.002943005 -0.0033518455 0.0016571439 -0.001657999 -0.0011706994 -0.0016697189 0.0033539792 0.00022057575 8.443119e-05 -8.034521e-05 -0.0008957768 0.0028227435 0.0011720882
196.227.033.189 -0.0003897196 0.003112295 0.0025836062 -0.0033778562 -0.0037777682 -0.0030449561 0.0027687938 -0.003170278 0.0029879056 0.0022290812 -0.00019319713 0.002136923 0.0010451749 0.0036219454 -0.0022739596 -0.0037124946 -0.002554142 0.0023040033 -0.0015317053 0.002893848 0.0011505148 -0.0029627574 0.0021867529 -0.0030557564 -0.0023518316 -0.0022650887 -0.002241963 -0.0035409345 0.0029446804 -0.002280596 -0.0001681897 0.003902351 0.0035288015 0.000178437 0.003482569 -0.0016007856 -0.0023909814 0.0020578206 0.0019510795 0.0002542968 0.0014313051 0.00077804533 -0.00095210504 -0.00020663258 0.0010315549 -0.00020688196 -0.002215544 0.0013089871 -0.0022964457 0.0018641762 0.0033937602 0.003085336 0.0003861505 -0.0007391389 -0.0009609221 -0.0037799457 0.0033505217 0.0015276702 0.0026619926 -0.0032748869 3.4266977e-05 0.0037659663 0.003226132 0.002874015 -0.0016331695 -0.00034242225 -0.0004778811 -0.0013197735 -0.0014786199 0.003605219 -0.0005953341 -0.0009645647 -0.002498425 0.0006418638 -0.00031496378 0.0010662529 0.0032007648 -0.0014955981 0.0032355476 -0.0032569394 -0.0019861483 0.0026812933 0.0033179235 0.0013796295 0.00015843875 0.0038676073 0.0021972444 0.0012369896 -0.0024014905 -0.00013442386 0.0036966589 0.0021483607 -0.0012331493 0.0027208782 0.0022003273 -0.002083119 -0.0035947345 -0.00079211686 -0.0025318116 -0.00278762 0.0036621203 0.0010688239 0.0015615151 -0.002988576 0.0019494814 0.0029526432 -0.003719211 0.0037732578 0.0038930287 0.003855025 -0.002736464 -0.001504098 0.0033423936 0.0004220549 -0.002632638 -0.0034200512 0.0020112905 0.00058433285 0.0028166566 -0.0019858552 0.0011202332 -0.0029197494 -0.0029875617 -0.0029321092 0.0007882914 -0.0008475 2.7443233e-05 0.0010984482
204.255.237.044 0.0020372365 0.002211663 -0.00215333 -8.3154504e-05 -0.0009917038 0.0017669335 -0.0008946019 -0.0019094772 0.00043104147 0.0004683536 0.002854308 -0.0025119304 -0.0013589318 -0.00118744 -0.0005161754 -0.0024480675 -0.002742669 -0.00033011232 0.0016079277 -0.0011731092 -0.0031279644 0.0037011004 -0.0038865923 -0.0023962657 0.0021929052 0.0014955348 -0.0025113141 -0.0038747159 0.0009956633 -0.0036518418 0.0024253682 0.0037602922 0.003462161 -0.0006973941 -0.0038409536 -0.0008708613 0.0031685715 0.0019355085 -0.0024704388 -0.003292919 -6.163819e-05 -0.0029957893 -0.00096282345 0.0005828321 0.0034247825 0.0031776833 -0.002611335 -0.0032382177 -0.0016937202 -0.0015936105 -0.003633809 -0.00211763 0.0033290817 0.0027492647 -0.0025237151 -0.0010261309 -0.0019504322 0.0008664269 0.0012300141 -0.0015481493 -0.0034279742 0.0026688748 -0.0006327457 0.0036112205 -0.0034519855 0.00347661 0.0006889648 -0.0029263326 0.0002153163 0.0021514453 -0.0021071746 0.0022480767 0.00035810156 -0.0003107518 -0.0011018612 0.0020691482 0.002075137 -0.0014936378 -0.0027662143 0.0026322359 -0.0022949553 0.0006158637 0.0028802706 0.002738139 -0.0025016402 5.1339386e-05 -0.002051802 0.00279557 -0.002127516 -0.0035066481 0.001972595 0.0013544593 0.002142643 0.00294289 0.00044381103 -0.0007745022 0.0012818722 -0.0015650259 -0.0031982597 -0.0030179482 -0.0003299828 0.0010465356 -0.0004981503 -0.0019615083 0.00055509625 0.0031677948 -0.0033241718 -0.0019549413 0.0019770323 -0.0014972865 -0.0037956887 0.00095873844 -0.0020806522 0.003600269 -0.0037495135 0.0009463033 -0.002706452 -0.0018081982 0.00019499923 -0.0013058741 -0.0011630235 -0.003837989 -0.0003929288 -0.00028305058 -0.0003661513 0.0023189548 -0.0014563896 -0.0021289762
135.008.060.182 0.0032750603 -4.007666e-05 0.0014306642 -0.0023932136 0.0020966853 -0.002211193 -0.000786525 -0.0032103474 -0.0030793264 0.0037203722 -0.0018163807 0.0007788638 0.0027115662 -0.00086121866 0.0009030008 0.00023774321 0.002867585 -0.0022397924 -0.003448204 -0.0005456552 0.0025738338 -0.002176606 -0.0034385773 -0.0018368796 0.0036525198 0.00068564434 0.003679018 0.0006024756 -0.0032326756 -0.0002878053 -0.0032027275 -0.00017473844 -0.002134555 0.0009881753 -0.0024984742 0.0038474582 -0.00290436 0.0005800306 0.0036315748 0.0012351068 0.0035229477 -0.0019920508 -0.0033648165 -0.0003221433 0.0034036257 -0.0020035051 0.0036149076 0.0017766634 0.0014734489 0.0020630541 0.0023240761 0.0003637691 -0.00066219905 0.0016658546 -0.00071642397 -0.0029239093 -0.001980671 0.0029840772 0.00012689493 0.003029838 -0.0038075948 0.0006378984 0.0024870601 -0.003849546 -0.00084056135 -0.0024778012 0.0005979347 -0.0020570704 -0.0027495944 0.0037794418 -0.00068985234 0.0021723872 0.0021647676 0.0008927609 0.0019563504 -0.0030861215 -0.00019070308 -0.00088545406 0.0035563833 -0.0005284651 0.0009804829 0.0018726714 4.768128e-05 -0.002871825 -0.002821228 2.1321408e-05 0.0018589256 0.00065022556 -0.0026019402 -2.6984018e-05 0.002698947 -0.0021232814 -0.0023000932 0.0006374261 0.0017545559 0.0029474366 0.0016879551 -0.002499239 0.0012965541 0.0019344952 -0.0025567429 0.0020126267 -0.0015634288 0.002977089 0.0011550187 -0.002167816 0.0015026525 0.00078959647 0.00076457823 -5.4930573e-05 0.0034871444 -0.0022912857 0.0023866869 0.0014724224 -0.0005699148 -0.0018065667 0.003485274 0.0020165092 -0.0016279441 0.0010048914 -0.0011232952 0.00365127 0.0025864614 0.00069044303 -0.00054912997 -0.0030479836 0.0023783054 -0.0012205591
209.069.023.253 -0.0036174834 -0.0032843545 0.0029536127 0.0005688945 -0.0005693823 0.0034324087 0.0019325372 0.0019052523 0.0016728533 5.7977268e-05 0.0022555583 -0.0014090232 0.003313176 -0.0017885155 -0.00080751145 0.0018254808 -0.0013902605 -0.0036958705 0.0020795623 -0.0036723632 -0.0005454239 -0.0015432378 -0.0017839196 -0.0027835807 -0.00092844426 0.00035134214 -0.00206459 0.003870623 -0.0010254165 0.0027634432 0.002306122 -0.0025249184 0.0036307347 0.00051563577 0.001035434 -0.002438749 0.0035361836 0.0018224329 -0.0034472332 0.0021603787 -0.002174663 -0.0036169053 -0.0036738252 -0.0018098181 -0.0017873137 -1.3148723e-05 -0.0020494114 -0.0033184395 -0.0032895843 0.002460925 -0.0034989812 -0.0018912446 0.00045690185 -0.00060094177 0.0023913663 0.0035971245 -0.00080140954 0.0036701157 0.00074233476 0.0005284 -0.0025238271 -0.0023521495 0.003576856 -0.0038960425 -0.0029534409 -0.0022297686 0.0016618803 0.0029905483 -0.00023284066 0.00056813064 -0.0024900665 0.00068851595 -0.0036298833 0.0016698332 -0.0038705457 -0.002490771 -0.00285423 0.00069613196 0.0012256773 0.0009907414 0.0029855247 0.00011105937 -0.003635719 -5.4623102e-05 -0.0002950795 -0.00028042978 -0.002741979 0.0037403998 0.001076598 -0.00034681332 0.0034485995 -0.00020097032 0.0013051219 0.003896293 -0.0026242244 -0.001647421 0.0038875102 0.0022523864 0.0010355845 -0.003840165 0.00030992684 -0.003209698 -0.0012350612 0.0015667874 0.0021608893 0.0022956938 -0.00079078047 -0.0015684152 0.0003182595 -0.0038132402 -0.0021692368 0.0024250485 -0.0016388436 0.0035900164 0.0024274043 0.00052848243 0.0015571327 0.001445479 0.0015391874 -0.00074864493 0.0031412528 -0.0036865335 -0.0023698353 -0.0001385228 -0.0027901735 -0.0029331248 -0.0020736977 0.0035015584
038.216.111.106 0.001570586 -0.003360411 0.0027840212 0.0038789082 0.0026581397 -4.5045766e-05 -0.001134728 -0.0032065648 -0.0013079814 -0.0009300998 -8.899675e-05 0.00023623495 0.0026232335 0.0028947215 0.0033375993 0.0004074715 -0.0013719767 0.00066181354 -0.0034282776 0.0016545398 -0.0010084328 -0.0035368197 0.003495116 -0.0023286757 -0.0018955906 -0.0038361556 -0.0022498704 -0.003256713 0.00062230177 -0.0005137949 0.002707761 -0.0026440283 2.401932e-05 0.0006393693 0.0028680265 0.00085781806 -0.0026795077 0.0004961403 -0.00014051665 0.00063841266 -0.0013057131 -0.0016916645 0.0028183511 0.0010789721 0.00019246883 0.001340741 0.00288631 0.00036359674 0.0022195994 0.00051887345 0.0037702739 0.00063842756 -0.0019312866 -0.0011281399 0.0012330026 -0.002835759 0.0004756311 0.00056281005 -0.0013648666 -0.0027455352 -0.002431796 -0.0013066191 0.0026148574 0.0019523684 -0.0016296526 -5.3546722e-05 -0.0028243694 -0.0014821463 0.0024667955 -0.0023099016 0.0016235402 -0.0038921107 0.00265038 0.0013075948 0.0017960367 -0.0007998028 0.0028065313 0.0018232932 -0.0019483664 0.0026062513 -0.0017384809 0.0020420016 0.00033682788 0.0025490096 -0.0002783132 -0.00021903928 -0.000563667 -0.0016354519 -0.0038715992 0.00034052797 0.00010873471 -0.0037850256 -0.0028241817 0.0024618257 0.0010616246 -0.001874343 0.0036837473 -0.0011417383 -0.0004415031 0.0009270877 -0.0037009043 -0.002995862 0.0031604236 0.002503094 0.00092524337 -0.003464699 0.002160587 -0.0033767638 -0.00016934972 0.003383896 0.0028740806 -0.0017765614 0.0038770258 0.0012542623 -0.00040612865 0.0029871927 -0.0009948787 -0.0022824483 -0.0033991507 -0.0032944202 0.0036715402 -0.003275565 0.0019050727 -0.0015464912 0.0017500947 -0.0015348801 0.0012883688 0.0014255514
172.016.112.194 -0.0017935688 0.00027606706 0.0011238023 -0.0034042997 -0.00020673907 -0.002038706 0.0023138465 -0.0015060103 -0.00083470833 0.0023909602 0.0030988017 0.002718471 0.00045579323 0.0013866953 0.0032585473 -0.002338453 -0.0034494442 -0.00046460336 0.00023284822 -0.0023383745 0.0029579562 0.0010281876 -0.00014115359 -0.0014055136 -0.0027816182 -0.0010474843 -0.0020261635 -0.0024797886 -0.0022779286 -0.00032020579 -0.0028486801 -0.0015593935 -0.0027087177 -0.0025296821 0.00030482883 -0.0036709155 -0.00081600016 -0.0024690416 -0.0016489422 -0.0028057352 -0.0024634732 0.002349696 -0.003340186 -0.0034928238 -0.0032342284 0.00056936714 0.00017574373 -0.0037813825 0.0017403828 -0.0018463319 -0.0019871572 -0.0030644126 0.0015351876 0.0012971467 -0.0021474648 -8.072118e-07 -0.0004970337 -0.00031425754 0.0035912 -0.0011417636 0.0015218055 0.0002639751 0.003546307 -0.0013005383 0.0034225665 0.00041559763 0.0026530575 -0.0035038227 -0.0038907586 0.0035608662 0.0010604269 0.0025644812 -0.002521081 0.0033052715 -0.001794782 -0.0013060825 -0.0016703643 0.0022773398 0.002465625 0.003065541 0.0014288683 -0.0009971089 -0.0013170438 -0.0023534533 0.002897077 -0.0017407355 -0.003888173 0.002565106 -0.0037217494 -0.0034083135 -3.0278414e-05 -0.0031983166 0.003406833 0.0030643092 -0.003670841 0.002879304 -0.00035874455 0.002268341 4.913472e-05 -0.0015643327 -0.0015880283 -0.0010035824 0.0009935384 -0.00044368237 -0.00024426763 0.0036730503 -0.0023423594 0.002626529 -0.00013475779 0.0027083578 -0.0028378302 4.1985615e-05 -0.00012565746 0.0031775872 0.0018760116 -0.0029728587 -0.0025445363 -0.0015112392 0.0019716772 -0.0032716047 0.002065963 -0.0019033444 0.00038390633 -0.0012337872 0.0032159518 -0.00032040404 -0.0021759477 -0.0008717519
230.001.010.020 0.0018956895 0.001995193 0.0021500262 0.00064406445 -0.003609938 -0.0029080156 -0.0008697953 0.0013372758 -0.0035253945 0.0014865836 0.00046542473 5.1612857e-05 -0.002897245 0.0018392783 4.4394787e-05 0.0034581185 -0.001834093 -0.0012252069 -0.0025716561 -0.0025177645 -0.002335174 -0.003434941 -0.0007841047 -0.0030225823 -0.0034919225 0.0033011928 -0.0026784784 -0.0019301039 0.002797655 0.002075362 0.003673574 -0.0023102153 0.0029243818 -0.0027485855 -0.0015706951 0.0018258968 0.0035869097 -0.0026821767 -0.002889915 0.0029378512 -5.3677217e-05 -0.0021792545 -0.0011541292 0.0036459817 -0.00058854773 0.0010157486 3.354254e-05 -3.6676596e-05 0.0009765057 -0.0029331022 -0.0025848825 0.002959757 0.0007641748 -0.0038194961 0.00045810945 -0.0021415772 0.00075370993 -0.0039018984 0.003100713 -0.0004139762 0.0030119529 -0.0007177371 0.0021638977 -0.0006498967 9.71515e-05 -0.0024969787 -0.0036236679 0.0009079448 -0.002682643 0.0017675727 -0.003301451 0.0005986781 0.0032634973 0.0017776128 0.0009823424 0.0030857834 0.003188611 -0.0014445272 0.0037766602 -0.0036917506 0.001740424 0.001822376 -0.00022217774 0.0014884095 -0.0033148977 -0.0020747974 -0.00052100775 -0.0018156309 0.0011818777 0.0013029339 -0.0014432427 0.0013458899 -0.002326848 0.0015503241 0.00019025712 0.0007555007 -0.0034190405 0.00014194429 -0.00032915125 -0.0033813496 0.0013359868 3.0449659e-05 -0.00050970516 0.00078339234 -0.0018292208 0.0037060748 -0.0006247936 0.0037120215 -0.0006882771 0.0023416444 0.0014175 -0.0007531952 -0.0025184199 -0.001863279 0.0014517484 -0.0036087239 -0.0015544582 0.0002716346 0.0015846833 -0.002657332 8.090691e-05 8.932244e-05 -0.0019481122 0.0017029281 -0.0018338561 0.0005195355 -0.0011405847 0.0025644437
196.037.075.158 0.0005076849 0.00075480505 -0.0035497346 0.00063568837 -0.0030198714 0.0030583213 -0.0024098377 0.002904478 -0.0038890229 0.0010955117 -0.0020351887 -0.00039450105 -0.0023629798 -0.00035680368 0.0019448089 -0.001996656 0.0020670167 0.0019656443 -0.0022028508 -0.00073044916 -0.0036300574 0.002729818 -0.0018999701 0.0034509029 0.003577992 -0.002448005 0.0030662098 -0.0007010807 0.0007278688 -0.0037125885 -0.0016988947 -0.0026888717 0.0035514086 -0.0013280102 0.00020430108 -0.0012482265 0.00011487644 -0.0035318013 -0.00094043964 -0.0037246896 0.0007426814 0.0033789484 -2.7312539e-05 -0.0014655578 -0.00021000093 0.0006215315 0.0034356469 -0.0015737456 0.0019556193 0.002554227 -0.001437343 0.0009028396 -0.0015954353 -0.0031921782 -0.002530802 -0.003137985 -0.002487441 -0.0006890797 -0.001498905 -0.0015987031 0.0016777561 0.0005977401 -0.00020100603 -0.0017844889 0.0016294022 -0.0038257325 -0.0022700962 -0.0026332368 -0.0020798005 0.00073511834 -0.00060617964 0.0014015466 -0.002211697 0.0029291715 0.002654417 -0.0018540192 0.0020599824 0.0006710652 -0.0028976095 0.0023937956 0.0029629995 -0.0034190414 -0.0033238514 -0.0029333683 -0.00020671736 0.0002763305 3.9798953e-05 0.000727181 0.0034749045 -0.0038841702 0.0030514724 0.002500399 -0.0010524107 0.0014381633 -9.358077e-05 -0.0007147715 -0.003484755 4.9431517e-05 -0.0020084933 0.0015527558 -0.00363036 0.0029866053 0.0027748079 -0.0028716412 -0.0029481573 0.0029194204 -0.0038842142 0.0010232908 -0.0028628665 -0.0027787725 0.0030660324 -0.0027063333 0.0022843557 -0.0025136322 -0.0026885245 0.0037992236 0.002654158 0.003009996 -0.0036190825 0.002045768 -0.0003139708 0.0008387347 0.001369013 -0.0036071823 0.0030612545 -0.0037406685 -0.0019107398 -0.0023591884
172.016.117.132 -0.002912125 -0.0013866463 -0.0013888681 0.0007891196 0.0028115623 -0.0024241256 0.002218584 -0.0008445363 0.00015568163 0.00032661262 -0.0015330234 0.0012310334 -0.0024188363 0.0006193855 -0.0031670094 0.0013409609 -0.0014123673 -0.001034992 -0.00041902182 -0.0034948098 0.001418045 -0.0021247345 0.0015854875 0.0011982841 0.002966297 0.0007419631 0.00061887485 -0.00049181224 -0.0011547208 3.7129084e-05 0.001020221 -0.0035937077 -0.0028652367 -0.0024733716 0.0029234693 -0.0035317387 -0.0022877182 0.00012552697 -0.0014999213 0.00087287923 0.00028560273 0.0034240042 -0.0034135825 0.00011149524 -0.002332665 0.0007467597 -0.0006786676 -0.00041315693 0.0011997494 -0.0005838394 -0.0007485683 -0.0019924426 -0.0037177813 0.0037675125 0.001810153 0.002260446 0.003479985 -0.0022391041 -0.003374359 0.0036443486 -0.0027044343 0.0022746527 -0.0010026417 0.0033242777 -0.003699051 0.0028992135 -0.0037572903 -0.0016893252 -0.0030374525 0.00010278458 0.003026609 0.0027748132 -0.0001887792 -0.003044976 -0.0028051788 -0.00090225914 0.001157327 -0.000990053 -0.0018578761 0.0018619405 0.00087156356 -0.0016116189 -0.0024888336 -0.0025797929 0.0019623474 0.003054139 -0.0022323339 -0.002231284 0.00013855519 0.0015781103 -0.0033851517 -0.0015735723 -0.0021786257 -0.0019177479 -0.0030352895 0.0016593041 -0.0008720184 0.0007521153 -0.003582378 -0.0004991078 -0.0023405782 -0.00021286379 -0.003105161 -0.0017092437 0.0019867504 -0.00032588848 0.00046209965 0.0006532576 -0.002826914 7.282477e-05 -0.00023868012 -0.0030398867 0.0029388948 -4.588326e-05 -0.0023929449 -0.002617124 0.0018643445 -0.0010392057 0.0027706898 0.0034022967 -0.0025518616 -0.0016632478 -0.0022952773 0.0023602904 -0.002578782 0.0007070922 0.0036638943 -0.00084862
194.027.251.021 -0.0027511038 0.00044454518 -0.0033763368 0.00015953199 -0.0022844812 -0.0028926223 0.00016172972 -0.003736557 -0.002622941 -0.001244546 -0.0019854144 0.0025721302 -0.0014145283 0.0028524476 -0.0024648935 0.0037541308 -0.0002883399 -0.0011930158 -0.0034970094 0.0036536905 0.0020667566 0.0009278178 -0.0037366454 -0.0011848869 -0.0011686833 -3.6264697e-05 0.0024064074 -0.0010744072 -0.0036490217 0.0025612046 0.0008406163 0.0011432267 -0.0006205293 -0.0032802706 -0.0018043849 -0.0017169339 0.0019129623 0.003635017 0.0029750215 0.0009186913 -0.0009841499 -0.0031900015 0.0037745917 0.0002484927 -0.0038925314 -0.0038394665 0.0016944367 -0.00062690687 -0.0016864642 -0.0011065677 0.0032859086 -0.0033481107 0.0025500883 0.0020298047 0.0019617644 -0.0009891101 0.0036962908 0.00031521107 0.00083022175 -0.0016657839 0.0010059213 0.0005228902 0.001743709 -0.00011335468 -0.0033134085 -0.0036164161 -0.0037858426 -0.0001685337 0.00096206146 0.0015650508 0.0019899544 -0.002787826 -0.0015942702 0.001128308 -0.003229785 0.00013292416 -0.00015769906 0.0026593283 -0.0026594633 0.0034012394 -0.0007748782 -0.0022989674 0.0020958267 -0.001863481 0.0004308633 0.0018581963 -0.00039079122 -0.0024874755 -0.0034075917 -0.000417446 -0.001452922 -0.00036295087 0.0036534218 -0.0025497058 0.001994484 0.0017425063 -0.00017000336 -0.0014099311 -0.003748523 0.0007289211 0.0018521933 0.0009388954 -0.0010159411 -0.0021648484 -0.00012998837 0.0015014316 -6.306809e-05 0.0012362436 0.0028446706 -0.0022556158 0.0029470893 0.0012961754 -0.002203704 -0.0030594245 -0.003496043 0.00015643504 -0.0034098518 -0.0018319297 0.0004828184 -0.0011057854 0.0025176033 -0.0023439738 -0.0018517028 0.0014730932 -0.0005035437 -0.0008613025 0.0034168118 0.0007266709
192.168.001.090 -0.0022086203 0.00040239294 -0.0010584203 -0.0014186234 0.0009334745 -0.0026686364 0.0011939538 0.0023265777 0.0012030246 0.0035053706 -0.0018651978 -0.0008863688 -0.003891117 0.0035294527 0.0030634368 0.003117439 -0.0014435151 0.0023886259 0.0036861761 -0.00025856623 0.00021965305 -0.0037743095 -0.0036341508 0.0022932156 0.0032056288 0.002177533 -0.00061849924 0.0030834223 4.535284e-06 -0.0006141836 -0.0030071628 -0.0027270648 0.0015431951 -0.0032227163 0.00021402455 -0.0007907773 -0.0034694097 0.00075898605 -0.0008009756 0.00041541492 -0.0009261604 -0.0020398644 7.877978e-05 0.0022166204 0.00061988056 0.0022169286 0.0028583873 -0.0035776384 -0.0004022761 -0.0038876622 2.2441634e-05 0.00055757473 -0.0020898418 0.0022400068 0.0009891553 0.0016724477 -0.0011682952 0.0015560616 0.002178942 -0.003536837 0.0026405423 -0.0016078401 0.00043020333 0.00030006593 -0.00044311877 -0.0017770196 0.0010345671 0.0011982683 0.00019551528 -0.0023720062 0.0012130988 0.000631832 -0.0013150023 -0.0038226019 -0.00049860275 -0.00020433361 0.001497463 0.0029257366 -0.0009003386 -5.638289e-06 0.0033990145 -0.0020747785 0.003811986 -0.0035172787 0.0026070646 -0.002315209 0.0022719328 0.0032276195 -0.0038607083 -0.002636065 0.00037689236 0.003420296 -0.0009533888 -0.0025123605 -0.00024746245 -0.00084855856 0.0020095387 0.001951059 0.0036138957 0.0009355768 -0.002908661 0.0033034033 0.0023517609 0.0025417896 0.002692642 -0.00028818558 0.0037791329 0.003429604 0.000121628604 -0.00053949276 -0.0011756056 0.0033038293 -0.0021610125 0.00055262423 0.0025244313 -0.0013377387 -0.003200394 0.0028366102 -0.0028139444 0.00087560737 0.0037020766 -0.0021163472 -0.0022381393 -0.0030677898 0.003605742 -0.0032960149 -0.00085465214 -0.0034753473
172.016.113.084 -0.0038673575 0.0015943395 -0.0030904983 0.0011484529 -0.0017547763 0.00073991437 0.0009910478 -0.0034196354 -0.0010177428 0.0021139146 0.00091625727 0.0024166561 0.0032086233 -0.0008019897 0.00062615174 0.0011761434 -0.0002745373 0.0037856626 0.0028829766 0.0018887218 0.0037607537 0.0027397792 0.001613964 -0.0026343358 -0.0025653401 -0.00042773862 0.0012136436 0.0014795436 -0.0010807711 -0.00040594224 -0.0013569175 0.0013944984 0.0017069795 0.0027838224 0.0010141623 -0.001883352 0.002189824 0.0002038336 0.0008223215 -0.0010578744 0.0037583867 -0.0027822475 -0.00027896592 0.0024341063 -0.00047499314 -0.0037216991 0.0017100298 -0.003725863 0.002824227 -0.0031945286 -0.00347163 -0.0011750779 0.0023166875 0.00012787587 0.001687734 -0.0023077754 -0.0025919592 0.0019282495 0.0023883283 -0.00283068 -0.0012195262 9.909402e-06 0.0003247937 0.0031967633 0.0023845073 -0.001166915 0.0013079154 -0.0010113732 0.0026777908 -0.002353692 -0.00046077714 -0.0026231105 -0.0016262878 -0.002372366 0.0016778936 0.002148618 8.25056e-05 0.0019886894 -0.0037428627 0.00012606509 0.0004903572 -0.0022578402 -0.001960246 -0.0026183925 0.0013111348 0.0029099078 0.0022617748 -0.0038519248 0.003406472 -0.0031636506 -0.0027856803 0.0038944713 -0.0032878893 0.0019919095 0.0027975037 -0.0018570629 -0.0029157682 0.00045505137 0.003057404 0.0020159332 -0.002171517 -0.0016385142 -0.003355256 -0.002383611 0.0005637709 -0.00089603185 -0.00017279926 -0.0038963214 -0.0014195414 0.0021590088 -0.00059922226 0.0015865135 6.712092e-05 -0.0008928381 -0.0010570461 -0.0007226348 0.00069342024 -0.0006747251 0.0031774002 -0.0015666938 0.001932054 -0.0023652348 0.003434451 -0.0028790906 -0.0023739298 -0.00094942335 0.0024126898 -0.00085979456
172.016.116.201 -2.9845845e-05 -0.0023812454 0.0038833418 -6.150543e-05 -0.0017428927 0.0012586947 -0.0020780554 -0.0033014829 0.0025118247 -0.0022636126 -0.0015756242 5.4564738e-05 0.003498763 -0.003652527 -0.0019032225 0.00035017185 0.002176912 -0.0020154978 0.0011251671 0.00074451166 0.0026616184 -0.0023893432 -0.0031247742 0.002338927 0.0021778268 0.0021293112 0.0030824575 -0.00061253714 -0.0028988887 -0.00039264662 0.00022153833 -0.0026002745 -0.0021066521 -0.0037492728 0.0036692044 -0.0021674968 3.208694e-05 -0.0011927634 0.00066297106 -0.0035991226 0.0013131055 -0.001965523 -0.0026453964 -0.0038515574 0.0036318812 -0.0034696038 -0.00023429119 0.0024790985 0.0036660635 0.003297867 -0.0023116416 -0.0018650317 -0.0014884309 -0.0023061621 0.00061748 0.0021137688 0.00038700143 0.0033823745 0.0016584774 -0.0037589837 -0.0036906295 0.00048523786 0.0027053328 -0.0007116997 0.0022282163 -0.0005139188 0.0015957899 0.0012864891 0.0034937335 -0.00063515594 -0.0024952607 0.002535144 -0.0019762402 -0.0036918537 -0.0003574253 0.0022228456 0.0024346213 -4.3583947e-05 -0.0030047125 -0.00032757295 -0.0006131255 0.0016032427 -0.00020218041 0.0021003247 -0.002339224 0.0029703001 -9.247902e-06 -0.0007179975 0.000592202 -0.003001491 -0.0038015211 -0.0023496565 -0.0011200708 -0.0037566058 -0.00024361612 -0.00039010737 0.0029851382 0.003252368 -0.0008094651 3.5015514e-06 -0.00052797084 -0.00028923174 0.0007535016 -0.002817004 -0.0014206779 -0.00043428055 -0.0021285536 -0.0035073375 -8.721174e-05 0.0034137734 -0.00013531686 -0.0011363463 -0.0033916533 2.2222337e-05 0.003234994 0.0034907563 -0.002162583 -0.0013505784 0.003893838 0.0008816469 0.003454212 0.0026460635 -0.003199503 0.0007407042 0.0017674024 0.0036111518 0.00011587484 0.0037637278
172.016.115.234 0.0009823585 -0.0030752083 2.4788655e-05 0.0028036586 -0.001640072 -0.0011670087 0.0019682006 0.00020984386 0.0023287386 0.0007496446 0.00046030327 -0.0024912697 -0.0029045453 0.00026861936 0.0017217121 0.0018409314 -0.0015514154 9.904397e-05 -0.0002674932 0.002312674 0.0011490574 0.002678158 0.00018885685 0.00065698836 0.00088632246 -0.0009626089 -0.003345952 -0.00097249437 0.0024621077 -0.0016529432 -0.00075187476 0.002819083 0.0018353447 -0.0023203634 0.00079029426 -0.0019738844 0.002574555 -0.0035375084 0.0017613374 0.0015634873 0.001815322 0.0019977132 0.002115729 0.0019414675 0.002319919 0.0038952276 0.0025195251 -0.0010843258 -0.0011162149 -0.001542943 -0.00342913 0.00024870073 0.00036449783 -0.0020506948 -0.0003200292 -0.000676639 0.0028557894 -0.00047242973 0.0025032808 0.0018937055 -0.002206377 -0.0002516954 -0.0038523625 -0.002520898 -0.0031928353 0.0014324359 -0.0010533171 0.0025772115 -0.00031163634 0.00340184 0.0002553146 -0.0014472853 0.0019945852 -0.0019967882 -0.0007965003 0.00085349445 -0.003497825 -0.0015803699 -0.00089219253 0.0026392725 -0.003245012 -0.003652958 0.0022366776 0.0014159755 0.0023904676 0.0037447098 -0.0024257398 0.002261646 -0.00040423492 0.0011101087 -0.0027145355 -0.002548118 0.0038762798 -0.0024910155 -0.0034588776 0.0027034548 0.0031770805 -0.000112678914 0.0029827824 -0.00096343923 0.00083019433 -0.0026372736 -0.0015876474 0.0025055583 -0.0030039938 -0.0027448363 7.799059e-05 0.0034377342 0.0014228282 0.001447935 0.0019947572 -0.003703529 -0.0027537746 -0.0011372941 -0.0021211246 0.0005822676 -0.002952322 -0.0018541459 0.0033767922 0.002881834 -0.0017740509 0.002475469 -0.0017192214 -6.8515015e-05 -0.0007937939 0.00056833506 -0.0032710133 -0.001566182
