275 128
194.027.251.021 -0.00847052 -0.0011472428 -0.008002889 -0.00068065926 -0.011050087 -0.0068350984 -0.0029217275 -0.0034333973 -0.010123719 0.0010398511 -0.001000473 0.003957799 -0.009315211 0.012924559 -0.005403653 0.007880319 -0.0059874943 0.003112281 -0.014706564 0.010460484 0.0023487348 0.00094159145 -0.008286016 -2.6383126e-05 -0.003735515 0.004292396 0.008439947 -0.0018339911 -0.008868188 0.0063201357 0.007058301 0.003897431 0.0004335823 -0.005149568 -0.0024913428 -0.0031405063 0.008153253 0.007848713 0.002125184 0.0022920293 -0.0004970778 -0.0038336676 0.0066730273 -0.004685792 -0.0031833886 -0.0086506205 0.004485802 0.0030365125 -0.0046765525 -0.011202852 0.0114396615 -0.0037386443 0.008192805 0.00862105 0.0055735633 0.0019570205 0.0052604876 -0.0033358533 0.0066819103 -0.009352692 0.004735333 0.0036485062 0.0024228604 -0.00012415746 -0.009565188 -0.013131724 -0.0053794766 -0.0044673313 -0.0021234255 0.0027289954 0.0066391323 -0.0095431665 -0.0075679515 0.0025735 -0.009263982 -0.002505729 0.0021830823 0.012136188 -0.011540311 0.0057234494 8.021158e-05 -0.007945117 0.0073470073 -0.005661669 -0.0015415146 0.0008708449 -0.0003012798 -0.00037322685 -0.0044282465 -0.003872997 -0.0043128347 -0.0027347442 0.010143744 -0.0014768386 0.011263722 0.0056483205 0.0012095319 -0.006862663 -0.010214863 0.003615573 0.00081576995 0.004894335 0.0011864329 -0.0050920197 0.0016887946 0.008216194 -0.006725624 0.002692818 0.0050226883 -0.009429696 -0.0015727978 0.005324932 -0.0025924637 -0.0121973725 -0.006826069 0.0020829649 -0.0012482351 -0.0037885844 0.00373345 -0.0022609043 0.0030988634 -0.0050380845 0.0017160968 0.0012582862 -0.0005446373 -0.0015808925 0.0032299333 0.0030533946
192.168.001.001 -0.0022335388 0.00073481095 -0.0020641852 -0.001694272 -0.008479674 -0.00016313011 -0.004992157 0.003258231 -0.0053729103 0.0037713528 0.00035334437 0.00036717247 -0.0048453137 0.008045952 -0.0009121803 0.0018115576 -0.0069224173 0.006570784 -0.010421477 0.0059792604 -0.00053798786 -0.0013077657 -0.00033724433 0.0023085142 -0.004298993 0.003384993 0.0057746824 -0.0035494247 -0.0023276112 0.0028974954 0.0062691174 0.0043642507 0.0015948105 -0.0010073176 0.001791579 -0.0006223912 0.004654571 0.00088699994 -0.0025926954 0.003933862 0.0029889918 0.002416787 0.001963933 -0.00585316 0.0037060473 -0.0019475003 0.00336837 0.0050838194 -0.005729067 -0.008828454 0.008216034 0.0034517355 0.004701151 0.006518631 0.002442918 0.0044093058 -0.0009904883 -0.004582484 0.005850067 -0.0083361445 0.0036982212 0.002394122 -0.00036332876 -0.0006471057 -0.005763239 -0.009213304 0.0012092959 -0.0062997686 -0.0049652616 0.0012223908 0.0028045902 -0.0069612646 -0.0068918588 0.00051396864 -0.0014203289 -0.002231019 -0.0013103308 0.008604146 -0.0059867133 0.0028050418 0.003958164 -0.006137785 0.0047783465 -0.002445041 -0.0025576327 -0.002791792 0.0025336528 0.0046652285 0.0020741243 -0.0034348136 -0.0014085594 -0.0024841186 0.005519086 0.0040502073 0.008048753 0.0036735223 0.0015583915 -0.007160914 -0.0013838063 0.00080116326 -0.0031087198 0.0048917574 0.002131542 0.0021682924 0.0040512495 0.00607068 -0.0060638986 0.0008448289 -0.0012372036 -0.0068340893 -0.0054041767 0.0028026288 0.0014539799 -0.0061872755 0.0006486928 0.0013657059 0.005464848 -0.0029618756 0.003192983 0.00034608174 -0.0026422115 0.0007931979 0.00546435 -0.00081842684 0.0016212877 0.0020947328 -0.0021151553 0.0034935374
195.115.218.108 0.00012570877 -0.00010865873 0.0016404663 0.0011358614 -0.005617782 4.3098204e-05 -0.003288181 0.0038813339 0.0007891132 0.0023318233 0.003496372 -0.0005647841 -0.0056644543 0.002136037 0.0005136342 -0.0007151773 -0.0020324138 0.003121728 -0.0029925802 -0.00019342704 -0.0038257274 0.0013638958 0.0026163142 4.7053065e-05 0.0022492108 -0.00071071275 0.0032750298 -0.0025693963 -0.00095881225 0.00275922 0.0044041565 -0.0014897623 0.002933616 -0.0030519124 -0.0012694243 0.0014238731 0.0049103796 -0.0024879999 0.0020761152 -0.002406516 -0.0036420182 -0.0021224522 0.0044937716 0.0015519024 0.004271984 -0.0014190687 0.00033038063 -0.0019653062 -0.0013320077 -0.006064838 0.00062804454 0.00012243834 0.0026530758 -0.0011687574 0.004568165 0.0044279257 0.00015099415 0.0010263541 0.00387662 -0.0048686494 -0.0007214697 -0.00010021119 -0.0022667828 0.000741551 0.00034593954 -0.0017076016 -0.002409588 0.00020522882 0.0028051788 0.0033281406 0.0025442229 -0.0049098074 -0.002789961 -0.002415442 -0.0006275502 -0.0023878564 0.0013742785 -0.0006871284 5.8875885e-05 -0.0028179742 0.0021476834 0.0023361747 -0.002642464 -0.00082314695 0.0025131763 -0.0022400634 0.0004501245 0.0015261472 -0.00034435815 0.0018850226 -0.0029922554 -0.0030064862 -1.643873e-05 -0.0028914819 -0.001841883 -0.0030763994 0.0036469395 -0.00047160353 -0.0023772577 0.0024303782 -0.0008495208 0.00010704391 0.0045891423 -0.0004935261 0.00031926346 0.0050650425 0.0002805186 0.0014476982 0.0010517588 -0.0052434597 -0.0051501123 0.0004399248 0.002076219 -0.0035034346 -0.00068279234 0.004177726 0.003382461 -0.002104231 0.003630827 -0.0017157253 -0.0018500384 -3.4191355e-05 0.0032203188 0.0003200413 0.0004425119 -0.0035476268 -0.002960867 -0.0029055688
172.016.112.149 -0.003829077 -0.004550896 0.00063719344 0.0033678105 -0.0022584088 -0.0025845135 -0.0010066873 0.0005960178 0.00094490167 0.0015107001 0.0036646368 -0.0032453814 -0.0066409567 0.0026146972 0.00060316187 0.001616335 -0.0030994983 0.0025796562 -0.00723703 -0.0013199018 -0.0023730474 0.0018296399 -0.0014931 -0.0012930231 -0.0011439736 0.004078172 0.0045946497 0.0010833038 0.0010425936 0.0018045628 0.003659775 0.0010620056 -0.0010667745 -0.0029366165 0.0032964917 0.0016351985 -0.00016167374 0.00017044894 -0.00094550796 -0.0018378732 0.0035255111 -0.00032457378 0.0039718836 -0.004566597 0.0024288094 -0.0039511556 0.0045055198 0.0015729422 0.0028825905 -0.0049236338 0.0043901396 0.0018766918 -0.0015134134 0.005594496 0.0021415828 -0.0021957688 0.0012268502 -0.002098866 0.0044813207 -0.0004933806 -0.0002894065 0.0019274323 -0.00084237906 0.00039796627 -0.0025195216 -0.0023536745 0.0021877831 -0.0047123814 -0.0027698956 -0.00061170803 -0.00046434562 -0.0038380786 0.001786297 0.0012990494 0.00046293598 -0.0033502218 0.0050970614 0.0056942143 -0.0039691995 -0.00019504434 -5.3638083e-05 -0.0026309744 0.000858001 -0.0040735793 0.001173095 -0.0032169924 0.0035617696 0.0045381943 -0.0026353067 -0.0048693037 -0.0029661013 -0.0037036436 0.0015290834 0.0021436345 0.0047156806 8.130916e-05 0.001631478 -0.0040484844 -0.005364716 0.0030724993 -0.002935749 -0.0013391839 0.000982439 -0.0019801606 0.0030769135 -0.0009459018 -0.000273933 0.0014422635 0.002662096 -0.00015592689 -0.0047895997 -0.0015203139 -0.00029947396 -0.0047773495 0.0003237112 -0.0024269768 -0.0012360562 0.002607957 0.00050243177 0.0032426417 0.0041191885 0.00012964921 0.001398862 -0.0022224796 0.0014268551 0.00092701614 -0.002496466 0.0011049992
195.073.151.050 0.0002374585 -0.0031891093 -0.003097204 -0.0017309145 -0.0046145907 -0.0034137385 -0.00063721836 0.0028137374 -0.0030353677 0.0031660206 -0.00030979316 0.00089068303 0.00020762299 0.0044095004 0.0026297488 0.0022688583 -0.00072586344 -4.7473757e-05 2.016507e-05 0.0011749407 -0.0020520103 -0.0035229856 0.00014052067 0.0006239955 -0.00072790723 0.004270941 0.0021603957 0.0018270661 0.00055201614 0.0036600267 -0.0022419153 -0.0014396356 0.0013588542 0.002130528 -0.00011167013 0.00021385669 0.004433159 -0.0004197053 -0.0015113228 -0.00067808275 0.0015392078 -0.0032256488 -0.0019411234 -0.004200117 0.0036019513 0.0004364374 -0.0023077426 -0.0015242972 0.0041889334 -0.00026874512 0.004184353 0.0017433966 -0.00010892493 0.0026669614 -0.0010740996 0.0010165299 -0.0016322222 -0.0021908032 0.004378424 0.0015775689 -0.000870129 -0.0010869115 -0.00316008 0.0037142627 -0.0027380607 -0.0010203924 -0.0026965267 0.0014229919 -0.00146186 0.0020298965 -0.0008407172 -0.0034481615 -0.00086486264 0.002394206 -0.00057525816 0.00030136283 0.005003752 -0.00031029995 0.0020240461 -0.001963836 -0.0034530403 0.0015407155 -0.0019891402 0.00029428303 -0.0012648506 0.0030294354 0.0010845538 -0.0027102942 0.0010616782 0.0027200282 -0.0016138062 -0.004277354 -0.0020434924 -0.0026395002 0.0036272274 0.0034383049 -0.00096708204 -0.0019702667 -0.002980472 -0.0004110987 0.0021770475 0.00014827284 0.0006422213 -0.0031814475 5.297888e-05 0.0030337197 0.0008791657 0.0003054367 -0.0029871492 0.00073554914 -0.0049971505 0.0023687584 -0.00049176294 -0.0049986234 -0.003143695 -0.0021965909 -8.617913e-06 0.0026595413 0.0023156516 -0.0019574321 -0.0038978027 0.0017216995 -0.0023319595 -0.00097586523 0.0035639228 -0.003110396 -0.0035427974 0.0025311415
172.016.112.207 -0.00057527627 -0.0034616108 0.0007830214 -0.0037333968 -0.0016896464 -0.0015248269 0.0005948596 -1.6374079e-06 -0.003867318 0.001764754 -7.391681e-05 -0.0010580146 -0.0055072075 0.0041032685 -0.002097157 -0.0031096085 0.00083541014 0.00046344567 -0.004748684 0.0033091 -0.0027631915 -0.0011160069 -0.0046260813 -0.00015271368 0.0013952408 0.0017355967 -0.001449778 -0.0011230999 -0.0037818735 0.0008995869 0.003346699 0.0014417231 -0.00071185065 0.0039982656 -0.00069143175 0.0018890115 0.003709619 0.000216376 -0.0024557943 -0.001935529 -0.0040312135 -0.0025641483 -0.0038745892 -0.0020092449 0.001622137 0.0031086018 0.0019185964 0.0008178694 0.00031710323 -0.0045374394 0.0011621424 -0.0028848762 0.0010403976 0.004440762 -0.0025435812 0.0018651861 -0.0036296817 -0.004677864 -0.00041261796 -0.0012243742 0.0004841493 0.0012617374 -0.001355456 -0.0017442302 -0.003065007 -0.0001668036 0.0033209883 0.0001977581 -0.0038547802 -0.0032900355 -0.000103906044 0.0013640557 -0.0019179259 0.0017649495 -0.0049504424 0.000986315 9.545946e-05 0.0012062347 -0.004885741 -0.0036608211 -0.0021917494 -0.0028436508 0.00042198534 -0.0021131802 -0.0006587759 -0.00022812848 -0.003564586 0.0047477894 -0.00093080127 -0.00065608503 -0.0030247315 -0.0042541213 -0.00054449507 0.0022239082 0.0010050638 0.0039791367 0.00071301 0.0010520358 -0.0038032506 0.0034848321 0.00019765501 0.0019544964 0.00051277986 -0.0029773505 0.00022134137 0.0016774164 -0.004435079 0.0035624048 0.00091209606 -0.0037933486 -0.0027205788 0.0029998545 -0.0006966278 -0.005311343 -0.0042245407 0.0039926926 0.004652088 -0.0005645313 0.0015133356 -0.0027749655 0.0007267904 -0.0022330498 0.00047788295 -6.37864e-05 -0.0026322033 -0.0016941524 -0.002482218 0.0011183219
172.016.113.084 -0.0046744687 0.0004930558 -0.0033809827 0.0012476483 -0.002606074 0.00013134081 0.0007039396 -0.0026129899 -0.0018946033 0.0022928473 0.001983174 0.0019128 0.001205559 0.0005911996 0.0003227511 0.0013680817 -0.0011835742 0.0039853267 0.0018087113 0.0021522858 0.003118177 0.0023868347 0.0007589094 -0.0019649873 -0.002172155 0.0009471127 0.0016792394 0.00234575 -0.001694709 -0.00017116226 -0.00047833196 0.0011319105 0.0020479509 0.0033651239 0.00064893975 -0.0015005548 0.0026135598 0.00062247773 5.386226e-05 -0.0017596001 0.003254124 -0.002114405 -0.0010979405 0.001746861 0.00020656022 -0.0042150454 0.0015028331 -0.0029271638 0.0037179163 -0.0050365906 -0.002674086 -0.0009093548 0.0022808034 0.00082736614 0.0019239101 -0.001696945 -0.0029141838 0.0015451212 0.0029494152 -0.0031993496 -0.0010206546 0.00036957103 0.000282621 0.003308007 0.002048372 -0.001996113 0.0016594983 -0.0013601693 0.0022378054 -0.0027761187 0.0006000139 -0.0024393615 -0.0015850285 -0.002149137 0.00054403127 0.0011318122 0.0016152959 0.003130618 -0.004855507 -0.0010607446 0.00014774424 -0.0022376277 -0.0014815368 -0.00273827 0.00093130925 0.0024095771 0.0017603338 -0.0031679806 0.0032771337 -0.0033023953 -0.0028613545 0.003616922 -0.0031490545 0.0020255568 0.004400823 -0.0013299339 -0.0026317632 0.00048611296 0.0019155873 0.0025322577 -0.0022909218 -0.0011908256 -0.0022781773 -0.0031595074 0.00040180105 -0.00013773506 -0.0014049037 -0.0037409577 -0.00095466175 0.0015143193 -0.002619399 0.002013164 0.00025821902 -0.0021954605 -0.0010862618 -0.0002800886 0.0016085882 4.6287903e-05 0.003452929 -0.0017954819 0.0017835624 -0.0026335365 0.0042809164 -0.003334434 -0.0027062518 -0.0015450574 0.0017342081 -0.0011523573
204.123.002.093 -0.0015233413 0.000777137 0.0016410105 0.00021379553 -0.003513676 0.00029990953 0.0022688098 -4.1500734e-05 -0.0026059314 0.0017307062 -0.00045170353 0.0018784145 -0.0007754858 0.0007803121 0.0023093175 0.0030828752 0.00046323004 0.0035311885 -0.004919288 -0.0008837852 -0.0025029632 0.0016402608 -0.0033795529 -0.0019654627 0.0015147092 0.0041772206 0.003071788 0.0028726 0.0019915288 0.0042177965 0.0013355503 0.003107044 0.0011512734 0.003621946 -0.0018797297 0.0021088126 -0.0019725251 -0.0010544579 -7.5420676e-06 -0.0015029092 0.0015951089 0.0005558615 0.00013507392 0.00028012038 0.0014595494 -0.00093322364 -0.0022761 0.00070814934 0.0014841481 -0.0044876873 -0.0022608887 -0.0029279762 7.204361e-05 -0.00068457593 -0.0017614082 -0.0029176099 -0.0013638124 0.00035804918 0.0041971076 -0.0021374137 0.002586741 0.00042743888 0.0037908384 0.002147304 0.0005390756 -0.004960107 -0.0010060022 -0.001727176 0.0005911945 -0.0021795335 0.00045092698 -0.0034338122 -0.0029285147 0.003827231 -0.004634883 -0.002984614 0.0015622606 0.0012884818 -0.003035095 0.0023714083 0.0012704956 0.00012726743 0.00036060173 0.0013169011 -0.0035453162 0.003299876 -0.0036437814 0.0011490663 -0.003575273 0.0021282576 0.0016592375 0.0008189973 -0.00209932 0.0012441868 0.004351775 -0.0021235687 0.0024218454 -0.0037556388 0.000183151 -0.0025134597 0.00043821786 0.0012157704 -0.0015962396 -0.0035125837 0.00086812756 -0.00019351173 -0.0042686276 -0.0023665286 0.003088115 -0.0006278142 -0.0035507693 0.0022688555 0.0025410654 0.0020455346 0.0006585653 -0.0011458824 0.0019810107 -0.0038170877 0.0011897975 -0.00054929854 0.0016326703 -9.9472265e-05 -0.0023223802 -0.002541179 0.00042644484 -0.0011538224 0.0008963594 -0.00080764026
209.030.070.014 -0.0031727168 -0.00041835333 -0.0042301007 0.0019110945 -0.00201375 -0.0011837904 -0.0018494942 0.0009818375 -0.0020585347 -0.0010057646 0.0024193039 -0.0009818106 -0.0042226836 0.00064161525 0.0022964764 0.00240363 -0.0049028713 -0.003401391 -0.0019179913 0.0019754092 -0.0011181096 -0.002903884 -0.004686674 0.0029872518 0.001796827 0.0031480861 0.002848797 0.0018459788 -0.0014370828 -0.0023071002 0.00399362 -0.004133336 -0.0012157386 0.0024029608 -0.0006836577 0.00014828476 -0.0026215904 0.0024564096 0.0016264989 0.00052575103 -0.0034496891 0.0024439513 0.00069824816 -0.0019095818 0.0038479092 0.0018437803 0.002162082 -2.113569e-05 0.0014969917 -0.001158559 0.0020010627 -0.0008250625 -0.0018410789 0.0039472603 -0.0021579394 0.00383597 0.000221964 -0.0030823615 -0.003049502 -0.00380883 -0.0015760646 0.0036515258 0.002384887 -5.7368532e-05 -0.0022342463 0.00034813324 -0.0034496004 -0.0010328554 0.0032114657 0.0022229683 0.0029991483 0.0029836567 0.00049575564 0.0018295097 -0.0007257527 -0.001978032 0.0047594267 0.0027622832 -0.001606055 0.0024427322 0.000891881 0.0037388634 0.00068876136 0.00066532433 -0.0006165559 -0.0004848854 -0.0038558615 -0.00028138998 -0.002409895 0.0028641757 -0.002536825 0.0029605266 0.0037979505 0.0017235554 0.0054963054 -7.8505334e-05 0.002341554 0.001294842 -0.00078326726 -0.0014352992 -0.002122544 -0.0014204528 0.00017352629 -0.0014884823 -0.003893186 0.0046286006 0.00075137994 0.0029057926 -0.00048991584 -0.0031289905 -0.0021730973 0.0005258864 0.0012201719 -0.0020977822 -0.0014633439 2.2028898e-05 0.0013405923 0.0039165327 0.00015123996 -0.0004712975 -0.0039209523 -0.003528357 -0.0026673886 0.0023581476 -0.0041284417 -0.0022352587 0.00015792568 0.001567563
192.168.001.005 -0.00045908618 -0.0005370212 0.0019324125 -0.0021042116 -0.001628328 -0.0034300883 0.0011321377 0.0016700746 -0.0028258306 0.004281496 0.0032391865 0.00020755369 -0.0019606005 0.0034320063 0.0014592474 -0.0021560765 -0.00013546358 0.0046446337 -0.0042772605 -0.0030077628 0.0013770881 0.0016154317 0.0036864525 -0.0009451587 0.00036572223 -0.0008831497 0.0006854284 0.0030199992 0.0023042567 -0.0022501939 0.00040993578 -0.002088199 -0.00058023847 -0.0031331922 0.0022719814 -0.0021505472 0.0038983577 -0.00041121815 -0.00095912244 0.0029143644 0.0038406579 -0.00090920925 0.0035937307 -0.003590407 0.0038348618 0.0027225295 -0.0023422274 0.0038291728 -0.0048263418 -0.003558252 -0.00015783505 0.0019256265 0.004603129 -0.002535207 0.0036890556 0.0038352641 0.0025593506 -0.0013933488 0.002879405 -0.0040722224 0.0021297943 0.0031669366 -0.0018932046 -0.0021034754 0.0023989445 0.00086753763 -0.0018095769 0.0005127953 -0.0017476951 0.0043273997 -0.0019268127 -0.004865686 -0.0032588965 -0.0009002307 -0.0016901875 -0.0011538641 0.0018918881 0.00084606966 -0.0031559127 0.0023540293 -6.46085e-05 0.0030141135 0.0032314158 -0.0016459593 -0.0036019643 -0.0037463675 -0.0004534953 0.0020170496 0.0037579907 -0.0042153196 -0.0025134715 -0.0016519629 0.0045764763 0.0029204295 -0.0018151492 -0.0028373285 0.0034988818 -0.0036290516 -0.0036147737 0.0035256194 -0.0015632258 -0.0022534132 0.0004451482 0.001270211 0.0022070939 0.0038755508 -0.0013762024 -0.0022507843 -0.00083879055 -0.0021516301 0.0004092469 0.0017776248 0.0032139227 -0.00072586525 -0.0015838719 0.0002475906 0.00087606785 -0.00048830674 0.0032961555 0.0020364586 -0.001436491 -0.0011382798 0.003180728 0.003561563 0.0029592304 0.00073530053 -0.00083277764 0.003997887
172.016.112.050 -0.0051081576 -0.0040666913 0.00042379423 -9.883224e-05 -0.0044399938 -0.003148836 -0.002703462 0.005077411 -0.00634431 0.0025867096 0.0022668839 0.0024387846 -0.0077337027 0.005777285 -0.0043920907 -0.00066359725 -0.0034999403 -0.0037438606 -0.0049160034 -0.0020675783 0.00090355705 -0.0031220354 0.0011317778 0.0028184366 0.0029745055 0.006858959 0.005241236 0.0050009578 -0.00595612 0.0018320733 0.0028410137 0.00020156972 0.0031649559 0.00368649 -0.0024423758 -0.0013075054 -0.0017572431 0.0025018803 -0.0028800394 -0.0012224396 -0.0009518348 0.0040875836 -0.005997616 -0.0035004786 -0.0033719414 -0.00035348546 -0.0048100525 0.0039748694 0.002031017 -0.008019782 0.0009101411 0.001112448 -0.0026545075 0.00287034 -0.0002744268 -0.0021671567 0.0019131755 -0.0023948054 0.00097088795 -0.0006227894 -0.000291876 -0.00045765753 -0.003491413 -0.0022998739 -0.0020627799 -0.0038283705 0.0041302117 0.0022413551 -0.0013290265 0.001279543 0.0046527777 0.0035646486 -0.0021402964 0.0019440857 -0.005748063 -0.0050517838 0.0070564323 0.0022689905 -0.0010887382 -0.005576128 -0.004647315 0.0021821177 0.005022905 0.0023033104 -0.002114736 -0.003144255 -0.0029321113 0.005073547 -0.0023595146 0.0021052174 0.0042140186 0.00016995934 -0.00050079054 -0.0016525119 0.0049869185 0.0012524648 -0.002782437 6.026247e-05 -0.0024221195 -0.0011500296 0.0043589054 0.002881258 0.0049495255 -0.0027927114 0.0006623134 0.0026075097 -0.005645348 -0.0022194684 0.003557712 5.8432553e-05 -0.007455498 0.0024487523 0.0020766961 -0.0067064124 -0.00011030562 0.0028849808 -0.00047261434 0.004044193 0.00014381202 -0.0046415194 -0.0015763455 0.00047227502 0.0053412938 -0.0020184787 -0.00011614089 0.00013002826 0.00016423833 -0.0039759474
197.182.091.233 -0.0008645927 -0.004728494 -0.001624742 0.0017181959 0.00095608213 -0.002981075 0.0012531166 0.003946086 -0.0012125941 -0.0035649408 0.004681684 -0.0037748306 -0.008078418 0.007078624 -0.0025038293 0.001303336 -0.0020947058 1.9795742e-05 -0.0002670039 -0.00082998455 -0.0032800443 -0.0011839714 -0.005374669 0.004765721 0.0030240584 0.005434213 -0.002667269 0.006318339 -0.00054143055 1.0910577e-05 0.002281371 -0.0031605817 0.0035862145 0.00084152084 -0.003814195 0.0027646378 0.00081043644 0.0036062447 -0.0042491904 -0.0030906824 -0.0036690913 0.0052557793 -0.004987148 0.00019076235 0.0023742083 -0.005026868 -0.0049376413 0.0057142656 0.00566924 -0.0064745145 0.005115099 0.0013814614 -0.000111826055 -0.0017969145 0.0039080377 0.003532142 -0.0008363152 0.0018590731 0.002867977 0.002776693 0.0037954564 0.00063974387 0.0022610005 0.002003939 0.00060086657 -0.004257983 -0.0008859043 -0.0004708458 -0.002733774 -0.0037359772 0.0068033454 0.00302229 0.002712355 -0.00070782757 -0.006926139 -0.0039442545 0.0072796885 0.005246065 -0.0057312516 -0.0064556412 -0.0033779554 0.0018770574 0.0041429373 0.0005613241 -0.003940579 0.00010078687 -0.0035899335 -0.0009933279 0.0001082248 0.000112003836 0.0037547587 0.0003754003 -0.0007401556 -0.002001255 0.0074156066 0.0027551341 0.0017099977 0.0019153673 -0.0059990897 0.0020013885 0.0018080046 0.0037533985 0.0054826494 -0.0037977484 -0.0041366094 0.0023361705 -0.005040865 -0.0017201758 0.0039320253 -0.0037625108 -0.008347342 0.0006540425 8.387272e-05 -0.0033224213 0.002267631 0.00049388973 0.0045340788 0.0025585692 0.0003150135 0.0013775299 0.00074425706 -0.00077034207 0.0017509746 -0.0013787767 0.0015472993 -0.003704844 -0.0039971373 -0.0018730747
135.008.060.182 0.0027516412 -0.0008302087 0.0013129981 -0.0023606867 0.0015569506 -0.0026938487 -0.001048254 -0.0024742605 -0.0038081966 0.0038394476 -0.0010908563 0.00058322167 0.0012093545 0.00023007707 0.0005397675 0.00034859416 0.0022250253 -0.002304773 -0.0042922245 -0.00056320673 0.0022315294 -0.0025334056 -0.0039857016 -0.0012357829 0.004089302 0.0017598426 0.0040924945 0.001339021 -0.0037553096 -0.00010412253 -0.0026458483 -0.0003830072 -0.0017571049 0.0013640086 -0.0029645727 0.0041200765 -0.0028214655 0.00092277775 0.0031005347 0.0008620781 0.0031497108 -0.0012890111 -0.004113851 -0.00074560265 0.003737865 -0.0023928857 0.0031991277 0.0025682994 0.002032771 0.0007051213 0.0029948999 0.0006133083 -0.0007813582 0.0020122123 -0.00044176626 -0.00259806 -0.002046337 0.0028717152 0.00049505994 0.0029121807 -0.0036976598 0.00078076066 0.002452048 -0.0039759157 -0.0010488 -0.003246315 0.0008527477 -0.0021817158 -0.0031340604 0.0036473111 0.0002567171 0.0024630772 0.0021786457 0.001079964 0.0010253661 -0.0040082615 0.0010132729 -0.00013731157 0.0029459293 -0.0014525091 0.000624568 0.00209638 0.00058730633 -0.0028223875 -0.0032678803 -0.00039814878 0.0014861773 0.0011716477 -0.0028237952 5.795402e-06 0.0030138404 -0.0023116095 -0.00224972 0.0005391074 0.002889955 0.0033425107 0.0018321817 -0.0025311506 0.0004503983 0.002191882 -0.0024199802 0.0025142008 -0.0006667586 0.002554486 0.0010258745 -0.0016052851 0.00056415796 0.00076160836 0.0012631492 -0.00051988167 0.0019997822 -0.0020340472 0.002682183 0.0005817842 -0.00046741051 -0.0014974936 0.004131695 0.0025836313 -0.0015321191 0.0007909726 -0.0012761039 0.0036246972 0.003346865 0.0004134967 -0.00063563185 -0.003449151 0.0019999985 -0.0015783567
197.218.177.069 -0.0035211653 -0.0041044313 -0.0014564557 -0.0021357387 -0.0020096174 0.0024114624 -0.00015262213 -8.281435e-05 -0.0024685068 -0.0009957987 0.0034342264 0.0029747633 -0.0043127653 0.0010087858 0.0008304409 0.0020510522 -0.00083797995 -0.00094009156 -0.004785877 0.003145394 0.0013843725 0.0006022062 -0.004355182 0.0027481767 -0.0031620446 0.0025648854 -0.0016084661 -0.0011582637 0.0014963143 -0.00013757798 -0.0014632035 6.0210732e-05 -0.0026824283 0.0020224925 -0.003389445 0.0006531201 0.0021809456 -0.0008362129 0.0008554529 0.000696904 -0.002458067 0.0029044296 -0.0018766192 0.0034179178 0.0006298344 0.0020195378 -0.0012733276 -0.00061490416 -0.0028694884 -0.0027941107 0.001601156 -0.0033692168 0.0022661726 0.00047234076 -0.000105147774 -0.00041525686 0.000473269 0.0025049811 -0.0016826324 -0.0028592132 -0.0030516938 -0.0003897802 0.001024996 -0.001898767 0.0009506692 -0.0021811107 -0.0030128036 0.00046619575 0.0011747223 -0.003508538 0.003657749 -0.0020674698 -0.0013864012 0.0030303006 -0.0038255968 -0.0022154152 0.0025362382 0.00053895894 0.00044522784 -0.0012296415 0.001683666 0.00039732712 -0.0027193413 0.0011915367 -0.0005766618 3.2824457e-05 0.002603111 -0.0025866444 0.00044397195 -0.002240519 -0.0006128262 -0.0019302352 0.0016192176 0.0017715797 -0.0026679453 0.0016008241 -0.00022865202 0.001904144 -0.00473239 0.00040437773 -0.0033835485 0.0007286053 0.0016729621 0.002140378 -0.0008717029 0.0025314388 -0.004642969 0.0003242561 -0.0003716879 0.0019489537 -0.0047922516 0.00030819833 0.0021525729 0.0022741512 -0.00041448337 0.0013989372 0.0023939495 -0.0014294902 -0.0015932146 -0.0013665295 0.0038371126 -0.0018222589 0.0041960846 0.00092228735 -0.0027496228 -0.002140481 0.0036467453 0.001068072
196.037.075.158 8.003593e-05 0.00028473194 -0.0037415503 0.00063552393 -0.0036353793 0.0027451774 -0.0026364299 0.0032663455 -0.0044327364 0.0012501696 -0.0016586169 -0.0004939905 -0.003334713 0.00036806217 0.001780249 -0.0018487511 0.0016162382 0.002136313 -0.0029569538 -0.000521657 -0.0039184173 0.002614845 -0.0023046471 0.003727408 0.003771021 -0.0018440239 0.0034911893 -0.00042222513 0.00039240258 -0.0034924871 -0.0012418587 -0.0027196787 0.0037442998 -0.0011970376 1.05579165e-05 -0.0011264143 0.0003933331 -0.0033511857 -0.0012005948 -0.003974736 0.0005372936 0.0036091614 -0.00020918438 -0.0018344693 5.7608442e-05 0.00037952833 0.0034334539 -0.0012135229 0.002185185 0.0016580499 -0.00096709153 0.00096606713 -0.0015035174 -0.0028226546 -0.002368968 -0.0028814008 -0.0025147267 -0.00089533644 -0.0011527026 -0.0019499423 0.0018096983 0.00077005255 -0.00021716474 -0.0018119916 0.0013552614 -0.0044171396 -0.0022058492 -0.0028248131 -0.0022870472 0.00069200696 -0.000114782015 0.0012670384 -0.0023716942 0.0031032488 0.0020918031 -0.0023559607 0.0027396746 0.0012246203 -0.0034411408 0.0020359757 0.0028733364 -0.0034840552 -0.0030711389 -0.0030548335 -0.00039521288 4.0925723e-05 -0.000112973896 0.0010862792 0.0033433689 -0.0039546206 0.0029740895 0.002297003 -0.0008688808 0.0014348333 0.00063592574 -0.00046831166 -0.003333986 -0.00011899274 -0.0026400809 0.0018239588 -0.003661356 0.0032587573 0.003279197 -0.003251742 -0.0029304326 0.0033907678 -0.00448129 0.0011592912 -0.0026291173 -0.003206964 0.002227655 -0.0024489514 0.0024151157 -0.0032143937 -0.0028223295 0.0040414245 0.0030305253 0.0032350386 -0.0034572924 0.0019235682 -0.00039480734 0.00073522015 0.0017872824 -0.003778969 0.0029765756 -0.0040301937 -0.0021647802 -0.0024576623
137.245.085.134 -0.0014064703 -0.0016957504 -0.0021892774 0.0024957226 3.485063e-05 0.0024251817 -0.00083814625 0.0023999775 0.0011512381 0.0039236513 0.0005975012 0.0011727621 -0.00018152349 0.0015941081 -0.0032724135 0.0027778319 -0.0016550987 -0.0009363964 -0.0028561177 0.0034388439 0.0015074343 -0.003078611 -0.00072444946 -0.003325483 -0.00085423014 -0.0032644433 -0.0019652995 0.0031152389 -0.0032468857 -0.0012929962 0.002286647 0.0012324075 -0.0015975134 0.00010974943 -0.00337175 -0.0031216987 0.0004883763 -8.5338215e-05 -0.00020395896 0.0028511838 -0.0015247068 0.0024110551 0.0014136573 -0.0005112105 0.0011504061 0.0017164791 0.0016961809 0.0013951552 0.00336063 0.0019242171 0.0033975518 -0.0016959873 0.002917761 0.0011287937 0.0031157138 0.002848828 0.0018160781 -0.00030323962 0.0037464923 -0.0022948964 -7.7526376e-05 -0.00019714801 -0.0018418912 -0.0019899898 -0.0030745284 0.0010075339 -0.0011541415 -0.0012560171 -0.0016207979 0.003545082 -0.0018107971 0.001996656 0.0013874253 0.0033929495 0.00025038104 -0.0034127575 0.0004576497 0.0023395235 0.0003020601 -0.003498432 -0.0008673586 -0.0032146457 0.001933138 -0.0018157883 0.0019993116 0.0016412013 -0.002874443 0.0014322553 -0.0030387058 -0.0004155318 0.0029603443 0.0030603344 -0.0013520047 0.0010505385 0.0001629651 -0.0030895385 0.00339096 0.00030395313 0.0022486693 0.00033335004 0.00029792712 -0.0018621815 0.003531507 -0.0014181643 -0.00087123195 0.0020155665 -0.001432115 0.0024111287 -0.001647084 -0.003044104 0.002538952 -0.0013575141 0.0028910988 -0.0020235954 -0.0009817856 0.0039996332 -0.0032479968 0.003082025 0.00053344783 0.0024976782 -0.0035296 -0.00027491892 0.00049678073 -0.0030362995 6.305473e-05 -0.0018688695 -0.0037293031 1.1877964e-05
172.016.114.117 0.0016643074 0.0037385414 -0.0012316436 -0.0036719705 0.00015243216 0.0017442813 0.0038971144 0.0009928215 0.0002233349 0.0036550707 0.0006221818 -9.007867e-05 -2.1565651e-05 -5.625667e-05 -0.0017987137 0.002483641 -0.0007565718 -0.0031024648 0.0036174986 0.0008804929 0.002800417 0.00044330413 -0.0014050306 -0.0036184327 0.002342789 0.0033693179 -0.00035257416 0.0019834698 -0.0030038867 0.0004332754 0.00024867101 0.0017830082 -0.00325251 -0.0017290256 -0.00031335367 -0.0005257751 0.0011841231 0.0017413872 -0.00086568494 -0.0037413363 0.0021754515 0.0017132416 -0.0027557106 0.0013323438 -0.0017951273 -0.00346236 -0.0035673948 0.0031558636 -0.0014684534 -0.0007787171 -0.0020428812 -0.0003488766 0.0022977996 -0.0017087387 -0.00018431398 -0.003018706 -0.0010015749 -0.00046633315 0.0026827557 -0.0025615308 0.003581979 -0.0031265793 -2.4250818e-05 -0.00033316883 0.0029198034 -0.0028394235 -0.0004232308 -0.0037966957 0.002221697 -0.0033530265 -0.0033916526 -0.002797247 -0.00196917 0.0011142328 0.00061043084 0.00045485614 0.00040918693 -0.002466576 -0.001641017 -0.0034210994 -0.0012027377 -0.0015232447 0.0026386376 0.0033619748 -0.0025844984 0.0009421255 0.00083799014 -0.0037605956 0.002404011 -0.0028113148 -0.0020900588 -0.0011237891 -0.0012101202 -0.0005892934 0.0028763337 0.0013080362 -0.0018219838 0.0002758041 -0.0033568672 -0.0017061906 0.0035064637 -0.0016470216 0.0021542883 0.0015980344 0.003452893 0.0032235666 0.00043209517 -0.0029289534 -0.00086215395 -0.0037429598 0.0009134191 -0.00039529416 0.00058861484 -0.0026011697 0.0036556975 0.00294898 0.00021420197 -0.0013021134 0.0035953696 0.00015709264 -0.0008402622 0.0033462897 -0.0029731733 0.0010383887 -0.0024107562 0.001952897 0.0038511741 0.0028046058
172.016.114.059 -0.002863507 -0.0021684817 -0.0015989206 0.0023387226 0.002622345 -0.0016129622 7.757171e-06 -0.0016312893 -0.00037251195 0.002391384 0.003308746 0.0035137937 -0.0037266617 -0.0036171235 0.001985373 -0.0023786507 0.0002860133 0.0017091053 0.0016840677 0.0021322314 -0.0038863502 0.0024546564 -0.0035430868 -0.0033284863 0.002347404 -0.0019965246 0.00055162114 0.00017806634 -0.0019818402 -0.00012895989 0.0015002335 0.0034146372 0.0026632482 0.002093768 -0.00063807884 -0.0015947754 -0.00072079716 -0.0025419714 -0.002034991 0.0026143265 -0.00089892326 0.00042608418 -0.00060773967 0.00047184766 0.0035662586 0.002326195 -0.001561103 0.00044134143 0.00057010213 0.0021952188 0.0038405706 0.0024541658 -0.002841894 0.0030920857 -0.0017849464 -0.0033060438 -0.0026131836 -0.0014151646 0.0003388865 0.0028153511 -0.001419489 -0.0007790967 -0.0030055908 -0.0024747676 0.0026552463 0.0010631366 0.0011218236 -0.0032103516 0.00055337074 -0.0012478417 0.0032499116 0.0019703235 -0.0014439702 0.0020763085 -0.0036051793 -0.0033440888 -0.0012443502 -0.00069484353 3.7153804e-06 0.003330032 -0.00017518556 -0.0018158274 0.0033670957 -0.0022750893 0.0011714853 -0.0018051508 -0.0026213431 0.0033224293 0.0038331004 -0.002313682 -0.0026375116 0.002726509 -0.00013124026 3.8224538e-05 -0.00092244206 0.0009772453 0.0005458608 0.0014294402 -0.0038909607 0.0019491257 0.0028922916 0.002901013 0.0027799099 0.0022241927 0.0014714972 -0.0017341615 -0.0018208257 0.0035599149 0.0025033467 0.0022012256 -0.000993048 -0.0032424505 -0.0006664348 -0.0038406705 0.0014534349 -0.003521508 -0.0029161975 0.0032860353 0.00028964694 -0.00029150094 0.0003431036 -0.0012577095 0.0017825714 -0.0012571043 0.00092927145 0.0022602347 -0.00021562305 -0.0016660446
172.016.114.209 -0.0014186626 0.0026802118 -0.0017749567 0.002421694 0.0037364308 0.0036151477 0.0014654291 -0.0006140585 0.0014818327 0.0012500394 -0.0011833309 -0.0038629908 0.00037520772 0.0032055858 0.0007400929 -0.0016310711 -0.0034806312 0.0038063815 0.0037800411 -0.0010821817 0.0032296062 0.00071407185 -0.0019499527 3.0134619e-05 -0.0010133528 0.0018866931 -0.0024526932 0.0020142843 -0.0007636613 0.00094287685 0.0016144254 -0.003836668 0.0031485124 0.00058067526 -0.0015216491 -0.00042919096 0.0011428401 0.00044177525 -0.002833088 -0.0013044602 0.002054528 0.0028753772 -0.0016590543 0.0036914814 -0.0031256017 -0.0017535009 -0.0023263735 -0.003712711 0.0024418042 0.00057915977 0.003060984 -0.0023837588 -0.0030874189 -0.003556288 0.0008531183 0.0037248486 -0.0022592095 -0.00013681875 -0.003728801 -0.003025503 -0.0011100675 -0.0030726164 -0.0015559902 -0.0026228908 -0.00030599872 -0.0020013703 0.0027173606 -0.0019492215 -0.0036369131 0.000563481 0.0003255086 0.0025483966 0.002630617 -0.0036844134 -0.003090297 0.00022967362 0.00036327943 -0.0016445959 0.0030538745 -0.0012671237 0.0035725902 -0.0034819087 0.0023681514 0.0007925035 -0.0012933316 0.0010526908 0.0035060442 -0.000917556 -0.0035329452 -0.0005181452 -0.0015191841 -0.00080163777 -0.0010258398 -0.00038586213 -0.0012475956 -0.0018088699 0.0014950347 -0.003720122 -0.0035100912 -0.0016905341 -0.0037603348 -0.0034974355 0.0014581408 -0.00087141246 0.003497778 -0.0029194488 -0.0009013765 0.0024004388 -0.0014067147 -0.0007755904 -0.0004078296 0.0019507608 -0.003522351 -0.001294608 0.0012923508 -0.0017043751 -0.0022670566 -0.0037896766 0.0034224875 8.546331e-05 -0.0036290293 -0.0036277568 0.003639396 -0.002820936 -0.0030172518 0.002215506 -0.0012891855 -0.0036906025
172.016.114.116 0.0019683768 0.0023910948 -0.0007016597 0.0017596624 -0.0025742035 -0.002097645 0.0028526213 -0.00036658917 -0.0038534065 -0.0031341566 -0.0019184499 0.0013105109 0.0026642065 -0.0006484795 -0.00010726669 -0.00040171726 -0.0007216392 -0.0010243079 -0.0020804356 0.0022676103 -0.0026710143 -0.0025024994 -0.0028888562 -0.0028381334 -0.0020900557 -8.797662e-05 0.00065615255 0.0029441563 -0.00085495634 0.003648754 0.0010002204 9.158989e-05 -0.0020184026 -0.0027004213 0.0032682703 -0.0009377561 -0.0024820094 -0.00016046384 -0.0024379976 -0.0012761962 -0.0020875274 0.00066904066 0.0031676872 -2.009513e-05 0.0013739538 -0.0031061876 0.0011924157 0.0008690362 -0.002539976 -0.003646892 0.0036559643 0.0031858846 0.0014867486 -0.0016080923 0.0001465237 -0.0024788876 0.0026821387 0.0010559831 -0.0028760044 -0.0024969855 0.0022278999 0.0016185394 0.0013191479 -0.00067692227 0.0009709993 -0.0022013986 0.0018836833 -0.0023814675 -0.002801477 0.0026881313 -0.0010771744 0.00010892107 -0.0015954432 -0.0007422034 0.0017775521 0.00033769346 0.00027498306 0.0031272378 -0.0008524581 0.0032551463 0.003021279 0.0017138168 0.0018460567 0.0020476752 -0.002064706 0.0005726832 -0.0030756453 0.0019690953 4.0268125e-05 0.003619635 0.0038835183 -4.9077767e-05 -0.0008802401 0.003409592 -0.0024905377 0.003013889 0.0038014788 -0.0020845372 3.3813256e-05 0.0026066573 0.0012473114 0.0025918558 0.00274373 0.0014516435 0.0022171852 -0.0002056345 0.0005989109 -0.0030191736 -0.002331732 0.0010490823 0.0030539716 0.0028035278 0.0028275503 -0.00043707134 -0.0029090976 0.0037872586 0.0032485975 0.0026946561 0.002867922 0.0016153002 -0.0013856575 -0.0017909677 0.0023947153 0.0007918817 -0.0018948588 -0.0030001423 0.003238017 -0.0025982896
172.016.114.219 -0.0026439265 0.0006521278 0.001473535 -0.0025372754 0.002908787 -0.0006323512 0.0009113277 0.0037789252 -0.0021622726 0.0035409897 0.0017600664 0.000369257 -0.0008186651 -0.0035411257 0.0011828517 0.00029573034 -0.0017430346 -0.0010675754 0.003038821 0.0015228064 -0.0014769654 -0.00046059352 -0.0011321374 0.0030855192 -0.002896495 0.000902217 -0.00086056354 -0.0025084058 -0.0022161107 -0.00347613 0.0018251205 0.0028749255 0.0013686356 0.0014484832 0.0014735666 -0.002918799 -0.0008947483 0.00022972726 -0.003959323 -0.00089597097 -0.001702614 -0.0005466271 0.00081798236 -0.0009413133 -0.0019643346 -0.0011206246 -0.002358848 0.0038222908 -0.0031004339 -0.0028569188 -0.0030457817 0.0014615487 0.0024853712 -0.0036206564 -0.0011975727 0.002422182 0.002610781 0.002539028 -0.0034719987 -0.003479241 -0.0038596878 -0.0018958955 0.002535004 0.0014124357 -0.00014291097 -0.0013255896 -0.0002964135 -0.0012737823 0.0030028892 0.0030229068 0.0024170922 0.001337382 0.0017921294 0.0018899455 0.0027736616 -0.003187712 -0.0022434609 0.0001617409 -0.0036228967 0.0028561 -0.0030852286 0.00010389152 -0.0037623462 -0.0017152514 -0.0033485966 0.0009481386 -0.0007186835 0.0028408458 -0.0026383863 -0.0012957721 0.001163797 -0.0036352002 0.0028193502 -0.0030293541 0.0035900143 0.0012049795 -0.00011400683 -0.0015856888 -0.0021269033 0.0030699703 0.0034051694 0.0038149392 -0.00052821304 -0.0014295522 -0.002789153 0.0014091879 -0.0016397565 -0.0035837747 -0.002352649 0.00028362995 -0.0032656058 0.0024684265 0.0018758152 -0.0034459024 -0.0038770589 0.0019117907 0.0038321912 0.0029704436 -0.0035592413 -0.002055341 -0.0014442261 -0.00056524546 0.0020647976 -0.0030102916 -0.00019181288 0.0009438987 -0.0029544577 -0.0005498599
172.016.114.184 0.0029465072 0.0013508899 -0.0033749384 -0.0022943655 0.0014419012 -0.00326396 -0.0036870572 0.0012147505 -0.00035491056 0.0032389525 -0.0024780082 0.0038246517 -0.00089775614 0.003887645 0.0016615128 -0.0026941162 -0.0015925769 0.0025749323 -0.00048453116 -7.225767e-05 0.0038025493 -0.0014745241 -0.0024909663 0.0032392014 0.0024195772 -0.0017237262 -0.0031165713 0.0015415975 -0.00013334336 -0.0030102057 0.0016582148 -0.003028615 0.001856686 0.0025873792 -0.00092677213 -0.00018976498 0.0034574557 0.003364872 -0.0034089698 -0.0030664583 0.0028147474 -0.0018120392 0.0032352475 0.0009975687 -0.0017317929 0.001642842 0.0033632386 0.001934258 0.0008204951 -0.0019710981 -8.27049e-05 0.00033235404 -0.0036212127 0.0008104412 -0.00020418044 -0.0015987118 -0.0022971404 0.0032193996 -0.0009961242 -0.0014150861 0.0023842559 0.0016929802 -0.0015739299 0.0010456871 0.0020411105 0.00257121 0.0032886283 -0.0037996983 -0.0010317618 0.0036973886 0.0014447792 0.003276421 -0.0029483913 0.00022493431 0.0031336313 -0.0019919206 -0.0025590237 -0.0023239441 0.0033014226 0.0016107075 0.0021823125 -0.0033335707 -0.0018447158 0.0035868878 0.0020740577 6.056136e-06 -0.003434128 -0.0021442776 0.0013279235 0.00048427936 0.0029709428 -0.0010400641 -0.0006525917 0.00026940627 -0.0003572748 -0.001503388 -0.00080318935 0.0006992408 0.00097564305 0.00032409566 -0.0014616456 0.0005398047 -0.003794129 -0.0014351951 -0.0019860794 -0.001963423 -0.00040553356 0.0017696632 0.0018985758 -0.0023122088 0.0026258004 0.0035856052 -0.00040454828 0.003515127 0.0015026156 -0.0029782024 -0.0011961347 -0.00018680497 -0.002803388 -0.0038201208 0.0032057294 -0.0017713027 0.0010656046 -0.0020815597 -0.0033631052 0.0025753004 0.00047543537 -0.000327687
172.016.114.196 -0.0033096694 -0.0018132413 0.0028640865 0.0012362115 0.0014602345 -0.0030825771 -0.0027685754 -0.00045873565 0.0024799379 -0.0023281577 -0.0032786927 -0.0031880501 0.0006639421 0.003203509 -0.000601859 0.0033141202 0.0013730391 0.003612656 0.0010797129 0.0034627225 -0.0005440245 -0.00222865 -2.3816172e-05 -0.0010094099 -0.0014491066 0.00082961016 -0.00038340778 0.0009733485 0.00035964607 0.0033458308 0.0006729157 -0.00068279804 -0.0036761167 0.002307736 -0.003450411 1.7734365e-05 0.003681055 0.0014227262 -0.0021269913 -0.0010991566 -0.0018224763 -0.0016332653 0.00041528928 0.00019208618 -0.0021187218 0.0002642515 -0.0029719586 -0.0028382514 -0.0026018645 -0.00037527332 -0.0021354938 0.0022325336 0.0022024233 0.0004355151 -0.0036298588 -0.0006884242 -0.0013727085 -0.000982177 0.0022357237 0.00051307416 0.002624125 0.003637351 -0.0029589774 0.0010413888 0.00018968114 -0.0036670286 -0.0032219863 -0.0008337534 -0.0005609515 -0.0014837016 -0.0009655131 -0.0035872653 0.0017662857 -0.0021036107 -0.002711895 0.0034096467 -0.0001277385 -0.0037101812 -0.003387518 -0.0029637238 -0.00016250332 -0.0026736914 0.0026304398 0.003382414 -0.001004631 0.0011545605 -0.0015617297 0.0020456938 0.0019881362 0.002781085 0.0033047467 -0.0004669071 -0.0005503978 -0.0023184733 0.00031328335 0.0033961595 -0.002849604 0.000733226 0.0037429805 0.001237154 -0.0021492785 -0.0005843122 0.0038867036 0.00047425725 -0.0029110638 -0.0006244758 -0.0037357227 -0.0034112819 -0.0008449853 0.0004373454 0.0012211627 -0.0010847098 -0.0020949752 0.0032326635 0.003338183 0.003535913 -0.0021429656 0.002053139 -0.0031614595 -0.0019468028 0.0038735797 0.0005580606 -0.001801734 -0.0023370988 0.00022808737 0.0002752095 -0.00019068275 -0.0004441149
172.016.114.051 -0.0022455924 -0.00061380654 0.003453741 -0.0021370456 -0.00040161816 0.0032362174 -0.003475025 0.0021170098 -0.0022973022 -0.0012112905 0.0027932816 0.0037301523 -0.0021611892 -0.0007446333 0.0009615551 0.0032023338 0.00036396578 0.00347399 0.00024009323 0.0015789774 0.00066945836 -0.0008002444 0.0030061018 -0.00061266107 0.0016833065 0.0026822977 -0.0026365859 -0.0011945093 -0.0035986456 -0.0016787823 -0.0029950198 -0.00042999367 0.0031082856 0.0008609518 -0.0033059272 -0.0027409678 -0.003628314 -0.0032546925 0.0034706565 0.002942455 -0.0018824055 -0.0024202056 -0.0026519494 0.00062424364 0.0015060356 0.0005376147 0.0028340463 0.0027658667 -0.0013777824 -0.00031494597 0.0029563892 -0.002431121 0.0015578928 -0.0034737438 -0.001934189 -0.0026566894 -0.0006970767 0.0031983475 0.0020128486 -0.00240529 -0.00035984602 0.0007860832 -0.001971408 0.0012991511 0.0004617438 0.003633974 0.0025030542 0.003304094 0.003095918 -0.003145287 0.0036212897 -0.000677002 0.0033311846 0.0010338982 -0.0033542707 -0.003637344 0.0026389693 0.002359895 0.003098524 0.0026322873 0.00035840637 -0.0025679963 0.00090396573 -0.0013271054 0.0031218315 0.0018696294 0.00019043012 -0.00013594255 0.0028248315 -0.0012147047 -0.0035148547 -0.00050197245 -0.0036220413 -0.0029686815 0.0018375289 -0.003400367 0.0014813442 -0.0001585374 0.0031227863 0.001969894 -0.0018141462 0.0033750143 -0.0017047449 -0.0016748182 -0.0022850554 0.002187612 0.0032125593 -0.0014901732 -0.0001366251 0.0013320291 -0.0034061053 0.00018754945 -0.0029606158 -0.0016323135 -0.0029838332 0.0018173193 -2.1534583e-05 -0.0009366361 -0.001705959 -0.0035533481 -0.00389746 0.00034367613 0.00013526218 0.0030904494 0.003331932 0.0010409778 0.0017640061 -0.0011728905
172.016.114.054 -0.00010693964 0.0014721722 0.0034257274 -0.0005732076 -0.0010628592 -0.001267737 -0.0028766529 -0.00020712259 0.00024382136 -0.0025228509 -0.00056345575 -0.0006730171 0.0011463583 0.00050003955 0.0013925296 0.0024010255 -0.003059649 0.0013339013 -0.0022494409 8.9611676e-05 -0.0014881766 7.458547e-05 -0.0033856134 -0.0031012641 0.0011385478 -0.0016227511 -0.0023782162 0.00077559677 -9.472074e-05 0.0008332406 -0.002350806 0.0017426942 -0.00075955753 0.0010386951 0.0011547691 0.0027157012 -0.0012090084 -0.0036079278 -0.0001779062 -0.0036706664 0.001375725 0.00086797 0.000300966 0.0018453243 0.0008624003 -0.0034975412 0.00045227652 0.0011314296 0.0029705428 0.0030861099 0.001781421 -0.00052442926 -0.0031239847 0.002011702 -0.0002319245 -0.0036014414 0.002189742 -0.0023946452 -0.0009638861 0.0021506832 -0.0034076115 -0.0037941218 0.0026714539 0.0031328704 -4.5635905e-05 0.003781389 -0.0005246802 -0.0035537318 0.0022868412 -0.00094818557 -0.0035413024 0.0032870143 -0.0003441769 0.0003945383 -0.00059467135 -0.0024801109 0.0034687265 -0.00204533 -0.0032127919 -0.0015970187 -0.0014181267 0.0031599584 -0.0009043739 0.0021974454 0.0033619334 -0.0001280107 -0.0037979751 0.0025443316 -0.00044513922 -0.0003915001 0.0009228947 0.0017708067 -0.0032386698 -0.0026566372 -0.0033195189 0.0012489526 0.0025505733 0.001097217 0.001297665 -0.0021786788 -0.00310637 -0.001121311 0.00054364704 0.0022267 -0.0015963989 0.00023098092 0.0031761145 0.00021548002 0.00088647 -0.0032902106 -0.000636347 0.0005726496 -0.0027391748 -0.0010691034 0.0011794667 -0.0011293975 0.0024475509 0.003608065 -0.0022068296 -0.0008572399 0.0012865452 -0.0032663413 0.002976327 -0.0030859099 -0.0036783242 -0.0005364922 0.0032559105 -0.0031956944
172.016.114.179 0.0019597448 -0.0020453217 0.0035431178 0.002458647 -0.0024974148 0.0014581039 0.0028305135 7.024597e-05 -0.0007841092 -0.0022955653 0.0015701331 0.0016487525 0.0024351806 -0.002052743 0.002646204 0.0032744277 -0.0026704676 0.0031584373 0.0028493444 0.0005213332 -0.0037226332 -0.00018874607 0.001176308 0.00037584594 0.0030972087 0.0031947973 0.0028847207 -0.0008815213 0.0004057435 0.00042760072 -0.0017609707 0.002837562 0.0034784565 -0.0020136682 -0.0013016862 0.0014756105 -0.002427783 -0.003320735 0.0019376042 -0.0008719385 -0.0015315012 -0.00012592583 0.0010267843 0.0010447536 -0.00033163343 0.00048531205 0.0003010141 0.0026212397 0.00093513704 -0.0029697532 0.0029391062 -0.0014974691 0.0006477744 0.00075271283 -0.0017163834 0.00024225502 -0.000882286 -0.0012081311 -0.0020215902 -0.001914297 0.0032794282 -0.0030554044 0.0027452777 -0.0035016814 0.003612926 -0.003632721 -0.00013514626 -0.0017487229 0.0008025102 -0.002701881 -0.001008885 -0.0022934892 0.0027455688 0.00060827157 -0.0017889417 -0.0037058636 -0.0017057491 -0.0031979093 -0.003795856 -0.0017805616 0.0021208038 0.0035445972 0.0030818044 -0.0016159813 -0.0007522248 0.0020500864 -0.0032301117 0.001271401 0.0035848517 -0.003642217 0.0033784108 0.0032313836 -0.0039050092 0.0013202839 0.0016859383 -0.0005713956 -0.0020608765 -0.0027976464 0.0014665562 0.0012693997 0.0019011913 -0.0021191707 0.003845596 -0.0033978494 -0.0012276598 -0.0014045079 0.0029672845 -0.001953397 0.0032416484 -0.0026019202 -0.00043572581 -0.0012549156 0.0035669217 0.0032277936 -0.0012217341 0.00011232752 -0.003356713 -0.0021591163 0.0036820825 0.0032576139 -0.0022333034 0.0008193919 0.002327918 -0.0034662052 -0.0023118171 0.0010487973 0.00085825636 0.001332742
172.016.114.176 -0.0014642288 0.00021532232 0.0013692395 0.0003908663 -3.2959008e-05 0.0037816132 0.0035641547 0.00011816591 0.0002968577 -0.0012351257 0.00082912884 0.0034689785 -0.0016477635 -0.0028064763 0.00025026948 0.0014584247 -0.0023442581 0.0034742535 -0.0035293505 0.0022553308 0.0012853495 0.001716793 0.0024649433 0.0030109135 -0.0018608934 0.0016009571 -0.0032116228 -0.002010901 0.00094020594 0.00033171935 -0.0036052258 0.0024275654 -0.0012095614 -0.0024774398 0.0005319183 0.0017013082 0.0032170566 0.0008892344 0.00021065025 -0.00040081333 0.0013412986 0.0028968933 -0.0036056486 -0.000361523 -0.0015452969 0.0022146844 -0.0017027662 -0.0017090021 -0.0005620594 0.0038499834 0.0017468455 0.0032064782 0.0025097926 -0.000699524 0.0007482967 0.0007615689 -0.002293906 -0.00037833504 0.0037371158 0.00031997252 -0.0013885888 -0.0019443145 -0.0009003067 0.003458375 0.0006350329 0.0013337334 -9.642999e-05 0.0014070953 0.003757778 -0.0031106323 -0.0028390982 3.3765093e-05 0.00040662475 0.0019635083 -0.0014768703 0.0016023611 -0.0037821569 0.0016667637 0.0027650583 0.00012854488 -0.001670442 0.00035153443 0.0017034577 0.00082762924 0.0008779782 -0.00013682788 0.0020887158 -0.0034834065 0.0011833303 -0.00036994435 2.6362439e-05 0.0030400567 0.002158339 -0.0010043097 0.001812293 -0.0034638487 0.0029848958 -0.0023722155 -0.002185407 -0.0029938577 -0.0017113545 0.002219106 0.0029398804 0.001607555 0.0024230434 0.0031985545 -0.0035104847 -0.00030289602 0.0025999732 -0.0006107428 0.00079289044 -0.002968562 0.0014942046 9.076658e-05 -0.00068714604 0.00044783534 -0.0036295468 -0.0018687104 0.002112998 0.003267257 0.0018408563 -0.0021451844 -0.0028982428 -0.0022376382 -0.0013535011 -0.002663941 0.0007823281 0.00069047144
172.016.114.173 -0.0012866117 -0.0024758456 -0.00071897294 0.0020947093 -0.0026588123 -0.0037965009 0.0010225452 -0.0004997108 0.00246966 0.00015014276 0.003565883 -0.001619577 -0.0037101903 -0.0025034167 0.0019900724 -0.0013839885 -0.0028884145 -0.0026083246 -0.0020970358 0.0024738412 -0.0030860058 -0.0013015296 -0.00058732973 -0.0015709709 0.003310014 0.0022351365 -0.00012667061 -0.0031672558 -0.0032667094 0.0021219088 0.0020476594 -0.002326326 -0.00096729485 -0.0007552204 0.0020627368 -0.0030813857 0.003544996 0.0025286318 0.00082317565 -0.0019958697 0.00045544904 3.399345e-05 0.0025277326 0.00032894593 -0.0031326846 0.0011843203 -0.003811992 -0.0006188245 -0.0021933608 0.0032995585 -0.0015618197 0.003796551 0.003528907 -0.0031485278 -0.0037637134 -0.0011833931 0.00025738124 -0.002181749 -0.0017588314 -0.0017687593 -0.0009604885 0.0010650671 -0.0008781452 -0.0029427297 0.0028440552 -0.00061886 -0.0024712752 -0.0031598292 -0.0011666451 0.0006025375 -0.00066404743 -0.0009171175 0.00080599205 -0.0010861928 -0.003852771 -0.0014917448 0.0033885776 -0.00021841576 -0.0016680224 0.00221791 -0.0019453597 -0.00044941928 0.00029236428 0.0032846564 0.0027273425 -0.0025056556 -0.0017703386 -0.0012547774 -0.0007460339 -0.0007136627 0.001185385 -0.0006476572 -0.0014956414 -0.0018490945 -0.0022964028 -0.0008984966 0.0034439259 0.00024785812 0.0017845897 0.0025427828 -0.0016685444 0.0007847919 -0.0012803123 0.0037390701 -0.0019492777 0.0011915257 0.0018826367 0.0023874026 -0.0027186293 0.0030487848 -0.001966319 0.00017501846 0.0016840819 -0.002504985 0.0034844452 0.0031488545 0.0022025057 0.0035611484 0.0017825866 -0.0011001425 0.0032978689 -0.0004565152 -0.0031684064 0.0019660424 -0.0006516671 0.00010637485 -0.00082415174 0.0002804215
172.016.114.142 -0.0012341551 -0.003759085 -0.003458371 0.0011428792 0.001326907 0.0018949934 0.0014552441 0.0016586198 -0.0017429291 -0.0036162222 0.00092141307 0.0011857433 0.00077898643 -0.003634866 0.0037352073 0.0013196795 -0.00081497594 0.0033786204 -0.0035857384 0.0013701232 0.0031753625 0.0002250535 0.0006088721 0.00079261704 -0.00020273216 -0.003749966 -0.0038572715 0.00040434286 -0.0031458489 -0.00022853543 0.00027085317 -0.001040662 0.0014253446 -0.0011603826 0.0037694604 0.0013048006 0.0015500751 0.0004792045 -0.0022270575 -0.00010566425 -0.00093863904 0.0015742981 -0.00037273866 -0.0018254083 0.0013227254 0.0034901053 0.0016550783 -0.0028900327 0.002503831 0.00041358353 -0.0008264401 0.001213597 0.0016082407 0.00054616656 -0.0033187175 -0.00053805095 -0.0032807228 0.0038370115 -0.0015346311 -0.0034239304 -0.0018210732 0.0030376161 0.00010083787 0.00012212782 8.399414e-05 0.0016448343 -0.00073589844 -0.0011744134 -0.0039192936 0.0016342947 0.0022210572 0.0020122114 0.0037107617 0.001474508 -0.0016741701 -0.0012982675 -0.0030893383 -0.0019088908 -0.00024957888 -0.0028744217 -0.0026544598 0.0015508407 0.002168669 0.0030354804 0.0024180613 -0.00070710306 -0.0012612243 -0.0029976775 0.0008822638 0.001322957 0.0018197696 -0.003799942 -0.0010664556 -0.00014736663 0.0016609528 0.002479917 0.0005005359 -0.0018446189 0.0021503489 -5.5156765e-05 -0.00036401415 0.0023228412 0.003646517 0.00044138724 -0.000265911 -0.0023452984 0.0035911398 -0.00034072428 -0.0016168547 0.0034245343 -0.0014557572 0.001263403 -0.00263754 -0.0034873444 0.003756874 -0.0020685045 -0.0033697418 -0.00081495766 0.002398261 -0.001099615 -0.0032148543 0.0031959906 -6.0669103e-05 0.0038431084 -0.00037226875 -0.0036076864 0.0024476305 -0.0017060979
172.016.114.074 0.0013331532 0.002876157 0.0035048663 -0.001892582 1.2323341e-05 -0.00082064315 0.0024695927 0.0028496243 0.0021410766 0.00313451 -0.003112866 0.0036417514 -6.421597e-05 0.00050663523 0.00015755041 -0.0032289627 -0.001717221 0.0017510626 0.0014218382 -0.0012550567 -0.0030799797 0.0015573545 0.0015926724 -2.2082975e-05 0.00088012137 0.0036945415 0.0018566586 0.00048435415 -0.0015477206 -0.0011270586 -0.00043183708 -0.0005323221 -0.0025950496 0.0039001454 0.0036504236 -0.0013007642 -0.002750987 0.0021559373 -0.00129095 0.0029564747 7.14e-05 -0.0037500146 0.0009914108 0.0027076742 -0.0010050732 -0.0022627793 0.0017549231 -0.0019906226 0.00028869818 -0.00017083975 0.0019357281 0.0026231292 -0.0033789915 -0.0025765067 -0.0005783729 0.0008835646 -0.0012427231 0.0007803875 -0.0036891107 -0.003765738 0.003290703 -0.00039221375 -4.9951333e-05 0.00086055516 0.0008874492 -0.000504432 0.0018620063 0.0006863277 0.0012750999 -0.00016771482 0.003000615 0.0024039831 -0.0002919556 -0.0008717565 0.0033256158 0.0020920231 9.436419e-06 0.0014348903 0.0006777446 -0.0038232969 -0.00068100437 -0.0004119305 -0.0021918223 -0.0022704944 -0.0003194528 -0.0018040779 -0.001081763 0.0033299704 0.001570497 0.0034170062 0.000274394 0.00018606697 0.002382266 0.0032089867 0.0038564182 -0.00046484594 -0.00066472404 0.0009353601 -0.003619944 -0.0028455986 0.0018738989 0.00073972554 -0.0027815348 0.0023038955 -0.0005189992 -0.00286741 -0.0036826977 -0.0021701015 -0.0016784547 -0.00041414177 -0.0028460477 -0.0028078977 0.00083313766 0.0022548796 -0.0037095367 -0.0009856964 -0.0001636254 -0.0010177637 -0.0021576725 -0.0026226079 -0.0005623299 -0.00022572772 0.0014762495 0.0026824893 -0.0028279873 -0.0015761659 -0.0016040244 0.0036583494
172.016.114.072 -0.0020215926 0.00012769047 -0.0016659977 -0.0019475664 0.0031876338 -0.0021975215 -0.002809926 -0.002249995 -0.0006327296 0.0013106618 -0.0033446078 -0.0037462977 -0.0022139326 0.0006236148 -0.0018010896 0.0018080013 -0.0032944672 0.00082239625 0.0019652704 -0.0021746645 0.00089221646 -0.0029074322 -0.0007932368 0.0025054072 -0.0012126099 0.0027518666 0.0017709164 -0.0007708168 -0.00295803 0.0005648396 -0.0022651635 -0.0011978217 0.003407664 -0.00057308696 -0.0012747502 -0.0023245034 -0.0025569166 0.002755038 -0.0021196015 -0.0022104895 -0.0016748852 0.0028294618 0.0037214125 -0.0017611554 0.0023642294 0.00033128067 0.0027316397 0.0013378289 0.0029412135 0.0035035228 -0.0023047396 0.0038291472 -0.0038596352 -0.0017604264 -0.002209994 0.00095260853 0.0017458535 0.0008905947 -0.00082173396 -0.0038744677 -0.0033201282 -0.0034205343 0.0014179077 -0.0009887903 -0.0009130628 0.0021561924 -0.0013939217 0.0034219564 0.00046512944 -0.0024939314 0.0014207086 -0.00355187 0.0035460752 -0.000115299175 -0.0013216581 -0.00051758817 -0.0028151302 0.00020500967 -0.00260969 0.0028468769 -0.0012953539 -0.003796264 0.0035799153 -0.0015218161 0.0016099234 -0.0015295043 -0.003207813 -0.00038998754 -0.0012916941 0.0032662237 0.0034353144 0.003325791 0.0009029256 -0.0014305254 -0.0017894654 -0.0016109715 0.0015726885 -0.0029515 0.0031935999 -0.00021328726 0.0013689448 -0.0035132172 0.0014170096 -0.0026505312 0.002076105 -0.0016823047 0.0022346207 -0.0010967181 0.0014018218 -0.00089728 -0.0031379473 0.003959831 0.0012137671 -0.0006023491 -0.0034727661 0.00016694632 -0.0032695287 0.002742562 -0.002665579 0.0012089321 -0.0010084953 -0.00059042085 0.00012450197 -0.00377312 -0.0010912669 0.0010305453 -0.0017452785 -0.002354287
172.016.114.079 0.00033817987 3.7167316e-05 -0.0018524063 -0.0016770224 -0.003006016 -0.001558567 0.0014294186 -0.0034971049 0.0037941847 -0.003645981 -0.00198444 0.002866289 -0.0010247172 -0.0013921092 0.0013656167 0.0019808048 0.0035653473 0.0028077378 0.003366657 0.00083412667 0.00057472766 0.002999797 -0.0005932979 6.6846376e-05 0.002288374 0.0010783968 0.00060621224 -8.1952436e-05 -0.0020879742 0.0032547452 -0.0011850967 0.003837327 0.002353845 0.0019113994 -0.0028181975 -0.003586813 0.0016644038 0.00044765678 -0.003707839 0.0024540047 -0.0034215446 0.0011699819 -0.003251843 4.2531647e-05 -0.0036602526 -0.0038338578 0.0018571308 -0.0007887538 -0.00017375202 0.0035636183 -0.00019152412 -0.002890903 8.3050094e-05 0.0020823975 -0.00089220545 0.0037261588 0.0022576249 -0.0033783768 0.0030008713 -0.00046213056 0.0010928854 -0.003339267 -0.0004703451 -0.0021184657 0.003447977 0.0034881912 -0.00079926726 -0.0014134801 0.0010368648 0.0032920795 -0.00091012794 0.0035192128 0.0026979772 -0.0010439997 0.0021379702 -0.0032735441 0.0037263092 -0.0028063958 0.002758688 0.0023028264 -0.0005406657 -0.0028309557 -0.00011773194 0.0007233104 -0.0038642483 -0.00037230924 0.0032632768 -0.0034105566 -0.0027925395 0.0034156532 0.0010997565 -0.0018223211 -9.940553e-05 0.00020334421 0.002955516 0.002170863 -0.0020426477 0.0032275016 0.0018842245 -0.0038234617 0.0007089552 -0.0017520773 -0.0032801377 0.00053975446 -0.0026556582 0.0010886678 0.0036315639 -0.001888594 -0.0006237987 -0.0022726925 0.00026602132 -0.003571261 -0.0005227874 0.0012457095 -0.0026996683 -0.0036683793 -0.00038744172 -0.0036720145 0.0034469522 -0.0014870362 0.001985263 0.0003854066 -0.0014644531 -0.003238343 -0.0017014949 0.0022735582 -0.00168312 -0.0022350778
172.016.114.012 0.0033179696 0.0007987836 0.0029724718 -0.0012545192 0.003798013 -0.0028430722 0.0015516661 0.00063302525 -0.0039251964 -0.0035727476 -0.0026999752 0.0036910684 -0.002280096 0.0012320371 0.003718651 -0.000916985 0.0025729204 5.348799e-05 0.0016306628 -0.0020158577 -0.0007572825 -0.002408072 -0.003014296 -0.0032950686 -0.0014364115 -0.0012149309 -0.0030112946 0.0016013471 0.0031911458 0.00071390864 -0.00024692318 -0.002053949 -0.0026171736 -0.0034314175 0.0038643265 0.0011510813 0.0020323945 -0.00018308565 0.0025442555 -0.0006655992 -0.003849828 -0.0036746822 0.0032789272 -0.0011682534 -0.0016927136 -0.002342118 -0.00022241594 -0.0032277661 -0.001332993 0.0020905829 -0.0025085239 0.0037677388 0.003095773 0.0014282899 -0.0011340105 -0.003447485 -0.0007467141 -0.0019604976 -0.0012494401 -0.0015369753 0.0038964779 0.002467148 -0.0011723813 -0.0033728601 0.00048172596 -0.001423303 0.0029530583 -0.00013043602 0.0013393322 0.00066361943 0.002326169 0.0027409373 -0.001597259 0.00011266096 0.0010747989 -6.8602865e-05 0.0015551649 0.0013571511 0.0003880771 -0.0014706418 0.002737762 -0.00079761335 -0.0020641345 -0.0035691678 -0.000117413016 -0.0011570129 -0.0014883928 -0.0022788201 -0.0003719977 -0.0028060812 0.00051106844 -0.0038552023 -0.0005028455 -0.00021311885 0.0014915906 0.0030893318 -0.00020383201 -0.0009659356 -0.0023508673 -0.00016407951 0.0020126975 0.0025843089 0.0032039667 0.00046050866 0.0019237605 -0.002906412 -0.0021054528 -0.0020185194 0.0005885654 -0.003049851 -0.00362114 -0.0017738931 -0.00040905463 1.2055722e-05 0.0006623431 0.0011179432 -0.0035826252 -0.0036177435 -0.0029339602 0.00019997335 -0.0036846315 0.0013702331 0.0025975974 0.0019223065 -0.0035292532 -0.00043788055 0.0011294427 5.299648e-05
172.016.114.251 0.003487071 -0.0008783541 -0.0024916995 -0.002498072 0.0032795644 -0.0032951927 0.0021998375 0.0009457552 0.00025584624 0.0018333461 0.00092549186 -0.00041595448 0.0011982467 0.0019305013 -0.0038735806 -0.002567932 0.0032646165 0.002123814 0.00090053445 -0.00018908143 -2.9223476e-05 0.002547624 -0.0036589205 -0.003350508 0.00034418196 0.0037351705 1.3586523e-05 0.0010708524 -0.0008830526 -0.0016171163 0.00033340682 0.0008129766 -0.0023701554 -0.0012606148 -8.0959384e-05 0.002870638 0.0030879322 0.0010192326 -0.0006252003 -0.0006795319 -0.0034063875 -0.0019905318 -0.0013489979 0.002587722 0.0033141477 0.0012743644 -0.0009768772 -0.0019602976 0.0036197426 0.0018113295 -0.0015790979 -0.002974111 0.0026620142 0.001965737 -0.0012037862 -0.002579482 -0.0034979517 0.0018309128 -0.0005410667 0.0026787792 -0.0010262191 -0.0015807666 -0.0036755244 0.0038065165 0.0006428115 -0.000729746 0.0016942455 0.0001281562 0.002980882 -0.00059488503 0.0027191055 0.00091594935 0.0015857691 -0.0014866176 0.00028555558 -0.0010687364 6.249741e-05 -0.0034613034 -0.0030843643 0.0016215119 -4.365635e-05 0.0017151065 0.002230707 -0.0003661153 -0.00066958956 0.00021146474 -0.0030510195 0.0022822362 -0.0036143376 0.0008502226 0.0021448466 -0.000105525134 -0.0028327517 -0.0024208636 0.0012906464 -0.003595365 0.002931154 -0.00013496248 0.0006411915 -0.0036043117 0.00329567 -0.0003069098 -0.0029394743 -0.0011013278 0.0035900464 -5.8183767e-05 7.701351e-05 -0.0031376628 -0.0006536363 -0.002104837 -0.0036110347 -0.0016518338 0.0019737955 -0.0014865531 0.002104077 -0.0016491464 -0.0021278653 0.0030750234 -0.003340238 0.00044821776 -0.0022313588 0.0021698375 0.0027082898 -0.0017846856 -0.003841326 -0.0034871213 0.00081762264 -0.0032880858
172.016.114.156 6.944951e-05 -0.0036961148 -0.0009376732 7.769844e-05 0.003662933 0.0004895142 -0.003203854 0.0006926941 0.00077885913 0.00064991455 -0.0034821364 -0.0017008987 0.00093317433 -0.0018724246 -0.0010017438 0.0006113048 0.0027903651 0.0026775517 -0.001356993 -0.0010374577 0.0025522148 0.0013261364 -0.00062464224 0.003097913 -0.0025160136 0.0010033501 0.000957728 0.00050129724 0.0022892244 -0.0016872652 0.00021696457 0.0025807903 0.0022450897 -0.0014473108 0.0028455418 0.0034304357 -0.0026008745 0.0004443632 -0.0027402777 0.003279993 -0.0027087713 -0.0013596218 0.002966697 -0.00084200513 0.00096685643 0.0007025391 0.0009859843 -6.0098962e-05 0.0017142796 0.0023782954 -0.0034610392 -0.00014892184 -0.0012833207 -0.0030859788 0.0025379402 0.0030605868 -0.002647547 -0.0008635007 0.0032522387 -0.0021843403 -0.0026214775 0.00061630097 -0.002670262 -0.0015271035 0.0006085173 0.0023270245 0.0021891233 -0.0005896357 0.0030472227 0.0032540208 0.00050650764 -0.0029291096 0.0022398133 -0.0037892647 -0.00268769 -3.3713197e-05 0.0033268398 -0.0023604943 -0.00016750829 0.002926287 0.0035331165 0.0010041016 -0.00014714467 -0.002223919 -0.0033969763 -0.0036707327 -0.0026187797 0.0031183332 0.0003126777 -0.0023532556 -0.0019986862 0.000301902 -0.0033087323 0.0027563723 -0.001979574 -0.0011774418 -0.0038230922 0.0003161166 -0.0021994724 0.0013327677 0.0033661053 0.00027690717 -0.002719866 -0.00093700393 0.0033013378 -0.00055480807 0.00230638 -0.0037232325 -0.00014418853 0.0016161612 0.003591584 0.0037239224 0.00084529544 0.0038912839 -0.0019930329 0.0002822425 0.0020825185 0.0021202823 0.0009674333 0.0013312503 0.0033910954 0.0029770571 -0.0010853258 -0.0019626238 -0.00071013544 0.0036541377 -0.0027332155 -0.0004044047
172.016.114.154 -0.00035447796 0.0031208487 0.00048325057 0.0017814967 0.0016249628 0.000446829 -0.0024390195 -0.0013581227 0.0011870994 0.0039167115 0.0038531164 0.0012141708 -0.0023322238 0.003539778 0.00025734754 0.0028959524 3.2311247e-05 0.0025461796 0.0030072257 -0.0028187556 -0.0019896645 0.0004648416 -0.003335189 0.000818022 -0.0015998903 0.0034439324 -0.0032932658 -0.0019045405 -0.003892734 0.0010814951 0.0017311247 0.0033440918 0.0022961718 0.0017560389 -0.0005367311 0.00047105347 0.00010518075 -0.0027802356 -0.0005992697 -0.002757195 -0.0025778124 -0.00047256585 -0.0007319727 -0.0019584156 -0.0005009082 0.00111137 -0.0015549001 -0.0021975818 -0.0027071792 -0.0029742643 0.000488862 0.002548897 -0.0021249724 0.0021959376 0.00079380994 -0.00021349419 -0.00025785112 -0.0020883407 -0.0032480918 0.0022921353 -0.0011411648 0.0017030103 -0.0029754245 -0.00087649346 0.0031103154 0.0019751086 0.003619343 0.0033526833 -0.0021554793 0.0014803625 -0.0023613963 0.0015811042 -3.2814416e-05 -0.0018941 -0.0009022772 -0.00311995 0.0025740112 0.0026213161 0.00080026145 0.00031353743 -7.284504e-05 0.003129513 -0.0038857858 0.00019548352 0.00014809995 0.0008688726 0.0036271943 -0.0031868597 -0.0025056447 0.0010442485 -0.0027151096 -0.0028327997 -0.003085991 0.0011070112 0.00088103744 0.0032267359 0.00054230297 -0.0024884702 0.0014488199 0.003547595 0.0009284811 -0.0031706716 0.000422001 0.0016103128 -0.0015614446 -0.0030918936 -0.00063251087 0.0011898212 0.0009551433 0.0012516887 -0.00087304274 0.0035820554 0.00045822514 -0.00030190972 0.00020246799 0.00040526252 0.0015990108 -0.00026010268 0.0025820048 -0.002729283 -0.0016808427 0.00046489472 -0.00060635403 -0.0021678552 -0.0019025232 -0.001843188 -0.0008769906 -0.0037101882
172.016.114.150 0.0014450743 0.0001815987 -0.0032234567 0.00059666263 -0.0036082203 0.0009845761 -0.00260509 -0.0009287261 -0.0015976584 0.0017404952 0.0033338857 0.0013326957 0.0002862775 -0.00033513128 -0.00086637906 4.3134867e-05 0.0021335883 -0.0020732495 -0.003118724 -0.0011950432 -0.001622024 -0.00030692274 -0.001216991 0.0005975761 -0.0021957909 0.0019988446 0.002780736 0.00041265177 -0.003553432 0.0032981068 0.0011069227 0.0011718335 -0.003453595 -0.0016152968 0.0031603936 0.0017475841 -0.0028181905 0.0032246744 -0.00092274835 -0.003037182 5.385018e-06 -0.0013646546 0.002392265 -0.0031179418 -0.0002006119 -0.0017522176 0.0008372119 0.00095278834 -0.0034246037 -0.0004936177 0.00055640127 0.0030422404 -0.0029411344 0.003194508 0.002836314 0.0027024664 3.355436e-05 -0.0027097128 0.0032430922 0.0033184176 0.0022422427 0.0031202445 -0.0015286938 0.00010018739 -0.0015771235 0.0019695875 -0.0010340207 -0.0036095872 -0.0029902654 0.0034236698 3.247494e-05 -0.0012433378 0.00064498524 -0.00067077926 2.1966298e-05 -0.0015029344 -0.0034595334 0.0032622998 -0.0024716188 0.0030952503 0.0015048002 0.0015479714 -0.003710774 0.002747824 0.002913854 -0.0014250804 -0.0011279035 0.0004105187 0.00078832963 -0.0029853592 0.0014170625 -0.0038852855 0.0034182796 -0.0035922774 -0.0014812859 0.0028245598 0.0015853051 -0.0004037414 -0.0016659762 -0.0027942127 -0.0029620037 -0.0018308347 -0.003186509 -0.0035820461 0.00010529896 0.0031531767 0.0002918363 0.003382797 -0.0020398195 0.0006269554 -0.0015037836 -0.003365135 -0.0030458742 -0.0016839053 -0.00035628772 0.0021479577 -9.555933e-05 -0.0024979657 -0.0034105522 0.002640325 0.0004825173 -0.0006710475 0.0003230645 -0.0014513335 -0.0020431834 -0.0018670036 -0.0021390028 -0.0035283898
172.016.114.097 -0.00020976324 0.0014862848 -0.0016704422 0.00091991713 0.0025538944 -0.0017815618 -0.0020610436 7.99982e-05 -0.0008080791 -1.3579755e-05 0.0020119343 -0.0027907596 -0.0016496085 0.0013653628 -0.0031234818 3.8158374e-05 -0.0031356523 -0.002322938 -0.001398973 0.00010555668 0.0029130974 0.0029240237 0.0037294668 -0.0030807543 -0.0035897514 0.0035534461 0.0039045091 -0.0030405477 0.00065804535 -0.0020000897 0.0015972015 0.0012546579 -0.0010465631 -0.0014469848 0.003165883 0.0008676764 0.00022309646 -0.0008125378 0.0006983351 0.0013930658 0.0036948533 -0.0033168385 0.00095892604 0.0027571488 0.0029642042 -0.0004249227 -0.0034982923 0.0026720483 0.0011798989 -0.0035463467 -0.0038750311 -0.00018715637 -0.0014964512 0.0017907034 0.002299224 -0.00094683963 0.002341366 0.0005923158 0.0008707658 0.00063395523 0.0015612807 -0.0025003375 -0.00042472073 -0.0031053524 0.003787946 0.0034679333 -0.0019137954 -0.00017338095 0.00050028955 -0.0013987521 0.00022799234 -0.0012786096 0.0011676403 0.00036423764 -0.0025252297 -0.0014214676 0.0028453523 -0.0003977137 -0.00036123322 0.0031492512 -0.0014260262 0.0004395166 0.0021330623 0.0012965122 -0.0009195321 0.0019763382 -0.0027750104 0.002798197 0.0005276327 0.0009946227 0.002459412 0.0008814275 -0.00014589245 -1.8886612e-06 0.0037977123 -0.0028854858 0.0031139613 -0.0032133579 0.0019244965 0.0015701845 0.0030550726 -0.003431668 -0.0011599493 -0.0012456448 0.0027946655 -0.000934131 0.00040291421 -0.0013925296 -0.0037290435 0.0012138523 -0.0034846598 -0.0019676108 0.001844579 -0.0008150238 -0.0035726773 0.0032504706 -0.0037877797 0.002505347 0.0018885336 -0.0021741283 -0.0033670848 -0.00066124386 0.0029203894 -0.0028939394 0.0020951445 -0.0010724638 0.0015808492 0.0031192496
172.016.114.095 -0.0034337402 0.0032618188 -0.00010061078 0.0021084286 0.00093455275 -0.0007414911 0.003076225 0.0025292125 0.0005244737 -0.0030476584 -0.003341661 -0.0030112942 0.0025421097 0.00017183236 -0.00049350556 0.0014362099 0.00012787317 -0.0038397668 -0.0008418776 -0.0013741888 -0.00053171784 0.002605872 0.0008866391 -0.00036969763 -0.002180098 0.0009841794 -0.003477458 -0.001819055 -0.0018382679 -0.00025296674 0.003262777 -0.0018229407 0.001926696 0.003028028 -0.0015117703 0.0017671885 -0.0019171536 -0.0009031646 0.00050874986 0.003840277 0.0022371316 -6.0191473e-05 0.0035921428 -0.0004980646 -0.00327931 -0.002757233 0.0021793973 -0.003060518 -0.0014788507 0.0020990267 0.0002835249 -0.0029191647 -0.0009330815 -0.0006691168 -0.003242473 -0.0029320403 -0.0007098343 0.0002448318 -0.0033826635 0.00066240464 0.00018004731 -0.001252179 0.0036371087 -0.00023891997 0.0013345743 0.0007213752 0.00010832845 -0.0024676244 -0.0033152984 0.0015136988 0.0031274385 -0.0036050756 -0.003128603 -0.0020078185 -0.00031339223 0.002128989 0.00075134763 -0.0025197861 -0.00093132164 -0.0022634368 0.0005562061 -0.0033591895 -0.0015011999 0.0015426984 0.0014261741 0.0011315264 0.0016204563 0.00389175 0.000530178 0.0020289945 0.0037969614 -0.003645993 -0.0033472208 0.0009972574 0.003410537 0.0018442717 -0.00045687126 6.8101144e-05 0.0017449899 -0.0036789647 -0.0010024462 0.00033372192 -0.0021748547 -0.003679649 -0.0035455553 -0.0007104428 -0.0018370467 -0.0014857497 0.0002210117 0.003154605 0.0016631148 0.0009548636 0.00291011 0.00039426255 -0.002439856 0.0031668216 0.0037525827 0.00077966327 0.0021642083 -0.0029202471 0.000665971 0.0015072752 -3.6476926e-05 0.0036507924 0.000698168 0.0034820964 -0.0036466292 0.00035025604
172.016.114.158 0.0011395089 -0.0030451422 0.0014563065 -0.00044121034 -0.0027990344 0.0034750905 0.00097587594 -0.0022332552 -0.0028038581 -0.002357996 0.0010452764 0.0033304817 -0.00018389882 -0.0017990611 0.0017891863 0.0012955705 -0.0039018677 0.0023468442 0.00052593247 0.003491325 -0.0032397304 -0.0034846365 0.0026189033 0.00016852359 0.0013413599 0.00037360768 0.00019947562 0.0010270074 0.0027339899 -0.0038356239 -0.0010195329 0.0034986937 0.0005145876 0.0013883666 -0.0020921193 0.0029151347 0.00022007387 4.342181e-05 0.002141217 -0.003023733 0.0023065377 0.0038284604 -0.0030643549 -0.0006032311 -0.003038506 0.0023412225 -0.0002845294 -0.0029452788 -0.000861131 0.0026797813 -0.0023476074 0.0011026755 0.0032655257 0.0037825208 -0.0030065202 0.0003461759 -5.371384e-05 0.00021374536 -0.0033418008 0.0019936617 -0.0017663861 0.002138258 -0.002732486 0.0032988456 0.002412213 0.0008777452 -0.002351018 0.0029646333 -0.0004194715 6.5037035e-05 0.0024196608 0.003010543 0.003691439 0.0009945838 -0.0017274931 -0.0015331152 0.00039444558 0.0002153404 0.0031638052 -0.00049523305 -0.0018829126 -0.0017959288 0.0012012206 0.0004417774 -0.0007055435 -9.069551e-05 0.0025204807 0.0013630452 0.0015778728 0.0027216976 0.0013943195 0.0027690046 0.00019338532 0.003472267 0.001623683 -2.4020203e-05 0.0033444979 -0.0020408588 -0.00082549726 -0.0020101198 0.0024917957 -0.0011115036 0.0004395568 -0.003664506 0.0024963247 -0.00073584943 -0.0019726402 -0.0013463845 0.0036664316 0.001480615 -0.0034431692 0.0032555119 -0.003878668 -0.0024543658 0.0026248393 0.0032951166 -0.0018693925 -0.00035594963 -0.001724011 0.00094032084 -4.5253306e-05 0.0007932868 -0.0017795293 0.00241113 -0.001923632 -0.003497507 0.002719512 -0.0014860405
172.016.114.061 -0.00068241416 -0.0012353752 -0.0016226749 5.229579e-06 -0.0029544246 0.0027398535 -0.002333604 -0.0021392887 -0.003728518 -0.0016006213 -0.00073933986 -0.002846113 0.00050307566 -2.593972e-05 -0.0013402893 4.4928125e-05 -0.0032093343 0.0013731788 0.0038116677 -0.0021140547 0.0020699329 0.0021047534 0.002611486 0.0028688177 0.0013340622 0.0021789242 -0.0030360224 0.0012381779 0.0011725121 0.0013017721 -0.0031951556 0.0014793383 0.0032695017 0.000841861 0.0022443398 0.0026529997 -2.231084e-05 0.000107694425 -0.0015523279 0.0037003327 0.00015889795 0.002346339 -0.0016912712 2.9881747e-05 0.002273053 0.0035802664 -1.7337508e-05 0.0014686129 0.0036197898 -0.0031393508 0.0021340481 -0.0034353065 0.0027356774 0.002371716 -0.0001276247 0.0029181517 0.0034561802 -0.0028872583 0.0016761724 -0.0036815093 0.0034991754 0.00089570595 0.0027741403 -0.0030456954 0.0005350263 0.0008872439 0.0030855183 -0.0033913713 0.0030206004 0.0018038133 -0.0026366564 0.00091302796 0.00010167508 -0.003842058 -0.002671401 0.0008062289 -0.0024751534 -0.003489289 -0.0007417304 0.0011336758 -0.0019016202 5.0563744e-05 0.002731805 0.00021599152 0.0036394997 -0.0022379605 0.0008857732 -0.00025606202 -0.0024142533 0.0012855262 0.0015977962 0.0022196586 0.0022422033 -0.0001807335 0.0037424113 0.00046987514 -0.00224129 -0.0029128308 -0.0010152146 -0.0008842075 0.0010805007 0.0038066648 -0.0012234214 0.003279622 0.002288557 -0.0024845402 0.0007868294 0.0028839086 -0.0021122326 -0.0028348689 -0.0035601282 0.0007423185 0.00061647396 -0.0003097487 0.0023968902 -0.0015224373 0.002020201 0.00092531595 -0.0001419668 -7.9028985e-05 0.00090808986 0.001443239 0.0036610186 -0.00088741985 -0.0018373687 8.868755e-05 0.0006361899 0.0017900305
172.016.114.004 -0.00049610145 -0.0017976038 -0.002011561 -0.0012385718 0.0019842917 -0.00091475924 0.000997157 -0.0001556409 0.00080186955 0.0010195215 0.00079714076 -0.003743606 0.003678382 0.0009953666 -0.0033618608 -0.0037358084 -0.00076708174 -0.00044172248 -0.0035275097 -0.0006835422 0.00033000993 0.0008768866 -0.0024480633 -0.001371734 0.00063677906 -7.498069e-05 -0.001324647 -0.003457867 -0.00015867913 -0.00013269464 0.0039340667 -0.00093666604 -0.0017685589 -0.00087935553 0.0004196332 -0.0036293191 0.002353866 -0.00038252046 -0.00199683 -0.00088229636 0.0024718973 -0.002236499 -0.0006093216 0.0037839396 0.002183884 0.0012907964 -0.0009110599 0.0037059062 0.0022547746 -0.0030649551 -0.0010399844 0.0031300075 0.0037582943 -0.0013933758 0.0013422951 0.0020736833 -0.002229687 0.0033382128 -0.0029460327 0.00091835146 0.0010269292 -0.00013507839 -0.00055373844 -0.0032904 -0.00071322324 -0.0021692722 3.3001612e-05 0.0026640112 -0.0023663172 -0.0004672739 0.0015535387 -0.0007346676 -0.0017109839 0.0025456396 0.0034134013 -0.0027381822 0.00063221564 0.002772034 -0.0017701298 0.0009622142 -0.0028448305 0.00048784437 0.0011029387 -0.00344782 -0.0012526416 -0.0012335451 0.0017368888 0.0026276014 -0.0009888264 -0.0016152484 0.00031194274 0.0026666885 0.0007023994 0.00014832 -6.5271444e-05 -0.0027286357 -0.0029961166 0.00039767518 0.002964929 0.0020121525 0.0037083942 0.0014381901 0.0027996392 -0.0035756584 -0.0016106365 0.0010628696 0.000202377 -0.0028344493 -0.0020998502 -0.0035363531 -0.0024377608 0.0006210498 1.7922013e-05 0.0035983138 0.0001928942 0.0032512 -0.0001405001 0.0018476112 -0.0015911976 -0.003159464 -0.0021173295 0.002285126 -0.0030343314 0.0014185078 -0.00062216836 -0.0014536768 -0.0008433722 0.0021500823
172.016.114.243 -0.0012418396 -0.0025218802 0.003913179 0.00037534797 0.0014525934 0.00055327045 -0.0014762809 -0.0022800944 -0.0005803315 0.0023950469 0.0023046471 0.0018586478 -0.0021768284 -0.00088978134 0.0025884479 0.002365747 -0.00232683 -0.0017120466 -0.00057789445 -0.0013299226 0.0011716909 0.0013303373 0.0014877154 -0.0013792322 -0.0021065031 -0.0010153734 -0.0028055855 -0.0037822912 0.0035383329 -0.0010060722 -0.0024719846 -0.0005084874 -0.0037700748 0.0027559823 -9.987609e-06 0.0013065481 0.0025262663 0.0024198026 -6.642572e-05 -0.0039373706 -0.003492892 -0.00093919894 -0.0038701305 -0.0003053022 0.0017171301 -0.0024240466 0.00084159453 0.0006978018 0.0013583924 -0.0009672442 -0.0019032813 -0.00060397317 0.00032798294 -0.0018538557 -0.0018826681 -0.0013936779 -0.00011771411 -0.0015083161 -0.0027245365 -0.0017330301 -0.0004410413 -0.0016698325 -0.0018170855 0.0018743732 0.0009257792 0.0037000403 0.0034100397 -0.00081050233 0.0033086669 -0.0015351856 0.0019584836 -0.0017378066 -0.0015507989 -0.002049048 0.0010363911 -0.0020088402 -0.0030068427 0.0035311913 0.00073100475 -0.0016764089 0.0012869418 0.0013137541 0.0007483201 -0.0026591409 -0.0022481831 -7.6280645e-05 -0.0013190599 0.0036425765 0.0037058073 -0.0010293858 0.0031639661 0.0024018742 0.0021282828 -0.0024609973 0.00074293773 -0.0024597729 0.0022722336 0.0004965245 -0.0035556515 -0.00042718125 0.0010815684 0.0016132788 8.314401e-05 -0.0023315863 -0.0035588234 -0.0017717555 -0.0002074228 0.0015987969 0.00026237054 -0.001385525 -0.0013873553 -7.469329e-05 -0.0038637784 -0.00066331413 -0.0036683062 0.0007226087 -0.0003980082 -9.588172e-05 -0.0028969746 -0.0007311431 0.0012694926 -0.0035559821 0.0003480892 -0.0023399892 -0.00044790455 0.0030053393 -0.0018634883 -0.0009179842
172.016.114.240 -0.0012937438 -0.0023560699 -0.0012202867 0.001862039 -0.0011107159 -0.003640185 0.000239611 -0.002905511 -0.0003556392 0.001981133 -0.0029378622 0.0036834455 -5.5922264e-05 -0.0019237316 -0.0007316715 0.0037646173 0.0032012884 0.00247778 -0.00079010514 0.0014757712 -0.0011855832 0.0019005873 -0.0024263225 0.0032994978 -0.0035187236 -0.001334427 0.003132581 0.0032714983 0.0017775563 -0.0005352692 0.00041244412 0.0019126001 0.0033719419 0.0022941788 -0.0031711743 -0.0022266132 0.002743661 -0.0037570477 0.0024012278 0.001549747 0.0009644258 -0.0034856824 0.000117416086 0.0019843793 0.00083834113 0.0017267741 0.0031729394 0.0008577459 0.0015760361 0.0009856303 0.0030963789 0.0034521685 -0.002190891 -0.0034200514 -0.0010053228 -0.00051833555 0.0036017715 -0.0010485017 0.0016473077 0.0015846237 -0.0037919122 -0.0015020004 0.0035432046 0.0016105352 0.0022050461 -0.0017238288 0.00038091006 0.00282246 0.0016147876 -0.0015215827 0.0031817157 -0.001133139 -0.0007335406 0.0016258474 0.0026521757 -0.0029267054 0.0012996513 0.0021789346 -0.0016727855 0.00044005617 -0.0008983604 0.00043555166 -0.0016117763 0.0008218669 0.0029863028 0.0017947054 -0.0027609284 0.0015058003 -0.002171011 -0.0025344077 -0.0036212192 0.003001906 -0.0016425772 -0.000522502 0.0015195956 -0.0020326795 -0.002226077 -0.0030724078 -0.00218608 -0.0003710563 0.0033650072 0.0024495665 0.0035826347 0.0017889849 0.0019113998 0.001664078 0.0021841875 0.0034956757 0.0014926209 -0.0034789538 -0.0022430713 -0.0027899607 0.0038352073 -9.7259304e-05 0.0035529225 -0.003369573 0.003846883 -0.0015032985 -0.0030961665 -0.00039072862 0.0014694806 -0.00074928935 0.0032028742 0.0027511362 -0.00314096 0.0018095222 -0.0003252697 0.0022530083
172.016.114.009 0.0024293824 0.0023877304 0.0023528545 -0.00321382 0.0026821906 0.0012773693 0.0018894679 0.0015815728 -0.0036154196 1.5957408e-05 0.0012773065 5.112674e-05 0.0021785342 -0.0016425423 -0.0027894478 0.00024674545 0.0011621818 0.0011871187 0.0037796625 -0.0025377548 -0.003132164 0.001993421 0.0019093081 0.00014978144 0.0036707039 0.0015782666 -0.0022479517 0.0010816448 -0.0026952596 0.00047239382 -0.0006013926 -0.002371751 -0.0017595706 -0.0019478849 0.00039457637 -0.0017991285 0.00010369875 -0.0021783623 -0.0015726944 -0.002968565 -0.0038945512 -0.0021115842 -0.003669122 -0.0038238948 0.003131906 -0.00039229292 -0.0038639335 -2.9037845e-05 0.0010826818 -0.0034139538 -0.0017579428 0.0024450687 0.00084649347 0.00030803282 2.0173742e-05 -0.0012914448 -0.0039260206 -0.0021030179 0.0018203014 0.0012297088 -0.0028268246 0.0015940035 -0.0017913207 -0.002113808 0.0035027098 0.0030564175 0.0022824418 0.003771271 -0.003371751 0.0037571064 0.00010247524 0.0008918427 -0.00034822465 -0.002703651 -0.0034550389 0.0020444477 -0.003575509 -4.2874024e-05 -0.0038081403 0.00027856964 5.7695805e-05 -0.0013314703 -0.0030550894 -0.0013870599 0.0015588406 -0.00045690665 -0.0030869865 -0.002390201 -0.0014811454 -0.0027360949 -0.0015913348 -0.0038333642 0.0036210283 0.0023344369 0.0024067392 -0.0014204276 -0.0037855837 -0.0026827801 -0.0018307099 -0.001012978 -0.0016999665 0.003105492 0.002714164 0.0032607513 -0.0006962241 0.003142122 -0.0032030735 0.0017744651 0.0039038362 0.0018840842 -0.00045624154 -0.0010917757 0.00084724254 -0.003450491 -0.0022259424 -0.0028887412 0.0012729004 0.0010686112 -0.0034181094 -0.0019156288 0.0027444547 -0.001462714 -0.0032276297 0.003584301 -0.00328637 0.0021035692 -0.00031072373 -0.0030113156
172.016.114.245 0.0028725758 0.0024357277 -0.00031600788 0.0017694397 0.0023796323 -0.003903108 0.00047324994 0.0035981003 -0.0018082802 0.00072708225 -0.0025974521 -0.0032805873 -0.0014858716 0.00016166794 -0.0016181552 0.0012272536 0.0016567121 -0.002622223 0.0027391955 0.0004205254 0.00045660473 0.0023330823 -0.0020478151 0.002567457 0.0037394857 -7.8641875e-05 0.00019960079 0.00084348326 -0.0029669267 0.0017706602 0.0031325617 0.0036644791 -0.0015531345 0.00089861726 0.0008698926 0.0022479557 -7.521076e-05 0.002172514 -0.0021218606 0.0026270575 0.0037003916 0.0037294836 -7.18543e-05 -0.0032104675 0.0015354716 -0.0020770545 0.0006570967 -0.0028252834 -0.0036394112 0.00015095995 -0.00045344714 0.0011033033 -0.0017899272 -0.003711743 -0.0035835796 -0.0026875262 -0.0029201098 0.00043270906 -0.00054247235 0.00096338877 -0.00037640706 -0.00065841706 -0.0025657767 -0.002022199 -0.003201172 -0.0020585537 -0.001855754 0.003065578 0.001859951 -0.0035537085 -0.001997411 9.00921e-05 0.0011359539 -0.0029023425 -0.0016868232 0.002898174 0.0012474825 0.0030328827 0.00037027543 0.0016505135 0.00032999602 -0.0020690216 0.00313598 0.0019449956 0.0028749574 0.0024280862 0.0012781468 0.0025310393 0.0034955402 -0.0004505626 -0.0019986166 -0.0015417573 -0.0034462214 0.0013801516 -0.0012889991 -0.003310203 0.0038081177 0.0005514008 -0.0020773034 -0.0024668565 0.0007343285 -0.00023903904 0.0035040986 -0.0016228755 -0.002538236 -0.0024102952 -0.000996835 0.0003449661 -0.0008090539 -0.0005273323 0.0011619038 -0.0029573212 0.003784915 -0.0034993708 0.0018938505 -0.0010100063 0.003475772 -0.001607177 0.0024016371 -0.002084591 0.001673761 -0.0027186745 -0.0020824939 0.0027648082 0.0016980658 0.003575027 -0.0017719421 -0.0032193502
172.016.114.081 -0.0013950849 0.0007278034 -0.0004700692 -0.00078997336 0.0003174018 -0.002676035 -0.0027895486 -0.00016601224 -0.0012230523 -0.003609525 -0.0029282686 0.0037359013 0.002683953 -0.00277675 -0.0020406502 -0.003065871 -0.002447559 0.001051871 0.0012380035 0.0023935142 0.00047289065 0.0013067825 0.0014266014 0.0029156827 0.0038551993 -0.0011408144 -0.001969112 -0.0013073398 -0.0006242189 -0.0013673156 -0.001799266 0.0033603017 -0.00065813086 -0.000106810505 -0.0029982035 -0.0006204067 -0.0030875423 -0.0026636822 -0.0021471605 -0.0030847355 -0.0030865835 0.001704618 0.001983076 -0.0015202544 0.0025439768 9.334967e-05 0.0018880278 0.0007099357 -0.0024728342 -0.0031719373 -0.0009929436 0.0016999333 -0.0019760674 -0.0019939393 -0.00025713837 0.0012762648 0.00015643508 0.0013969593 -0.001090932 -0.0022877702 -0.0017550754 0.002109778 0.0015571762 0.00010454916 -0.00032088705 -0.0023249788 0.003362181 -0.0004897958 0.0029421556 0.0032647776 0.0024968826 0.0027063491 0.002125703 -0.0023949933 -0.0038398465 0.0013311862 -0.0018354151 -0.0016628103 -0.0016516147 0.002145132 -0.0033831606 -0.0021319261 0.0029979274 0.00017954374 -0.00053113047 -0.0015122668 0.00250201 0.0004309112 0.0014928017 0.00011840878 -0.0020241179 0.0021655613 0.0015825256 -0.002488975 0.0004997414 0.00089665013 0.0033085437 -0.0007278342 0.0032371732 0.0031428908 0.0012596813 -0.0018459994 0.003497002 -0.00050744944 0.0013397088 -0.0012655883 -0.0024330858 0.0035030805 0.003454583 0.002901404 0.0026864468 0.002073506 -0.002451592 0.0017399777 0.0013731635 0.000675734 -0.002315352 -0.0009262419 -0.0019519901 0.0019979505 -0.003767468 -0.0029947348 -0.0007327952 -0.003158278 -0.000499514 -0.0020859917 0.002035608 0.00089772523
172.016.114.083 0.0011912718 6.403544e-05 -0.00317439 -0.0017370371 -0.0028849738 0.0023992949 0.0017047495 0.002593324 0.0022508847 -0.0024165425 -0.0037495804 -0.002565866 0.0018555011 0.0017253667 -0.0019871006 -0.0010965492 -0.0030834978 -0.0020493614 -0.0023711727 0.0017761519 0.0033414369 -0.0016883935 0.0037500241 -0.0023746062 -0.002164048 0.0024604162 0.0027816177 -0.00028947584 -0.0014598492 -0.00318628 -0.0029390526 0.0036989201 -0.0014589294 0.003562596 -0.00076878234 -0.0021677602 -0.00047102818 -0.0036679727 -0.0007039577 -0.00056303287 -0.0034551409 0.0014480858 0.0023181324 -0.0023531276 0.00014636654 0.0009789342 -0.0017336435 -0.0018176978 7.962758e-05 -0.0017846192 -0.003322125 0.00037695808 0.0029013092 0.0028451586 0.00048103384 0.0012731467 0.0014894882 -0.00024663965 -0.001677884 -0.0022578759 -0.0028118403 0.0010525706 -0.0011795495 -0.0020700663 0.0008386325 -0.0020282117 0.0019716024 -0.0022885695 0.00025729113 0.0012521371 0.0032627536 0.00261342 0.0030148858 -0.0026997824 0.0024546066 0.003880606 0.0013260936 -0.0013559499 0.0015043163 -0.0014636025 0.0005834931 0.0031940283 0.002922465 0.0013245548 -0.0019671645 5.088152e-05 -0.0011658979 0.0027761399 -0.0026530034 0.0037157591 0.0004559144 -0.0005514103 -0.001957692 0.0037884363 -0.0015322822 -0.0028877468 -0.0025374764 0.0021122792 -0.0016409139 -0.003339951 0.0018738782 -0.0035174896 -0.0019830998 -0.0005051279 -0.0023198184 0.0026167997 0.0016050619 0.003395786 -0.0027273202 -0.0030386075 0.00026864663 -0.0021826357 0.0030525282 -0.0013286534 0.0013039826 -0.0038432495 -0.0028070153 0.0004889073 0.00015171662 -0.0032009236 -0.0032818357 4.568612e-05 0.0008520973 -0.002259113 -0.0016314315 0.0036345846 0.00066443253 0.0011278566
172.016.114.189 0.0011153781 -0.002836072 -0.0005158958 -0.0015879548 -0.0033586358 -0.0030358313 0.0034103454 0.001521209 7.845182e-05 -0.0024770955 0.0026692513 0.003008939 0.00093287614 -0.0038358145 0.0031209276 0.002849418 -0.0031151772 -0.0011791248 0.000533566 0.00033579668 -0.002667483 -0.0013130078 0.003429471 0.003632188 -0.0030436476 -0.0009175369 -0.0018256081 -0.0030276123 0.0038580128 -0.00016822794 -0.0012768287 0.003535532 0.0020940988 -0.0004053604 -3.0881267e-05 0.00012286444 -0.0038921805 0.00046339165 0.0013086632 0.0021939771 -0.001592133 0.0018534708 -0.0035355028 -0.00019574109 -0.0037448027 0.00025245658 0.0021550073 0.0035626257 -0.003407739 5.632819e-06 -0.0014888566 -0.003056424 0.0034875623 0.0011612546 0.003112502 -0.002085959 -0.00024081506 -0.00019566523 0.0011450071 -0.0012512453 -0.0019551313 -0.0024001845 -0.0026538502 -0.002003988 -0.0029394194 9.3999064e-05 -0.0001863318 0.0035512242 -0.0033251918 0.0032236048 0.0026045572 -0.0018522817 -0.00088519184 -0.0023984162 0.0009031912 -0.0017287687 0.0013443305 -0.0031206908 0.0018953797 -0.0014595715 0.0029872213 -0.0024206361 -0.0014427761 0.0019001608 -0.0012372221 -0.00078885764 0.0023446889 0.0024346546 -0.0019909267 0.0022484364 -0.0013103411 -0.002850109 -0.0030558913 -0.00038238632 0.0020079957 0.0015770051 0.0010717594 0.00059249846 0.00030404583 -0.0037571716 -0.001222234 -0.0029730697 -0.0031605884 -0.002358664 -0.0024072512 0.0031967792 0.0020421725 -0.000680456 0.0030276563 0.0035429066 -0.0034755685 -0.0010014672 0.0015455274 0.0027068865 4.614364e-05 -0.003634146 0.0035366677 0.002991518 -0.00082663866 -0.0014500358 0.0020865018 -0.0012437532 0.0035905356 0.001581475 -0.00030417315 -0.0008505138 0.00055683363 0.003037922
172.016.114.030 -0.003874792 0.0034799264 0.00084485253 0.003276808 0.0026339935 0.0014420948 0.0009492262 0.0006916962 0.0033509384 -0.0007441262 0.0034491066 7.715549e-05 0.0015042315 -0.0033367488 -0.0019017999 -1.4751466e-05 -0.0032475477 -0.0032110098 0.0015373469 -0.00016363204 -0.003833448 -0.0035367326 -0.0028539752 -0.0016524896 -0.0028344758 0.0026441102 -0.0029917813 0.0015105334 0.0014947546 0.003668002 -0.0017479717 0.0011701164 0.002161486 -0.00045445142 -0.00010480789 0.001663629 -0.0011820513 0.0032113271 -0.0018115456 0.0007436746 0.002966325 0.0032110894 0.00017897986 -0.00172398 0.0019106936 0.0027081573 -0.0011430167 -0.000117512056 -0.001133218 0.00095871533 -0.0034207422 -0.0011087181 0.001388757 0.0005755646 0.0016040727 0.000828838 0.0038098407 0.0013187145 -0.00341441 -0.0038894964 -0.00063857547 0.00018489956 0.0014283606 0.002069348 -0.0032604758 0.0008462331 0.0025483866 0.0015766055 0.00050533516 0.0019442023 0.0016288309 0.0022218176 0.0015164575 0.002718536 0.0002329369 0.0036793244 -0.0022983868 -0.0008347377 -0.001736459 -0.0026011523 0.0033131407 0.002666355 0.0010450576 -0.0030372853 -0.00204876 0.002188454 -0.002794207 0.00039111794 0.0037223394 -0.0011593176 -0.003010203 -0.00031298978 0.0009941328 0.0010158184 -0.0018982434 0.0001196474 -0.003461852 -0.003015949 -0.0023487124 0.00033267713 -0.0031758756 0.0026245522 0.0023402378 -0.0018362157 0.000655196 0.0027187027 -0.0028563787 -0.001179217 -0.00068045367 -0.0038078402 -0.0013579237 -0.0038879993 -0.0030937702 0.0013795863 -0.0012321904 -0.0017571318 -0.0020438067 0.0002589745 -0.0024956197 -0.0015599856 0.0027955412 -0.0013823134 -0.003540131 0.0022776152 0.0032015701 0.003449304 -0.0012694929 -0.0015630933
172.016.114.036 0.0012494735 0.00068861735 0.0018960931 -0.0023462665 -0.0028477586 -0.00082730246 0.000617107 0.0011600398 -0.0022770788 0.0016082895 -0.0033757878 0.00085222226 -0.0013731326 -0.0013298639 0.0030574282 -0.00047956608 -0.0017673519 -0.0029368747 0.0022378555 0.0018528245 -0.0004833049 0.0026214048 -0.0008802567 -0.002415015 -0.0013753187 0.0024641138 -0.0038477855 0.00021202036 -0.0012336026 -0.003097399 -0.001777516 -0.00015147451 0.003158063 -0.00187564 0.0034786456 -0.0020080372 -0.0018504873 0.00011439905 -0.0011000186 -0.0007746004 -0.0030857543 0.0019131366 0.0034140316 -0.002178956 0.0006224607 -0.000211553 0.0012668245 0.00045782147 0.00090428593 -0.0008534357 -0.0035908516 -0.00063716323 0.0032762447 0.0022718443 -0.0029011348 -7.193148e-05 4.1813062e-05 -0.0010698561 0.00071031 0.00095776696 -0.00037092844 -0.0037530721 0.00072528276 0.00070207444 -0.00092590577 -0.00047592458 -0.0017349239 0.0028393383 -0.00043120998 -0.0016420401 -0.00032587582 0.002973506 0.0021287263 0.0026876195 4.5230932e-05 0.0034838873 -0.0003551996 -0.0012833951 0.0006928757 -0.0035342767 0.00097975 0.00034738376 0.00043535692 0.0037239785 0.0009422602 0.0011752193 0.00058932265 0.0030775042 -0.0013231055 0.0017201549 -0.002857223 0.00046303225 -0.0013660771 -0.0007373412 -0.0022848118 -0.00250404 -0.0032593855 0.0035854052 0.0021585505 -0.0019046912 0.00071235 0.0031647803 -0.0021385879 -0.0005319517 0.00089428073 -0.002948349 0.003312958 -0.0012720124 0.0029255126 0.0015591049 -0.0014022607 -0.0021320018 0.00018305605 0.0025488655 -0.0018823225 -0.0009393701 0.0013319429 0.0011919391 0.0025552574 -0.0022850223 -0.0018921512 0.0027946387 -0.0024645713 -0.00012475668 -0.0024763476 -0.00066687545 0.0035358686 -0.0021545852
172.016.114.038 -0.0032195281 -0.0006728912 -0.0009274818 0.0036340752 0.00087451073 0.0030034573 -0.0015407569 -0.0028283375 -0.00071807555 0.0024792592 0.0012686917 -0.0007291559 0.0015722361 0.00025232288 0.001114652 -0.0022864314 -0.0026341623 0.00069035246 0.0020146042 0.0027086693 -0.001697757 -0.0008936146 3.5542922e-05 -0.0010309278 -0.00030107677 0.0035481402 0.0006182373 -0.002543888 0.0024393226 -0.00027130145 -0.0025173863 0.0017766393 -0.0028190806 0.0023348504 -0.00046730874 0.0020045694 -0.0034750467 -0.003585981 0.0023064853 0.0003084738 -0.0009900421 0.002863678 -0.0026058906 0.0036839836 0.00036313926 -0.0013111007 -0.0033493375 -0.0023396804 -0.0007328379 -0.0002251858 -0.003126706 0.00046941504 -0.0030193003 -0.00245528 -0.0032579417 0.0011321451 0.0034582675 0.0013434079 -0.00024654542 0.0035137408 0.0028618155 0.0020474016 0.0026220428 0.002208578 0.0006106469 0.00014747054 0.0024224373 -0.0006015655 0.0019726176 -0.0021002686 0.0026140308 -0.002726718 0.00048510585 -0.00316012 0.0024290201 0.001317694 0.0036397232 -0.00023160693 0.001683635 -0.0033924165 -0.0022440052 0.001813184 -0.0011160575 0.0008131339 0.003707121 0.0010999664 -0.001263542 0.003519846 9.468247e-05 -0.001724639 -0.0034676578 0.0032675918 0.0011125273 -0.0032185176 -0.0011439107 0.0037284144 0.0018157411 0.00026912667 0.0034999193 0.0024901202 -0.0035697124 -0.0029104715 0.0025161728 -0.002825174 -0.0029315122 -0.0026276936 0.0024332667 -0.00020833913 -0.0037211413 0.0009244962 -0.0032073087 0.0015341718 0.0032860844 -0.00018189997 -0.0008150468 0.0010297996 -0.0022222337 -0.0034070404 -0.0015710472 -0.0008509444 0.00060571736 0.00049861375 0.0029367488 -0.00062905037 0.00085793267 -0.0031497236 0.0011610311 0.003597703
172.016.114.134 -0.0033552987 -0.0002371007 -5.689021e-05 0.0012393714 -0.0012027968 0.00085177686 0.0015020313 -0.0017974039 0.0015723401 0.0037451147 -0.001969522 0.0024068665 0.0011143867 -0.0031596795 0.00060262764 0.0011363543 0.0028020653 0.0024865214 0.0024663003 -0.0029938207 -0.0030112597 1.8622184e-05 0.0033486239 0.0009034505 0.0022121368 0.00050555903 0.0035671396 0.0021372952 -0.0033646224 0.0032205128 0.0029481093 0.00012691358 0.00054986606 -0.0004566616 -0.0023776037 0.002704636 0.003591505 -0.002423918 0.0017732079 0.0006770531 -0.0005106487 -0.003756237 0.0010012611 -4.3601263e-05 0.00028211938 0.002451022 -0.003735167 0.001842817 -0.0026801487 -0.001924569 0.0014117578 -0.00387198 -0.0022380159 0.0034007726 0.00019887436 -0.0029333793 0.003239783 -0.001069888 0.0032905822 0.0008554517 -0.0028490575 -0.0009467866 -0.0027178265 -0.00063467346 0.00115403 0.0026968997 0.0026853988 0.002017223 -0.0027020534 -0.000993046 -0.0030490013 0.0034281963 0.001085864 0.0013468952 -0.0009692698 0.0014292591 0.0011406614 0.0025558674 -0.0029396457 -0.0021381218 0.0015831024 0.0012529449 -0.002681026 -0.00036216973 -0.0035452598 -0.003881486 0.0021668426 0.0035138743 -0.0025493258 0.0023293388 -0.002795931 -0.0026964531 0.0037689796 -0.0027169972 0.0025918102 -0.001746577 0.00051862816 -0.00051903346 0.00092968595 0.0011965166 -0.0037854547 -0.0029232597 0.0026679593 0.0009708074 0.0035507793 -0.001953114 -0.0015408831 0.0026047076 -0.0017560632 -0.0018631741 0.00039880147 -0.0023839502 -0.00020456717 0.0034878228 0.0024754645 0.0028581424 -0.0021399765 0.002995849 1.9253945e-05 -0.0021009294 0.00041590404 -0.00014279792 -0.0019995333 -0.0021307636 0.0036416964 0.0009664393 -0.003135882 -0.0033716331
172.016.114.233 0.0033180818 -0.0032307673 0.0015124787 -0.0005720454 -0.00097501057 0.00025383057 -0.0018071352 -0.00163428 0.00071212923 0.0031639782 0.0006926967 -0.003741044 -0.00023588381 -0.0020847723 0.0035838753 0.0010755142 0.0012051659 0.002421052 0.0035210492 0.0026220037 -0.003198309 0.0016545696 -0.0037238968 0.002556359 0.0017847501 -0.0013963907 -9.344869e-05 -0.0013196883 -0.0008367238 -0.0007540118 -0.0014515475 0.003544699 0.0023174395 -0.0032924637 0.0016345155 -0.002219104 -0.0034672867 -0.0020719885 0.0019498904 -0.00029379904 0.000391351 -0.0010635133 0.0003759234 0.0015907405 0.003656584 -8.3334766e-05 0.0034293092 -0.002682046 0.0034276422 -0.0037357884 -0.0037123791 0.00056561537 -0.0019570326 0.00018048756 0.0038763427 -0.0010986862 -0.0031594664 -0.0011700711 -0.0010029917 -0.0010269544 0.0036012328 -0.001797848 0.00030134438 0.0029520998 0.00080615917 0.0023856647 -0.0022000351 0.0037033174 0.0010098239 -0.0035606534 0.0032747618 0.00038389832 0.00048689748 0.0024761222 0.0001115639 -0.0038794617 0.0017750023 0.0005245185 -0.0022708748 -0.0019334272 -0.0021593142 -0.0007966362 0.00061880983 0.0019351047 0.0030916075 0.0025177267 0.0018835006 -0.00041599738 0.0033451384 0.00070658134 -0.0017987683 0.002143582 0.0023357635 0.0011477484 0.00047295753 0.0025782466 0.00305833 -0.0009585896 0.0038188815 0.0017735419 -0.0028581133 0.0012444422 0.0025169656 0.0031928322 0.003126723 -0.003121747 -0.0033828914 -0.0020829786 0.0009938853 0.0015499174 -0.0037324633 0.002006689 -0.0014512353 -0.00051039935 -0.00022820942 0.0030536728 0.002161571 -0.0010617953 0.0030117866 -0.001848043 -0.00048213368 -0.0034222251 0.0024752738 0.002168983 0.0007187502 -0.0037815068 -0.0031971093 0.0010541768
172.016.114.023 -0.00027829828 -0.0017205022 -0.003756245 -0.003462948 -0.002305476 -0.003201388 -0.002480013 -0.0007627161 -0.0031683804 -0.002485563 0.0021857617 -0.0032449916 -0.0030545364 0.0012964882 0.0006230688 -0.00021979575 -0.0016976655 0.0008523359 0.001345722 -0.0034742255 0.0011634977 0.0011771384 0.0035234937 0.00079196965 -0.00080597337 -0.0031023938 -0.001987127 0.00026056182 -0.003695092 0.0012638636 -4.903158e-05 -0.0001643241 -0.00093768863 0.00014754971 0.002676801 -0.0025481363 0.00021057244 -0.003802195 0.0020844643 0.0030380508 -0.0005829717 -0.0020336774 0.002842528 -0.0016279942 0.0035447888 -0.0015560155 -0.003744855 -0.0033701858 0.00066162186 0.0019144194 -0.00085241144 0.00079823326 0.0008567565 0.0020049068 0.0022555701 0.002851613 -0.0016956674 0.0034266294 -0.0027553258 0.0010375159 -0.0013594021 0.0010557023 -0.00017940416 -0.00045934308 0.0030839522 0.0024081771 0.0014248644 -0.002704409 -0.0018435349 0.0027660818 -5.7313082e-05 0.0022408634 -0.0038274087 0.0015890632 0.000376041 0.0014738791 0.0015127499 -0.00020713767 -0.0016833147 0.00021908293 -0.001311825 -0.0019874938 0.0038468465 0.0019932769 -0.0012846634 -0.001971729 -0.0034828493 -0.00033364486 -0.0038817555 0.00028144312 -0.00086838123 0.0007201182 -0.0038301584 -0.002529322 0.0010207308 0.0034665426 -0.0033555238 -0.0003317538 0.0005209496 0.00043819836 0.0004207051 0.00026672418 -0.002251231 -0.0030457873 0.002566792 0.00042756202 0.001134632 -0.0035091343 0.002600357 -0.001270734 -0.003502453 -0.002210009 0.0009510762 -0.0013348468 -0.0016273342 0.0038675242 0.00064103457 0.000227718 0.0011401062 0.0019456523 -0.002088995 0.0024286506 0.0037945036 -0.0036193454 -0.0018662397 -0.0020254334 0.0013063425 -0.0033922473
172.016.114.247 0.0028849642 -0.0015332038 0.0013107252 -0.0035764703 -0.0010718227 0.0018731124 0.003153728 0.0034554484 -0.0018559715 0.0009399703 0.0020788598 -0.00056087476 0.0010442386 -0.0014651924 0.0017056522 -0.0022517946 0.0011179148 -0.0032087055 -0.002773634 0.0008912606 0.0016424228 0.003086274 -0.0025256395 0.0032088766 -0.0024932206 -0.0009119453 -0.0023498803 0.003214217 -0.001390208 -0.0028634702 -0.0015519678 0.001562202 -0.0013504855 -0.001050631 0.0034890333 0.0029124115 0.0025485624 -0.0015445923 -0.003308751 0.0020587505 0.0035251386 0.0020704255 0.0031391052 0.001303611 0.0019561455 -0.0028672481 6.821534e-05 0.0010594458 0.0020455513 0.0034997654 -0.00014562944 -0.0027680467 0.0028779581 0.0010265303 0.0011411988 -0.0038665696 0.00107124 0.0007891001 0.0006041355 0.00230037 0.0023584918 -8.158289e-05 -0.0009467755 -0.002902799 -0.00087512465 -0.0006599232 -0.002406213 0.0023378984 -0.0025127407 -0.0033605453 0.003464264 0.0031362923 -0.0022317353 -0.0020851602 -0.0028266944 -0.0014684253 0.0022286577 -0.0036608335 -0.0009986692 0.0032124466 0.0018246643 -0.0019097934 0.002207508 0.0013482113 0.002803055 -0.0027659193 -0.0034120926 -0.0005864257 0.0014291389 -0.0033223897 -0.002388493 -0.003206739 -0.0028969334 -0.0006016798 -0.0018766759 -0.0033562046 0.002069594 0.00039108633 -0.0035292758 -0.0016333456 0.002995023 0.00319769 -0.0011359218 0.0022947679 -0.0005400091 0.0028524697 -0.00040657914 0.0013542582 0.0010752241 0.00066615315 0.0028575694 -0.0013285696 -0.0020316546 -0.00094353844 -0.00033284136 0.0026103235 0.0030739417 0.000783607 0.003545807 0.0022822917 0.0022676939 -0.0016244551 -0.0007322417 0.002013958 -0.0011330744 -0.002521352 0.00032602227 -0.0014325576
172.016.114.227 0.0016651168 0.0008160635 -0.00010537202 0.0031574343 0.0014541834 -0.0026458083 0.0022903406 -0.00031412358 -0.0014024994 -0.0026065465 -0.0022707798 0.0037578442 0.0019919286 -0.0034856685 -0.0032094186 0.00222043 -0.003480563 -0.0005816625 0.0016435881 -0.0019744043 0.0025052112 -0.0009574402 -0.0015036643 -0.003273312 0.0016265746 -0.0031953792 0.0008975842 -0.00024717776 -1.07304595e-05 -0.0030120737 0.0034915577 -0.002475915 0.0029136192 0.00011534956 0.0023641416 0.0010365519 -6.89367e-05 -0.0032090982 -0.0017411642 0.0027755382 -0.0027482668 -0.00056194497 0.002342658 0.0029576882 -0.0016379791 0.002886925 -0.0017894462 -0.0035246343 -0.0021443604 -0.000849163 -0.00091956643 -0.0026566102 -0.0013164141 -0.0010008194 0.0010603147 0.0036452792 -0.0038439182 0.0015946439 -0.00040066298 0.0032581359 -0.00094594114 0.001458063 0.0027425194 -0.0019084743 -0.003066278 0.002517561 -0.0020296294 -0.002246056 0.0038556685 -0.0035645026 0.002167424 0.0026088154 -0.0012644123 0.0022021374 -0.0021375378 -0.0015008714 0.0031208722 -0.0010398108 0.0017685704 0.00091092597 0.0038344434 -0.001194618 0.0036744273 -0.0003719994 -0.00081010733 0.00077109615 -0.0016282656 0.0032695339 0.0016028837 0.0008700321 -0.001166159 -0.0019103482 -0.0012605938 -0.0028756792 -0.000995482 0.003506698 -0.0029546856 -0.0037251445 0.00205349 0.00044823403 0.003796862 -0.0009773696 8.562835e-05 -0.0031122866 -0.0033943465 0.002028762 0.0025371988 0.003174848 0.0015429469 0.0019107651 -0.003488788 -9.785359e-05 -0.0033343018 -0.00189675 -0.0016588119 0.0017063712 -0.003363415 0.0031587693 0.0022516437 -0.0036010246 -0.002595052 0.00076460495 -0.0032404216 0.0021761332 0.0019055154 -0.002478689 -0.0017489663 -0.0020792396
