29 128
194.027.251.021 -0.0030163282 0.0005659478 -0.0035567284 -4.965913e-06 -0.002770583 -0.0029019678 -6.4791384e-05 -0.0037489806 -0.0029642673 -0.0011791432 -0.00202212 0.0026980003 -0.0015334635 0.0032713918 -0.002659774 0.003980975 -0.0005668953 -0.0009263883 -0.0040815934 0.0041608433 0.0021985124 0.0008896945 -0.0037973118 -0.0011580931 -0.0015606504 3.668696e-05 0.0027418304 -0.0013609773 -0.0038434928 0.002771013 0.0010652714 0.0015099397 -0.00059395935 -0.003389085 -0.0016692855 -0.0018585221 0.0022416015 0.0037874957 0.0029365607 0.0011235566 -0.00079069304 -0.0032007247 0.00393354 1.1525119e-05 -0.0038866994 -0.003993807 0.0019754746 -0.00038634764 -0.0020920783 -0.0014281323 0.0038176684 -0.0032268306 0.0029131304 0.0024339228 0.0019721608 -0.00083981437 0.003739307 0.00016549657 0.0011251946 -0.0021914698 0.0011250895 0.0005986935 0.0018306128 -0.00019334407 -0.0036867792 -0.0041438113 -0.0037739393 -0.00053590524 0.0007563101 0.001557258 0.0021502061 -0.0032484091 -0.002022558 0.0012227214 -0.0033547925 8.958823e-05 -0.00032793175 0.0031009384 -0.002921835 0.003668859 -0.00047975336 -0.0027723953 0.0023737745 -0.002053916 0.000371103 0.0018030967 -0.0002131318 -0.002339083 -0.0032908835 -0.0006739296 -0.0015576917 -0.000411472 0.0040034074 -0.0024413576 0.0023717026 0.001965779 -0.00019497397 -0.0017956139 -0.0038135096 0.00075765897 0.0017589972 0.0012162878 -0.001028447 -0.0020876585 0.00017558063 0.0018334809 -0.0003611513 0.001318727 0.002756148 -0.0025324991 0.0028589664 0.0015225953 -0.002196743 -0.0033094531 -0.0035878408 0.0001950769 -0.0032408438 -0.0020887242 0.00055041263 -0.0011195034 0.002415601 -0.0023122712 -0.0015806608 0.0014416281 -0.00050711504 -0.00072652573 0.0035183122 0.00091297925
192.168.001.001 0.00028725594 0.0016817466 -0.00034076459 -0.0014826697 -0.0036900677 0.0016589873 -0.0031403953 0.0021549785 -0.0017828954 0.0022943139 -0.0007210213 -0.00010679384 4.548886e-05 0.0030128055 3.871342e-05 0.0002032523 -0.0037602666 0.004095146 -0.004196418 0.0033684382 8.634282e-05 -0.0013980843 0.0016617558 0.0014793142 -0.0037474907 0.0010708274 0.0022259152 -0.0032660267 -0.00013911727 0.0010103026 0.002786858 0.003406402 0.00072824536 0.00028331403 0.0022955604 -0.0004684464 0.0017861158 -0.00040157975 -0.0021757614 0.0033861822 0.0029677942 0.0022557545 0.00016745113 -0.0034112448 0.002494324 0.00021577191 0.0020127587 0.003047898 -0.004204446 -0.0030784083 0.004178067 0.0033792655 0.0021873922 0.0036007995 0.00024797715 0.0025291205 -0.001680398 -0.002888489 0.002733182 -0.0042965827 0.0020101184 0.0009280063 -0.00058484403 -0.000254127 -0.0030116925 -0.0042607314 0.002150496 -0.0041171163 -0.0034430402 0.0001813615 0.00024331357 -0.0034145603 -0.003830793 -0.0002592747 0.0014981711 -0.0001333649 -0.0030384487 0.004078556 -0.0017104239 0.0019058624 0.0032372489 -0.004133067 0.0024431755 -0.0006574763 -0.0015456954 -0.0016132939 0.002479449 0.0029362629 0.0028175993 -0.0019564691 4.4229848e-05 -0.00084777677 0.0025106678 0.0033583988 0.0036435488 0.0022175116 0.00024383962 -0.004167881 0.0021659113 -0.00085513765 -0.0023302317 0.0029281299 0.00039523086 0.0032093937 0.0030197767 0.002280689 -0.002741517 1.41991595e-05 -0.0025283643 -0.0026934934 -0.0021633795 0.0011171132 0.0008783409 -0.0016222281 0.0019643006 0.00010591754 0.0036229652 -0.0021287836 0.0012333388 0.0007896338 -0.0025911778 0.0017686357 0.0031706174 -0.00074813724 0.0013492727 0.002821291 -0.0015796502 0.0026115964
172.016.112.050 -0.0030658834 -0.0016155035 0.0012771934 -0.0002480847 -0.002689915 -0.0012848999 -0.0020585083 0.0034441813 -0.003709269 0.0023541867 0.0004020001 0.0028405641 -0.0031558697 0.0021115744 -0.0029936223 -0.0014223343 -0.001543009 -0.0034619814 -0.0020559337 -0.0025676403 0.0016596884 -0.0020923254 0.003392374 0.0011555356 0.0018344662 0.0034540955 0.0038776195 0.002735632 -0.0038564282 0.0010850885 0.00094663637 0.0006181062 0.0022024256 0.0025262774 -0.00092992693 -0.0019132047 -0.0022210793 0.0008580062 -0.0014229477 -0.00015769675 0.00016415952 0.002320309 -0.0038302853 -0.002051342 -0.0038865176 0.001195687 -0.0037377502 0.0016747897 0.00034252 -0.0037735356 -0.0013495124 0.00081442605 -0.0025870253 0.0013023997 -0.0010163962 -0.0029027585 0.0019088351 -0.0018043988 -0.00025179266 -0.00016817218 -0.0009451545 -0.0011598348 -0.003625777 -0.0021135258 -0.0009330813 -0.0011800359 0.003551306 0.0026975756 -9.127972e-05 0.0018081559 0.0016669933 0.002775183 -0.0019897707 0.0011966244 -0.0023988553 -0.0024964425 0.00350824 -0.0005077515 0.0013814624 -0.003172794 -0.0033229378 0.002012439 0.002967255 0.0024212166 -0.0007271785 -0.0022426376 -0.0015194654 0.003676687 -0.0013850686 0.0021468778 0.0034218887 0.0006458287 -0.0010611872 -0.0013587432 0.0010420642 -0.00028891416 -0.0031081492 0.00023375404 0.0003696821 -0.001970357 0.0038153804 0.0012259565 0.0024926485 -0.0009908996 0.0012353647 0.0008749225 -0.0025598924 -0.002166215 0.0017317956 0.0016306496 -0.003302142 0.0013988992 0.0015926084 -0.0035414107 -2.3204424e-05 0.002012261 -0.001950079 0.0025327438 -0.00018641622 -0.00381924 -0.0015611212 0.0010120837 0.0034407808 -0.0012673696 0.00028200136 0.0013267755 0.0010074251 -0.0030984723
172.016.114.050 -0.0003717007 0.0024900965 0.0021887722 3.2279495e-05 0.001550112 -0.0034492111 -0.0010429214 0.0003646473 -0.0011356792 -0.0030005202 0.0019293234 0.0035616583 0.0027880692 0.00247722 -0.0035796617 -0.003532556 0.0026869834 -0.0033375164 -0.0039063664 -0.0009927526 0.0012896967 -0.0032746184 0.0027996954 0.0034479818 -9.244225e-05 0.00030623193 0.0025058736 0.002132068 -0.0018838537 -0.0011302717 -0.0038717452 -0.0014789334 -0.0010779338 -0.001665002 0.0037085803 -0.00019821522 0.003931996 0.0029976366 0.0025452876 -0.0018643859 0.001455605 -0.0028773542 -0.003174601 -0.0005211612 -0.0023887253 -0.00050472305 -0.00032643802 0.002177477 0.0011795384 0.0014696738 0.00014692792 0.0015868512 0.0029349604 0.0026790898 -0.0030942094 -0.0014306768 0.003607588 0.00029117436 -0.00093123753 -0.0018449528 -0.001606741 -0.0036649047 0.0033212085 -0.0014243689 0.00078539364 0.003288331 0.0019321932 -0.0011926477 0.00089136796 -0.0002491577 -1.1484158e-05 0.0026710376 0.003186763 0.0033528 -0.0025596437 -0.00018172007 -0.0020656444 0.0035941445 0.0031095273 0.0008434497 0.0019245048 0.0033668135 0.0022273434 -0.003580088 0.0027467199 -0.00014098997 -0.00089971273 0.0033144238 0.0022195699 -0.0037017688 -0.00092878216 0.003270853 -0.0035947838 0.0028485593 0.0027077268 -0.0035781497 -0.0038253947 -0.0010292294 -0.0026054645 0.003559654 0.0024148913 0.0027924418 -4.7862824e-05 -0.0008287538 -0.0029140043 0.0017957066 -0.003454266 0.00022675723 -0.003109119 0.0012292637 0.0024111313 0.0022128464 0.00175421 0.0017593289 -0.0035279854 0.002763238 0.00085514504 -0.002960418 -0.0030035444 -0.002385474 0.001131005 -0.0006937837 -0.0036386861 0.00082022423 -0.0031858694 -0.00061567355 -0.003255461 -0.0026806644
209.066.124.019 -0.0018074388 0.0029943648 0.0035955252 0.0006121435 0.0024332183 -0.0021174059 -0.003352992 0.0012816894 0.00025808858 0.00013397819 0.003421812 -0.003638787 0.001963204 -0.00071575586 0.0002681319 0.0025816981 -0.00019876643 -0.000729152 -0.00019412674 -0.0024257423 0.00018566177 -0.0004125737 0.0034114183 9.683382e-05 -0.0019985922 0.0002723753 0.0008975613 0.0019893092 -0.0034523727 -0.0015083889 -0.0034352485 0.0037519333 0.0028903845 0.0013221306 0.0033942037 -0.0037242838 0.0033858023 -0.0021426934 -0.0035543703 -0.00022700956 0.0022069411 0.0032023506 0.0021511728 -0.0021935971 0.0034850591 -0.0028545249 0.0031612965 0.0020875826 0.0006544937 0.0010120202 0.0039372277 0.0014152074 0.0009082876 0.0016278177 -0.0021848085 -0.0018622979 -0.0018130802 0.0036681057 0.0021727437 0.0011382123 0.0009776879 -0.0024814701 0.00045144977 0.001033803 -0.0030551185 -0.0011014096 0.003874941 -0.0016246783 -0.00019609538 -0.0023350327 0.0022193384 -0.001806357 0.00021335916 0.0014002495 -0.0011887971 -0.0008535823 0.003226336 0.000445175 -0.000121919555 -0.0014523427 0.0028501037 0.0015390901 3.6891797e-06 -0.002556629 0.0034579805 0.0024050127 -0.00037483714 0.00082741823 0.0019239745 -0.0011475101 -0.0029257368 -0.00014918616 0.0029297792 -0.0012284165 -0.0021529114 -0.0013680668 -0.0014108462 0.0028608711 -0.00083644374 -0.0008866804 0.0006861609 0.0027836135 0.0004669213 0.00053655985 0.0029888502 -0.0019359601 0.0037526863 0.0023583267 -0.003353104 -0.0010925813 -0.00095341285 0.001035308 0.0021701201 5.9129965e-05 0.0018157839 0.0012221793 0.002275168 -0.0020043962 -0.0030852887 0.001736261 -0.0010978439 0.00022771678 -0.0010074252 0.0030222693 0.0033998298 0.00070061465 0.0028971615 -0.0018062029
197.218.177.069 -0.0028609384 -0.003589746 -0.0011056729 -0.00220115 -0.001306446 0.0029978538 1.919824e-05 -0.00029868772 -0.0017511301 -0.0010485952 0.003116377 0.0029336612 -0.0030856747 -0.00014465643 0.0012991865 0.0016618291 -0.00027246858 -0.0011000457 -0.0037270333 0.0027697522 0.0014674242 0.00069205795 -0.003787676 0.0025094624 -0.003196814 0.0018201509 -0.0021552332 -0.0015048428 0.002105476 -0.000577315 -0.0020978765 -3.6836973e-05 -0.002907529 0.0020922043 -0.0030617965 0.0006335251 0.0017631251 -0.0013866657 0.0010487249 0.0007827399 -0.0022749798 0.002765045 -0.0018455725 0.0038259574 0.00066161016 0.0026637472 -0.0012295813 -0.0011498362 -0.0029378629 -0.0015378102 0.00076799194 -0.0032998691 0.0019646198 -0.00012021166 -0.0005704015 -0.00061536283 0.0002315255 0.002720125 -0.0022664214 -0.002458913 -0.0034051258 -0.0006413801 0.0009737362 -0.0018642031 0.0014850626 -0.0011966415 -0.002941041 0.000706563 0.0015158728 -0.003489005 0.0028860287 -0.001751308 -0.0010717202 0.0028919927 -0.0028648619 -0.0016990936 0.001828249 -0.00041717163 0.0013795068 -0.000989298 0.0019210175 0.0006666357 -0.0034132241 0.0014378069 -0.000284911 0.00019853715 0.002830826 -0.002867462 0.00075937045 -0.0020288604 -0.00058923813 -0.0016788577 0.0011555958 0.0018773165 -0.0037373677 0.001188217 -0.0003717996 0.0022410029 -0.0038396888 0.00010382084 -0.0035322106 0.00026230625 0.0011799814 0.0026372923 -0.0008986874 0.001973287 -0.003914044 0.0002891212 -0.0009501549 0.0025993306 -0.003911018 -4.369345e-05 0.0021626055 0.0033047423 -0.00022096245 0.0011948838 0.0022213454 -0.0014818398 -0.001866609 -0.0011774556 0.003646071 -0.001570044 0.003765656 0.0009884312 -0.0027692926 -0.0019420162 0.0037512907 0.0010660869
172.016.113.050 0.0022567865 -0.00060687674 0.003226787 -0.0036181845 0.0015803818 0.003416026 0.002149616 -0.0017020929 0.0023486365 -0.0011782793 0.0036350917 0.0015214357 -0.0014392093 0.0012344382 -0.0008280713 -0.0029252619 0.002032558 -0.0019825075 -9.463477e-05 0.0018843181 -0.0025570274 0.0022660168 -0.0033587366 -0.00068202405 -0.0037274747 -0.000980268 -0.0010556168 -0.0015776419 0.001330233 -0.00015015485 0.0021106503 0.003734662 0.0015614843 0.0020880671 -0.000105172 0.00045747592 -0.0002854406 -0.0024498715 0.0015651493 -0.0030526256 0.0004731116 -0.0018568482 -0.0009967024 0.0015974609 0.0018999523 0.003147018 -0.002377196 0.0017449907 0.0019628636 -0.0036441311 0.003861614 0.0025446033 0.0011806902 -0.002834882 0.0030712704 -0.0009690314 -0.002415149 -0.0027604476 0.0029650435 -0.0034086327 -0.0025861994 0.0012318541 0.00025042033 0.0030979686 0.0029854365 -0.0027692611 -0.0017625951 -0.0005793922 0.0031945377 -0.0024670453 0.0009032372 -0.0008768802 0.0015779015 -0.0034894815 -0.0029739083 0.0010476747 0.0010689747 -0.003411901 0.0011456102 -0.0030802488 -0.0020908834 -0.0019998322 0.0014862005 0.0030765545 -0.00025758063 0.0035026753 -0.003679661 -0.000654988 0.002832852 -0.003915306 0.0008091766 0.0021530956 -0.0030145692 -0.0017620407 -0.00018663685 0.00216831 1.5964404e-05 0.003449346 -0.0022510435 0.00020861761 0.00030339172 0.0005324537 0.0013003091 -0.0032529575 0.00043293077 0.0019140233 0.00064390304 -0.0005832002 0.00096087076 -0.0015731945 0.0031019694 0.003248167 -0.0018282746 0.0030609425 0.0034977596 -0.00063764193 0.0035222825 0.00070463726 -0.0001341318 0.0033040221 -0.0035787253 0.0021481332 -0.00167358 0.0009804402 0.0005698588 -0.0004168018 -0.0019285036 0.0020224608
172.016.112.149 -0.0018421675 -0.0035568196 0.0019707852 0.0035146521 0.00070997834 -0.0010709509 -0.00012543995 0.00024172619 0.0033809633 0.0008121048 0.0029393784 -0.0035800938 -0.003255568 -0.0009522555 0.0016793694 0.00034754066 -0.0011914104 0.001243296 -0.0032587193 -0.0033167058 -0.0021701094 0.0018017645 0.00017331548 -0.0017454391 -0.0006301503 0.0023843518 0.0025429623 0.0010487747 0.0028708524 0.00038298094 0.0014385587 0.00034608936 -0.0014943592 -0.0022590733 0.003823205 0.0018196835 -0.0022836095 -0.0011614104 -0.0006557572 -0.0020139422 0.0037359216 -0.00013338891 0.0030650927 -0.0030629558 0.0020895659 -0.0022603418 0.0037625975 0.00027616747 0.0036463568 -0.0010475607 0.0015607093 0.0021355604 -0.0032435223 0.003422514 0.00068384607 -0.0032473456 0.0006100309 -0.0010324438 0.0024662402 0.0018786764 -0.0014215473 0.0009286906 -0.0009927466 0.0005071764 -0.0005187869 0.00085617654 0.0027737878 -0.0034812484 -0.0017093413 -0.0009148024 -0.0023524128 -0.0016840615 0.003602913 0.000798179 0.0029367495 -0.0021356621 0.0037982832 0.0025891755 -0.0009051587 -0.00041525674 -0.00011032185 -0.0011057679 -0.0009296271 -0.0028573882 0.0017819182 -0.002683973 0.0037242575 0.0036389895 -0.0019908717 -0.003773181 -0.0019517731 -0.0025843086 -0.000529376 0.0019889756 0.0016924907 -0.0011755954 0.0009749857 -0.0023989826 -0.0026970187 0.0019019451 -0.0027182293 -0.002649538 -0.00018624755 -0.0008518063 0.0025101965 -0.0032363753 0.0019920042 0.00090511545 0.0014782747 0.0023535045 -0.0026350876 -0.002796365 -0.00028434597 -0.0014706189 0.0014137937 -0.0032399213 -0.002028221 0.0031332308 -0.00075574586 0.003758083 0.0037174327 0.0010549343 5.638302e-05 -0.0022121267 0.0014517949 0.0014306718 -0.0022980368 0.0005055994
143.166.082.014 -0.0038761434 -0.0029664105 -0.0030103591 -0.00086778257 -0.0015281016 0.0006370018 0.0029543492 -1.4144392e-05 -0.0021871587 0.00019119862 3.6884187e-05 -0.0021512206 -0.0028212504 0.0010121346 -0.00028356482 0.0038960113 0.003407295 0.0031150153 0.00028653635 0.0013466039 -0.00067339424 -0.0022275187 -0.0026424571 -0.0020198564 -0.0032852485 -0.0023833462 -0.0010984351 0.0011302658 -1.3983368e-05 0.0034942676 0.0026742783 -0.0024608958 -0.00032107576 -0.0004282823 0.003652214 0.0005624117 -0.002225805 0.0037230437 0.0024221935 0.00040973662 -0.002638279 -0.0024950611 -0.0007353052 0.0021009597 0.00046874298 -8.4831176e-05 0.0005979963 0.0022800537 -0.0026018647 0.00026296813 0.0009251555 0.0031396435 0.0027509362 -0.0020298238 -0.0037832803 0.0027013952 0.0032971778 0.0017296777 0.0029791396 0.0007300193 -0.0037698164 -0.00084407884 -0.0013287831 -0.0020307724 -0.0020051103 0.0038012518 -0.0032129404 -0.0014406933 -0.00040569552 -0.0038430323 0.0010574 -0.0015092904 -0.0028996884 0.0013945209 -0.0029528874 0.0028588804 0.00052785163 -0.0029929946 -0.001339097 -0.0011102355 0.0024286502 -0.002910502 -0.00055459864 -0.0020976262 -0.0038101475 -5.9157017e-05 -0.003055312 0.00089291204 0.0011487498 -0.0007090854 -0.0021112883 0.003785516 0.0009829565 -0.0022233366 -0.000861011 -0.0017406652 0.0029079826 -0.002095516 0.0025645099 -0.0013072878 0.0009646757 0.00018126669 -0.0032452657 -0.002057416 -0.00017540908 0.0034478202 0.002609727 -0.0023614345 0.0003419928 -0.0021391727 -0.0024316672 0.0018868776 0.0029516814 0.00072702393 0.0012102944 0.00089449645 0.00045745837 0.0014941617 -0.0037046166 0.0012864586 -0.0028158561 0.00016474565 0.0027640096 -0.0039055084 -0.0012240418 -0.0015919401 0.0036912488 0.0039139823
172.016.112.194 -0.0017935688 0.00027606706 0.0011238023 -0.0034042997 -0.00020673907 -0.002038706 0.0023138465 -0.0015060103 -0.00083470833 0.0023909602 0.0030988017 0.002718471 0.00045579323 0.0013866953 0.0032585473 -0.002338453 -0.0034494442 -0.00046460336 0.00023284822 -0.0023383745 0.0029579562 0.0010281876 -0.00014115359 -0.0014055136 -0.0027816182 -0.0010474843 -0.0020261635 -0.0024797886 -0.0022779286 -0.00032020579 -0.0028486801 -0.0015593935 -0.0027087177 -0.0025296821 0.00030482883 -0.0036709155 -0.00081600016 -0.0024690416 -0.0016489422 -0.0028057352 -0.0024634732 0.002349696 -0.003340186 -0.0034928238 -0.0032342284 0.00056936714 0.00017574373 -0.0037813825 0.0017403828 -0.0018463319 -0.0019871572 -0.0030644126 0.0015351876 0.0012971467 -0.0021474648 -8.072118e-07 -0.0004970337 -0.00031425754 0.0035912 -0.0011417636 0.0015218055 0.0002639751 0.003546307 -0.0013005383 0.0034225665 0.00041559763 0.0026530575 -0.0035038227 -0.0038907586 0.0035608662 0.0010604269 0.0025644812 -0.002521081 0.0033052715 -0.001794782 -0.0013060825 -0.0016703643 0.0022773398 0.002465625 0.003065541 0.0014288683 -0.0009971089 -0.0013170438 -0.0023534533 0.002897077 -0.0017407355 -0.003888173 0.002565106 -0.0037217494 -0.0034083135 -3.0278414e-05 -0.0031983166 0.003406833 0.0030643092 -0.003670841 0.002879304 -0.00035874455 0.002268341 4.913472e-05 -0.0015643327 -0.0015880283 -0.0010035824 0.0009935384 -0.00044368237 -0.00024426763 0.0036730503 -0.0023423594 0.002626529 -0.00013475779 0.0027083578 -0.0028378302 4.1985615e-05 -0.00012565746 0.0031775872 0.0018760116 -0.0029728587 -0.0025445363 -0.0015112392 0.0019716772 -0.0032716047 0.002065963 -0.0019033444 0.00038390633 -0.0012337872 0.0032159518 -0.00032040404 -0.0021759477 -0.0008717519
197.182.091.233 0.00097614835 -0.002026558 -0.001084369 0.001394716 0.002388829 -0.0011366636 0.0018560662 0.0019884098 0.0010073215 -0.0037662245 0.0023139305 -0.002963616 -0.0033067523 0.0035470072 -0.0013118124 0.0007400868 -0.000133514 0.0003315938 0.0022535992 -0.00090893696 -0.0022606405 -0.000102386286 -0.003282485 0.0029790737 0.0017063578 0.0019438767 -0.0037900836 0.0037988662 0.0012539603 -0.00054537476 0.00041456652 -0.0024262608 0.0025397341 -0.0003526178 -0.0023968632 0.0019261948 0.0004999848 0.002132416 -0.0026362003 -0.0018319719 -0.002440433 0.0032640938 -0.0026003062 0.0015531712 0.0013368522 -0.0035294748 -0.003673859 0.0032909429 0.00358011 -0.0022007546 0.0028414745 0.0007590123 0.00022223667 -0.0031236804 0.003039408 0.002559788 -0.0006700732 0.002317363 0.0016237685 0.0029915255 0.0032922125 -2.6882783e-05 0.0022501368 0.0021509337 0.0013738426 -0.00198342 -0.0016200674 2.4359972e-05 -0.0015220867 -0.0031180037 0.0037918235 0.0019652026 0.002432907 -0.001267085 -0.0037731666 -0.0011518553 0.0033760178 0.0026094995 -0.0034918576 -0.0035016872 -0.0020207895 0.0012371923 0.002188714 0.00061205 -0.0025386228 0.0012332139 -0.0021675508 -0.0024790503 0.00088427524 0.00013290173 0.0028989427 0.0008529826 -0.0010167931 -0.001653689 0.0035750214 0.001364533 0.0011755207 0.0018439343 -0.0031906513 0.0011039544 0.0013623578 0.0022901918 0.0027255067 -0.0021382836 -0.0035022483 0.0006923928 -0.0021623883 -0.0016201838 0.0021615452 -0.002304089 -0.003758312 -0.00013369032 -0.0005438986 -0.00033857036 0.002008587 -0.00029498572 0.0028073764 0.00072723837 -1.2958063e-06 0.0019553257 0.0009480333 -0.00035491856 -0.00035104287 -0.00056710443 0.0018782038 -0.0023688888 -0.0027914185 -0.000858065
172.016.113.204 0.0004349736 -0.00104906 -0.0008543726 -0.0021381592 -0.0021211233 -8.091392e-05 0.002477071 0.002539399 0.00033230433 -0.002624874 -0.0009655195 0.0017743539 -0.0025724487 -0.00014208235 -0.0022242286 -0.0012516655 -0.0015870752 0.0036778431 0.0010093106 0.00045380785 -0.002905991 -0.0009077924 0.003079071 -0.0025757018 0.0038700334 -0.0035298595 0.0025089653 0.0014302455 0.0012182313 0.002286406 -0.0038961594 0.0016291667 -0.0015626594 0.0031918867 -0.003746351 0.0021100433 0.000733259 -0.0009709658 -0.0023789066 -0.0017483964 -0.0038484503 -0.0024362449 -0.0012323518 -0.0018335611 -0.0032274195 0.0016146471 0.003652583 0.0018026744 -0.003088284 0.000512359 -0.002499498 0.001205639 -0.0012326608 0.0028598101 0.0026653076 0.0024537442 0.0006052155 0.00015919938 -0.00032179747 0.0025358207 0.0013826202 0.00010563726 0.0010663172 -0.0032304644 0.00042173508 -0.0027853718 0.0021359501 0.0038976222 -0.0036690764 0.00097350247 0.0027416013 -0.0010775677 -0.0013139434 -0.0031099457 -0.002376965 0.0010755234 0.0004741216 -0.002596011 -0.0034889968 0.0015599409 0.0026345882 -0.0008025657 -0.00029102917 0.0025783342 0.0012864831 -0.00021295926 -0.002095461 0.0021981816 9.43167e-05 -0.0008191893 -0.00071238354 -0.0027728518 0.0029983043 -2.6264626e-05 0.0028029813 0.00089224934 -0.00094413216 -0.0012740392 0.0017962228 0.0019480177 0.0017374813 0.002136479 -0.0002880435 -0.00210275 0.0015008494 -0.0010716148 0.0034558591 0.0036091444 0.0011938481 0.0006022148 -0.0036205382 0.0023044208 -0.0005565659 -0.0025526884 -0.0023591535 -0.0020559055 -0.0010861881 0.0037995102 0.0020061259 -0.0035421178 -0.0018020041 0.0030944194 0.0001341672 0.0028399187 -0.0016449468 0.00248552 -0.003670793 0.0036818718
207.068.136.160 -0.002055935 0.0018305605 0.0029316759 0.0012800755 0.0038839187 0.0008010687 0.003272019 0.0037034936 -3.376956e-05 -0.003485572 0.0021132696 0.0012713494 -0.00038382245 -8.0804835e-05 -0.0013423604 0.0029903906 -0.0020696924 -0.0014205948 -0.0007761343 0.0035429692 0.0033065393 -0.0022247888 -0.0002874256 -0.0037027495 -0.002454868 -0.0016572252 0.0028400852 0.0017223114 0.001396171 -0.00066935294 -0.003001918 -0.0017752214 0.0028079015 -0.0027101608 0.0005220078 0.001195612 0.002569841 -0.0035977704 0.0019746649 0.0038957598 -0.0022283564 -0.0036511128 0.0025776848 0.0033764034 0.00019496573 0.0006436083 -0.0012026962 -0.0030126637 0.0035580944 0.0007152659 0.0029226292 -0.0030718546 0.0025091371 0.0016605584 -0.00016316943 0.0024973212 -0.0038832342 -0.0023838978 -0.0026938776 -0.0009511048 0.0014032862 0.0036368147 0.0014285065 -0.00056305196 0.0010495371 -0.0010151102 0.002152522 -0.002960602 -0.0010492266 -0.0034241702 -0.00080099655 0.0035770377 0.0010573323 -0.002797696 0.0028328418 -0.0026756206 0.0037082986 -0.0017340259 -0.00030363447 1.0137976e-05 0.0029782709 0.0034704092 0.0036961338 -0.0030079924 -0.00097185903 -0.00059313583 -0.0026054822 0.0030328284 0.0026399512 -0.00017963888 0.0028502236 0.0018614419 0.0014033574 -0.0020742975 -0.0011606686 -0.0032351518 -0.0020710884 -0.0037040962 -0.0018614123 0.0019989298 0.00015329619 -0.0036963434 0.0010102193 0.00050269207 0.0005852389 -0.00096747174 0.0019281583 -0.0020965205 0.0018184118 -0.0018304819 0.0016914832 -0.0033371937 0.0018959526 -0.0018441419 -0.00086369907 0.00063500385 -0.003451162 -0.0026844575 0.002897271 0.0002781432 0.0020208063 0.0025263682 0.00035297335 -0.0025330929 0.0036704813 0.0029307907 -0.0011137478 -0.0034996127
172.016.114.207 -0.0025211633 0.002625453 0.0023660744 -0.0010922042 0.0005170653 2.313112e-05 -0.0019042826 -0.00081535097 -0.00036935997 -0.0024864795 0.0021555042 0.0023433384 -0.0023470453 0.0030435484 0.001326013 -0.0022904205 -0.003262349 0.00046538387 0.00070570275 -0.0017790159 0.0025602158 -0.0033169207 0.0010318945 -0.0036695602 -0.0022317176 -0.001689547 -0.00095105084 0.0028855002 0.0037278382 0.000770174 0.0011291122 -0.0034684774 -0.00079963106 -0.0023841276 -0.00020480796 0.0011716664 0.00072437286 -0.002791627 -0.0030246493 -0.00021277436 -0.00033245896 0.0011738527 0.0037102245 -0.0019577828 -0.0017598298 0.002611416 -0.0016052823 -0.0004534935 0.0015947267 -0.0027431087 -0.0038553127 0.0035854874 -0.0006837271 -0.0021639 -0.0022419614 0.0036449325 -0.0036679942 -0.00022196403 -0.0020656863 0.0017522005 -0.0026295467 -0.0012301869 0.0001523099 -0.0020506084 0.0020662742 0.00076950825 -6.482717e-05 0.0029263466 0.0035729164 -0.00055337325 0.0007179446 -0.0028981902 0.0016562317 0.001172252 -0.000101771 0.00090183347 -0.00026602834 -0.00033817175 -0.00091943453 0.00073556276 -0.0030741764 0.0018367843 -0.0027251216 0.002545488 0.0031003538 -0.003155342 0.0020384276 -3.9508217e-05 -0.0011090874 0.003159753 -0.0020180172 -0.001059259 -0.0034993507 -0.00072595186 0.003041978 -0.00026698585 -0.0015010283 -0.0027648555 -0.0030816735 0.0036725998 0.0027288394 -0.002327258 -0.0033197945 0.0019035432 0.0031755206 -5.404703e-05 -0.0035940637 0.0023545073 -0.0016122977 -0.0008042352 -0.003560422 0.0021757118 -0.0021177602 0.0026075689 0.0004226775 0.0021122212 0.0030703011 0.0010282063 0.0034917477 -0.0015137002 -0.0038656828 0.0008492427 -0.00064215146 -0.0031024185 -0.0038626194 0.0029470813 0.001386709 -0.0035219674
172.016.113.084 -0.003890429 0.0015909559 -0.0030876673 0.0011252303 -0.0017892441 0.0007477321 0.0009829602 -0.0034283411 -0.0010348409 0.0021139719 0.00093411654 0.0024288518 0.0031878417 -0.0007751668 0.0006130241 0.0011839267 -0.00028793744 0.0037896368 0.0028346751 0.0019337788 0.0037661341 0.002737866 0.0015978448 -0.0026300957 -0.002601904 -0.00042503778 0.0012318217 0.0014548561 -0.0010799047 -0.00040259497 -0.001353824 0.0014249766 0.0017061336 0.0027813779 0.0010152634 -0.0018882147 0.002217507 0.00020466509 0.0008258332 -0.0010545617 0.0037693505 -0.002784075 -0.00028029244 0.0024330511 -0.00047018434 -0.0037189205 0.001723345 -0.0037078902 0.0027909775 -0.0032132263 -0.003425264 -0.0011682335 0.0023413938 0.00014705783 0.0016833557 -0.0023094895 -0.0025907177 0.0019233931 0.002409995 -0.0028767611 -0.0012286103 1.749948e-05 0.00034226818 0.0031928832 0.0023676245 -0.0012103547 0.0012996095 -0.0010313295 0.0026682867 -0.0023594678 -0.00044524734 -0.0026551164 -0.001656577 -0.0023585814 0.0016563515 0.002142634 8.92943e-05 0.0020058486 -0.003745039 0.00013381087 0.00051100174 -0.0022814055 -0.0019450639 -0.0026188907 0.0013119724 0.002915321 0.002275623 -0.00385209 0.0034142947 -0.003194034 -0.002784855 0.003888269 -0.0032733246 0.0020035051 0.0028085837 -0.0018392015 -0.0029252938 0.00044517103 0.0030352788 0.0020219954 -0.002188384 -0.0016179582 -0.0033474374 -0.002377852 0.00058439915 -0.0008617379 -0.00020537585 -0.0038813124 -0.001419738 0.0021588497 -0.0006149411 0.0015989479 7.717003e-05 -0.00089198624 -0.0010690548 -0.00072521094 0.00071923604 -0.00068944186 0.0031767422 -0.0015627521 0.0019335184 -0.0023640492 0.0034565625 -0.002879153 -0.0023801124 -0.0009504442 0.0024242296 -0.0008458616
172.016.114.168 -0.0023863758 0.0005171183 -0.0028532199 -0.0030234773 -0.0020632313 -0.0017316215 -0.0033492036 0.00041076777 -0.003030712 -0.001774381 -0.0007313095 -0.0019657619 0.003534495 -0.00021720832 -0.0017699555 0.0039032118 -0.0019762868 0.003432228 -0.0022347504 0.002966755 0.0008358117 0.00217448 -0.0023762467 7.7441466e-05 0.0023123096 0.0014263516 -0.0013174965 -0.0024528855 -0.0007718609 0.0014085914 0.0035325172 0.0013269067 -0.0007594406 -0.001256068 0.0023320802 -0.0021248925 -0.00017647796 0.0013970201 -0.001051223 0.00011718262 -0.003038031 0.0034520922 -0.001464912 -0.00029392497 0.0019300419 -0.0018384188 -0.0023812477 0.00013466361 0.0026387502 0.003039459 -0.0010657115 0.0007578992 0.0029025143 -0.0016995687 0.00048358043 0.0024658807 0.0021347601 0.002754364 -0.0003628531 -0.001411812 0.0020700046 -0.00044394349 0.0017945591 1.0257587e-05 0.0010885528 0.0022761773 0.0035394891 -0.0021006882 0.0017052456 -0.0023677936 0.0008054478 -0.002258415 0.0025197202 0.00066502456 0.0024224871 -0.002933975 0.0013268521 -0.0015350282 0.0038562142 -0.0013307208 0.0015319174 -0.0012729106 -0.002651121 2.0092444e-05 0.00011164848 -0.0027270182 0.0037050915 0.0026407156 0.0012475786 0.0035266518 -0.0033483848 0.0018395091 0.0037475752 -0.0013354775 0.0014591138 -0.0005710625 0.001067536 -0.0032210895 -0.0030157578 -0.0006039839 0.0033634286 -0.0008534466 0.0024137357 -0.0025957264 0.0010753344 0.0015483908 -0.0032996468 0.0027016967 -0.0032956265 0.0003914597 0.0022995474 0.003000887 -0.0004158395 -0.00021255955 0.0035711692 -0.0004048118 -0.0017168279 0.0010462231 -0.0038377454 0.0001720342 -0.0009638557 -0.0017707652 0.002196739 0.0011959359 -0.0028963399 0.00020970828 0.0015855159 -0.0034269432
194.007.248.153 -0.002375113 -0.0022439624 0.0036201845 -0.0023313824 -0.0037047686 0.0033691437 -0.00046838858 -0.0014803611 -0.0008512414 -0.0024824452 -0.00021638635 -0.0038522892 -0.0010800895 -0.0009999691 -0.0018206949 0.0022641213 0.003117874 -0.0033767782 -0.0004804712 0.00390659 0.0018087176 0.0034013926 0.0019431993 -0.0008745886 -0.00016802503 0.0008657024 -0.0021289308 -0.0016061404 0.0037414122 0.0006252044 0.00034118514 0.0028357443 -0.0028212203 -0.0026019947 -0.0016419413 0.00016159083 0.002294346 -0.0009987297 -0.0037107826 -0.002834567 -0.0033309774 -0.003573828 -0.002729653 0.0036319993 0.0029983697 0.0025560297 0.0010229674 -0.00026875586 -0.0026389253 0.0026002293 0.0036572365 -0.0022823212 -0.0037466735 0.003804607 -0.0025536942 0.0037825168 -0.0038038483 -0.0007299552 0.0032163353 -0.003987092 0.00061292783 0.0025555093 0.0016636694 -0.0030965367 0.0023869865 -0.00247942 0.00150503 -0.0016867891 -0.0032406207 0.0038222147 -0.0015662538 -0.0010920995 -0.003196165 0.0033817615 0.0005742147 -0.00032927867 -0.001715967 0.00017052192 0.002910383 0.003612313 7.813565e-05 -0.0031580043 0.003810727 0.0024489656 -0.0003939911 -0.0023593153 -0.00071892474 -0.0024830527 0.0013587343 -0.00024000218 0.0033496395 -0.00251481 -0.0014951885 -0.0006148977 0.0004536729 0.0036530937 -0.0005816459 -0.0027082982 0.00093060563 -0.0008215122 0.001116122 0.0006578084 -0.0035344698 -0.0010858508 0.0036286395 0.0030218468 -0.00241659 -0.0014378509 -0.00076395366 0.00239258 -0.0022584395 -0.0012612102 -0.00089694373 -0.0011206102 -0.0029715495 -0.003334122 -0.00028524626 0.0013558896 0.0006685087 0.0034530908 0.00046801692 -0.0014781749 0.0035511034 0.0030346767 -0.0020913142 0.00052747526 0.00089438923 9.1259666e-05
135.013.216.191 -0.00016827039 6.589912e-06 -0.0016598025 0.0024325566 -0.001672669 -0.00235359 0.0035757497 0.0004370825 0.0019570717 -0.0036031276 0.00043745135 0.003494512 0.0019759866 0.00045461365 -0.0038224484 0.0015665011 -0.00014881327 0.0018735878 -0.000567627 -0.0037883352 0.002812811 0.0038976707 0.003820708 -0.0027266152 0.0023683482 0.0011598192 -0.00251669 0.0010164356 0.0018003874 0.00042577944 0.00079374574 0.0019575716 0.0013009965 0.0034089761 0.00011059771 0.0006764452 -0.0011403251 0.0034200647 -0.0018086601 -0.003253873 0.003594038 0.0021127616 0.0032312912 -0.0018520884 0.0016322753 0.00227633 0.003553355 0.00227089 0.0029744527 -0.0025050486 0.002202201 -0.001376122 0.00080757274 0.0028862527 -0.00388687 -0.00077112543 2.1160959e-05 0.0029785295 -0.0013847689 -0.0024687722 0.001256756 0.0034938273 0.0014702436 -0.003028987 0.0022294195 -0.0008285812 -0.0016921181 -0.0033520372 -0.00021006085 0.00034012878 -0.00049898436 0.00029434395 0.00011097315 -0.00015613285 -0.0015542418 -0.0031008453 -0.0028688808 0.0014706178 -0.0026417796 -0.0009805823 0.0022067137 4.9362407e-05 0.0031695277 -0.0038268783 -0.0037709142 -0.002928926 0.001545153 0.0036237966 0.00021988836 0.00039677933 0.0027570995 -0.0011251904 -0.0009226886 -0.003609906 -0.00019838766 -0.0003445644 0.003887385 0.0015790391 0.0034832614 -0.0037169063 0.0021580104 -0.002990143 0.0015619458 -0.0027728546 0.003783539 -0.0036957825 0.0022079523 -0.0026731638 0.0017673871 0.0005245284 0.0034999754 -0.0016058988 -0.0037079994 0.0025219114 -0.0036307462 -0.0033949271 -0.0017378434 -0.0024936516 0.0029395025 -0.0034423964 -0.0027117429 0.0038555425 0.0013497551 -0.002503946 -0.000740638 -0.0010130521 -0.0005805993 -0.0003548181
195.115.218.108 0.0010926143 0.00047813889 0.0021715455 0.0012276545 -0.0038547865 0.0007772855 -0.0026757163 0.0034415885 0.0020485613 0.0018487022 0.002975836 -0.0006570876 -0.0035885125 0.0001782087 0.00091803353 -0.0012898253 -0.0008768044 0.0021399835 -0.0004907482 -0.0011585344 -0.003483987 0.0013019615 0.0034426218 -0.00023739571 0.0024619254 -0.0016287658 0.0019729729 -0.0024852282 -0.0002412263 0.0019723098 0.0030619777 -0.0018943484 0.0026424755 -0.0025313974 -0.0010861931 0.0013628968 0.0037546747 -0.0029585403 0.0022772371 -0.0025508585 -0.0036191018 -0.0021319864 0.00380014 0.0024763704 0.0037310473 -0.00062025123 -0.00023472127 -0.002837034 -0.0007531954 -0.0038140926 -0.0010655236 8.466565e-05 0.0017279091 -0.0023574964 0.0036799773 0.003730037 -0.00013302536 0.0016677288 0.0026221974 -0.003404872 -0.0013356708 -0.0006698118 -0.002347138 0.0009494666 0.001413319 0.00020915589 -0.0021112983 0.0010516042 0.0034980243 0.0030760905 0.0015509267 -0.003494696 -0.0017173107 -0.0027134046 0.00060607947 -0.0015478039 0.0006075501 -0.0024022027 0.0017533852 -0.0030434632 0.0018995646 0.003103828 -0.0035677892 -0.00011242877 0.0028948863 -0.0017464684 0.00037973825 0.00078066206 -4.4553075e-05 0.0025999334 -0.0023871413 -0.002192968 -0.0011649608 -0.0031630206 -0.0034665205 -0.0036745304 0.0030792821 0.0006981302 -0.0008099049 0.0016800078 -0.00054432394 -0.0006683324 0.003852986 -7.8462785e-05 -0.00017382392 0.0036974007 0.0015016453 0.0010380412 0.00045784647 -0.0036855608 -0.0037712685 -0.00018169174 0.0018739499 -0.0017254949 -0.00020422241 0.0037715267 0.0026551334 -0.0017812625 0.0028820175 -0.0016357093 -0.0019575115 0.00030096364 0.0023112001 0.00029817963 0.00031399398 -0.0033048044 -0.0026543348 -0.0033340086
207.060.110.050 0.0014813755 -0.0013831569 0.0014140198 -0.000972771 0.0006691334 0.0028849 -0.00014489517 0.0019797669 -0.00042409106 -0.0014122558 -0.0034826947 -0.0012133322 0.0005074937 -0.0026853299 -0.0029337634 -0.0036179412 4.9271035e-05 0.00028859836 0.0010670607 -0.0024926981 -0.00084026717 0.0027290878 -0.0039120736 -0.0022603357 -0.0011736201 -0.0011083105 -0.0019361918 0.0020431203 0.0014661485 0.0005673435 0.0038114174 -0.00063498644 -0.00015219318 0.001966591 -0.0004832981 -0.0037826202 -2.5563075e-05 -0.00050054496 2.983783e-06 -0.0021443134 -0.00046522575 -0.0012291187 0.002967364 -0.0035392465 0.0006480204 0.0038318096 -0.001547028 -0.003674317 -0.0033064347 -0.002103599 0.00087014626 0.0025614374 -0.0018521752 -0.0008519567 -0.0033712774 -0.0038729287 0.0009448855 -0.003821914 0.00022953507 0.0005067608 -0.0015421661 0.0009707844 -7.297545e-05 -0.0010523058 -0.00011793648 0.00349125 -0.0029250844 0.0013254824 -0.0035704467 -0.0003427761 -0.0023279423 -0.0038612837 -0.00064286834 0.0005388872 0.001695333 0.0032953087 0.0030813222 -0.0027474484 0.0009867158 -0.0020204887 -0.00037936817 0.0021163055 -0.002545929 -0.003488741 0.0037809105 0.0012303552 -0.0009374011 1.7664497e-05 0.0018098308 -0.001974457 -0.0009731335 0.0023052038 -0.0038259444 -0.0035838552 -0.00016488857 -0.0019610892 -0.0029027746 0.0013436374 0.00077770685 -0.0015847017 -0.0017590419 0.0010510134 -0.00031714657 -0.00074906286 0.0030483084 0.000786087 0.0033617248 0.002173963 -0.00368649 0.002381268 0.0029439414 -0.0021904155 0.0033356634 -0.002709803 -0.003206958 0.0008174967 0.0028840378 -0.0025907133 -0.002951491 0.0016997624 0.0002512215 -0.0016450747 -0.0011073815 0.00074499485 0.00031091363 -0.0025920118 -0.0031816845 -0.0016868941
135.008.060.182 0.0032716335 -4.394561e-05 0.0014332846 -0.0024035065 0.0020955575 -0.0022061346 -0.00077764917 -0.0032219223 -0.0030755785 0.0037177945 -0.001806445 0.00078894367 0.0027077585 -0.00085897325 0.0009024631 0.0002351542 0.0028710652 -0.0022431777 -0.0034524996 -0.0005356625 0.0025759777 -0.0021722317 -0.0034506274 -0.0018397741 0.0036412247 0.0006833303 0.0036709872 0.0005966288 -0.0032255128 -0.00029155187 -0.0032067008 -0.00016789496 -0.0021349702 0.0009941057 -0.0025023974 0.003847822 -0.002903475 0.00057761715 0.0036411225 0.001229946 0.003520822 -0.0019942636 -0.0033685619 -0.0003095133 0.003406723 -0.001998696 0.0036091625 0.001773971 0.0014731756 0.0020591833 0.0023308161 0.00036032597 -0.00065606635 0.0016590151 -0.00071273476 -0.0029325194 -0.0019801834 0.0029903688 0.0001290419 0.003020017 -0.0038187895 0.0006419147 0.0024946013 -0.0038441324 -0.0008330806 -0.0024823819 0.00058707513 -0.0020565055 -0.002740416 0.0037728765 -0.00068478234 0.0021673918 0.0021654372 0.0008926446 0.0019469142 -0.0030851439 -0.00018208165 -0.000893466 0.0035620807 -0.00053677603 0.0009778044 0.001874518 4.4118642e-05 -0.00286648 -0.0028202566 3.3705175e-05 0.0018604173 0.0006400274 -0.002600588 -3.661081e-05 0.0027000294 -0.0021194075 -0.0023056727 0.0006387476 0.0017492269 0.0029490292 0.0016837283 -0.0024890937 0.0012835095 0.0019350696 -0.002559096 0.0020120535 -0.0015613755 0.0029708873 0.0011537188 -0.002161484 0.001496614 0.0007921566 0.0007695914 -4.740181e-05 0.0034861462 -0.002288805 0.0023894252 0.0014836318 -0.00057105056 -0.0018098488 0.0034933172 0.0020157944 -0.0016281599 0.0010052841 -0.0011172154 0.0036460748 0.0025856947 0.0006909056 -0.0005546791 -0.0030562321 0.0023853024 -0.0012163605
196.037.075.158 0.00045863332 0.0007695261 -0.003545514 0.0005792888 -0.0031006064 0.003074339 -0.0024198662 0.002904321 -0.0039388663 0.0010803485 -0.002012729 -0.00036255273 -0.002395279 -0.00029114535 0.001899116 -0.0019906743 0.002047985 0.001981059 -0.002290577 -0.00064749405 -0.0036092394 0.0027239735 -0.0019032072 0.0034485664 0.0035186992 -0.002453485 0.0030989696 -0.000739429 0.0007304558 -0.0036992254 -0.0016984198 -0.0026322473 0.0035556005 -0.0013310702 0.00021544668 -0.0012649684 0.00017584837 -0.0035257558 -0.000944201 -0.0037320862 0.00075345935 0.003369692 -3.182395e-05 -0.0014753614 -0.00020493697 0.0006369516 0.003461906 -0.001539264 0.0018907891 0.0025199023 -0.0013540451 0.00092243974 -0.001548299 -0.003145806 -0.0025606088 -0.0031188827 -0.0024921135 -0.00069417217 -0.0014612917 -0.0017000723 0.0016645228 0.000615462 -0.0001658792 -0.001815276 0.0016093539 -0.0039013394 -0.0022782874 -0.0026783745 -0.0021062542 0.00072932197 -0.0005763146 0.0013453707 -0.002279155 0.0029571124 0.002616621 -0.0018679614 0.002058322 0.00070453255 -0.0029059553 0.0024106915 0.003015339 -0.0034672287 -0.0032841647 -0.0029456737 -0.00020730347 0.00027552343 4.8507583e-05 0.00074397965 0.0035100228 -0.0039404714 0.0030654466 0.0025052843 -0.001033031 0.0014472959 -5.7620462e-05 -0.00069519837 -0.0035126545 1.3104798e-05 -0.0020361613 0.0015631155 -0.0036377327 0.0030313656 0.0027788517 -0.0028769795 -0.0028962912 0.0029926524 -0.0039546266 0.0010443894 -0.002876184 -0.0027899623 0.0030366897 -0.0026729552 0.0023086402 -0.002521598 -0.0027310038 0.0038066437 0.0027046439 0.0029806928 -0.0036170243 0.0020373403 -0.0003370645 0.0008457655 0.0014192087 -0.003613629 0.003041231 -0.0037429344 -0.0018957534 -0.0023472134
172.016.113.105 -0.0021215626 -0.0035838597 0.0012973408 0.0029961732 0.0008062294 -0.0012069341 -0.0035772123 -0.001581556 0.0030080162 -0.0021379697 0.0036511787 -0.0038082656 0.0017122546 -0.002498407 -0.0018709355 -0.001315426 -0.00092393515 -0.00286212 0.0015343303 0.0022367605 -0.0018731366 0.001396002 -0.0018968013 0.0025258565 0.002629633 -0.0016728824 0.0025194653 -0.00025944697 0.00043344317 -0.0034128542 0.0032628663 0.00029739895 0.0010079844 -0.001941772 -0.0002963856 0.0005550342 0.0031599968 0.0023698474 -0.0023775059 -0.0018030026 0.003904224 -0.0012331906 -0.0019857993 -0.00069391995 -0.0021725895 0.002052279 -0.00060120685 0.0036651264 -0.0007496713 0.0034221937 0.0007562772 0.0021870774 0.0013935907 -0.003509144 -0.0033124397 -0.001190014 0.0006486641 -0.0038264783 0.0021444468 -0.0014014096 0.00076517835 -0.0026311572 0.0025964575 0.0031093142 -0.0015798034 -0.0006373336 0.001753916 0.0035121734 0.00082158705 -0.00024648753 -0.002012767 -0.0012412638 -0.00309507 0.0007472204 -0.0029503577 0.0021994251 -0.00017622091 -0.0005551258 0.0011492446 0.0032455309 -0.0020446884 0.00056622183 0.0022546486 0.0035303682 0.0029191023 -0.00083871296 0.0026100324 -0.00068527204 -0.0020368597 0.0027254228 0.00017782685 -0.0026801142 -0.0028221556 -7.980979e-05 -0.002091141 0.00216915 0.001590847 0.0032960987 0.0015385059 0.0033130748 -0.0026022214 -0.00083451736 0.003530705 0.0019982997 -0.00027977873 0.0034285432 -0.0027473131 0.0019223433 -9.045543e-07 0.0038448432 0.002762827 0.0011439589 -0.0028504366 0.0035293323 -0.002184526 -0.0034511394 0.001436888 -0.0017780598 -0.00016821056 0.0027559318 -0.0014239036 0.0023044045 0.0007926526 -0.0004945632 -0.0011147553 0.00057023444 -0.0028888131 -0.0031532887
172.016.112.207 0.00064407283 -0.0023917549 0.0013714918 -0.0036747456 5.5450826e-05 -0.00062381366 0.0012029868 -0.0007960706 -0.0023173552 0.0012569429 -0.0010410864 -0.0008459713 -0.0029725772 0.001920632 -0.0015933184 -0.0036004416 0.0022164553 -0.00034575906 -0.0023703633 0.0024241407 -0.0022096199 -0.00088790763 -0.0035750854 -0.0008158215 0.0013016493 0.00021842061 -0.002640484 -0.0016595148 -0.0028164296 0.00028343406 0.00188909 0.0012892913 -0.0010796904 0.0038104625 -0.0003561085 0.0016857648 0.0026590745 -0.00045102873 -0.0017407385 -0.001661306 -0.0038036092 -0.0030406874 -0.0036720475 -0.00083386875 0.0009067642 0.003872618 0.0017141283 -0.00036123663 0.00020689976 -0.0018814168 -0.0003883372 -0.0031067724 0.0003943847 0.0031621167 -0.003165055 0.0010291663 -0.0035958653 -0.003914612 -0.0015624684 4.8032813e-05 -0.00010839825 0.00060207985 -0.0013755134 -0.0016807984 -0.0020993075 0.0016303934 0.0031807825 0.0009795721 -0.0030472523 -0.0032029648 -0.0014178288 0.0021368712 -0.001130153 0.0014077891 -0.0033594863 0.0021592989 -0.0012962143 -0.0006954307 -0.0030085742 -0.003118753 -0.0021502553 -0.002249557 -0.0005924583 -0.0016076937 -8.6437896e-05 0.00045253956 -0.0032282842 0.0037386348 -0.0007177354 -8.559628e-05 -0.0026217992 -0.0036039897 -0.0014846384 0.0019273781 -0.0011773002 0.0032080095 0.0002069729 0.0018152118 -0.0021745134 0.0027138279 0.000514466 0.0011159538 -0.0006398599 -0.0022096403 -1.8422261e-06 0.00027557914 -0.0026900086 0.0032491204 0.00027845913 -0.0024368446 -0.00059419335 0.0022242067 -0.0009488346 -0.003306624 -0.003866257 0.0034344895 0.003606943 -0.000824248 0.0008817783 -0.0025163824 0.0007901003 -0.0018270818 -0.0007112127 0.0002175183 -0.0024479388 -0.0012544254 -0.0018772698 0.0009847872
196.227.033.189 -0.00040996136 0.0031081084 0.0025793167 -0.003398358 -0.0038037119 -0.0030326955 0.0027697836 -0.0031780552 0.0029711213 0.0022261722 -0.0001767266 0.002156108 0.0010283159 0.003644862 -0.0022846784 -0.0037110972 -0.0025564465 0.0023052841 -0.0015669696 0.0029279764 0.0011565395 -0.0029602777 0.0021661045 -0.0030545983 -0.0023775676 -0.0022684776 -0.002232338 -0.003557256 0.0029488634 -0.002279842 -0.00016816528 0.0039217635 0.0035250825 0.0001800505 0.003478792 -0.001599798 -0.0023737443 0.0020578592 0.0019604543 0.00025248074 0.0014352205 0.0007724939 -0.0009569497 -0.00019941968 0.0010300856 -0.00019802105 -0.0022129903 0.0013183014 -0.0023182612 0.0018467936 0.0034246212 0.0030893157 0.00040713898 -0.00073378446 -0.0009634751 -0.0037808681 0.003352126 0.0015264255 0.0026736476 -0.0033116469 1.7086233e-05 0.0037693533 0.0032394219 0.0028678253 -0.0016365596 -0.00036804343 -0.0004939578 -0.001330548 -0.0014799247 0.003596767 -0.00058121 -0.000987961 -0.0025229212 0.0006515942 -0.00033689814 0.0010624694 0.0032050598 -0.0014904154 0.0032348135 -0.0032553056 -0.0019745943 0.0026654433 0.003324822 0.0013815826 0.00015906927 0.0038754998 0.0022033344 0.0012334371 -0.0023948858 -0.000159587 0.0037004044 0.0021487758 -0.0012313231 0.0027270839 0.002207051 -0.002072647 -0.0036037676 -0.0007969754 -0.0025503957 -0.0027797103 0.0036519454 0.0010800634 0.0015646796 -0.0029888134 0.0019589216 0.0029843987 -0.003749831 0.003778281 0.0038961922 0.0038542768 -0.0027493697 -0.0014914334 0.003351355 0.00042630915 -0.002645889 -0.0034188528 0.0020302979 0.0005773658 0.0028154186 -0.0019877667 0.0011212208 -0.0029192264 -0.002969245 -0.0029363988 0.0007776661 -0.00085474417 4.01272e-05 0.0011073423
172.016.114.169 0.0025932346 0.003095207 -0.0009600141 0.003851824 -0.0027055237 0.0012467753 0.0021176613 0.00018446616 -0.002597192 0.003642342 0.0025709048 -0.0027083112 0.002747152 -7.737661e-05 -0.00012955368 0.0013342461 0.0037782867 0.0015447099 -0.0029303133 0.0015114715 -0.0017820424 0.0006515902 -0.001975984 0.0028175847 0.00016553781 -0.000640729 0.00367636 0.0021316619 -0.003523484 -0.0035304762 -0.0026907949 0.003470995 -0.002975475 0.0023073955 -0.0018995302 0.0035075035 0.0006404098 -0.0020447434 0.00026911363 -0.0009575278 0.0026742944 -0.0016318396 -0.0017430854 -0.0025476606 -0.00055264455 0.00051320513 0.00057665125 0.0033799624 0.0014685069 -0.0028739606 0.0032922602 0.0035823511 0.00018194737 -0.0011418808 -0.0009919364 0.0025222178 -4.572419e-05 -0.002107013 -0.003645655 0.00035842293 -0.0018520523 0.0014847901 0.0012338059 0.0034077368 -0.0017194069 0.003510359 -0.0022533417 -0.0026782847 -0.0007752157 0.0025782506 -0.00022689567 0.0018035275 -0.0011632204 0.0014288237 -0.001395599 -0.0032527598 -0.002667718 -0.00095934386 0.002411032 -0.0033516036 0.0028170943 -0.00093663833 0.0022194535 -0.0012908764 0.00037257496 -0.001927129 -0.0038848405 0.002618584 -0.0028301748 -0.0034459978 -0.002251074 0.00082787115 0.0030599986 -0.0018345304 0.0027176926 -2.448295e-05 -0.0012152214 0.0031537141 0.0034635188 -0.0030738981 -0.002088985 -0.0031654907 0.0038601907 0.0015546859 -0.00045049484 0.0008875253 -0.003256323 -0.0036612556 0.003864944 -0.00049961894 -0.00085192156 -0.0029664424 0.00044253946 -0.002754152 -0.0011413388 0.0016618683 -0.0029824674 0.002889815 3.444322e-05 -0.0008820267 0.00027617844 0.0016204113 -0.0027011195 -0.0032599347 -0.0015706113 0.00046232058 0.003821877 0.002223526
172.016.114.148 0.0008190955 6.206381e-05 0.0024991306 -0.0037950638 -0.0025170045 -0.0013508254 0.003336446 -0.001867102 -0.00041288653 -6.8376634e-05 5.4078973e-05 -0.0023157801 -0.0034099263 5.116981e-05 -0.0013250699 -0.00056554796 -0.0015223811 -0.001347955 0.0026167964 0.0029472837 -0.0011898113 -0.0032725516 0.003075579 0.0013319833 -0.0036079513 0.0039051424 0.0012531573 -0.00025044885 -0.0032252339 0.00353371 -0.0017793088 -0.0012478532 -0.0015128477 0.0017508959 -0.00046490942 -0.003206466 0.0038533784 0.0018325398 0.0009237229 -0.0036161293 0.0010039492 -0.0001633763 -0.00066894357 -0.0025297564 -0.002155442 -0.002544599 0.0010024896 0.00030553408 -0.003159938 -0.0011628954 -0.0035670376 -0.0024800515 4.443198e-05 0.002753237 -0.0024774224 0.002693022 0.00052281126 0.0016254082 -0.0010014309 -0.0022917888 -0.00074189086 0.001612298 -0.00061489793 0.0009177082 -0.00087618874 -0.0027944096 0.0011554222 0.00088526186 0.002919792 -0.0023515704 0.0006214487 0.0027165103 0.0026535725 -0.0014580039 -0.00018579772 -0.0012514796 0.0005161948 0.003785836 -0.00043797147 -0.0024483968 0.0034252433 -0.00363855 -0.0014869213 0.0001573433 -0.0014137229 -0.00299614 -0.0028559063 -0.0024309685 0.0016494887 -0.0017773581 -0.0024249507 0.0019578207 0.0037011874 -0.0024479337 -0.0016230476 4.7266876e-05 0.0020957675 0.003507842 0.000810569 -9.693598e-05 -0.0038372572 -0.00026064843 0.0010933243 0.000873542 0.00373266 -0.0029379614 0.00014074818 0.002279628 -0.0004685998 0.0030566205 -0.0002134878 0.002970218 -0.0009759995 0.0038043687 0.00022570304 0.003069246 0.0018578647 -0.00260613 -9.4537274e-05 -0.0005642739 -0.002652145 -0.0010636111 0.0029888 -0.00015113797 -0.0036700235 -0.00057156855 0.0006787452 0.00093976327
009.009.009.009 0.0005739774 0.00038897563 -0.0025665744 0.00058306224 0.003077234 -0.0030763235 -0.0020680882 -0.0010555526 -0.0012167022 -0.001883791 -0.0014646407 -0.003677495 0.00023926147 0.0036236153 0.0026458316 -0.0017107541 -0.002233261 0.0012150452 -0.0019484442 -0.0014031116 0.0018377164 0.00090565416 -0.0006890554 -0.0005560438 0.0018068668 4.213334e-05 -0.0028746964 0.0020605386 0.0017094598 0.00034978834 0.002766834 0.0038329486 -6.868148e-05 0.0008262545 0.001254702 0.0024006777 0.001261897 0.0036281538 -0.002078171 0.0038941102 -0.0021801495 0.0019195991 -0.0011153508 -0.0022408147 -0.00024340804 0.0037857206 -0.0001363607 -0.0006222353 -0.002058733 -0.0021360463 0.0029111272 0.0006013201 -0.0025456068 0.002891334 -0.0035551833 -0.0004000473 0.0016409582 -0.0031788074 0.0012689837 0.0020533372 -0.0031882073 0.0009909545 0.0026590743 0.0012109339 -0.0008301373 0.0023227322 0.0012058939 0.000466312 0.002329631 -0.0017666502 -0.0016959105 -0.0008118686 0.0019058754 -0.0015839203 0.0035242639 0.0011588734 0.00022022836 -0.0031975606 -0.002355536 0.00219054 0.0031118714 0.0030260615 0.002913256 0.0006662896 -0.0033533906 0.002091302 -0.0030963048 -0.002128027 -0.0025628812 -0.002903213 0.0025024263 -0.0013937501 0.0036997746 -0.0009776836 -0.0012607065 -0.0038726104 -0.0016716806 0.0026985286 0.00076193095 -0.0017311127 -0.003722666 0.0029603112 -0.00050712016 0.00035137802 -0.0029249608 -0.0017236349 -0.002380223 -0.0037271997 -0.00066891714 0.002983109 0.0017402697 -0.0033977204 0.0034742244 -0.003537825 0.0008336143 -0.002686961 -0.00037685252 0.00080860226 -0.0019031931 0.00066593057 -0.0037182614 0.0034610818 0.00052553957 0.0028252534 -9.266561e-06 -0.0028934684 0.0017078217 -0.0020256625
207.136.086.223 -0.0012910445 0.0029990068 -0.0037748197 -0.0036044414 2.875314e-05 0.0022680208 0.0038199497 0.0027334774 -0.0018757596 -0.001026302 0.0004683115 -0.0011529815 0.0013850742 0.003060768 -0.00065858115 -0.0026449107 0.00016898813 -0.0016361683 0.0021298868 -0.00011262815 -0.001044624 0.003706975 -0.0029837969 -0.0033289539 0.002670258 -0.0013514969 -0.002004789 -0.003121313 0.0011258258 -0.00076115376 -0.0036486473 0.0024618388 -0.0034914468 -0.00046008013 4.437231e-05 -3.0137086e-05 -0.00014556076 -0.0008942396 0.0007481627 -0.00042693294 0.002633251 0.00027103617 0.0021641725 -0.0010116361 -0.0030538333 -0.0016332781 -0.0021545289 -0.00355609 -0.0035200375 0.0031766433 0.0015495492 -0.0024800496 -0.000625153 -0.0012424747 0.0024970034 0.0019600561 0.0012604542 0.0033072452 5.6399418e-05 -0.0020580709 -0.002276604 -0.0033844472 -0.00054363086 -0.003022515 0.0007281065 0.0037715374 -0.0017323832 0.0013290904 -0.0035143355 -0.0034293698 -0.00037546 -0.0019454713 -0.0023973265 -0.0035730053 0.0025202476 -0.0018416169 0.00033901204 0.00085017085 -7.149177e-05 -0.0019218138 0.00054460316 -0.001448373 -0.0027054155 0.0006469865 0.003683167 0.0025984286 -0.0009681894 -0.0028386402 -0.00066906813 -0.0010084556 0.003876084 -0.0011477908 0.0008348151 -0.001094892 -0.0034042695 -0.002801732 0.0019417794 -0.0013026346 0.00045602117 0.002820876 -0.0016911827 -0.0026988804 -0.0033914554 0.0024216785 0.0017707355 0.0013575843 -0.0022050424 0.002255811 0.0018314042 0.00018456536 -0.0038142183 0.003315469 0.0013690898 0.00014040031 -0.003051328 -0.0021625808 -0.0037144874 0.0003277012 -0.0017109578 -0.0005936373 0.00085167127 -0.0003599593 0.003584947 0.0035677464 0.0024501143 -0.002646361 0.0013175642 -0.0019492642
