31 128
192.168.001.001 -0.008236567 0.0003828662 -0.004047265 -0.0025868572 -0.013857892 -0.0028293673 -0.008435221 0.0017156408 -0.009058078 0.0041858866 0.0036434755 0.0055393116 -0.0070992773 0.015817646 -0.0015675278 0.0067379694 -0.012036411 0.009191814 -0.021023965 0.01143598 0.0064148055 -0.00047730416 -0.0008083524 0.00097434194 -0.011911617 0.004992459 0.0078699095 -0.0048930207 -0.0015364442 0.0035123269 0.006158549 0.0077390014 -0.0020259982 -0.004719623 0.002297348 -0.0043842383 0.010167697 0.0009562641 -0.0038792405 0.007879637 0.009362088 0.0032045937 0.0070337392 -0.009152776 5.098904e-05 -0.001352768 0.0049295765 0.008501511 -0.01246092 -0.015595172 0.012963889 0.0038990572 0.0106641445 0.010711971 0.0020039196 0.005662666 0.0016226347 -0.0040693004 0.008306326 -0.014724562 0.0014993856 0.0036972924 0.00017321312 -0.00259222 -0.008359771 -0.014385767 0.000953291 -0.009272352 -0.004447935 0.0020537355 0.006135965 -0.014743313 -0.010071333 0.0037841743 -0.0055258796 -0.004467781 -0.0032318754 0.016775943 -0.010239543 0.008201808 0.0035839023 -0.012076822 0.006922971 -0.003991547 -0.002189979 -0.0049777324 0.009658425 0.004171691 0.0006840584 -0.010156054 -0.0036259321 -0.006291965 0.008015873 0.0076886336 0.012371166 0.006565246 -5.3068e-05 -0.01017216 -0.006163471 0.0042206757 -0.004281034 0.004990285 0.0011145716 0.006117793 0.009231235 0.008379024 -0.01346579 -0.00025993682 -0.0017183404 -0.0053583095 -0.007928162 0.0044934275 -0.0011026459 -0.0044632386 -0.001609342 0.0017501259 0.00528367 -0.0069197444 0.005155323 0.0018228999 2.6392745e-05 -8.9621506e-05 0.008872808 -0.0032191526 -0.0014098098 0.005480285 0.004339136 0.007039478
194.027.251.021 -0.009222556 -0.0007103945 -0.005967079 -0.00091606396 -0.009554497 -0.006175031 -0.0034872948 -0.0040531694 -0.00800904 0.00035790697 0.001478818 0.006548312 -0.006581662 0.012097269 -0.0037119384 0.008352203 -0.0058355574 0.002508127 -0.01576598 0.009286293 0.006658518 0.0016615135 -0.005626327 -0.0013560324 -0.0070596766 0.0029186527 0.006523171 -0.0018734802 -0.004737833 0.0041469247 0.0031248278 0.0040780148 -0.0024446677 -0.0065647843 -0.0019262541 -0.004633058 0.008261518 0.0048823324 0.0019006238 0.004073386 0.0036625683 -0.0026081412 0.008560788 -0.0037028939 -0.0057080975 -0.0050530536 0.0035417 0.0035017398 -0.0076978575 -0.010217512 0.009835571 -0.0030788018 0.008985071 0.0067988946 0.0034162481 0.0012568323 0.0061979154 -0.00039754238 0.0050146794 -0.009620543 0.0009789348 0.0026836256 0.00243961 -0.0017182507 -0.006834137 -0.011053088 -0.005001106 -0.0038551039 0.00018101669 0.0028046896 0.0061914166 -0.011059865 -0.006236984 0.0040102713 -0.008615233 -0.0031050597 0.000103694445 0.0116521185 -0.008855857 0.0075516026 -0.0005106774 -0.007523264 0.0055433577 -0.004328342 -0.0003896049 -0.0005626848 0.0045669912 -0.0018256049 -0.0045451554 -0.006644741 -0.0039405706 -0.0040263315 0.007871511 0.0007152381 0.008054368 0.004721015 -0.00031014963 -0.005616322 -0.010200029 0.00447238 0.00036168366 0.0024344095 -0.00020746855 -0.00029726513 0.0043173106 0.006192862 -0.00800631 0.00062663585 0.0033422275 -0.0040358985 -0.001166943 0.0038675263 -0.0031502054 -0.005071639 -0.006256322 0.0012834897 -0.002168181 -0.0054540066 0.0033520556 -0.00033636251 0.004629259 -0.0040625567 0.0028051748 -4.2418105e-06 -0.002273663 0.0007205734 0.0077985376 0.0041764667
192.168.001.005 -0.0015027436 -0.0011103804 0.0015851876 -0.0021898195 -0.0018612811 -0.003976763 0.0009537301 0.0015118724 -0.0034577027 0.0040033213 0.003969807 0.00076558156 -0.002638525 0.004563385 0.0011753666 -0.0014481184 -0.0006036266 0.004417232 -0.0053075664 -0.0025991737 0.002283082 0.0015351652 0.0031301547 -0.00085183105 -0.00030877837 -0.00014992275 0.0005457246 0.003600238 0.0022087723 -0.002330698 0.00023074003 -0.0020698279 -0.0010201752 -0.0031094654 0.0018603804 -0.0025010086 0.004335539 -9.0507754e-05 -0.0013527909 0.0029716636 0.004279837 -0.00044918706 0.0034769455 -0.0038502768 0.0030655498 0.0026995237 -0.0027017265 0.0043920376 -0.0049324427 -0.004525912 0.00040732705 0.0017787922 0.0049987854 -0.0021688053 0.0034605293 0.0037864116 0.0028032921 -0.001068896 0.002877576 -0.0043477993 0.00182164 0.003338128 -0.001750513 -0.0023212903 0.002317842 0.0003385781 -0.0018103484 0.00044928654 -0.0016479983 0.0039880057 -0.0011097359 -0.0051157083 -0.003155341 -0.00034183444 -0.0027279172 -0.0017676138 0.0023790665 0.0017967154 -0.0037804863 0.0022031977 -0.00067057996 0.0026013537 0.0035691115 -0.0016496229 -0.0037721996 -0.0039463127 9.534576e-05 0.0017124697 0.0034109193 -0.004934091 -0.0023402495 -0.0019479389 0.0045871288 0.0031704523 -0.0010480632 -0.002258461 0.003088698 -0.003427291 -0.0046874275 0.0039204285 -0.0013982997 -0.002217313 0.00061576976 0.0012757184 0.0024516012 0.0039404603 -0.0026584708 -0.002622735 -0.000613184 -0.001583704 -0.00035304867 0.0020182796 0.0028375613 -0.0005000419 -0.0018652771 0.00032711035 0.00073132914 -0.00050001696 0.00324297 0.002086175 -0.00077135675 -0.0014815624 0.0036977902 0.0031107378 0.002330651 0.0008829041 0.0001291343 0.0041440413
197.218.177.069 -0.0051214145 -0.004247821 -0.0017850724 -0.0024509027 -0.0033744345 0.0018791503 -0.0010521408 -0.0004316318 -0.003423517 -0.00066393474 0.004612675 0.00427336 -0.0048521203 0.0027073198 0.000997611 0.0031081603 -0.0017847937 -0.00020070176 -0.007593065 0.0043142606 0.0029636703 0.0009564303 -0.004564124 0.002499591 -0.0049450025 0.0028666342 -0.0009696191 -0.0013254614 0.0018779008 -0.00028263425 -0.0017568524 0.00057882606 -0.0036348985 0.00114269 -0.0032539912 -0.00021815744 0.0038012266 -0.0011050338 0.00081329985 0.0014665612 -0.0009274242 0.0028988663 -0.00045483332 0.0028758107 -9.3140625e-05 0.0024555174 -0.00087952695 3.5711222e-05 -0.0045431266 -0.0044256477 0.0026089987 -0.0034070876 0.0039069084 0.0011211142 -0.00023027904 -6.236557e-05 0.001098277 0.0028078875 -0.001128092 -0.0048785964 -0.0037323558 -1.48074905e-05 0.0012317324 -0.0023924785 0.0007564731 -0.003250302 -0.0034325744 -0.00023011545 0.0015777008 -0.0032361462 0.0042440896 -0.0041926964 -0.002180227 0.0039961357 -0.0048133982 -0.0029231193 0.002236873 0.0022297252 -0.00036294956 3.403127e-05 0.0018055325 -0.00063499564 -0.0026029288 0.00065646897 -0.00036809116 -0.00052144215 0.0043873503 -0.0028043224 0.00027265117 -0.004105821 -0.0013935777 -0.0027811946 0.002189977 0.0029561406 -0.0020536832 0.0019366635 -0.0004935936 0.0012972711 -0.006236669 0.0014770821 -0.003951323 0.00052830117 0.0015661162 0.003093492 0.00033869798 0.0034254333 -0.006634873 -5.387557e-05 -0.00070947455 0.002406337 -0.005421422 0.0007259392 0.0019235335 0.003035181 -0.0012734301 0.0016923081 0.002504671 -0.0025090745 -0.0011661861 -0.00095929793 0.004688963 -0.002262027 0.005229439 0.00043352574 -0.003611856 -0.0016870082 0.005359631 0.0020213912
172.016.112.050 -0.0032666605 -0.0017064828 0.0012229657 -0.00023540572 -0.002827406 -0.0013555777 -0.002155218 0.0034572172 -0.0038311554 0.0023966506 0.0005503948 0.002981286 -0.0033275543 0.0023214733 -0.0029545596 -0.0012927272 -0.0016915263 -0.003405047 -0.0023501157 -0.0025203596 0.0017963992 -0.0020858948 0.0033266447 0.0011538146 0.0016937443 0.0035934933 0.003945815 0.002803627 -0.0038398579 0.0011174033 0.00094801886 0.0006279081 0.0021215205 0.0024850229 -0.0009811661 -0.0019577837 -0.0021153819 0.00082564034 -0.0014482297 -0.00010618163 0.00025327044 0.0024075867 -0.0037290393 -0.002101906 -0.003973191 0.0012010033 -0.0037472981 0.0017173691 0.00028167563 -0.004046843 -0.0012686483 0.0007762956 -0.002487964 0.0014010852 -0.0009797667 -0.002887782 0.0019601427 -0.0017523342 -0.00022543734 -0.00029852963 -0.0010106897 -0.0011208818 -0.0036479577 -0.0021683685 -0.00094351586 -0.0013113824 0.0035172286 0.00264307 -3.8474536e-05 0.0017917822 0.0017949034 0.0026126336 -0.0020068607 0.0013091196 -0.0025310556 -0.0026485047 0.0035729203 -0.00030978202 0.0012498791 -0.003147425 -0.0033710313 0.0019478877 0.0029606053 0.002378449 -0.00072784943 -0.0023299914 -0.0013414228 0.003674315 -0.0014631272 0.0020007004 0.0033579683 0.0005365353 -0.0010178932 -0.0012436071 0.0011597367 -0.0002464376 -0.003135417 0.00018540942 0.00015039735 -0.0018836567 0.0037922694 0.0012084123 0.0025212222 -0.00094176293 0.0013245203 0.0009195993 -0.0027808966 -0.0022274726 0.0017503386 0.0016628316 -0.0035186477 0.0014259197 0.0015714591 -0.0035349962 -5.324572e-05 0.0020751075 -0.0019618575 0.0024901459 -0.00013426133 -0.0038328697 -0.0014164022 0.000946433 0.0035770654 -0.0013496337 0.00018458335 0.0013526237 0.0011917399 -0.0030400713
131.084.001.031 0.0012468 -0.0016023407 -0.0021518648 -0.00047255983 -0.005683517 -0.003883656 -0.002838605 -0.0005815815 -0.004709057 -0.0029795507 0.00010706799 0.004980718 -0.002209941 0.005560632 -0.00239811 0.0029225978 -0.0042174077 4.1576277e-07 -0.003125957 0.0040109083 0.0019535746 0.0036314516 0.0020340255 -0.0037372238 -0.000852917 0.0032513088 -0.00018824263 -0.0033199186 -7.410902e-05 -1.5482288e-05 -0.00322899 0.00021896842 -0.0043206634 -0.0035558257 -0.0021270767 -0.0033290011 -0.0009915595 0.0021905685 -0.0030600405 -0.00075021863 -0.0005065237 -0.0011994122 0.0014693442 -0.0042087827 0.0010831739 0.002214861 -0.00045954785 0.0022028594 -0.0037991586 -0.005566669 0.001705715 -0.0032099078 0.00233172 -0.00050922076 0.0033480318 0.00045442113 0.00045248965 0.0016116614 0.00019898236 -0.0038685733 -0.003971061 0.002074201 0.001586156 -0.0025822127 -0.0021631843 0.00026062177 0.0023847383 0.0029410275 0.0020066677 0.0015646326 0.0030459322 -0.0005498871 -0.003190028 0.00029278896 -0.0018976238 -0.0010186193 0.0010724841 0.0045609875 -0.0025098666 0.003489401 0.0025169777 -0.003947494 -0.0025913822 -0.001542304 0.00042060288 -0.0012488909 0.0018775284 0.00042277147 -0.002103335 -0.0037790895 0.00023196256 -0.003217006 -0.0030932336 -0.00050591223 0.0015500054 0.0008018293 0.00051002274 0.0028474017 -9.941237e-05 0.0022107097 -0.002998649 0.0031106668 0.0008023632 -0.0003283754 -0.0017024566 0.0017435697 0.0003164714 -0.00054384215 0.0031703133 -0.0021812709 -0.001135463 0.0034359994 -0.0041817906 0.003047522 -0.0020589773 0.0012353484 -0.000115383526 0.00080147164 -0.0028482631 -0.0007665231 0.00031756354 0.0025334645 -0.0024203984 0.00029868423 -0.0013261421 0.0029146743 0.0027891083 -0.0011593768
172.016.114.050 -0.0010733639 0.002283488 0.0019422465 -4.5024528e-05 0.00086744555 -0.0038521003 -0.0013835416 0.0003349017 -0.0016972416 -0.0028104563 0.0023600976 0.0039447984 0.0022493515 0.003428302 -0.0036835985 -0.00305701 0.0022091644 -0.0030002212 -0.0051563224 -0.0005108949 0.0017506896 -0.003159787 0.0025437025 0.0034558289 -0.00062358705 0.0006501063 0.0029204881 0.00221126 -0.0020076183 -0.0010274744 -0.0037154942 -0.0012616392 -0.0012677378 -0.001994307 0.0036503235 -0.00050433824 0.004605739 0.0031416537 0.002475149 -0.0016089124 0.0019232983 -0.0028459148 -0.0027001647 -0.00086774 -0.0026343446 -0.0006332243 -0.00021670075 0.0025979532 0.0006494279 0.00052544405 0.00080728316 0.0015496141 0.0035890164 0.0030863376 -0.0028947347 -0.001229212 0.0039190156 0.00028705 -0.00050867593 -0.0026533452 -0.0015771283 -0.0034112376 0.0033937984 -0.0015561793 0.00052709406 0.0025743742 0.0017487066 -0.0015349155 0.0008420293 -0.00011471104 0.00039607688 0.0018644733 0.0027927246 0.0036708498 -0.0031835728 -0.00058387837 -0.0019452099 0.004485543 0.0024824005 0.0011957361 0.0018765433 0.0029420292 0.0025854341 -0.0038657112 0.0026362138 -0.00037589256 -0.0004332448 0.0033358745 0.0020792345 -0.0043939305 -0.0011615774 0.0029246784 -0.0031757932 0.003202028 0.003287935 -0.003331224 -0.003826799 -0.0013837215 -0.0033862067 0.0039834194 0.0023050571 0.0029047206 0.00010092744 -0.00072406547 -0.0025109784 0.0022849492 -0.004300497 6.5041684e-05 -0.0030151089 0.001092713 0.0019868223 0.0024665787 0.0016826688 0.0015797016 -0.0038688336 0.0029010498 0.00090338325 -0.0033046585 -0.0027409939 -0.0022813552 0.0014767236 -0.00095343497 -0.0031564028 0.0006979204 -0.0033558512 -0.0005394602 -0.002753162 -0.0023053295
172.016.112.149 -0.0032564728 -0.0039008544 0.0015101983 0.003320448 -0.0006100144 -0.0017867783 -0.00087048276 0.0001559124 0.0023556144 0.00097303285 0.0038438048 -0.0026822176 -0.0043644807 0.00088316365 0.001453376 0.0012483621 -0.0022169566 0.0018262354 -0.005676164 -0.0023803008 -0.001170946 0.00196772 -0.00022549392 -0.0018470156 -0.0017475218 0.0030355582 0.0032559403 0.0010771101 0.0027722698 0.0006018356 0.0016855068 0.0006745903 -0.001984978 -0.0028874478 0.0036758846 0.0012682574 -0.0010577537 -0.00095734565 -0.0008762065 -0.0015732815 0.004563966 -3.3968136e-05 0.0040131556 -0.003745255 0.0015838341 -0.0023796903 0.0039993147 0.0010055508 0.0026261837 -0.0028735388 0.002679332 0.0020896906 -0.0020396449 0.00418621 0.0008693796 -0.0028534995 0.0010878739 -0.0009844555 0.0031484934 0.00036657232 -0.0016231557 0.0013219826 -0.00077805854 0.00012220879 -0.0009943808 -0.00042589096 0.0025040484 -0.004015663 -0.0016424127 -0.0007615048 -0.0014595855 -0.003241376 0.0028665294 0.0014875596 0.0017604216 -0.002866152 0.004026227 0.0042983545 -0.0020639843 0.00027200973 -0.00019051116 -0.0019279897 -0.0004947086 -0.003319653 0.0017396447 -0.003223118 0.004760692 0.0036838036 -0.0023326993 -0.005026988 -0.002429508 -0.0033260921 4.591012e-05 0.002651138 0.002831668 -0.00069290877 0.00088024215 -0.0030166372 -0.0042049256 0.0027956422 -0.002968393 -0.002464753 -2.5922354e-06 -0.00053216337 0.003331551 -0.0023801615 0.00030382778 0.00074051844 0.0015975282 0.0022075255 -0.003584474 -0.00228861 -0.00047853906 -0.0015949615 0.00077703025 -0.0029578314 -0.0018238315 0.0024653699 -0.0002576237 0.0038583041 0.004304942 0.0006419236 0.00095978903 -0.0025908088 0.0008941467 0.0016672061 -0.0012874799 0.001030832
172.016.114.207 -0.0063232924 0.0017401602 0.001043783 -0.0016065461 -0.0032531442 -0.0019280899 -0.0039090533 -0.0010894574 -0.003248255 -0.00196007 0.0045443648 0.004749409 -0.005357878 0.008140279 0.00065979717 0.00026485987 -0.006149171 0.002162088 -0.0060421284 0.0011559313 0.00528748 -0.0028311047 -0.00014961211 -0.0038366413 -0.0053592967 -1.6766106e-05 0.0010642483 0.0027713843 0.0033430075 0.0014040004 0.0019046811 -0.0022536034 -0.0020766743 -0.004171029 -0.00046013593 -0.00039169006 0.0043056877 -0.0022520886 -0.0035868464 0.0011302304 0.00206748 0.0013710316 0.0063111237 -0.00382555 -0.0030026766 0.0022171973 -0.0007998892 0.0016315457 -0.0014130647 -0.007763905 -0.0006629618 0.003510502 0.0027905882 0.00011779586 -0.0017427689 0.0047793495 -0.0022748502 -0.00023716308 7.820199e-07 -0.0025214907 -0.0032101665 -0.00018973627 0.00066036126 -0.0030311423 0.00053317985 -0.0029201664 -0.0007470004 0.0012750144 0.0036318076 -2.7749295e-05 0.0031604837 -0.007277447 -0.00048508207 0.002986704 -0.003410591 -0.0009921781 0.00012717946 0.0044902894 -0.0041259117 0.0028546094 -0.0032377017 -0.00077036145 -0.0013086805 0.0012483238 0.0030237176 -0.0044430797 0.004827988 0.0001265556 -0.0019824097 -0.00033190718 -0.0034766826 -0.003124056 -0.0017184434 0.001046131 0.006231511 0.0012098202 -0.0017020119 -0.0045678685 -0.00699407 0.006115802 0.0019601511 -0.0017556236 -0.0028480908 0.002886223 0.0054525575 0.0024370197 -0.0082844375 0.0020214452 -0.0012465748 -0.0013317739 -0.0060071326 0.0035934704 -0.0027516475 0.0020907784 -0.001376467 0.0028989213 0.0037340154 -0.0009216692 0.004898543 -0.0011417947 -0.0024104686 -0.00019034985 0.0017866604 -0.004121853 -0.0053973612 0.003594773 0.0040338226 -0.001961859
206.132.025.081 0.002278206 -0.0027128356 0.0031325875 -1.3769386e-07 -0.0015764232 -0.0037530793 -0.0024370214 0.002174755 -0.0030969454 0.003295106 0.0008066021 0.0011485707 0.0014146075 0.0038546454 0.002652608 0.0015240237 -0.0041074688 -0.00011535462 -0.00046382687 0.0017127967 -0.0014030214 -0.0023128923 -0.0025645671 0.0015437393 0.0025164403 -0.00061928487 0.0013062536 0.0036246567 -1.4726531e-05 0.0015976358 -0.0025355527 0.002853096 0.0019045115 -0.0029979346 0.0030496432 -0.002356502 0.0038953573 -0.0028120924 0.001034299 -0.0013832609 0.001325431 0.0005691899 -0.00302818 0.0020353254 -0.0007326836 0.0027493401 -0.0031198042 0.00030347062 -6.763512e-05 -0.00029577065 0.0016787217 -0.0008764845 0.0017112182 0.0038742085 0.0007074203 0.00013255619 0.0017707328 0.0021580916 0.0022738753 -0.002418294 3.296502e-05 0.0019603402 -0.0034163166 0.002275348 0.0025241545 -0.003934083 0.0034123985 -0.0037375626 0.0005363027 0.0024355599 -0.0022481435 0.0019166205 0.0031505744 0.002633404 -0.0029174483 -0.0036203624 -0.0029653872 0.0030759408 0.0005070813 0.0037459757 -0.0017133909 -0.004111022 0.0031214016 -0.0015919808 -0.0003220668 0.0021091367 0.0023813003 0.0008688897 -0.0013100273 -0.0027352842 0.00016926552 -0.0019349197 -0.0028434214 0.004090192 0.0014369818 -0.0014257167 0.00025319206 0.00013787815 0.0002121231 0.0008857434 0.0030481326 0.0036568318 0.0009721551 -0.0023848484 0.0032046908 0.003862756 -0.0009178155 -0.00063854357 0.00060345547 -0.0019038523 -0.0024527786 0.0015824201 -0.0018067989 0.0020790743 0.00092601054 0.003290606 0.0024391655 -0.00051860843 -0.0027345608 0.002640027 0.0008117026 0.00075038726 -0.0004355557 -0.0005558 -0.00136953 -0.003302375 0.002848525 0.003201591
207.025.071.026 0.002539102 0.0029186218 -0.003462584 -0.003083918 -0.00040604814 -0.0003561423 0.0027110637 -0.00022432751 0.0012169637 0.0011683615 0.003136477 0.0018840891 -0.0015528711 0.0009850471 0.0006760206 -0.001846143 -0.0006122023 0.0029942896 -0.0023163622 -0.0028883088 0.0021310572 0.0029994254 0.0017422596 0.000579183 0.0021021161 -0.0031946604 -0.0009599846 -0.003606181 0.000659645 0.00031310215 0.00261175 0.0004469183 -0.003865989 -0.0018873635 -0.0014889925 -0.00055964437 0.0031966246 -0.0025506387 -0.0012839041 0.0010427786 0.0025300211 0.0015343799 -0.0020491038 -0.0030724953 0.002065728 -0.003023777 -0.0033513904 -0.0010811832 -0.0028706728 0.0013667608 -0.0030988955 -9.432648e-05 0.0024397555 0.004373215 -0.0007548286 0.003722307 0.0027407175 -0.0016794323 0.0012411072 0.0020329207 -0.0021234632 -0.0026644052 -0.0017795087 0.0016859267 0.00072175264 0.00017159287 0.003061575 -0.0035416796 -0.001053583 4.086118e-05 0.0044026226 0.002571856 -0.0039517614 0.001518542 -0.003912362 -0.0037517757 0.0019560629 0.0029515915 -0.004649298 0.0034947663 -0.003515432 -0.0029623858 0.0013547421 0.0004884974 -0.003573282 -0.004202569 0.0034318129 -0.0011810688 -0.003707938 -0.0038563404 -0.002812138 -0.003673693 -0.00049984286 0.00097305054 0.0024614315 -0.00055010786 -0.0018897096 0.0006075188 -0.0012275875 0.003066157 -0.0018751759 -0.0022089328 -0.00152873 0.0013443469 0.0028330104 -0.0027130735 7.554202e-05 0.0035010413 -0.00032803035 0.0021038672 4.672329e-05 0.0010773644 0.0009720367 -0.0025566674 0.0021391455 -0.0024385212 0.0025125816 0.00028360134 0.0027008697 0.0013619363 0.00040802325 -0.002988782 0.0003133311 0.0006338621 -0.0029115642 -0.00011780835 0.0008814201 0.0014081696
198.133.204.003 0.0004386843 -0.0025370026 -0.002806222 0.0018317589 0.0007908317 -0.0029273727 -0.0022174986 0.0018302476 0.0006604149 0.0029835345 0.0036827778 -0.0006894206 0.00084510644 0.0007115768 -0.0015002269 0.003620889 -0.0022476052 -0.0034511825 0.0019471957 0.0032168194 0.0008363181 0.0012587718 0.003623766 0.0008875088 0.00044334595 -0.0028778901 0.0018239553 -0.0027473406 -0.003409861 -0.0005330994 0.0020723538 0.0031316397 0.0009122727 -0.0032814916 -0.0022007325 -0.0036499572 0.00300501 0.00021261476 0.0032232387 -0.0010603083 0.0035918057 -0.0033571494 -0.003520149 0.00024808105 -0.0025330647 0.0030686585 0.0025643571 0.00044951524 0.0012380624 0.002821025 -0.003085618 0.0035454314 0.0006601631 0.0030415284 -0.00044250453 0.00016317362 -0.0010068323 -0.00034373393 -0.0029484993 0.0030456572 0.0021130159 0.003964898 0.0033817117 0.0026561008 -0.00058323675 0.0030472234 0.0018768155 0.0033699549 -0.0019003174 -0.00017406777 0.003454704 -0.003362481 -0.003280065 0.0020032679 0.0028827444 0.0032439274 0.001930707 -0.00032555877 1.0484131e-05 0.0029285573 0.0037962655 0.0029877543 -0.0011084969 0.0023761336 -0.0014083745 -0.0023424884 0.00087199686 0.0012138446 0.00095051504 -0.0025827843 -0.0015725825 -0.0030387817 0.0033126627 0.0017834582 -0.00011422165 -2.4550878e-05 -0.000592999 0.00081312895 0.00072025857 0.0012534724 0.0036249429 -0.0008650322 0.0015168954 0.003897378 0.0011428625 0.00027987993 -0.0013292081 0.0015703158 0.0003627997 -0.0023291246 -0.0030519373 -0.0023182146 0.003290203 0.0026903455 6.5598e-05 0.0035501197 -4.4732158e-05 0.0012884339 0.0002088993 -0.00038908594 0.0031930981 -0.0004735598 -0.0009146891 -0.0017921163 0.00084595504 0.00024177809 0.0029923136 0.0039049245
152.163.210.015 -0.0012320052 -0.0014097972 -0.0017214882 0.002747246 0.002235767 -0.0023520046 0.0022865294 0.0035272585 0.00090465904 -0.00079770014 -0.003038364 0.00079653226 -0.0010533119 0.0010016934 3.8220198e-05 0.0036193824 0.000116256895 0.0029494874 -0.0026161135 0.0046886136 0.0008453365 0.0013275133 -0.001070369 -0.002640022 0.0015213939 -0.0023651393 -0.0009539862 0.0011358106 -0.003880451 -0.00038236234 0.0021947136 -0.001528015 -0.0017024752 0.0005352775 0.0026090643 0.0004647309 -0.002120095 -0.0010738763 -0.002436811 0.0042101317 0.00033412158 -0.0034029528 0.00397991 0.0010484655 0.00033081818 -0.0019407257 0.0016076374 0.00304458 -0.0046455665 0.0020687715 -0.00071748724 -0.003206738 -0.0015654082 0.004248251 -0.003023844 0.0018125406 0.003185753 0.0017685572 0.0022143226 0.0018665611 -0.00391787 0.0004794592 -0.002275104 0.0007270597 -0.00080600864 0.0017794031 0.0033716988 -0.0014401786 -0.0027479648 0.002726015 0.0016081957 -0.0017449673 -0.0013704556 -0.0029047413 -0.0040499256 0.0025045997 0.0032499824 0.002886083 0.0014072641 0.00043131676 -0.0030881644 -0.0019330429 -0.0031088036 -0.00075990317 -0.0011202435 0.002361631 7.273648e-05 -0.001260095 -0.0027920508 0.0017663469 0.0003769886 -0.0002906751 0.00053380174 0.00031433787 4.359454e-05 -0.00096969574 0.0011816873 0.0013958694 0.0011138703 0.004411911 0.0015526173 -0.002215876 0.003793748 0.0016559976 0.0010817295 0.003665318 -0.0033083826 -0.00278813 0.00396223 -0.0002584115 0.0016627503 -0.0002841531 -0.0028215533 -0.0008651389 -0.0032836203 0.0018908797 2.7851012e-05 0.0029551042 -0.0012369258 0.0014036209 0.00061942317 -0.0013549227 -0.0028449192 -0.0035988993 0.00012232183 -0.0018458726 -0.00010974266 0.0041883006
135.013.216.191 -0.0011321458 -0.00019366812 -0.0020520778 0.002291577 -0.002650442 -0.002874483 0.0030209161 0.00037846385 0.0012007676 -0.0034737363 0.0010220102 0.0041157166 0.0011854806 0.0018184008 -0.0040037395 0.0022518134 -0.0009357933 0.0023579274 -0.002314534 -0.0030637404 0.0035314644 0.0040297485 0.0035189684 -0.0027947617 0.0015549358 0.0016029484 -0.0019874095 0.0009743615 0.0016858275 0.0006329145 0.0010260033 0.002243425 0.0009735813 0.0029235962 3.2384873e-05 0.0002671341 -0.00023353854 0.0035855295 -0.0019749163 -0.0028680197 0.0042044614 0.0021760715 0.0039658253 -0.0023831502 0.001296546 0.0021353278 0.0037619802 0.0028089364 0.002199267 -0.0038322993 0.0030448416 -0.0013838499 0.0017035282 0.003470605 -0.0037073633 -0.000433232 0.00037100728 0.0029561026 -0.00084726163 -0.0035581398 0.0011655655 0.0037808563 0.0016039547 -0.00328058 0.0018048348 -0.0018085183 -0.0018783011 -0.003775819 -0.00021388225 0.00048155474 0.00014464391 -0.0008773872 -0.00046536358 0.00029126782 -0.0023945626 -0.0035789015 -0.0027848035 0.0027649356 -0.0035421946 -0.0004048899 0.002145137 -0.000643379 0.0035261624 -0.004175251 -0.003824306 -0.0033035842 0.002276089 0.0036654966 -2.8583134e-05 -0.0004896497 0.0023699165 -0.0016835656 -0.00041525904 -0.0031630113 0.0007033672 5.136823e-05 0.0038572585 0.0010732356 0.0024601773 -0.003084409 0.0019727522 -0.0028196182 0.0016628205 -0.0025053306 0.004404045 -0.00307747 0.0010228644 -0.002753451 0.0018679507 0.000309669 0.0028737993 -0.0012208163 -0.0038864259 0.0023502512 -0.004056929 -0.003193777 -0.0015746076 -0.003010029 0.003339604 -0.003354131 -0.0023495879 0.003587703 0.0019678064 -0.0027540685 -0.0011135183 -0.0008213856 0.00010912886 5.6955847e-05
172.016.113.084 -0.005383617 0.0012110433 -0.003617637 0.0008797081 -0.0031698782 -9.564712e-06 0.0002359781 -0.0034963768 -0.002128563 0.0023414986 0.001879771 0.003312059 0.0020369354 0.0011881787 0.00036257535 0.0021442315 -0.0013154845 0.004465203 0.0003020349 0.0029146962 0.004818252 0.002955095 0.0011407811 -0.0027124821 -0.0037625171 0.00024688157 0.0019830142 0.0015272844 -0.0012271524 -0.00016614921 -0.0010836201 0.0017784457 0.0012549479 0.0021541307 0.00086938596 -0.0024907796 0.00357063 0.0004492331 0.0006335143 -0.00056688243 0.0046617864 -0.0027017232 0.0007121613 0.0017513864 -0.000998168 -0.0039004213 0.0019592782 -0.0029235433 0.0017199522 -0.0051253997 -0.0022131212 -0.001215021 0.0036488282 0.00092587044 0.0019435943 -0.0018528874 -0.0020605028 0.0019737866 0.0031969035 -0.0045073 -0.0013410694 0.00046996816 0.00056487194 0.002833763 0.0018863418 -0.0025958219 0.00097141456 -0.0016312744 0.0026649113 -0.0021980256 0.0004797316 -0.0043451726 -0.0024659452 -0.0016895591 0.00038442737 0.001394883 0.0003376688 0.0038074 -0.0050125765 0.0008369297 0.00039510799 -0.0031407564 -0.0014330043 -0.0031279249 0.0011722427 0.0023707037 0.003310473 -0.0038399836 0.003120998 -0.004557682 -0.0032856343 0.0031492761 -0.002556279 0.0027089529 0.004041691 -0.0013379046 -0.002989285 -0.00023593241 0.0014374712 0.0029671537 -0.0024222727 -0.0014045184 -0.0031368644 -0.0020697033 0.0014670932 6.747744e-05 -0.00199606 -0.0041046147 -0.0012963061 0.0019479786 -0.0015626476 0.0021549324 -7.334561e-05 -0.001090682 -0.0017433466 -0.000423238 0.0009332306 -0.0014200317 0.0037431591 -0.0014308249 0.0025648496 -0.0028550578 0.004458992 -0.0032236502 -0.0029122436 -0.0007684902 0.0034786793 -0.00021297392
155.033.141.077 -0.0036670507 -0.0035868068 0.0027205092 -0.0008816505 -0.0036640265 -0.0017024121 -0.0018805969 0.0022778825 0.0008777866 0.002860343 0.00032500635 -0.003246486 0.0020098786 -0.0001465095 -0.0014949722 0.0012177293 -0.00084485597 -0.0032205118 -0.0029393458 -0.00039767023 0.0006569268 0.0012198762 0.001226706 -0.0010868362 0.0007659563 0.0007852456 -0.0018253584 -0.002815917 0.0019375986 -0.00072785944 -0.0035269023 -0.0005003391 -0.0009712398 0.0016495722 0.0028328798 -0.002501497 0.0012576494 0.0040973453 -0.0014058268 -0.0022304147 0.00018385935 -0.0016655739 0.00212814 -0.0026424474 -0.0036627168 -0.0033336694 0.0024871677 0.0015838796 0.00047436607 -0.0005026241 0.00042944244 0.0011012976 0.0018187619 -0.0016182141 -0.0009908152 -0.0029771836 -0.000799814 0.0025168976 -0.0005126675 -0.0028061548 -0.0014625844 0.001303188 0.003331315 0.0016700741 0.0017400868 0.0005656625 0.0028949983 0.0001389216 0.0018077664 -0.0006611382 -0.0019692993 0.0012032934 0.0020890408 0.0020595824 -0.0029353637 0.002904661 0.00018726231 0.004941591 0.0006377868 -0.0011062275 0.00055862736 0.0030849471 -0.0031995077 0.0033455351 0.0013918006 -0.0033419863 -0.00073824497 -0.0023381684 0.0018595655 -0.004332116 0.0034284214 -0.0034286145 -0.0033577834 -0.0014247278 0.0019756474 -0.0032299217 -0.002164227 0.00072618417 -0.0034738288 0.003232552 -0.0030930706 0.001508622 0.0008255248 0.00024806624 0.002427929 0.00071653276 0.0006197661 -0.0013821807 0.0011666784 0.0012846788 0.0012611928 -0.0023216219 0.0017359311 0.0006151589 0.0014567274 -0.0025892623 0.0019188119 -0.002828215 0.0024622027 0.0025071339 -0.0023841644 -0.002875456 0.0044342536 -0.00081025925 0.0034984958 -0.0010313635 0.004450819 -0.0005880061
172.016.112.207 0.00067624345 -0.0024005626 0.0013769738 -0.0036490124 0.00010579874 -0.0006275832 0.0012134594 -0.0007823369 -0.0022882046 0.0012566902 -0.0010448693 -0.00085294916 -0.0029523245 0.0018788332 -0.0015701752 -0.0036192373 0.0022350736 -0.00036117548 -0.0023143552 0.0023700444 -0.00222292 -0.00089388055 -0.003561993 -0.0008038736 0.0013451646 0.00021473 -0.002668573 -0.0016310943 -0.002808877 0.00026497478 0.0018704974 0.0012465769 -0.0010807458 0.0038251092 -0.00036812015 0.0017007258 0.0026284098 -0.00046034783 -0.0017385929 -0.0016636797 -0.0038236848 -0.003029597 -0.0036908835 -0.0008159647 0.0009027066 0.003884943 0.0016854799 -0.00038023753 0.0002423415 -0.0018533095 -0.00045045005 -0.0031176377 0.00036887132 0.0031248154 -0.003161007 0.0010210705 -0.0035932425 -0.0039035003 -0.0015994261 0.000106133106 -0.00010907361 0.0005850595 -0.0013911026 -0.0016720974 -0.0020715795 0.0016875025 0.0031859693 0.0010179431 -0.0030281246 -0.0032038642 -0.0014300843 0.002185541 -0.0010902118 0.0013961779 -0.0033463782 0.0021655117 -0.0012932492 -0.0007312707 -0.002988622 -0.0031399906 -0.0021730326 -0.002199365 -0.00062119454 -0.0015919271 -8.5514155e-05 0.00045240528 -0.0032406454 0.0037335062 -0.0007269235 -5.073743e-05 -0.002620095 -0.0036008665 -0.0015082572 0.0019261389 -0.001212416 0.0031845437 0.00021376944 0.0018492634 -0.0021570784 0.0027080942 0.00052290293 0.0010940301 -0.0006320636 -0.002204573 -4.403578e-05 0.00024043418 -0.0026595646 0.0032358386 0.00027865285 -0.002419591 -0.0005856123 0.0022045972 -0.0009487273 -0.0032870255 -0.0038485602 0.0034401827 0.0035881326 -0.0008081158 0.0008753003 -0.0025263336 0.00079904177 -0.0018277196 -0.0007383748 0.00022170389 -0.0024455867 -0.001260122 -0.001893007 0.00096982345
207.046.130.015 -0.002703442 -0.003962929 -0.0013045128 -0.001893784 -0.004108127 0.0006983426 -0.0031708137 0.0015711094 0.0005308916 0.0019514501 0.00037780195 -0.0017024523 -3.134976e-05 0.0026140343 0.0013716783 -0.0023596643 -0.00028032422 0.0014253259 0.0025474066 0.0001059361 0.001106523 0.00382849 -0.0036130322 -0.003800573 -0.0032290986 -0.00027649448 0.0002799096 0.002716035 0.002893235 -0.0011849017 -0.0008109009 0.0033087437 0.0016193496 0.0024667822 -0.002783924 -0.0036918153 0.0020075808 -0.001448976 0.000113570815 -0.0024440873 0.003498525 0.0033825021 0.0024767215 -0.002569334 -0.0037857024 0.00015961735 0.0003371267 -0.00085524516 0.00355636 -0.0017115609 -0.0032152717 -0.0005221242 0.0014975624 -0.0016085537 0.00091849663 0.0014791613 -0.0004034087 2.915251e-05 0.0003977446 -0.003983668 0.0013105178 -0.003660301 -0.0009928952 0.0021026465 -0.0025216502 0.0024470158 0.0019932243 -0.0021942973 -0.0022375458 -0.0031694164 0.0008436368 -0.00018637849 0.0030063598 -0.0022745468 0.0011457352 0.0012289728 0.0026999847 -0.0023943637 0.001381799 0.0006433347 -0.0021125895 0.0030397074 -0.001429846 0.0032937983 -0.0034408192 -0.00022442653 0.0038433615 0.0011742255 -0.0023626422 -0.0029499293 0.00069159153 0.00014115231 -0.0006734823 -0.0029542139 0.0024913233 -0.0018034106 -0.0020070337 -0.0018450351 -0.00096821785 0.0010462477 0.0020311251 -0.00034878656 0.0017735488 0.00034080588 -0.002522258 -0.0023196966 -0.0024183798 -0.00069053407 -0.00030195923 0.0010948163 0.0023378802 0.0017890951 -0.0031923102 -0.00039814808 -0.0038278378 0.0023204805 -0.001811672 0.0021344724 -0.0010102926 -0.00038419783 0.0012620591 -0.0019300684 -0.0024448792 -0.00015159254 0.0012875621 0.0010742584 0.00055364217 0.0021786417
134.205.165.120 0.0009022794 0.0036924398 0.002440238 -0.0021867007 0.00091261836 -0.0034359826 -0.0022830851 -0.00035603615 -0.0038774952 0.0019787992 0.00070197816 0.003154681 -0.0035938509 -0.0015615122 -0.0020597172 0.0018593279 -0.00011593212 -0.0005176579 -0.0025547936 0.0002503506 0.0020048046 -0.0034750397 -0.0021247896 -0.0003590385 -0.0013115328 -0.0037018629 0.00064575317 -0.0014889003 -0.00025094094 -0.00038758008 0.0027210726 0.0026654098 -0.001514208 0.0032096102 -0.001895123 -0.0028462969 -0.0029911932 -0.00074715 -0.0013240178 0.0010028018 -0.0015021026 -0.003643112 0.0015783925 0.001070545 0.00045057893 0.0023333232 -0.0028047701 -0.0014420954 -0.0029401237 -0.002761098 -0.0028234848 -0.003119398 0.0033127423 -0.0007834861 -0.003362717 0.0019276051 -0.0033136262 -0.0027306974 -0.0025546358 -0.0040009907 0.003295489 -0.001114856 -0.0031236885 -0.0013505839 -0.0013638771 -0.0038383817 0.0019101113 0.00042705238 0.002212187 0.003214342 0.0010198139 0.003411939 0.0037358408 -0.0016429338 0.003650176 0.0015232783 0.00039047145 9.676006e-05 -0.0018831874 0.0036465055 0.00054859754 -0.0009176377 0.0032506785 0.0019540603 -0.000106320076 0.0023953584 -0.0013364 0.001821528 -0.0035966071 0.0027078497 -0.002684862 -0.003342918 -0.0016293791 -0.0036987343 -0.00018639884 0.0009543436 0.0014260414 0.0020337054 -0.0018431527 0.00041407874 -0.0036010712 -0.0033269806 -0.0026756106 0.002755941 0.0021523375 0.002903269 0.0005773015 -0.00045366594 0.0018082511 0.0016811343 -0.0005076621 -0.00281496 0.0002893316 0.00033426125 -0.00012138604 -0.0036363 0.0023449066 0.0011803681 -0.0014611841 0.0005001132 -0.0031358374 0.00060545397 0.002448344 0.00065693446 -0.0017520562 -0.0035721862 -0.0031534918 0.0015215795
207.068.137.070 -0.0021263838 0.0019635388 -0.0025528644 -0.0021273468 0.0036485346 0.0030508304 -0.002614029 -0.00087769853 0.00039371877 0.0024539267 0.002880578 -0.0006867438 -0.00041750504 -0.0009891621 -0.0024370374 0.00133503 0.003246927 -0.0025262276 0.0006565596 -0.0035385382 0.001516326 -0.0015226259 0.0013935798 0.0037785615 0.002380367 0.003828265 -0.000922578 -0.0027549663 -1.4064475e-05 -0.0019363594 -0.00381596 -0.0025200974 0.0032676419 0.0031740672 0.00090187544 -0.0016809726 0.0033132606 0.0034113724 0.0001241158 -0.003636875 -0.0028093788 -0.0029529666 0.002209407 -0.0013786218 0.0006627128 -0.0035269407 0.00088831503 -0.0024162312 0.002205688 0.003266922 -0.0004182181 0.0024202128 -0.0004678743 -0.0024319682 -0.0023794614 0.0003357576 -0.0021081981 -0.0021901145 0.0025674733 -0.0036575145 -1.9930116e-05 0.0018761791 -0.002205125 0.0029526067 0.0026788556 -0.0007635323 0.0002811642 -0.0038912282 0.0007051705 -0.00027794298 -0.0022967004 0.0026195978 0.00034886203 0.0023310198 -0.0003916048 -0.00055989524 0.002594752 -0.0023724309 0.0032463882 -0.00054717786 -0.0021634835 -0.0002542277 -0.00021513256 -0.0011999179 0.0037658913 0.0023959368 -0.0013267121 -0.0009066991 0.0026339276 5.4765856e-05 0.0022782274 0.003519163 0.0028554788 -0.0010441861 0.0020234808 0.0027606245 0.00078678457 -0.00030044065 0.0025173272 -0.0031065848 -0.0009890283 -0.0010665355 0.0014479924 2.0860783e-05 0.0018339517 -0.0032245857 -0.0033351043 0.00090297475 0.0015419226 -0.0012639478 -0.0013067464 0.0010038788 0.002826073 0.0034215655 -0.0019058426 0.0005001737 0.0005962951 -0.0039183465 -0.0035615396 0.00014470944 0.0009990768 0.00013173673 0.0024341925 -0.0030056967 0.0005896628 0.0011023829 0.00022497473 0.0038079862
192.041.018.106 -0.0027575858 0.0014746403 -0.0011535503 -0.0015929453 -0.0016559853 -0.0010937948 -0.0011735765 -0.0011989444 -0.0028517346 -0.0014168582 -0.0034734372 -1.114292e-05 0.0017588927 0.001455956 -0.0034059423 0.0034893278 0.002248639 -0.00031311024 -0.0030880864 0.002646042 -0.00046688318 -0.0027004443 -0.0014438549 -0.0035605084 0.0028654411 0.0022941614 -0.00073260255 -0.0015567252 0.0008042512 0.0038881106 0.00036031666 0.0016366494 0.0025041243 0.0013253473 0.0015731272 0.0011513232 0.0016973708 -0.00019610167 -0.0017099399 4.73567e-06 -0.0021537466 -0.0022523552 -0.0009190741 -0.0019675756 -0.002025275 -0.00049436215 0.0005998248 0.0029614943 -0.0026632682 0.0032990312 0.0020589512 -0.0016344389 0.0039767902 -0.0014407514 -0.0014434082 -0.0013417441 0.0015577261 -0.003239253 -0.0030459971 -0.002378035 -0.0027698511 -0.00037551124 0.0031851814 -0.0026417375 -0.0025476771 0.0023406204 -0.0037575169 -0.0024984982 -1.7347795e-05 0.00092718325 0.0019499619 -0.003282818 -0.0015469191 -0.00023610816 -0.00068637176 0.0033752467 -0.0007283422 -0.0012584758 -0.0019214343 -0.0033979386 -0.0022403863 -0.001986558 -0.0014786237 -0.00055596075 0.0031405748 -0.0021223396 0.0036168618 -0.0032804632 0.0025148755 0.0011029106 -0.0038349177 -0.0036173074 0.00014246185 0.0029818143 -0.0022000822 0.0011504769 -0.00072038284 -2.465375e-05 0.0012650157 -0.0020203625 -0.0012485182 0.0026543515 -0.0011374598 -0.0019312646 -0.0015977884 0.00063949823 0.0010421958 -0.0006270347 -0.0035318623 0.0005967343 -0.0015749537 -0.0010979238 -0.0014393156 -0.0025685846 0.0022072413 0.0014939712 -0.002313301 0.0003198242 -0.0027863001 -0.003679233 -0.0011900774 0.0005673764 -0.00067088153 0.00021266763 -0.003274559 -0.0017034484 0.0023053244 0.0026478819
207.237.112.055 0.0007581469 -0.0019824333 -0.00041334896 -0.0037696685 0.0009071474 0.0016827425 0.0029441838 -0.002799094 0.002142013 0.0030336417 0.0024827535 0.0015302013 0.001634255 -0.0016188866 0.002238183 -0.0026852568 0.0027620718 -0.0013533966 0.0003719928 -0.0020440982 0.00061576045 0.0022381651 -0.0034096288 0.002145178 -0.001361336 0.0019366186 0.00012769089 -0.0017933106 0.0026366832 0.003640774 0.0034290103 -0.0026019963 -0.0004199973 0.00042755413 0.0034708409 0.0009170535 0.0028268108 0.0014330507 0.0033369835 0.00092565623 0.0011554279 0.0010363108 -0.0023526733 -0.0015690926 -0.003684177 0.0036079716 -0.0013920339 -0.002179417 -0.002011048 0.0005660626 -0.00017244999 0.001335439 0.00047680605 -0.0033020051 0.0034295076 -0.0022213322 0.0022717076 -0.00040258578 0.0029796022 0.0023281567 -0.0007158423 0.002935587 -0.00030834347 7.24621e-05 0.0017632165 0.0013484947 4.55114e-06 0.0027874815 -0.00072858966 -0.00070559134 -0.0008130277 -0.0027218508 -0.003282989 -0.0001644357 0.0019031559 -0.00039643678 0.002164464 0.00020577977 -0.0028624723 -0.00081625715 0.0025200308 0.0023903172 0.0019486902 -0.002436834 -0.0031743052 -0.00039979332 0.0021444578 -0.0023402674 -0.002337378 0.0034217637 0.003368721 -0.0021857102 0.002025049 -0.00080045586 0.0035362851 0.0009810315 -0.0037601124 0.0034392797 0.003076074 0.0007157126 -0.0016611828 -0.0026575734 -0.0010972109 0.0021018924 -0.0026835534 0.0026730641 0.0029462671 0.0014677643 0.000217413 0.0015759724 0.0029862323 -0.0036968652 -0.003384492 0.0020934981 -0.0028486059 0.003193082 0.002435587 0.0007117384 0.00013090255 -0.0029266838 -0.002525024 0.0020990716 -0.0019120459 0.0035173597 -0.0025277496 -0.0005717811 -0.0038941447 0.00097337685
206.069.052.176 -0.0012213794 -0.00082859374 0.0002813148 0.0018119056 -0.0010254406 -0.0009219903 0.0010305853 0.0032631306 6.125567e-05 0.002362218 -0.001983905 -0.0015618729 -0.001761335 -0.002164716 0.0007535056 0.0019118211 -0.0021247705 -0.0025296127 0.0022422918 -0.0026140178 0.0015688242 -0.0038948483 0.0023392607 0.0013577554 0.0011325029 0.0036507118 -0.000740186 -0.0012306583 -0.0026369025 0.0017995725 0.0037969472 0.00297487 0.0022491964 0.0017063948 0.0011153556 -0.0026456555 -0.0034119617 0.0027072034 0.00066013704 0.0033533007 -0.0026538123 -0.003392071 -0.0010676964 -0.0024747225 -0.00015545709 -0.0018970065 0.00018198484 0.002596201 0.00011666347 0.0027663352 -0.002095849 -0.0013204028 0.0010879316 -0.0030100069 -0.0023010129 0.0008192672 0.0022422276 0.0025022659 0.00051252206 0.0015852668 0.00013352124 -0.003277436 -0.00044552778 0.0015022694 -0.0018101986 -0.0009309107 0.0016347761 0.0028289002 0.00016094072 0.0038080616 0.0010832206 0.0033335157 -0.00037266078 -0.002719973 0.0012475888 0.0028714796 0.0014104826 -0.0008708089 -0.00018088821 0.0003212234 -0.0008523249 0.0014938189 -0.0024019796 -0.0019970404 0.0022589471 0.0035705608 0.0011646536 -0.0027034353 0.00038710624 0.0012808728 -0.0012122033 0.0017246935 -0.0032986093 -0.0009842869 0.0025123567 -0.0010798298 -0.0013294418 -0.0008769896 0.0003777213 -0.003680259 0.0027750311 0.003450575 -0.0033804018 -0.00032395293 0.00021168918 0.0024693864 0.0034304215 -0.0020433385 0.0022645239 -0.001961295 0.0027357275 0.0024759055 -0.0028511344 -0.0009073388 0.0021694612 0.0026762807 0.0031497083 -0.0017387823 0.0016745438 -0.0018311032 -0.002896508 -0.00094085047 -0.0010203118 0.0010320911 -0.0011218094 0.0007661971 0.0027713247 0.003123854
197.182.091.233 1.2862438e-06 -0.002293095 -0.001399433 0.0011816475 0.0014989343 -0.0016403995 0.0014163014 0.0019370338 0.00028623262 -0.0035718973 0.002953797 -0.0023863784 -0.0040765353 0.0048086373 -0.001449176 0.0013390848 -0.00075963687 0.000752299 0.00062265096 -0.00032921002 -0.0015680402 5.3451175e-05 -0.003563782 0.0029133218 0.0009767154 0.0023763068 -0.0033353062 0.0038742616 0.0011772221 -0.00041106006 0.00056009926 -0.0022256698 0.002250235 -0.00075033377 -0.0025250555 0.001499498 0.0013883031 0.00227581 -0.0027340532 -0.0015255497 -0.001882936 0.0033218362 -0.0019707128 0.0011351422 0.0009992457 -0.0036247035 -0.003577901 0.0037766434 0.002868869 -0.0034458255 0.0035952753 0.000693987 0.0010869371 -0.00267423 0.003246388 0.00284839 -0.00030700525 0.0023808545 0.0021353702 0.001926394 0.0032313399 0.000291959 0.002371311 0.0018979488 0.0011171427 -0.0028737243 -0.0018761748 -0.00032339897 -0.001502379 -0.0029951895 0.004396028 0.00088914053 0.0019066238 -0.00083520653 -0.00461961 -0.0016686769 0.003593472 0.003718553 -0.0043272628 -0.0030821613 -0.0021246294 0.0007394754 0.002531501 0.00030107758 -0.0026678948 0.0008802167 -0.0015369294 -0.002506066 0.0007164125 -0.00077605527 0.002589498 0.00037662382 -0.0005365725 -0.0011977244 0.0042965636 0.0016612014 0.0011403015 0.0014270013 -0.0042880867 0.001713794 0.001218489 0.0024080821 0.0028556532 -0.0019756027 -0.002937575 0.0012912129 -0.00329251 -0.0017830937 0.0022373726 -0.0024120652 -0.0043739765 0.00022560872 -0.0005865044 -0.00046422414 0.0015716414 -0.00010504393 0.0029282803 0.00025889778 0.00038577046 0.0020534366 0.0013719314 -0.00072610594 0.0003481079 -0.0007333302 0.0015612141 -0.0022824877 -0.0020674549 -0.00043225999
172.016.113.105 -0.003205964 -0.0038346453 0.00088154624 0.0028343126 -0.00023031588 -0.0017885779 -0.004167557 -0.0015883124 0.0021994913 -0.0019472846 0.004321531 -0.0031726544 0.00089190836 -0.0010177066 -0.0020724088 -0.0005820546 -0.0017187006 -0.0023105915 -0.00036378414 0.0029871545 -0.001095382 0.001560483 -0.0021971457 0.0024778326 0.0017722544 -0.0011711696 0.0030916273 -0.00023827943 0.00029422762 -0.0032394305 0.0035037866 0.00058639405 0.0006960756 -0.0024008786 -0.00037032206 8.477921e-05 0.0041702115 0.0025707898 -0.0025628444 -0.0014021099 0.0046122125 -0.001171991 -0.0012360418 -0.001244254 -0.0025502448 0.0018893697 -0.00040169383 0.00428848 -0.0015825909 0.0019878405 0.0016894554 0.0021704922 0.0023886824 -0.0028970053 -0.0031175776 -0.00082284515 0.0010309707 -0.0038213052 0.0027736453 -0.002645326 0.0007391802 -0.0022859094 0.0027513872 0.0028635266 -0.0019753522 -0.001698231 0.0015626086 0.0030234042 0.0007731934 -0.00010535913 -0.0013261435 -0.002502835 -0.0037296829 0.0012076293 -0.0038734225 0.0016610656 -3.3846612e-05 0.00085591886 0.00016072919 0.0037966748 -0.0021156152 -0.00012414402 0.0026739335 0.003131918 0.0027947437 -0.0012428507 0.00338657 -0.00065071695 -0.0022335006 0.0017063343 -0.00017671513 -0.0032367113 -0.0022847364 0.0004733146 -0.0011258392 0.002555853 0.0015596715 0.0027744863 0.00040831024 0.004016199 -0.002794026 -0.0006490389 0.00370277 0.0022492348 0.00038891553 0.004130559 -0.004080145 0.0017257157 7.526319e-05 0.0036571715 0.0020728114 0.0015533674 -0.0029757302 0.0033539543 -0.0026689488 -0.003246118 0.0016116471 -0.0023525686 0.00026892786 0.0028810112 -0.0009853655 0.0019531636 0.001552196 -0.0007649552 -0.0014707266 0.00072310865 -0.002154527 -0.0026563017
206.048.044.018 -0.0010369517 0.0038112998 0.0024523053 0.0027364788 0.0014886071 -0.002978727 -0.0013823417 -0.0020923656 0.0023064495 0.0025208218 -0.00036842012 -0.00080857624 0.002506426 0.00018033554 0.0027144977 0.003095089 0.0008952247 -0.0020642984 -0.0001789044 0.0023635488 -0.0016904364 -0.003451088 0.00209587 -0.0016089306 -0.0011187743 0.0023278769 -0.0002514766 0.00027905623 -0.003261289 -0.001935011 0.0035964763 0.0007822223 0.0006102478 -0.0011630529 -0.0037180693 -0.0031102994 0.0012173774 -0.000614501 -0.0016187221 -0.002052166 0.0015730535 -0.00086454075 0.0025175465 -0.0032229945 -0.0029503887 -0.0011322697 0.0026449305 0.0024440677 -0.0016749167 -0.0026397896 0.0030596736 -0.001429665 0.0022633867 0.0015122982 -0.0013220471 0.0011518861 -0.0028140778 0.0015414217 0.0011168986 -0.001032673 0.003367693 0.0029136324 0.00056003896 0.0015849716 -0.0012329585 -0.0020815644 -0.001464958 -0.0018980558 0.0037820265 0.0016350294 0.0039761295 0.0021512376 0.0020522152 0.000538754 0.0017931061 -0.004032392 0.00033352012 8.51809e-05 -0.002490945 -0.0035891195 0.0014197422 -0.00073043606 0.0027891377 -0.0010590763 0.00228737 0.002625504 -0.00036602665 -0.0019132996 -0.0012827 0.0007373248 0.0027494272 0.0012953068 -0.003750826 0.001842241 -0.0037048412 0.0033419798 0.00048671558 0.0034084625 -0.001774078 -0.0018563609 0.0026209487 -0.0015863045 0.0027650974 -0.0036703853 -0.0026954268 -0.001740621 -6.368701e-05 -0.003583761 -0.002362466 0.0018977413 -0.0027243434 -0.0018264253 -0.0035851353 0.0035815986 -0.0012309614 0.0008212857 -0.0030691933 -0.0020530652 -0.00044095743 0.003482489 0.0018029297 -0.0034575814 -0.00042338268 -0.0035697925 0.0024390032 0.0030039258 0.0037254333 0.0033329083
192.200.128.197 0.001514424 -0.00032609355 -0.0023602946 -0.001405087 0.0034731282 0.000643685 0.0012892532 -0.0018358157 -0.00048006498 0.0012340916 -1.2538584e-05 0.00316985 0.002285039 -0.00038468384 0.0033261068 -0.0021017732 -0.00043460322 0.0010965766 -0.0013200046 -3.258995e-06 3.3647957e-06 -0.00085500965 0.0005942849 -0.003205198 0.0017483856 -0.0027990157 -0.0016038535 -0.0037864975 0.0004635512 -0.0015047792 -0.0015824293 0.0011996187 0.0038665368 0.0022094182 -0.0017188094 -0.003065619 -0.0020052053 0.0034851532 0.00057766045 -0.0014666062 0.0027937067 0.00086336036 0.0030490344 0.0028289696 0.0026238488 -0.00058737036 0.0025717595 -0.0002432602 0.00096122077 -0.00291086 0.0014439588 -0.0013368276 0.000557895 -0.001265691 0.002021124 0.0038509055 -0.0004245941 0.00036703906 0.003255306 -0.003320814 0.002854465 0.0026617036 -0.0003719476 -1.5660422e-05 -0.0013707865 0.0016674172 -0.0009471077 -0.0009748456 0.0018102626 -0.0032165674 0.0008442496 -0.00093586155 0.001993394 -0.0032659015 0.0026829944 -0.0008984415 0.0021590558 0.0033244898 0.0014109252 0.003817442 0.0036707136 0.0019824954 0.0035917219 0.0024551302 0.0008530155 -0.0033826774 -0.0004126652 0.003215292 -0.003206431 -0.00074666244 -0.0011481543 -0.0011888109 0.003546334 0.0027147655 -0.002568897 0.0015360628 -0.001577079 0.0014171938 0.0017249695 0.0032532609 -0.0020454319 -0.0019645032 -0.003483906 -0.0005722509 -0.0003686195 0.00020644155 -0.0024509914 0.0023778228 -0.0018482442 -0.0030137312 -0.0025908346 0.00029408094 0.0016112096 -2.516931e-05 0.0010446891 -0.003280834 0.0034312818 0.0016665936 -0.0031126384 0.0014980314 0.0033396382 0.00081505626 -0.0034644138 -0.0015488664 -0.0009363934 -0.0028771812 -0.0011317536 0.000584399
168.123.004.010 -0.002501829 0.0019588007 0.000704169 2.2772736e-05 0.0021632633 -0.0026643802 6.2107945e-05 -0.00088731677 -0.0024642055 -0.0018869689 0.0018849152 0.0010838336 0.0011942838 -0.0032166892 -0.0022230276 -0.0035538422 0.0033522549 0.0020697922 0.00075360044 -0.0027641978 4.9635084e-05 -0.0030462171 -0.003442807 0.0016180117 0.003388562 0.002162716 0.003511155 -0.0019835872 -0.002843728 0.0022033164 0.0036706845 0.00018693913 0.0018565477 0.00059966836 0.0032969534 -0.0017770008 0.0031155273 -0.0009310037 -0.0035124414 0.0036005175 0.00077540916 -0.0037359158 0.00045383847 -0.0033590205 0.0035939452 0.0038919298 -0.00041524012 0.0018142781 0.0014052988 -0.0024088868 -0.003793248 -0.0017089674 2.5328986e-06 0.00087690057 0.0024993108 0.00022628054 -0.003526644 0.0016847684 -0.0038833362 0.0009717687 -0.0018434306 -0.0031273556 0.000802174 -0.00256782 5.588011e-05 -0.003259085 -0.0035139238 -0.00018739571 0.0033086361 0.001562362 0.0025453302 0.0026501927 -0.001693273 0.00021049083 0.0038824475 0.0019684804 -0.00019357765 0.0014442499 -0.0024540154 0.003729877 -0.0017017913 0.002837085 -0.003418553 -5.495557e-05 -0.000513087 -0.0034398134 0.0030989135 0.0037724252 -0.0017304011 0.0016798996 0.0014936188 -5.5403543e-06 -0.0021662584 -0.0004090489 0.002175525 0.0015015472 0.0012189655 0.0027423182 0.0011750924 0.0030957274 -0.0017047102 0.0035052218 0.0029920891 0.0031120593 0.0024568297 0.0018192423 -0.002081121 0.0030640496 0.0019711223 0.001786246 -0.0015613665 0.0007074654 0.000613648 0.0020014162 7.404006e-05 0.0021715527 0.0033748008 0.00094170554 0.00080734596 -0.0015970326 -0.0027651985 -0.0027885186 0.0024324744 9.9601275e-05 -0.001058377 -0.002572131 -0.002016374 0.0036271268
172.016.114.169 0.0020318732 0.0029640677 -0.0011645246 0.0038052928 -0.0033409488 0.00092401396 0.0017838365 0.00018748875 -0.0030794477 0.003813394 0.002910136 -0.002346801 0.002277238 0.00075429655 -0.00019262297 0.0017494161 0.0032563522 0.0018847777 -0.0040163416 0.0019680436 -0.0013861842 0.00071154075 -0.0021318498 0.002791811 -0.00033840095 -0.00035203167 0.0040646284 0.0021363073 -0.0036199922 -0.0033949995 -0.002510768 0.003713836 -0.0031576012 0.002008257 -0.0019086029 0.0032578057 0.0011769735 -0.0019834866 0.00015915558 -0.000695096 0.0031157534 -0.0015595107 -0.0013198127 -0.002911712 -0.0007237168 0.00042698908 0.00071639364 0.003747206 0.0009811827 -0.0037249997 0.003840788 0.003604365 0.00071397773 -0.0006990468 -0.0008465217 0.0027169727 0.00017748727 -0.0021441346 -0.0032945657 -0.00031082422 -0.0018816611 0.0016940483 0.0012552348 0.0032810331 -0.0019975347 0.002877379 -0.0023225879 -0.0030070294 -0.0008232604 0.002702503 0.00013791208 0.001091865 -0.0015200675 0.001692786 -0.0018634339 -0.0035952288 -0.002619045 -0.00014548644 0.0018678742 -0.0030053346 0.0028206026 -0.0013913848 0.002497741 -0.0015260216 0.00030215047 -0.0021698326 -0.0034142213 0.0027040613 -0.002972957 -0.004017295 -0.0024850017 0.00048676797 0.0033975625 -0.0015122695 0.0032668782 0.00020555664 -0.0012291148 0.0028052346 0.0028842941 -0.0027282774 -0.002208108 -0.0030619197 0.003959858 0.001714403 -4.208149e-05 0.0012827815 -0.0039662565 -0.0037567096 0.003932638 -0.0006415817 -0.0012765761 -0.0027502608 0.00033715027 -0.002913889 -0.001367094 0.0017949906 -0.0028959098 0.002623965 0.00027442246 -0.0008093056 0.0005022064 0.0014784328 -0.002305226 -0.0034312615 -0.0017436584 0.00060708827 0.0042398875 0.0025377932
172.016.115.234 -0.00017013832 -0.0033190504 -0.00036246586 0.002733843 -0.0029429304 -0.0017966866 0.0012770762 0.00021369992 0.0014321206 0.0010320013 0.0012070782 -0.0017945173 -0.0038195779 0.0019382122 0.0015396199 0.0026633504 -0.0026037626 0.00076367345 -0.0024737557 0.003301102 0.001976436 0.0028163053 -9.283072e-05 0.00060736365 -0.00012674861 -0.0004363917 -0.0025957213 -0.0010325594 0.0023138355 -0.0014306586 -0.0004010907 0.0033762264 0.0014805634 -0.0028961366 0.0008363223 -0.0024670386 0.0037157629 -0.0034540342 0.0015013966 0.002026892 0.0027699794 0.0021187875 0.002922734 0.0012172014 0.001984936 0.0037765275 0.0028694891 -0.0003319528 -0.0020774652 -0.0032260125 -0.0023526023 0.0003735268 0.001443852 -0.0011523131 -0.0002019729 -0.00029676524 0.0032639296 -0.0005769667 0.0032563538 0.00052218983 -0.0023801853 0.000107398795 -0.0037776374 -0.002778769 -0.0037792535 0.000192629 -0.0010942002 0.0018942056 -0.0003963948 0.0036322596 0.000996196 -0.0028602078 0.0012786202 -0.0014477721 -0.0017747612 0.00020940628 -0.003484614 7.7270786e-05 -0.001957973 0.0033553138 -0.0032667208 -0.0046621817 0.0028009082 0.00096772553 0.002361853 0.0032861372 -0.0014684236 0.00248742 -0.0006937736 -4.7178823e-05 -0.003196243 -0.0032526175 0.0044260104 -0.0018563209 -0.0023031817 0.003199308 0.003105298 -0.0007671428 0.0019188473 -0.00022375115 0.000575767 -0.0024460552 -0.001416723 0.0028640758 -0.002158683 -0.0019659614 -0.0014298978 0.0033173957 0.0015332082 0.0012578733 0.0011543187 -0.0032970032 -0.0030107119 -0.0014023418 -0.0026207073 0.0008156153 -0.002707196 -0.0024417744 0.0038887763 0.0030629588 -0.0014065847 0.0022589185 -0.000930374 -0.000525006 -0.0012587786 0.00086272776 -0.0025003245 -0.0010334746
172.016.116.044 -0.00041635288 -0.00050271896 -0.003336443 -0.0040051313 -0.00030410136 -0.0011478598 -0.0039656875 0.0021735115 0.0024249877 -0.0025526313 0.0004440518 -0.0013957417 -0.0016814403 0.004012876 -0.0022471137 0.0032281165 0.002320929 0.0034804875 -0.0059579043 -0.0009965589 0.0031931726 0.004045253 -7.3845003e-06 -0.0021345702 -0.0016114129 0.0017982264 0.0011354896 -0.0018869957 -0.002775464 0.00051245216 -0.0019431466 -0.0030923812 -0.0011599559 0.0029290852 -0.0026325593 -0.0013445148 -0.0019709368 -0.0013275336 0.0026436374 0.0013494026 0.00010771715 -0.0013004044 0.0012847855 0.0033114068 -0.004277222 0.0028422906 0.0016971626 -0.0018053392 -0.001614694 -0.00065278553 0.0034670783 -0.002556134 -0.0026287271 -0.0027910653 -0.0013671656 0.0015989873 0.0005222973 0.0018931727 0.0042719427 -0.0037934321 0.0033852458 0.0029287562 0.0027045966 -0.0039959783 -0.0016215477 -0.001964105 -0.00074921467 0.0029357448 -0.0027925854 0.0009994926 0.0025093912 -0.004190535 -0.0023450658 -0.0027569963 0.00024369694 -0.0016784907 -0.0022523098 0.0017280476 -0.004188611 -0.0030490197 -0.0039809346 -0.004002594 -0.0031827276 -0.0028069885 -0.0027555441 -0.00062379206 -0.0016051511 0.0014614929 -0.0031998625 -0.0023782293 0.0023908862 -0.00033696863 0.0018149137 0.004297327 0.004897358 0.0021356612 0.0011786309 0.0031417715 -0.0031266205 0.0016168081 0.0021350281 0.0032283121 -0.00031813147 -0.00018290142 0.0026890072 -0.0025720706 -0.0026039265 -0.0005577854 -0.0023342732 0.00269569 0.0018144741 -0.00084045756 0.0026206612 0.0011473018 -0.0013099903 -0.0013454751 -0.003592782 -0.0041391803 0.003080258 0.0021468303 0.0036855126 -0.002147449 0.003342824 0.0010992531 -0.0041270633 -0.0037794146 -0.0009688217 -0.0023781592
