46 128
192.168.001.001 -0.015794458 0.007946163 -0.004379697 -0.014811182 -0.03603482 -0.015002067 -0.007878757 0.0042124125 -0.02614095 0.021697083 0.0036228986 0.016812447 -0.006626135 0.031124223 -0.011483348 -0.0033426567 -0.014387812 0.025316484 -0.04388092 0.005615373 0.009273299 0.0036045292 0.009382013 0.010290786 -0.0017401173 0.00429189 0.026969 -0.0049562687 -0.0045939544 -0.0064989435 0.007715773 0.014920953 0.011068895 -0.009537533 0.016484521 -0.016141752 0.01609155 0.0060279365 -0.007683758 -0.0018137647 0.024731442 0.012143975 0.0046454077 -0.034600623 0.0062240884 0.004927461 0.01271399 0.02305204 -0.018799996 -0.022765687 0.02257929 0.015298739 0.027942661 0.00973033 -0.001843044 0.00013533667 0.010564549 -0.009219207 0.018499913 -0.043371435 0.013673225 0.014306863 0.005248907 -0.013661947 -0.006785563 -0.035381757 -0.003765295 -0.023142071 -0.024831172 0.015864735 0.0015262879 -0.016539602 -0.031002743 0.01568858 -0.014198842 -0.0074318587 -0.0033509522 0.02829167 -0.014746875 0.014379541 0.016476275 -0.014299794 0.034879535 -0.019468915 -0.0129659055 -0.017902272 0.011327812 0.027244532 0.014513933 -0.02700322 0.0036548115 -0.00016031179 0.01815789 0.018084422 0.016433218 0.009634461 -0.00097370846 -0.018688696 -0.013434021 -0.004152983 -0.00691575 0.015062677 0.017288793 -0.00030563632 0.021082437 0.030800797 -0.027330656 0.0031088311 -0.0046787555 -0.006803673 0.0027734677 0.0062331446 0.0085593015 -0.009985583 -0.014887387 0.0009968111 0.012914962 -0.010894419 0.011159225 -0.0036187796 -0.009711998 0.0040642773 0.019038275 -0.012415785 0.010422752 0.002587176 -0.012160322 0.011878267
192.168.001.005 -0.014721472 0.0050324905 -0.0014941359 -0.013799092 -0.029986652 -0.018405678 -0.0024640702 0.0035522045 -0.024217589 0.021039786 0.0072198007 0.015313327 -0.007407707 0.028349241 -0.009374339 -0.0054462 -0.0092500495 0.023030506 -0.038864966 -0.0013016436 0.009753605 0.005741353 0.010670394 0.0069465283 0.0023171715 0.0022034752 0.022047402 0.00203378 -0.0017035726 -0.0092297755 0.0041916743 0.008201268 0.008707698 -0.01101579 0.014892424 -0.015927704 0.015977219 0.005650701 -0.0061580082 -0.0023903584 0.023203503 0.008267069 0.0064869407 -0.031252135 0.006840507 0.006948778 0.0069242725 0.021791704 -0.016830934 -0.020770265 0.016173042 0.012637582 0.026881505 0.0029822642 0.0010235275 0.0011524857 0.0132574 -0.0065850765 0.016369877 -0.03815877 0.012193909 0.015147822 0.0036108217 -0.013800356 -0.00068525603 -0.026325159 -0.006722659 -0.016514637 -0.020716244 0.01781943 -0.0006255009 -0.0153665645 -0.026741836 0.013359167 -0.015832748 -0.007911062 0.0018229616 0.022162504 -0.0142082665 0.012218484 0.011409379 -0.0057523632 0.032316428 -0.018288255 -0.013900643 -0.018105676 0.007063564 0.023819076 0.014112375 -0.02637639 0.001481003 -0.000591074 0.017794086 0.015657814 0.009754818 0.0038678797 0.0019044793 -0.015679976 -0.016994707 -6.5373235e-05 -0.005172649 0.008507769 0.015779534 -0.0023516968 0.018156465 0.028593833 -0.023367856 0.00032965664 -0.0024305503 -0.005007276 0.0047038984 0.005987875 0.009848683 -0.0077282498 -0.016533026 0.00078978395 0.008868513 -0.007837869 0.011704236 -0.0023733368 -0.0076896953 0.0011769693 0.016976522 -0.0074574505 0.010643359 0.00040742854 -0.010188612 0.0117043555
194.027.251.021 -0.017705051 0.0062555387 -0.0065444675 -0.011452797 -0.031525567 -0.018030016 -0.0032856523 -0.0020883144 -0.02404332 0.015763177 0.0020469136 0.018372184 -0.0069267866 0.027610812 -0.013782793 0.00023270049 -0.009548048 0.017194567 -0.03859312 0.00505955 0.010353333 0.0052129547 0.003205532 0.006997741 0.0015340621 0.0031168244 0.02474541 -0.0023391251 -0.0077077183 -0.0046403534 0.0044266656 0.011843249 0.009414264 -0.011265137 0.0109540885 -0.015678205 0.013700902 0.0094331335 -0.001769007 -0.005739855 0.018353457 0.0060241413 0.0064993706 -0.027392967 -0.001179052 0.0006253459 0.011499414 0.016981518 -0.013200035 -0.018388703 0.019196333 0.0074546426 0.024873503 0.0072802184 -0.0011268411 -0.00486988 0.01488486 -0.004492269 0.014485552 -0.036573358 0.01044707 0.012255326 0.0077252975 -0.0118933935 -0.0062424815 -0.031309064 -0.008698575 -0.017201241 -0.01781022 0.015041587 0.003517972 -0.013034562 -0.02514211 0.016249938 -0.017770529 -0.006733381 0.00031636664 0.023809193 -0.01302583 0.012895004 0.01106082 -0.010654358 0.03162372 -0.018754812 -0.009073811 -0.01269136 0.007489804 0.020003121 0.0065677143 -0.02248259 0.0026061307 0.0010265332 0.016175298 0.010080793 0.013503835 0.008116728 -0.002460043 -0.013171359 -0.017502168 -0.0033637774 -0.0013985903 0.011787648 0.01509024 -0.0064999904 0.016208064 0.026874837 -0.022190845 0.0044334373 0.0013787888 -0.004376749 0.0071121426 0.0052009043 0.0048083854 -0.009873169 -0.019040829 0.0006457349 0.0047922665 -0.009148186 0.008749098 -0.006188314 -0.0033865522 -0.00010955398 0.011755425 -0.010817107 0.006775848 -0.0017735806 -0.0062763514 0.0076611293
196.227.033.189 -0.011153948 0.007393248 0.0011778087 -0.011655618 -0.024005141 -0.013819791 0.0011542187 -0.0023393254 -0.011237677 0.0138741 0.0027640932 0.0141252 -0.0020130808 0.019870821 -0.010867929 -0.00719542 -0.00845274 0.013855198 -0.024963321 0.0023928587 0.006931546 -0.00022229861 0.007229452 0.0034737217 0.0011010641 -3.220061e-05 0.013776363 -0.004134156 -0.00024868225 -0.008095932 0.00082923716 0.01165451 0.0111438995 -0.004414658 0.012525699 -0.011148273 0.0042608366 0.0060080495 -0.001113035 -0.007583491 0.0145273395 0.008338226 -0.001471723 -0.01976118 0.0020514878 0.00331062 0.0047365753 0.012677691 -0.007856907 -0.009117587 0.013175499 0.010635607 0.014935537 0.0024625119 -0.005099295 -0.008655414 0.011078258 -0.000539208 0.011356093 -0.027123047 0.0053988774 0.011534485 0.008601583 -0.005546584 -0.0026024363 -0.01920281 -0.003119631 -0.01314214 -0.014602375 0.012363402 0.00061382 -0.005095058 -0.01775441 0.012928508 -0.010856274 -0.004039786 0.0040347944 0.012251272 -0.0015427604 0.0013454546 0.0067227227 -0.0019861246 0.023968074 -0.010615574 -0.005291103 -0.006584308 0.007397035 0.018324263 0.003977632 -0.015251613 0.007859453 0.004165808 0.005323556 0.011096956 0.009839144 0.0023050443 -0.0065233544 -0.006861453 -0.011647474 -0.007384284 0.0023988409 0.00869208 0.014096307 -0.007322854 0.013421734 0.020495197 -0.019382223 0.006529747 0.0029582337 0.0047762487 6.941779e-05 0.0001391683 0.00822301 -0.0028003235 -0.013740058 -0.0033634189 0.007775203 -0.0038632404 0.007586962 -0.0073176827 -0.00275663 -0.0011720875 0.0056165718 -0.013840916 0.0049456293 -0.0026174278 -0.007411795 0.0040174355
172.016.112.050 -0.013506633 0.0022378135 -0.00070900976 -0.007573263 -0.022401353 -0.011660761 -0.0039227675 0.0047467784 -0.017994305 0.013200615 0.0032527617 0.014649739 -0.0063440106 0.017899405 -0.011581734 -0.004603265 -0.0068941438 0.007731955 -0.025144354 -0.0036263855 0.007070512 0.0013206971 0.008421397 0.0077575627 0.0059525413 0.0057457024 0.01970674 0.0026628086 -0.0068646157 -0.004741008 0.002172214 0.0077485684 0.009800332 -0.0019424579 0.0076204925 -0.011284877 0.004585053 0.004817618 -0.004703511 -0.007970882 0.013375019 0.009801684 -0.0036672165 -0.021426074 -0.0029782406 0.004983117 0.0036059476 0.013193061 -0.0047684987 -0.014749632 0.008278655 0.007932962 0.011725216 0.0044148113 -0.005389555 -0.0075373165 0.009307894 -0.0041384446 0.0078057535 -0.023482572 0.0046942644 0.0063144895 0.0013292585 -0.01093649 -0.001641092 -0.019939398 0.00043114758 -0.008869833 -0.012987888 0.010463677 0.002760375 -0.0012070264 -0.01696684 0.013069686 -0.012820992 -0.007795799 0.0038370558 0.013240363 -0.004354973 0.0019249867 0.005262415 -0.0029882288 0.02309309 -0.009687592 -0.006458637 -0.01278951 0.0034529343 0.020460293 0.005128555 -0.012776232 0.0077478215 0.0024266092 0.005285285 0.006362919 0.008345243 0.0040699085 -0.005644833 -0.0057035005 -0.008342852 -0.006138556 0.0023112 0.008590481 0.014883569 -0.005224484 0.012089692 0.017676968 -0.0176492 3.362367e-05 0.00072755216 0.0019564475 0.00035767845 0.00298426 0.005884508 -0.0070069954 -0.0114738345 0.0024009387 0.0034564903 -0.0018504254 0.0044687707 -0.008744941 -0.0057932986 0.00343067 0.012250379 -0.011807887 0.0045510107 -0.0004884817 -0.006678593 -0.0002784193
196.037.075.158 -0.003537271 0.0021102775 -0.0043282793 -0.002099955 -0.01051682 -0.0009995541 -0.0029631169 0.0033639001 -0.009029943 0.005081909 -0.0008913673 0.0041778237 -0.003447323 0.0054550488 -0.001481393 -0.0032695888 0.0001870631 0.0062387106 -0.01082878 -0.0014422334 -0.0016744608 0.004223481 4.6009023e-05 0.0060223998 0.0057554618 -0.0016652433 0.008917087 -0.00068699085 -0.0001743331 -0.0061904336 -0.0013449722 -1.5009136e-05 0.006603181 -0.002881518 0.0035109161 -0.004715264 0.0024028854 -0.0020258592 -0.0023528365 -0.007365405 0.005730883 0.006575505 -0.00020915958 -0.008910971 0.00024069697 0.002281084 0.006396609 0.0027400712 0.0005208927 -0.0012773935 0.0020975748 0.0035646635 0.0037042813 -0.0022809242 -0.00468212 -0.0052064965 0.00027348864 -0.0012989887 0.0013477588 -0.010484146 0.003846919 0.0034951954 0.0019018407 -0.005321345 0.0016927889 -0.011078682 -0.0035425406 -0.007110918 -0.007125494 0.003914908 -0.00032436952 0.00030222523 -0.007864732 0.007717088 -0.0014458678 -0.003911808 0.0022511033 0.0056395875 -0.0049218046 0.004176575 0.0063166074 -0.005191187 0.0044206968 -0.0076426147 -0.002356127 -0.0038662474 0.0021042288 0.0073953858 0.005864032 -0.009418949 0.005022122 0.0032332658 0.0009389962 0.0042865467 0.0024536687 0.0010207864 -0.0043614334 -0.0017741881 -0.005299927 -0.00036255544 -0.004101518 0.005761615 0.007876223 -0.0047569806 0.001225746 0.009229298 -0.009653742 0.0020519996 -0.003121445 -0.0022372918 0.0046479483 -0.0024216466 0.0037926445 -0.0034627537 -0.0073477095 0.0037448606 0.00468697 0.0013618348 -0.0018559108 5.4378543e-05 -0.0020203441 0.0019814912 0.004633897 -0.008042345 0.0046510412 -0.004655362 -0.005115402 -0.0015184481
172.016.112.194 -0.0056004254 0.0017716893 0.00046822682 -0.0062116925 -0.007244728 -0.005777075 0.0017532121 -0.0012622222 -0.005880744 0.006326 0.0040538698 0.006962696 -0.00062326866 0.0071147913 0.0002139943 -0.003488891 -0.005412644 0.0036115733 -0.007941649 -0.00252098 0.004929281 0.0020628995 0.0015974303 0.0009389911 -0.001417109 -0.00028157124 0.0035578948 -0.002625209 -0.0033687647 -0.0023747487 -0.0025507307 0.0010263113 -1.4371995e-05 -0.0042241067 0.0034710863 -0.0070810798 0.0015625732 -0.0010858877 -0.0026707968 -0.0056429133 0.0021094587 0.004980098 -0.003435782 -0.010292483 -0.0029244823 0.0018268458 0.0027673584 0.00011749071 -0.0001202244 -0.005693502 0.0013750835 -0.0005764454 0.0066515203 0.0023923467 -0.003634079 -0.0017047172 0.0021245838 -0.0010840732 0.006540959 -0.009488722 0.003482637 0.002884569 0.0054258592 -0.004358356 0.003156652 -0.0063515026 0.0015535783 -0.0076543344 -0.008500119 0.0066076107 0.0014785078 0.0011591732 -0.00783376 0.0075461115 -0.0055075698 -0.0030400068 -0.0014983241 0.0071404153 0.0005492059 0.0048796115 0.004580978 -0.0028069708 0.005830085 -0.006688599 0.0010507879 -0.0053707673 -0.002060739 0.008502513 -0.001452989 -0.008777428 0.0015022547 -0.0024562005 0.005661684 0.0058926637 -0.001004426 0.004428869 -0.0014193463 0.00013740215 -0.0031123199 -0.0030566372 -0.0021209575 0.001707023 0.005332305 -0.0020049904 0.0036609415 0.009783386 -0.0077553373 0.0035859982 -0.00047828793 0.0029226067 -0.0016708139 0.0006376078 0.0014929528 0.002022265 -0.002184842 -0.0028457842 -0.00056430476 -0.0030952138 0.0035794931 -0.0050991043 0.0007088868 -0.0012575587 0.0033728743 -0.005047382 0.004665735 -0.0010105355 -0.0048823096 0.00013834791
135.013.216.191 -0.0057798214 0.0019964967 -0.0027768526 -0.001537792 -0.0122368205 -0.007883383 0.002348856 0.0011789392 -0.0056435736 0.0022653905 0.0019325502 0.00984312 0.00028783063 0.00890262 -0.008355721 -6.977284e-05 -0.0031491735 0.007981947 -0.013029473 -0.004254594 0.0057202172 0.0057056877 0.0065400065 0.00085786474 0.004549706 0.0023535448 0.0060129827 0.0008615988 0.0002155077 -0.0026366762 0.0016088625 0.005835664 0.005302502 0.00095785136 0.004744851 -0.00433263 0.0025400894 0.0056316867 -0.003678548 -0.0072612036 0.010768749 0.006215626 0.0033121465 -0.012335465 0.0022621453 0.004272254 0.007523294 0.008500243 8.174451e-05 -0.008346929 0.0075094723 0.0024730721 0.008563757 0.0046243514 -0.006229069 -0.0031348623 0.00398352 0.0016862607 0.0030099782 -0.015085944 0.004409745 0.007485727 0.004134367 -0.0077969893 0.0017777075 -0.0109998975 -0.003297679 -0.009593195 -0.0072672893 0.004951169 2.1963322e-05 -0.001991995 -0.008092787 0.0062463097 -0.0071104486 -0.005898423 -0.002845813 0.008883448 -0.0057526706 0.0018669106 0.0068753012 -0.0026961013 0.013974793 -0.010287616 -0.0068749767 -0.008642303 0.004398694 0.012699204 0.0037910277 -0.007596864 0.0050219647 -0.0002494239 0.002516388 0.0006902198 0.0037128297 0.002131941 0.0026802046 -0.0017031727 -0.0011263057 -0.0059630945 0.0012651266 0.0010872409 0.008227894 -0.0048175813 0.009682356 0.005352306 -0.005947285 -0.0014491535 0.0011058372 0.00067452673 0.005483039 -0.00072504126 -0.0014551093 0.0006687131 -0.009729858 -0.0032375425 0.0012246323 -0.005000551 0.005506929 -0.0060502114 -0.0051006298 0.005203051 0.0061852764 -0.008059507 0.0016146963 -0.0018716287 -0.004706135 0.0012676569
192.168.001.020 -0.003574781 0.0028905896 0.00050000567 -0.004503616 -0.0039833644 -0.0035922672 0.003405228 -0.0037349572 -0.0022124648 0.00394567 -0.0025817233 0.0030165296 0.0008227314 0.0061483965 -0.003892087 -0.003108973 -0.0015009362 0.0078092692 -0.009005318 -0.00094014383 0.0014762232 2.5258152e-05 0.0012922084 0.0021758343 0.0028441567 0.0005795612 0.005361325 -0.0017813446 0.0006479994 -0.00047654242 -0.0010405763 0.0038344995 0.002770653 -0.0038177841 0.006756536 -0.0010116028 0.0018094821 -0.002313736 0.0010801592 -0.006037381 0.00059387647 0.0032250115 -0.0034318871 -0.009504435 -0.0003638255 0.002462128 0.0036626724 0.002602231 -0.0020575472 -0.003539507 -0.00011488679 0.0027965216 0.005751793 -0.0024547176 0.0016486663 -0.0028303615 -0.0012410865 -0.0034381647 0.00032319484 -0.004056177 0.000797584 0.004054336 0.00238439 -0.0047717113 -5.378401e-05 -0.009148514 -0.0021129916 -0.004402699 -0.005632938 0.00020967246 -0.0025973592 0.00016667505 -0.0013090725 0.004741012 -0.004362793 0.0011108186 0.00076760905 0.00091257703 -0.0027521735 0.0043597883 0.006007734 -0.0021127574 0.009844908 -0.003812009 0.0014394828 -0.005613442 0.002631692 0.0066855866 0.0058399136 -0.0020393995 0.0041596396 -0.0007753963 0.0030595157 -0.0003888149 0.0061080186 0.002601703 -0.002489385 -0.0030249392 -0.0049634925 -0.0032205281 0.0015607483 -0.0010558085 0.0005354617 -0.0051845317 0.0060018594 0.0070783943 -0.001164895 -0.001131509 -0.00029079596 -0.002213476 -0.0007701141 -0.0033198246 0.004158154 0.0013635468 -0.0020350097 -0.00051015196 0.004992199 -0.0021644481 0.0005490427 -0.00059199147 0.002329544 -0.0015996454 0.0005149215 -0.004827261 -0.0019777957 0.00046500942 -0.0019004687 0.0032240194
172.016.113.050 2.1809072e-05 0.00022528242 0.0027128074 -0.005274536 -0.0027149986 0.0011674326 0.0016791661 -0.0015057158 -0.0007708766 0.0012632977 0.0041729333 0.0039138664 -0.0022177426 0.004784745 -0.0025953471 -0.0034518647 0.00076237565 0.0005893176 -0.0051466483 0.001971912 -0.0013912614 0.0029616829 -0.0023991927 0.0006150173 -0.0030740222 -0.0005102033 0.0023235865 -0.001704133 0.0006523087 -0.0012554198 0.002603063 0.005303686 0.0031366064 0.00096352526 0.0017068251 -0.0015979564 0.0013221789 -0.0015592333 0.0008762132 -0.004365293 0.0032711886 -0.00043681075 -0.00070131663 -0.0025226865 0.0021513232 0.0038170023 -0.00084351853 0.004273294 0.00053768244 -0.006109556 0.0061091734 0.0040739817 0.0043753386 -0.0021405772 0.0024459544 -0.0017299977 -0.0007909836 -0.0033875392 0.0048750537 -0.008513518 -0.0012063927 0.002911253 0.0012229464 0.0013259843 0.002611156 -0.006937977 -0.002515444 -0.0030541793 0.0004320406 -0.00052264216 0.0011419898 -0.002132748 -0.0018272821 -0.0011388755 -0.0051900456 7.468305e-06 0.001161047 -0.0003617978 -0.00032657263 -0.0017575822 -0.0003299222 -0.0032476673 0.0058538313 0.00053578115 -0.0015752023 0.0013499002 -0.0025604866 0.0027192226 0.0042065154 -0.0071126185 0.0015704696 0.0024401383 -0.0013458142 -6.927032e-05 0.0014829098 0.00315761 -0.0003852797 0.0019385268 -0.0042465026 -0.00052046025 -0.00012359109 0.0021609166 0.0038143185 -0.004048361 0.0028052325 0.005612811 -0.0025646165 -6.175705e-05 0.00081652415 -0.0017690938 0.0038620427 0.0037437696 -0.0009179772 0.002119392 0.0011177576 -0.00057654653 0.0046765846 -0.00030653056 0.0010019684 0.0024545244 -0.0044565825 0.002536831 0.00025429315 -0.0010344547 0.001600201 -0.0007088221 -0.0034263893 0.0028653112
172.016.114.050 -0.00453594 0.0039233696 0.0013313827 -0.0025995758 -0.005817903 -0.007404031 -0.0016736096 0.0005744374 -0.006469764 0.0008643053 0.002877045 0.008239723 0.0016868474 0.008140204 -0.007087001 -0.0047743423 0.0008689159 0.00053667644 -0.012393945 -0.0016316504 0.0031866268 -0.0018153148 0.004339205 0.0063325977 0.0022014396 0.0011332744 0.008771713 0.0021135297 -0.0031729501 -0.003557307 -0.003692865 0.0012006015 0.0021116952 -0.0034225185 0.0069183055 -0.003773112 0.0062206932 0.00446355 0.0014243652 -0.005807 0.006312471 0.00010974193 -0.003535172 -0.0077916384 -0.0023692083 0.0009862924 0.0027949929 0.0062072473 1.4406396e-05 -0.002329039 0.0034969249 0.004121829 0.008172421 0.0035758098 -0.0051775123 -0.0038588578 0.0063725403 -0.00043219485 0.001946995 -0.01056649 0.00031346225 -0.0011623108 0.0055054156 -0.0048941495 0.00072673796 -0.00408338 0.0007078326 -0.0054695904 -0.0040460415 0.002779204 0.00046886402 0.0018423332 -0.0021758517 0.008310983 -0.0067321514 -0.0020493185 -0.0019114213 0.008606222 0.001202422 0.0026981481 0.0052973665 0.0014443828 0.009950797 -0.0083254315 0.0011058358 -0.0041163815 0.0009832187 0.009840776 0.004517377 -0.00926212 0.0009825476 0.004181933 -0.0017821635 0.005470317 0.0054397434 -0.0017453396 -0.0051590875 -0.0028066598 -0.0059284726 0.0017456808 0.0020313885 0.0057583274 0.0049772956 -0.002876723 0.0010524427 0.008208958 -0.00911526 0.0013568318 -0.0035183255 0.0018148025 0.0042181127 0.00256995 0.0031284099 0.00067697186 -0.008170994 0.0028808627 0.0028618919 -0.0044820993 -0.0015782495 -0.0044696853 -0.00038602357 0.00032173074 -0.0006542557 -0.0038169094 -0.0017410577 -0.001661974 -0.0065541365 -0.0021784555
204.202.136.230 -0.0028530927 -0.0020626828 0.0015712987 -0.0018954586 -0.002597847 0.00093164167 -0.0039966647 0.0013910221 -0.00048496708 0.0044840267 -0.0029905238 0.00400423 0.0028461951 -0.0002872949 0.001974279 0.0012108262 0.0005157163 -0.0012750509 -0.003979876 0.00021226051 0.0027652984 0.0002618522 -0.0014725617 -0.00176544 -0.0026228102 -0.0017323182 0.0057866313 0.00314459 0.0025048323 0.002760161 0.0032395578 0.002228615 0.00012922421 -0.0026470583 -0.0010924693 -0.00030933134 0.00020015071 0.00042784016 0.0002981217 0.0016795116 -0.002116584 -0.0018260451 0.0017521499 -0.0059139915 -0.0009988114 -0.0002907797 0.0040064016 0.00079761713 -0.0046792673 0.0012477202 0.00018320905 0.0032917676 0.003458703 0.0016552932 -0.00078664336 -0.0030539013 0.0015171153 0.002547099 0.0017870127 -0.006648851 -0.0025069248 0.0026086164 0.004239523 0.0008376213 -0.0023693126 -0.0026591811 -0.0015277478 0.00017210038 -0.001546703 0.0009999818 0.0004480317 -0.0038149853 -0.005511685 0.0053149294 -0.0015379032 -0.001405972 0.00015764 0.0044248877 0.0030120192 -0.0014017469 -0.0019221916 0.00227805 0.004673257 0.0003948345 -0.0014049351 0.0025678305 0.0014250232 -2.4896406e-05 0.004392438 -0.00059452455 0.0016570359 0.0015671072 -0.0006305713 0.0038175224 -0.0014881681 0.00416258 0.0009911347 0.0014446527 -0.0025769048 -0.004205838 -0.0029910458 -0.0001030119 0.0001876844 0.0023524181 0.0009004746 0.0025974193 0.0019278477 0.0025281585 -0.0016717999 -0.0031674453 0.0010892297 -0.00095233956 0.00026525737 0.0026364191 0.0011629176 -0.0008161397 0.0014466747 -0.0033207468 -0.00084058236 -0.0017099245 0.003169294 -0.0016736857 0.0026106997 -7.82907e-05 -0.001015764 -0.0023562913 0.0023985377 -0.0017285271
172.016.114.169 -0.00087021245 0.0043864166 -0.0016243997 0.001470925 -0.009307242 -0.0021665562 0.001457893 0.0006973254 -0.007423986 0.007198819 0.0034694357 0.001294515 0.0017360675 0.005122767 -0.0030753058 0.00028497376 0.0020523733 0.0051295324 -0.01060751 0.0010506393 8.505449e-06 0.0017842954 -0.00022849745 0.00517618 0.0016476086 0.00019668894 0.009056349 0.002136 -0.004668417 -0.0054537207 -0.002351538 0.0058767186 -0.00047972085 0.00092700013 0.00090153364 0.00041527458 0.0028302653 -0.00072044076 -0.0008369674 -0.0037692636 0.0070938664 0.0010012428 -0.0018112335 -0.009092864 -0.00034218363 0.0017896977 0.0031112104 0.007196055 -6.045554e-05 -0.0064804405 0.006416111 0.005904461 0.00485312 -2.2310167e-05 -0.002664701 0.00089445023 0.00237952 -0.0028442845 -0.0010679313 -0.0073521333 -8.8555535e-06 0.003888355 0.002909808 0.00033718694 -0.001910936 -0.0027812112 -0.0031969922 -0.0065768026 -0.005117345 0.005411065 0.00017408548 0.00071289454 -0.0060946858 0.0055396776 -0.004865636 -0.0050961925 -0.0026883231 0.0036610493 0.0005999886 -0.001678208 0.0058051147 -0.0026514288 0.008872935 -0.005426203 -0.0014827457 -0.005544083 -0.0022987118 0.008355458 -0.0007073437 -0.008415144 -0.00073905237 0.0014400145 0.005088107 0.00069837744 0.0051365457 0.0014932505 -0.0020783653 0.0012829354 0.00067916815 -0.004587419 -0.002564042 -0.000644675 0.00807929 0.00012719288 0.00316795 0.0063947374 -0.008319069 -0.0029348412 0.0034730905 -0.00031002882 0.00041698944 -0.002502028 0.0017640515 -0.003858297 -0.0049839825 0.0018676652 -0.0012455065 0.0014091285 0.0014871683 -0.0026712522 -0.0012203592 0.0025430096 0.00021210841 -0.0069144 -0.00021290926 -0.00017675465 0.0011919887 0.0030445312
172.016.113.105 -0.0024188005 -0.0035400144 0.0012321628 0.0028712733 0.00029820093 -0.0015137553 -0.003628252 -0.0014316364 0.0026731612 -0.0018534185 0.003722004 -0.0034394881 0.0016736484 -0.0021686733 -0.0021229938 -0.0014498289 -0.0010078127 -0.0025685169 0.0010040812 0.0019638315 -0.0017291437 0.0015853626 -0.0016498173 0.00276466 0.0030088057 -0.0016121252 0.0029271347 -0.00015290995 0.00039812265 -0.0036647338 0.0032677185 0.000414401 0.001263336 -0.0020147094 -6.240982e-05 0.0002980302 0.0032333266 0.002509754 -0.0025727097 -0.0022206286 0.0042900234 -0.0008678529 -0.0020612255 -0.0013396905 -0.0021595429 0.0022506057 -0.00036946492 0.0039655454 -0.0007005261 0.0031796973 0.000882225 0.002367599 0.0017037153 -0.0035015456 -0.003618691 -0.0013918204 0.00083041855 -0.0038088895 0.0022449524 -0.0020153308 0.0009769587 -0.0024289184 0.0027467783 0.0027623351 -0.0014583579 -0.0011027447 0.0016911775 0.0032311876 0.0003998724 -1.3742705e-05 -0.0020494827 -0.0011722149 -0.0035124577 0.0011748099 -0.0032601384 0.0019803708 -0.00017243094 -0.00024035208 0.0010087227 0.0033212495 -0.001794201 0.0005071566 0.0027993675 0.003135546 0.0027571865 -0.0012589891 0.0027467983 -7.034154e-05 -0.0018473718 0.0023679107 0.00041886998 -0.0026065458 -0.0027785553 8.899564e-05 -0.002003062 0.0022720243 0.0015845369 0.0032900309 0.0013842677 0.003086733 -0.0026067272 -0.00068173656 0.0040335893 0.0018299905 1.17946765e-05 0.0038238864 -0.0031483965 0.0019373564 -2.917616e-05 0.0039559165 0.0029426648 0.0010753238 -0.0028070076 0.003512422 -0.0025715174 -0.0034684953 0.0015143937 -0.0018648157 -5.2599098e-05 0.0025165605 -0.0015962209 0.0024521847 0.0010585028 -0.0009031033 -0.0009579239 0.0004433272 -0.0031983387 -0.00320143
172.016.112.207 -4.2145257e-06 -0.0021500774 0.0012182649 -0.0041778665 -0.0012378595 -0.0013094265 0.0010423926 -0.00068317086 -0.0032842495 0.0020232964 -0.0008678884 -8.806746e-05 -0.003213506 0.0029865326 -0.0021173586 -0.0037797245 0.0018352603 0.00041707023 -0.003950526 0.0023971545 -0.0018640045 -0.0007043059 -0.0032664726 -0.00039433513 0.0015250283 0.00038139746 -0.0016124892 -0.001679987 -0.0030274761 -6.065038e-05 0.002023822 0.0017542846 -0.00060663215 0.0035091306 0.00017130576 0.0010885405 0.0031142684 -0.00019705616 -0.0019672017 -0.0020282506 -0.0029707924 -0.0025700985 -0.0036156117 -0.0020919582 0.0010013066 0.004109401 0.0021455688 0.00043270088 -0.00022543392 -0.0026258824 0.0002937172 -0.0026334256 0.0013566659 0.0033799405 -0.0033630382 0.00078635087 -0.0030674809 -0.0040970575 -0.0010260787 -0.0014868279 0.0002939699 0.001098287 -0.0011091124 -0.0022493363 -0.0021987138 0.0004046926 0.0029720883 0.00022455098 -0.0039076507 -0.0025964878 -0.0013407868 0.0018047219 -0.0021553866 0.0021554974 -0.004039032 0.0018143323 -0.0012757519 0.00022675455 -0.0034132872 -0.002771772 -0.0016287479 -0.0025653914 0.0007493128 -0.0023595816 -0.0005278659 -0.00022033058 -0.002891765 0.0048125926 -0.00029543732 -0.0010384559 -0.0023883358 -0.0035238182 -0.000991839 0.0024855142 -0.00069073006 0.0035055242 7.6547294e-05 0.0013660487 -0.0027897805 0.0024484952 0.0004046383 0.001628682 0.0001586377 -0.0024167188 0.000683076 0.0013883566 -0.0036925802 0.0033992284 0.0002297282 -0.0024891652 -0.00037755645 0.0023612513 -0.00063125865 -0.0036015413 -0.00458026 0.0034840952 0.0039609033 -0.0011320848 0.0012278751 -0.002807511 0.0005101863 -0.0016804762 -0.000120196215 -0.00038713604 -0.0021321522 -0.0013217159 -0.002339084 0.0012513902
172.016.112.020 -0.0032302833 0.0011944458 -0.0008666928 -0.002466137 0.00023895482 -0.0023594182 -0.0012249156 -0.0021585904 0.0004907156 0.0032792252 -0.0006021699 -0.0016717507 -0.00246998 -0.0014746486 0.00038146976 -0.0013241165 -0.0013994684 0.004940846 -0.0016145536 -0.0030081084 -0.00073681417 0.0009602217 -0.0026558775 0.0034950098 0.0033236681 -0.0032125146 0.0058237105 -0.0036375194 -0.004163175 -0.003460365 -0.0020605652 0.0031718826 0.0016107223 -0.001995112 -0.00011530217 0.0021345236 -0.00023293852 0.00030271866 -0.0021416217 -0.0034790332 0.0051148846 0.0038511863 -0.0028413371 -0.0027648325 0.0017787841 -0.0024579912 0.00038840537 -0.0020811248 -0.00024629262 0.0024972064 0.002740656 -0.0005113036 0.0012125468 -0.0030376124 0.0027916625 -0.004274351 0.0016473329 0.0035503712 0.0037622706 0.00011217699 0.00029039217 0.0038581244 0.0003298282 -0.0015600191 0.000864609 -0.002890284 0.0013940411 -0.002687265 -0.004166013 -0.0006613804 -0.0029760487 0.0015774776 0.00086329295 0.0054406365 -0.0017408163 0.0032190732 0.00067830714 -0.000807393 0.0021529521 -0.00032720514 0.0035839237 0.0010504805 0.004193731 -0.0012926761 -0.0021261582 -0.002013572 -5.339418e-05 0.0041873096 0.0027658264 -0.0021847265 -0.0032518918 -0.0016329908 -0.0018170584 0.0026867157 -0.0015262176 0.0033633255 0.0017879864 0.0012361389 0.00057035295 -0.0030183976 0.0018958984 0.0028657822 0.0036365367 -0.0015936546 0.0049797203 0.0047331695 -0.0023938261 -0.00038334596 -0.002477135 0.00196922 0.004244459 -0.003361061 -0.0024096984 0.0011913922 -0.0004670726 -0.0006216652 0.0040395427 -0.0012766947 0.0010179484 -0.001871476 -0.003918175 0.0023545094 -0.0024065443 -0.0014614163 0.001994367 0.0009368559 0.00212481 0.0010174275
167.008.029.016 -0.0002909314 -0.0025394936 -0.0026130646 0.0015746711 0.002544332 0.002576122 0.0028695876 -0.0014480954 -0.00090017845 0.0031890245 0.0015578084 0.0043119607 -0.0020310453 -0.0030852922 0.00333692 0.003290051 -0.0036040952 -0.00044811587 0.0012161424 -0.0029929404 0.0023348925 -0.0013555322 -0.0029619932 0.0019143118 0.0014367965 0.00021154636 0.00015846713 -0.0012202348 -0.0015779578 0.00062607543 0.0030064783 -0.0011705941 0.0016296259 -0.0031915815 -0.0023620855 -0.0027696318 0.0013509853 0.00029651436 -0.00067672227 -0.0022064543 -0.0025249787 -0.00069184165 0.0016639152 -0.004628372 0.0025286465 -0.0018360015 0.0027258762 -0.0009299675 0.0034618464 -0.0015967384 -0.0031335996 -8.185781e-05 0.004515996 -0.002419565 0.0033613604 0.0010694116 0.00291217 0.00091432413 -0.002750889 -0.004941672 0.0018884945 -0.0009561398 -0.0017562619 0.0012262595 -0.0007962801 -0.0038729284 -0.00023098344 -0.0014864625 -0.00403588 -0.0020260725 0.0016724379 0.0020812415 4.6871573e-05 0.0027202936 -0.0025507435 -0.000287933 0.0010257968 -0.0028298025 0.0025516616 -0.0035019757 -0.00039347645 0.0023538594 0.0038263253 0.0006009237 -0.0008590726 -0.0026994175 0.004011481 0.0030737275 0.0033719973 0.00073431514 -0.0028706277 -0.00011485018 0.0021242527 -0.0021792585 0.00032581322 0.0003300069 -0.0037504497 -0.0021117332 -0.0019968315 -0.0031705517 -0.001403027 -0.0026975765 0.0020855695 0.0014006055 -0.0032630402 0.0016736616 0.002151077 0.0017431552 -0.0012970131 8.4986095e-05 -0.00040588112 0.0008221827 0.004084505 -0.0018100576 -0.002295868 0.0025730226 0.0031336236 -0.00016225153 0.00274453 0.00012307958 -0.0032648537 -0.00282036 0.0009018941 -0.0033585036 -0.0012173598 0.0029438403 -0.0034970227 0.0030755203
172.016.114.148 -0.00051067915 0.0005310066 0.0021754452 -0.004731231 -0.005025797 -0.0026153028 0.003017975 -0.0016358665 -0.002283394 0.0013245405 0.00038957119 -0.0008112397 -0.0038268834 0.0020549723 -0.002344012 -0.0009618076 -0.0022111326 0.00014530093 -0.00036216655 0.0027888843 -0.00053630146 -0.002827227 0.003737664 0.0022282244 -0.0030593593 0.004196806 0.0033051285 -0.00023853131 -0.0035857598 0.0028133392 -0.0016346197 -0.00040909112 -0.00055800256 0.0011676201 0.00063490245 -0.004400012 0.00476856 0.0022856048 0.00042994216 -0.0045984653 0.00268649 0.0008598219 -0.0006638406 -0.0050597494 -0.0019874866 -0.0020418803 0.0020336485 0.0017450254 -0.003841938 -0.0025608065 -0.0023685482 -0.0016055879 0.0018952568 0.0031949563 -0.0030752635 0.002163122 0.0013739847 0.0013014779 -1.3678946e-06 -0.0053109927 2.4176254e-05 0.002541151 -3.6614001e-06 -0.0002825638 -0.00092397124 -0.005275249 0.0007583415 -0.000662638 0.00119661 -0.0012781075 0.00073735334 0.002228293 0.00069885666 7.941357e-05 -0.0014727697 -0.0019281115 0.0004487869 0.005642364 -0.0012598514 -0.0017247482 0.004630584 -0.004357872 0.0010376603 -0.0014405116 -0.0021803556 -0.004395125 -0.0021881093 -0.00025809507 0.0026201098 -0.003733801 -0.0018669891 0.002171532 0.004504557 -0.0013934784 -0.0007228154 0.0006714447 0.0018035596 0.002745382 -0.00024102496 -0.00061599794 -0.0041660066 0.0007331866 0.0026625248 0.0004181193 0.0050929333 -0.0007927637 -0.0017975005 0.0025596702 -0.0007168695 0.0030195385 0.00027493745 0.0031730332 -0.0004247055 0.00338516 -0.0012285082 0.0032001787 0.0026181564 -0.0032359587 0.0004792661 -0.0011793432 -0.0032371662 -0.00070664706 0.004212066 -0.0014781922 -0.0031082525 -0.0007916086 -0.00035853236 0.0013091703
209.001.112.251 -0.0004994421 0.001461737 -0.003033131 -0.0038679512 -0.004740022 -0.00436999 -0.0008442548 0.0005985192 -0.005222745 0.0046664462 0.00192341 0.0019611225 -0.0022955253 -0.0007583865 0.0010546141 0.00027547858 0.0012020991 -0.0023686714 -0.0016279869 -0.0039745965 0.0019309525 0.003806005 -0.0028808753 -0.00015778476 0.0031236105 0.0018751726 0.0054162457 0.002228751 -0.0014503421 -0.002045895 -0.0030551164 -0.0011156081 0.0028979718 0.002974682 0.0008416455 -0.00020601175 0.00213794 -0.0016170605 -0.0026616594 -0.0028919124 -0.0011172402 -0.0006182308 0.003413273 -0.0028038723 -0.00016460312 0.0028394687 0.004047337 0.0010454813 0.001045811 0.0004030618 0.001188272 0.0013722221 0.005309473 0.0020751848 -0.0004684594 -0.0014792013 -5.745332e-05 0.00029909844 0.0005635278 -0.003039482 -0.002062054 0.002222293 -0.0014787411 -0.004377817 0.00069922605 -0.0038924348 -0.0021564832 -0.0003727338 -3.061141e-05 -0.0017825378 -0.000101247555 0.0023257746 -0.005126126 0.003398567 -2.286979e-06 0.0011817074 0.0027625351 0.0050715078 -0.0006272717 0.004317996 0.0015154558 0.0012637792 0.0057575665 -0.0036768636 -0.0031570378 -0.0045655095 0.0041454122 -0.0013242024 -0.00039674251 -7.4512034e-05 -0.0014672725 0.0015244815 0.0007032837 0.0020570073 0.0014384752 -0.0012311181 0.0014418421 0.002729183 -0.0044947113 -0.00044469838 -0.0014113827 0.0009328022 -0.0009830429 -0.0018591607 0.001931607 0.0009779551 -0.0014464287 6.67603e-05 -0.002240337 0.0027533101 0.0017861873 0.0016831603 0.0036131477 0.0003594419 -0.002227176 -0.0025867647 4.1826395e-05 0.00016419275 0.00296079 0.0029275678 0.000723702 0.0015713002 0.004940477 -0.0044369707 0.002618425 -0.0026439505 -0.0044196425 -0.0006247326
208.147.089.059 -0.0015684819 -0.0008818357 -0.00032839243 -0.0036014603 0.00013159413 0.00068536855 -0.0032663266 0.00233812 -0.0029340028 -0.000759235 0.0017147178 -0.0028539032 0.003324299 -0.0006588107 -0.0022423132 0.000639155 0.0026710124 -0.0032648158 -0.0036352656 -0.002868026 0.003060506 -0.00035866446 0.0036460026 0.001613667 -0.0028188117 0.00066036556 0.0018575045 0.0020076323 -0.0011531052 2.3991655e-05 -0.0010750269 0.003549932 -0.00089270226 -0.0015787581 -0.0014455699 0.00042712 0.0013017381 -0.0021518872 0.0019725265 -0.0021210313 -0.003332342 0.0021674705 0.0032892243 -0.0038401496 -0.0030827574 0.0009889101 -0.00039611454 0.0006397882 0.0006255155 -0.00068629766 2.1362124e-05 -0.00059142965 -1.2296892e-05 0.0040408084 0.0024270625 -0.0015562853 -0.0017141709 -0.00022139672 -0.002390616 0.00048753124 -0.0008274196 -0.0034494293 -0.0036864076 -0.002905177 -0.00050144043 -0.0035600872 0.0018373838 -0.002367837 -0.0023668222 0.0031996854 6.84939e-05 0.0006584908 -0.0040341634 0.0037187177 0.0025251724 -0.00072049466 0.0036146557 0.0039700894 0.0017686693 0.0010303122 0.0032307005 -0.0034928576 -0.00042336294 -0.0037674725 -0.0009243453 0.00039043854 0.0031300536 0.0032717003 -0.0033236735 0.0006481837 0.002560385 -0.0007407085 -2.0686857e-05 0.0011721039 0.002073622 -0.0027089622 0.0010161351 -0.00020326271 -0.0011845645 0.0016750023 -0.0021427812 -0.003257305 -0.003056508 0.0011871613 0.001565084 0.0036622623 0.00019307027 -0.0033071314 0.0025780762 -0.0030369107 0.0024512208 0.0031029931 -0.0018311848 0.00042028754 0.0012541446 0.0016652043 0.0039023468 0.0024993287 -0.0028109853 0.0017150876 -0.0020443466 0.0030360597 0.0004034358 0.0029978843 -0.0029766911 -0.0021365397 -0.0036482892 0.0017046393
204.071.180.010 -0.005209412 0.0024759658 -0.0005880387 -0.00011107081 -0.0019936545 -0.0031581544 0.0004629741 0.0037487263 -0.0036487035 0.00013372209 -0.0026735996 0.0028329762 -0.0009440124 0.0037251909 -0.003025915 -0.002715457 -0.0032739553 0.004197114 -0.001842692 -0.0039257933 0.003929824 -0.00077553396 -0.0014178616 2.2505235e-05 0.0005340815 -0.00095115416 0.0009936298 -0.0027325791 0.0022378052 -0.004304238 -0.0027208917 6.3355925e-05 0.0034057754 -0.002128175 0.00080510287 -0.0048099235 0.0031605389 0.00067629997 0.0030977654 0.00047444546 0.004672883 -0.0010059397 0.0016416356 -0.0038808822 -0.0020902907 7.4240816e-05 0.0034913411 0.0012479273 -0.0026060103 -0.0019654853 0.0013659578 -0.0024372288 0.0056325044 -0.0018941214 0.0006105355 -0.0023458067 0.0028420528 0.0036482355 0.0033988026 0.0001217525 0.0023462216 0.0026336547 0.0042873113 -0.0021303513 0.00061693037 -0.0030879867 -0.0009079337 -0.00078028673 0.0019772013 -0.0010602776 0.0026842726 0.0022224952 0.0015886625 -0.00092698395 0.0012783436 -0.0020507928 -0.00091202173 0.0010126797 -0.0010297247 -0.0029915778 -0.0017080548 -0.0026387682 0.0018392475 -0.0017192423 -0.0024047883 -0.0010164838 -0.00096662046 0.0035691764 0.0001586091 -0.0003994351 0.0017505347 -0.0016906508 -0.0014086639 -0.0017301412 -0.002100311 0.002209943 -0.0019883842 -0.0031246678 -0.0007066997 0.00092041324 0.0025370314 0.0020184773 -0.0015777978 0.00037379152 0.0019386632 0.0030990064 0.0018788794 0.004066408 -0.0017908324 0.0017597125 0.00079972454 -0.0020326483 0.0010080718 0.00018725383 0.0023187029 0.000853408 0.0036479472 0.0029713751 -0.00067902345 0.0029530155 0.0025621364 0.0013483891 0.0002999087 -0.0032094577 -0.0028766894 -0.0028754715 -0.0021726992 -0.00019995547
207.067.253.130 -0.001725378 -0.0013537285 -0.0036434922 -0.0022204665 -0.0014858182 -0.0030803585 -0.003707544 -0.0010664025 0.0012870266 0.0010915963 0.0037729784 0.0011633745 0.0010456857 0.0020358781 0.00076186203 0.002415517 0.0013078431 0.0025386005 -0.0032330705 0.003723152 -0.0037240768 -0.0018232013 0.001854341 -0.0026671782 0.0022788006 -0.00032754865 0.00010092275 0.0027504652 0.0010366717 0.0019305501 0.0011494795 -0.0017616957 -0.0021389816 0.0024933678 0.0018479564 0.0006902225 -0.0015397117 -0.0008190367 -0.0019246406 0.0013522195 -0.003119574 -0.00021802387 -0.0031892392 0.0005398079 0.0012267749 -0.00257485 -0.0019607374 0.0004423297 0.0024435995 0.0030416716 0.0036058861 -0.0019221691 0.0012989491 -0.000564473 -0.0014363143 0.0036168422 0.0014844477 0.00091077184 -0.0023867872 -0.0024755276 0.0027269055 -0.0009175993 0.00032320162 0.0011902746 0.002846781 -0.0032791507 -0.0025257377 -0.0037703367 0.000655585 0.0009493962 -0.0015755827 0.0027180745 -0.002563731 -0.0034620091 -0.00053881895 0.0007208193 -0.0030779198 -0.00028245014 -4.6720983e-05 -0.0016844198 -0.0013444507 -0.002009416 -0.0012596073 0.0026108243 -0.0035105255 0.0020187052 0.0036926628 -0.0011204935 3.1774398e-05 -0.0006298397 0.0016569796 0.0038648997 -0.0034493369 0.003490968 -0.0014346702 0.003415923 2.0511625e-06 0.0034689324 -0.0017713391 -0.0021803924 -0.0023725843 0.0033116946 0.0007094727 0.0032873016 -0.0037160742 -0.0027826435 -0.003670118 0.003513916 0.0034079545 0.002762653 -0.0011018821 0.0026718234 0.0019712998 -0.00012419565 -0.00026356254 0.003273897 -0.0036095206 -0.0023032231 0.0039189463 0.0015395161 -0.0027152498 0.0019391526 0.003201423 0.0021625732 -0.002357073 0.003571711 0.00089513964 0.002820388
135.008.060.182 0.0026471196 0.00018950677 0.0012574026 -0.002881599 0.00088065915 -0.0028401595 -0.0009427052 -0.0031849493 -0.003951946 0.004424382 -0.0016733488 0.0014223749 0.0024773243 0.00015855866 0.00045709408 0.000105101484 0.002472453 -0.0014414892 -0.004910633 -0.00047079497 0.0028817384 -0.001980807 -0.003173394 -0.0014750405 0.003788051 0.00080182735 0.004636867 0.0005299314 -0.003384683 -0.00057419774 -0.003046506 0.00025723028 -0.001708888 0.0006194884 -0.0019561034 0.0032634332 -0.0023884887 0.0008080914 0.0034351563 0.00092289504 0.0043291906 -0.0015991712 -0.0032334253 -0.0015030869 0.0035332353 -0.0018401385 0.0040890467 0.0024852452 0.0009931746 0.0013738429 0.002983789 0.00078849564 0.00030135398 0.0018717677 -0.00085615 -0.003072686 -0.0015466708 0.0027801027 0.000698631 0.0015472549 -0.003376764 0.0011279718 0.0027616727 -0.0043545556 -0.00094968063 -0.003715206 0.00036261737 -0.002794347 -0.0035699063 0.0043267976 -0.000651702 0.001751241 0.0011721244 0.0015313487 0.001363986 -0.0033431402 -0.00021733288 2.9713643e-05 0.003073937 -6.2558465e-05 0.0015286898 0.0014600869 0.001278697 -0.003602262 -0.0032083348 -0.0005901635 0.0022252013 0.0015687842 -0.0021572527 -0.0009705059 0.002871707 -0.00206024 -0.0017827833 0.0011737512 0.0022332603 0.0032618018 0.0016166518 -0.002979709 0.0007221185 0.0017682185 -0.002752283 0.0024812063 -0.0009025044 0.0028059655 0.0018440438 -0.0011082618 0.0006099795 0.00095313194 0.00067544845 -0.00015188265 0.0037075693 -0.0021309967 0.0026538656 0.0012189306 -0.0012308592 -0.0017786457 0.0038692295 0.0016706954 -0.0012728251 0.00083713385 -0.0013774806 0.0037467915 0.003170767 0.00016113836 -0.0002457588 -0.0030886016 0.0019329102 -0.0009057988
195.115.218.108 0.00077964325 0.0005920154 0.0020814089 0.00097149215 -0.0045064157 0.00046979147 -0.0027773152 0.0035390265 0.0015676029 0.002243751 0.0030762134 -0.0003459353 -0.0037366184 0.000735966 0.00071640825 -0.0013659421 -0.0010970001 0.002604806 -0.0012634727 -0.0011327034 -0.0033178874 0.0014032606 0.0036406391 -5.7345642e-05 0.002500255 -0.001553104 0.002447402 -0.0024986723 -0.00031285663 0.001828774 0.0031577728 -0.0016922286 0.0028481744 -0.0026949656 -0.00080181524 0.0010559907 0.00405147 -0.0028668584 0.0021182161 -0.0026478167 -0.0031840177 -0.0019059213 0.0038807606 0.0018466659 0.0038360583 -0.00050599454 -1.00684265e-05 -0.002443427 -0.0010524457 -0.004230551 -0.0007269089 0.00031905796 0.0022305956 -0.0022271667 0.0036237915 0.003720903 6.73796e-05 0.0015472458 0.0029257867 -0.0041906754 -0.0010930542 -0.00039459046 -0.002264628 0.00067030254 0.0013666864 -0.0004107298 -0.0022140825 0.00064682734 0.003074521 0.0033694257 0.0015667204 -0.00375097 -0.0022636768 -0.002425979 0.00031498715 -0.0017140887 0.0005817328 -0.0019009233 0.0014654815 -0.0028078307 0.0021940467 0.0028823365 -0.002946949 -0.00048853125 0.0026363132 -0.0021013306 0.00055169873 0.0012767839 0.00024671236 0.002093479 -0.00231528 -0.0021847375 -0.0008579618 -0.0028609748 -0.0032395902 -0.0035287344 0.0030837907 0.00043098044 -0.0010681116 0.0016072635 -0.00068732665 -0.00042871502 0.004195562 -0.00011847699 0.00018641402 0.0042396896 0.0010078687 0.0010819723 0.00038474932 -0.0037840805 -0.0036982049 -8.453085e-05 0.0020344725 -0.0018749944 -0.00051483605 0.0038169438 0.0028556378 -0.001970585 0.0030922284 -0.0017198764 -0.0021291848 0.00038076096 0.00268284 6.706235e-05 0.0004983498 -0.0032985732 -0.0028732428 -0.0031562862
205.147.050.068 -0.0010816834 0.001687458 -0.0014818698 0.00036432449 0.0023900087 0.0030476472 -0.0038128966 -0.0030915646 0.001143124 0.0017581594 0.0021169707 0.0005590989 0.0016475897 -0.002997093 5.3538824e-05 0.0023980986 0.0005923864 0.0015523416 -0.004136458 0.00052452827 0.00031899492 0.002907196 1.3296187e-05 -0.0023970897 0.0018436131 0.0021273333 0.0025871876 -0.00017619772 0.0011967542 -0.0024609384 0.0010492721 -0.0026342673 -0.0005780074 0.0016842252 -0.0031718393 -0.0012349547 0.003746777 -0.0014263325 2.4305657e-05 0.0015316514 4.3969834e-05 0.0032288246 -0.003757828 0.0005032294 -0.0037139663 -0.0029951213 0.0020934977 -0.00029284475 0.0005453397 -0.0022340538 -0.0015075 0.0038928522 0.00033157103 0.0025071455 0.0018789956 0.00022778173 0.0017899186 -0.003788264 -0.0025370761 -0.004610882 -0.00045822372 -0.0009714103 -0.00035551688 0.0030462246 -0.0033617625 -0.0018451847 -2.2895685e-05 -0.0017931062 0.00023883505 0.0016223865 0.00184197 0.0007833629 0.0025238725 -0.0011255742 -0.0023554866 0.00035060605 0.0031348108 6.5583736e-05 -0.0039109457 0.0006940036 0.00044779043 -0.0023758695 0.00095118326 0.0022083232 -0.0039008318 0.0033017555 0.0014731887 0.003305857 -0.0031702504 -0.0015020864 -0.0017179683 -0.0012303743 0.0022918151 0.0007838251 -0.0023592042 0.0018876903 -0.0028079583 -0.0036260178 -0.0013067644 0.0019144202 -0.00070016726 -0.0014007139 0.0035512708 0.0028631738 -0.0023929232 0.0018488732 0.002631717 -0.0028216247 0.0036629823 -0.0011044082 -0.0036997227 -0.00054751144 0.003142602 -0.003085383 -0.0035363513 0.0004753347 -0.00018472043 0.0027169704 -0.0026448895 0.0018820452 0.003453125 0.0022076748 0.0027092253 0.0030841145 0.0018404247 -0.0021359345 0.0010466073 0.0035525586
132.060.056.005 -0.0027857744 0.0036541768 -0.002136368 0.003670442 -0.0023871642 0.0021543307 -0.0021301834 0.002527093 -0.002045491 0.003063764 0.0016728712 -0.00012365851 0.0027706176 2.016945e-05 -0.0024286397 -0.0013269056 0.0012712297 -0.0018580041 -0.0013877549 0.0013075274 0.0037352021 -0.002608645 6.0966704e-07 -0.00090379367 -0.003097757 -0.0019042946 5.1940093e-05 -0.0015583686 0.000697707 0.0005641336 -0.0013981286 -0.0026905164 -0.0020736048 0.003519219 0.0037046622 0.0016699673 0.0028817665 -0.0009875678 -2.5403562e-05 0.0026736187 -0.0019499334 -0.00067693717 -0.001423948 0.001153563 0.003783587 -0.002727417 -0.0014344678 -0.0032513053 0.0009317573 -1.1871249e-05 0.0016600478 0.0003738474 -0.001743098 0.00027715578 -0.0023929793 0.0010112226 -0.0005881422 0.00043773392 -0.002856914 -0.004216453 -0.0019730285 0.0027512359 -0.0021180238 0.0016632053 0.0021966205 -0.0019259016 -0.0008784182 -0.002323335 0.0035015969 0.0026198402 0.0006853414 -0.0010664888 -0.0029516553 0.003178441 0.0028929426 -0.002984728 0.00048376128 5.1965733e-05 0.0032406016 0.0011742547 -0.0036172664 0.00046719992 0.0033964799 -5.1836192e-05 -0.00095760234 0.0023051365 -0.003302056 -9.007938e-05 0.0038288443 0.0029221063 -0.0032455944 0.0021882525 -0.0007977645 0.0003672794 0.0013295852 -0.0022850865 0.0011530543 0.0012929325 -0.00018935247 -1.8461054e-05 -0.0002644114 0.00211366 0.004244082 -0.0038482803 0.002234775 0.003595099 0.00012206548 0.0033537399 0.0010265931 0.0038656006 0.0018689533 -0.0032793207 -0.0020374155 0.003447291 0.00061755895 0.0029694708 -0.0015794924 0.0029365188 -0.00069230556 0.0017372278 -0.0023330287 0.003620559 -0.0034890887 0.0020018017 0.0038836736 -0.00078133575 -0.0024868173 -0.0018883061
205.180.059.051 -0.0011860923 -0.00068173563 -0.0024224913 -0.00074650644 -0.0018990021 -0.0012567076 -0.00088037516 -0.0015045531 -0.0017388486 0.0029982727 0.0017338146 0.003789031 -0.0016424502 -0.0023771375 -0.0007368315 0.0014588835 -0.0035936548 -0.0016185646 -0.0024688772 -0.0003555746 -7.488043e-05 -0.0005517921 0.000977707 0.0042095836 0.0014870567 0.0015607589 0.003948041 -0.0005289347 -0.00032535754 0.001907002 0.0020862778 -0.0011422103 0.0017162138 0.00040154686 0.0016282528 0.001945033 0.0027771553 -0.0019179059 -0.00081325165 -0.002571726 -0.00095977855 0.0006076313 0.0007747342 -8.061319e-05 -0.0038248666 0.0026269625 0.0040124166 0.0020145844 0.0029705367 -0.0014334725 0.000955401 4.6308676e-05 -0.0007440476 -0.0006000728 -0.0012248927 0.0005071291 0.0025128883 -0.001231289 0.0013475664 -0.0054610483 0.00084602984 0.0013789693 -0.0010611699 -0.0022474749 -0.001558914 -0.0008285724 0.0017833028 0.0029800208 -0.003961053 0.002477971 0.001566024 0.0007302645 -0.0025169726 0.0030862952 0.00055301236 0.0010022405 -0.002064615 0.0030543527 -0.0017509729 0.003329324 0.002846097 -0.0017696471 0.0032745264 -0.0024385205 0.0003096482 0.0019595372 0.0027161345 -0.0023566005 0.0025378882 -0.0020854431 0.0038847353 -0.0007658591 0.0012354818 -0.00019060378 -0.0014095637 -0.0032178715 -0.0034538077 -0.0023073296 -0.0038086842 0.0014411295 -0.0012318704 -0.0018092897 -0.00020187284 0.0016156097 0.0017421768 -0.00097185234 0.00233 0.002597537 -0.0035252348 0.0019321521 -0.0024563095 0.0021725271 -0.0017997194 -0.0020992432 -0.00019605842 0.002281143 -0.00088704086 0.0010951601 0.0038420802 -0.001839847 -0.003233444 -0.003652009 0.00016902637 -0.0042531183 -0.00066268456 -0.0035356826 -0.0022913276 0.0010652746
199.095.074.090 0.0028438806 -0.0012215538 0.0014201746 -0.0018081568 0.0025047667 0.0019921812 -0.002758249 0.0036759519 -0.00062843715 0.0017032928 -0.003234742 0.0015674985 0.0013761476 -0.0035992172 0.0003085399 -0.0014759545 0.0029454406 0.0003238523 -0.0033998236 -0.0006987693 0.002584634 0.0007504567 0.00052054797 -0.0011951175 0.00023093136 0.00037961142 -0.0030408017 -0.0024013843 0.0006955959 0.0007918669 -0.003724693 -0.0010415633 -0.0017713727 -0.0019512471 -0.0025941906 -0.00028445388 -0.0014463367 0.0006048967 0.0017425574 -0.00073617604 -0.0011479803 -0.0018020892 -0.0036815817 -0.001087665 -0.0026767296 -0.0026224323 0.0013635363 0.0028551735 0.0010962092 -0.0020699564 0.0013374903 0.00014992463 -0.0022779047 -0.0014092476 -0.0020698223 -0.0019587704 0.00084064406 0.0022897683 -0.003736043 0.0021233442 -7.2647665e-05 -0.0026605155 0.0013128803 -0.0026470954 0.002961098 0.0011213912 0.0024666719 0.0031451418 -0.0025853163 0.0009115799 -0.0018206896 -0.00075576076 -0.0036999711 0.003544014 -0.0004524838 -0.0031363752 0.0010082724 -0.0005189803 -0.0036490452 -0.0020157944 -0.0037279148 -0.0038605218 -0.0026552337 -0.0011324921 0.0027535784 0.000490327 -0.0037778455 -0.0015030997 -0.00127126 0.0007511325 -0.0013698033 0.0028801153 -0.0030102392 0.0031449632 0.0020956097 0.00073219993 0.0016458299 0.0011730599 -0.003962884 0.0018089723 0.0035470193 0.0011420624 0.001982975 0.0016015355 -0.0015021886 -0.001575734 -0.002024969 -0.002831362 0.0031218897 -0.0007108969 0.0023207755 -0.0030659826 0.00038954607 -0.0034267087 0.0006432157 -0.00043804004 0.001148905 0.00129289 0.0022477692 0.0021385038 0.0014736623 0.0008558539 0.00053058047 0.0007194293 3.6184323e-05 -0.0021792445 0.0027388616 0.003454723
206.015.106.088 -0.0016151574 0.0028171218 -0.0004341563 -0.0017369635 -0.00053972285 -0.0018553043 -0.0033269029 0.000754094 0.00023296644 0.0018584772 0.0029154979 0.00033720097 -0.0034457645 -0.0013741273 0.003058975 -0.0009864405 0.002532989 0.001091296 -0.0027683792 -0.00066872285 -0.0025365276 0.0011569599 -0.001430716 0.0003498286 0.0022616952 0.002475621 0.0023870866 -0.0024932171 0.0010091838 -0.0027511513 0.00032244972 -0.0003201623 0.002333722 0.0014169845 0.003572084 0.0018662618 0.0029951963 0.003911851 -0.0002902021 -0.0010282794 0.0024118791 0.0015646744 -8.597536e-05 -0.0021723697 -0.00289929 0.0028142612 -0.0004416874 0.00015586508 0.0003343531 -0.0033156027 0.0010449939 0.0010172679 0.0010164446 -0.0011490376 -0.0036086342 -0.00078191684 0.00226975 0.002699821 -0.0025776324 0.0008856616 0.0031924965 0.00016430364 -0.0015771159 -0.0031855397 -0.0029202679 0.0005947759 -0.0006972239 0.0016018242 0.0027918292 0.0022650503 -0.0036993104 0.0011683342 0.0019889453 -0.00095143064 0.001785101 0.0030351798 -0.002738294 0.0025687302 -0.0006895771 0.0036395332 -0.0038040697 -0.0012366386 -0.0023930708 0.0031936811 -0.0016693634 -1.8865027e-05 0.0018401309 -0.00243242 0.003211363 0.0023384958 0.0005688157 0.0021564234 -0.0009449889 -0.0020367205 0.00047429986 0.0009188253 -0.003008077 0.0014064978 0.0005851632 -0.0024592439 0.0018520307 0.0005391002 0.003354649 -0.00217054 -0.0035194836 0.0002756226 0.0019232827 0.0006484831 0.0024572643 0.0030448253 -0.0029420329 0.0005568873 -0.00027423163 -0.0017043113 0.0021797265 0.00079875905 0.0022380312 -0.0022387067 0.00019006735 3.496351e-05 0.0005380438 0.00034603686 0.001518324 0.0037488134 -0.00043266002 0.0020674297 0.0012105458 -0.002118814
202.073.128.016 0.0028124845 -0.0016720771 0.00078590674 -0.00038731005 -0.0019567097 -0.0040606973 0.003309224 0.0036520043 0.0029136718 -0.00317728 0.003427619 0.0030837154 0.0019464385 -0.0021780878 0.0011058289 -0.001326176 -0.00041673015 0.0011000953 -0.0017748165 0.0023228058 0.0029046114 0.002899213 0.0015508848 0.0015296427 0.00012561741 -0.00342696 0.00045340208 -0.0012928956 -0.0021397802 4.4218556e-05 -0.0018987008 -0.0008962965 -0.00026955968 -0.000951258 0.002122054 -0.0020323822 0.0024723418 -0.0025185524 -0.003916576 -0.0037385186 -0.002523248 -0.0031771369 -0.0010055581 0.0017399658 -0.0018493276 -0.0008118826 0.00020209303 -0.0020687988 0.0020905705 -0.0028934707 -0.0015005958 -0.0012477334 -0.0024407357 0.0022185238 -0.0011970978 0.0027206559 -0.00044963922 0.0025103248 -0.0009802154 -0.0014446571 0.003791213 -0.0028101865 -0.0015729959 0.0009372865 -0.003668923 0.0015876506 -0.0019767047 -0.0033416217 0.0024413476 0.0018979061 0.0030516526 -0.0029135724 -0.0024543006 0.0033129323 -0.0031948222 -0.0030076113 0.00375962 -0.0017779148 -0.0010774727 -0.0012265046 -0.0025972943 -0.00042711553 0.004162947 -0.002489829 -0.0032029194 -0.0025819766 -0.0004214248 0.0009623084 0.0019721834 -0.0030325348 -0.001750051 -0.00033156725 0.003997689 0.0027736747 0.00036576038 0.0020071482 0.0023734462 -0.00034714426 -0.001468915 -0.00073094876 -0.00073094975 0.00390841 -0.0024721923 0.0015711725 0.00013903368 0.0012908324 -0.00044014677 1.6643957e-05 -0.00048324582 -0.0003434697 0.0035184857 -0.0011451095 0.0021634032 -0.0014530227 0.0016717381 -0.00044165994 -0.00027133944 -0.0019334145 0.0003904134 -3.7402657e-05 0.0020460358 0.0020713457 0.0012121839 -0.0012218514 -0.00044490758 0.0011326595 -0.0023370353 -0.0017985122
152.163.212.172 0.0025251615 -0.00066874403 0.0019303171 0.0036007788 -0.00092057465 0.0013793375 0.0034091265 -0.00040478996 -0.0032044915 -0.0033749666 0.0022889154 5.5057186e-05 0.0011581153 0.000534208 0.0029605692 0.0030713736 -0.0024059955 -0.0017993496 -0.0028126454 -0.003279087 0.0037508635 0.0010448092 0.0015426024 -0.0034688022 -0.0028202722 -0.0009333125 0.0026753051 0.003474299 -0.0012250228 0.0035388756 -0.0014177985 0.0012514365 0.00394316 -0.00045906406 0.00037814304 0.00364736 -0.0037413137 0.0033178045 0.00013029223 -0.0020846613 0.0031534208 0.0014394866 0.0012872114 0.0026780139 0.0034011356 0.0010982987 -0.00079787464 0.0006877045 0.0017746075 0.0033320729 -0.00033830627 0.0025044684 -0.0028181723 0.0031385152 0.0020950483 -0.002738072 0.001920864 -0.003000082 0.0037555962 -0.0019994886 -0.001880076 -0.0030174844 0.00015089248 0.00035309876 0.001712408 -0.0031134444 0.0037712827 -0.0039764983 0.003051683 0.00012756886 0.0023752733 0.0017882547 -0.0030714353 0.0016446266 -0.00057121343 0.0036032756 -0.003143418 0.0028782059 0.0014373207 -0.001036045 0.0030357363 0.0033007853 0.00077763 -0.0031009456 -0.0019244604 -0.003970193 0.0030451168 0.0041902135 0.0032015736 0.0032705036 -0.0005953207 -0.0012826172 0.0005320281 -0.0020765008 -0.0021863328 0.002089377 0.0027471203 9.366394e-05 -0.0012836221 0.0022775133 0.0012131549 -0.00090080424 -0.0016644587 -0.002582406 -0.0016841445 0.0013503865 -0.0038667154 -0.00035736815 0.00031541762 -0.0038268436 -0.0032495004 -0.002315638 0.0034127648 0.0013882417 0.0011873498 0.00053719897 -0.0024657035 -0.0029597098 -0.0038087757 -0.002634823 -0.003764867 0.000801436 -0.0027389089 -0.0032192382 -0.00032375718 -0.0005592687 0.001300006 -0.0018826195
197.182.091.233 0.0001627102 -0.001759489 -0.0012566086 0.00080880104 0.00084494054 -0.001953424 0.0016787747 0.0021228236 -0.0001016836 -0.002925246 0.0025439395 -0.0020533106 -0.0035941578 0.00481749 -0.0019839152 0.0005224476 -0.0006032568 0.0012251611 0.00038853532 -0.00094775244 -0.0018338673 0.00014361742 -0.002886833 0.0034872335 0.00198284 0.0021562749 -0.0025665956 0.0037745857 0.0010233308 -0.00094225915 0.000577611 -0.0018482363 0.0031208638 -0.0007004767 -0.001739302 0.0012118911 0.0010719225 0.002459149 -0.0029348014 -0.0023533276 -0.0014200086 0.0038411072 -0.0025558667 3.4871744e-05 0.0014412992 -0.0032191833 -0.0031101408 0.004243094 0.0030961893 -0.0031043512 0.0036550872 0.0013199773 0.0013764646 -0.0028286162 0.002729642 0.002260951 -7.757479e-05 0.00210708 0.002275041 0.0011279299 0.0037631118 0.0005536104 0.0026033798 0.0014410951 0.0012724618 -0.0034768202 -0.0018398219 -0.0008956173 -0.0025400198 -0.0024555128 0.0038798219 0.0015864088 0.0012276765 -0.00036433755 -0.0046108114 -0.0015719311 0.0033706054 0.003730211 -0.0039857323 -0.0030800002 -0.0013520136 0.0008264565 0.0038134034 -0.00030524988 -0.0030277332 0.00038971368 -0.0017467841 -0.001158167 0.0014228576 -0.0010032284 0.0032090934 0.0009423562 -0.0004780718 -0.0010426679 0.0041617104 0.00173549 0.0010349213 0.0013411952 -0.0038793392 0.0007827311 0.0012335649 0.0028918963 0.0036788934 -0.0024095827 -0.0026404152 0.0020074178 -0.0033509529 -0.0014426167 0.002076837 -0.0023295323 -0.0034948192 3.1033487e-05 -0.00020908492 -0.0006273524 0.0011357333 -0.00026752515 0.0032499235 0.00031930394 0.00040298895 0.001595551 0.00059562316 -0.00014521877 0.00038442202 -0.0013295304 0.00221258 -0.0024617647 -0.003379357 -0.00059597386
152.163.210.011 0.0023148358 -0.0032622817 0.0028931885 0.0012620864 -0.0030351984 0.0022323024 -0.00034055486 -0.000885538 -0.0012949688 -0.00209647 -0.0007566993 -0.0011952112 -0.0020739504 0.0038074935 -0.0002966954 -0.0013347657 -0.0012420837 0.003160106 -0.0016631407 0.00073472824 -0.0029741349 -0.0026017302 -0.00017893029 0.0044049686 0.00113742 0.0020552159 0.00077836256 -0.003462464 -0.00043038986 0.0019829602 0.0038664148 0.0012684556 -0.0020980015 0.0018297452 0.0033809338 -0.0021279189 -0.002027172 0.0032484273 -0.0024496987 -0.0011575662 0.0010199647 0.0005781334 -0.001343933 4.3157255e-05 0.0020386372 0.0027950774 -0.0016029123 -0.00094470824 0.0005781869 -0.002814489 -0.0010901975 -0.00031848124 7.415668e-05 -0.0017444119 0.0024236555 -0.0008419228 0.002284174 0.0022960207 0.0010795885 -0.001617531 -8.749863e-05 7.2284834e-05 0.00042251273 -0.0018628805 -0.0015178227 -0.00026933698 -0.0030917837 0.0011069643 -0.00221112 0.00331268 -0.0020865574 -0.0043270118 0.0015485431 0.003794367 -0.00037153962 -0.00071520207 0.0001907042 -0.00021568092 0.0011348291 0.0041103675 -0.0020871388 -0.0016508461 0.0005842047 0.0025112252 -0.0009710501 0.0017233253 -0.00029318017 0.0030347793 -0.0013883543 -0.0035609007 0.0011692789 0.0027342148 0.0043434906 0.0024129567 0.0004561061 -0.0021911 -0.0012976665 0.0027369459 0.0015086038 0.0027105357 -0.0024813493 0.004320603 -0.0007782158 -0.0014579138 0.0039427495 0.003628127 -0.0039104223 0.0021624279 0.0038567283 0.0010950253 0.002462004 -0.0002379774 0.0037265993 -0.001405079 -0.0041372646 -0.00062188314 0.0016956625 -0.003877436 -0.002970424 0.0011386399 -0.0012032397 0.0036281599 0.0016096437 -0.0024473271 -0.00084357546 -0.0020303954 0.0019725168 0.00069202133
195.073.151.050 0.0009991351 -0.0023879008 -0.0028300937 -0.0017405091 -0.0035369971 -0.0028245589 -0.00018355148 0.00209267 -0.0021063455 0.0028147143 -0.001162312 0.0011919372 0.002013684 0.0030561483 0.0028563351 0.002034974 0.0002307367 -0.00048309896 0.0013528083 0.0008433954 -0.0015172513 -0.0032845675 0.0007853727 0.000119513454 -0.0010027101 0.003127965 0.0014472464 0.0013116742 0.0011404714 0.0033055355 -0.0032083893 -0.0013301388 0.0010198973 0.001892436 0.00010715443 -3.3722863e-05 0.003897159 -0.0007165978 -0.0009690112 -0.00023238843 0.0018621872 -0.0036840404 -0.001632346 -0.0034463524 0.002905148 0.00090332987 -0.0023127005 -0.0022307767 0.0037455065 0.0015142978 0.0033265378 0.0014690591 -0.00030182497 0.0019365484 -0.0014231851 0.00038466125 -0.0014692901 -0.0017778287 0.00369384 0.0022756162 -0.0010677532 -0.0014753812 -0.0030968708 0.0037279539 -0.0023000974 -5.184265e-05 -0.0029129798 0.0018706585 -0.0010692312 0.0020941666 -0.0017344858 -0.0031876743 -0.0006206356 0.002194602 0.00035183725 0.0012504429 0.00378679 -0.0014145892 0.0030701603 -0.0012466331 -0.0033388592 0.0016389274 -0.0024290422 0.0005523893 -0.0009461796 0.0035883058 0.0013449319 -0.003435785 0.0012230125 0.0029093733 -0.0013644513 -0.0038852768 -0.0023982613 -0.002728526 0.0021852953 0.0030334597 -0.0013317765 -0.0016073629 -0.0018924228 -0.00094318716 0.0023487152 -0.00028698446 -0.00027556086 -0.0025942135 -1.8829924e-05 0.0021482825 0.0019654664 7.7538556e-05 -0.0033701966 0.0015613612 -0.0032968875 0.0019052298 -0.00075945805 -0.003706839 -0.003031753 -0.0026189727 -0.0008505683 0.0022133861 0.0019427927 -0.0017650346 -0.0036813137 0.0019402559 -0.0031870448 -0.00065606897 0.0037841443 -0.0026470392 -0.002990895 0.0027099024
172.016.115.005 -0.0038690204 0.0012610697 -0.0008511622 -0.0034619537 -0.0019100431 -0.0003396226 0.00019211174 -0.0039402195 -0.0019606682 -0.00063634216 -0.00018429283 -0.00090027467 0.0007932316 0.00021678983 -0.00283398 -0.0020057876 -0.0027007337 0.0037666142 -0.0027488107 -0.00027471734 -0.0024729809 0.0031599354 -0.0013845838 4.1402993e-05 0.0035771034 0.0026113915 0.0054554027 0.0014215469 0.0026558442 -0.000805618 0.0023259686 0.0016953577 0.0032901033 -0.0013045662 0.0027049524 -0.004561076 -0.00074676785 -0.0017656016 -0.0021298872 -0.0007244757 -0.0016553602 -0.0011041682 0.0022100674 -0.0019515762 -0.00029999684 0.004028912 0.0004849342 0.003854599 -0.0046343184 -0.0024219234 0.003971118 0.0005736386 0.004913722 0.0015020295 0.0020533314 -0.00053338223 0.0010547307 -0.0017653104 0.0015133783 -0.0042289887 -0.0028951627 -0.0027854452 0.00096790784 -0.0014573047 -0.0009391425 -0.0016927097 -0.004216113 -0.0011947877 -0.002913042 0.0007530418 0.00072101835 -0.0020283924 0.001482804 0.0017910622 -0.0044715907 0.0026700739 0.00020117173 0.0021093464 -0.0040237773 -0.0016408742 0.0032690726 -0.0009908681 0.0052322955 0.0011928012 0.00241345 -0.004327182 0.0015240395 -0.00039180997 0.0036950111 -0.0017107165 0.00024851362 -0.0020578515 0.0019301232 -0.00075331796 0.0018015003 0.0011647076 -0.0020763152 -0.0018419337 -0.004636004 -0.0026908142 -0.0034573292 0.0045306003 0.001969595 0.0023229346 0.0023065677 0.0051078266 -0.00080713537 0.0024675985 0.00030039027 0.0032942463 0.0030096376 0.00030052188 0.0013589684 0.0002478591 0.0006865294 -0.0038137287 0.0017054281 0.0020946595 0.000620665 -0.0012391342 0.002817623 0.0020880976 0.004022407 -0.0004885024 0.0021440093 0.000121250574 -0.0032078973 0.0014295699
172.016.116.194 -0.0010497139 0.0036239696 0.002947832 -0.0034745918 -0.0034375545 -0.002763009 0.0013115539 0.0001296252 -0.0055960296 0.0012237013 0.0012171539 0.0033324265 0.0014755414 0.00047469814 -0.0038757646 0.0028332171 0.00044811986 0.0047877496 -0.00101155 -0.00045004138 -0.0017130321 0.0003618283 -0.002045474 -0.00023250302 0.003966499 -5.144425e-05 -0.0015613709 -0.0020320674 0.00088585715 -0.0029140199 -0.0025398093 -0.0020446815 0.0018008575 -0.0034108183 -0.0002262689 -0.0028890034 -0.0016849706 -0.001947362 -0.0037604982 -0.003364058 0.0010919592 0.00291936 0.000549639 0.00078678946 0.0029608798 0.00260503 0.0043940265 0.0015727885 -0.00019223454 -0.0015704465 0.002359388 -0.0015923777 0.0006915012 -0.0021384226 0.0023906901 -0.00236856 0.00027748523 -0.00068587257 0.0045303362 0.0006059188 -0.0028125155 0.00084515195 -0.0004566726 0.000105028215 0.0016224476 -0.0061214627 -0.004134171 -0.0008326757 -0.003907719 0.0006029675 0.0032562607 -0.0021218308 -0.0014723288 0.00026170694 -0.0018656785 0.0024193518 0.003040568 0.0037295073 5.0258997e-05 -0.002898715 -0.00083243253 0.0029092391 0.003931856 -0.00010372355 -0.0020968213 -0.0008693865 -0.00057504803 -0.0009083868 -0.00078585814 0.00068932667 -0.0009448691 -0.0033925201 0.0017686102 0.0044898656 -0.0019847779 0.0030276538 -0.0022220877 -0.0020147555 0.0013676377 -0.0037674133 -0.00047334292 0.0009763079 0.0043649725 -0.0006538471 0.0036280102 0.0043045636 -0.0004083977 0.0036702333 -0.0010515583 -0.0020928248 0.00020277631 0.0015187045 0.0023523376 -0.00035044603 -0.0042068013 -0.0031973969 0.002241865 -0.0033682876 0.00076288194 -0.0031866848 -0.0029999877 0.0036150324 0.0009736148 -0.0020178657 0.0012028156 0.0016694306 -0.004633342 0.0007802772
172.016.117.052 -0.004051293 0.001216494 0.00321034 0.0018755544 -0.006060178 -9.0056565e-05 0.002857907 0.0021322716 -0.0048779873 0.003848385 -0.00024513158 -0.0012040116 0.0018769787 0.0058040107 -0.0049407417 0.0019369926 0.0018300088 0.0007899163 -0.0060945954 -0.0022817785 -9.342756e-05 -0.0027426484 0.002900377 0.0037271222 -0.0013721671 0.0040306 0.003479994 0.0018584447 -0.0017803633 -0.000584943 0.0036458275 0.003850805 -0.0021403602 0.003154897 -0.0019683475 0.0016286209 -0.00096939213 -0.0031366516 -2.4543777e-05 -0.003493188 0.0021976253 -0.0012442266 0.0037667714 -0.004025566 -4.1542036e-05 0.0014299264 -0.00039557996 0.0050715893 -0.0019157772 0.0015689032 -0.0016161873 0.0020968392 0.0018839268 -0.0034116642 -0.0023424593 -0.0026365211 0.004534609 0.0033435707 0.0019046746 -0.0051270653 0.0006088875 -0.00019799377 0.00030770164 -0.0034418819 0.0019075453 -0.0050497795 0.0020488924 -0.0047298665 -0.0007096909 -8.855254e-05 0.00016393942 -0.0015076075 -0.0012743268 0.0044045495 -0.0032269028 -0.00038609968 -0.0006969605 0.003374561 0.0022101437 0.004023272 0.00022274422 0.00019938374 0.0067029907 -0.0025843633 -0.0036133397 -0.0020575307 -0.0016454535 0.0011797342 -0.001424897 -0.0011873343 -0.0018608106 -0.0017479942 -0.0006539053 0.004825268 -0.0017598942 0.0018576271 0.0016815821 -0.0013066579 -0.005010599 -0.004099311 -0.0009899242 0.0035959375 0.002716355 -0.0011864135 0.002545949 0.0016196077 -0.0010228264 0.003683655 0.0023090697 0.0024018437 -0.0020689548 -0.0010367596 -2.2572713e-05 0.0028291983 -0.00066173065 0.0014195782 -0.0014499066 -0.0033967092 0.0009855817 0.0025888877 -5.5075943e-05 0.0028908043 -0.001970646 -0.0045990357 -0.0019350862 0.002991454 -7.164723e-05 0.0038804975
172.016.112.149 -0.0028135236 -0.0032326789 0.0018249492 0.0028441888 -0.0011011405 -0.0020453173 -0.00029561896 0.0003895593 0.00207033 0.0018779858 0.0032372535 -0.002528987 -0.003564069 0.00049303623 0.00094255497 4.058839e-05 -0.0017137004 0.002315312 -0.0054010376 -0.0034763226 -0.0016660049 0.0021236578 0.00065978244 -0.001109907 -0.00023453611 0.0026130849 0.0040256944 0.0010756487 0.002630369 -0.00018272764 0.0015599764 0.0009813368 -0.00079687475 -0.002705383 0.0046490985 0.000950429 -0.0016596525 -0.0008248866 -0.0009816177 -0.002716097 0.0049860603 0.00057662185 0.0030937474 -0.004882812 0.0022380464 -0.0018873737 0.004415076 0.0013518386 0.0031513087 -0.002065558 0.002404888 0.0028405446 -0.0019007158 0.003680787 0.00031916698 -0.0036660582 0.0013262194 -0.0012433053 0.0032516373 -0.00028775306 -0.0009047504 0.0016145862 -0.0005666043 -0.00031977598 -0.0005615721 -0.00084248325 0.0025165246 -0.004546779 -0.0029293112 -0.00010384561 -0.0022755712 -0.0020776747 0.0022303695 0.0019133682 0.001983217 -0.0026186244 0.0038564696 0.003868783 -0.0014137715 6.857292e-05 0.0006827677 -0.0015143361 0.0009649923 -0.00398081 0.0012464463 -0.0037205403 0.0042131124 0.0052262344 -0.001350165 -0.005171895 -0.0016084337 -0.0024423234 8.4102125e-05 0.002763071 0.0023395084 -0.0007892831 0.00078744465 -0.0029766299 -0.0035286758 0.0015212501 -0.0028970332 -0.0019789152 0.0009798871 -0.0012008409 0.0035237945 -0.0016634318 0.000601024 0.0011114827 0.0013555827 0.0024240287 -0.002321509 -0.002672444 0.00014636453 -0.0017674563 0.0003998153 -0.0032294865 -0.0015260868 0.0027341929 -0.00031443732 0.0033416054 0.0033418727 0.0012779195 0.0008928991 -0.0031889575 0.001889185 0.001289245 -0.0030568854 0.0007800653
010.020.030.040 -0.0020781546 0.001813747 0.0033623127 -0.0052508814 -0.0075463 -0.0016747145 -0.0021326845 -0.0024460584 -0.005558432 0.004498189 -0.001448334 0.0054646814 0.0009059287 0.0043437495 -0.0032647743 0.003068928 0.0016796947 0.0009831878 -0.0024937508 0.0018347823 0.00074362446 0.0018343362 0.0017347725 0.004713881 0.0040898435 0.0009939059 0.0061643384 0.00083630084 -0.0014282523 -0.0011646025 0.002354666 0.0044162776 -0.0023752102 -0.0017233605 0.00459201 -0.0036278896 -0.00027328878 0.004481337 0.003170433 -0.0052806595 0.0035805989 0.0050801947 0.0003479775 -0.0065469276 0.0035762466 -0.0014784365 0.0018301676 0.00139604 0.0012592303 -0.00097497425 0.0012976981 0.0018542472 0.0036545596 0.0013678464 -0.0011039829 0.0029736573 0.0013562704 0.000613126 0.003993879 -0.004158091 0.0013529651 0.00043622695 0.002801923 -0.0034284452 -0.0020372227 -0.006592681 -0.0036114897 0.0015165788 -0.006127947 0.0005123617 0.0033442245 -0.0006255598 -0.0032926002 0.004760688 -0.0018560337 0.0024072798 -0.002443246 0.00066707126 0.0012707642 0.00072778703 0.0032345862 -0.0016478468 0.00036745128 -0.0056065097 0.0018088458 -0.0033684806 0.0017852199 0.0046384 -0.0024360614 -0.0062046666 -0.00026377954 0.0011411045 0.004602932 0.0032513663 0.002052235 0.0044412594 0.002018175 -0.0049343933 -0.004065995 -0.0025142538 0.0011610246 0.004887765 0.0031265588 0.0006198961 0.005638059 0.0031385352 -0.0024057291 0.0028785288 -0.0009796766 0.002777096 -0.0020987145 0.00086931704 -0.0029857943 -0.0024505341 -0.0029348168 -0.00011892203 -0.002117208 0.00022137148 -0.0007922581 -0.0044542337 -0.0018522351 -0.0029549792 1.9497122e-05 -0.0035674155 0.0016503958 -0.0023961454 -0.0054102847 0.0029744292
172.016.115.234 0.0006253455 -0.0029742452 -8.134463e-05 0.0025912332 -0.002218363 -0.0014814455 0.0019237457 0.00016897768 0.0019159467 0.0010378598 0.00052357785 -0.0021344288 -0.0030013814 0.0007244078 0.0014397287 0.0017902121 -0.0017186723 0.00042437075 -0.0009313715 0.002326039 0.001296289 0.0028028195 0.0002670997 0.00088413904 0.0010588415 -0.0009036107 -0.0028625997 -0.0010013743 0.0023588128 -0.0018181672 -0.0006984189 0.0030374215 0.00209067 -0.0025125088 0.0010461357 -0.002279062 0.002796892 -0.003411149 0.0016769501 0.0012603124 0.0021613894 0.0022098406 0.0021257056 0.001375547 0.002310671 0.003995781 0.0027853379 -0.0007794815 -0.0012372625 -0.0018444281 -0.0031627337 0.0004192735 0.0008227677 -0.0019966478 -0.00044129248 -0.00084560754 0.003083302 -0.0005542909 0.002742364 0.0011845804 -0.0020315002 -7.041969e-05 -0.00368593 -0.0027803297 -0.0032338635 0.0007927574 -0.0011864272 0.002252287 -0.0007063246 0.0036200704 0.0002955981 -0.0015618535 0.0015556071 -0.0016188009 -0.0011602294 0.0007620358 -0.0034978914 -0.0011747631 -0.0010925675 0.002847572 -0.0029805352 -0.0038481809 0.0028693175 0.0010553903 0.0022903834 0.0034511369 -0.0022499587 0.0027284317 -0.00021295535 0.0006950798 -0.002596693 -0.0024953329 0.0040647117 -0.0023083035 -0.0032296714 0.0028770126 0.0030780088 -0.00026990002 0.0026910373 -0.0010947358 0.000784336 -0.0024077117 -0.0012120127 0.0023440032 -0.0027050904 -0.002214139 -0.00035660685 0.003557867 0.0013993153 0.0014711575 0.0021549042 -0.0036507735 -0.0026682813 -0.0012324583 -0.0025113935 0.00058630464 -0.0027952748 -0.0020186093 0.003515043 0.0027403948 -0.0018859187 0.0025245342 -0.0014950009 -0.0004115525 -0.00069227826 0.0005070738 -0.0035382297 -0.0014974143
172.016.114.168 -0.0045865704 0.0013708724 -0.0031302737 -0.0046743043 -0.0061551835 -0.0039203563 -0.0036688088 0.00056350656 -0.0059601227 0.00050994236 -0.00015773436 0.00055715244 0.002904166 0.0030302736 -0.0036082754 0.003187032 -0.0031387217 0.0055853953 -0.0069765965 0.0028207167 0.0020017126 0.0027007114 -0.0014095 0.0014973918 0.0031062884 0.0019342665 0.0020159604 -0.0025503645 -0.0015311876 0.00024368323 0.0036786185 0.0029126212 0.0008278697 -0.0021504136 0.004107643 -0.004078658 0.001094568 0.0022236812 -0.0016324067 -0.0016117394 -0.00045412156 0.0050005387 -0.0016734877 -0.0042272788 0.0019932955 -0.0011072351 -0.00097026885 0.002412647 0.0016324226 0.00082781585 0.00088352966 0.0022392762 0.0057779704 -0.0010165623 -0.00043951586 0.001334232 0.003758122 0.0023466956 0.0013259267 -0.0061912015 0.0030655565 0.0010168329 0.0028953778 -0.001735203 0.00086389936 -0.0015573618 0.003013388 -0.004440515 -0.0009386185 -0.00060741266 0.0011334375 -0.0029214807 -0.00049031654 0.0032715963 0.0001972167 -0.0039796876 0.0015078209 0.0012343263 0.002986834 -0.0004866566 0.0032612828 -0.0021880406 0.0015802969 -0.0023929533 -0.00091543497 -0.004837156 0.004689172 0.0061468636 0.0024587202 0.00051066355 -0.0024398346 0.0022914705 0.004996842 0.00028003653 0.0030222503 0.00035377 0.00035034458 -0.004363965 -0.004873803 -0.0016175696 0.003203265 0.0007643951 0.0050140605 -0.003530297 0.0033440616 0.005097391 -0.0064885993 0.003298302 -0.0034505452 0.0006645833 0.00292405 0.003320963 0.00054319564 -0.0008798433 0.0012751475 -0.0003502009 -0.0005961878 0.0001795372 -0.0029629671 -0.0010271025 -0.001739164 -0.0013778197 0.0038694844 -0.00110596 -0.0021125467 -0.00018775115 3.560458e-05 -0.0029560444
208.240.124.083 0.00028100534 -0.0032260523 -0.0025868972 0.00285726 -0.0035680118 -0.0036466345 0.0020701129 -0.0034162395 -0.0017578312 -0.002941792 -0.00081641163 0.00055811834 0.00033886998 -0.0005259606 0.00073172845 0.0012027506 -0.0039976942 -0.0015873677 -0.0046093194 0.00036189056 -0.003075355 0.00073637045 -0.00031032533 0.0031874639 -0.0005936874 -0.00038905372 0.003560237 0.0017467521 0.0021798015 0.0027958604 -0.0008802757 0.002060396 0.0026629535 -0.0014635263 -0.0012000339 -0.00223746 0.0006804882 -0.00022288502 0.0027485855 0.00076004583 0.0011923013 0.0028641508 0.0018551328 0.0011772024 0.002694657 -0.0008730802 -0.0026010976 -0.0014949843 -0.0022130404 0.0016288372 -0.0023673228 -0.0020288764 0.0020193679 -0.00015256558 -0.0006783767 0.0010001388 0.0035670018 -0.0026626203 0.0010878847 -0.0020800242 0.0025612628 -0.0029003364 0.0021781574 0.0013868189 0.0015300638 -0.0010917155 4.643506e-05 0.0009506444 -0.002461926 0.004464189 0.0023933847 0.0016677496 -0.0017773028 0.003963051 0.002667971 -0.0019142329 -0.0026080222 0.0040087523 -0.00083271344 -0.0006644938 0.0010666542 0.00020283446 0.0044186446 0.000858561 -0.000114104754 -0.0003065195 0.0015933393 0.0025971811 -0.0029099805 -0.0009678828 -0.0015157986 0.0030029623 0.0034273812 0.0022635483 0.001255513 0.0032709697 -0.00097561127 -0.0008634995 -0.0002386705 -0.0024698693 0.0014232519 -0.0012154484 -0.0021300828 -0.00075032475 0.0030115785 0.0028488343 0.002136127 0.0009879096 -0.0013610825 0.001742324 0.002091846 0.0034040536 0.0010890253 -0.0012374048 -0.0009367657 0.0022387176 0.003129423 -0.0023182605 -0.0020518715 0.0014948355 0.002529066 -0.003375874 0.0015577022 -0.0031091648 -0.003310256 0.001998061 -0.0035403448 0.0022809587
192.168.001.090 -0.005028445 0.0015664257 -0.0013870931 -0.003685552 -0.0043050726 -0.0054814722 0.0008622478 0.0025241352 -0.002379369 0.006622441 -0.0011282354 0.002175965 -0.004682171 0.007820336 0.00092529005 0.0021016714 -0.0030521927 0.0056390692 -0.0022928368 -0.00039483182 0.0017186119 -0.003118383 -0.002254216 0.003839628 0.004080882 0.0026709696 0.0033183596 0.0028585326 -0.0006045599 -0.0022118397 -0.002790839 -0.0007785158 0.0036116103 -0.004456247 0.0026765263 -0.0033358838 -0.0018178279 0.0016816868 -0.001612392 -0.0015596729 0.0024413392 -3.203997e-05 -6.206295e-05 -0.002815262 0.0010213318 0.0031645647 0.0046343994 -0.0007208333 -0.001918466 -0.0067044375 0.002498909 0.0025174164 0.0016821639 0.0029531792 -7.344286e-06 0.0003961907 0.0007442011 0.0010736688 0.0045202463 -0.009722131 0.0040998072 0.000512981 0.0018322902 -0.0018405195 -0.0005929935 -0.0067001157 0.0003286361 -0.0019126704 -0.003255058 -7.745164e-05 0.0014523015 -0.0004988948 -0.0053097447 -0.0007785162 -0.0031215493 -0.0014551656 0.0018301752 0.006417181 -0.0021971667 0.0011612298 0.0056361994 -0.0032709087 0.009103496 -0.0066006943 0.0011728168 -0.0049508656 0.0037132194 0.0076266127 -0.002153866 -0.006552669 0.0015523776 0.003950055 0.00069104903 -0.00022723904 0.0016858268 0.00022395165 0.0012192338 0.00032809388 0.0012476107 -0.00023659469 -0.00328588 0.005265762 0.0055464148 0.0013888596 0.005701394 0.0043080966 -0.0002639476 0.0042287335 -0.00010348801 -0.00027981988 -0.00057905196 0.003679956 -0.000756987 -0.00022109396 -0.00031017847 -0.0014037398 -0.001578077 0.0017379541 -0.0014916928 -0.0004319356 0.0027646832 -0.0017420042 2.1126441e-05 -0.0059157317 0.004762379 -0.003776774 -0.0028304604 -0.002662118
172.016.113.084 -0.006490901 0.0025999215 -0.0035879854 -0.00077653513 -0.0067892014 -0.0018327532 0.000480694 -0.0030672732 -0.004716101 0.00494777 0.0016923477 0.0052800244 0.0023912513 0.003234917 -0.0014401098 0.0003557435 -0.0016290792 0.006735311 -0.002938504 0.0017170947 0.0050567053 0.0035496708 0.0029399316 -0.0008946026 -0.0015475923 0.0001610858 0.0051984084 0.0014675886 -0.0018594862 -0.0018899745 -0.001094264 0.003108011 0.0035520024 0.0016500512 0.00328227 -0.004296424 0.003992278 0.0010610732 -5.4683143e-05 -0.003015024 0.0070227617 -0.00084452564 -0.00033828983 -0.002449999 -0.0001429069 -0.0027872603 0.003531507 -0.0008941289 0.0015173759 -0.005966083 -0.0011598556 0.0006353922 0.0059518493 0.0009006924 0.00059978664 -0.0033019069 -0.00082904927 0.0012809304 0.004424653 -0.008734615 0.00022751377 0.0018380301 0.0014969329 0.0009719471 0.002245397 -0.00590568 0.00055854546 -0.003995825 -0.00062947033 -0.00018862699 -0.00019211869 -0.0036306214 -0.0054209307 0.00058652135 -0.00088179007 0.0008551219 0.00014159258 0.0054755937 -0.005205887 0.0014752699 0.0027689605 -0.0036081572 0.0029904584 -0.0057111476 -9.57952e-05 0.00019035139 0.0035145609 0.00038810173 0.0051514916 -0.007032909 -0.0018025446 0.004376678 -0.0015908424 0.004076072 0.0046415417 -0.0007700814 -0.0035692481 -0.0010956507 0.00085818215 0.0010508157 -0.0027115936 0.00028290373 -0.00024674594 -0.0033732848 0.0032656034 0.0033936566 -0.004110413 -0.003296679 -0.0017751533 0.002244619 0.00019587137 0.0020295933 0.0012571194 -0.0017897843 -0.0038981137 -0.0004906781 0.0020912164 -0.0017750671 0.004332718 -0.0027594112 0.00084104366 -0.0017974856 0.0057447245 -0.0055208444 -0.0012777842 -0.0013585937 0.000385802 -0.0001182158
197.218.177.069 -0.0042092567 -0.0030775173 -0.0013314448 -0.0031924185 -0.003793483 0.0017096058 -0.00025605998 -0.00020120981 -0.0035986458 0.000315753 0.0034360625 0.0044990736 -0.0034504025 0.0018284363 0.0001682216 0.0012276159 -0.0009564499 0.00022461444 -0.0067172507 0.002701477 0.002142834 0.0010384038 -0.0032448124 0.0034337505 -0.002690638 0.002138448 -2.7322734e-05 -0.0015431404 0.001679772 -0.0012808599 -0.001981272 0.0009135361 -0.0018849347 0.0014955237 -0.0019585788 -0.00057081116 0.0026283702 -0.0009041326 0.00070301536 -0.00027157523 -0.0006770747 0.0036764366 -0.0019445494 0.0013854161 0.00071351056 0.003126892 -0.0002616518 0.0003091116 -0.003581429 -0.0028789903 0.0019805497 -0.0023544184 0.0038211532 0.00029146945 -0.0011352033 -0.0013324134 0.0012084937 0.0024249346 -0.0012486273 -0.0054554297 -0.0028229035 0.00019677475 0.001663971 -0.002964572 0.0013421896 -0.003633722 -0.0033018251 -0.0007559712 -0.000120263925 -0.0024604131 0.003078232 -0.0021860627 -0.0029001255 0.004509614 -0.004233564 -0.0023187785 0.0018765681 0.0013655163 0.00076984795 -0.0004125581 0.0030248505 4.9306516e-05 -0.0007832561 -5.7036872e-05 -0.00090571714 -0.0010780519 0.003483397 -0.00074644195 0.0016626595 -0.003908684 -3.2843876e-05 -0.0013685353 0.0018713375 0.0028865768 -0.0027263605 0.0017851338 -0.0008593117 0.0014958336 -0.005021415 -0.00046624034 -0.003709057 0.0013007872 0.0027496885 0.0020986134 0.00041994956 0.004175932 -0.005865806 0.00066226756 -0.0011475 0.00268286 -0.003418384 0.00017802679 0.0027794312 0.0028995133 -0.0016557584 0.0012886794 0.0030209175 -0.0020676062 -0.0013704867 -0.0018371692 0.0031554475 -0.0012879907 0.004846257 -0.0004129761 -0.0023340215 -0.00218976 0.00273434 0.0013531725
172.016.115.087 -0.0044622766 -0.0008325368 0.0018618884 0.0009276907 -0.002397374 0.00028806285 -0.0038591071 -0.00047587266 -0.0018731579 -0.0020930592 -0.0012428006 -0.0014958151 -0.0018304224 0.0018754227 0.0024969713 -0.001579387 -0.0019642313 0.0024850483 0.0013458546 -0.0017452539 0.003833651 0.0010773125 -0.0021917142 -0.0025842227 -0.0020678525 -4.767935e-08 -0.0015785014 -0.0026871737 -0.00090785814 -0.0010323433 -0.0012694752 -0.0014559327 0.0035348358 -0.0031128107 0.0016874596 -0.0033522365 -0.0003545947 0.00048837264 0.0009681711 -0.00036327253 -0.0023580575 -0.0016389192 0.00021819316 -0.0005796972 -0.0019054646 -0.0026469384 0.004235133 -0.00271755 0.0010337903 -0.0016719825 0.0038917414 -0.00027049426 0.0025255745 0.0039067757 -0.0038969486 -0.0013656947 -0.0027011107 0.0033669244 -0.0013295419 -0.0015087842 6.5141096e-05 0.0032477216 0.0022603928 0.0010658433 0.0009662621 0.0011312724 -0.003403383 -0.0013959052 -0.0027862214 0.0020319596 0.00091808126 -0.00097637274 -0.0022071223 -0.00086743885 -0.0026797438 0.0025125437 -0.000686253 0.0014214488 0.0017317892 0.002412802 -0.0014685901 -0.0028409853 -0.0019697258 -0.002932446 -0.0020310786 -0.0013797565 0.0010458364 -0.0023175129 -0.0013837008 -0.0019698965 0.0013229147 0.0036143921 -0.0026691468 0.0024863477 -0.0015197136 0.0026285073 2.5058544e-06 0.0012807678 0.0013915108 0.0023298948 0.001604349 -0.002624684 0.0015630638 -0.0011001385 0.0022368366 -0.0005227407 -0.001023263 -0.0031315596 -0.0010086955 -0.0014557507 0.0019545725 -0.00039614536 -0.0024319068 0.001558666 0.0021733132 0.0029725253 0.00293066 0.0025847233 8.665628e-05 -0.001428993 -0.0014320783 -0.00044714153 0.0028193083 -0.002600232 0.002516633 0.0032600462 -0.0025942458 -0.0035919289
