32 128
196.037.075.158 0.0005096872 0.00075225544 -0.0035485178 0.00063702016 -0.003019983 0.0030586477 -0.0024083 0.0029046182 -0.0038877227 0.0010957994 -0.002033536 -0.00039644097 -0.0023654294 -0.0003588029 0.0019424425 -0.0019964464 0.0020664176 0.0019658497 -0.0022036326 -0.0007327179 -0.0036301212 0.0027299975 -0.001895369 0.0034520165 0.0035773749 -0.002444445 0.0030646576 -0.00070226024 0.0007277243 -0.0037125275 -0.0016988257 -0.0026880817 0.0035527747 -0.0013251423 0.00020538496 -0.001249777 0.00011704053 -0.0035316306 -0.0009432112 -0.0037287117 0.000743633 0.0033806663 -2.8935701e-05 -0.0014669788 -0.00021063737 0.00062239455 0.003437057 -0.0015733279 0.0019546126 0.0025518448 -0.0014407231 0.00090232154 -0.0015989117 -0.0031899735 -0.0025353741 -0.0031364998 -0.0024902055 -0.0006875107 -0.0014996005 -0.0016036084 0.0016795875 0.00060156465 -0.00019896608 -0.001784807 0.0016315961 -0.0038254487 -0.0022702478 -0.0026351437 -0.0020792205 0.0007353093 -0.00060684554 0.0014041179 -0.0022116483 0.0029286782 0.0026553723 -0.0018565358 0.0020591281 0.0006728307 -0.0028967808 0.0023942017 0.0029679015 -0.0034234396 -0.0033221545 -0.0029334065 -0.00020869098 0.0002748934 3.970842e-05 0.00072678446 0.0034802435 -0.003885846 0.0030528856 0.0025002232 -0.0010530457 0.001439248 -9.2814385e-05 -0.00071240286 -0.0034829895 5.0089042e-05 -0.0020084865 0.0015517588 -0.0036320789 0.002985861 0.0027758318 -0.0028724314 -0.0029449824 0.002916047 -0.0038866338 0.0010253998 -0.0028658563 -0.0027773743 0.0030654434 -0.0027071438 0.002284881 -0.002511349 -0.0026890007 0.0037999502 0.0026557897 0.0030104842 -0.0036175956 0.0020443161 -0.00031664156 0.00084150565 0.0013719869 -0.0036101523 0.0030582848 -0.0037443878 -0.0019101219 -0.0023620995
192.168.001.001 0.0004145776 0.0015956843 -0.00027163883 -0.0013175482 -0.0033012948 0.0016861543 -0.0030120884 0.002224243 -0.0015764768 0.0022062866 -0.00070241705 -0.00018751991 0.0001593586 0.0026804497 0.00019985379 4.751974e-05 -0.0035366858 0.003873513 -0.0037014445 0.0029134906 2.595164e-05 -0.0013485928 0.001722024 0.0014783359 -0.0033965467 0.0010050087 0.0019345203 -0.002993797 2.741271e-05 0.0008305362 0.0026011064 0.0030535634 0.00070389785 0.00033693024 0.0021970135 -0.00039025978 0.0015183921 -0.00052039494 -0.002185356 0.003242965 0.0027761783 0.0023163504 4.0720715e-05 -0.0032000123 0.0024258974 0.0003467052 0.0017304141 0.0028095124 -0.00387046 -0.0027901859 0.0036777097 0.0032707797 0.001890615 0.003228255 0.00020879977 0.0024253759 -0.0016930471 -0.0027408418 0.0024597235 -0.0038575837 0.0019200642 0.00078934594 -0.0006807273 -0.00024185852 -0.0026823813 -0.0037641227 0.0021390833 -0.0037812092 -0.003262146 0.00015805865 0.00012850088 -0.0030574684 -0.0035189218 -0.00028687398 0.0016069058 -9.4226e-05 -0.00290235 0.0037256815 -0.0015071961 0.0017287763 0.002983195 -0.0037297045 0.0021785665 -0.0004957906 -0.0014644468 -0.0015882304 0.002355583 0.0027982867 0.0027452488 -0.0016974321 0.0001345995 -0.0007765903 0.0022123642 0.003269267 0.0033301113 0.0019887313 0.00022134301 -0.0038950236 0.0022177831 -0.00086807366 -0.0022040296 0.0026937048 0.00036481593 0.0031532291 0.0027342285 0.0020516254 -0.002558854 -9.045751e-05 -0.0025150885 -0.0024747883 -0.002132839 0.0009595374 0.0008900929 -0.0014458972 0.0020266431 0.000114069735 0.0034310562 -0.0019089183 0.0011375926 0.0007653766 -0.0024959082 0.0017087765 0.0029883655 -0.00072984706 0.0013412869 0.0027163913 -0.0016153353 0.0023864245
192.168.001.010 0.0022053127 -0.0031194326 0.0012978112 0.0029328843 0.0036644232 -0.0032938186 -0.00027706785 -0.00361131 0.002871473 0.0018854495 0.002898852 0.0008699946 0.0002103848 0.00018311477 -0.001619564 0.0032797402 0.00014912439 -0.0029168297 -0.0033946421 -0.0031768586 0.0018597664 -0.0018477571 0.0026457678 -0.0014021978 -0.0013844805 0.0027451988 -0.0010433882 -0.00031431596 -0.0012581686 0.0018397326 0.002111071 0.00085978163 0.002223027 0.00348808 0.0037431752 0.0013264691 0.0007612278 0.00092731963 -0.0030196332 0.00082883565 0.0011812155 -0.0007547554 0.00021202907 0.0015061132 -0.0022799878 -0.0028194517 -0.0024283233 0.0013768019 -0.0011907117 -0.003787128 -0.0020254478 0.001455534 -0.0019620701 0.0031332872 0.0002930156 0.0030222617 -0.0013200876 0.0024206983 -0.00037233398 -0.003390599 0.0011841232 0.0028614874 0.0029287508 0.0015240187 0.0023356609 0.0022868642 -0.00073188846 -0.0010729787 -0.0006752496 0.0037406646 0.0030297244 0.0016602126 -0.0032644172 -0.0025455044 0.00030606167 -0.0025586705 0.00019420723 0.0006064389 0.003353016 0.0037647665 0.000962555 -0.0018587486 0.0031280096 0.0009297058 0.0016039117 0.0029366633 0.0037727663 -0.0023888221 0.0037277131 -0.00010525097 0.0014454222 -0.0015772359 -0.0026032673 0.0029782963 0.0033837492 0.0035225428 0.0030631933 -0.002305725 -0.0027287165 0.00018021274 0.0015313331 -0.00064095 0.00022933539 0.0014662205 0.0001733253 -0.0032250686 -0.0021034237 0.0028000898 -0.0010108246 0.0006592495 -0.0012571987 -0.0018577517 0.0030961912 0.0018477347 -0.00010820999 -0.001798474 -0.002233354 -0.0004210844 0.0015437724 -0.0028083688 0.0011550133 0.0033258202 0.00034706542 -0.0007510118 -0.002675081 -0.0030617183 0.0025289052 -0.0028014998
172.016.114.169 0.0026296084 0.0030978974 -0.0009507863 0.0038719987 -0.002666951 0.0012468237 0.0021234734 0.0002000985 -0.0025720438 0.0036498087 0.0025647567 -0.0027218624 0.0027647656 -0.00011130784 -0.00010370467 0.0013177112 0.0037872922 0.0015394841 -0.0028841465 0.001465736 -0.0017975617 0.0006442797 -0.0019542845 0.0028300283 0.00019510351 -0.0006373777 0.0036597438 0.0021521137 -0.003518454 -0.003542308 -0.0027079768 0.0034387882 -0.002977466 0.0023172766 -0.001903971 0.003517268 0.00061618 -0.0020604206 0.0002682031 -0.0009581001 0.002665632 -0.0016177831 -0.0017530563 -0.0025434983 -0.0005490606 0.0005139674 0.00055888126 0.0033639218 0.0014972562 -0.002854955 0.0032408834 0.0035791383 0.00015595609 -0.0011645898 -0.0009807356 0.0025219705 -4.9703547e-05 -0.0020993068 -0.003673439 0.00040485224 -0.0018477126 0.0014750417 0.0012165661 0.0034193783 -0.0016975935 0.0035512294 -0.0022418902 -0.002656946 -0.00076198915 0.0025812169 -0.00023919088 0.0018430821 -0.0011230159 0.0014129322 -0.0013691094 -0.0032532718 -0.0026686096 -0.0009776162 0.0024269978 -0.0033690857 0.0028068959 -0.0009037529 0.0021938107 -0.0012810752 0.00037324164 -0.0019331997 -0.0038939833 0.0026165366 -0.0028310574 -0.003424905 -0.0022530942 0.0008325461 0.0030487336 -0.0018315952 0.0026971842 -4.486267e-05 -0.0012091029 0.0031749357 0.0034820016 -0.0030807736 -0.0020902993 -0.0031821714 0.0038662767 0.0015648288 -0.00047814898 0.0008506789 -0.0032282015 -0.003671811 0.003859587 -0.00048932974 -0.000847754 -0.0029843766 0.00044329022 -0.0027414314 -0.0011152931 0.0016691547 -0.0029958629 0.0029044854 3.0906638e-05 -0.0008836124 0.00027968836 0.0016216765 -0.0027223974 -0.003255478 -0.0015634164 0.00046401896 0.0038039754 0.0022151477
172.016.114.168 -0.002374758 0.00051443605 -0.0028538802 -0.0030178728 -0.0020509185 -0.0017358519 -0.003341714 0.00040502535 -0.003021457 -0.001771881 -0.0007372019 -0.0019637635 0.003538293 -0.00022547547 -0.001764583 0.0038991666 -0.0019702723 0.003429033 -0.0022250118 0.0029560826 0.00083301525 0.0021759341 -0.0023811695 7.399025e-05 0.0023226184 0.0014247774 -0.0013228953 -0.0024494168 -0.0007709091 0.0014069406 0.0035310541 0.0013184169 -0.00076030893 -0.0012558353 0.0023272503 -0.0021190378 -0.00018907688 0.0013978239 -0.0010418594 0.000116501884 -0.0030416076 0.003447278 -0.0014641794 -0.0002887558 0.0019295292 -0.001840878 -0.0023846072 0.00012714759 0.0026505548 0.003044177 -0.0010758806 0.00075246574 0.0028959417 -0.0017066952 0.00049216615 0.002457759 0.0021381113 0.0027560513 -0.0003686761 -0.0013972119 0.002069063 -0.00044165755 0.0017931205 1.4896717e-05 0.0010939016 0.0022855145 0.003534319 -0.00209495 0.0017098052 -0.0023625903 0.0008005782 -0.0022484749 0.0025329613 0.00065929384 0.0024270192 -0.002931998 0.0013284629 -0.0015430619 0.0038590338 -0.0013348677 0.001521843 -0.0012633249 -0.0026561604 1.9968113e-05 0.00010957003 -0.002722033 0.003702753 0.0026371463 0.0012388299 0.0035318737 -0.0033473335 0.001839642 0.003741173 -0.0013369289 0.001455671 -0.00057362026 0.0010708321 -0.003215829 -0.0030167056 -0.0006045227 0.003365829 -0.0008596908 0.0024133374 -0.0026003157 0.0010646338 0.0015375264 -0.0032876458 0.0027000254 -0.0032875468 0.00039321472 0.0023094406 0.0029928752 -0.00041906818 -0.00021150021 0.0035732647 -0.00040816786 -0.0017241654 0.0010520703 -0.0038358958 0.00017175483 -0.000956825 -0.0017726414 0.0021842576 0.0011966503 -0.0028941862 0.0002049329 0.0015816699 -0.0034264408
207.025.071.142 0.003254364 0.0024553929 -0.00031665797 -0.000747762 -0.00075386494 0.0021740978 0.0016100452 -0.0024969736 -0.0034602506 -0.002846019 -0.00043907156 -0.002899033 0.0025931778 -0.0010842808 0.0011643114 -0.003682512 -0.0017119519 0.00019934509 -0.0036003205 0.0010189151 -0.0011897683 0.00040748654 0.0007737887 -0.0012469961 -0.00016125888 0.0033225992 0.0033670352 0.0024824592 -0.0036574153 -0.0034914687 0.003202324 0.0031720211 -0.0011053067 -0.0027964497 0.002325165 0.0005634388 0.0020240583 -0.0021465088 0.00035544118 -0.003245568 0.002260137 -0.00030870605 0.0014771323 -0.0011682586 0.0021935164 0.0032329878 0.0017913644 0.0012026989 0.0011007693 -0.0025669457 0.0014246298 -0.0021746093 -1.1478676e-05 0.0032293492 -0.0022958517 2.4272204e-06 0.00026526948 0.0027946287 -0.0023177038 0.00083625736 -0.0011869676 0.0026390008 0.002437226 0.002514214 -0.00091364206 0.0007302217 0.0038426477 -0.00043056114 0.0026191073 0.0030021272 -0.0025636912 -0.0033631944 0.0037999733 0.0026054934 -0.003693059 -0.0017035343 0.0031302252 -0.0025263575 0.00031046965 0.0006071728 0.0011482919 -0.0015289867 -0.0014030702 -0.0031881684 0.003016422 -0.003395313 -0.000682428 -0.0016845443 -0.0028315727 -0.0030705077 -6.0916536e-05 -0.0033047397 0.0008166861 0.0034329952 -0.0034743175 -0.002487427 -0.000108781875 -0.000274816 -0.0020659848 0.0003851094 -0.0031747422 -0.00036731703 0.0008401731 0.00043759914 0.00035742577 0.0033275445 0.0024334828 -0.003434954 0.0008936688 -0.0038454423 0.0038492354 -0.0029511293 -0.0033271618 -0.00091187085 -0.0010879799 0.003357744 0.00060971826 -0.0032769016 0.001315403 -0.002804859 0.0023909088 -0.00045363605 -0.0019515613 -0.00074339105 0.002332603 -0.0012051021 -0.0020172514 0.0014279131
172.016.112.050 -0.0030110362 -0.0016138834 0.0012806777 -0.00020752124 -0.0025905313 -0.0013007765 -0.002027704 0.0034506447 -0.0036568397 0.00234203 0.00037625278 0.0028311876 -0.0031151976 0.0020437057 -0.0029524704 -0.0014448847 -0.0015046851 -0.0034970408 -0.0019390993 -0.0026674427 0.0016489931 -0.0020971722 0.0034135405 0.001152124 0.0019097973 0.0034421277 0.0038155017 0.0027875702 -0.003842297 0.0010646208 0.00091041747 0.0005362295 0.002201581 0.0025304449 -0.0009482006 -0.0018985795 -0.002284135 0.00084783783 -0.0014103567 -0.00016189911 0.00011991138 0.002327402 -0.003837835 -0.0020125427 -0.0039019727 0.0011953621 -0.0037879986 0.0016216574 0.0004157551 -0.0037110355 -0.0014622046 0.00077931274 -0.0026393018 0.0012361675 -0.0009967027 -0.002915623 0.0019150277 -0.001771156 -0.0003130104 -5.6573906e-05 -0.0009387867 -0.0011847689 -0.0036511726 -0.002100737 -0.000879057 -0.0010799686 0.0035486417 0.0027642727 -4.953639e-05 0.0018130058 0.001643537 0.0028596679 -0.0019050996 0.001169368 -0.002364666 -0.0024795462 0.003513612 -0.00056700653 0.0014077404 -0.0031976234 -0.0033771754 0.0020956702 0.0029173205 0.0024430251 -0.0007245125 -0.002229361 -0.0015511563 0.0036458618 -0.0014067503 0.0022155016 0.0034285898 0.0006622853 -0.0011005686 -0.0013770002 0.000986835 -0.00033436538 -0.0030963568 0.00027960623 0.0003887615 -0.0019791091 0.0038528817 0.0011820591 0.0024779325 -0.0010000711 0.0011625276 0.0008007857 -0.00248764 -0.0021877966 0.0017383333 0.0016492688 -0.0032687879 0.001367295 0.0015798374 -0.0035121397 5.713403e-06 0.0020169055 -0.002003998 0.0025639767 -0.00019362045 -0.0038307395 -0.0015419365 0.000996224 0.0033748297 -0.0012503735 0.00029336105 0.0013147605 0.0009918252 -0.003128836
139.072.190.026 -0.0034882491 0.0013718358 -0.0020256422 -0.0020974257 -0.00285655 0.0015466323 0.0027733068 -0.003874711 -0.0015596072 0.003761289 0.0028584956 0.0021486536 -0.003156894 -0.0002954615 0.0031174321 -0.0012997129 -0.0037908251 0.0006482524 0.0028107231 -0.002354472 -0.0032494853 -0.0037142388 -0.001992383 -0.0035306872 -0.0020487618 -0.0025850583 0.0028630141 0.0012565224 -2.8748362e-05 -0.0038140288 -0.00016121332 0.0010755 0.002694436 0.0012381049 0.0026053335 -0.0002176837 -0.0011859263 0.00026313716 0.00013905455 -0.0012090175 -0.0016243631 0.001442327 -0.001968208 4.7602316e-05 0.0017076378 0.003896348 0.003052194 -0.0027598287 0.003661268 -0.0023879616 0.0032678237 0.000821786 -0.0015235604 -0.00030954534 0.00096644793 0.0005331219 0.0017322726 -0.0016390602 -0.0025932188 -0.00010281499 0.0008244392 0.0014126052 0.0023070548 -0.0016137878 -0.0024448908 0.0010678151 0.0024550597 -0.0009287486 -0.00093669357 -0.0021259796 0.002957624 0.0018437132 -0.00032650624 0.0029731179 0.0002983925 0.0031125166 0.0023856452 -0.001733008 0.0031877228 -0.003186762 -0.0017312877 0.0023447762 0.002878861 0.0006404098 0.0009945654 -0.0033556751 0.001124475 -0.0005772678 0.0027142644 -0.002600559 0.0020466428 1.5440282e-06 -0.0026808598 -0.001973208 -0.0004316286 -0.0008604716 0.0031415387 -0.0038653885 -0.0033036103 -0.00031940188 0.00013530396 0.00092648517 0.0009548322 -0.0008919643 0.0006272144 0.003106089 -0.0037411125 -0.0002568053 0.0029424485 0.0032966286 -0.0012298422 -5.806379e-05 4.8463153e-05 0.0030677305 -0.0019211428 -0.0021441346 -0.0023249285 0.0030387747 0.003535973 -0.0011343334 0.0009870705 -0.0015243827 -0.0012394235 0.002792859 0.00028295052 -0.0006869666 -0.0015618709 -0.003788825
167.008.029.016 0.00025908666 -0.002734245 -0.0024869775 0.0019688793 0.0034761962 0.0030680841 0.0029736126 -0.0014269698 -0.00020717965 0.0026682501 0.0014590585 0.0037343032 -0.0018826738 -0.0038386115 0.003750725 0.0034360457 -0.0033308628 -0.0010041856 0.002331633 -0.0029886186 0.0020965314 -0.0015224315 -0.0031122984 0.0015405345 0.0012000591 0.00011468585 -0.00065247534 -0.0011680878 -0.0014292056 0.0009150465 0.002960381 -0.0015179728 0.0012313172 -0.002889374 -0.0028017722 -0.0022857913 0.0010109494 0.000120549565 -0.0005480167 -0.0017615522 -0.0031266685 -0.001044534 0.001687352 -0.0036905115 0.0025116997 -0.0020039843 0.0023158938 -0.001442258 0.0036980582 -0.0010953248 -0.0035897624 -0.00041061343 0.0037820432 -0.0025298998 0.0035510291 0.0013370091 0.002574353 0.0010483572 -0.0031642178 -0.0037886638 0.0016137891 -0.0012607146 -0.0020443732 0.0016550653 -0.00075593154 -0.0028664519 -6.152923e-05 -0.00093239604 -0.0033716976 -0.0023985913 0.0016191723 0.0022697735 0.00076664303 0.002102575 -0.0020212298 -0.00010584425 0.0010115033 -0.0035054432 0.0028486957 -0.0038176903 -0.00085611484 0.002655941 0.0028298362 0.0012013961 -0.0006821072 -0.0022023886 0.0037280666 0.0022866894 0.003040066 0.0014712168 -0.0030775305 -0.00021983297 0.0018359625 -0.0025549736 -6.571047e-05 7.087204e-05 -0.0035748973 -0.0018164986 -0.0015245546 -0.0029858833 -0.0013018654 -0.0031061175 0.0014860418 0.0016231174 -0.0037801352 0.00078721513 0.0028736743 0.0015737063 -0.0012137392 5.6460798e-05 -0.0006254709 0.000735239 0.003885228 -0.001661354 -0.001734619 0.0025685763 0.0028183688 6.169985e-05 0.0025548725 0.00033264322 -0.003104917 -0.0028983373 0.0005066078 -0.002809823 -0.0014167206 0.0030530873 -0.0030737065 0.0029450112
152.163.210.017 0.0015592123 0.00046216714 -0.001387158 -0.0038525374 -0.00089043676 -0.0017495147 -0.0020103373 -0.0016235566 0.0028915398 0.002082094 0.0017351154 0.0017829499 0.002291831 0.0032793358 0.0008537891 0.00058412756 -0.000398991 -0.001097699 -0.0008021553 -0.0024696125 -0.0030270806 -0.0037556419 -0.0036845172 -0.00037538342 -0.0012468118 0.0014785809 -0.0023721904 -0.0013097806 -0.0013747795 -0.00060725084 -0.0022172767 -0.0038960534 0.0023916315 -0.00079529715 -3.7741887e-05 0.00095723604 0.002545827 0.003636603 -0.0017276144 0.0028198443 0.0036491046 0.0006238946 0.0037686625 0.0028921978 -0.0025829263 -0.0028484163 -0.002770937 -0.0015256979 0.0027585744 -0.0005040359 -0.0029576703 -0.00021533096 0.0026111498 -0.0023954273 0.00032129526 -0.00083489344 0.00035212233 -0.0021200054 -0.0010983044 -0.003015059 0.0034445007 -0.0010677011 0.0011301596 0.0013937553 -0.0012876219 -0.000780952 -0.0003530423 -0.0002625537 0.002900041 0.0012348623 0.0023470132 0.001125157 2.4327206e-05 -0.003323326 -0.00021510203 -0.0011993723 0.00036748414 -0.0020443376 -0.00027588068 0.0032819202 -0.0037951565 0.0025678645 -0.0037002233 -1.6673222e-05 0.00038288912 0.002579164 0.0010988537 0.0015574746 -0.0024454936 -0.0008999596 0.0037284745 0.0030352196 6.874241e-05 0.0031159548 0.0021963865 0.0015760487 0.003727468 0.0021714836 -0.0028464058 0.0022180674 -0.003227742 -0.00066873664 0.0018446166 -0.0033600382 -0.0006386254 -0.0009404894 -0.0016067266 -0.0020580054 0.00041596123 0.0024436747 -0.0026026373 0.002088046 0.0023926513 0.0036731109 0.00073221076 0.0014437949 -0.0024109674 0.00035763913 0.0013739994 0.0032459714 -0.002819736 0.00082624535 0.003489145 0.0012302033 -0.0017120622 -0.00016315989 0.0008351969 -0.003532366
192.225.036.003 -0.00162571 -0.0026147764 0.0029106329 -0.002143704 -0.00077266124 -0.0023489196 -0.0035640188 0.0014731805 -0.0036067432 0.0005465454 -0.00083342375 -0.0018831006 0.0010203341 0.0035229633 -0.0036951343 -0.0023574054 -0.00059634756 -0.0037677137 0.0011919388 -0.0030945826 0.0025409735 -0.0013104384 0.001813842 0.00067371276 0.0009176472 0.0009241994 -0.0018266807 -0.0012998845 -0.0012691944 4.253277e-05 0.0009931558 -0.0010752864 -0.0012368426 0.0031553076 0.0010748657 -0.001319192 -0.0007800652 -0.0016003031 -0.00055312476 0.0024559912 0.0007683839 0.0016977754 -0.00025315612 0.003773309 0.0024031135 0.0011408282 0.0003155738 -0.0034906007 -0.0021045774 0.0037658883 -0.0016372198 -0.0016961296 0.001406547 -0.0033274055 0.0026885353 -0.001083088 0.0024530692 0.0030689063 0.0030075673 0.0018243749 0.0020508363 -0.0016872282 -0.0030726034 0.00015283602 0.0035191826 -0.0037716632 0.002059433 -0.0018773081 0.0027942045 -0.0014755899 -0.0031206291 0.0021601545 0.0020074912 -0.0025494562 -0.0011215612 -0.002714951 0.0034866144 -0.0015179878 -0.0021500632 0.0008246765 0.00038255262 -0.003288696 -0.0022583387 0.002019251 -0.0019688364 0.0015183992 -0.00047638002 -0.0016864444 0.00060247927 0.0025512397 -0.00074811664 -0.0037961567 -0.0018462326 -0.0013912792 -0.00035575297 0.0016525933 0.0011628226 0.003212151 0.0032632933 0.0013763601 -0.0021455553 -0.001725001 0.00018877533 0.0031679866 -0.0029169177 0.001786962 -0.0018036871 0.00077836105 0.0006770842 0.0012146785 -0.000150401 0.0033208407 0.0008662503 -0.0030366355 0.0005311372 0.0006371428 0.0019738215 -0.0037538346 0.0026356045 0.0010275472 -0.00124668 0.0015052472 -0.00198222 -0.0030838356 0.003871769 -0.00070200587 0.0022104199 -0.0027025412
205.180.059.051 -0.00037344988 -0.0009851715 -0.0022864745 -0.00014239829 -0.0003605487 -0.0004461224 -0.00073310774 -0.0015727739 -0.00064626435 0.0021341224 0.0015309862 0.0029085616 -0.0013740627 -0.0036265214 -8.2892955e-05 0.0016742705 -0.0031327044 -0.0024981643 -0.00066485273 -0.0003687604 -0.00051098 -0.00077593245 0.00063683634 0.0037474867 0.0012600775 0.0013860725 0.002747164 -0.00046806768 -9.566941e-05 0.0023163352 0.0019471976 -0.0017261335 0.0011337227 0.0007817802 0.0009796625 0.0026709551 0.002237464 -0.002236868 -0.0005837786 -0.002066872 -0.0019461677 7.55254e-05 0.00072495145 0.0013728491 -0.0038976066 0.0023764633 0.0034877304 0.001122268 0.0034628382 -0.0005744338 0.00016697319 -0.0005208221 -0.001858087 -0.0008462357 -0.00097263645 0.00084524864 0.0019084568 -0.001038472 0.00067222246 -0.0036519691 0.00040833076 0.0007795904 -0.0014338699 -0.0016269574 -0.0014276772 0.0006300499 0.002022963 0.003847496 -0.0029914936 0.0017975076 0.0014614091 0.0011396528 -0.0013277995 0.0022049008 0.0013532996 0.0013842294 -0.0021482187 0.001992031 -0.0013127206 0.002927449 0.002240618 -0.0013865154 0.0016947399 -0.0015623674 0.0007614519 0.0027198752 0.0023115077 -0.0035850615 0.0020721983 -0.0009767627 0.0035904767 -0.00088415714 0.0006790389 -0.00080021267 -0.0020018653 -0.0035610618 -0.0032650055 -0.0017928616 -0.0030876868 0.0017453198 -0.0011363698 -0.0023782514 -0.0011225907 0.0019310233 0.0008783691 -0.0023046935 0.0034853893 0.0023975624 -0.0034830072 0.0019421442 -0.0026836132 0.0020194692 -0.0021568704 -0.0017968592 0.0006475968 0.0022817834 -0.0013173923 0.0014407402 0.0034668637 -0.0014974732 -0.002950163 -0.0037811531 -0.0004988868 -0.0034927104 -0.0009996241 -0.0034215988 -0.0017624524 0.0008065344
152.163.210.011 0.003520833 -0.003749919 0.0030820798 0.002176231 -0.0007766515 0.0034721894 -0.00018944853 -0.00094958034 0.00032365567 -0.0033844856 -0.0010608399 -0.0025202155 -0.0016957237 0.001922088 0.000668263 -0.000995052 -0.00057230715 0.0018495012 0.0009828613 0.0007243037 -0.0036457705 -0.0028909908 -0.00070739584 0.0037476402 0.0008207639 0.0018090466 -0.0009584763 -0.0033926533 -7.320885e-05 0.002588046 0.0037296633 0.0004201482 -0.0029264805 0.002398056 0.0023909102 -0.0010375098 -0.0028047245 0.0027852873 -0.0021572118 -0.00041283102 -0.0004075195 -0.00016619502 -0.0013970961 0.0021626318 0.0019458081 0.0024392442 -0.0023455403 -0.0022188437 0.001286205 -0.0015429731 -0.002228382 -0.0011187658 -0.001573833 -0.0021112668 0.0027761103 -0.00034956078 0.0013703561 0.0025556334 8.5673455e-05 0.0010248789 -0.00071785215 -0.0008129949 -0.00014582192 -0.00095062965 -0.0013564606 0.0018222841 -0.0027317337 0.00239456 -0.0007921701 0.0022867522 -0.0022434178 -0.0037583646 0.0032670214 0.002507133 0.00081246067 -0.00015808713 7.3049465e-05 -0.0017626137 0.0017516783 0.0035408796 -0.0029899287 -0.001111957 -0.0017300362 0.003836931 -0.0003401191 0.002829056 -0.00085149327 0.0012166863 -0.0020464484 -0.0018874385 0.00074575056 0.0025323879 0.0035161653 0.0015102348 -0.00042145565 -0.0026490916 -0.0009798158 0.0034940988 0.0025866989 0.0031509548 -0.0023694355 0.0034913654 -0.0020925417 -0.0009710755 0.002680053 0.0016701694 -0.0021994852 0.0018580526 0.0038977799 0.0010792282 0.0021530436 -0.00046699995 0.0031712302 -0.00095882796 -0.0028869954 -0.0006362209 0.0011120602 -0.0033864889 -0.003535142 0.0016841206 -0.0008278962 0.003494582 0.0006830651 -0.0013232877 -0.0013207354 -0.0018530015 0.0027302895 0.00030029102
207.068.143.091 0.0036911662 -0.003144602 0.0015621656 -0.0026023441 0.0010508904 0.0034115221 -0.0014196582 0.0017793422 -0.0032842653 0.00024228565 -0.001468077 0.0027098246 -0.0019077802 -0.0004214248 0.0015878439 0.000982704 -0.003889293 -0.0035598946 -0.0011572957 -0.0018657183 -0.0030050182 -0.00075584743 0.0029896 0.001832341 -0.0017546508 -0.0030500633 -0.00030750502 0.00029320695 0.0010593544 0.0021429823 -0.0032598977 0.0026649134 -0.0034442449 -0.0019980706 -0.000162246 -1.0879693e-05 0.0010728397 -1.8384422e-05 -0.0038222496 0.0024005221 0.00044977243 -0.002368028 -0.0025614812 -0.00023563906 0.0023766763 0.0007412566 -0.0021104787 0.0015831736 0.0015293959 -4.0267165e-05 -0.0028228988 -0.0026909667 -0.00015330224 -0.0025721616 -0.0018161305 -0.002460885 -0.0025983062 0.0015933033 -0.00205027 -0.0034984872 0.0009211397 -0.00027146665 -0.0033140203 -0.003115347 -0.00018164431 -0.0019016797 0.00026190453 -0.0034116127 0.00041194266 0.0007527302 0.0029977602 -0.00085101184 -0.00011163083 0.0036637036 -0.0030599833 -0.001956312 -0.0031127823 0.003802028 -0.0037943013 -0.0012866168 0.0038946096 0.0006416574 0.000852147 -0.00073742203 -0.00349143 -0.001745363 -0.0010193362 0.0024351752 -0.0015743697 0.0027146686 -0.00053949986 0.0011559066 -0.0007803704 6.8782305e-05 -0.001531303 0.003215577 -0.000919806 0.0023515266 0.0038287018 0.0010744225 -0.0008433194 0.00013809164 0.00146506 -0.0006927087 0.0020470999 0.00012363844 -0.00010513455 0.00028285128 0.0017534291 -0.0024355312 -0.0023511094 -0.003092359 0.002076048 0.002509543 0.00073875324 9.859107e-05 -0.0008261538 0.003828017 -0.001972255 -0.0036872502 0.0028745893 0.0032598143 0.0016378668 0.0012187186 0.0014097912 -0.00047193162 -0.001512067 0.00037164896
135.013.216.191 -0.000132888 3.7185382e-06 -0.0016630165 0.0024711208 -0.0016145924 -0.0023670099 0.0035852026 0.00044566384 0.0019853613 -0.0036016423 0.00042031074 0.0034756688 0.0019944645 0.00041299348 -0.0037966566 0.0015638606 -0.0001289129 0.001857796 -0.0005092581 -0.003853187 0.0027961612 0.003900783 0.0038274974 -0.0027253667 0.0024113967 0.001159879 -0.0025401628 0.0010481576 0.0017915005 0.0004217686 0.00078532624 0.0019148453 0.0012987243 0.0034095335 0.00010236943 0.0006832135 -0.0011746298 0.0034142411 -0.0018038515 -0.003252693 0.0035729015 0.0021168303 0.003242886 -0.0018456561 0.0016232729 0.0022638603 0.0035349894 0.0022431847 0.0030170442 -0.0024812997 0.0021450666 -0.0013947355 0.00077650003 0.0028565153 -0.0038678953 -0.00077907136 3.0148149e-05 0.0029882654 -0.001417462 -0.002395773 0.0012663327 0.00347784 0.0014452362 -0.0030155259 0.002243523 -0.00076985324 -0.0016935485 -0.0033189296 -0.00019056373 0.0003437176 -0.00051184895 0.0003357561 0.00016051998 -0.0001731579 -0.0015338727 -0.003093887 -0.0028660933 0.0014444902 -0.0026373316 -0.0009938951 0.0021774943 8.8293746e-05 0.0031395848 -0.0038255213 -0.0037655164 -0.0029249918 0.0015238641 0.0036131754 0.00019981935 0.0004338542 0.002744173 -0.0011246899 -0.00092860305 -0.003627419 -0.00022788129 -0.00036725844 0.0039029152 0.0016060829 0.0034944825 -0.0037253706 0.0021737746 -0.003016604 0.0015583171 -0.0027757892 0.003743487 -0.0037463387 0.0022635008 -0.002685218 0.0017737208 0.0005217884 0.0035220804 -0.0016272066 -0.0037193934 0.0025203056 -0.0036082661 -0.003386464 -0.0017785766 -0.0024777038 0.0029313604 -0.003443732 -0.0026974618 0.0038487532 0.0013065753 -0.002490503 -0.00072505715 -0.0010161073 -0.0005887125 -0.00036643498
134.231.032.134 -0.0029122233 0.0026381328 -0.0024735725 -0.002400055 0.0018286194 -0.0020942518 6.039904e-05 0.00067618035 0.0012955628 -0.0011623556 -0.0009002618 -0.0007698845 -0.002292131 -0.0028379406 -0.0009186406 0.0023679177 -0.0032615988 0.003834991 0.0007586375 -0.0032631503 0.0031101431 -0.0019967128 -0.0023815844 0.000694289 0.0032328484 -0.0011761126 0.0017534926 -0.0013612502 -0.0031311992 -0.0008577401 -0.0027165944 0.0001690494 -0.0035811951 0.0009136868 0.00046176152 0.00015701412 -0.0025156045 -0.0012259601 -0.0010352994 -0.002314483 0.0013440499 -0.003007531 2.1014826e-05 -0.0006385528 0.002024041 0.0013190176 -0.0032930863 -0.0014880394 -0.0015189415 0.0027228952 -0.0028276327 -0.0008442586 0.00050498545 0.002364338 0.0037849122 -0.0010403257 -0.0020328218 0.001085952 -0.0035130284 0.00227496 0.0008052432 0.0025343972 -0.0037373216 -0.0033023783 0.00015717394 -0.0032460985 0.000776219 0.0021630712 0.00071812863 -0.0031685766 6.873481e-06 0.0023737978 -0.0011683978 0.00014821712 -0.002853637 0.0015155486 0.0013828343 -0.0005644837 0.0035894457 -0.0004888507 -0.0022946503 0.0013131086 -0.0005097406 -7.539738e-05 0.002161054 0.00073831883 -0.0016402077 0.0034406057 0.0029849045 0.0012072441 -0.0014157619 -0.002467758 -0.0018046596 -0.0031212417 0.001477877 0.0033451614 0.0022969125 0.003200616 0.000774383 -0.0011772976 0.0012642397 -0.0032969927 -0.0019763072 0.0004464843 0.00043099906 -0.0023777196 0.00259611 -0.00075889693 0.00094641594 0.00011489924 0.00044403793 0.0010309627 0.0018538141 0.0015676785 -0.00062278024 0.0010205341 -0.003082513 0.0030702094 -0.0016244907 -0.0003828805 0.0006641462 0.0026595062 -0.001630799 -0.0008044538 -0.002333678 0.0036494103 0.0016740029 0.0030751515
134.231.032.133 0.0023981503 -0.00062974327 -0.00034668695 -0.00097259996 -0.0025076545 0.0021762063 0.0016502213 0.0033515801 -0.002956645 0.0030557676 -0.00095754967 0.0017488343 3.1197305e-05 -0.0021041783 0.002478624 -0.0038966592 -0.0033340086 -0.0022775724 0.0014844799 0.00016404832 0.00029797904 -0.0017873283 -0.0027203043 -0.0034275688 0.00015982229 0.0013817298 0.0011925902 0.0019041232 -0.0031495246 0.0018736103 0.002267 5.9325826e-05 -0.0008421928 0.0012368825 0.0014716515 0.0035616676 -0.0005937399 0.00022959939 0.003558791 -0.0034532282 0.0010964392 0.0005335611 0.001804646 0.0025902274 0.0013246783 -0.0012913626 -0.0017357501 0.0011454157 -0.0028824355 -0.00362549 0.003433434 -0.0018671555 -0.0001851674 0.0014606813 0.0022382794 0.0028360342 0.0012320258 0.0004441283 3.465693e-05 0.0022102108 0.00027548993 0.0018103577 -0.00118228 -0.0010688596 0.0019296068 -0.002013682 0.0010626788 -0.001474787 -0.0026001607 -0.001985681 0.0035733483 0.003753593 0.0038495543 0.0023343896 0.0015944192 0.0012837718 -0.0033642743 0.0034807143 0.00020477809 0.00122562 0.0018872155 -0.001428127 -0.0029794283 0.0022858323 0.0009649011 0.0012097352 -0.0011861158 -0.0018232485 0.0030909886 -0.0030893194 0.0026258691 -0.0027928683 -0.00013063094 -0.00047963785 -0.00089655654 0.00016983972 0.003572871 -0.0024075096 -0.0011720707 -0.0023190083 -0.0035839085 0.0026004615 0.0005808005 -0.0012602687 0.0024084856 -8.770402e-05 0.0028835237 0.002121478 0.0031004439 -0.0017958713 -0.002731408 0.00030972442 -0.0037532747 -0.0030918468 -0.0038289588 -0.002780166 -0.0005116539 0.0021518064 -0.0002776281 -1.4432997e-05 -0.0026314964 -0.0025909855 -0.0029311809 0.0015881511 -0.0025126445 -0.00074566546 0.0027962138 0.0034883018
207.087.128.119 -0.0026628196 0.0003967493 0.0024789774 0.0034245837 -0.0014094535 -0.0010997861 -0.0007640458 -0.0027700209 -0.0037867457 0.00029822355 -0.00022034845 0.0026527317 -0.0020973727 -0.0036486757 -0.0034226764 0.0010865395 0.003898044 -0.00036538133 -0.0004700039 0.0012936953 0.001169862 0.00060292776 -0.0011975241 0.0018790863 0.0034197741 -0.0013964626 0.0031541681 0.002108995 -0.0034316631 0.00070998166 0.0030471121 -0.0002571883 0.0016675595 0.0036341245 0.0019057336 0.00064931967 0.00052423315 -0.0030780206 0.0036151693 -0.0028559258 -0.0014228685 -0.0035193444 0.002147072 0.0027023589 0.00079507014 -0.0029259655 0.0024808855 0.0035582918 -0.00017955853 -0.0037591874 0.0036802797 -0.002835331 0.000893302 -0.0005947988 -0.0025710138 9.521813e-05 -0.00070322014 0.0013752144 0.0010368794 -0.0038301854 -0.0025345883 0.00072314753 0.0020872653 -0.00079630106 0.003602103 0.0025032002 -0.001087362 -0.0029315515 -0.00069009635 -0.002376268 6.653188e-05 -0.00075379794 -0.0009328284 -0.0028250767 0.0032806178 0.0024838687 0.0018195481 -0.003299051 -0.0005868864 -0.0027794426 -0.0028276544 -0.0010848906 -0.0024825095 -0.0005754562 0.0038994788 0.0016783017 -0.0034736162 -0.0033259406 -0.0002168174 0.00063971727 -0.002645313 0.0035697024 0.0033677123 0.0013403748 -0.00086358876 0.0012031887 -0.0020802983 -0.0014732548 -0.0007843686 0.00029208392 -0.0003718201 0.0005589153 0.0039004115 0.0007447492 -0.0019279339 -0.0024802808 0.0010118734 -0.0014088923 -0.0020070593 0.0010542239 -0.0031251202 0.00056647294 -0.0023272093 -0.003723572 0.0037086322 0.0027454037 0.0037693784 -0.0016386022 -0.0033599169 0.0004844548 0.0005140388 -0.00232725 0.0015031217 0.0005386396 0.002950759 0.0013292074 -0.0022195508 0.0018870569
199.227.154.205 -1.3339482e-05 -0.0029925897 -0.0017767877 0.003845155 0.0020159904 0.0027419985 -0.00038279273 0.0022006594 0.0001385512 0.0007492889 0.0007098735 -0.0027285817 -0.0038950718 -0.0035093718 -0.0031338793 -0.00022337397 -0.0037472858 0.0037209333 -0.0021712002 -0.0005886535 0.0008240063 0.000840778 -0.00030328066 0.0023199313 -0.0017599006 0.0025412652 -0.0023241662 -0.0037648515 -0.0019530803 -0.0022594386 0.0013418384 0.0037561131 -0.0006504484 -0.0026533152 -0.0027061934 -0.0036096324 0.002156202 0.0007437881 0.0017551763 0.00034661853 -0.0038571535 1.8449971e-06 -0.0026717614 -0.0013717945 -0.0024083424 0.0027389396 0.001020897 -0.0023462242 -0.0022765738 -0.0029502548 -0.0018431128 -0.0019529294 -0.0032052158 -0.0010836808 -0.0020221567 -0.002708256 0.00027854063 -0.0025787582 0.0020025265 -0.0034185778 0.00312751 0.0010262533 0.0029970293 0.0015720323 -0.003532534 0.0037444348 -0.001846995 0.00063672755 0.003442266 -0.0028629955 -0.0036872015 -0.0022495883 0.0030368145 0.0011297553 -0.0018042279 0.0027309745 -0.0023249723 -0.0002343296 -0.00028713033 -0.00030406826 0.0035950176 -0.0037523261 0.0035539991 0.0019063575 -0.002121061 0.0011854849 -0.0032893976 0.00021250921 0.0016630025 0.00038042362 -0.0029020994 -0.0016228079 0.0028056453 0.002733923 0.0020851132 0.003542706 -0.002334213 -0.0014526002 -0.0030453182 7.68213e-06 0.0005559067 -0.00033736948 -0.002239492 -0.0021293059 0.0018157851 -0.0008682267 -0.0023701172 0.0030590408 -0.0032625326 -0.0022823003 -0.0022183992 0.0020250701 -0.0017657817 -0.0036286956 0.0024766808 0.0019733906 0.001774834 0.0030790092 0.0035384276 -0.001144816 -0.0011370477 -0.00069168495 -0.0015730617 -0.0023173592 -0.0020701857 -0.0032035895 0.0028479763 -0.0033578712
204.071.180.010 -0.003809476 0.00189007 -0.00035926994 0.0009363252 0.0006383634 -0.0017720499 0.0006395426 0.0036795242 -0.0018286171 -0.0013568101 -0.0030590566 0.0012993151 -0.00056298403 0.0016126191 -0.0019173508 -0.0022626382 -0.0025264262 0.0026529299 0.0011704753 -0.003888282 0.0031918588 -0.0011683219 -0.002065118 -0.00078501884 9.104148e-05 -0.0012099158 -0.0010309835 -0.0026350038 0.002600352 -0.0035198168 -0.0028395206 -0.0009241286 0.0023985654 -0.0015321986 -0.00040075186 -0.0035498356 0.0022784395 0.00019386876 0.0034665887 0.0015037359 0.00298208 -0.0019591127 0.0016560326 -0.0013888184 -0.0022421486 -0.00035840043 0.0025600065 -0.00018604053 -0.0019195402 -0.00056285464 0.00010532075 -0.0033972298 0.0037321653 -0.0022801517 0.0011448539 -0.0017102734 0.0018523366 0.0038971514 0.002277466 0.003224086 0.001635493 0.0016146374 0.0035837654 -0.0010615488 0.00071727857 -0.00063597277 -0.000509867 0.00079053803 0.0036521389 -0.002201553 0.00253947 0.0027785895 0.0035461993 -0.0024782585 0.002611695 -0.0014114747 -0.0010176904 -0.0007585298 -0.0003555421 -0.0036277964 -0.0028336297 -0.00198074 -0.0007956861 -0.00013513798 -0.0017114353 0.00027916298 -0.0016507951 0.0014034199 -0.00067417504 0.0015874708 0.0012232501 -0.0019786586 -0.0022467785 -0.0028125453 -0.0030961866 0.0016749523 -0.0015917127 -0.0023294387 0.0005009883 0.0014835299 0.0027237462 0.0010331341 -0.0031772312 0.0009793711 0.0004920577 0.000840285 0.0038989037 0.0036782613 -0.001693717 0.0016228588 0.00040620498 -0.0022210907 0.0003783254 0.0006080365 0.0037906012 0.00084539806 0.0029110482 0.0035249786 -0.0013218467 0.003590142 0.0030385808 0.0011281244 -0.00078606117 -0.0017834705 -0.003429061 -0.0026211203 -0.0011754986 -0.0005938117
204.202.136.230 -0.0015407 -0.0025508865 0.0018437612 -0.0009055683 -0.00010573806 0.0022265962 -0.0036986857 0.0012571433 0.001353867 0.0030874878 -0.003326687 0.0025457176 0.0032903277 -0.002334669 0.003007871 0.0015980133 0.0012614231 -0.0027439697 -0.0009573858 0.0002052128 0.0020777064 -0.00012019145 -0.0020461555 -0.0025716836 -0.0029833051 -0.0020021365 0.003766255 0.0032335825 0.0028846792 0.003429811 0.0030307763 0.001305362 -0.0008100423 -0.002004094 -0.0021699597 0.0008807819 -0.00075926486 -8.093708e-05 0.0006943237 0.002480525 -0.00378876 -0.0026986976 0.0016700226 -0.0034882834 -0.0011514034 -0.0007101044 0.0030982345 -0.00069122884 -0.003840215 0.0026551818 -0.0011337972 0.002379761 0.0015660673 0.001222383 -0.00035742673 -0.0025335082 0.0005609538 0.002897001 0.0006889362 -0.0036425905 -0.003244312 0.0016519013 0.0036243685 0.0019131742 -0.0021975222 -0.00023824509 -0.0011350043 0.0016554615 9.409931e-05 -0.00010728454 0.00031188235 -0.0031490913 -0.0035564676 0.0038480929 -0.00024034914 -0.00077684777 0.00012620981 0.0026076126 0.0038018122 -0.0021233538 -0.0030027963 0.0029564265 0.0021123528 0.0018809601 -0.00064727286 0.0038425068 0.0007620538 -0.0020579088 0.003496822 0.0013165966 0.0011935437 0.0013735163 -0.0015237203 0.0027589763 -0.0024644467 0.0035804268 0.0013002773 0.002312072 -0.0014068857 -0.003766216 -0.002746576 -0.0010845326 -0.0012952327 0.0028114687 -0.00047387212 0.0003956423 0.0038665885 0.0022304535 -0.001497831 -0.0030943675 0.00063419715 -0.0012251973 -0.00032947108 0.0031230836 0.0025641934 -0.00088336604 0.0006629338 -0.0026934105 -0.0014527711 -0.0011705928 0.0036867885 -0.0019251518 0.0014593325 0.0011246765 -0.0015684386 -0.0021863687 0.0033009513 -0.0021866788
172.016.116.194 0.00040294795 0.0030361265 0.003162867 -0.0023637959 -0.00072992645 -0.0013533077 0.0015897823 2.024229e-05 -0.0036945909 -0.0002993255 0.0008544579 0.0017367748 0.0018903507 -0.0017452994 -0.0027033417 0.0032744973 0.0012971353 0.003190842 0.0021737346 -0.00048405904 -0.0024859332 1.8290411e-05 -0.0026651674 -0.0010981505 0.0035742258 -0.0003630639 -0.003697229 -0.0018728239 0.0012802689 -0.002166666 -0.00275243 -0.0031186775 0.0007460454 -0.002756995 -0.0014575426 -0.0015990081 -0.002635043 -0.0024951042 -0.0033500781 -0.0024194114 -0.0006701642 0.001961213 0.0005601551 0.0033780765 0.0027931991 0.00214981 0.0034146076 1.4730901e-07 0.00064420956 -5.9034148e-05 0.0009373774 -0.002626932 -0.0013250787 -0.0026156546 0.002887646 -0.0017437618 -0.00074813556 -0.00036961128 0.0033126036 0.0038524019 -0.0035520557 -0.0001738203 -0.0011785956 0.0012066235 0.0018322213 -0.0035209937 -0.003765933 0.0007807096 -0.0021467635 -0.0005325755 0.003073082 -0.0014552549 0.0005846284 -0.001324821 -0.00045352345 0.0030545348 0.0029722427 0.0018272194 0.0007614372 -0.0035634676 -0.0019843497 0.0036093865 0.0011219734 0.001476344 -0.001360883 0.00048363087 -0.0013315722 -0.003152374 -0.0016888564 0.0026983882 -0.001481168 -0.003636592 0.0008870106 0.0033482697 -0.003077342 0.0023987552 -0.0018232381 -0.0011054166 0.0025986894 -0.0031975815 -0.00028196056 -0.00011499822 0.0027240394 -0.00012751724 0.0020941044 0.0019252175 0.0016796953 0.0032627638 -0.0008958848 -0.0021424792 -0.0001914113 0.0012553942 0.0017057352 0.000111928064 -0.0027480852 -0.0031919745 0.0013862641 -0.002726464 0.00010615469 -0.0025413192 -0.0024781001 0.0033565713 -0.00019499216 -0.0006011758 0.0006423673 0.0018614262 -0.0036031376 0.00034968063
194.027.251.021 -0.0027511085 0.0004445448 -0.0033763507 0.00015955299 -0.0022844672 -0.0028926148 0.0001617112 -0.0037365467 -0.0026229387 -0.0012445457 -0.0019854147 0.0025721432 -0.0014145095 0.0028524473 -0.0024648863 0.003754134 -0.00028833147 -0.0011930084 -0.003497024 0.0036536742 0.0020667634 0.000927836 -0.0037366627 -0.0011848944 -0.0011686634 -3.628638e-05 0.0024064004 -0.001074406 -0.0036490038 0.002561185 0.0008406262 0.0011432339 -0.00062052085 -0.0032802804 -0.0018043823 -0.0017169161 0.001912941 0.0036350067 0.0029750164 0.00091871136 -0.0009841553 -0.0031900005 0.0037745954 0.00024850678 -0.0038925195 -0.0038394523 0.0016944312 -0.0006269085 -0.0016864467 -0.0011065613 0.0032859286 -0.003348097 0.002550088 0.0020297896 0.0019617782 -0.0009891251 0.003696288 0.00031520208 0.0008302274 -0.0016657714 0.0010059254 0.0005228813 0.0017437125 -0.00011335979 -0.0033134036 -0.0036164008 -0.003785849 -0.00016853871 0.0009620453 0.0015650638 0.0019899511 -0.002787841 -0.001594285 0.0011283162 -0.003229784 0.00013293106 -0.00015770188 0.0026593073 -0.002659461 0.003401253 -0.00077489717 -0.0022989472 0.002095835 -0.001863482 0.00043087112 0.001858213 -0.0003907753 -0.002487462 -0.0034076008 -0.00041743624 -0.0014529085 -0.00036296173 0.0036534013 -0.0025496923 0.0019944932 0.001742506 -0.00017001503 -0.0014099505 -0.0037485277 0.0007289217 0.0018522146 0.0009388969 -0.0010159472 -0.0021648533 -0.00013000905 0.001501448 -6.306897e-05 0.001236231 0.002844673 -0.0022556328 0.0029470904 0.001296159 -0.0022036987 -0.0030594456 -0.0034960443 0.00015641797 -0.003409862 -0.0018319152 0.00048281893 -0.0011057822 0.002517618 -0.002343968 -0.0018517193 0.001473094 -0.0005035234 -0.00086129934 0.003416808 0.0007266657
172.016.117.052 -0.0025352594 0.0006861835 0.003430193 0.0029530288 -0.003239061 0.0014468016 0.0030727002 0.0019373668 -0.0028838306 0.002275297 -0.0007116721 -0.002919947 0.0023084586 0.0035589142 -0.0037030282 0.0024327496 0.0025939057 -0.00078607514 -0.0028349985 -0.0020889607 -0.00090325833 -0.0031932371 0.0021042102 0.0027846557 -0.001993944 0.0036974184 0.0012571856 0.00181968 -0.0013677021 0.00026871424 0.00352467 0.00285555 -0.0032204501 0.0037552626 -0.0032147868 0.0029739395 -0.0019136784 -0.00371956 0.00046129688 -0.002300916 0.00032539247 -0.0023537346 0.0038471953 -0.0012563821 -0.00017179805 0.0008635375 -0.0013844362 0.003448427 -0.0012309958 0.003119995 -0.0029044684 0.0010705289 -0.00012526049 -0.0038347987 -0.0016463095 -0.0019556521 0.0034543157 0.0036188646 0.00077203487 -0.0017731519 -0.00017849068 -0.0012640943 -0.0004249775 -0.0021870523 0.0019531532 -0.0024237814 0.0024377205 -0.0031066397 0.0011172544 -0.0013282537 1.16146075e-05 -0.001006725 0.00086950156 0.0026709058 -0.0017088416 0.00040293188 -0.000803506 0.0014490063 0.0029391726 0.0033824246 -0.000993526 0.00082092633 0.0038120188 -0.00086292514 -0.0028088249 -0.0005207004 -0.0023602278 -0.0012747596 -0.0023431198 0.000929038 -0.0025050968 -0.0020389145 -0.0015161373 0.0037067512 -0.0027550613 0.0012744179 0.002044907 -0.0005369201 -0.0037755924 -0.0034662643 -0.0008014009 0.0025744194 0.0008917172 -0.00055971474 0.0009718214 -0.00078226236 0.0011626062 0.0033516774 0.0024317289 0.0022423414 -0.0025234346 -0.0012565958 -0.00066936476 0.0032466415 0.0009897962 0.0013819918 -0.0022063912 -0.0027704109 0.00032200434 0.0033628945 0.0005376428 0.00257666 -0.0032363262 -0.0030510537 -0.0025101874 0.0032831556 0.001033036 0.0035373957
172.016.112.149 -0.001804174 -0.003573424 0.0019909923 0.003553006 0.0007847954 -0.0010667238 -0.00010149192 0.0002696596 0.0034349435 0.0008066138 0.0029385642 -0.0036068095 -0.003227595 -0.0010244001 0.0017170607 0.00031331912 -0.0011589755 0.0012234927 -0.0031600744 -0.0034100441 -0.0021909045 0.0018002938 0.00020655204 -0.0017434681 -0.0005616656 0.0023709598 0.002489976 0.0010979188 0.00291138 0.00034662624 0.0014059534 0.00027709635 -0.0014895544 -0.0022418047 0.003820031 0.0018401748 -0.0023418816 -0.0011862774 -0.00066378183 -0.0020328125 0.003708138 -0.00011350882 0.003036794 -0.0030321775 0.002095677 -0.0022345465 0.00371964 0.0002394233 0.0037078233 -0.0009876438 0.0014631237 0.002129633 -0.003301909 0.0033599187 0.0006730134 -0.003264368 0.00060355046 -0.0010086561 0.0024192277 0.001967475 -0.0014278464 0.0009106501 -0.0010157056 0.00051312905 -0.00046088189 0.0009529337 0.0027888769 -0.0034302957 -0.0016917833 -0.00091689697 -0.0023836542 -0.0016097404 0.0036621485 0.0007850102 0.0029755381 -0.0021269799 0.00382125 0.0025238823 -0.00086804666 -0.0004517989 -0.000143577 -0.0010263394 -0.00097739 -0.0028343275 0.0017867147 -0.0026877515 0.0037097062 0.003633497 -0.001994606 -0.0037244172 -0.0019323933 -0.0025715958 -0.0005837039 0.0019875807 0.0016353948 -0.0012260886 0.0009773854 -0.0023555541 -0.0026661153 0.0018917539 -0.0027047074 -0.002691407 -0.00018408366 -0.0008545965 0.002459139 -0.0032893657 0.0020401448 0.0008839828 0.0014747588 0.0023970716 -0.002636114 -0.0028397609 -0.0002716871 -0.0014373984 0.0014366425 -0.0032453514 -0.0020553938 0.003174149 -0.0007690456 0.0037571248 0.0037302482 0.0010546256 2.5903924e-05 -0.0022191869 0.0014619835 0.0014194781 -0.0023267576 0.00047309563
010.020.030.040 -4.303295e-05 0.0010889644 0.0037348699 -0.0037542114 -0.0036146387 0.00035442613 -0.0017104078 -0.0027168689 -0.0027131597 0.0023300045 -0.0019976282 0.003120158 0.0015522891 0.001219781 -0.0015836392 0.0036666018 0.0027642646 -0.0011956982 0.0021439174 0.0020186726 -0.00031740067 0.001159788 0.0007693755 0.0033975749 0.003313311 0.0005329192 0.0029993083 0.00090036256 -0.0008173555 -6.0384365e-05 0.0020503846 0.0029688603 -0.0038132195 -0.00084337406 0.002930126 -0.001816726 -0.0015915772 0.0036716885 0.0038721538 -0.003756824 0.00096383976 0.0035380253 0.00031162126 -0.0026286994 0.0033757058 -0.00224346 0.00034267624 -0.0009351709 0.0023261532 0.0011771531 -0.00070728635 0.00043364597 0.0008397075 0.00068035023 -0.00018318923 0.0038473995 -8.280839e-05 0.001117073 0.0023835583 0.00049188733 0.00019769926 -0.0010807577 0.0017937449 -0.0016382638 -0.0018528785 -0.0028045368 -0.0030079135 0.0038391983 -0.003476701 -0.0012210939 0.0031256212 0.00018539974 -0.00022589661 0.0023347216 0.00021363585 0.0034776006 -0.002460619 -0.0020987121 0.0023934692 -0.0003373403 0.0014995247 -0.00062482804 -0.0036328346 -0.003204343 0.00299331 -0.0012300739 0.0007834953 0.0012876871 -0.0036805759 -0.0032461379 -0.00115105 0.00086505833 0.003279406 0.001672858 0.0006250875 0.003472815 0.002435319 -0.0037478087 -0.0023333665 -0.0016447479 0.0014984512 0.0033973565 0.00064068346 0.001398549 0.0034162842 -0.00020296758 0.00059808156 0.0024161227 -0.0007751359 0.0027471674 -0.002803313 0.00055780733 -0.0037936487 -0.0017838203 -0.00069022726 -0.00015429812 -0.003193809 0.0011319759 -0.001712418 -0.0034736071 -0.0009670647 -0.0034625838 -0.00175899 -0.001496771 0.0007489341 -0.002059575 -0.0038968294 0.0023540163
172.016.114.148 0.00083665893 6.602434e-05 0.0025013848 -0.0037779403 -0.0024940693 -0.0013497699 0.0033330345 -0.0018506229 -0.000400503 -6.532087e-05 4.0095598e-05 -0.0023372092 -0.0033971374 3.2429758e-05 -0.0013099313 -0.0005737857 -0.0015178995 -0.0013465504 0.0026520682 0.002915366 -0.0012002885 -0.0032755341 0.0030931234 0.0013333153 -0.0035838613 0.0039019254 0.0012376662 -0.00023649748 -0.003219562 0.0035291794 -0.0017783062 -0.0012682789 -0.001514533 0.0017484651 -0.00046130092 -0.0032019105 0.0038372553 0.0018238045 0.0009072944 -0.0036113032 0.0009933977 -0.0001568871 -0.00066918705 -0.0025344766 -0.002154882 -0.0025414343 0.0009933918 0.00029503944 -0.0031469616 -0.001145606 -0.0035990924 -0.0024776822 2.1166225e-05 0.0027423706 -0.0024765423 0.0027047999 0.0005157666 0.0016198612 -0.0010140731 -0.0022566256 -0.0007287194 0.0016026177 -0.0006321904 0.00091890973 -0.0008701049 -0.0027601854 0.0011698873 0.0009002317 0.002914317 -0.0023464286 0.0006069585 0.0027352667 0.002667387 -0.0014645745 -0.00016436684 -0.0012422012 0.0005068808 0.0037764136 -0.0004370326 -0.0024483996 0.003412268 -0.0036250195 -0.001497763 0.00016370606 -0.0014096656 -0.003004819 -0.002864231 -0.002427174 0.0016465815 -0.0017527951 -0.002426719 0.0019544975 0.0036946365 -0.002446818 -0.0016304171 3.6902107e-05 0.002100755 0.0035076137 0.00083109294 -0.000101274665 -0.0038280874 -0.00027123856 0.0010842576 0.00088030007 0.003720137 -0.0029575357 0.00015907885 0.002273258 -0.00047602155 0.0030539702 -0.0002168727 0.0029604093 -0.0009800968 0.0037974026 0.00023833029 0.0030716828 0.0018430061 -0.0025942542 -9.401594e-05 -0.0005620645 -0.002654387 -0.0010650543 0.002974082 -0.00014754901 -0.0036606356 -0.0005614635 0.0006645461 0.0009336224
192.168.001.090 -0.0022092308 0.00040365415 -0.0010585395 -0.0014201027 0.0009322281 -0.002668709 0.001193784 0.0023274743 0.0012025005 0.0035058192 -0.0018661476 -0.0008862321 -0.003891093 0.003530918 0.0030646783 0.0031174421 -0.001443693 0.0023894308 0.0036870465 -0.0002575792 0.00021927014 -0.0037749284 -0.0036348014 0.0022936328 0.0032060947 0.0021771826 -0.0006177694 0.003084083 5.0458325e-06 -0.00061407726 -0.0030077654 -0.0027277463 0.0015432918 -0.0032232706 0.00021423685 -0.00079058757 -0.0034701645 0.0007587598 -0.0008012357 0.00041578207 -0.00092545175 -0.0020397059 7.918949e-05 0.0022164562 0.0006210763 0.0022173172 0.0028592935 -0.0035775949 -0.00040237326 -0.0038876114 2.3606357e-05 0.000558236 -0.0020890576 0.0022405167 0.0009896115 0.0016730266 -0.0011685657 0.0015559172 0.0021793803 -0.0035368812 0.0026405484 -0.0016085708 0.00042923423 0.0002995882 -0.00044339075 -0.001778805 0.0010354528 0.0011979445 0.00019461098 -0.0023724656 0.0012134167 0.0006315666 -0.0013157064 -0.0038230056 -0.00049819634 -0.00020441556 0.0014975908 0.0029266821 -0.0009011763 -5.915157e-06 0.0033992555 -0.002074768 0.0038118376 -0.0035183309 0.0026073249 -0.0023164419 0.002272567 0.0032288644 -0.0038617195 -0.002636762 0.00037720625 0.0034211972 -0.0009532407 -0.0025131437 -0.00024785506 -0.000849497 0.0020097704 0.0019513554 0.0036156825 0.00093555776 -0.002909758 0.00330446 0.0023524908 0.0025427586 0.0026931444 -0.0002872813 0.0037800202 0.003429186 0.00012194351 -0.0005396862 -0.0011755562 0.0033044384 -0.0021614041 0.00055278 0.0025247403 -0.0013379573 -0.0032002944 0.0028363257 -0.0028149993 0.0008764727 0.0037022596 -0.0021168152 -0.0022378298 -0.0030678771 0.0036072317 -0.0032951175 -0.0008558698 -0.0034745424
194.007.248.153 -0.0023299851 -0.0022590398 0.0036224795 -0.0022813575 -0.0036314076 0.003359014 -0.00044623972 -0.0014674974 -0.00080786337 -0.0024803597 -0.00023593576 -0.0038848289 -0.0010498513 -0.0010668723 -0.00178939 0.0022482919 0.0031553232 -0.003403742 -0.00039465787 0.0038175688 0.0017857167 0.0034189932 0.0019560873 -0.00087491906 -9.299156e-05 0.0008663568 -0.0021665464 -0.0015634754 0.003746375 0.000605623 0.00032344938 0.0027818987 -0.0028277491 -0.002594884 -0.0016549138 0.00017808627 0.0022383712 -0.0010087215 -0.0037083798 -0.0028492385 -0.0033530106 -0.0035717688 -0.0027359854 0.0036483123 0.0029938102 0.0025527866 0.0009963958 -0.00030903638 -0.0025723884 0.0026468069 0.0035777008 -0.0023099624 -0.0038037347 0.0037626456 -0.002539381 0.0037609637 -0.0037983975 -0.000717631 0.0031743795 -0.0038932231 0.0006197418 0.0025400217 0.001633354 -0.0030833238 0.0024217647 -0.0023935619 0.0015132768 -0.001643726 -0.0032254765 0.0038309586 -0.0015991844 -0.0010244912 -0.0031310618 0.0033628866 0.00061023893 -0.00032459924 -0.0017069014 0.00012724694 0.0029287569 0.0035861805 3.4390556e-05 -0.0031014618 0.003773592 0.002455248 -0.0003899839 -0.002359482 -0.0007438577 -0.0024933873 0.0013319567 -0.00019337701 0.003352993 -0.0025153668 -0.0015245646 -0.00063225947 0.00040788949 0.0036198243 -0.00056497514 -0.0026674771 0.00095712877 -0.0008332452 0.0011316236 0.0006138284 -0.0035377236 -0.0010967917 0.003577404 0.0029558835 -0.0023513623 -0.0014622154 -0.00074995635 0.0024134486 -0.0022324228 -0.0013007633 -0.00090927596 -0.0011184731 -0.0029531014 -0.0033401784 -0.00034125868 0.001390949 0.0006572687 0.003455951 0.0004935599 -0.001485921 0.0035062812 0.0030465687 -0.0020731746 0.0005168905 0.0008738828 6.900861e-05
172.016.115.234 0.0009823585 -0.0030752083 2.4788655e-05 0.0028036586 -0.001640072 -0.0011670087 0.0019682006 0.00020984386 0.0023287386 0.0007496446 0.00046030327 -0.0024912697 -0.0029045453 0.00026861936 0.0017217121 0.0018409314 -0.0015514154 9.904397e-05 -0.0002674932 0.002312674 0.0011490574 0.002678158 0.00018885685 0.00065698836 0.00088632246 -0.0009626089 -0.003345952 -0.00097249437 0.0024621077 -0.0016529432 -0.00075187476 0.002819083 0.0018353447 -0.0023203634 0.00079029426 -0.0019738844 0.002574555 -0.0035375084 0.0017613374 0.0015634873 0.001815322 0.0019977132 0.002115729 0.0019414675 0.002319919 0.0038952276 0.0025195251 -0.0010843258 -0.0011162149 -0.001542943 -0.00342913 0.00024870073 0.00036449783 -0.0020506948 -0.0003200292 -0.000676639 0.0028557894 -0.00047242973 0.0025032808 0.0018937055 -0.002206377 -0.0002516954 -0.0038523625 -0.002520898 -0.0031928353 0.0014324359 -0.0010533171 0.0025772115 -0.00031163634 0.00340184 0.0002553146 -0.0014472853 0.0019945852 -0.0019967882 -0.0007965003 0.00085349445 -0.003497825 -0.0015803699 -0.00089219253 0.0026392725 -0.003245012 -0.003652958 0.0022366776 0.0014159755 0.0023904676 0.0037447098 -0.0024257398 0.002261646 -0.00040423492 0.0011101087 -0.0027145355 -0.002548118 0.0038762798 -0.0024910155 -0.0034588776 0.0027034548 0.0031770805 -0.000112678914 0.0029827824 -0.00096343923 0.00083019433 -0.0026372736 -0.0015876474 0.0025055583 -0.0030039938 -0.0027448363 7.799059e-05 0.0034377342 0.0014228282 0.001447935 0.0019947572 -0.003703529 -0.0027537746 -0.0011372941 -0.0021211246 0.0005822676 -0.002952322 -0.0018541459 0.0033767922 0.002881834 -0.0017740509 0.002475469 -0.0017192214 -6.8515015e-05 -0.0007937939 0.00056833506 -0.0032710133 -0.001566182
135.008.060.182 0.003275983 -3.957851e-05 0.0014302826 -0.0023931481 0.00209746 -0.0022108082 -0.0007859116 -0.0032113919 -0.0030782272 0.0037196653 -0.0018164933 0.00077800296 0.0027125028 -0.00086183345 0.0009038989 0.00023819534 0.0028680358 -0.0022387335 -0.0034476237 -0.0005448532 0.0025733237 -0.002175981 -0.0034396183 -0.0018372411 0.003651926 0.00068460964 0.0036778478 0.00060162076 -0.0032314968 -0.00028812146 -0.0032029909 -0.00017491 -0.0021352137 0.0009873956 -0.0024981915 0.0038480423 -0.0029036521 0.0005797629 0.0036319932 0.0012351669 0.003522911 -0.0019927665 -0.0033636536 -0.00032151784 0.00340481 -0.0020038649 0.0036160597 0.00177617 0.0014733261 0.002064172 0.0023245113 0.000363543 -0.00066139357 0.0016654646 -0.0007161192 -0.0029230304 -0.0019812505 0.0029846015 0.00012700152 0.0030298536 -0.0038072981 0.0006382561 0.0024881784 -0.0038489094 -0.00084029365 -0.002477482 0.00059684215 -0.0020579076 -0.0027495893 0.003778897 -0.00069036434 0.0021715197 0.002165359 0.0008924118 0.001957073 -0.0030853562 -0.00019175991 -0.00088528695 0.003555969 -0.00052750617 0.0009815163 0.0018720408 4.6793248e-05 -0.0028725625 -0.0028210199 2.1991771e-05 0.0018593954 0.0006491101 -0.002601508 -2.7653005e-05 0.002697899 -0.0021234779 -0.002299767 0.00063785055 0.0017542564 0.0029475412 0.0016888842 -0.0024993236 0.0012964347 0.0019350846 -0.0025579096 0.0020122672 -0.0015641842 0.0029773961 0.0011546584 -0.0021680458 0.0015034068 0.00079027546 0.000764047 -5.5423538e-05 0.0034881437 -0.0022917043 0.0023861972 0.0014734836 -0.0005699112 -0.0018071934 0.0034858778 0.0020157304 -0.0016278793 0.0010060465 -0.0011228259 0.0036509673 0.0025854278 0.00069082953 -0.00054922595 -0.0030483815 0.0023779995 -0.0012195981
172.016.114.050 -0.00034368076 0.0024798608 0.0021948852 5.7753554e-05 0.0015884787 -0.0034510891 -0.0010399562 0.00037287505 -0.0011119628 -0.0030006838 0.0019152303 0.0035361606 0.0028002353 0.002441439 -0.0035628718 -0.0035478482 0.0027049899 -0.0033544682 -0.003860716 -0.0010389638 0.0012717131 -0.0032620404 0.002802655 0.003450975 -4.3299984e-05 0.00030567762 0.0024841025 0.002151162 -0.0018757039 -0.0011460929 -0.003871776 -0.0015072663 -0.0010797698 -0.0016678792 0.0036984428 -0.00018800724 0.0039018113 0.002986048 0.0025338545 -0.0018769209 0.0014408195 -0.0028742081 -0.0031807283 -0.00051807344 -0.0023907274 -0.00049531396 -0.00034109032 0.002157133 0.0012177863 0.0014974757 0.00010334274 0.0015760678 0.0028944004 0.0026537643 -0.003090987 -0.0014380948 0.0035992835 0.00028403418 -0.0009540378 -0.0017967672 -0.001594266 -0.003670228 0.0033058566 -0.0014178236 0.00080546195 0.0033295853 0.0019419766 -0.001166883 0.0008953374 -0.00023812753 -3.5622776e-05 0.0027082586 0.0032193705 0.0033456995 -0.0025373437 -0.00017816205 -0.0020641503 0.003570046 0.0031200352 0.00083655707 0.0018934712 0.0033905471 0.0022120937 -0.003568352 0.0027517306 -0.0001476552 -0.00091182685 0.0033133498 0.0022027944 -0.003670607 -0.0009217021 0.0032631285 -0.0036161793 0.0028403387 0.0026873809 -0.003584904 -0.0038177916 -0.001009774 -0.0025945932 0.0035571316 0.0024247582 0.0027705824 -4.62915e-05 -0.00083537144 -0.0029383402 0.0017645246 -0.0034300538 0.00022181692 -0.003104729 0.0012374134 0.0024297554 0.002191243 0.0017384457 0.0017566591 -0.0035189148 0.0027587733 0.00082891935 -0.002934646 -0.003006946 -0.002377225 0.0011392065 -0.0006954086 -0.0036660912 0.0008252422 -0.0031754088 -0.0006184611 -0.003275258 -0.0026999253
