27 128
197.218.177.069 -0.05207945 0.007234127 -0.005007139 -0.051336255 -0.07260976 -0.0023796326 -0.045705263 -0.0035855363 -0.064941555 0.0017444004 0.03290056 0.076395914 -0.015254722 0.08926113 -0.03157473 -0.002475605 -0.034852494 0.0126355905 -0.15482296 0.094849996 0.03506234 -0.04063667 -0.024626935 0.056227963 -0.08583337 0.035043113 0.048287194 -0.047642898 -0.025275828 0.008730224 -0.013222358 0.043004017 -0.031275272 0.0055519687 0.030002471 -0.008460494 0.0879937 0.023000212 0.0081370445 0.03331157 0.027366826 0.003025826 -0.030583527 -0.01680111 -0.0010131039 0.009500777 0.02009879 0.048450626 -0.080799125 -0.049049467 0.088035874 0.010110023 0.088345304 0.078993835 -0.028790224 0.00029526028 0.010570059 -0.01551543 0.016611587 -0.10563379 -0.017027006 -0.0114251245 0.05029395 -0.029416295 -0.04133481 -0.06690985 0.0068555917 -0.060187828 -0.03600338 -0.022444705 0.044117402 -0.057179015 -0.05427485 0.076953754 -0.05518213 -0.018588545 -0.033315167 0.08858826 0.005984628 0.042759445 0.07365114 -0.033984937 0.026185185 -0.031210082 0.013290412 -0.005910467 0.063710645 0.032666914 0.042163335 -0.07384272 -0.019939123 -0.022448305 0.021970585 0.08337234 0.054762587 0.041220192 -0.04299954 -0.043673914 -0.060196213 0.03124742 -0.041175127 0.07074482 0.004295381 0.037311904 0.011543301 0.07971442 -0.12504114 0.026442882 -0.05564316 -0.0075794733 -0.037793543 0.03691994 0.042877473 0.0014988258 -0.036998767 0.032443322 0.07412586 -0.07612485 -0.016489366 -0.039655704 0.029037382 -0.012952837 0.032828793 0.006647596 -0.05268367 -0.0014125048 0.003957286 0.025968906
172.016.114.050 -0.03707091 0.022102067 -0.009684469 -0.040001925 -0.072602846 -0.004406871 -0.049047377 0.0016431588 -0.05730758 0.011275756 0.011024707 0.05592616 -0.007327904 0.086000614 -0.029437577 0.0032693245 -0.044855434 0.029169982 -0.13242696 0.08757689 0.027444787 -0.036255773 -0.0105647 0.04155572 -0.077101365 0.026996708 0.054878928 -0.049489357 -0.030269101 0.017209722 0.0092159435 0.048917547 -0.015385548 -0.005005828 0.035562713 -0.013420758 0.072847 0.02455557 -0.0013764291 0.042158477 0.036848336 0.0024026684 -0.009095328 -0.034614973 0.0020267405 -0.004764443 0.028829005 0.05152223 -0.078049116 -0.048924293 0.089178644 0.023619011 0.07708129 0.07761486 -0.014486798 0.011756355 0.005898234 -0.029153042 0.030757222 -0.0960642 0.0063169464 -0.0019416844 0.036294293 -0.019340716 -0.053636212 -0.074690744 0.013622384 -0.06526436 -0.043860327 -0.0064143115 0.033423204 -0.061110627 -0.059070405 0.052431807 -0.033646695 -0.010967419 -0.043474533 0.090380624 -0.011544586 0.05062138 0.065626375 -0.049774047 0.04029817 -0.031204937 0.004259437 -0.008899642 0.054109454 0.03805904 0.037046265 -0.059185658 -0.016098158 -0.018314246 0.033470213 0.06923696 0.06827126 0.04241164 -0.030096473 -0.05866848 -0.033232722 0.020154465 -0.032101937 0.06774011 -5.7133002e-05 0.034437735 0.023592044 0.06837944 -0.09801414 0.021424202 -0.047058616 -0.028387342 -0.024286736 0.034917846 0.027572244 -0.01814381 -0.022517491 0.022566475 0.061373133 -0.06779691 -0.0019313229 -0.025475793 0.006588114 -0.0024233463 0.028116934 0.0031967498 -0.028485894 0.014815206 -0.0052734194 0.030667512
194.027.251.021 -0.05831763 0.10157536 -0.08796958 -0.08559546 -0.26317304 0.02664173 -0.16813132 0.032543253 -0.15192558 0.10932731 -0.07907948 0.061041728 -0.027426196 0.23952706 -0.046646684 0.08807508 -0.2227183 0.20383398 -0.30792442 0.27590954 0.04696441 -0.058455925 -0.008612411 0.04894724 -0.22832826 0.060382847 0.17892012 -0.2023979 -0.09950501 0.10866367 0.16975541 0.20879813 0.025694802 -0.040549606 0.09206909 -0.06875598 0.13475697 0.05536848 -0.068618186 0.2093141 0.1396161 0.05020223 0.09423968 -0.17767723 0.048942883 -0.06982442 0.13542837 0.15708475 -0.27259463 -0.18622565 0.30588147 0.107917964 0.17946446 0.22792564 0.056073446 0.105823174 -0.032417636 -0.15390228 0.17086904 -0.26696816 0.13913241 0.07283654 0.016439555 -0.009860878 -0.23943354 -0.32414994 0.0444093 -0.22764151 -0.18678047 0.043541413 0.07084702 -0.25250736 -0.2579972 0.030257963 0.007176936 -0.005912961 -0.16445614 0.2736872 -0.14975092 0.1904971 0.16864501 -0.27581757 0.16870522 -0.062363215 -0.0652085 -0.04205938 0.14782605 0.10526914 0.08279383 -0.100433245 -0.023598796 -0.07585671 0.21421793 0.13842535 0.24541935 0.18448366 0.0017844813 -0.2473591 0.034209758 -0.030678844 -0.10143985 0.18497926 -0.012179979 0.12060569 0.1591158 0.16127002 -0.170753 0.036501553 -0.086156465 -0.19770117 -0.055590224 0.083120435 0.010345754 -0.1631353 0.03310762 0.006396575 0.13531171 -0.16176505 0.08064889 0.0052943616 -0.07969189 0.040316284 0.12794283 -0.0064020054 0.049995303 0.12630734 -0.011333785 0.1615482
192.168.001.001 -0.065108754 0.11919441 -0.099058494 -0.10179444 -0.30800346 0.037061535 -0.19970231 0.045169424 -0.17604384 0.13072312 -0.089505315 0.0688587 -0.030252771 0.27886662 -0.05107761 0.098241866 -0.26326397 0.2431032 -0.3597582 0.32094553 0.052739818 -0.07074147 -0.00364677 0.061363503 -0.2696897 0.07196175 0.20746984 -0.2381719 -0.11091997 0.12421253 0.19876347 0.24509987 0.030911304 -0.04287687 0.111897685 -0.07877511 0.15770581 0.059343807 -0.08581395 0.24632792 0.16669673 0.065708555 0.10453709 -0.21026824 0.06430609 -0.07570683 0.15732229 0.18672346 -0.32054782 -0.21910472 0.3566875 0.13302968 0.20915939 0.2669988 0.06281727 0.12713072 -0.043680023 -0.18230626 0.200632 -0.31461617 0.16232327 0.08441989 0.016798496 -0.0119879525 -0.27733663 -0.3776507 0.058246616 -0.2694557 -0.2219804 0.04814738 0.08086529 -0.29466927 -0.30288774 0.034570612 0.013354765 -0.0074127004 -0.1946536 0.3205906 -0.17251252 0.22003864 0.20174676 -0.32267246 0.19596356 -0.07097106 -0.0776847 -0.053096037 0.17596923 0.12822373 0.10457977 -0.11960562 -0.02582098 -0.08863174 0.24767533 0.16895191 0.28675368 0.21473554 0.0019191159 -0.29057872 0.0458692 -0.037416752 -0.12356178 0.21766572 -0.012150435 0.14714485 0.18807659 0.18952759 -0.20322143 0.040797316 -0.10764226 -0.22950287 -0.071632944 0.09673016 0.016387409 -0.18687114 0.04480883 0.007817835 0.16616872 -0.18925346 0.09400513 0.008016896 -0.09790168 0.051228307 0.15528516 -0.009925422 0.05968076 0.15092361 -0.019016845 0.19006844
196.227.033.189 -0.017330213 0.027336696 -0.016853487 -0.027261483 -0.069345966 0.0027916827 -0.03933687 0.004463803 -0.036553536 0.027675232 -0.015240944 0.021955296 -0.005778871 0.06549612 -0.015307149 0.014812805 -0.05611573 0.050131787 -0.083651125 0.07280493 0.014307488 -0.02023302 -0.00071308983 0.012641492 -0.060902774 0.014126816 0.04249887 -0.053140316 -0.021563541 0.022787053 0.037145298 0.054677606 0.007099976 -0.008102196 0.027762724 -0.017614631 0.03552121 0.015967235 -0.013867748 0.050073065 0.036011938 0.012414604 0.017177017 -0.04272392 0.012575114 -0.0147084175 0.030105736 0.041429535 -0.07034252 -0.044269416 0.07957018 0.029642118 0.04813075 0.057445534 0.008649435 0.020602822 -0.0041757096 -0.035305634 0.043078735 -0.07234429 0.030268803 0.01927221 0.011071832 -0.0016698893 -0.05909248 -0.07894688 0.011499337 -0.058176387 -0.047486827 0.011757052 0.0186268 -0.06252752 -0.06542786 0.01380716 -0.0026462611 -0.0016184179 -0.037318327 0.06778577 -0.029930804 0.043284714 0.042593133 -0.06252236 0.043803878 -0.015299323 -0.013243957 -0.0065731737 0.04098886 0.028884003 0.020540766 -0.028894322 -0.0032355243 -0.016998392 0.04822397 0.041667093 0.06292908 0.043122202 -0.00705406 -0.06068169 0.0011391406 -0.006916601 -0.02276358 0.04896812 -0.0009483527 0.027489796 0.039308067 0.04614471 -0.05311726 0.0143723115 -0.021045515 -0.041524526 -0.01880088 0.02052508 0.00948607 -0.036320854 0.0021140175 0.000646021 0.039804254 -0.04218211 0.020135188 -0.0041710637 -0.015633108 0.0058517973 0.028618257 -0.0043399185 0.00774191 0.02803899 -0.0035162596 0.039551053
172.016.113.204 -0.017325053 0.030593392 -0.027465144 -0.029178029 -0.08426016 0.009017736 -0.050238587 0.013681626 -0.04668776 0.032035287 -0.024991296 0.020447588 -0.010852677 0.074332386 -0.016164165 0.025209343 -0.07133319 0.06792006 -0.094721176 0.086073235 0.0112864 -0.019553885 0.0014015677 0.01307405 -0.06740647 0.015394918 0.05805687 -0.061683007 -0.028933126 0.03564976 0.048797328 0.06669164 0.0065960144 -0.008551522 0.02557096 -0.018938247 0.04276828 0.01524048 -0.024764853 0.063320845 0.040135235 0.014023693 0.02708571 -0.057589617 0.013127569 -0.019092083 0.045626257 0.051112454 -0.08800637 -0.057594605 0.09243766 0.035947654 0.05442077 0.07375745 0.019538952 0.035834707 -0.0107022 -0.04812117 0.05308772 -0.080815576 0.04449341 0.022749113 0.0059116823 -0.0063229376 -0.07359402 -0.10349882 0.017061785 -0.067348145 -0.06250461 0.014249464 0.024499746 -0.0795913 -0.081876405 0.006358899 0.0005784106 -0.00086495397 -0.05087336 0.0824144 -0.049572125 0.060371935 0.05580869 -0.08656089 0.051834006 -0.01643588 -0.01900347 -0.013872621 0.044493582 0.035797957 0.027025325 -0.032273497 -0.007786044 -0.026645359 0.068943754 0.044139322 0.07924634 0.058322307 -0.00057891617 -0.07835093 0.013290777 -0.0076868716 -0.030606123 0.0598438 -0.0038225292 0.036112767 0.05142517 0.049366847 -0.05037894 0.014870645 -0.026723681 -0.0605217 -0.022154126 0.028060038 0.003426159 -0.052819088 0.008673563 -0.000104845385 0.04243931 -0.04635554 0.027251888 -0.0018220432 -0.027421124 0.016346235 0.040776536 0.0003255931 0.013923374 0.04210122 -0.008215719 0.054021522
199.095.208.101 -0.0111793475 0.012277155 -0.0065975743 -0.011020948 -0.03138674 0.0016093788 -0.01826184 0.006093069 -0.01371571 0.009965471 -0.004150794 0.009473184 -0.0007170732 0.027991349 -0.005221326 0.0078252815 -0.02421085 0.021572467 -0.033849735 0.03198038 0.0024677727 -0.006623931 -0.003238336 0.00571006 -0.025761645 0.007894623 0.023134604 -0.01915783 -0.014654153 0.010091272 0.014939536 0.020701982 0.0027140602 -0.00026800338 0.013752086 -0.010910317 0.015395565 0.00839742 -0.008954877 0.023404362 0.015020637 0.0020538603 0.010533331 -0.01690302 0.005981816 -0.007818727 0.011251634 0.020453423 -0.030031353 -0.017190693 0.037489768 0.011773583 0.022633135 0.022016356 0.006646984 0.0074083926 -0.0068332483 -0.015191209 0.020639058 -0.02860703 0.016566077 0.0088319015 0.0058313427 0.0013837523 -0.024177233 -0.036503628 0.00914119 -0.024914876 -0.024372889 0.0033512355 0.011936093 -0.027457636 -0.028882837 0.008750457 -0.000779489 -0.0011122802 -0.016022367 0.029487565 -0.013382982 0.022171093 0.023490693 -0.026615968 0.015131481 -0.0035595624 -0.004261379 -0.0040210886 0.019995272 0.012209375 0.013589091 -0.009888159 -0.00062226993 -0.010870295 0.020256475 0.017570952 0.027618714 0.022626545 -0.002413792 -0.022942167 0.00327887 -0.0024653412 -0.015304184 0.023195907 -0.00437257 0.010394441 0.014300309 0.017333211 -0.02271899 0.0038509285 -0.014370214 -0.020728614 -0.0032578663 0.008966615 0.005008976 -0.01802728 0.0039843773 0.0014950263 0.018252468 -0.02121316 0.0048499303 -0.0024940618 -0.0073032286 0.0024514166 0.010586148 0.0024579242 0.0013189166 0.010699783 -0.003608259 0.019190632
172.016.114.207 -0.025744945 0.036332462 -0.025096145 -0.03392604 -0.09091555 0.008542722 -0.06051282 0.0099695865 -0.05499194 0.033381343 -0.019379098 0.029078485 -0.011953276 0.08870561 -0.016331278 0.024145914 -0.0783298 0.067754954 -0.112697065 0.095420204 0.020596862 -0.026845332 -0.0028173313 0.017583182 -0.08363138 0.020952094 0.061210673 -0.06639593 -0.030036945 0.035943694 0.053893022 0.06750998 0.004608141 -0.014078106 0.033350874 -0.02122699 0.052727684 0.01630237 -0.025363363 0.06954658 0.04798486 0.017726332 0.029843464 -0.06137216 0.014719436 -0.017964592 0.04364957 0.055164564 -0.093179464 -0.067029044 0.102207564 0.04071875 0.06519839 0.07855196 0.011900824 0.037953977 -0.014409858 -0.051635 0.054669503 -0.09407927 0.040086277 0.020887014 0.010390007 -0.007940697 -0.07818604 -0.10911547 0.016403288 -0.076277345 -0.060575996 0.011166965 0.02720035 -0.08907586 -0.08624011 0.018540453 -0.0024638427 -0.002716518 -0.05655236 0.09584243 -0.047680043 0.06559428 0.05867367 -0.08954871 0.053651515 -0.02035614 -0.016068224 -0.017708482 0.05606827 0.038092423 0.03058038 -0.036328375 -0.0114876935 -0.027778156 0.06598484 0.05290672 0.08756002 0.0628181 -0.0056208284 -0.08643515 0.0029087542 -0.002712585 -0.034198374 0.06395479 -0.006831956 0.04444096 0.055728175 0.059577495 -0.071236804 0.016857646 -0.03586153 -0.06439755 -0.02596529 0.032477036 0.005981151 -0.049052343 0.0077914773 0.0071790298 0.05516778 -0.057973467 0.028152663 -0.0038401322 -0.027676785 0.013354342 0.043730516 -0.0052266414 0.0067736884 0.04358676 -0.003409096 0.050430175
172.016.112.050 -0.009310173 0.0072027068 -0.005790363 -0.009059077 -0.026719976 0.0009528889 -0.017647067 0.006390271 -0.018269096 0.011661194 -0.004937673 0.010245834 -0.0056286342 0.024820173 -0.0077483756 0.0052799154 -0.021166325 0.014040064 -0.032428935 0.023083169 0.006525966 -0.008549345 0.0023852421 0.0071739084 -0.01975014 0.009594656 0.020323105 -0.015442631 -0.012763162 0.010178475 0.014497298 0.019225843 0.0034170565 -0.0003695691 0.008046748 -0.007711457 0.011814539 0.005915431 -0.0071864533 0.018193487 0.012906544 0.0067015365 0.002567049 -0.017584547 0.00045663037 -0.0039856457 0.008074401 0.01647834 -0.024700012 -0.020750321 0.026581109 0.010616417 0.015051263 0.022720024 0.0024359222 0.0060289204 -0.00089775847 -0.015261945 0.014463326 -0.025628597 0.010001235 0.00438888 -0.00071541406 -0.003883159 -0.021914745 -0.02995855 0.008026389 -0.0182072 -0.016962383 0.0046311445 0.008754199 -0.01977791 -0.025018241 0.006165262 -0.0032888066 -0.0035434323 -0.01138614 0.024997309 -0.010614892 0.01385124 0.013216229 -0.021768728 0.01773328 -0.0037128553 -0.0056351917 -0.0061515737 0.012906583 0.013914511 0.0072992886 -0.008547728 0.00089059595 -0.006359767 0.016930783 0.013200147 0.023331061 0.016244931 -0.0044691684 -0.02175715 0.0016716477 -0.0033847848 -0.0060598743 0.01891727 0.0016125523 0.010418886 0.014857583 0.016766986 -0.020909548 0.0016425956 -0.0076838518 -0.014930183 -0.009351463 0.009491013 0.004065719 -0.016839892 0.0017553689 0.0036603406 0.012173718 -0.013287949 0.0059985854 -0.004690391 -0.0076164994 0.0042439667 0.015199863 -0.0017715048 0.0026565234 0.011902656 -0.00033305862 0.011007045
195.073.151.050 -0.022227312 0.030565793 -0.02980688 -0.03433891 -0.093671314 0.0056017563 -0.05797022 0.012752801 -0.056169398 0.037920024 -0.021946356 0.028007548 -0.007498097 0.08757886 -0.014769292 0.027944732 -0.07350688 0.065439284 -0.111007266 0.09681168 0.016459744 -0.026645327 -0.003084937 0.021548724 -0.081478246 0.025700487 0.062695816 -0.066901594 -0.032147385 0.037796907 0.048306935 0.068589315 0.0060774535 -0.009374235 0.03317144 -0.022100534 0.055610545 0.018193148 -0.022771144 0.068405546 0.04932125 0.012661969 0.023455419 -0.061699037 0.019045845 -0.019059652 0.04210348 0.05265732 -0.089796364 -0.06191794 0.10789318 0.03784855 0.064966336 0.08169705 0.0122310305 0.03397958 -0.01187159 -0.05225073 0.05936335 -0.09253488 0.040589288 0.020022651 0.0072485846 -0.0023475122 -0.08115936 -0.10820389 0.013327604 -0.0761329 -0.06418084 0.013305185 0.024542069 -0.08793411 -0.087195225 0.019811496 -0.0024582292 -0.0024447131 -0.051582992 0.09352511 -0.042628933 0.06252051 0.057774607 -0.088136695 0.05306789 -0.022058306 -0.019677723 -0.010753288 0.054716013 0.034146205 0.03278558 -0.036427896 -0.010665841 -0.03014447 0.065785624 0.05051326 0.08535499 0.06508695 -0.005724896 -0.0838613 0.0035544522 -0.0070328712 -0.03415932 0.065232165 -0.003608887 0.039424285 0.051501703 0.061220877 -0.06533791 0.014321305 -0.03743857 -0.060693648 -0.025617795 0.031912398 0.0076321317 -0.054228507 0.0038993568 0.0026832684 0.050793048 -0.05622176 0.025827924 -0.0043736678 -0.026740095 0.0140466625 0.040715512 -0.0026403712 0.013736444 0.03714131 -0.007633907 0.05580876
172.016.112.207 -0.008539118 0.01027707 -0.00871955 -0.01657509 -0.034693826 0.0026566503 -0.021354344 0.0034528847 -0.02348319 0.014538372 -0.008535988 0.010068493 -0.0066672536 0.034873784 -0.008598976 0.0059739547 -0.026089493 0.024804326 -0.04661969 0.0396742 0.0048768073 -0.010264803 -0.00519122 0.008110935 -0.030039696 0.009173993 0.021086335 -0.028009672 -0.015767224 0.013370583 0.02136905 0.028202236 0.00048342685 -0.00027263566 0.012652658 -0.006679216 0.02317201 0.006909509 -0.010056898 0.024820492 0.01448616 0.0032885387 0.0053868955 -0.023128856 0.007102333 -0.0034530025 0.01873406 0.021152329 -0.03620908 -0.026488408 0.04006537 0.0109294485 0.026108632 0.03423207 0.0016289954 0.013924276 -0.0076157274 -0.023337863 0.019558031 -0.03698843 0.015604122 0.008538476 0.0030400623 -0.00440408 -0.03237491 -0.03994634 0.0097176265 -0.029288903 -0.027456835 0.00063097355 0.009031256 -0.030426452 -0.03445763 0.008856847 -0.0049587125 0.00058026414 -0.02292384 0.036275227 -0.020262271 0.021532109 0.021986227 -0.03658955 0.020730417 -0.010507462 -0.0070858016 -0.0052393065 0.017664667 0.018654639 0.011960486 -0.015758047 -0.006375817 -0.013788021 0.024535548 0.023203868 0.030917337 0.02718218 -0.0018739908 -0.029832385 -0.0005250589 0.0008076349 -0.0138871465 0.02686411 -0.0018838743 0.01436237 0.019579848 0.023412965 -0.029597173 0.008849853 -0.013477793 -0.02631404 -0.009393085 0.0140357595 0.0027550033 -0.022359038 -0.0013978493 0.006007268 0.024227599 -0.023965802 0.009640173 -0.003946524 -0.007753263 0.0027408164 0.01634106 -0.00036910537 0.00067614834 0.013965974 -0.0037858223 0.021349048
172.016.112.149 -0.018382192 0.010926955 -0.008807707 -0.016658215 -0.04475529 0.001016854 -0.02928719 0.003561078 -0.027135123 0.014639428 -0.0003240041 0.018405063 -0.008654511 0.045481864 -0.01023954 0.009400716 -0.034661155 0.028485391 -0.06988651 0.047658063 0.010078214 -0.013793044 -0.0045867595 0.014711302 -0.044195253 0.016098782 0.033870686 -0.03212166 -0.014148926 0.014981411 0.0191518 0.033585988 -0.004013109 -0.006173348 0.021758694 -0.007934114 0.030988414 0.009965832 -0.007641163 0.029156044 0.026602048 0.005923896 0.008222562 -0.028486133 0.007953693 -0.008952841 0.024038525 0.028950296 -0.04404721 -0.032523338 0.055105373 0.018196188 0.035274263 0.046202816 0.0013470871 0.009522535 -0.0016213846 -0.022978773 0.026639618 -0.050364774 0.012147497 0.0073871734 0.0109134335 -0.0061345296 -0.037305772 -0.05056578 0.010429969 -0.042808868 -0.03155296 0.0005087909 0.014138076 -0.042690113 -0.03752648 0.019276958 -0.006348139 -0.0062089567 -0.022799991 0.05274933 -0.017464519 0.030762736 0.034392685 -0.040500935 0.024826424 -0.016796315 -0.0030709067 -0.008965933 0.03373948 0.023561776 0.016385766 -0.030027973 -0.008621681 -0.015793264 0.028494786 0.03511776 0.042721692 0.028615225 -0.007549437 -0.041051548 -0.00972221 0.004678233 -0.022365488 0.03340877 -0.0010814265 0.02045971 0.024023097 0.031516064 -0.042740054 0.010631271 -0.020074183 -0.022935964 -0.016320685 0.014436406 0.009366628 -0.020947725 -0.001922288 0.0036806175 0.029025242 -0.030874195 0.0061112554 -0.0034011418 -0.0010478749 0.0038524482 0.021036519 -0.0021403069 -0.0027071193 0.016522843 -0.004077754 0.02444579
172.016.114.169 -0.009531226 0.021984741 -0.016597286 -0.013793348 -0.053257633 0.0063156625 -0.03029465 0.0065345517 -0.03239162 0.024034567 -0.010381518 0.010900666 -0.0025010002 0.04669244 -0.009436596 0.016554458 -0.038199265 0.03957737 -0.06427609 0.05484639 0.007730468 -0.011813322 -0.0036938994 0.013839992 -0.04440796 0.011599352 0.037975404 -0.036344603 -0.022161184 0.016313849 0.027585104 0.042984538 0.00071524276 -0.0043594306 0.016397644 -0.009060079 0.02836678 0.008257108 -0.012597721 0.038151804 0.029449968 0.007897939 0.01367687 -0.03591963 0.008933365 -0.011301559 0.02589952 0.033957135 -0.05086789 -0.038525783 0.06181888 0.024377683 0.035800245 0.04317079 0.0077728457 0.022075532 -0.006384954 -0.030984899 0.028228216 -0.051984556 0.022783281 0.014306431 0.0058780597 0.00058166595 -0.046475966 -0.057678603 0.0068982746 -0.04645794 -0.036537506 0.009666292 0.013960652 -0.04602927 -0.05010786 0.009667542 -0.001569913 -0.004982758 -0.033949476 0.05189063 -0.02433264 0.032571305 0.036460362 -0.052262887 0.033671424 -0.013596961 -0.010941377 -0.010127548 0.025511116 0.023554577 0.014383395 -0.024408393 -0.007146673 -0.013941423 0.042249925 0.026942348 0.049538434 0.035025727 -0.002587443 -0.043522157 0.008147615 -0.007483062 -0.022339247 0.033085044 0.00185109 0.025098216 0.029182311 0.033142675 -0.03910543 0.0039303284 -0.014464648 -0.036533467 -0.012939289 0.013461615 0.0042251316 -0.03218282 0.0039102314 0.003925549 0.02510866 -0.02905772 0.014324348 -0.0013518682 -0.013829434 0.008992671 0.022059573 -0.0045454404 0.0056454297 0.023601064 0.0011110147 0.03250225
195.115.218.108 -0.013189519 0.021372799 -0.01494121 -0.019016102 -0.060510285 0.006180236 -0.03896066 0.010272244 -0.031708196 0.024185145 -0.010498973 0.01569752 -0.009524028 0.053060565 -0.009853149 0.0151730515 -0.047419127 0.043943405 -0.070381135 0.058874182 0.0075982288 -0.013154231 0.0011966613 0.0128010735 -0.047872525 0.012340434 0.0404061 -0.04535693 -0.02104521 0.023767527 0.035845198 0.042019185 0.006172285 -0.009787391 0.019606993 -0.012577207 0.035758153 0.008727255 -0.0116649605 0.040690053 0.026286297 0.008281378 0.020093633 -0.03437985 0.014054071 -0.013362559 0.027760122 0.031478997 -0.05931654 -0.04362479 0.06452781 0.02314441 0.04231585 0.047475237 0.012578248 0.025039941 -0.006880296 -0.030193191 0.03785368 -0.062611796 0.025218986 0.013102585 0.0037425654 -0.00260967 -0.048234075 -0.06785717 0.008044446 -0.047939528 -0.03622236 0.010476237 0.017830763 -0.05685851 -0.056209914 0.007826527 -0.0005915809 -0.003766761 -0.034154136 0.057026263 -0.027285418 0.037015077 0.039989702 -0.053550564 0.031287294 -0.014177239 -0.009102169 -0.010782771 0.033733554 0.024287576 0.019551847 -0.02169346 -0.008111313 -0.018684786 0.04188911 0.029860685 0.048817255 0.03531975 0.00063852494 -0.05114201 0.0031292767 -0.0024860224 -0.023362426 0.0402407 0.0017218336 0.02623101 0.032437857 0.04053936 -0.040141016 0.009885013 -0.020671701 -0.043118615 -0.017682284 0.01848977 0.0068224575 -0.033829883 0.004526486 0.0068219835 0.034787364 -0.038085453 0.018252961 -0.002921886 -0.01691981 0.008120219 0.029867403 -0.0011224356 0.0072043417 0.021913104 -0.0056358185 0.030105192
192.168.001.020 -0.0046400754 0.0074100364 -0.003827311 -0.0078118527 -0.013998799 0.0012544937 -0.0067291595 -0.0020450968 -0.007848666 0.0062825605 -0.0068484913 0.0046279347 3.9534527e-05 0.016554855 -0.0046914183 0.0025330246 -0.012753734 0.015563095 -0.022748835 0.016757937 0.0030597218 -0.005274831 -0.0011691039 0.0044856807 -0.013020777 0.004211503 0.0117407 -0.01380102 -0.004647065 0.0075618336 0.0076174363 0.014033701 0.0009575034 -0.004239092 0.009874589 -0.0018289569 0.0095734345 6.468885e-05 -0.0016949526 0.008701008 0.0051160506 0.0036407174 0.0009064122 -0.013760604 0.001991985 -0.0021279897 0.0094648395 0.009230731 -0.01725515 -0.011624949 0.01594693 0.006942477 0.013340004 0.011284526 0.004990276 0.004539442 -0.005325879 -0.011844381 0.007364317 -0.01398436 0.006189701 0.00514249 0.0029060226 -0.0034781296 -0.014006879 -0.02266806 0.0017298687 -0.014876952 -0.012790004 -0.0007905589 0.0020472547 -0.0137516875 -0.01201017 0.0047362754 -0.0020745574 0.0018107938 -0.009660732 0.014103878 -0.009164844 0.014435656 0.014602066 -0.016600385 0.013386739 -0.0042984444 -1.8907653e-05 -0.0049706697 0.010761651 0.00829081 0.009724332 -0.0047371555 0.0009965228 -0.006174863 0.0130517315 0.0068841865 0.018862749 0.012447089 -0.002736835 -0.01585338 -0.0015611632 -0.0025741656 -0.004708155 0.008663478 -0.003944483 0.003864074 0.011420483 0.012465362 -0.009098754 0.0005768216 -0.0064692544 -0.013593017 -0.005681963 0.001765637 0.0043397527 -0.00655432 0.0023129056 0.0008429473 0.012787531 -0.01176382 0.0029978883 0.00021908578 -0.00037655205 2.6013528e-05 0.0057058157 -0.0016718196 -0.0021198408 0.00806489 -0.00033407912 0.01170615
172.016.112.194 -0.012699857 0.016798805 -0.012544402 -0.019036777 -0.044696614 0.0022927676 -0.026220294 0.003987412 -0.027194997 0.020153623 -0.008008774 0.014977571 -0.004115223 0.04266644 -0.0051079993 0.010911128 -0.04021529 0.032703403 -0.054012403 0.044699885 0.011465434 -0.010073326 -0.0017079606 0.008506807 -0.042089034 0.009814579 0.028231181 -0.036205757 -0.018746221 0.017035242 0.0234951 0.033149067 0.00038844958 -0.008298214 0.016449701 -0.014726111 0.023920912 0.0067152157 -0.012872396 0.031425424 0.021107085 0.010550758 0.009872083 -0.03274686 0.004929226 -0.009695071 0.022341054 0.023177952 -0.044280663 -0.03319965 0.04948916 0.015165389 0.033087276 0.04036759 0.0052791755 0.017068055 -0.0059960573 -0.025665894 0.03152454 -0.047370575 0.02295005 0.011334715 0.007870334 -0.0038560044 -0.03584411 -0.05329722 0.010737784 -0.041937336 -0.0352484 0.009637142 0.013623513 -0.039438177 -0.045543462 0.010890484 -0.0023011328 -0.0028356772 -0.029154412 0.048859596 -0.020830827 0.034670897 0.031093746 -0.04595343 0.026338907 -0.01323215 -0.0068628937 -0.00891861 0.022032276 0.020985285 0.011557778 -0.022036295 -0.0044137673 -0.01616107 0.037612043 0.028543768 0.03754348 0.03369887 -0.0018331978 -0.038655117 0.0039003976 -0.005197826 -0.019404048 0.030981436 -0.0007685719 0.020237898 0.025681343 0.032247525 -0.03428261 0.009331386 -0.016453002 -0.028727068 -0.013519882 0.014657646 0.0033288803 -0.022511452 0.0060059815 -0.0008389272 0.022316923 -0.02980102 0.014378118 -0.0039295945 -0.010159936 0.004472914 0.022137377 -0.002346133 0.00918531 0.019879982 -0.004545806 0.025623139
204.123.002.107 -0.0015436282 0.009208389 -0.0018713468 -0.0068650004 -0.014271625 0.0035363694 -0.0071491636 -0.0018366405 -0.009031135 0.009699402 -0.00744318 0.0062605906 0.00034051976 0.017488569 -0.0038706302 0.0033758082 -0.014636348 0.015013024 -0.016934846 0.020131957 0.0038487078 -0.0063841306 -0.0010427025 0.004189329 -0.013803025 0.0059303315 0.00737735 -0.014479758 -0.007881978 0.00974638 0.008362697 0.009577491 0.0005349689 -0.0022564705 0.008825256 -0.0018033229 0.011185136 0.0022793822 -0.007232708 0.010087233 0.0112848375 0.0056613195 0.007956229 -0.0070627322 0.0053921575 -0.003935811 0.0045787664 0.011196388 -0.017528202 -0.0070543597 0.020437375 0.0065256422 0.012021454 0.013303549 -0.0013711845 0.003983215 -0.0003449493 -0.0091422405 0.0104583 -0.016135275 0.003826813 0.004403054 0.0030738725 -0.00046354922 -0.01720528 -0.019679341 0.0037771277 -0.01624174 -0.0105569605 -0.0008411787 0.007167644 -0.015454041 -0.012863684 0.0052943323 0.0016761767 -0.0034756663 -0.012822452 0.016882101 -0.009651034 0.011252074 0.013963325 -0.018395167 0.011038435 -0.0040981537 -0.0017574764 0.00016857684 0.011735972 0.0034904052 0.0027385298 -0.0057839053 -0.0054150512 -0.005574623 0.014106466 0.010037646 0.010627268 0.010146448 -0.0006121361 -0.01192762 -0.001236343 -0.0034354643 -0.0046761045 0.009868005 -0.0007372096 0.0033808565 0.008415632 0.0137091465 -0.01419854 0.0060105827 -0.005612037 -0.008261098 -0.002070557 0.00607666 0.0014092558 -0.0066826646 0.0027243865 -0.0025583082 0.010393741 -0.010731557 0.0068213404 0.0016037053 -0.007053172 0.0050284727 0.0035078744 0.0018167064 0.00088082947 0.0056047346 -0.0036600092 0.006125101
196.037.075.158 -0.0144307185 0.023610368 -0.022458034 -0.020936329 -0.064464554 0.009150271 -0.041744575 0.010512969 -0.040214192 0.025800204 -0.017508836 0.016385725 -0.008761702 0.05657914 -0.009421345 0.016345894 -0.048804827 0.04798776 -0.07695255 0.064139225 0.008038082 -0.012508525 -0.0040984326 0.016948571 -0.0506676 0.012493746 0.04473955 -0.047356352 -0.02192199 0.020294575 0.03481434 0.045237802 0.007901298 -0.009313413 0.02246216 -0.016484426 0.03402567 0.008984912 -0.016499262 0.04359563 0.033274807 0.014856346 0.018435279 -0.041907907 0.011235639 -0.013593631 0.034111455 0.035546433 -0.06153793 -0.040772513 0.06962984 0.026096996 0.041815896 0.050667003 0.007851637 0.020456357 -0.01019402 -0.03568703 0.037124038 -0.06529823 0.031322926 0.01604984 0.005620227 -0.0052819317 -0.05261756 -0.07805054 0.008851317 -0.055781085 -0.045441955 0.009184798 0.016694976 -0.056656763 -0.061620433 0.013251185 0.0021916875 -0.0040011313 -0.03583529 0.06488915 -0.035202652 0.045944802 0.04387452 -0.065604165 0.034757726 -0.017948106 -0.013788582 -0.0096442085 0.0358298 0.026156574 0.024447834 -0.029526178 -0.0029804814 -0.015454641 0.04631048 0.03654871 0.056745846 0.04184877 -0.0053848247 -0.05649984 0.0033971819 -0.0036096245 -0.028277868 0.04704234 0.00033375484 0.025667947 0.032956757 0.042263784 -0.047794715 0.010306543 -0.025256697 -0.046303935 -0.011740519 0.017336389 0.0070171687 -0.038087957 0.003205548 0.006658256 0.03695274 -0.03588182 0.013637427 0.0012717191 -0.017273312 0.0096901255 0.03144471 -0.005227794 0.011528596 0.024185317 -0.005154545 0.034296997
207.025.071.141 -0.0026601069 0.0068093166 -0.0033823766 -0.0052330084 -0.01887078 0.0036710338 -0.013507758 0.0008782067 -0.011697204 0.00997826 -0.0048305276 0.006681152 -0.004703299 0.021698486 -0.003923079 0.0051559806 -0.018313995 0.013239027 -0.023885302 0.023240801 0.0053106444 -0.0068189614 -0.00155493 0.0061126426 -0.015248567 0.0036378412 0.011180314 -0.016157087 -0.0047843354 0.0070304847 0.015298437 0.018921297 -0.00029363838 -0.001567288 0.008630233 -0.003364061 0.006843876 0.0022284803 -0.0042278906 0.013934771 0.013649818 0.0022789272 0.008539922 -0.011395367 0.0015788185 -0.0055193165 0.008031028 0.011837635 -0.022843212 -0.010390838 0.01930982 0.0079865875 0.013675302 0.013259338 0.00012938096 0.009937722 -0.0039705536 -0.011855742 0.008354694 -0.022091009 0.0123721585 0.00642695 0.002258048 0.0009263333 -0.02023707 -0.023684382 0.0008930927 -0.018672507 -0.011146219 -0.0010553073 0.0076294364 -0.020185366 -0.016069416 0.005147371 -0.0026102415 -0.0017687973 -0.012460246 0.016525444 -0.0073119793 0.016762078 0.013955032 -0.018576099 0.012329234 -0.006136137 -0.004993458 -0.0006140487 0.014763402 0.01159749 0.008520411 -0.004612198 -0.0051828516 -0.0034059915 0.01844619 0.010991128 0.01615575 0.017142287 -0.0033205533 -0.015511461 0.0046733287 -0.00045998534 -0.010208538 0.015606614 -0.00085752225 0.010985518 0.012796409 0.011799531 -0.012191879 0.0036667045 -0.009499177 -0.016920388 -0.006002181 0.004414911 0.0015961928 -0.011944057 0.005462412 0.003206388 0.0103648305 -0.015075549 0.008017723 -0.0018420983 -0.0024329121 0.0028380763 0.011070583 -0.001482866 0.0003379885 0.01100144 0.00093396177 0.010143217
137.245.085.134 -0.0018487395 -0.00038790132 -0.002901581 0.0014751537 -0.0025285815 0.0028573344 -0.0025052894 0.0025519975 -0.00021374435 0.005023053 -0.00034753242 0.0019975165 -1.4505989e-05 0.0038374648 -0.0036998813 0.0034855877 -0.0037575923 0.0011463703 -0.005909753 0.0062829135 0.002138087 -0.0036824134 -0.00059769535 -0.0029226374 -0.0033807037 -0.0029305299 -0.00023470842 0.0007886186 -0.004105254 -0.00026372634 0.0037446173 0.0034645293 -0.0014431024 -0.00035891263 -0.0022307842 -0.003863512 0.0018814949 0.00034541276 -0.0007886157 0.0051162317 5.7511264e-05 0.0027753303 0.0024417695 -0.0021750396 0.0015380029 0.0011843452 0.0031294366 0.002892151 0.00030513387 0.00039166538 0.006388662 -0.0005861713 0.004839098 0.0033582586 0.003537052 0.003771569 0.0014684413 -0.0018067546 0.0053615225 -0.0050274357 0.0012332569 0.00044124248 -0.0015863043 -0.002146907 -0.0054311487 -0.002136539 -0.0006608919 -0.003571976 -0.0035175649 0.003988335 -0.0012828398 -0.0006541251 -0.0012948865 0.0037592838 0.0005379023 -0.0032480587 -0.0016085355 0.004922038 -0.0009184076 -0.0013091913 0.0010528066 -0.0060322774 0.0035223956 -0.0024337212 0.0014935739 0.0013001174 -0.0011210353 0.0024549721 -0.002046674 -0.0015089877 0.0027021894 0.002272449 0.00071467226 0.002626645 0.0023448651 -0.0012699733 0.0032419153 -0.0022244959 0.0027771292 -2.4925306e-05 -0.0007777953 7.1548857e-06 0.003145218 3.169547e-05 0.000834058 0.0035692535 -0.0031008527 0.0028224715 -0.0027461858 -0.004854884 0.0023047104 -0.0005743005 0.0030439198 -0.0033357292 -0.0006743147 0.004012685 -0.0018466121 0.0011739157 0.0013034977 0.0025179288 -0.0042769727 0.00020447817 0.0016481646 -0.003027452 0.00052011554 -0.00046115345 -0.0037551317 0.0017294836
172.016.113.105 -0.013740375 0.012408707 -0.01193347 -0.013163198 -0.04355219 0.0029168986 -0.032009248 0.0035978486 -0.023740744 0.015011605 -0.006264074 0.009708885 -0.003118114 0.039204016 -0.010605279 0.011362813 -0.037051156 0.029320091 -0.054236192 0.049593084 0.007055585 -0.010192148 -0.004060054 0.013344308 -0.03709092 0.00957675 0.03262425 -0.033823527 -0.015936214 0.013439688 0.02831023 0.034643043 0.0032321322 -0.007348445 0.015935365 -0.010207318 0.028851569 0.011702975 -0.012916547 0.03188204 0.027154814 0.006772472 0.0100960005 -0.029128026 0.005701217 -0.0076266937 0.02117925 0.030669078 -0.046853688 -0.027800426 0.052258424 0.01988491 0.033714514 0.035838827 0.0032010283 0.01516642 -0.0043365 -0.028483914 0.029296163 -0.048228443 0.020960521 0.0078048287 0.007912819 -2.6102236e-05 -0.040293165 -0.053730078 0.009624798 -0.034863114 -0.030153282 0.005031575 0.011098769 -0.0428982 -0.04560861 0.009818049 -0.0046770913 0.00023336324 -0.027301967 0.04621648 -0.021090861 0.034549374 0.028189588 -0.043396436 0.02937555 -0.007694371 -0.0061626155 -0.007831758 0.029050311 0.01781061 0.013560431 -0.01690415 -0.004516076 -0.015673004 0.030614603 0.026386078 0.038684554 0.032703936 -0.0007639876 -0.03700107 0.003760469 0.0005325773 -0.02073417 0.03151756 0.001979794 0.022741612 0.024851626 0.03264839 -0.036292 0.009052087 -0.016902134 -0.026564276 -0.008375682 0.015925517 0.0015211562 -0.021125775 0.00097424764 -0.0006315388 0.027011037 -0.030706868 0.011332082 0.0012372906 -0.012358755 0.008099781 0.022413902 -0.0014016085 0.0034194908 0.019897396 -0.0050535984 0.022925848
172.016.113.084 -0.025586497 0.029489493 -0.025544206 -0.028276514 -0.07988711 0.0072884727 -0.049177963 0.0051621445 -0.04891647 0.031188136 -0.014760562 0.028400583 -0.005264606 0.07374241 -0.015708994 0.02237694 -0.06301928 0.05893269 -0.097784154 0.085943736 0.02036245 -0.018765567 -0.002654338 0.017770994 -0.073286526 0.01988572 0.054530926 -0.057235673 -0.030059133 0.028643154 0.040701404 0.061349135 0.00443858 -0.006497098 0.030087523 -0.020581683 0.04938956 0.017204246 -0.016759945 0.05736847 0.04455945 0.010603504 0.019165643 -0.04679433 0.012713459 -0.019995507 0.039543115 0.04425331 -0.07849752 -0.058009654 0.08749131 0.029637385 0.060751807 0.07012354 0.011548984 0.025519181 -0.010568354 -0.04070581 0.049396068 -0.08647163 0.03253818 0.01719696 0.011484237 -0.0032366868 -0.06507369 -0.09395244 0.01520468 -0.06859721 -0.051351264 0.0060064034 0.023411455 -0.07558608 -0.07583599 0.015988126 -0.0033545478 -0.0017592749 -0.04753145 0.085084826 -0.04128499 0.055177715 0.054666083 -0.078179516 0.045482468 -0.02302734 -0.013416572 -0.0092445705 0.049542196 0.029056959 0.031546734 -0.039294723 -0.011526219 -0.018865673 0.054122943 0.0501213 0.07465118 0.051463444 -0.008721484 -0.06998451 0.0045954506 -0.0013025329 -0.03418863 0.056183837 -0.006012696 0.034111388 0.043791533 0.051901456 -0.061977327 0.009311138 -0.032372095 -0.04991619 -0.020641988 0.02833699 0.00902993 -0.042768154 0.002731423 0.005282013 0.047051765 -0.0528738 0.022191303 -0.005707506 -0.015869478 0.007078707 0.041075476 -0.0041767387 0.0032430664 0.031981625 -0.0014430188 0.044237595
172.016.114.148 -0.0033518597 0.0066652284 -0.0030367733 -0.009895159 -0.020214003 0.00050798897 -0.008010623 0.00043903838 -0.010764952 0.0071240324 -0.004594888 0.002279528 -0.0052620643 0.016324677 -0.0045236135 0.004855308 -0.016289102 0.012075224 -0.018686779 0.021564558 0.0020667666 -0.0075527867 0.0025360729 0.005126411 -0.019168146 0.008168005 0.013215619 -0.013750649 -0.009700633 0.010522132 0.008970901 0.012636241 -0.00014220073 -0.0005883442 0.0059047164 -0.0076280204 0.01341795 0.005393464 -0.0036687076 0.010160743 0.010351662 0.0032639485 0.0048368657 -0.014256538 0.001216248 -0.006701383 0.009878812 0.010992229 -0.021515366 -0.0136573315 0.016901052 0.004826732 0.012397137 0.01821699 0.0007240972 0.009626079 -0.0017358203 -0.008541409 0.010202867 -0.020539202 0.008018795 0.006173516 0.00086306664 -2.0826585e-05 -0.016584676 -0.024252439 0.0043611736 -0.014420114 -0.009644187 0.00017695937 0.005537699 -0.014057774 -0.014541209 0.001253889 -0.00011256241 -0.0018204883 -0.010438038 0.02222548 -0.00990395 0.0101288445 0.015149198 -0.021702925 0.009558748 -0.0040620454 -0.0054662563 -0.0058983634 0.0073916703 0.004875023 0.0076589203 -0.008996124 -0.0040796003 -0.0032227032 0.01754035 0.007526265 0.014748376 0.0123343775 0.0017373493 -0.012871188 0.002629067 -0.0017833562 -0.010914953 0.0123692155 0.0003967571 0.009142123 0.014177091 0.008264845 -0.012214606 0.0048666205 -0.0068122726 -0.00964595 -0.004463515 0.008662754 0.00028048706 -0.0065963715 0.0021421418 0.0037879222 0.011587772 -0.013703356 0.0049717934 -0.0006185763 -0.0076776897 0.0015630191 0.011711994 -0.0006017759 -0.0009788134 0.007632398 -0.00026831916 0.011623861
194.007.248.153 -0.010486752 0.009006044 -0.0057192873 -0.013623483 -0.034900382 0.0063615865 -0.020493457 0.002275008 -0.0195949 0.009632342 -0.007280225 0.0054925764 -0.0044298484 0.028201796 -0.007906416 0.011222176 -0.022335231 0.019332841 -0.03951169 0.037131555 0.008027633 -0.0046600713 0.00052583206 0.0067230696 -0.02804218 0.0087736035 0.019027147 -0.025216006 -0.0077360813 0.012474572 0.018070195 0.027016446 -0.00116418 -0.0064080344 0.00974683 -0.007446929 0.020241108 0.0055209314 -0.011212812 0.020916142 0.013022955 0.0021652654 0.005780511 -0.01641003 0.0086020855 -0.0042357044 0.016323885 0.018715678 -0.035055395 -0.019358225 0.039846852 0.010207913 0.018875776 0.03141035 0.0021288628 0.015327396 -0.007360664 -0.018145628 0.022376394 -0.036853153 0.014926164 0.009925007 0.005255921 -0.0052555404 -0.024835221 -0.03984563 0.0070993686 -0.028650489 -0.025065864 0.007593887 0.00757007 -0.03036812 -0.03315103 0.009619042 -0.00049724965 -0.0016747229 -0.020809183 0.03301621 -0.0127858315 0.025609381 0.02128602 -0.03412907 0.022932418 -0.005346379 -0.0068647987 -0.0073432857 0.017822452 0.010514497 0.012340522 -0.013935249 0.0001541035 -0.011638506 0.022063125 0.017918725 0.029102132 0.025113914 -0.0021510338 -0.031061511 0.0027100872 -0.0029234504 -0.011632031 0.023356237 -0.00459925 0.013532581 0.021347232 0.023520272 -0.025857618 0.0034467606 -0.012615368 -0.019027904 -0.01008997 0.009083189 0.0021278453 -0.018518632 -0.0006046023 -0.0014233917 0.017635085 -0.018910546 0.008788681 0.0025020018 -0.007333548 0.0026455126 0.018833041 0.00238902 0.0012609259 0.014216942 -0.0006699391 0.018474808
207.025.071.136 0.0035654167 -0.0028498329 -0.00011109873 0.0015851953 0.0020733066 -0.002893854 -0.0013398135 -0.0036274444 0.0018880835 0.0020035729 0.0022999563 0.00041511207 0.0003644677 -0.0027318986 -0.0028116684 -0.00094315945 0.0021161016 0.0034871718 0.0028706805 0.0038294937 0.00031838365 -0.0022016645 0.0025234118 -0.0012089622 0.0035465488 0.0015941954 -0.00080580974 -0.0017989617 -0.0013340841 0.0037447542 -0.0011566224 -0.0009309403 -0.0034161704 -0.0023172693 -0.0007489282 -0.0032520266 -0.0009904674 -0.0019670771 -0.0003201492 0.00149065 -0.002440089 -0.0016643184 -0.0024679233 -0.0018370964 -0.00011532272 0.00018896158 0.0031993934 -0.0035597547 -0.002529513 -0.0023482365 0.0016212926 -0.003852515 0.002079912 -0.0007768951 -0.003869409 -0.0028864022 0.00091981323 -0.0027361251 -0.003312144 -0.0028152466 -0.00023949593 0.0009761366 0.0019528489 0.0019626678 0.0037122732 0.0020099087 -8.774657e-05 -0.0031387717 0.00032684833 -0.00028160147 0.00012970252 -0.0024459918 0.0024815605 0.00020138708 -0.0025718475 0.0035380372 -0.001201904 -0.0036638204 -0.0023697386 -0.0012208213 -0.0017880411 0.0009960477 -0.0026570975 0.0007840297 -0.0006710653 -0.0027697773 -0.003494416 0.0012960028 0.0008824905 0.0021100969 0.0033758332 -0.003553255 0.0022972557 -0.0016553524 0.00141838 9.077815e-05 -0.0029248083 -0.0029090878 0.0034243918 -0.00021291926 -0.0031143161 0.0011344593 0.0038122896 0.0023725524 0.00085253065 0.0015562278 -0.0013481216 -0.0012735395 0.0022558349 -0.00057609996 0.0005380963 0.0017683 -0.0014876229 0.0015620814 -0.0006065355 -5.392224e-05 -0.00070874294 0.0037653996 -0.0026474327 -0.0033006694 0.0009612618 0.0010662168 -0.0020558396 -0.0023560056 0.0012628786 0.0016936988 -0.00013741091 0.0007594033
192.168.001.010 -0.0026507245 0.004230608 -0.0045381463 -0.004032246 -0.01583995 -0.0015540574 -0.012829032 -0.0012969825 -0.008768797 0.009616356 -0.0018206519 0.006507109 -0.0017539774 0.018509276 -0.005423217 0.008880704 -0.015902407 0.011530272 -0.027551474 0.017508863 0.005678432 -0.006905047 0.0019157622 0.00303927 -0.018674325 0.007514517 0.012328969 -0.015096394 -0.008573444 0.009382376 0.013483938 0.016031142 0.0034890985 0.00092620193 0.01099601 -0.003465362 0.011796845 0.0050337636 -0.007819213 0.015755495 0.011567699 0.0027236817 0.0058810147 -0.011312347 0.001244912 -0.00730688 0.007296549 0.013312741 -0.021379853 -0.017521488 0.020631094 0.00950711 0.012071617 0.020370588 0.0033669993 0.010388617 -0.0036611483 -0.008641256 0.011816207 -0.023797866 0.010418795 0.007630757 0.0050856173 0.00029121275 -0.01486878 -0.02120342 0.0028727385 -0.018040203 -0.014448356 0.006379064 0.00862417 -0.016712489 -0.022044223 0.0010559398 -9.0106485e-05 -0.0032975415 -0.011914811 0.021167586 -0.006701818 0.017660208 0.014122849 -0.021420928 0.015281341 -0.0040094247 -0.002499925 -0.00019534596 0.015247494 0.0058650393 0.0104745645 -0.00845813 -0.0005347175 -0.00725186 0.012220989 0.014380979 0.021581579 0.016988633 0.0022223634 -0.020287491 -0.0013220198 -0.0011914563 -0.0062642735 0.013533582 -0.0005645484 0.010508023 0.011447668 0.009457296 -0.01644763 0.0058964174 -0.008292979 -0.0130831525 -0.005910677 0.004604246 0.004784616 -0.009303061 0.0015019579 -0.0007235263 0.008881891 -0.012992555 0.0068800263 -0.0032737085 -0.0040769293 0.0060684443 0.009743971 -0.0012401617 -0.0003157633 0.0056764763 0.0014202143 0.0086872205
135.008.060.182 -0.015430084 0.02554848 -0.019059412 -0.028256133 -0.06800461 0.0038483834 -0.045832966 0.004695253 -0.04561101 0.030393464 -0.016974004 0.022935672 -0.004710444 0.06565081 -0.013355151 0.01969504 -0.05397148 0.048218895 -0.0924962 0.074534796 0.017013423 -0.021015437 -0.0068923957 0.015614071 -0.0593589 0.01845082 0.051557764 -0.05230795 -0.029262716 0.02613449 0.0357256 0.053913258 0.0010563922 -0.0077427044 0.02358945 -0.013071331 0.038428273 0.015651556 -0.012663168 0.054146998 0.04043529 0.010229569 0.0152990855 -0.04517914 0.015572259 -0.017204111 0.037994765 0.044779494 -0.07139356 -0.047137883 0.08393775 0.028501635 0.0510571 0.064141504 0.00895032 0.022615336 -0.009545088 -0.035814602 0.0428859 -0.07140782 0.027587434 0.016717926 0.011703707 -0.009101108 -0.061898194 -0.08617157 0.013175179 -0.06289652 -0.051590674 0.011968055 0.020252613 -0.063587114 -0.06473381 0.016054148 -0.0013877684 -0.006273999 -0.043254785 0.07346898 -0.031100111 0.049114607 0.049145024 -0.067103826 0.043006178 -0.021026202 -0.016621126 -0.0109908385 0.043879066 0.030227024 0.022230452 -0.03162707 -0.004948064 -0.022506421 0.04997024 0.043040566 0.066548385 0.050969955 -0.0026992878 -0.06624955 0.004009963 -0.0017560597 -0.03107611 0.05355916 -0.0041142325 0.03566499 0.040573552 0.044542354 -0.052502308 0.012417451 -0.026385294 -0.047804307 -0.013990811 0.021401651 0.009651295 -0.037019014 0.003735019 0.0029971204 0.04445842 -0.044230696 0.0162159 -0.0018804675 -0.018097369 0.0126231 0.036310263 -0.0006855969 0.005802824 0.027227672 -0.0012655635 0.039599415
