37 128
194.027.251.021 -0.0028846595 0.0005545985 -0.003550859 8.422345e-05 -0.0028376246 -0.0029942736 -0.00019191287 -0.0037106758 -0.0029663006 -0.0008982542 -0.0020768524 0.0027343384 -0.0015159235 0.0034631924 -0.0026729943 0.003999993 -0.000712912 -0.0008371373 -0.0044096615 0.0041154586 0.0023192405 0.00080837315 -0.0036938472 -0.0011497468 -0.001536956 0.0001334748 0.002932986 -0.0014021992 -0.003964207 0.0027802864 0.0011971823 0.0016851948 -0.00059436454 -0.0033204006 -0.0016647162 -0.0018081792 0.0020495572 0.0037825932 0.0029385763 0.0012860382 -0.0004856823 -0.0030772996 0.0039499965 -0.00021869314 -0.003878997 -0.004018101 0.0021171935 -0.0001994557 -0.0020953692 -0.0015965416 0.0039830892 -0.0031231546 0.0028526045 0.0026640196 0.0019434267 -0.0009285898 0.0037425114 5.5220513e-05 0.0012259998 -0.0022744033 0.0012588907 0.00072537776 0.0018195561 -0.000282793 -0.003888586 -0.0042836554 -0.0036401208 -0.00073928427 0.0005361708 0.0018338149 0.0021487938 -0.0032264595 -0.002069692 0.0012543016 -0.0032687972 -0.00010760991 -0.0005158029 0.0033075477 -0.0029245727 0.0037075267 -0.0004707716 -0.0028643655 0.0026201655 -0.0022187594 0.0002412218 0.0017013237 -6.4870976e-05 -0.0020201302 -0.0034093405 -0.00067880366 -0.0014364334 -0.00052916247 0.0041135238 -0.0022719873 0.0025893385 0.0021422247 -0.00014403104 -0.001940065 -0.0036295487 0.0006790245 0.0016861582 0.0012757118 -0.0009420903 -0.0019304377 0.00030592948 0.0017193716 -0.00043886775 0.0012765632 0.0027704458 -0.0025586048 0.002873986 0.0013072742 -0.0021782592 -0.0034528705 -0.0035398516 0.00010769578 -0.0033619292 -0.0020929605 0.0007158273 -0.0011511082 0.0024040965 -0.0021221307 -0.0014781405 0.001300462 -0.00043694983 -0.00066550414 0.0034057354 0.0009165181
192.168.001.001 0.00020702013 0.0018113017 -0.00053016766 -0.0014490588 -0.004024954 0.0016453527 -0.003480912 0.0022615353 -0.0020036767 0.0025670675 -0.0008491383 -3.3318256e-06 1.7147384e-05 0.003472336 -5.9319005e-05 0.0003412918 -0.0041347183 0.004352062 -0.0047617382 0.0036424622 0.00027616258 -0.0015061385 0.0017210399 0.0015813507 -0.003998042 0.0011663806 0.0025279336 -0.0034925663 -0.00034468103 0.0011417378 0.0030960254 0.0037142793 0.00072132354 0.00016568297 0.0024291354 -0.0005736242 0.0017942847 -0.00031446476 -0.0022364294 0.003769697 0.0032728503 0.0024148168 0.0003149317 -0.0037583723 0.002386324 7.4847274e-05 0.0021621888 0.0032747707 -0.0045149415 -0.0033544428 0.0045679277 0.0035530648 0.0023536808 0.0039521996 0.00028932968 0.0026260451 -0.0015937994 -0.0031664793 0.0029675162 -0.0046529425 0.0023112271 0.000987689 -0.0006016392 -0.00032354964 -0.0034477054 -0.004594306 0.0022504258 -0.004454234 -0.003739289 0.00038600425 0.00033223745 -0.0037200684 -0.0041569658 -0.00013906689 0.0015286704 -0.00023492625 -0.0033473398 0.00457034 -0.0018824533 0.0021992284 0.0033490597 -0.004476031 0.002788868 -0.0008495839 -0.0016356818 -0.0017304664 0.002712012 0.0032820776 0.0027848661 -0.0020439867 4.1623367e-05 -0.00091559044 0.002890698 0.0036348286 0.004071243 0.0024341603 0.00018027506 -0.0045735072 0.0022796097 -0.00091745914 -0.002394616 0.003167354 0.00041590733 0.0034442602 0.0032278558 0.0024620558 -0.003040115 -5.9741433e-06 -0.0026372287 -0.0029422317 -0.002270269 0.0011035599 0.0009064215 -0.0019903302 0.0020462594 0.00012602097 0.0035280231 -0.0023133517 0.0014054866 0.00073429727 -0.0025877797 0.0018277861 0.003345729 -0.0008490306 0.0014566728 0.0030546808 -0.0016352435 0.0027214945
135.008.060.182 0.0032256518 -4.4820503e-05 0.0013953879 -0.0023418374 0.0019289419 -0.0023432553 -0.0008773642 -0.0032696824 -0.003223612 0.0038716488 -0.0018453862 0.0008858306 0.0026766309 -0.0006271458 0.00076661457 0.00037900225 0.0027711557 -0.0021903354 -0.0038642185 -0.00042806298 0.002719058 -0.0022209566 -0.0034533653 -0.0018776814 0.0036415507 0.0007867566 0.0039371355 0.00055089133 -0.0034094069 -0.00020232337 -0.0030641267 5.392799e-05 -0.0021584977 0.0010169435 -0.0024770102 0.0038967356 -0.002943677 0.00069254206 0.003657996 0.0013115222 0.0038186335 -0.0020236445 -0.0032721523 -0.00050594355 0.0033807748 -0.0021442457 0.0038317344 0.0020015668 0.0013934949 0.001894325 0.0026012918 0.00041565398 -0.0005924236 0.0019466497 -0.0007806413 -0.0029833522 -0.0019360542 0.002966749 0.00022327185 0.0028427232 -0.0037665393 0.00076420244 0.002544763 -0.003949805 -0.0010674129 -0.0027266091 0.00062918913 -0.0023141042 -0.002889786 0.003918024 -0.00061295036 0.0020648106 0.0020657664 0.0009672563 0.001898705 -0.0032901468 -0.000259943 -0.0006775589 0.0035092442 -0.00045248444 0.0010801761 0.0017219607 0.00028146332 -0.00308681 -0.0029305418 -4.833077e-05 0.0020398046 0.00087946845 -0.0026762052 -9.7049015e-05 0.002746354 -0.0021915047 -0.0021827342 0.000675962 0.0019917663 0.0031249444 0.0017122858 -0.0026743484 0.0013608293 0.0019397939 -0.002612094 0.0020916616 -0.0015047176 0.003040105 0.0013521969 -0.0021698514 0.0014202187 0.0007618338 0.0008212691 -0.00013814933 0.0035196582 -0.0023624687 0.002365233 0.0013222048 -0.0006431107 -0.0018550067 0.003437527 0.0019641817 -0.0015478919 0.00094352633 -0.0011125304 0.003803347 0.0027378267 0.0005723827 -0.0005739737 -0.0030171447 0.0024689834 -0.0011937028
172.016.114.050 -0.0003684657 0.0024342143 0.0021794145 0.00012226075 0.0015595759 -0.0036030386 -0.0010257681 0.00028286135 -0.0011496427 -0.0029804104 0.0019098027 0.0036358885 0.0028081858 0.0025530092 -0.0037145303 -0.00345954 0.0027391638 -0.0034105314 -0.004062944 -0.0010406167 0.001391185 -0.0032664533 0.002802153 0.003388141 6.207236e-05 0.00034680896 0.0025983748 0.0022026517 -0.0019818617 -0.0011071394 -0.0038281104 -0.0014060334 -0.0010689485 -0.0016028744 0.0036689362 -0.00012872349 0.003845105 0.0031152144 0.0026077318 -0.0019014346 0.001613796 -0.0029411109 -0.00312994 -0.0005413436 -0.0024493686 -0.0005794864 -0.00023938411 0.0022880877 0.0012542802 0.0014462818 0.0002000081 0.0015538456 0.0029136941 0.0027832051 -0.0031748598 -0.0015506512 0.003672928 0.0003723383 -0.00096275884 -0.0018628275 -0.0016058843 -0.0035947463 0.0033748914 -0.0015066538 0.0007271648 0.003252144 0.0019189209 -0.0012403573 0.00089218403 -0.00014973157 1.6412192e-05 0.0027256792 0.0032402894 0.0033816514 -0.002631387 -0.0003165497 -0.0020754652 0.003612698 0.0031179225 0.0008321841 0.0019013518 0.0034064057 0.0023635512 -0.0037066282 0.0026803215 -0.00014925656 -0.00080747524 0.0034227455 0.0021415108 -0.003644309 -0.00086612866 0.0032515256 -0.0036342284 0.0027776237 0.0027822636 -0.0035251777 -0.003795241 -0.0010479394 -0.0025766387 0.0035808033 0.0024825456 0.0027704516 -2.2762455e-05 -0.0008730913 -0.0028604416 0.0016754547 -0.0034297924 0.0001856477 -0.003023577 0.0012536948 0.0025457458 0.002113848 0.0017018076 0.0017077951 -0.003657752 0.0027214547 0.0007357296 -0.0029479605 -0.0029657176 -0.00247834 0.0011656404 -0.0005838274 -0.0036228925 0.00076092005 -0.003263313 -0.00067825755 -0.0031881575 -0.0027694087
172.016.112.050 -0.0030462595 -0.0016540275 0.0012736962 -0.00013322962 -0.0026516512 -0.0014301394 -0.0020557183 0.0033795275 -0.0037175536 0.0024151336 0.00037481537 0.0029046328 -0.0031380267 0.0021673972 -0.0030624783 -0.0013390011 -0.0015276752 -0.0035214867 -0.0021935285 -0.002645214 0.0017504679 -0.0021087374 0.0034033484 0.0011008084 0.0019595134 0.0035179853 0.0039736237 0.0027933659 -0.0039517637 0.0011126319 0.0009901504 0.0006642094 0.0021895263 0.0025600553 -0.0009418759 -0.0018445555 -0.002335885 0.0009479674 -0.0013788799 -0.00015810218 0.00032570132 0.0022789892 -0.003764815 -0.0021087648 -0.0039376547 0.0010974049 -0.003648701 0.0017698542 0.0004135947 -0.0037992646 -0.0013046736 0.00078840536 -0.0026247385 0.0014076675 -0.001058909 -0.0029954093 0.0019596443 -0.0017425545 -0.00028058223 -0.00014623876 -0.0009338507 -0.0010941965 -0.0035983021 -0.0021740196 -0.0009988095 -0.0012057892 0.003549303 0.0026240908 -0.000107398664 0.001911957 0.0016928442 0.0028233381 -0.001925811 0.0012161768 -0.0024149702 -0.0026365023 0.0035066528 -0.00046537828 0.0013962067 -0.0031674707 -0.0033432562 0.0020408311 0.003071898 0.0022927884 -0.00079125585 -0.0022658012 -0.0014242006 0.0037860267 -0.0014830525 0.0021932907 0.003477112 0.0006141302 -0.0010730874 -0.0013878074 0.0011175704 -0.00023210794 -0.0030623716 0.00019748296 0.00041489414 -0.0019624946 0.003844036 0.0011968497 0.0025194031 -0.0009883224 0.0012825131 0.00074619794 -0.00250606 -0.0022083274 0.0018125951 0.0016300838 -0.0032177707 0.0012885189 0.0015500064 -0.003583311 -7.472016e-05 0.001961349 -0.0020731152 0.0025436415 -0.0001513445 -0.003877207 -0.0015122617 0.0011116035 0.003453381 -0.0013350502 0.00025850802 0.0012989655 0.0010694385 -0.0031520985
172.016.112.194 -0.0018269329 0.0003594722 0.0010660831 -0.0034879772 -0.00038464373 -0.0019763967 0.00217589 -0.001438053 -0.0009456435 0.0024828536 0.0030607441 0.0027274042 0.00044105592 0.001535655 0.0032639797 -0.0023152058 -0.0036274765 -0.0003036469 4.7360376e-05 -0.0021671394 0.0029761156 0.0009903611 -0.00012487128 -0.0013427949 -0.0029821815 -0.0010170311 -0.0019138752 -0.0026405093 -0.0023333635 -0.00025663007 -0.0027460584 -0.0014383896 -0.0027033293 -0.0025904123 0.00038281886 -0.0037398918 -0.00071386696 -0.0024749434 -0.0017156929 -0.0026488267 -0.0023932045 0.0024283363 -0.0033220288 -0.0036462024 -0.0031907188 0.00054973026 0.0002542442 -0.003703809 0.0015608763 -0.0019818665 -0.0017912401 -0.0029688256 0.0016543851 0.0014471867 -0.002097942 0.0001026849 -0.0005257134 -0.00046634558 0.0037405326 -0.0013261299 0.0016246075 0.0002786663 0.0035344749 -0.0013049733 0.003275502 0.00021724286 0.0027221092 -0.0036656905 -0.004043016 0.0035894834 0.0010781676 0.002397953 -0.0027137392 0.0033226353 -0.0017567372 -0.0012859709 -0.0018022639 0.0024948737 0.0023709075 0.003191 0.00153959 -0.0012020794 -0.0012253479 -0.0023903598 0.0028652763 -0.0018049317 -0.0038378686 0.0026588612 -0.0036646957 -0.0035182904 -5.6517463e-05 -0.0032416026 0.0035748684 0.0032014896 -0.0035148878 0.0029739183 -0.00036669307 0.0020891232 9.192779e-05 -0.0015945652 -0.001680889 -0.0008712018 0.0009969916 -0.000327531 -0.00014134965 0.0038274953 -0.0024763884 0.0026521245 -0.00021987219 0.002577539 -0.0029188558 0.00012040406 -0.00010104012 0.0030749373 0.0019548892 -0.0029612975 -0.0024376854 -0.001617883 0.002020072 -0.0032396736 0.00199399 -0.0018920552 0.0004869931 -0.0012379067 0.0033003855 -0.0002046489 -0.0022377223 -0.0007563445
207.025.071.141 0.0019764462 -0.00046911702 0.0026161214 0.0015152426 0.00052540115 0.0017486248 -0.0010547099 -0.0015435263 -0.0002780701 0.0021484965 0.00012115669 0.0014494159 -0.0027125825 0.0037384718 -0.00034374162 -0.0006787259 -0.002198238 -0.0013734119 -0.00030219794 0.0027873844 0.0016469096 -0.0020252082 -0.0009337409 0.0018772053 0.0018825034 -0.0010467417 -0.0020017992 -0.0013725375 0.0023450623 -0.0005740914 0.0036824662 0.0037480844 -0.0017304202 0.0010307925 0.0015598731 0.0014536795 -0.0038110714 -0.0017394859 0.00068091106 -0.0010691382 0.0033174695 -0.0013835425 0.0026034145 0.001425124 -0.0020697282 -0.0009464777 -0.001711243 9.1451264e-05 -0.002761029 0.0032970791 -0.0031712311 -4.34811e-05 -1.29904665e-05 -0.0037695572 -0.0032298155 0.0024433555 -0.0015813361 -0.00079480605 -0.0039029885 -0.0019561024 0.0029258057 0.0015105737 0.0004418799 0.0019993624 -0.003063287 -0.00021255873 -0.0026039055 -0.0018195937 0.0025653543 -0.003800352 0.0021925378 -0.0018107356 0.0027105017 0.0019992513 -0.002569254 -0.0010901948 -0.0004457513 -0.003798838 0.0029357949 0.002962255 0.0010178762 0.0011203171 0.00023337519 -0.0013643217 -0.0006654228 0.0025195365 0.003454204 0.0035485814 0.0019046318 0.003491765 -0.0032984703 0.00222167 0.003420464 -8.9001776e-05 -0.0018454322 0.0037375316 -0.002788591 0.0024459246 0.002895068 0.0012170495 -0.0024400013 0.0016845963 -0.00010700037 0.0019406291 0.0014233899 -0.0005931058 0.0015773636 0.0007368196 -0.0024617622 -0.0031037992 -0.0013676255 -0.0018827913 0.00012374169 -0.0006749872 0.0035335943 0.0023565437 -0.00041774474 -0.0028040514 0.0025322689 -0.0016765305 0.002976041 -8.42382e-06 0.0015753838 -0.00096304336 -0.0024499043 0.0021265766 0.0019908634 -0.0014550847
196.037.075.158 0.00050293497 0.0007675609 -0.0035650544 0.00062351796 -0.0030660369 0.003051924 -0.0024429641 0.0029014156 -0.0039319443 0.0011313799 -0.0020459143 -0.00036863406 -0.0023640594 -0.00030369585 0.0019246775 -0.0019749913 0.002032652 0.001992591 -0.002289841 -0.00068889145 -0.0035987685 0.002714893 -0.0019036526 0.0034551471 0.003549124 -0.0024303456 0.0031153788 -0.0007328435 0.0006919784 -0.0036905657 -0.0016738133 -0.0026415687 0.0035472447 -0.0013251224 0.00021578031 -0.001246677 0.00012547836 -0.0035171884 -0.0009426894 -0.0036871182 0.0007926384 0.0033856835 -2.143247e-05 -0.0015055187 -0.00020316053 0.0005985142 0.0034749985 -0.001534199 0.001917632 0.0025135155 -0.0013745211 0.0009213154 -0.0015664218 -0.0031329761 -0.0025338756 -0.0031287973 -0.0024904236 -0.0007050529 -0.0014683765 -0.0016530178 0.0016932505 0.00061656453 -0.00018898086 -0.0018054284 0.0015826832 -0.0038905744 -0.002260652 -0.0026926799 -0.0021226294 0.00075975596 -0.0005899864 0.001366929 -0.0022548917 0.0029425533 0.0026510174 -0.0018806946 0.0020269859 0.000729837 -0.0029098275 0.0024265065 0.002997656 -0.0034662506 -0.0032814166 -0.002969459 -0.00023174295 0.00026213616 7.3987874e-05 0.00076703937 0.0034807767 -0.0039104144 0.003058305 0.0024863626 -0.0010157964 0.0014661832 -3.625722e-05 -0.0006735321 -0.0034820451 -2.2363056e-06 -0.0019927986 0.0015508768 -0.0036553189 0.0030229704 0.0027800342 -0.0028409048 -0.00290862 0.002942659 -0.003917567 0.0010254562 -0.0028741355 -0.0028112007 0.0030656992 -0.002702901 0.0022939893 -0.002542593 -0.002688001 0.0037977214 0.0026726867 0.0029849506 -0.0036025099 0.0020343524 -0.00032579966 0.0008650631 0.0014116175 -0.0036192453 0.0030626166 -0.0037296275 -0.001901671 -0.0023429124
192.005.041.239 -0.0007953796 -0.00073779916 0.00043952125 -0.00066763145 -0.0034224805 -0.0030770705 -0.0012086884 0.0024153262 -0.0012764124 -0.00035859278 -0.0019425986 -0.00018855177 -0.0013208878 0.0019107563 0.0038281363 -0.0018706218 0.0030066394 0.0009842761 -0.0029093747 -0.0014262721 -0.00044115662 -0.0030387314 0.00026747692 0.00019200744 -0.0037292019 -0.00021814575 0.0012373154 0.0036453027 -0.0010250726 -0.0013520895 0.0038284196 -0.003084065 0.0012630115 0.000118869575 -0.0031686365 -0.0022344368 0.0007631776 0.0014511591 0.0015468721 -0.0020164493 -0.0014381625 0.0017739609 0.0022968242 0.001743282 0.00022633017 -0.002817826 0.0011081407 -0.00085086055 -0.0011873383 -0.0011168779 -0.0028285356 0.0003149838 0.0026735214 0.00082285266 -0.00084892975 -0.00081204413 0.0034174027 0.0014956269 0.0028606628 -0.0035966174 0.0010236826 -4.7324793e-06 5.78065e-06 0.002029988 -0.0027700788 0.00046703135 0.0024281717 -0.003753779 -0.002757029 -0.00072667806 -0.003408031 0.003245558 -0.0038412355 0.003894467 -0.0029386096 -0.0009078216 -0.002442027 -0.0017719204 -0.0030898 0.00043091067 0.0031936688 -0.0028421057 -0.0005786446 0.00012755771 0.0033185722 -0.0025107744 0.0024956085 -0.0020267542 0.0019430813 -0.0026529448 0.00065050914 0.0004906169 -0.002858835 0.002108189 -0.000544452 0.0037671372 -0.00051569 0.0005617416 -0.00153778 -0.0010569735 -0.0014362583 -0.0002821814 0.0028327957 0.001767514 -0.00087357685 0.0015871617 -0.0025108508 -0.002562517 -0.002259488 0.00085132493 0.0006649922 0.00225964 -0.0006146872 -0.002095999 -0.003730221 0.0006042849 -0.003689426 0.0023399836 0.0028794862 -0.0027986013 0.0032427965 0.0001930272 -0.0036946852 -0.0026869518 -0.0036522418 0.0038876527 0.0006073531 -0.00016143863
207.046.130.014 0.0001248025 -0.0037163172 -0.0023597204 -0.0023914087 0.001615634 0.0019502932 -0.0007860579 -0.0015162068 0.0022132476 0.0035413885 0.0010277738 -0.0034706509 -0.0033702871 0.0036615652 0.0025716894 -0.00079468475 -0.00032504924 0.0013935039 -6.458309e-05 0.00041973288 4.2252985e-05 -0.0021796955 0.0027469606 -0.00027109246 -0.003631385 -0.003130329 0.0005786254 0.0026733142 0.0022983842 -0.0012249128 0.002112943 0.0021967269 0.0027309095 0.0032536362 -0.0026226393 -0.0027532023 -0.002449111 -0.0009585578 0.0037909022 0.0005993052 -0.003698612 0.0027472891 -1.989201e-05 0.0032611697 -0.0010268319 0.0033733111 -0.0037519434 0.0011737606 0.0020615857 -0.001782181 -0.00022467613 -0.00029257964 0.0014872868 0.002698194 -0.0016775399 -0.003734971 -0.0034043333 -0.002170606 -0.0034266405 -0.0031622401 0.0029130194 -0.0021607513 0.0024758347 0.003043242 -0.0006452969 0.00058979105 0.0023307283 0.0023478612 0.0033193526 2.3614024e-05 -0.00092522526 -0.00013329284 -0.0030689808 0.0020676656 -0.00070961646 0.0028281896 -0.0035532038 -0.0003054538 -0.0029763991 -0.0015135863 0.0023435226 0.0011856123 0.0034741827 -0.0019087562 -0.00019003043 0.0013590694 0.0021602323 -0.0035249777 8.0519436e-05 0.0037574337 -0.0035678395 -0.0030589153 0.00045007013 0.0010622891 -0.0011483333 -0.00023844787 0.0013033736 0.00022137276 -0.0015858194 0.0017587492 0.002041711 0.0009121166 -0.0035719818 -0.0010549017 0.0026621833 -0.0034691687 -0.0021123828 0.0002409266 -0.0015126526 -0.0017766472 -0.003436584 -0.0036068864 0.0023516302 -0.0012288059 -0.002634455 -0.0009253416 -0.0021112638 0.0033590945 0.0016282102 0.0014159174 -0.0025483482 -0.00076435436 0.00046581414 -0.0021835829 0.0014343853 -0.0027159895 -0.0029962452 -0.0013897375
195.188.052.008 0.0020342385 0.0003325578 -0.0012943371 0.0012775231 0.0034323554 0.0016838835 -0.0004495928 0.0037898652 0.003495205 -0.0016731004 -0.00046904868 -0.00030917596 -0.0017814798 -0.0011971446 -0.0016646285 -0.0004187577 0.0007756782 -0.0017507909 0.0013476148 0.002998412 -0.00072875345 0.0036595378 -0.0012736531 0.0028998724 -0.00335048 0.0018543466 -0.0005907178 -0.0036925285 0.002049386 0.00033332876 0.0019004903 -0.0027919305 0.0005350126 -0.0033816197 -0.0029555121 0.003318558 0.003654422 0.0020407445 0.0024732475 0.001988453 -0.0016394451 0.0006170109 0.0027037747 -0.00034699775 -0.00116317 -0.001519081 0.0027731284 0.002555299 -0.0027336497 0.0027886042 0.0006433418 0.0014657497 0.0036803563 5.7612102e-05 -0.002138564 -0.0014572339 -0.003325194 -0.0010748283 0.0020464568 1.8055325e-05 -0.0032691997 0.0011361553 0.0030567963 -0.0025691066 -0.0029308072 -5.8042e-05 -0.0015261626 -0.0005914898 -0.002013492 0.0036368186 -0.0038574426 0.0016244724 -0.0012052517 -0.0026986436 -0.0009482799 -0.0011348699 0.002569875 0.0030128334 0.002749332 -0.0026794982 0.0032200818 -0.0035436049 0.003701355 -0.0005316632 0.00082583295 -0.0018002229 -0.001669908 -0.0019214998 -0.0032836965 0.0013001881 -0.003778097 -0.0027101624 0.0037141768 0.0031484219 0.00018890675 0.00065251277 0.00042249038 0.0013336022 -0.0017388148 -0.001487181 -5.944957e-05 0.0019760656 -0.00073260063 0.001462197 -0.00094208005 -0.0034284578 0.0029258472 -0.00046380915 -0.0016790072 -0.0011478801 -0.0016967143 0.0021983567 0.003017118 0.002656396 -0.0011207471 -0.0029588589 -0.0023893663 0.000627935 -0.0036915466 -0.0038134693 -0.0013089377 -0.0016518171 -0.0024522734 0.0021268092 0.00075770344 0.001466785 -0.0026620298 0.0024240927
205.147.050.067 -0.0018464503 -0.002710553 -0.0035835227 0.003780993 -0.0016534743 0.0021061157 0.0014741921 0.00087267195 0.0016163017 -0.0013568385 -0.0013837097 0.0030551478 -0.0026388762 0.0026867504 0.00073240366 -0.0015988004 -0.0029357949 0.0028654316 -0.003806759 0.0018520141 0.0017507168 0.0027189504 0.0013890114 -0.0034947435 0.0035272322 0.003082258 -0.001702754 -0.0013690925 -0.0035950674 -8.861902e-05 -0.0026586254 -0.002547909 0.0018781051 0.0011375139 0.0028941368 -0.0013925452 -0.00032865998 0.0037544384 0.0036833943 -0.0027354094 0.0003445229 0.0023392695 -0.0034007514 -0.0018298343 -0.0011588165 -0.0032549328 0.0037761845 0.0018933563 -0.0020643251 -0.0011294563 -0.0030027837 0.0009963935 0.0020462035 -0.0027274224 -0.0035229013 -0.0026819296 -0.0027302667 -0.00055261474 0.00019854776 -0.00093007955 -0.0020868464 -0.0013652304 -0.003477814 0.0010999542 0.0028583512 0.0020591274 0.0015683669 -0.0038874238 0.0020825453 -0.0028232737 -0.002368192 -0.0020354865 -0.002169227 -0.0032475614 -0.0013692277 -0.002717439 0.00230385 0.0017787386 -0.002888685 -0.00091381255 -0.0009882796 -0.0025080333 -0.0007140794 0.0023327554 -0.0026639337 -0.0033708788 -0.00027250388 -1.9877607e-05 0.0029652077 -0.0034104332 0.003640467 -0.002504489 -0.0006798382 2.1420932e-05 0.0018824162 0.00065328926 0.0007515328 0.0013746141 -0.0003260789 0.0019098058 0.0016170687 0.0018189981 -0.0031757723 0.00024365804 0.0011286322 -0.0025661052 0.0036640833 0.0005515527 0.0017778681 0.001093711 -0.00093179697 -9.770955e-05 -0.0007813809 -0.00092573237 -0.0019753668 -0.0030091312 -0.0006716011 0.0038662695 0.001241275 -0.00059852743 0.002146573 0.0034966145 -0.000894104 -0.0025498953 -0.0038504722 0.00077021524 -0.0013444667 0.0018749147
137.245.085.134 -0.0011728232 -0.0014712585 -0.0020498466 0.002484946 0.00030289416 0.0026052329 -0.0007267599 0.0022305714 0.0014437735 0.003855159 0.00041243748 0.0012368634 0.00028343612 0.0011916308 -0.0031611929 0.0026698976 -0.0014035384 -0.0009950086 -0.002507397 0.0032980114 0.0016154512 -0.0029735952 -0.0004865604 -0.0034842456 -0.00091773836 -0.0035960996 -0.0021388684 0.0029441044 -0.00302833 -0.0013807059 0.0020284518 0.0012514866 -0.001680468 1.6033632e-06 -0.0032728529 -0.0031509295 0.00036245657 -0.00023539842 -4.6897418e-05 0.0029483489 -0.0014228424 0.0022625548 0.0015650308 -0.00029243235 0.0010250079 0.0018463384 0.001727478 0.0011825634 0.003215578 0.0023765839 0.0031238873 -0.0017473644 0.0028673417 0.0009026223 0.0030585541 0.0027003 0.001847165 -0.0001679773 0.0035745068 -0.0021298868 -0.00016473338 -0.00031407728 -0.0018481473 -0.0020013263 -0.0029069784 0.0012889119 -0.0011962466 -0.0011351829 -0.0014902166 0.003574895 -0.0020741022 0.0019999018 0.0014542365 0.003296879 0.0005542836 -0.003168648 0.00013070315 0.0019999533 0.0006025276 -0.0033059327 -0.00079190434 -0.0031542848 0.0017460497 -0.0017570158 0.0021166005 0.0017380771 -0.0027418241 0.0012647208 -0.0029722694 -0.0003821111 0.0029638372 0.0031133497 -0.0014693212 0.0010353739 -0.00028551387 -0.0032529403 0.0033318987 0.00036964274 0.0025243193 0.00023340927 0.0003091695 -0.0020119874 0.003278618 -0.0012207173 -0.0008359926 0.0017703658 -0.0010922872 0.0023636355 -0.0017595884 -0.002820871 0.002960892 -0.0014900257 0.0028425197 -0.0016512298 -0.00094063435 0.003893807 -0.0034190456 0.0029425672 0.00046975986 0.0025677332 -0.0034747964 -0.00019333234 0.00031205732 -0.0029408147 0.000117262214 -0.0017480536 -0.0035988553 4.635147e-05
152.163.212.172 0.002736525 -0.0007477815 0.0019686585 0.003751268 -0.00054084626 0.0015782265 0.0034473785 -0.00041079824 -0.0029114832 -0.0035733115 0.0022471666 -0.00020197978 0.0012180018 0.00022565026 0.0031507178 0.0031340388 -0.0023037498 -0.0019893423 -0.002344401 -0.003269274 0.0036424224 0.0009877987 0.0014788482 -0.003616296 -0.0029038354 -0.0009862398 0.0023442986 0.003488583 -0.0011468864 0.0036462124 -0.0014318451 0.001094747 0.003780804 -0.0003611588 0.00022011824 0.0038347791 -0.0038711529 0.0032368682 0.00017446022 -0.0019106168 0.0029085295 0.0013055225 0.0013027758 0.0030530612 0.0034078993 0.0010238163 -0.00096108555 0.00045985167 0.0018651198 0.0035522531 -0.0005422137 0.0023693794 -0.0031068001 0.0030678883 0.0021842238 -0.0026122849 0.0017707183 -0.0029491049 0.0035993 -0.0015417446 -0.001964778 -0.0031396076 3.6229343e-05 0.000530942 0.001740179 -0.002722973 0.0038347656 -0.0037535247 0.003312638 -3.012795e-05 0.0023356406 0.0018493903 -0.002791181 0.0013877593 -0.00034270182 0.0036983264 -0.0031449024 0.0026003679 0.0015368069 -0.0011274986 0.0028679057 0.0034058865 0.00035968932 -0.0028642032 -0.0018399709 -0.003778073 0.002954003 0.003860724 0.0030795953 0.003561054 -0.00068947073 -0.0013250128 0.00042695654 -0.002217956 -0.0023527506 0.0019840924 0.0028322744 0.0002071025 -0.0011012566 0.0023682704 0.0012272876 -0.0010657678 -0.0019088237 -0.002490685 -0.0018881477 0.0010066838 -0.003570807 -0.00041354838 0.00033702442 -0.0038328336 -0.0033401083 -0.0023516691 0.0033310896 0.0014583362 0.0014201396 0.0005270937 -0.0025901527 -0.0028692202 -0.0038829625 -0.0025250965 -0.0036918945 0.0007524096 -0.0028944549 -0.0029962563 -0.0003887249 -0.0005172746 0.0014610823 -0.0019251147
152.163.210.015 -0.00023817681 -0.0011905155 -0.0013746162 0.0028924958 0.0032931136 -0.0018259479 0.0028528844 0.003511927 0.001666459 -0.0009832405 -0.0036833305 0.00018725157 -0.00025168844 -0.00041108805 0.00020268562 0.0029466273 0.00095776294 0.002392404 -0.0007966659 0.003907867 0.00012695754 0.0011913767 -0.0008358394 -0.0025854583 0.0023883143 -0.0028194326 -0.00150377 0.001170111 -0.0037943767 -0.0005552742 0.0019405392 -0.0018910812 -0.0014023519 0.0010028941 0.0026292833 0.00091062835 -0.003086918 -0.0011846158 -0.0022205324 0.0038193637 -0.00037792555 -0.0035111269 0.0032932311 0.0016144484 0.0006080525 -0.0018628492 0.0013770233 0.0024346386 -0.003822137 0.003479571 -0.0016016756 -0.0032618563 -0.0025023026 0.0035941023 -0.003171947 0.0014568804 0.0028543998 0.001805781 0.0015965924 0.003039836 -0.0038174088 0.00016227557 -0.00237829 0.0009824259 -0.0003880403 0.002805702 0.0034766032 -0.00094647286 -0.002689404 0.0025737598 0.00095911336 -0.0005367281 -0.00075803493 -0.003346788 -0.0032111239 0.0030124541 0.003171021 0.0015244419 0.002335699 -0.00012993462 -0.0030648415 -0.0011845002 -0.0035271095 -0.0004099988 -0.0010428275 0.0027560217 -0.00068976724 -0.0013717661 -0.0026067076 0.0027460803 0.0007469994 0.00028321013 5.461904e-05 -0.0002176391 -0.000881016 -0.0013581568 0.0012187955 0.0019225398 0.002115613 0.003767512 0.0017548659 -0.002390671 0.0036538285 0.0013748016 0.00040979523 0.002988585 -0.0020339775 -0.002662512 0.003897477 -8.8140136e-05 0.0023707484 -0.0006675633 -0.0026640478 -0.0007022234 -0.0028518909 0.0016907037 -0.00020365462 0.0034707717 -0.00166424 0.0012640182 0.00029101432 -0.0011028937 -0.0035465583 -0.0032927266 0.0004849357 -0.0020561535 -0.0007587229 0.0037253469
152.163.210.009 -0.001157139 -0.0013327099 0.00034753993 -0.002378527 0.0032847798 -0.0006242003 0.0038709128 -0.0034694553 -0.0036684095 -0.00058021554 0.000702975 -0.0019853755 0.00084090466 0.0028439183 -0.0010012183 0.0014966541 0.0028227714 -0.0036789577 0.0017223972 -0.0012658135 -0.002433633 -0.00049383036 -0.0026124693 0.0035065752 0.0021843284 -0.003894313 0.0005295706 -0.0024538122 0.0007797773 0.0019976487 0.00044265954 -0.0012145201 0.002252046 -0.0011949578 -0.0017677604 0.0023138593 0.002805078 0.0037063926 0.002447209 -0.0013493382 -0.0026146115 -0.00046930905 -0.0022200665 0.0022005893 -0.0039123455 -0.001657796 -0.0037667542 0.0038595588 0.0013829037 0.0015538374 0.0009168058 -0.0028564471 0.0033685733 -0.0009886732 0.0018407551 -0.0030178374 0.0018776809 0.0020469052 -0.0030202058 -0.0033960731 0.0035979769 -0.00095847505 0.0013545303 -0.00095347955 0.002161807 0.0031105448 0.0004950052 0.0029138243 0.002395409 -0.0005687606 0.0024401739 0.0035935168 -0.0027144835 -0.0004502093 0.00024519183 -0.0014213196 0.00015139152 -0.002108524 -0.00036859728 -0.0024287938 -0.00054176844 0.0023062385 0.001025313 -0.0009239704 -0.0013263611 -0.003272915 -0.00016400566 0.0005001374 0.0030958052 0.0012203226 0.0010605642 0.0032702577 0.0014419619 -0.0012317821 -0.0025104273 -0.003681586 -0.002724736 -0.0032205894 0.0038304427 0.0017786953 -0.002404713 -0.000315404 -0.00023262914 0.0036282022 -0.0035270695 0.0019820936 -0.00036217365 -0.00075409125 0.003249102 -0.0014489684 -0.0018034987 -0.0032488126 -0.0018043595 -0.0018676596 0.003289955 0.00080673327 -0.0011630789 -0.0035737152 -0.0025132943 -0.0037671183 0.0021402142 0.0025414785 -0.0029297404 0.00036413703 0.0016379518 -0.0029833931 0.0021890658 -0.0032362517
207.046.130.168 -0.0035238564 -0.0013521493 -0.0032757209 -0.0038756367 0.0034571881 0.0028433278 0.00036874381 -0.0029683472 -0.0012105008 -0.0026227664 -0.0027114823 -0.0035199027 0.003020418 -0.0016549128 0.00093605515 0.0012933238 0.0034405515 0.0025527868 -0.0028884585 -0.0027210882 -0.0030405808 -0.00078566157 0.0022857531 0.0011572044 -0.0038839458 -0.0024251868 -0.00024710587 0.002937243 0.0032222634 -0.0025773598 -0.0024635987 -0.000574584 0.002239882 -3.0801407e-06 -0.0036667453 0.0016230367 0.003722863 0.0026678138 -0.0033971793 0.0038213131 0.0035554583 -0.0010309252 -0.0020627761 -0.0023805427 -0.002998409 0.00287022 0.0026740101 -0.0036025103 0.0024327617 0.0031812775 -0.0005584006 -0.0019159782 0.0022055304 0.0019863686 -0.0014385544 -0.0012382267 -0.0020653321 -0.002389497 0.0011454552 0.00079216366 0.0032647287 0.0011600783 -0.0037817815 0.002951685 0.000888642 -0.0033663944 0.0029171577 -0.0037314354 -0.00094273884 -0.0024577915 0.0010877218 0.0025899238 0.00092626293 -0.003857945 -0.003279521 -0.0030180523 -0.0016723352 0.0013134604 -0.0018385726 -3.8952066e-06 0.00079512 0.00020567038 -0.00015552827 0.00033501387 0.0031264732 -0.0006320922 -0.0027906827 -0.00063783367 -0.0023902329 -0.003588575 -0.0008440398 -0.00016157336 0.00063180603 -0.002240491 -0.0016465837 -0.0036904542 0.00036299182 0.0019963547 -0.0027125184 -0.003727981 -0.002141713 0.0018282802 0.0020969573 0.00042193886 -0.0014217211 -0.0027663768 -0.0006346076 -0.0036530532 0.00020546751 -0.00010751129 0.0016378663 -0.0029079118 0.001433135 0.0020907305 -0.0024045326 -0.0014604615 -0.00042772366 0.0029268097 0.00028797414 -0.0012550597 -0.0024315522 -0.0024701697 -0.0032649562 -0.001024798 0.0004639435 0.0020035307 0.0014023826 -0.0016712494
159.142.001.199 -0.00081061566 -0.0006143224 0.0036153211 0.0023710425 0.003733795 -0.00066165806 -0.0004446295 0.002007887 0.00071483053 0.0009039255 0.00027326253 0.0024706377 0.0030628613 -0.002872078 0.0020870268 0.00030024262 -0.0024464328 0.0018107316 0.0027423776 0.0008682082 -0.0020615428 -0.0033540719 -0.003025984 0.0016908082 0.0026881984 -0.0033539212 0.0022493424 0.0038113955 0.0021012684 -0.0010570992 0.0014740647 -0.0027142835 -0.00037688503 -0.0034173657 -0.0013917373 -0.000894682 0.00058641646 0.0025070608 -0.0030119398 -0.0025141689 0.0011779666 0.0017967176 0.0031471967 -0.0029248288 0.0012705473 0.0031597354 0.003209829 -0.0028390381 -0.003624805 -0.0022564987 -0.0016122065 0.0010481615 0.001079455 -0.0003232231 0.0003171312 -0.0010559645 -0.0030346934 -0.001361124 0.0022413325 -0.0032725383 -0.00072189706 0.0008427112 0.00036590733 -0.0024858 0.0028221237 -0.00041520305 0.0032017 -0.0026209126 0.00011558033 0.00011126527 -0.001677438 -0.0001416591 0.0023097277 0.00057308224 -0.0003117961 -0.0026494472 -0.0029946289 0.0026060748 -0.0013726894 0.003006731 0.0035740056 0.0008430696 0.00291501 0.0025975006 0.00010441616 1.2863043e-05 0.002054691 -0.0020949664 -0.0013866031 0.0029358491 -0.0006190081 0.0011635617 0.0036088205 -0.0032414221 -0.0011968308 -0.00019766137 -0.0038549246 -0.00054694683 -0.00022905506 0.0036664077 -0.0028650353 0.0022337057 -0.0029593066 -0.002703412 0.0022731696 -0.0017078507 -0.0023375915 0.0031856264 0.0012591078 -0.0036783356 0.0037079095 -0.00066610245 0.0017895965 -0.0038520976 -0.0030874037 -0.00053409033 -1.7759945e-05 0.0027704071 5.05411e-05 -0.0028897661 -0.00019941138 0.0036206315 0.0024961806 0.0009102197 0.00011413634 -0.0029519736 0.000439274 -0.0038080094
206.064.046.005 0.00224727 -0.00020399963 -0.002129248 0.002541704 -0.0007358198 0.0037136485 -0.0021457241 -0.0015164847 0.0019064955 0.0006189074 0.002398293 -0.0023711822 0.0014595612 -0.00043093396 -0.0026018189 -0.0021161556 0.0030602296 0.00064234406 -0.00024119024 0.0037201748 0.0020996248 0.0007494083 -0.0038896305 -0.0036471246 -0.0024987315 -0.0023691885 -0.002187426 0.0020021133 -0.0025386768 0.0037365556 0.00308863 0.0010760478 0.0024764198 0.0018370548 -0.0028328812 0.0034072879 -0.00028914155 0.00082518626 0.0012594259 0.0024233682 -0.0017811396 0.0019997847 -0.0028016635 -0.002995945 0.000891756 -0.0028202285 -0.0021072421 -0.0023298676 0.003292302 -0.0017659584 0.00020618545 0.0018080217 -0.0016588441 -0.0024780578 -0.0032411187 0.0003052533 -0.0028646307 -0.00013534016 0.0028501297 0.003848032 0.0037393407 -0.0022460846 0.000723221 -0.0017764544 -0.0016105741 0.0018631433 -0.002094062 0.0038303868 0.0017696373 -0.0007602474 0.0024904201 0.0011926693 -0.0010704506 0.0026043048 -0.00111258 0.0033368513 -0.003650321 0.0020696165 -0.0011427021 0.0023524663 -0.0020233004 0.0025944207 0.0028812126 0.0024016772 -0.003502274 0.000116270254 -0.00031677098 0.0026703048 0.0035778973 0.0023687775 0.000755819 0.0007712016 0.0024116244 -0.00031318556 -0.0025839221 -0.0014764457 0.00086920604 0.0033266523 -0.0032293494 -0.0021773842 -0.0021057024 -0.0004960143 0.0032076736 -0.001285956 0.001080261 0.00081016263 0.0013229223 -0.0023337866 -0.0033907336 0.0037109025 0.0038831455 0.003587785 -0.00016338348 -0.00111899 0.0026045854 0.00065859186 -0.0033696445 0.00045766064 4.328849e-05 -0.0036990587 -0.0011824608 0.0005298233 0.0033869627 0.0017502201 -0.002796685 -0.0016755976 -0.00048172974 -0.00077133445
172.016.112.149 -0.0017934623 -0.0035797283 0.0020084474 0.003575848 0.00078525237 -0.0010650661 -0.000103102866 0.00026411458 0.0034351517 0.0008333118 0.0029523764 -0.0036165386 -0.0032366114 -0.001011286 0.0017212062 0.0003161927 -0.0011631642 0.0012246496 -0.0031859572 -0.0034074786 -0.0021911347 0.0017951605 0.00020032573 -0.0017382316 -0.00055225677 0.0023748565 0.0025034104 0.0010993473 0.0029155903 0.0003376164 0.0014195591 0.000302309 -0.0015078268 -0.002236042 0.003832734 0.0018629434 -0.0023658706 -0.001199747 -0.0006640812 -0.002042403 0.0037473105 -0.000120812096 0.0030472875 -0.0030479874 0.0020982188 -0.0022450066 0.0037328326 0.00025727635 0.00371168 -0.000985927 0.0014696604 0.0021457744 -0.0033106226 0.0033623443 0.0006560987 -0.0032620213 0.00059486483 -0.001016261 0.0024079222 0.001964938 -0.0014267322 0.0009257846 -0.0010117103 0.00052267616 -0.00047890213 0.0009574421 0.0027893593 -0.003461919 -0.001696959 -0.00092020107 -0.0023823676 -0.0016136444 0.0036790106 0.00079894875 0.0029753922 -0.0021527347 0.0038232144 0.0025187088 -0.0008500771 -0.0004509453 -0.0001300136 -0.001028111 -0.0009701962 -0.0028569568 0.0017849775 -0.0026945036 0.003730914 0.0036710217 -0.0020009342 -0.003730383 -0.001947233 -0.002573184 -0.00056964677 0.001994378 0.0016418403 -0.0012100438 0.00097158004 -0.0023520577 -0.0026478113 0.0018962682 -0.0027312627 -0.0026980941 -0.00017375291 -0.00083948666 0.0024759704 -0.003300724 0.0020431979 0.00088018744 0.0014780591 0.0023918077 -0.0026501748 -0.0028670556 -0.0002695115 -0.0014470875 0.0014529745 -0.0032466894 -0.0020643056 0.0031797711 -0.00076237123 0.0037605462 0.0037485494 0.0010706716 3.3320313e-05 -0.0022414455 0.0014565123 0.0014307778 -0.0023178929 0.0004734119
207.025.071.061 -0.0008125295 -0.002872238 -2.1635407e-05 -0.0030704122 0.0034293826 0.002165448 -0.00082002836 0.00028156993 0.0034736781 0.0025242302 0.0024525402 -0.003016527 0.0038628452 0.0004449024 -0.0024859991 -0.0011548669 -0.0010062318 -0.0014779982 0.00072159653 0.0012824262 -0.0018887158 0.0031714235 -0.0033204437 0.0010393579 -0.00034188086 -0.003856838 -0.003382422 0.00041995686 -0.0038361715 -0.002153695 0.0037307437 -0.0023725366 -8.3274346e-05 -0.0009208895 0.000740665 -0.00040543944 -0.0034970473 0.00038065016 -0.0012859713 -0.00051109353 0.00273527 4.4690907e-05 -0.0032548844 0.0024520967 -0.0030327528 -0.003735 -0.0020638206 -0.0021735139 -7.9676196e-05 0.0029198679 -0.00031068723 0.0033569157 0.0029906554 -0.0013993008 0.00091315317 0.0006918822 -0.0018146433 -0.0006885699 0.003178276 -0.0009310631 0.0031706805 0.002297349 0.0036236856 0.0022153056 0.0014212533 -0.0010685213 -0.0019919048 -0.0027840359 -0.0018718654 -0.0013468144 -0.0028033697 0.0037865746 0.0032725513 0.0022299397 -0.0023613856 0.0029560435 0.0031889498 -0.002322436 0.00018163245 0.0014164521 0.0028006537 0.0009297179 -0.0023965917 -0.00080328895 0.0032965133 0.0028817337 0.0018795357 0.0024648025 0.001670787 -0.003191213 -0.0026570726 0.002887048 -0.0027984127 0.0036181358 -0.003637485 -0.002016765 -0.0034422677 -0.0008754615 -0.0026411677 0.00247962 0.002059369 0.0008193366 -0.0035569288 -0.0020151366 -0.0017596142 -0.001165862 -0.0015137712 -0.0028500159 -0.0016434991 0.0005938533 0.0023993484 -0.0015596184 0.0031257044 -0.0034440241 0.0034989475 0.0034620955 0.0035299032 0.0037041316 -0.0032386251 -0.002761442 0.003761739 -0.00043073395 -0.0019770076 0.00080897135 0.0036930447 0.0022979348 0.0004914512 -0.0028676745
209.116.060.002 0.0012435511 -0.00039766694 0.00033674474 -0.0024531304 0.00022821933 0.0029600468 -0.0017713448 -0.001721548 0.0030673442 -0.0019323952 0.0011987352 -0.0020684 -0.0016166121 0.0034168744 -0.002713989 -0.0033109111 -0.002234973 0.0030278745 -0.0007404688 -0.0006800756 -0.0028999469 -0.002530808 -4.1133073e-05 0.002715905 0.0018893876 -0.0014360046 0.003871294 -0.0021793516 0.00047131293 0.0025356913 0.0010676746 0.002896293 -0.0032990999 -0.0006204086 -0.0017589172 0.0030393475 -0.00022255948 -0.0033888882 7.1569986e-05 0.003655753 0.0008173128 -0.0026554156 -0.000560458 0.003232555 -0.001059379 -0.0019320851 -0.0003550143 0.0035674805 0.0014760715 0.000120706325 0.0009923578 -0.0013239918 -0.0008504682 0.0036899897 0.0015912905 -0.0007797799 0.002201523 -0.0017925707 0.00064945937 -0.0011570967 -0.00029518615 -0.0014269599 -0.002157042 0.0028416375 -0.00039916014 -0.0032099187 0.0028511658 -0.00028522933 0.001060869 -0.0037792453 -0.0014968226 0.0021484373 0.0025511193 -0.0026288535 -0.0034841194 -0.0001389333 -0.002138978 0.0029015548 -0.00011920769 -0.0013439918 0.00059026084 0.0028740806 0.0014662261 -0.0010015445 -0.0008963284 -0.0016414275 0.0006195593 -0.0028407427 -0.00015304629 0.003443096 -0.0025960659 -0.0027922601 -3.9204926e-05 -0.002809128 0.0034869493 0.0010171692 0.0004380164 -0.002178217 -0.0005602321 0.0029948822 -0.0010307129 -9.018503e-05 -0.002974753 -0.003284491 -0.003218616 0.002448239 0.0011058712 0.00047338652 -0.0036246548 -0.00012737288 0.0032897545 0.000160542 -0.0025270442 0.0009247808 -0.0022654056 0.0023093098 -0.000465017 0.0021825717 0.0020137106 8.425828e-05 0.0007444762 -0.00080720143 0.0006956899 0.0012047729 -0.0025035194 0.0002467484 -0.0011475052 0.0033299334
207.025.071.026 0.003548624 0.0031913775 -0.0031469646 -0.0029668228 0.0005812135 0.00014243275 0.003245385 -0.00018207224 0.0019351912 0.0010426133 0.002435231 0.001253781 -0.0007552576 -0.00034559102 0.00081485295 -0.0024916148 0.0001695496 0.002541745 -0.0005669298 -0.003636124 0.0014052754 0.0028536492 0.002045883 0.0006449183 0.002920522 -0.0036170855 -0.0014621122 -0.0036167116 0.00069652655 0.00018067661 0.0024350872 0.00013180841 -0.003508424 -0.00144656 -0.0014224404 -0.00016933292 0.0022544886 -0.0026140574 -0.001099746 0.00073459477 0.0018600572 0.0014432219 -0.0027016425 -0.0025926777 0.0023908978 -0.0029873066 -0.003543915 -0.0016196285 -0.0021315766 0.0026968296 -0.0038634243 -9.854114e-05 0.0015548214 0.0037866584 -0.00082454795 0.0034194218 0.0024111087 -0.0017019418 0.0007239028 0.003131266 -0.0018891107 -0.002910541 -0.0019022872 0.0019357747 0.0010754453 0.0010839392 0.003179789 -0.0031200633 -0.0010963846 -6.003798e-05 0.0037556225 0.0037042405 -0.0034313784 0.0010301054 -0.003034594 -0.0032380552 0.0018355591 0.0016996545 -0.0038343016 0.002963066 -0.0034407615 -0.0022919378 0.0010479899 0.0007926589 -0.0035757169 -0.003831528 0.0026427892 -0.0012425155 -0.0034527131 -0.0029236455 -0.0024158773 -0.003099697 -0.0008719653 0.0004887775 0.0016227694 -0.00090706267 -0.0018120749 0.0010310157 -0.0002135334 0.002381755 -0.0016647703 -0.0023135843 -0.001663667 0.0010568097 0.0022136902 -0.0033416133 0.0013525058 0.0035868704 -0.0004150765 0.00216946 0.0007454785 0.0007185906 0.0011592252 -0.0024889898 0.0026043362 -0.0026575893 0.0022992706 0.0007566577 0.0023255756 0.0012581346 2.9650188e-05 -0.002739101 -0.00032744673 0.00096862426 -0.0024392474 -0.0002830314 0.00017603749 0.0010343642
194.007.248.153 -0.0023294913 -0.0022592929 0.0036232583 -0.0022817366 -0.003630645 0.003359165 -0.00044714683 -0.0014668574 -0.00080738345 -0.002478449 -0.00023564578 -0.0038857947 -0.0010504887 -0.0010663671 -0.001788201 0.002248507 0.003154638 -0.0034033286 -0.00039460638 0.0038175432 0.0017853227 0.0034171916 0.0019562147 -0.0008739618 -9.344113e-05 0.00086712244 -0.002166491 -0.0015635282 0.0037464863 0.00060550135 0.0003234862 0.0027816521 -0.002827165 -0.0025948132 -0.0016536919 0.00017826808 0.0022380943 -0.0010096122 -0.0037095281 -0.00284819 -0.0033529326 -0.0035716891 -0.0027370092 0.0036486425 0.002994298 0.002552998 0.0009959505 -0.00030917092 -0.00257347 0.0026457182 0.0035771728 -0.0023084192 -0.0038045899 0.003763285 -0.0025388764 0.0037623746 -0.0037996431 -0.00071794906 0.0031751578 -0.0038943302 0.00062030496 0.0025397588 0.0016332993 -0.0030826218 0.002421812 -0.0023934294 0.0015145019 -0.0016437967 -0.003226209 0.0038309363 -0.0015987323 -0.0010242547 -0.0031321421 0.0033617206 0.0006111906 -0.00032460407 -0.001706656 0.0001277722 0.00292972 0.0035867023 3.533587e-05 -0.0031023542 0.0037742541 0.0024556413 -0.00038906097 -0.0023594878 -0.00074270956 -0.0024929955 0.0013328758 -0.00019407745 0.0033531256 -0.0025149973 -0.0015251905 -0.0006307292 0.0004086497 0.0036203754 -0.0005647117 -0.0026682024 0.00095766253 -0.0008327641 0.0011304583 0.00061498705 -0.0035373645 -0.001094922 0.0035777618 0.0029560132 -0.0023518596 -0.0014610481 -0.0007512009 0.0024133495 -0.0022341337 -0.0013003475 -0.00090809294 -0.0011182503 -0.0029513452 -0.0033401826 -0.00034077538 0.0013916767 0.0006567448 0.0034564738 0.00049394515 -0.0014856865 0.0035065692 0.0030460267 -0.0020726465 0.00051661837 0.0008734649 6.835574e-05
206.048.044.018 -0.00087208545 0.003862247 0.0024713245 0.0027637635 0.0016751944 -0.002962286 -0.001264042 -0.0021553147 0.002416557 0.0024596278 -0.0004970266 -0.0008880543 0.0026421314 -1.945355e-05 0.002691074 0.0030128832 0.0010582429 -0.0021660377 0.00010534575 0.0022482402 -0.001769559 -0.0034448819 0.0021012595 -0.001636761 -0.00093979144 0.0022202707 -0.00033678635 0.0002820371 -0.003279989 -0.0019596482 0.0035504673 0.0007021301 0.00064962025 -0.0011335178 -0.003725636 -0.0030428169 0.0010733004 -0.0005650661 -0.0015561716 -0.0021158275 0.0014645959 -0.0009611258 0.0024661839 -0.0031330339 -0.0029309925 -0.0011803493 0.002629689 0.0023551092 -0.0015453573 -0.0023819034 0.0029223622 -0.0014655531 0.002144678 0.0013797284 -0.0013268872 0.0011055628 -0.0028291256 0.00156226 0.0010279296 -0.00084131374 0.0034035854 0.002877814 0.00059637404 0.0016235573 -0.0011852599 -0.0019212463 -0.0014984458 -0.0018045014 0.0037878072 0.0016527307 0.003880659 0.0023248848 0.0021436217 0.00045051117 0.0018877144 -0.003924511 0.000325188 -0.00012059641 -0.0023658304 -0.0036183293 0.0014024886 -0.0006028806 0.0027432567 -0.0010354004 0.0022917439 0.0027152123 -0.0005127887 -0.0019630583 -0.0012835974 0.00090170116 0.0027963982 0.0013874735 -0.0037980985 0.0017027579 -0.0038192368 0.0032943578 0.00051589817 0.0034803508 -0.0016387186 -0.0019110731 0.0026693402 -0.0016174988 0.002722041 -0.003733934 -0.0028178096 -0.0018436712 0.0001638775 -0.0035376374 -0.0023269264 0.001882709 -0.0025128322 -0.0018805262 -0.0035848545 0.0035916362 -0.0012215101 0.00076640805 -0.0031321668 -0.001987858 -0.0004864107 0.0034535336 0.0017547059 -0.003425327 -0.00058427127 -0.0034924375 0.0024946805 0.002940692 0.0036271857 0.0032456948
192.168.001.010 0.0021941762 -0.0031243593 0.0012895793 0.0029458818 0.0036353571 -0.0033267774 -0.0002897033 -0.003639043 0.0028389988 0.0019163507 0.0028943329 0.0009051018 0.00020287209 0.00023280972 -0.0016518089 0.0033125037 0.00013534419 -0.002919476 -0.003482866 -0.0031562613 0.0019034321 -0.0018540985 0.0026331644 -0.0014160658 -0.0013770134 0.002766555 -0.000993317 -0.00032020995 -0.0012957128 0.001856186 0.0021317967 0.0009092485 0.0022113502 0.0034950494 0.0037406748 0.001340757 0.0007445422 0.0009542354 -0.0030001546 0.00083921215 0.0012456763 -0.0007698827 0.00023346802 0.0014792412 -0.0022887243 -0.0028521204 -0.0023828004 0.0014167408 -0.0011968118 -0.0038169832 -0.0019708532 0.0014540848 -0.0019468985 0.0031870524 0.00027662984 0.0029990452 -0.0013081414 0.0024281042 -0.00036244607 -0.0034244794 0.0011846818 0.0028888586 0.0029478944 0.0014987275 0.0022907609 0.0022359253 -0.00073922495 -0.0011253757 -0.0006944243 0.0037691707 0.003048261 0.0016403922 -0.0032722927 -0.002522892 0.0002856249 -0.0026070643 0.00018282133 0.0006416408 0.0033504178 0.003781441 0.0009793636 -0.0018781562 0.0031763911 0.0008754304 0.0015795736 0.0029311022 0.0038129224 -0.0023448588 0.0037025474 -0.00011517971 0.0014530069 -0.0015918731 -0.0025822362 0.0029770527 0.0034278943 0.0035624623 0.0030676888 -0.0023354392 -0.0027196158 0.00018402858 0.0015230239 -0.0006273584 0.0002339614 0.0014729191 0.0002113157 -0.003233704 -0.0021118398 0.0027949733 -0.0009936064 0.00064291555 -0.0012408826 -0.0018794857 0.003091532 0.0018211583 -0.0001310019 -0.0018099715 -0.0022495966 -0.00043353444 0.0015620807 -0.0028269757 0.0011669938 0.0033548914 0.00037855757 -0.00077350094 -0.0026875464 -0.0030651176 0.002560215 -0.002804023
172.016.113.204 0.00043887662 -0.0010527213 -0.00086363073 -0.0021135474 -0.0021259524 -0.00011440848 0.0024697164 0.0025257922 0.0003202059 -0.0026091314 -0.0009800479 0.0017900405 -0.0025661448 -0.00011891255 -0.0022503133 -0.0012309406 -0.0015819119 0.0036746364 0.0009632602 0.00044060964 -0.0028790182 -0.0009110715 0.0030881804 -0.0025904963 0.0039022288 -0.0035164468 0.002539603 0.0014434016 0.0011902921 0.0022984191 -0.0038839583 0.0016515219 -0.0015612666 0.0032025743 -0.0037458614 0.00212605 0.00071266305 -0.0009473735 -0.0023715203 -0.0017422108 -0.0038037298 -0.0024463683 -0.0012167277 -0.0018518057 -0.0032321007 0.0015889963 0.0036857831 0.0018334301 -0.0030757303 0.0005000204 -0.0024801937 0.0012056387 -0.0012400945 0.0029005103 0.0026477168 0.0024313373 0.000615479 0.00017443695 -0.0003224882 0.002534619 0.0013853521 0.000119194214 0.0010709638 -0.003255733 0.0003989298 -0.0028014134 0.0021391208 0.0038730837 -0.0036820439 0.0010043919 0.0027476817 -0.0010728226 -0.0013085848 -0.0031025077 -0.002382307 0.0010443327 0.00046122243 -0.002573173 -0.0034937887 0.0015682636 0.0026367826 -0.00080353837 -0.00025525867 0.0025381867 0.0012660086 -0.00021860536 -0.0020692411 0.0022282917 7.988903e-05 -0.000807928 -0.0006989565 -0.0027832794 0.0029951 -3.562193e-05 0.0028361282 0.00090786966 -0.00093283853 -0.0012977934 0.001811167 0.0019507478 0.0017497157 0.0021388852 -0.00029051836 -0.0021065155 0.0015183165 -0.0010979978 0.00346315 0.0035983075 0.0012038781 0.00059456355 -0.0035935994 0.002281185 -0.0005655761 -0.002573747 -0.0023865127 -0.0020632735 -0.0011089961 0.0038036853 0.0020152545 -0.00355852 -0.0018025772 0.003122487 0.00014578682 0.00282401 -0.0016548397 0.0024753027 -0.0036568027 0.0036706347
172.016.114.169 0.0026178807 0.0030980136 -0.00095929374 0.0038741643 -0.0026866829 0.0012283872 0.0021122643 0.00019020507 -0.0025841887 0.0036577731 0.002561722 -0.0027053822 0.0027601037 -7.5600445e-05 -0.0001307572 0.001332379 0.0037779114 0.001542211 -0.0029330184 0.0014877702 -0.0017810429 0.0006365828 -0.0019552044 0.0028293233 0.00018958078 -0.0006333635 0.0036863184 0.0021475821 -0.0035393548 -0.0035320553 -0.002690504 0.0034640061 -0.0029732033 0.002316743 -0.0019019495 0.0035144375 0.0006196038 -0.0020383897 0.00027916464 -0.00094957656 0.0026909725 -0.0016251362 -0.0017404802 -0.0025540064 -0.00056512887 0.00049732765 0.00057457975 0.0033869564 0.0014826214 -0.0028718247 0.0032714584 0.0035832732 0.00017233715 -0.0011350863 -0.0009871926 0.002511615 -3.398351e-05 -0.0021005073 -0.0036629452 0.0003735506 -0.0018365071 0.0014857998 0.0012294691 0.0034110823 -0.0017255082 0.0035244455 -0.0022446925 -0.0026763726 -0.0007680049 0.0025940398 -0.00022679771 0.0018298343 -0.0011347235 0.001423925 -0.0013870617 -0.0032677895 -0.002678116 -0.0009530056 0.002416286 -0.0033579355 0.0028160948 -0.0009167428 0.0022271061 -0.0013028724 0.00036709625 -0.0019300452 -0.003874509 0.0026360506 -0.002835498 -0.003430308 -0.0022526318 0.0008343469 0.003062399 -0.0018283178 0.0027249714 -3.27194e-05 -0.0012164757 0.0031553365 0.0034740674 -0.0030748278 -0.0020813101 -0.0031665678 0.003867988 0.0015599958 -0.00046308787 0.00085340464 -0.0032460105 -0.003671242 0.003863753 -0.0004982468 -0.00083784154 -0.0029876998 0.00044315212 -0.0027643726 -0.0011358733 0.0016715407 -0.0030067847 0.0028943676 3.9061997e-05 -0.000898609 0.0002864185 0.0016293516 -0.0027157 -0.0032635515 -0.0015724681 0.0004637891 0.0038131427 0.0022122608
172.016.114.168 -0.0023778647 0.00051087065 -0.002859394 -0.003014705 -0.0020736174 -0.001752949 -0.0033502914 0.0003935491 -0.0030381393 -0.0017525643 -0.00073928625 -0.0019458954 0.0035325692 -0.00019040289 -0.0017815523 0.0039122915 -0.0019822698 0.0034392679 -0.0022810276 0.00297066 0.0008563266 0.0021674598 -0.0023800149 6.657072e-05 0.0023183697 0.0014337149 -0.001292603 -0.0024548094 -0.00079062185 0.001420432 0.003548634 0.0013510664 -0.0007612541 -0.0012457294 0.0023286168 -0.0021102554 -0.0001943725 0.0014114692 -0.0010357309 0.00012683067 -0.0030046657 0.0034453766 -0.0014544606 -0.00030813468 0.0019283673 -0.0018608064 -0.0023568629 0.00015622 0.0026409107 0.0030188735 -0.0010463244 0.0007580945 0.0029074575 -0.0016643443 0.00047862178 0.002447289 0.0021423681 0.0027587088 -0.00035697228 -0.001424874 0.0020753664 -0.00042616215 0.0018046893 9.543755e-07 0.0010673623 0.0022529885 0.0035405885 -0.0021303098 0.0016912251 -0.0023459315 0.00081184955 -0.0022587688 0.0025167463 0.00067051174 0.0024133697 -0.0029558875 0.0013118482 -0.0015153796 0.0038518438 -0.0013199107 0.0015412826 -0.0012800606 -0.0026229261 -1.02509e-05 9.372944e-05 -0.002729424 0.003731633 0.0026651556 0.0012375768 0.0035238708 -0.0033433014 0.0018269963 0.0037558086 -0.0013300525 0.0014850363 -0.00054711 0.0010751581 -0.0032392582 -0.0030089088 -0.0006029284 0.0033568507 -0.0008487895 0.0024182852 -0.0025921124 0.001090673 0.001536124 -0.0032990065 0.0026966836 -0.0032856103 0.0003852227 0.0023147394 0.002984003 -0.00042165545 -0.0002281538 0.0035587256 -0.00041572153 -0.001730765 0.0010461531 -0.003819737 0.00015439402 -0.000955679 -0.0017495732 0.0022053956 0.0011804419 -0.0029034133 0.00020626438 0.0015914411 -0.0034228088
172.016.113.105 -0.0020975415 -0.0035842715 0.0012861745 0.0030375852 0.0008405513 -0.0012354043 -0.0035776482 -0.0015737384 0.003013682 -0.0021203116 0.0036258488 -0.0038102851 0.001729673 -0.0025062368 -0.00186842 -0.0013063212 -0.00091759115 -0.0028751518 0.0015426115 0.002185227 -0.0018678089 0.0013939855 -0.0018858432 0.0025201011 0.0026770786 -0.0016637888 0.002525528 -0.00023641544 0.00040658802 -0.0034083987 0.0032688759 0.00027929773 0.0010048992 -0.0019444232 -0.00029619408 0.0005635982 0.0031200547 0.0023801527 -0.0023766435 -0.0017929327 0.003915067 -0.0012325707 -0.0019703505 -0.000711859 -0.0021927108 0.0020261568 -0.00059893733 0.0036607613 -0.0007170371 0.0034327707 0.00073144305 0.0021736294 0.0013665502 -0.0035000518 -0.0033051304 -0.0012013953 0.0006631645 -0.0038230824 0.0021256683 -0.0013594371 0.0007868296 -0.0026320629 0.0025816502 0.0031022658 -0.0015861174 -0.0006053837 0.0017619549 0.0035116472 0.00081151986 -0.00021826595 -0.0020207083 -0.0012059875 -0.0030682476 0.0007423975 -0.002930828 0.0021806695 -0.00018331167 -0.00054935366 0.0011511754 0.003250017 -0.0020624243 0.00058389903 0.0022609818 0.003505427 0.002913553 -0.000846215 0.0026082397 -0.0006636153 -0.0020627805 0.0027529355 0.0001867748 -0.0026842856 -0.0028203093 -8.628103e-05 -0.0020866413 0.0021632595 0.0016036016 0.0032898416 0.0015593776 0.0033067963 -0.0025865226 -0.00084999966 0.0035320506 0.0019992676 -0.00029662493 0.0033877932 -0.0027145199 0.0019085765 1.0321896e-05 0.003833826 0.0027868068 0.001114593 -0.0028601012 0.0035047045 -0.0021788024 -0.003452262 0.0013831303 -0.0017650157 -0.00016731989 0.0027429087 -0.0014083913 0.0023144425 0.00077091303 -0.00049845537 -0.0010970045 0.0005691214 -0.0028947718 -0.0031698646
197.218.177.069 -0.0028558576 -0.0035848718 -0.0011176084 -0.0021783486 -0.001319043 0.0029685185 6.7216024e-06 -0.00030301814 -0.0017678806 -0.0010189845 0.0030953276 0.00294533 -0.003080859 -0.0001149507 0.0012813342 0.0016824408 -0.0002814968 -0.0010915041 -0.0037696515 0.002763654 0.0014954548 0.0006830032 -0.0037744795 0.0024949582 -0.0031822228 0.001833735 -0.0021205514 -0.001496363 0.002070213 -0.00055942737 -0.0020745725 -1.6577458e-05 -0.002904031 0.0020960306 -0.0030562722 0.0006393222 0.0017375222 -0.0013633397 0.0010558143 0.00079852744 -0.002232043 0.0027615218 -0.0018272182 0.0037918407 0.00065348 0.0026360897 -0.0011992097 -0.0011234336 -0.002931983 -0.0015583585 0.0007894186 -0.0032923752 0.001961858 -8.150052e-05 -0.0005825555 -0.0006265404 0.00023930286 0.0027178507 -0.0022573122 -0.0024617743 -0.003387674 -0.0006259608 0.00097229244 -0.0018836575 0.0014499195 -0.0012159203 -0.0029322535 0.00067596725 0.0014960668 -0.003454817 0.0028906178 -0.001752637 -0.0010749581 0.0028992197 -0.0028612132 -0.0017236783 0.001806444 -0.00038616388 0.0013671031 -0.00097649626 0.0019239757 0.0006534799 -0.0033748045 0.001396876 -0.00030988062 0.00018474564 0.002848453 -0.0028244008 0.0007418702 -0.0020203842 -0.00058078533 -0.001683755 0.0011713358 0.0018758959 -0.0036999546 0.0012048221 -0.0003621715 0.0022130364 -0.00381282 9.685974e-05 -0.003524861 0.0002688898 0.0011801547 0.0026422287 -0.0008731023 0.001951781 -0.0039051347 0.00027320502 -0.0009409673 0.002581375 -0.0038936662 -6.2602674e-05 0.002155153 0.0032721579 -0.00022707589 0.001188768 0.002194843 -0.0014838496 -0.0018498002 -0.0011915694 0.0036398969 -0.0015457915 0.0037792858 0.0009671793 -0.0027659615 -0.0019370826 0.0037564656 0.001061794
206.137.126.003 0.00035565978 0.0033140052 0.002052533 -0.0012836632 0.0015278024 -0.00064222043 -0.0019765461 0.0023477883 0.0037101936 -0.002164592 -0.0023891754 -0.0037823084 0.0038644779 -0.0015170549 -0.0022328624 0.0037487394 -0.0009408034 -0.0036382833 0.002521794 0.0024862124 -0.002780489 0.0012960798 0.0025793382 -0.0022379146 -0.00041139848 -0.001385677 0.00017232871 0.0014645807 0.0034867886 -0.0006679137 -0.002600191 -0.00036296423 0.0029564737 -0.000302503 0.0014307887 2.1353932e-05 0.0020966956 0.0012355162 0.0034471496 0.0032755863 0.0037143764 0.0010565893 -0.002963939 -0.00036653999 0.0037608896 0.0038888312 -0.00071703416 -0.00090196816 0.0028101206 0.0013876974 0.0030154788 -0.0017954053 0.0006246978 0.00046709474 0.0033286542 -9.009608e-05 -0.0036698699 -0.0031988628 0.002721378 -0.0005472471 0.0009361003 -0.00051425176 0.0017883165 0.001912348 -0.0014881045 0.0033202977 0.00070704793 0.0007955481 -0.002650841 -0.0005653514 0.00086983317 -0.00087420206 0.002871627 0.0015155841 -0.0032936248 -0.0038081214 -0.0038445992 0.00358552 0.00052866293 0.0027893533 -1.9529252e-05 -0.0015479141 0.0038412418 -0.003016082 -0.0034535264 0.0017174719 0.0004855247 0.00035509805 0.0014124784 -0.0014795613 -0.00058482494 0.00016139544 0.0022017946 0.0007792115 -0.0034365298 0.0019754646 -0.0006467425 0.0006732847 0.0025123924 0.0014786933 0.0018646732 0.000988883 -0.0033078429 -0.00046613242 0.0038137855 0.002204098 0.0018464063 0.0033557538 0.0019658816 -0.0024558436 0.0025635601 0.00072530995 0.0031674802 -0.0020480633 -0.0036804285 -0.0020520794 0.0034584678 0.0022223226 -0.002085734 0.00030392656 -0.0003376008 -0.0016082991 -0.002520174 -0.0010789038 0.0032361397 -0.00024147998 -0.0037510062 0.0028330951
172.016.115.234 0.0009869633 -0.0030995363 4.2177307e-05 0.0028381913 -0.0016208971 -0.001201262 0.001988977 0.00019600203 0.0023453038 0.00075092766 0.00047140848 -0.0024774792 -0.002900228 0.00026404226 0.0016925271 0.0018449872 -0.0015254113 6.834628e-05 -0.00027769044 0.0022744809 0.0011699275 0.0026816619 0.00020576034 0.0006337149 0.0009408273 -0.000950156 -0.003342285 -0.0009341542 0.0024598748 -0.0016621944 -0.00074978126 0.002828953 0.0018450536 -0.0022839694 0.0007853892 -0.0019467263 0.002533656 -0.0035160987 0.0017704532 0.001532472 0.0018573985 0.0019888745 0.0021165165 0.0019441183 0.0023182472 0.0038949735 0.0025259801 -0.0010576145 -0.0010758204 -0.0015384507 -0.0034373994 0.00024608703 0.0003378028 -0.002044559 -0.00035971805 -0.0007175062 0.0028611561 -0.0004393174 0.0024782806 0.0019097012 -0.0022260253 -0.00023478788 -0.0038457592 -0.0025380633 -0.0031837574 0.0014505867 -0.0010536745 0.002579125 -0.00029556119 0.003416165 0.00025587974 -0.001415867 0.0020256606 -0.0019920142 -0.0008105684 0.0008173671 -0.0034766146 -0.0016048934 -0.0008706346 0.002607577 -0.003260449 -0.003613485 0.002260395 0.0013960964 0.0023706364 0.0037419659 -0.002403272 0.0022905197 -0.00042038911 0.0011366972 -0.0026863648 -0.0025474224 0.0038358853 -0.0025186192 -0.0034652401 0.0026978971 0.0031875332 -8.952731e-05 0.002998279 -0.00096509827 0.0008509965 -0.0026625392 -0.0015711203 0.0024877475 -0.0029867676 -0.002791542 9.7143246e-05 0.0034172304 0.0014513421 0.0014775675 0.0020164168 -0.003737928 -0.0027612883 -0.0011252441 -0.0021500343 0.0005648511 -0.0029759721 -0.0018352491 0.003380703 0.0028610018 -0.0017739885 0.0025099544 -0.0017109172 -9.682342e-05 -0.000815196 0.0005451864 -0.0032553396 -0.0015986313
196.227.033.189 -0.00040288482 0.0030873718 0.0025717432 -0.003346917 -0.0038009717 -0.0031226906 0.0027606036 -0.0032197328 0.002962924 0.0022437288 -0.0002032961 0.0021855729 0.0010429997 0.003698024 -0.0023643516 -0.0036619168 -0.0025371877 0.0022838453 -0.0016688582 0.0029238653 0.001210984 -0.0029788858 0.0021702682 -0.003084267 -0.0023033838 -0.0022497158 -0.0021681264 -0.003519444 0.002887367 -0.002255199 -0.0001286472 0.0039684274 0.0035355357 0.00020757933 0.003471253 -0.0015620996 -0.0024206783 0.0021360065 0.002001815 0.00025787565 0.0015266793 0.00073836156 -0.0009182345 -0.00021838617 0.0010055158 -0.00026434255 -0.0021601398 0.0013912957 -0.0022963155 0.0018449485 0.0034651137 0.003085207 0.0004022502 -0.00066229847 -0.001006042 -0.003841958 0.0033972368 0.0015712918 0.0026612969 -0.0033227976 3.2642434e-05 0.0038054185 0.0032698154 0.0028298784 -0.001697896 -0.00039329787 -0.0004913883 -0.0013655393 -0.0014816015 0.0036477766 -0.00056426524 -0.00097170187 -0.0024909228 0.00067003834 -0.00036937697 0.0009964334 0.003195818 -0.0014633889 0.003235539 -0.003252581 -0.0019754248 0.0026869955 0.0034083289 0.0013053541 0.00011440906 0.0038733087 0.0022754024 0.0012982725 -0.0024287049 -0.000117729185 0.0037204085 0.002148653 -0.0012307281 0.002696065 0.0022675467 -0.002051794 -0.00359293 -0.00082951796 -0.0025414245 -0.002761656 0.0036885254 0.0010867666 0.0015768406 -0.003004643 0.0019998108 0.002916672 -0.0037344096 0.003762664 0.0039315303 0.0038536729 -0.00267012 -0.0015420537 0.003333214 0.00037761236 -0.0027105196 -0.0034319584 0.001968823 0.00058260455 0.0028300977 -0.0020370032 0.0011409725 -0.0028627343 -0.0029647208 -0.0029641017 0.00073247467 -0.0008818491 7.800828e-05 0.0010659769
172.016.113.084 -0.0038726383 0.001594853 -0.0030942084 0.0011537154 -0.0017957069 0.0007176211 0.00096440985 -0.0034253942 -0.0010485365 0.0021510248 0.0009107734 0.002440004 0.003199217 -0.0007429627 0.0005953653 0.0012016742 -0.00030514866 0.0038013963 0.0027859986 0.0019181544 0.0037948417 0.002724808 0.001616525 -0.002640339 -0.0025752324 -0.00040319483 0.0012645529 0.0014590141 -0.0011151456 -0.0003837063 -0.0013184453 0.0014507185 0.0017055031 0.0027934823 0.0010239197 -0.0018715127 0.0021796112 0.00022468583 0.00082207914 -0.0010309756 0.0038261758 -0.002777397 -0.00026372314 0.0023877672 -0.0004722555 -0.003745147 0.0017538279 -0.0036701886 0.002798478 -0.0032361015 -0.0034050234 -0.0011570327 0.0023327328 0.0001929874 0.001666406 -0.0023157713 -0.0025881648 0.001918362 0.002413713 -0.0028773178 -0.0012037529 3.7686492e-05 0.00033499196 0.0031695203 0.0023310054 -0.0012266922 0.0013191496 -0.0010713398 0.002640863 -0.0023239467 -0.00044160875 -0.002649028 -0.0016532928 -0.0023546205 0.0016665888 0.0021059888 5.9324473e-05 0.002040028 -0.0037500772 0.00014408097 0.0005151618 -0.002290392 -0.00190255 -0.0026627495 0.0012774909 0.0028900465 0.0023054555 -0.0037904214 0.0033986822 -0.0031743967 -0.0027705242 0.0038758626 -0.003257017 0.0020074835 0.0028477104 -0.0018142771 -0.0029080745 0.00041288667 0.0030764223 0.0020105098 -0.0021863945 -0.0016145067 -0.0033393607 -0.0023607258 0.00061341136 -0.000891143 -0.00019572004 -0.003901789 -0.001416233 0.0021393846 -0.0005970954 0.0015721826 6.474137e-05 -0.00092227774 -0.0010633167 -0.0007329699 0.0006922416 -0.00069376023 0.0031976618 -0.0015818044 0.0019250279 -0.0023272012 0.0034773606 -0.00290436 -0.0023755413 -0.0009384307 0.0024244809 -0.000850297
135.013.216.191 -0.00014100799 -6.3617874e-05 -0.0016403969 0.0025819652 -0.0016184435 -0.002532012 0.0035985683 0.00033276936 0.0019370329 -0.0035236538 0.00041930223 0.0035630334 0.0019819092 0.00051005307 -0.0039306963 0.001671892 -8.59173e-05 0.0017690246 -0.00074677134 -0.0038777362 0.002915975 0.00387928 0.003804455 -0.0028074263 0.0025607056 0.0012351007 -0.00238389 0.0011161435 0.0016777806 0.00045400427 0.00083693024 0.0020375114 0.0012788583 0.003480929 8.0148435e-05 0.00079468224 -0.0012908966 0.0035304376 -0.001730186 -0.0032894628 0.0038102986 0.002023784 0.0033059889 -0.0019037578 0.0015872121 0.002148163 0.003672319 0.0024064532 0.0030793522 -0.0025231743 0.0022649276 -0.0014052676 0.00074629986 0.0030060688 -0.00396268 -0.0009146472 7.864e-05 0.0030814447 -0.0014466898 -0.0024219197 0.0012212424 0.0035789032 0.0015068563 -0.0031062695 0.002144925 -0.000853556 -0.0017150539 -0.0034323141 -0.00020463287 0.00045124345 -0.00046096856 0.00036022975 0.0002206124 -0.00012436663 -0.0015977477 -0.0032909676 -0.0028250022 0.0014751347 -0.0025960845 -0.0010149085 0.0021823938 0.00011549008 0.003294353 -0.0039963103 -0.003853969 -0.0029394529 0.0016662398 0.0037576384 9.639657e-05 0.00045949552 0.0028168182 -0.0011559296 -0.00096455804 -0.003690599 -0.00012037001 -0.00028164676 0.0039389245 0.0015617532 0.003533733 -0.0036895424 0.0021853866 -0.0030339174 0.0016002392 -0.0027877542 0.0038549174 -0.0038704982 0.0023002014 -0.0027254068 0.0018893069 0.00053360354 0.0036152473 -0.0017560046 -0.0037499384 0.0024685152 -0.003719837 -0.0034450789 -0.0018713466 -0.0024517395 0.0029570113 -0.0035096828 -0.0026508954 0.003994423 0.0013756916 -0.0025907487 -0.0007985207 -0.0010793403 -0.00046451628 -0.00043263246
172.016.116.044 0.00088836596 -0.00018994728 -0.002804691 -0.0037040107 0.0008759574 -0.0005098593 -0.0033717768 0.0022864314 0.0033761326 -0.0026274705 -0.00034875973 -0.0022104746 -0.00065754994 0.002337761 -0.0019846407 0.0023921523 0.0031482093 0.0029480462 -0.0038382704 -0.0018829216 0.0022657586 0.003801387 0.00045527858 -0.0020756994 -0.0005938435 0.0012676658 0.0005707393 -0.0018974378 -0.0026649495 0.00029604745 -0.0021143795 -0.0033388757 -0.00076059735 0.0035080512 -0.0024392954 -0.0007718544 -0.00321503 -0.0015889924 0.0027369303 0.00091817277 -0.0005136329 -0.0013194963 0.00040861286 0.0037849357 -0.0037784434 0.0029797326 0.001575837 -0.002393079 -0.00062155613 0.00091955054 0.002441314 -0.0024030951 -0.003809447 -0.0033691907 -0.0016391759 0.0011771576 -1.18646985e-05 0.001827003 0.0036260353 -0.002374891 0.003484794 0.0025829824 0.0024849696 -0.0036841827 -0.0012264944 -0.00077450444 -0.0003389203 0.0033320035 -0.0028552152 0.00089437753 0.0016720231 -0.0027045622 -0.0016065143 -0.003317694 0.001423632 -0.001117222 -0.0024926518 0.00023118162 -0.003072194 -0.0036999783 -0.0038213583 -0.0032873913 -0.0035866012 -0.0024293885 -0.0026290845 -0.00022835989 -0.0024174666 0.0015980661 -0.0029284428 -0.0012194419 0.0028457274 0.00027804618 0.0011454575 0.0037669153 0.0038996246 0.0017301058 0.0012354857 0.0036741006 -0.0016468647 0.00079122884 0.0022857843 0.0030236274 -0.0004564893 -0.00041182988 0.0019973079 -0.003416012 -0.0010786694 -0.00042773035 -0.0024689282 0.0028904337 0.0025483598 -0.001397113 0.0027493213 0.0012902961 -0.00066199584 -0.0016202815 -0.0037759717 -0.0034375635 0.0026162076 0.002046335 0.0031157832 -0.0016204689 0.0025469346 0.0012638418 -0.0036374053 -0.003874065 -0.0019049278 -0.0029316288
