26 128
172.016.114.050 -0.00034683087 0.0024800561 0.0021917988 5.9569295e-05 0.0015883141 -0.0034573663 -0.0010395484 0.00036459733 -0.0011129277 -0.003004158 0.0019134149 0.003541203 0.0028012902 0.0024443127 -0.003567549 -0.0035433308 0.002706217 -0.003358554 -0.0038624352 -0.0010348075 0.0012744492 -0.0032612078 0.0027969352 0.00344705 -4.5680932e-05 0.0003045872 0.0024860487 0.0021521952 -0.0018817803 -0.001140983 -0.0038704483 -0.0015074861 -0.0010807747 -0.0016720953 0.0036954326 -0.00018881795 0.003904138 0.0029920195 0.0025386335 -0.0018754979 0.0014410476 -0.0028788853 -0.0031743427 -0.0005162818 -0.0023969514 -0.0005027404 -0.0003419776 0.002157438 0.0012168494 0.001496723 0.000107369015 0.0015717458 0.002898308 0.0026551234 -0.003086499 -0.0014393876 0.0036059718 0.00028568885 -0.0009550431 -0.0017955109 -0.0015953516 -0.0036711246 0.0033069167 -0.0014177834 0.0008004902 0.00332626 0.0019380669 -0.0011644493 0.0008994872 -0.00023582793 -3.1912172e-05 0.0027062239 0.0032181926 0.0033466495 -0.00254304 -0.00017825967 -0.0020627733 0.003571043 0.0031166195 0.00083909254 0.0018886855 0.0033920496 0.0022143493 -0.0035683997 0.0027538107 -0.00014473018 -0.00091223494 0.0033078522 0.0021953215 -0.003668266 -0.00092517555 0.0032622234 -0.003612575 0.0028347217 0.0026880635 -0.0035837586 -0.003816268 -0.0010104227 -0.002600804 0.0035575875 0.0024289566 0.0027701026 -4.663105e-05 -0.000838397 -0.002940469 0.0017658563 -0.0034293323 0.00022161887 -0.003099731 0.0012371253 0.002433934 0.0021935245 0.0017339286 0.001754028 -0.0035240143 0.0027585756 0.0008227297 -0.0029376906 -0.003006793 -0.0023786814 0.0011434051 -0.0006990615 -0.0036687106 0.00082863384 -0.0031781336 -0.00061771175 -0.0032700228 -0.0026991758
194.027.251.021 -0.0028050297 0.00046561047 -0.0034484817 0.00015470272 -0.0023573157 -0.0029373895 0.00014129763 -0.0037947954 -0.0026867082 -0.0012547374 -0.0020313845 0.002622738 -0.0014437359 0.0029324093 -0.0025145537 0.0038317384 -0.0003228146 -0.0011852526 -0.003593984 0.0037516977 0.0021070857 0.0009375917 -0.0037996417 -0.0011973834 -0.0012216949 -2.9555e-05 0.0024672523 -0.0011189241 -0.00372219 0.0026213373 0.00088021514 0.0011894798 -0.00062547944 -0.0033461067 -0.0018242449 -0.0017563317 0.0019648143 0.0037044676 0.0030159622 0.0009623942 -0.0009838998 -0.0032345366 0.0038546058 0.00022972655 -0.003953916 -0.0039159497 0.0017397571 -0.0006182671 -0.0017516975 -0.0011531459 0.0033818574 -0.0033906503 0.002615997 0.002094994 0.0020058993 -0.000987859 0.0037584973 0.0002995156 0.0008658713 -0.0017305121 0.001043633 0.0005395891 0.0017715391 -0.00011631468 -0.003402643 -0.0037204367 -0.003846314 -0.0002003567 0.00095816853 0.0015964255 0.0020331556 -0.0028690589 -0.0016562574 0.0011482529 -0.0032842087 0.00013533111 -0.00018185549 0.0027425664 -0.0027294743 0.003483262 -0.0007689034 -0.0023755839 0.0021562704 -0.0019024843 0.0004292461 0.0018835334 -0.00038113052 -0.0025184206 -0.003455546 -0.00043830677 -0.0014827059 -0.00037548502 0.0037465603 -0.0025779805 0.0020604169 0.0017930279 -0.00017136501 -0.0014685483 -0.0038095668 0.00073492597 0.0018739231 0.0009789163 -0.0010317855 -0.0021863673 -0.00011248574 0.0015497355 -8.5877764e-05 0.0012590712 0.002882505 -0.0023212014 0.0029872668 0.0013313997 -0.00224417 -0.0031352772 -0.003550513 0.00016176478 -0.0034542123 -0.0018836805 0.00050185603 -0.0011212188 0.0025506185 -0.0023808798 -0.0018657261 0.0014967918 -0.00050291186 -0.0008557925 0.0034734346 0.00076039473
135.008.060.182 0.0032709632 -3.821077e-05 0.0014252443 -0.0023943456 0.0020926618 -0.00221588 -0.00078540115 -0.0032162957 -0.0030831445 0.0037178523 -0.0018186349 0.0007819739 0.0027102947 -0.0008558472 0.0008997837 0.00024434365 0.002865577 -0.0022405128 -0.0034558943 -0.0005380492 0.0025779465 -0.0021756436 -0.0034438074 -0.0018381244 0.0036494131 0.0006856585 0.0036832574 0.00059833506 -0.0032372018 -0.00028421302 -0.0032009454 -0.00017081563 -0.0021374372 0.0009831635 -0.0024995496 0.0038449652 -0.0028994074 0.00058707973 0.0036370829 0.0012379561 0.0035213765 -0.001999015 -0.0033586677 -0.00032275665 0.0033985241 -0.0020091494 0.0036195666 0.001776483 0.001469241 0.0020618394 0.002330785 0.00035847747 -0.0006548594 0.0016707403 -0.00071398733 -0.002924136 -0.0019742902 0.0029839764 0.00013022116 0.0030255688 -0.0038050737 0.0006391909 0.0024925908 -0.003847988 -0.00084584416 -0.0024826925 0.00059081346 -0.002059269 -0.0027496787 0.0037810693 -0.0006875163 0.0021651904 0.0021630917 0.0008939934 0.001951267 -0.0030840146 -0.00019449281 -0.0008786049 0.0035531465 -0.0005208398 0.0009815037 0.0018672033 5.1267372e-05 -0.002876949 -0.0028208706 2.4945555e-05 0.0018590954 0.00064706744 -0.0026057202 -2.92293e-05 0.0026953646 -0.0021245894 -0.002292943 0.0006356157 0.0017593241 0.0029507272 0.0016882337 -0.0025021771 0.0012919232 0.0019371554 -0.0025546912 0.0020138877 -0.0015671466 0.002975496 0.0011559977 -0.0021657743 0.0015035791 0.00079330814 0.0007690959 -5.9810223e-05 0.0034931027 -0.0022889827 0.0023836459 0.0014695609 -0.00057524844 -0.0018079632 0.003481174 0.0020100577 -0.0016256021 0.0010027488 -0.0011198109 0.003648092 0.0025813722 0.0006939259 -0.0005499638 -0.0030491517 0.0023825385 -0.0012169379
192.168.001.001 0.00040003937 0.0016015377 -0.00028991923 -0.0013204503 -0.003320102 0.0016716102 -0.0030151946 0.0022059174 -0.0015936113 0.0022025239 -0.0007147599 -0.00017303003 0.0001523822 0.0027015298 0.00018718907 6.846623e-05 -0.0035428435 0.0038715045 -0.0037255413 0.0029389537 3.705706e-05 -0.0013462757 0.0017044574 0.0014735245 -0.0034083147 0.0010061954 0.0019517962 -0.0030032871 7.234049e-06 0.00084731035 0.00260911 0.0030632957 0.0007014899 0.00032027118 0.0021911073 -0.00039982286 0.0015313263 -0.00050090556 -0.0021725576 0.0032524082 0.0027763075 0.0023021414 6.249904e-05 -0.0032035434 0.0024083664 0.0003246404 0.0017423587 0.0028111134 -0.0038856156 -0.0027999305 0.0037016657 0.0032573924 0.0019087 0.0032452883 0.00022026717 0.0024248555 -0.0016750881 -0.002742277 0.0024673701 -0.0038721182 0.00192756 0.00079341256 -0.0006730804 -0.00024319586 -0.0027040227 -0.0037916235 0.0021220536 -0.0037880298 -0.0032624097 0.00016751539 0.00014098937 -0.0030765885 -0.0035337256 -0.00028160837 0.0015919288 -9.465496e-05 -0.0029069176 0.0037468895 -0.0015243036 0.001750082 0.0029829242 -0.003747679 0.0021922772 -0.0005074802 -0.0014638831 -0.0015811666 0.0023575905 0.0027883118 0.0027302678 -0.0017027624 0.0001272216 -0.00077900937 0.0022358361 0.0032589033 0.0033454585 0.0020004262 0.00022177547 -0.003907887 0.0022013932 -0.0008653731 -0.0021978861 0.002703144 0.00036057338 0.0031468256 0.0027377515 0.0020629463 -0.0025624055 -8.428923e-05 -0.0025022172 -0.0024899875 -0.0021190848 0.0009680796 0.0008795824 -0.0014634591 0.0020095943 0.00011499779 0.0034171166 -0.0019233985 0.0011409449 0.0007606617 -0.0024858138 0.0016984082 0.0029836097 -0.00072209275 0.001340608 0.0027166703 -0.0015995689 0.002395314
172.016.113.204 0.00042988211 -0.001040411 -0.0008713385 -0.002127492 -0.0021277028 -9.680217e-05 0.0024641214 0.0025356633 0.00032159843 -0.002629482 -0.0009866294 0.0017789849 -0.0025705807 -0.00012925023 -0.0022348296 -0.0012385651 -0.0015917026 0.003681098 0.0010001751 0.00045713419 -0.0029025332 -0.00090769475 0.003078068 -0.002577824 0.0038732921 -0.003530814 0.002521768 0.0014304818 0.0011992111 0.0023025316 -0.003886267 0.0016294391 -0.0015634166 0.0031704847 -0.0037457135 0.0021022093 0.00073966425 -0.0009543639 -0.0023800826 -0.0017377947 -0.003849851 -0.0024450922 -0.0012116606 -0.0018459697 -0.0032450545 0.0015940557 0.0036640777 0.0018049201 -0.0030972431 0.0005103013 -0.0024907112 0.0012018543 -0.0012292122 0.0028767006 0.0026762763 0.0024592949 0.00062042533 0.00015181681 -0.00031743597 0.0025383185 0.0014008277 9.98857e-05 0.0010641144 -0.0032372195 0.00040001736 -0.0027959542 0.0021349313 0.0038960478 -0.003675183 0.0009874396 0.0027459166 -0.0010880488 -0.0013225452 -0.0031059561 -0.0023810072 0.0010798346 0.00046118954 -0.002575979 -0.0035095806 0.0015852614 0.0026312082 -0.0008144481 -0.00027684885 0.0025689378 0.0012913229 -0.00021438659 -0.0020965454 0.0021990119 8.1651066e-05 -0.00081322104 -0.0007217708 -0.002777513 0.00301606 -3.2384934e-05 0.002822084 0.00089823053 -0.00094299566 -0.0012954768 0.001791506 0.0019498582 0.001752686 0.0021474496 -0.00029679513 -0.0021082896 0.0014986976 -0.0010684339 0.0034599921 0.0036116806 0.0011940082 0.0005830019 -0.0036100983 0.002312464 -0.0005711279 -0.002579687 -0.002369544 -0.0020527625 -0.0011062017 0.0037944613 0.0020071664 -0.0035451956 -0.0017977115 0.0030875143 0.00012302265 0.0028498021 -0.0016411372 0.0024951324 -0.0036701316 0.0036843664
196.037.075.158 0.00051692454 0.00075101847 -0.0035393203 0.000637135 -0.0030085542 0.0030662557 -0.0024070481 0.0029160914 -0.003878973 0.0010960073 -0.0020272061 -0.00040424627 -0.0023602992 -0.00036723548 0.0019524831 -0.0020091021 0.0020715664 0.001966381 -0.0021870786 -0.00074582966 -0.0036384987 0.0027283856 -0.0018909944 0.0034552997 0.0035863875 -0.0024483234 0.0030551536 -0.0006930766 0.000740608 -0.0037226656 -0.0017042066 -0.0026970492 0.003554484 -0.0013178237 0.000207145 -0.0012414862 0.00010734762 -0.0035429166 -0.00094956334 -0.00373219 0.00074232137 0.0033893127 -4.1037143e-05 -0.0014628723 -0.00019882729 0.0006324182 0.0034272515 -0.001573073 0.001966782 0.0025599184 -0.001450635 0.00091131695 -0.0016058111 -0.0032038514 -0.0025365027 -0.0031363165 -0.0024987624 -0.0006865871 -0.0015034708 -0.0015884237 0.0016743533 0.0005953395 -0.00020514855 -0.001783179 0.0016437814 -0.0038116667 -0.002260655 -0.0026294885 -0.0020809048 0.00072848256 -0.000611268 0.001414773 -0.002202319 0.0029255731 0.0026622866 -0.0018551706 0.0020650881 0.00066001527 -0.002889393 0.0023796689 0.002962277 -0.0034078544 -0.0033323623 -0.0029268907 -0.00020794118 0.00027227806 3.7889593e-05 0.00073176174 0.0034845206 -0.0038817069 0.0030579304 0.002503098 -0.0010672238 0.0014429865 -0.00010173067 -0.0007219129 -0.0034843949 5.8627036e-05 -0.0019999223 0.0015518961 -0.0036343404 0.002982435 0.00277948 -0.0028688537 -0.0029523429 0.0029132604 -0.0038831509 0.001018702 -0.0028693643 -0.002770424 0.003057046 -0.0027120025 0.0022909113 -0.002502664 -0.002678355 0.0037990364 0.0026638806 0.0030186537 -0.0036223026 0.0020499008 -0.00031956806 0.00084484887 0.0013723673 -0.0036121728 0.003062966 -0.0037420217 -0.0019220822 -0.0023645975
172.016.112.207 0.00066947675 -0.0024014947 0.0013739038 -0.0036505389 9.765759e-05 -0.00063242763 0.0012085133 -0.0007883017 -0.002295341 0.0012543155 -0.0010448262 -0.0008486741 -0.0029537815 0.0018866551 -0.001576236 -0.0036199875 0.0022343355 -0.00036306886 -0.0023243045 0.0023782593 -0.0022209736 -0.00088893715 -0.00356902 -0.0008016716 0.0013426096 0.00021223343 -0.002664688 -0.0016364323 -0.0028163306 0.0002652696 0.001871971 0.001247525 -0.001080556 0.0038147937 -0.00036888462 0.0016955666 0.0026379512 -0.00045707246 -0.0017427024 -0.0016702753 -0.0038221136 -0.003030749 -0.0036922328 -0.0008212608 0.0008959591 0.0038831877 0.0016923004 -0.00037871188 0.00023985474 -0.0018553956 -0.00044132248 -0.0031214985 0.00037409336 0.0031314834 -0.0031673252 0.0010207756 -0.0035934178 -0.003909186 -0.0015936781 9.4614436e-05 -0.00010295359 0.000585365 -0.0013834796 -0.0016776565 -0.002075679 0.0016752795 0.0031879295 0.0010102851 -0.0030350084 -0.003197485 -0.0014281697 0.0021846867 -0.0011029348 0.0014072069 -0.003354852 0.002163069 -0.0012974126 -0.0007207163 -0.0029945974 -0.0031276532 -0.002170189 -0.0022084536 -0.00061370496 -0.0015976129 -8.11307e-05 0.00044955802 -0.0032424598 0.0037361179 -0.00073169696 -5.7786536e-05 -0.0026192593 -0.003606088 -0.001504776 0.0019283188 -0.0012107156 0.0031939803 0.0002120311 0.0018470641 -0.0021638337 0.0027109173 0.000520498 0.0011009418 -0.00062727847 -0.002209762 -4.465197e-05 0.0002547595 -0.0026738816 0.0032403946 0.0002760629 -0.0024207877 -0.00058205513 0.0022078033 -0.0009544467 -0.0032911138 -0.0038594154 0.0034396325 0.0035881589 -0.00081306056 0.0008746948 -0.0025265983 0.0008025702 -0.0018309262 -0.0007350111 0.00021979221 -0.002445122 -0.0012620396 -0.0018967285 0.0009659327
195.073.151.050 0.0009991351 -0.0023879008 -0.0028300937 -0.0017405091 -0.0035369971 -0.0028245589 -0.00018355148 0.00209267 -0.0021063455 0.0028147143 -0.001162312 0.0011919372 0.002013684 0.0030561483 0.0028563351 0.002034974 0.0002307367 -0.00048309896 0.0013528083 0.0008433954 -0.0015172513 -0.0032845675 0.0007853727 0.000119513454 -0.0010027101 0.003127965 0.0014472464 0.0013116742 0.0011404714 0.0033055355 -0.0032083893 -0.0013301388 0.0010198973 0.001892436 0.00010715443 -3.3722863e-05 0.003897159 -0.0007165978 -0.0009690112 -0.00023238843 0.0018621872 -0.0036840404 -0.001632346 -0.0034463524 0.002905148 0.00090332987 -0.0023127005 -0.0022307767 0.0037455065 0.0015142978 0.0033265378 0.0014690591 -0.00030182497 0.0019365484 -0.0014231851 0.00038466125 -0.0014692901 -0.0017778287 0.00369384 0.0022756162 -0.0010677532 -0.0014753812 -0.0030968708 0.0037279539 -0.0023000974 -5.184265e-05 -0.0029129798 0.0018706585 -0.0010692312 0.0020941666 -0.0017344858 -0.0031876743 -0.0006206356 0.002194602 0.00035183725 0.0012504429 0.00378679 -0.0014145892 0.0030701603 -0.0012466331 -0.0033388592 0.0016389274 -0.0024290422 0.0005523893 -0.0009461796 0.0035883058 0.0013449319 -0.003435785 0.0012230125 0.0029093733 -0.0013644513 -0.0038852768 -0.0023982613 -0.002728526 0.0021852953 0.0030334597 -0.0013317765 -0.0016073629 -0.0018924228 -0.00094318716 0.0023487152 -0.00028698446 -0.00027556086 -0.0025942135 -1.8829924e-05 0.0021482825 0.0019654664 7.7538556e-05 -0.0033701966 0.0015613612 -0.0032968875 0.0019052298 -0.00075945805 -0.003706839 -0.003031753 -0.0026189727 -0.0008505683 0.0022133861 0.0019427927 -0.0017650346 -0.0036813137 0.0019402559 -0.0031870448 -0.00065606897 0.0037841443 -0.0026470392 -0.002990895 0.0027099024
172.016.112.194 -0.0017932993 0.00027635795 0.0011219727 -0.0034034376 -0.00020888147 -0.0020372288 0.002310734 -0.0015044324 -0.00083649455 0.0023913765 0.0030979337 0.0027177793 0.00045479747 0.0013880396 0.0032585268 -0.0023392052 -0.0034497373 -0.000462408 0.00023110348 -0.0023369389 0.0029556488 0.0010290517 -0.0001426933 -0.001402891 -0.0027814186 -0.0010482939 -0.0020244187 -0.0024804699 -0.0022779559 -0.0003214516 -0.002847778 -0.0015600538 -0.0027059694 -0.0025312812 0.00030513684 -0.00367128 -0.00081464875 -0.0024701713 -0.0016509915 -0.002806467 -0.00246136 0.0023526738 -0.0033401763 -0.0034943249 -0.0032335357 0.0005687397 0.00017716204 -0.0037798733 0.001739893 -0.0018465418 -0.0019851811 -0.0030620997 0.0015351877 0.0012962279 -0.002147878 -8.187061e-07 -0.00049885456 -0.0003157383 0.003591715 -0.0011438876 0.0015238466 0.0002640123 0.0035461572 -0.0013012135 0.0034214342 0.0004111734 0.0026532032 -0.0035060793 -0.0038925845 0.003561039 0.0010608846 0.0025641685 -0.0025241317 0.0033066024 -0.0017940113 -0.0013072381 -0.0016697572 0.0022794122 0.0024625692 0.003067213 0.0014305717 -0.0009997309 -0.001316557 -0.0023540016 0.0028966966 -0.0017413142 -0.0038869749 0.0025655758 -0.0037197967 -0.0034101997 -2.8694794e-05 -0.0031976297 0.0034067796 0.0030655465 -0.0036692542 0.0028804375 -0.0003596209 0.0022669332 4.8137892e-05 -0.0015637253 -0.001590644 -0.0010004443 0.0009962752 -0.00044398077 -0.00024533313 0.0036762988 -0.0023464365 0.0026265166 -0.0001371693 0.002706328 -0.002837698 4.1627405e-05 -0.00012534868 0.0031756146 0.0018754385 -0.0029711917 -0.0025415546 -0.0015104336 0.0019700397 -0.0032692063 0.0020651522 -0.0019024647 0.00038631898 -0.0012358994 0.0032177083 -0.00032093519 -0.0021778778 -0.0008727088
172.016.112.050 -0.0030110362 -0.0016138834 0.0012806777 -0.00020752124 -0.0025905313 -0.0013007765 -0.002027704 0.0034506447 -0.0036568397 0.00234203 0.00037625278 0.0028311876 -0.0031151976 0.0020437057 -0.0029524704 -0.0014448847 -0.0015046851 -0.0034970408 -0.0019390993 -0.0026674427 0.0016489931 -0.0020971722 0.0034135405 0.001152124 0.0019097973 0.0034421277 0.0038155017 0.0027875702 -0.003842297 0.0010646208 0.00091041747 0.0005362295 0.002201581 0.0025304449 -0.0009482006 -0.0018985795 -0.002284135 0.00084783783 -0.0014103567 -0.00016189911 0.00011991138 0.002327402 -0.003837835 -0.0020125427 -0.0039019727 0.0011953621 -0.0037879986 0.0016216574 0.0004157551 -0.0037110355 -0.0014622046 0.00077931274 -0.0026393018 0.0012361675 -0.0009967027 -0.002915623 0.0019150277 -0.001771156 -0.0003130104 -5.6573906e-05 -0.0009387867 -0.0011847689 -0.0036511726 -0.002100737 -0.000879057 -0.0010799686 0.0035486417 0.0027642727 -4.953639e-05 0.0018130058 0.001643537 0.0028596679 -0.0019050996 0.001169368 -0.002364666 -0.0024795462 0.003513612 -0.00056700653 0.0014077404 -0.0031976234 -0.0033771754 0.0020956702 0.0029173205 0.0024430251 -0.0007245125 -0.002229361 -0.0015511563 0.0036458618 -0.0014067503 0.0022155016 0.0034285898 0.0006622853 -0.0011005686 -0.0013770002 0.000986835 -0.00033436538 -0.0030963568 0.00027960623 0.0003887615 -0.0019791091 0.0038528817 0.0011820591 0.0024779325 -0.0010000711 0.0011625276 0.0008007857 -0.00248764 -0.0021877966 0.0017383333 0.0016492688 -0.0032687879 0.001367295 0.0015798374 -0.0035121397 5.713403e-06 0.0020169055 -0.002003998 0.0025639767 -0.00019362045 -0.0038307395 -0.0015419365 0.000996224 0.0033748297 -0.0012503735 0.00029336105 0.0013147605 0.0009918252 -0.003128836
209.067.002.107 -0.0023847877 0.0029531517 -0.0012637256 -0.0010471843 -0.00086282915 -0.0007453575 -0.0012581948 0.00080456195 -0.0015025188 0.0029176539 0.0018810021 -0.0024756799 -0.0012692044 0.0032747462 0.001080205 -0.0014232435 -0.0026253914 -0.0029889704 0.0013523938 0.0014431811 0.0032949247 -0.0036679308 0.0012407671 -0.0002658422 0.0035052923 -0.0009953629 2.5689551e-05 0.00088722055 -0.0008722225 -0.0019507619 0.0011619874 -0.0013824244 0.001047098 0.0021990093 0.0035169646 -0.0007829411 -0.0023788144 0.0018237615 0.0029547338 -0.0019313238 0.0015956938 -0.0012174211 0.0035047894 0.0014333572 0.0015816712 -0.00031199332 -0.0009954757 0.0012240406 -0.00066733686 0.00025165427 0.002378663 -0.0030094623 -0.0010645537 0.0027588056 0.0038168437 -0.0037684464 -0.0015991005 -0.0010542675 -0.0011006191 0.0024008953 -0.0028852182 0.00042131124 0.0021293208 0.0028477532 -0.0014706485 0.0019100261 0.0029827286 -0.00092234305 -0.0022937858 0.0008955044 -0.000852569 -0.00121086 0.0036191652 -0.002463755 0.0012426088 6.3591375e-05 0.0037150867 -0.0010770329 0.0021649362 0.0024027238 0.0010714006 -0.003088281 -0.001739474 -0.0026907718 0.001237452 0.00090305915 0.0017079713 -0.0004922576 -0.0037145396 -0.0022072222 0.0017397769 -0.002696104 0.0005707601 0.0013648577 -0.0030367556 -5.068008e-05 -0.0024897296 -0.0037402536 -0.0029825703 0.002847489 0.0016274547 0.00334652 -0.000910837 0.0025295827 -0.0023379263 -0.0027411983 0.0036840432 -0.0024192755 -0.00033288685 -0.0028073885 0.00048192474 0.0028485681 -0.0020758277 -0.0010038692 0.0018289255 0.0018297101 -0.0032210967 0.0028374114 0.003488378 -0.0026586326 0.002557153 0.0020689012 -0.0005120108 0.001407578 0.0011635526 0.0010890083 0.001278085 0.0027808317
197.218.177.069 -0.0028498375 -0.003586651 -0.0011101543 -0.0021826378 -0.0012853955 0.0029872733 2.5845377e-05 -0.00029635563 -0.0017428567 -0.0010500186 0.0031007 0.0029265005 -0.0030760546 -0.00016041409 0.0013050853 0.0016615712 -0.00026079788 -0.0011057827 -0.003694306 0.0027390064 0.0014649391 0.0006918235 -0.0037769743 0.002503256 -0.0031724244 0.0018164192 -0.0021622698 -0.0014845354 0.002099579 -0.00057470234 -0.0021002677 -6.086872e-05 -0.0029048305 0.0020870655 -0.0030630373 0.0006334054 0.0017454306 -0.0013822081 0.0010502449 0.0007791252 -0.0022850393 0.0027588478 -0.001839418 0.0038276534 0.00065087056 0.0026548437 -0.0012353667 -0.0011632753 -0.0029158469 -0.0015247086 0.00073663366 -0.0033064336 0.0019477553 -0.00013230862 -0.00056693284 -0.0006165919 0.00023670337 0.0027241947 -0.0022778327 -0.0024257263 -0.0033980946 -0.00064720126 0.00096218433 -0.0018626881 0.00149253 -0.0011704332 -0.0029404308 0.0007218248 0.0015237418 -0.003480941 0.002877343 -0.0017302998 -0.001052325 0.0028846613 -0.0028541426 -0.00169241 0.0018263615 -0.00042719624 0.0013767637 -0.00098977 0.0019055671 0.0006809507 -0.0034205713 0.0014348283 -0.000284955 0.00019715012 0.002816126 -0.0028710407 0.0007503442 -0.0020084782 -0.00059120025 -0.0016711915 0.001147896 0.0018636048 -0.0037420606 0.0011747367 -0.00036770385 0.002245513 -0.0038272508 0.00010061447 -0.0035154934 0.00025048238 0.0011705385 0.0026271997 -0.0009140761 0.0019515831 -0.003886845 0.00027909558 -0.0009462205 0.0025964219 -0.0038969205 -5.12093e-05 0.0021543964 0.0032982652 -0.00021777402 0.0011981041 0.0021975343 -0.0014707459 -0.0018667725 -0.001180729 0.0036463353 -0.0015736531 0.0037467412 0.0009885457 -0.0027644138 -0.0019427204 0.0037473317 0.0010568236
172.016.114.168 -0.002374758 0.00051443605 -0.0028538802 -0.0030178728 -0.0020509185 -0.0017358519 -0.003341714 0.00040502535 -0.003021457 -0.001771881 -0.0007372019 -0.0019637635 0.003538293 -0.00022547547 -0.001764583 0.0038991666 -0.0019702723 0.003429033 -0.0022250118 0.0029560826 0.00083301525 0.0021759341 -0.0023811695 7.399025e-05 0.0023226184 0.0014247774 -0.0013228953 -0.0024494168 -0.0007709091 0.0014069406 0.0035310541 0.0013184169 -0.00076030893 -0.0012558353 0.0023272503 -0.0021190378 -0.00018907688 0.0013978239 -0.0010418594 0.000116501884 -0.0030416076 0.003447278 -0.0014641794 -0.0002887558 0.0019295292 -0.001840878 -0.0023846072 0.00012714759 0.0026505548 0.003044177 -0.0010758806 0.00075246574 0.0028959417 -0.0017066952 0.00049216615 0.002457759 0.0021381113 0.0027560513 -0.0003686761 -0.0013972119 0.002069063 -0.00044165755 0.0017931205 1.4896717e-05 0.0010939016 0.0022855145 0.003534319 -0.00209495 0.0017098052 -0.0023625903 0.0008005782 -0.0022484749 0.0025329613 0.00065929384 0.0024270192 -0.002931998 0.0013284629 -0.0015430619 0.0038590338 -0.0013348677 0.001521843 -0.0012633249 -0.0026561604 1.9968113e-05 0.00010957003 -0.002722033 0.003702753 0.0026371463 0.0012388299 0.0035318737 -0.0033473335 0.001839642 0.003741173 -0.0013369289 0.001455671 -0.00057362026 0.0010708321 -0.003215829 -0.0030167056 -0.0006045227 0.003365829 -0.0008596908 0.0024133374 -0.0026003157 0.0010646338 0.0015375264 -0.0032876458 0.0027000254 -0.0032875468 0.00039321472 0.0023094406 0.0029928752 -0.00041906818 -0.00021150021 0.0035732647 -0.00040816786 -0.0017241654 0.0010520703 -0.0038358958 0.00017175483 -0.000956825 -0.0017726414 0.0021842576 0.0011966503 -0.0028941862 0.0002049329 0.0015816699 -0.0034264408
192.168.001.020 -0.00013551359 0.0014431983 0.00092478987 -0.0016861559 0.002434235 -0.00013939943 0.003864817 -0.003899429 0.0021946789 0.00012755832 -0.0034359973 -0.0007208361 0.0017784816 0.0008999604 -0.0012940656 -0.001945764 0.00049070467 0.0038554163 -0.0016738278 -0.0008785435 -0.00037862643 -0.0008046107 -0.00030355412 0.00024936264 0.0018053933 -1.3937117e-05 0.0004703106 -0.0014366684 0.0014752703 0.0014320114 -0.0013544558 0.0014046967 0.00030411172 -0.0022079907 0.0037202085 0.002130087 -0.00025446306 -0.0035045948 0.0020354015 -0.0036488052 -0.0035164717 0.00080935244 -0.0033135687 -0.0033128492 -0.0008235627 0.0013680694 0.0014420447 -0.00087711413 -0.00016933666 -9.564324e-05 -0.003208758 0.000390987 0.0010898373 -0.0033970966 0.0028267365 -0.0013478016 -0.0035976751 -0.0027972704 -0.002585679 0.003544277 -0.0010360724 0.0014838387 0.00063595583 -0.0021638484 0.0002414234 -0.0030921847 -0.0012345457 -0.0006076924 -0.0013766082 -0.0026017237 -0.0029129733 0.001625093 0.0036100994 0.0009832026 -0.0011439163 0.0025914437 0.00041863357 -0.003391253 -0.0011564157 0.0028048789 0.0032216483 -0.00055424665 0.003360423 1.1370557e-05 0.0031308872 -0.0023675843 0.0008507752 0.0013146567 0.0038174968 0.0027926497 0.002809834 -0.0014087409 0.0009102686 -0.0031706914 0.0036853082 0.0012290077 -0.0015777008 -0.00095876737 -0.0020299475 -0.0018250203 0.002024607 -0.0034936666 -0.0033469342 -0.00381321 0.0022781466 0.0014173602 0.0037618163 -0.002142893 1.2892438e-05 -0.0024889603 -0.0015640164 -0.0038314152 0.002528346 0.0023580587 0.0014090176 -0.0003961381 0.003065988 -0.00080675725 -0.0010394268 0.0009884641 0.0034648376 -0.0019997887 -0.0021953115 -0.0013827694 -0.0034351104 0.0010457927 0.00051976956 0.0021892677
197.182.091.233 0.0009779395 -0.0020271225 -0.0010820419 0.0013948265 0.0023909195 -0.0011349871 0.0018564551 0.0019905677 0.0010093554 -0.003765748 0.002315389 -0.0029653239 -0.0033058226 0.0035446354 -0.0013101795 0.00073754124 -0.00013273409 0.0003317596 0.0022565753 -0.0009118889 -0.002262042 -0.00010279021 -0.0032802443 0.0029796301 0.0017077097 0.0019437349 -0.0037920305 0.0038000876 0.0012564224 -0.0005472437 0.00041356805 -0.0024275386 0.002540037 -0.00035045634 -0.002396007 0.0019274198 0.00049844047 0.0021300449 -0.0026378497 -0.0018331293 -0.0024402272 0.0032658668 -0.0026028645 0.0015535327 0.001339082 -0.0035269365 -0.0036752906 0.0032909017 0.0035818904 -0.002199545 0.002838645 0.0007607344 0.00022019992 -0.0031255868 0.0030380473 0.002560055 -0.0006722917 0.0023176032 0.0016228005 0.0029932896 0.003291215 -2.7366832e-05 0.002249071 0.0021510504 0.001376526 -0.0019803524 -0.0016178623 2.509951e-05 -0.0015221972 -0.0031190878 0.0037904568 0.0019675929 0.002434567 -0.0012678001 -0.0037712492 -0.0011519294 0.0033766045 0.0026070853 -0.0034898105 -0.0035042723 -0.0020207593 0.0012393633 0.002186937 0.0006133918 -0.002538672 0.0012322208 -0.0021676766 -0.0024778317 0.0008861245 0.00013346481 0.0028999024 0.00085335626 -0.0010196287 -0.0016525062 0.0035731224 0.0013630262 0.0011755988 0.0018455316 -0.0031884846 0.0011036053 0.0013614706 0.0022891115 0.002726133 -0.002137342 -0.003502613 0.0006910385 -0.0021619224 -0.0016210044 0.0021600383 -0.0023021551 -0.0037599513 -0.00013472524 -0.0005425563 -0.00033626333 0.0020106148 -0.0002951103 0.0028091138 0.00072879274 -1.8102155e-06 0.0019559464 0.0009467444 -0.00035361684 -0.00035028576 -0.0005679796 0.0018783223 -0.002368756 -0.0027934609 -0.00085895124
172.016.113.105 -0.002086434 -0.0035861533 0.001297186 0.0030348678 0.0008689687 -0.0012145233 -0.0035628956 -0.0015568656 0.0030357395 -0.00214168 0.0036328332 -0.003831357 0.0017345358 -0.0025452976 -0.0018470851 -0.001333813 -0.0008958727 -0.0028856066 0.0016111223 0.0021579259 -0.0018925746 0.0014006215 -0.0018788996 0.0025305988 0.002694355 -0.0016769514 0.0024888467 -0.00021747302 0.00043566388 -0.003429545 0.003245657 0.00024300537 0.0010109051 -0.0019391062 -0.00030320341 0.00056220655 0.003116771 0.0023591553 -0.002381304 -0.0018131917 0.0038770647 -0.0012257218 -0.0019923127 -0.00068300765 -0.0021871186 0.002052843 -0.00063383696 0.0036309478 -0.0006947933 0.0034615141 0.0006804557 0.0021700028 0.0013478948 -0.0035516664 -0.0033043534 -0.0011989182 0.0006527266 -0.0038182887 0.0021046442 -0.0013225824 0.00077664806 -0.0026519976 0.00256825 0.0031166708 -0.0015480039 -0.00056159514 0.0017620258 0.0035545758 0.0008355461 -0.00024334951 -0.002034509 -0.0011799013 -0.0030431661 0.00073069864 -0.0029222707 0.0022060229 -0.00016842519 -0.00059119624 0.0011622082 0.0032253806 -0.0020809444 0.0006162987 0.0022239827 0.0035380404 0.0029257643 -0.00083910173 0.0025796269 -0.0006900549 -0.0020496743 0.0027693498 0.00018461754 -0.0026694078 -0.002847829 -9.683132e-05 -0.0021258127 0.0021338058 0.0015956153 0.0033265064 0.0015591803 0.0033065109 -0.0025778185 -0.00086507056 0.003527746 0.0019883178 -0.0003277719 0.0033801324 -0.0026994748 0.0019032896 2.834184e-06 0.0038520466 0.0027818047 0.0011192565 -0.00285624 0.0035282786 -0.0021675525 -0.0034423883 0.0013908909 -0.0017494281 -0.00018041553 0.0027516594 -0.0014124912 0.0022982238 0.00075159286 -0.000487115 -0.0010962362 0.00056387513 -0.0029097493 -0.0031813623
172.016.113.084 -0.003866511 0.0015946635 -0.003090104 0.0011487744 -0.0017550004 0.00073987874 0.0009911893 -0.0034189464 -0.0010171182 0.002112907 0.0009164095 0.0024157483 0.0032077455 -0.0008017602 0.00062637706 0.0011766928 -0.00027498914 0.003785769 0.0028829537 0.0018885293 0.0037591753 0.0027394737 0.0016135969 -0.0026343085 -0.0025663448 -0.00042778376 0.0012118994 0.0014784998 -0.0010790919 -0.0004056733 -0.001355788 0.0013938687 0.0017071682 0.002782433 0.001014285 -0.0018830734 0.002190844 0.00020316408 0.00082140736 -0.0010574149 0.0037572563 -0.0027822212 -0.0002780099 0.0024346658 -0.00047493464 -0.003720854 0.0017098055 -0.0037258207 0.0028236657 -0.0031942523 -0.0034716392 -0.0011746086 0.0023169592 0.00012681537 0.0016878108 -0.0023068744 -0.0025914395 0.0019271618 0.002388482 -0.0028307666 -0.0012181478 9.879055e-06 0.00032526415 0.0031970805 0.0023844226 -0.0011665904 0.0013065161 -0.0010111869 0.0026773878 -0.0023539066 -0.00046137205 -0.0026233841 -0.0016255662 -0.0023720406 0.0016778576 0.002149623 8.2487364e-05 0.0019883816 -0.0037424557 0.00012603348 0.0004909226 -0.002257815 -0.0019604356 -0.0026176989 0.0013109533 0.0029094773 0.0022613048 -0.0038522806 0.0034067503 -0.0031633 -0.0027864166 0.0038943135 -0.0032872402 0.0019919644 0.0027966932 -0.0018570585 -0.0029156473 0.0004553409 0.003056633 0.0020151048 -0.0021711776 -0.0016387464 -0.0033549683 -0.0023834254 0.00056304573 -0.0008951072 -0.00017271977 -0.0038949337 -0.0014198154 0.0021588064 -0.0005989389 0.0015862935 6.611242e-05 -0.0008926833 -0.0010565723 -0.00072312594 0.0006928481 -0.0006752767 0.003177444 -0.0015664422 0.0019321791 -0.0023655675 0.0034327179 -0.0028783006 -0.0023738197 -0.0009489363 0.0024116333 -0.00085859926
135.013.216.191 -0.00013665938 3.822331e-06 -0.0016678278 0.0024754154 -0.0016161551 -0.002369439 0.0035864464 0.00044518773 0.0019881579 -0.0036064822 0.0004207623 0.0034767424 0.0019937742 0.00041327035 -0.003798305 0.001568196 -0.00013150056 0.0018599556 -0.0005053056 -0.0038546838 0.0027968811 0.003905305 0.0038260277 -0.0027250047 0.0024137173 0.0011581273 -0.00253928 0.0010504081 0.001792611 0.00042148976 0.00078427483 0.001913559 0.0013013694 0.0034043419 9.885684e-05 0.0006816572 -0.0011759233 0.0034176682 -0.0018049518 -0.0032558907 0.003575396 0.0021200716 0.003247663 -0.0018454985 0.0016202929 0.0022604195 0.0035358286 0.0022432974 0.0030187157 -0.0024810897 0.0021481293 -0.0013954329 0.0007770187 0.002853185 -0.0038652404 -0.0007805575 3.406107e-05 0.0029923383 -0.0014151764 -0.0023963305 0.0012699678 0.0034786097 0.0014480561 -0.0030151869 0.0022445824 -0.00077557284 -0.0016976999 -0.0033190742 -0.00018875426 0.00034488292 -0.00050946826 0.00033404157 0.00015946463 -0.0001732925 -0.0015368125 -0.0030955165 -0.0028639813 0.0014463224 -0.0026409887 -0.00099094 0.0021788315 8.8687295e-05 0.0031430824 -0.0038254838 -0.003765785 -0.0029265827 0.0015248487 0.0036106864 0.00019648338 0.0004341417 0.0027462824 -0.0011236185 -0.00092624547 -0.0036336216 -0.00022819519 -0.00036747303 0.003905295 0.0016083983 0.0034954362 -0.0037281753 0.0021746706 -0.0030170793 0.0015626202 -0.0027788063 0.0037442122 -0.0037444283 0.0022653944 -0.0026873301 0.0017763695 0.00052346004 0.003524508 -0.001628074 -0.003725053 0.0025218849 -0.0036090577 -0.0033912272 -0.0017834038 -0.0024774547 0.0029319013 -0.0034426895 -0.0026974129 0.00384969 0.001306282 -0.0024921931 -0.0007219221 -0.0010164402 -0.0005882309 -0.00036811794
230.001.010.020 0.0018956728 0.001995184 0.0021500334 0.0006440633 -0.0036099525 -0.0029080228 -0.00086980656 0.001337295 -0.0035254147 0.0014865967 0.00046542683 5.162859e-05 -0.0028972623 0.0018392897 4.437838e-05 0.0034581106 -0.0018341014 -0.0012252263 -0.0025716668 -0.0025177794 -0.002335165 -0.0034349526 -0.0007840857 -0.003022576 -0.0034919118 0.0033012119 -0.0026784572 -0.0019300884 0.0027976336 0.0020753678 0.003673579 -0.0023102122 0.002924394 -0.0027485716 -0.0015707003 0.0018258862 0.003586897 -0.002682172 -0.0028899228 0.0029378503 -5.367655e-05 -0.0021792415 -0.0011541505 0.0036459705 -0.00058856944 0.0010157552 3.352149e-05 -3.6667585e-05 0.000976508 -0.002933123 -0.0025848907 0.0029597615 0.0007641601 -0.0038194892 0.00045810392 -0.0021415935 0.0007537206 -0.0039019082 0.0031007114 -0.00041397652 0.0030119477 -0.00071774365 0.0021638775 -0.0006499084 9.7146614e-05 -0.0024969848 -0.003623648 0.0009079602 -0.0026826432 0.0017675828 -0.003301442 0.00059869397 0.0032634868 0.0017776194 0.0009823292 0.0030857697 0.0031886306 -0.0014445303 0.003776668 -0.0036917683 0.0017404052 0.0018223877 -0.00022216153 0.0014884231 -0.0033149016 -0.0020748097 -0.00052101637 -0.0018156107 0.0011818699 0.0013029462 -0.0014432236 0.0013458936 -0.002326854 0.0015503165 0.00019026261 0.0007554988 -0.0034190577 0.00014194584 -0.0003291491 -0.0033813606 0.0013360082 3.0456227e-05 -0.00050969137 0.0007833868 -0.0018292144 0.0037060792 -0.0006248074 0.0037120094 -0.00068826746 0.0023416535 0.0014174818 -0.0007531876 -0.002518411 -0.0018632986 0.0014517484 -0.0036087127 -0.0015544693 0.00027164887 0.0015846823 -0.0026573532 8.089834e-05 8.932798e-05 -0.0019480934 0.0017029211 -0.0018338545 0.00051954284 -0.0011405792 0.0025644263
172.016.117.111 0.0015247846 0.00032993316 0.00088549993 0.003116018 0.00240552 -0.0006187275 -0.0029748296 -0.0031603433 0.0017846226 -0.00064847135 -0.0023529858 0.0026000575 0.002296425 -0.00016286815 -0.002346845 -0.00054148963 0.0032266947 0.00051066047 0.003683795 0.00017025857 -0.0014308067 -0.0004280882 -0.0023473932 -0.0020576387 -0.0032014775 -0.0012098143 -0.00308 0.0033623003 -0.0022473389 0.0031092523 -0.0006383345 -0.003522295 0.0022180304 -0.0035869572 -0.0013712045 0.0009456243 -0.0001935637 -0.0015175595 -0.000989661 -8.374138e-06 0.002715654 0.0023052169 0.0024750077 0.0026807385 0.0008523077 -0.0035701003 -0.0025015343 0.00022575306 6.5661974e-05 -0.0016076938 0.0015683491 0.0019998953 -0.0034319612 -0.00018362828 0.0034981857 0.0015224268 -0.0014045738 0.001513042 -0.003272105 0.001141864 -0.001578029 -0.001553126 -0.0038702476 -0.0035746836 -0.0027253204 -0.0025021993 0.00344876 0.0005824849 0.003701511 0.0009767708 0.0017983036 0.0032176038 -0.001873646 0.0007747758 0.00052330305 -0.0028431276 0.003092799 -0.00237129 -0.0034882822 -0.0025140804 -0.0017453849 0.0031189946 0.0015702554 0.003462647 0.0018268671 -0.0013837982 0.000700833 -0.0026568559 -0.002533233 0.0013712008 -0.0014006728 0.0012283461 -0.0016597275 -0.0025033164 -0.0011410402 -0.00047175572 0.0012892162 -0.0025672836 -0.003466025 -0.0026657686 0.00034713792 0.0022087907 0.0030609632 -0.0012805846 -0.0022955502 0.0020226475 -0.0030653935 -0.003673513 -0.003636762 0.0017466549 -0.0027212217 0.0014697054 -0.0029075453 -0.002871308 0.00021543987 0.002837514 -0.0005683025 0.0037200449 -0.003296095 0.0032774913 0.0019473237 -0.0022822118 0.0036180234 -0.0006315213 -0.002078182 0.002103176 0.001318673 -0.002512733
172.016.112.020 -0.0018551323 0.0007528097 -0.0006456771 -0.0014956371 0.0027266429 -0.0010927845 -0.0009456454 -0.0022683544 0.002293162 0.0018756599 -0.00093156466 -0.0031991212 -0.002062182 -0.003435568 0.001443829 -0.00093375193 -0.00069062883 0.0035851372 0.0012950812 -0.0029204832 -0.0014275148 0.0005480224 -0.0032166268 0.0025984047 0.0028022395 -0.0034916815 0.0037696923 -0.0035869265 -0.0037706178 -0.0027344017 -0.002225166 0.0022375304 0.00063843344 -0.0013752552 -0.0011771588 0.003337146 -0.0010607686 -0.0001916365 -0.0017582905 -0.0024384654 0.0034898838 0.0028635487 -0.0027753916 -0.0003127601 0.0017146518 -0.0029303248 -0.0005414206 -0.0034893984 0.00040410832 0.003839176 0.0015677478 -0.0014179293 -0.00058853946 -0.003381269 0.003357748 -0.0036096938 0.00070491515 0.003849522 0.002705923 0.0030791534 -0.00038775068 0.0029717202 -0.00034556238 -0.00045147774 0.000976544 -0.00044650785 0.0017582098 -0.0012951136 -0.0024909605 -0.0017228326 -0.003142282 0.0020712917 0.002796216 0.0038484288 -0.0003813612 0.0038295977 0.0006166918 -0.0025208143 0.0028119585 -0.0009927446 0.002509665 0.0016893342 0.0016506356 0.00019228832 -0.001504043 -0.0007205557 -0.0007051284 0.002087345 0.0019572827 -0.00031790117 -0.0038210384 -0.0018667573 -0.0025946253 0.0016784662 -0.0024279566 0.0027280662 0.0021561475 0.001960257 0.0017156032 -0.0024636514 0.0020884613 0.001895861 0.002041329 -0.0010724907 0.003613782 0.002540154 -0.0004671526 -0.0007275343 -0.0023274093 0.0018775692 0.0038205048 -0.0035510487 -0.0029415197 0.0015956038 0.0009562345 -0.0006557143 0.003324639 -0.0007072341 0.00047299446 -0.0012217081 -0.0034193213 0.0021077627 -0.003505369 -8.1984566e-05 0.00146661 0.0011887403 0.0030959381 0.00069435156
192.168.001.010 0.0022046259 -0.0031193828 0.0012965199 0.0029340582 0.0036648228 -0.0032938626 -0.00027805608 -0.0036113344 0.0028711827 0.0018852738 0.002898528 0.0008711096 0.00021119563 0.00018355317 -0.001619553 0.0032805046 0.0001495407 -0.0029166075 -0.0033959982 -0.003177171 0.0018604563 -0.0018466152 0.00264424 -0.0014027895 -0.0013835742 0.0027440065 -0.0010433864 -0.00031441287 -0.0012577629 0.0018390618 0.002111744 0.000860347 0.00222339 0.0034870328 0.003743032 0.0013271731 0.00076036144 0.0009273362 -0.0030194416 0.00083007826 0.0011807587 -0.000755209 0.00021282578 0.001506923 -0.0022799443 -0.0028192822 -0.0024283591 0.0013766136 -0.0011900198 -0.0037869536 -0.0020238368 0.0014557614 -0.0019616757 0.0031327722 0.00029407706 0.0030212835 -0.0013196636 0.0024202552 -0.0003718951 -0.0033901746 0.001184503 0.0028610823 0.0029292172 0.0015237214 0.0023354047 0.0022871352 -0.0007328392 -0.001073279 -0.0006759847 0.003741624 0.0030298524 0.0016589427 -0.0032654789 -0.0025448815 0.00030560407 -0.0025582719 0.0001940283 0.00060570834 0.003352731 0.0037660457 0.0009613955 -0.0018580075 0.0031287945 0.0009293632 0.0016044081 0.0029378692 0.0037735759 -0.002388475 0.0037266768 -0.00010478351 0.0014459318 -0.0015778873 -0.0026038168 0.0029786397 0.0033845585 0.0035228054 0.0030625276 -0.0023070131 -0.0027295584 0.0001803581 0.0015327884 -0.00064071995 0.000228846 0.0014656126 0.0001721735 -0.003223933 -0.002103482 0.0027995927 -0.0010102327 0.00065796624 -0.0012566696 -0.0018584484 0.003096143 0.001846099 -0.00010883189 -0.0017993835 -0.0022344503 -0.00042058332 0.0015438768 -0.0028083716 0.0011562163 0.0033257757 0.00034586995 -0.0007507354 -0.0026740467 -0.003061683 0.00252924 -0.0028016695
172.016.114.169 0.0026296084 0.0030978974 -0.0009507863 0.0038719987 -0.002666951 0.0012468237 0.0021234734 0.0002000985 -0.0025720438 0.0036498087 0.0025647567 -0.0027218624 0.0027647656 -0.00011130784 -0.00010370467 0.0013177112 0.0037872922 0.0015394841 -0.0028841465 0.001465736 -0.0017975617 0.0006442797 -0.0019542845 0.0028300283 0.00019510351 -0.0006373777 0.0036597438 0.0021521137 -0.003518454 -0.003542308 -0.0027079768 0.0034387882 -0.002977466 0.0023172766 -0.001903971 0.003517268 0.00061618 -0.0020604206 0.0002682031 -0.0009581001 0.002665632 -0.0016177831 -0.0017530563 -0.0025434983 -0.0005490606 0.0005139674 0.00055888126 0.0033639218 0.0014972562 -0.002854955 0.0032408834 0.0035791383 0.00015595609 -0.0011645898 -0.0009807356 0.0025219705 -4.9703547e-05 -0.0020993068 -0.003673439 0.00040485224 -0.0018477126 0.0014750417 0.0012165661 0.0034193783 -0.0016975935 0.0035512294 -0.0022418902 -0.002656946 -0.00076198915 0.0025812169 -0.00023919088 0.0018430821 -0.0011230159 0.0014129322 -0.0013691094 -0.0032532718 -0.0026686096 -0.0009776162 0.0024269978 -0.0033690857 0.0028068959 -0.0009037529 0.0021938107 -0.0012810752 0.00037324164 -0.0019331997 -0.0038939833 0.0026165366 -0.0028310574 -0.003424905 -0.0022530942 0.0008325461 0.0030487336 -0.0018315952 0.0026971842 -4.486267e-05 -0.0012091029 0.0031749357 0.0034820016 -0.0030807736 -0.0020902993 -0.0031821714 0.0038662767 0.0015648288 -0.00047814898 0.0008506789 -0.0032282015 -0.003671811 0.003859587 -0.00048932974 -0.000847754 -0.0029843766 0.00044329022 -0.0027414314 -0.0011152931 0.0016691547 -0.0029958629 0.0029044854 3.0906638e-05 -0.0008836124 0.00027968836 0.0016216765 -0.0027223974 -0.003255478 -0.0015634164 0.00046401896 0.0038039754 0.0022151477
194.007.248.153 -0.0023371174 -0.0022561369 0.0036137414 -0.002281983 -0.0036389595 0.003353064 -0.00044922647 -0.0014761443 -0.0008157872 -0.0024782978 -0.00024088788 -0.0038791145 -0.0010541591 -0.0010549978 -0.0017925316 0.0022594333 0.0031500366 -0.0034034508 -0.000406144 0.0038290515 0.0017923821 0.0034197879 0.0019456466 -0.00087557035 -0.0001035894 0.0008695055 -0.0021623394 -0.0015699511 0.0037358971 0.0006132084 0.000329695 0.0027856678 -0.0028272436 -0.0026058727 -0.0016554741 0.00017090455 0.0022434948 -0.0010013088 -0.003703937 -0.0028426424 -0.0033533704 -0.0035746184 -0.0027258084 0.0036470706 0.0029869643 0.0025412748 0.0009991553 -0.00031095982 -0.0025793903 0.002637679 0.0035902434 -0.0023162914 -0.0037959032 0.0037701894 -0.002533145 0.003762224 -0.0037922284 -0.00071909983 0.0031804778 -0.0039032942 0.0006255994 0.0025426087 0.0016364645 -0.00308189 0.0024112226 -0.0024060279 0.0015055182 -0.0016505651 -0.0032255559 0.0038351268 -0.0015928828 -0.0010331798 -0.003140135 0.0033661304 0.00060448644 -0.00032566144 -0.0017091096 0.00014003989 0.0029212076 0.00359629 3.4455326e-05 -0.0031122374 0.003781548 0.0024492505 -0.00038952654 -0.002356165 -0.0007425874 -0.0024987652 0.0013250582 -0.00019704085 0.0033495487 -0.002515827 -0.001512604 -0.00063490774 0.00041470185 0.0036273168 -0.0005641723 -0.002674382 0.00094761635 -0.0008345687 0.0011328603 0.0006187521 -0.0035387976 -0.00109824 0.0035786023 0.0029635297 -0.0023567486 -0.0014598995 -0.0007461728 0.0024045992 -0.002229545 -0.00129698 -0.0009137722 -0.0011272765 -0.0029560227 -0.003338839 -0.00034774008 0.0013837805 0.0006590326 0.0034554023 0.00050064345 -0.0014937482 0.0035048563 0.0030473243 -0.0020703054 0.00051591964 0.00088274875 7.1144874e-05
195.115.218.108 0.0010935391 0.00047987327 0.0021699688 0.0012311022 -0.0038539143 0.00077740516 -0.002680933 0.0034477382 0.0020496382 0.0018490365 0.0029711577 -0.00066074677 -0.0035874217 0.00017801362 0.0009198739 -0.0012907138 -0.00087983103 0.0021439504 -0.00048706788 -0.001163624 -0.003486329 0.0013013321 0.0034489408 -0.00023645772 0.0024647592 -0.0016294194 0.0019721955 -0.0024849211 -0.00024007868 0.001973906 0.003066519 -0.0018968615 0.0026447172 -0.002534734 -0.0010816768 0.0013610761 0.0037533415 -0.0029588586 0.0022714615 -0.002547749 -0.0036204683 -0.0021291485 0.0038029095 0.0024724358 0.0037310848 -0.00062096654 -0.0002343459 -0.0028375918 -0.0007540263 -0.0038123957 -0.0010693127 8.7623215e-05 0.0017251675 -0.0023563472 0.003681054 0.0037335153 -0.00013337341 0.0016640692 0.002624019 -0.003401603 -0.001329185 -0.00067266927 -0.0023519392 0.0009485406 0.0014115908 0.00021202979 -0.0021065308 0.0010519921 0.003494329 0.0030774067 0.001548807 -0.0034957542 -0.0017186167 -0.0027143613 0.00061089935 -0.00154444 0.0006040297 -0.0023995086 0.0017495268 -0.0030388911 0.0018984505 0.0031025212 -0.0035677536 -0.00011246474 0.002896004 -0.0017489421 0.00038048628 0.0007841208 -4.24522e-05 0.0026041407 -0.0023879327 -0.0021937625 -0.0011642654 -0.0031605903 -0.003464302 -0.0036761465 0.0030796884 0.0006925694 -0.00080595695 0.0016795894 -0.00054118526 -0.00066655205 0.0038503264 -7.766194e-05 -0.0001747506 0.0036966826 0.0015042435 0.0010376448 0.000453239 -0.003689935 -0.0037731412 -0.00018117444 0.0018729678 -0.001730728 -0.00020118705 0.003772365 0.0026531762 -0.0017809055 0.0028824671 -0.0016347512 -0.0019596664 0.0003007865 0.0023098795 0.00029908415 0.00031825714 -0.0033001946 -0.0026601555 -0.0033343213
172.016.116.044 0.00090687093 -0.00019782022 -0.0027869444 -0.0036956419 0.000957163 -0.00047713626 -0.0033121654 0.0022932135 0.0034405824 -0.0026959262 -0.0003407532 -0.0022496958 -0.00065438676 0.002237445 -0.0019492474 0.0023532403 0.0032077855 0.0028984093 -0.0036677495 -0.0019415984 0.0022117796 0.0038260934 0.0004563667 -0.0020735322 -0.0005584906 0.0012347989 0.00046917942 -0.0018568608 -0.002598179 0.00026286012 -0.002176759 -0.0034261537 -0.00075372827 0.0035002362 -0.0024525379 -0.0007762581 -0.0032167211 -0.0016195774 0.002744682 0.00087695674 -0.0006235559 -0.0013359551 0.00039046726 0.0038705494 -0.0037823336 0.003026865 0.0014871801 -0.0024755495 -0.00057276187 0.0009979025 0.002330713 -0.002437782 -0.0038583495 -0.0034875683 -0.001612713 0.0011824373 -8.612969e-06 0.0018482871 0.0035625487 -0.0022716285 0.00344851 0.002539018 0.0024545118 -0.0036432107 -0.001142646 -0.00065819937 -0.00037496566 0.0034560503 -0.00277605 0.00084683124 0.0016467508 -0.0026564896 -0.001539046 -0.0033544428 0.001436692 -0.0010446665 -0.0024362742 0.00012701415 -0.0030437415 -0.003750075 -0.0038920408 -0.0032059094 -0.003673124 -0.0023475061 -0.0025895867 -0.00018747481 -0.0024970602 0.0015046857 -0.0029273953 -0.0011746591 0.0028297072 0.00031104626 0.0010885677 0.0037179005 0.003803528 0.0016463371 0.0012291395 0.0037579932 -0.0016742393 0.0007902205 0.0023311917 0.002971748 -0.0004791351 -0.0004504212 0.0019162054 -0.003441649 -0.0010184626 -0.000423945 -0.0024506722 0.0029290859 0.002545293 -0.0013874724 0.0027449606 0.0013435336 -0.00064926984 -0.0016022589 -0.0037823715 -0.0034076155 0.0025803659 0.0020733068 0.0031237798 -0.0016811342 0.0024655336 0.00130826 -0.0036354803 -0.0038975046 -0.0019183455 -0.0029477386
