23 128
194.027.251.021 -0.0039883014 0.0010876724 -0.004685808 -0.00096896716 -0.005680598 -0.0039005508 -0.0010941903 -0.0035561586 -0.0053446707 -0.0015144101 -0.0026965202 0.0032604234 -0.0033488048 0.007274438 -0.004178246 0.004597035 -0.0026229718 0.00083699526 -0.007111931 0.006783171 0.0026853292 0.00046961423 -0.00466024 -0.00088043907 -0.0035068628 0.0009251046 0.0033911124 -0.0022134052 -0.005356819 0.00445189 0.0023412548 0.002915589 -0.00053909415 -0.0035764466 -0.0018301167 -0.0022016685 0.004608799 0.005483303 0.0012883405 0.001870027 -0.00053939805 -0.0029210025 0.00410894 -0.002014762 -0.0042574895 -0.0050292406 0.003023566 0.0013100863 -0.0036084626 -0.00463801 0.0067722625 -0.0030189198 0.004714229 0.0048709996 0.00225256 0.0008294818 0.003435734 -0.00071900804 0.0024437879 -0.0045828563 0.0028837177 0.0017536038 0.0023649342 -0.0008094687 -0.005558828 -0.0075465515 -0.0039325235 -0.0021990426 -0.0012686377 0.0018891046 0.003906708 -0.0053429133 -0.004344192 0.001954749 -0.0051613683 -0.00049644616 -0.0018743837 0.0064098286 -0.005798759 0.004993633 0.00017359416 -0.0052312277 0.00442901 -0.0032464373 -0.00069299573 0.00096459774 2.9289637e-05 -0.001386658 -0.003771652 -0.0018599023 -0.0013615782 -0.0012431497 0.0064872177 -0.002400785 0.0056565907 0.0043005794 -0.00021805977 -0.0038501548 -0.004960407 0.001269845 0.0016991658 0.0031045023 -0.00040745368 -0.0024549516 0.0011861592 0.0032117835 -0.0030099554 0.0022496902 0.0028075336 -0.00533594 0.0020840776 0.002820434 -0.0034943041 -0.0052393125 -0.0045969374 0.00065703987 -0.0020619466 -0.003536924 0.0019816845 -0.0020357498 0.0016242255 -0.0025051509 -0.0009402529 0.0009195457 -0.00084661803 4.2210093e-05 0.0034921055 0.0017771125
192.168.001.001 -0.0005216995 0.0025522104 -0.0015030068 -0.002403892 -0.0069282176 0.0008246773 -0.0045040282 0.0027317272 -0.0042617456 0.0019725314 -0.0014535716 0.00032167675 -0.0015759359 0.0072580515 -0.0014840113 0.0008653875 -0.006131578 0.0064662215 -0.0073864674 0.0061392062 0.0005782067 -0.001995001 0.0012764671 0.0019241072 -0.005986391 0.0020517781 0.003064608 -0.004156856 -0.0014716663 0.0028230785 0.0041570496 0.0049980637 0.0008607686 0.00023336074 0.0024687496 -0.0007181063 0.0043391283 0.0013377948 -0.0040997383 0.004440644 0.0037427759 0.002848997 0.00043607567 -0.0057403552 0.0025357634 -0.00092852354 0.0032115683 0.005181959 -0.0059860167 -0.006490494 0.007361344 0.0042240466 0.0041378597 0.0062506506 0.0005708625 0.004620885 -0.0021313445 -0.0037165089 0.0041656755 -0.0069823647 0.0039018197 0.0021676756 -0.00012232827 -0.0008820472 -0.0049799425 -0.007881323 0.0021613091 -0.0061649806 -0.005631144 0.00046154257 0.00202783 -0.0058612674 -0.0062513156 0.0003093315 0.000100238714 -0.0008771797 -0.0049215625 0.0077437516 -0.004722941 0.0033034957 0.0043871463 -0.0067966813 0.0046331463 -0.0019255151 -0.0028865589 -0.002769644 0.003130945 0.004103 0.0028245607 -0.0032553265 0.00030454004 -0.0014761705 0.005181743 0.003524765 0.0074916715 0.004456516 0.0002853933 -0.0067883306 0.0014112858 -0.00041300405 -0.0026298468 0.0049777683 0.0010424663 0.0032110233 0.0043284143 0.00358493 -0.0055053765 0.0007879499 -0.0029129265 -0.0057671904 -0.003110066 0.0024660225 -0.00030955594 -0.0034894939 0.0012728187 0.00056216517 0.005200739 -0.0036835514 0.0027197145 -1.4204734e-05 -0.003936934 0.0018882103 0.0041248915 -0.0014410805 0.00097360474 0.0039211544 -0.0017265107 0.0036233768
172.016.113.204 0.00029328826 -0.0010416578 -0.000936857 -0.0022775272 -0.0024061233 -0.00021091141 0.0023847402 0.0025548895 6.496682e-05 -0.0026885574 -0.0010086135 0.0018218468 -0.0028139022 0.00028470962 -0.0023967142 -0.0012225437 -0.0017888665 0.0038174188 0.00072048756 0.0006996093 -0.0028560373 -0.00096373854 0.0029677956 -0.002579271 0.0036973404 -0.0034300387 0.0025289638 0.0013853466 0.0010547511 0.0024685767 -0.0037813918 0.0017354725 -0.0015796961 0.0032009643 -0.0037905152 0.0020819134 0.0009943133 -0.00079565594 -0.0026003816 -0.0017277026 -0.003884763 -0.002420633 -0.0012716062 -0.002041045 -0.003294407 0.0015488594 0.0037328925 0.001958173 -0.0032047245 0.00017085797 -0.002253928 0.0011900904 -0.001070217 0.0030987007 0.0026437081 0.0026327104 0.00053678174 8.352185e-05 -0.0002079067 0.0023210992 0.0015317979 0.0002125427 0.0011134754 -0.0033367479 0.00026566384 -0.0031004508 0.0021540427 0.003787285 -0.0038784586 0.0009812067 0.0029402273 -0.0012661874 -0.0015380678 -0.003003859 -0.0026203447 0.0010167448 0.00034450315 -0.0022890386 -0.0037850575 0.0016570365 0.002648883 -0.0010224554 -0.00011623892 0.0024727634 0.0012022052 -0.0003242097 -0.0021006954 0.0023090313 4.895761e-06 -0.0009138212 -0.0006970244 -0.002890802 0.0032203384 -4.247601e-05 0.0031152656 0.0011496382 -0.00095376285 -0.0014496341 0.0016368589 0.0020503448 0.0017611124 0.0023168626 -0.00022738829 -0.0021785526 0.001608502 -0.0009376208 0.003144391 0.0037486795 0.0012045235 0.0003346636 -0.0037350294 0.0024717383 -0.0007158882 -0.0027384856 -0.0025002882 -0.0019862456 -0.00095070107 0.0036752496 0.0021580292 -0.0036736296 -0.0018850737 0.0030569956 0.00021212756 0.0027825905 -0.0017384095 0.0025504662 -0.0036673713 0.0037196742
194.007.248.153 -0.002421133 -0.0023087072 0.003625574 -0.002369072 -0.0037365367 0.0032892118 -0.0004566238 -0.0014667171 -0.0009314631 -0.002528657 -0.00022229462 -0.0038620005 -0.0012183066 -0.00086260407 -0.0018707339 0.002209739 0.0030894126 -0.003386802 -0.0004910161 0.0038991852 0.0018051425 0.0034002808 0.0018772461 -0.00090244965 -0.0001483029 0.0009096682 -0.002229056 -0.0015486279 0.0036766517 0.0006812321 0.0003596023 0.002795329 -0.0028493593 -0.0025546178 -0.0017076755 0.00018071927 0.0023596466 -0.0009461224 -0.0038471462 -0.0028979296 -0.0034443045 -0.0035803055 -0.002816481 0.0035840545 0.0029432406 0.002577405 0.0009876976 -0.00027590932 -0.002572267 0.0024677883 0.003633595 -0.0023649887 -0.0037644086 0.0038492992 -0.002584726 0.0038362439 -0.0038642106 -0.0007525321 0.003203226 -0.003956928 0.0006628421 0.0025878812 0.0016443757 -0.0031512775 0.00239915 -0.0024861745 0.001540152 -0.0016317588 -0.003319362 0.0038129778 -0.0014992642 -0.001063562 -0.0032286574 0.003439231 0.00044151113 -0.0003457693 -0.001730748 0.00021315727 0.002793564 0.0035809278 -2.9624838e-05 -0.0031578315 0.0038242615 0.0024306998 -0.0004103206 -0.0024119173 -0.00079603225 -0.002440401 0.0012479966 -0.00021557676 0.0033720664 -0.0025992156 -0.001470823 -0.00065610895 0.00050147675 0.0037514633 -0.0005870641 -0.0026885679 0.00083580805 -0.00076004886 0.0011726465 0.0006700864 -0.003505606 -0.0011812585 0.003600129 0.003013375 -0.0025221198 -0.0013750215 -0.0007223621 0.0023126705 -0.0023292247 -0.0012175422 -0.0009983154 -0.0011951898 -0.0030492041 -0.0032949715 -0.00027653083 0.0013619732 0.00074398075 0.0033539657 0.00047747017 -0.0015379991 0.0035267456 0.0030078732 -0.0021481442 0.0005216899 0.00087477587 4.592252e-05
172.016.114.148 0.00062159594 0.00018133043 0.0022998746 -0.0040342207 -0.0031817853 -0.0015483868 0.0030608585 -0.0017544519 -0.0009399473 -0.00011790662 -8.837454e-05 -0.0022484467 -0.003778981 0.0009203544 -0.0016604101 -0.00045970478 -0.0020045375 -0.0009036376 0.0019567844 0.0035190743 -0.0010985766 -0.0033992038 0.0029756099 0.0013967323 -0.004043211 0.004124766 0.0014062314 -0.00043632634 -0.003536681 0.003912404 -0.0014928693 -0.0009109585 -0.0015002819 0.0017797751 -0.00044212668 -0.003264471 0.004386754 0.0021971888 0.0004908694 -0.0034352257 0.0011194266 -6.8122696e-05 -0.0006919271 -0.003020543 -0.0021598933 -0.002736023 0.0012446101 0.0007328917 -0.0035187933 -0.0018687376 -0.0029308787 -0.0023544652 0.00043042464 0.0033209233 -0.00245902 0.003100271 0.00040284113 0.0014329677 -0.00069612823 -0.002843098 -0.000369205 0.0018672362 -0.0005367506 0.00075601734 -0.0012828615 -0.0035277556 0.0012210062 0.00049890176 0.0024328388 -0.002299711 0.0009876373 0.0022407477 0.0021324665 -0.0013184082 -0.00052167184 -0.0013969092 0.00014610362 0.0045064124 -0.0010420646 -0.0021888355 0.0036232222 -0.004178929 -0.0010407533 -9.537903e-05 -0.0016752759 -0.0032468974 -0.0027508864 -0.0021477246 0.0016069339 -0.0020324048 -0.0023680304 0.0017796378 0.004237677 -0.0024066966 -0.00087914243 0.0005470265 0.002108554 0.0030082576 0.0006486216 1.7470888e-05 -0.003890263 0.00016668139 0.0012414117 0.0008429207 0.0040178644 -0.0026648294 -0.0004482051 0.0024853887 -0.00053310907 0.0024527921 -0.00042011184 0.0032746606 -0.0012358357 0.0034087466 4.7018497e-05 0.0031628895 0.0021881552 -0.0029171598 0.0002120428 -0.00075446337 -0.002917789 -0.0010461182 0.0032117802 -0.00028071087 -0.0037739547 -0.0003550604 0.0006399365 0.0011246306
204.071.200.248 -0.00023295193 0.000117462834 0.0028356682 0.0017342957 -0.003930645 -0.0009599444 -0.003921942 0.0007427057 -0.0007444842 -0.00077958766 -0.0017577138 -0.0034044932 -0.0005553632 0.002560776 0.0010551985 -0.0034950906 0.00031238477 0.0038746132 0.0024478026 0.0016980491 4.2867658e-05 0.0036191517 0.0025904083 -0.0019784134 -0.0040178946 -0.0012905487 -0.0037200702 0.0005941482 6.1807405e-05 0.0026778146 -0.0020516263 0.00013581032 -0.0024388414 0.0030542384 0.002618954 0.0013022906 0.003988937 0.0026204782 -0.0032687709 -0.0006222581 0.0018416494 -0.0031341028 -0.0032345522 0.0012911997 0.0033005245 -0.001100986 -0.0006731248 -0.0021472392 0.0013756072 -0.0029675385 -0.0012498861 0.00063202047 -0.0014429681 0.0009438541 -0.00015123835 0.00020437375 4.8421534e-05 0.0015437031 0.0014927131 -0.0021732585 0.00054916204 0.0032843351 -0.0022453375 0.0012420357 0.0019507931 0.0026105738 0.00049529155 0.0011739405 -0.00091574533 0.0031161061 0.00057375897 -0.0035220075 -0.004116485 0.0014826654 0.0030305195 -0.0019919106 -0.004029216 -0.0028654456 -0.001390606 0.003050073 -0.00027355642 0.002209112 -0.0012671198 -0.0013695488 -0.0026117996 -0.0022121796 0.0018145537 -0.001056134 -0.003692587 -0.0014136521 0.0036388081 0.0017586069 0.0031612865 -0.003062977 -0.00016810204 -0.00048292108 -0.0012471374 -0.002917801 -0.00011895156 0.00039785277 -0.0034939277 -0.0018540125 0.001788165 -0.0031722717 -0.0032142266 -0.0034143012 0.0013857633 0.0018825459 -0.003259894 -0.003177895 0.0013037402 -0.002356892 -0.0028113707 0.0009856026 -0.0010322817 -0.0027640127 -0.001043969 0.00010623335 0.0021301014 -0.0013382374 -0.0026656496 -0.0030700737 -0.0034999675 -0.002458658 -0.002575734 0.0013423873 0.002387417 -0.0014185362
196.037.075.158 0.0004519618 0.0007962128 -0.0035883137 0.00056600623 -0.0032423164 0.0029758974 -0.0024772417 0.002962901 -0.0040535997 0.0010409683 -0.0020544128 -0.0003539187 -0.002505163 -2.832627e-05 0.0018065583 -0.0019995458 0.0019112409 0.002124125 -0.0024174827 -0.00057615066 -0.0035933093 0.0026778216 -0.0018946239 0.003464598 0.003429771 -0.0023639179 0.003084051 -0.0007179331 0.00064727076 -0.0035846233 -0.0016228271 -0.0025881627 0.0035641696 -0.0012700398 0.00021583957 -0.0012359456 0.00031213893 -0.0033917902 -0.0011207202 -0.0037014056 0.0008071367 0.003420184 -4.858844e-05 -0.0016415876 -0.00019113814 0.00058457395 0.0035177672 -0.0013977094 0.001872157 0.002269334 -0.0012241679 0.0009648061 -0.0014701652 -0.0029884097 -0.0025606584 -0.0029893452 -0.002555606 -0.0007300538 -0.0014149885 -0.001786975 0.0017892584 0.0007026558 -0.00017140221 -0.0018591441 0.0015277367 -0.004062427 -0.0022496316 -0.0027657049 -0.0022446804 0.0007361441 -0.00047389118 0.0012602583 -0.0023670346 0.0029786183 0.0025137034 -0.0019232213 0.0019215054 0.0009252574 -0.0031281125 0.0024411837 0.0030296713 -0.0035684295 -0.0031579083 -0.0030371966 -0.00032118557 0.00016559879 7.044664e-05 0.00084953086 0.003472107 -0.0039819097 0.003101028 0.0024447446 -0.0009134637 0.0014331478 0.00018052376 -0.0005585927 -0.0034765296 -0.00010520669 -0.002058605 0.001600703 -0.0036391693 0.0031196666 0.0028369795 -0.0028992977 -0.0028428354 0.0029760357 -0.0040941187 0.0010767746 -0.0028851524 -0.0029895273 0.002981749 -0.0026076885 0.0021794518 -0.0026128618 -0.0027741443 0.0038344879 0.0028042071 0.0028966104 -0.0034861222 0.0019490845 -0.00044216678 0.00087035744 0.0014398382 -0.0036879645 0.0029962286 -0.0036721374 -0.0019463492 -0.002311565
197.218.177.069 -0.0031353806 -0.0036590972 -0.0011634976 -0.0024898325 -0.0017725481 0.002718948 -7.410021e-05 -0.00023912117 -0.002228729 -0.0011945001 0.0031005542 0.0030126788 -0.0036049068 0.0006420566 0.00095940364 0.0015916515 -0.00059965637 -0.0009264429 -0.004157545 0.003100541 0.0015420809 0.00057846453 -0.0039758054 0.0024624297 -0.0034383188 0.0020242177 -0.0022353656 -0.001477747 0.0018094492 -0.00027287952 -0.0019437599 7.846242e-05 -0.0029332011 0.0022224279 -0.0031853353 0.0006105863 0.0022200472 -0.0010737523 0.0005487689 0.00068498525 -0.00241675 0.0028001543 -0.0020709464 0.0034514905 0.0005112297 0.0026497208 -0.0011658082 -0.00089329865 -0.003017894 -0.0022066468 0.0010960181 -0.003381993 0.0021843978 0.0002666264 -0.0007154058 -0.00031950325 2.671983e-05 0.002602816 -0.002110235 -0.0027826754 -0.0031827546 -0.00043565786 0.0010285483 -0.0021074505 0.0013144509 -0.0016793367 -0.0028440796 0.00060332683 0.001121572 -0.003503919 0.0032611685 -0.0019603248 -0.0014432592 0.0031148305 -0.0034021728 -0.0018251111 0.0016467196 5.4769014e-05 0.00085282954 -0.00094359234 0.0018412037 0.000376184 -0.003128234 0.0012692248 -0.0004398475 -4.533612e-05 0.0027248154 -0.0026091281 0.00053682475 -0.0021710708 -0.0004888554 -0.0019171138 0.0014466014 0.0018091907 -0.0032441136 0.0016591063 -0.00040682475 0.0020529777 -0.0041453843 0.0003235841 -0.0034424402 0.00054595515 0.0013409168 0.0024065413 -0.0007309229 0.00216762 -0.0045266133 0.00056102395 -0.0008924458 0.0021707604 -0.0041723712 0.00026635994 0.0018374468 0.0030153664 -0.00053391716 0.0013445261 0.0024925782 -0.001653354 -0.0015571155 -0.0015015628 0.0034774814 -0.0016377143 0.003909036 0.00082638225 -0.0029992394 -0.0018685581 0.0037185664 0.001037667
172.016.112.207 0.0004241715 -0.0024530906 0.0013818396 -0.00396993 -0.00042661454 -0.0008496739 0.001049913 -0.0006674542 -0.002787002 0.0010674442 -0.0010450233 -0.0008902101 -0.0036019043 0.002827727 -0.001859736 -0.0037981782 0.0018511431 -1.841774e-05 -0.002723399 0.0028031727 -0.002225438 -0.0010160954 -0.0037826824 -0.0008659822 0.00097030215 0.0003772826 -0.00288186 -0.00159259 -0.003014441 0.0006068429 0.0020494063 0.0013553761 -0.001131797 0.0040045036 -0.00047141625 0.0017739087 0.0032259624 -0.00019103855 -0.00240767 -0.001759711 -0.004001044 -0.0029907979 -0.0039691967 -0.001202331 0.00087326136 0.0038873195 0.0017285852 -9.750656e-05 0.00016014557 -0.0026727791 -9.3406736e-05 -0.0030995694 0.0005854652 0.0035062379 -0.003280303 0.0014855289 -0.0039454564 -0.004060493 -0.0014042878 -0.0002342429 0.00016265531 0.000851565 -0.0013575498 -0.0018764596 -0.0022280915 0.0011796098 0.0032975343 0.0009248189 -0.0034998779 -0.0032754631 -0.0009969539 0.0018591305 -0.0015422769 0.0016209118 -0.0038733038 0.0020559174 -0.0015413426 -0.00024892832 -0.0036699423 -0.003084454 -0.0022697584 -0.0025284095 -0.00037436455 -0.0017378158 -0.00028034297 0.00017107767 -0.0033321565 0.0039735455 -0.0009415516 -0.00023939731 -0.0025033255 -0.0038609263 -0.0011869785 0.0018744568 -0.00060408114 0.0037252204 0.00015312177 0.0015738683 -0.0025443512 0.003020739 0.0005346969 0.0014076479 -0.00046388878 -0.0024467881 9.1386115e-05 0.00043851035 -0.0033774774 0.0035924432 0.00025662204 -0.0030157648 -0.0010029973 0.0025246942 -0.0013258072 -0.0035959654 -0.00413184 0.0036125022 0.0040368526 -0.00096792006 0.0012866298 -0.0028293126 0.00054612925 -0.0019401436 -0.0006456435 -2.140566e-05 -0.002726071 -0.0011310218 -0.0019590415 0.0009690154
135.013.216.191 -0.00034408382 9.230872e-06 -0.0017046897 0.002197862 -0.0021586798 -0.0026160283 0.0034352585 0.0005705565 0.0015132832 -0.0037751147 0.000405462 0.0034751957 0.0014360261 0.0013621418 -0.0041305353 0.0014964116 -0.00055751356 0.0022151703 -0.00096362457 -0.0034197497 0.0028402794 0.0037314564 0.0036828897 -0.0027500035 0.0020063403 0.0013790993 -0.0026452974 0.001079055 0.0015576131 0.0007922643 0.0009746971 0.0020869935 0.0012904127 0.003570991 2.5487807e-05 0.00073412876 -0.00061038067 0.0037652096 -0.002409488 -0.003249657 0.0035315233 0.0021816406 0.0030523415 -0.0022690832 0.0016087015 0.0021785344 0.0036126964 0.0026308782 0.0028610732 -0.0032974647 0.0026230733 -0.0013162086 0.0010485589 0.003296364 -0.003916167 -0.00032078213 -0.00025097304 0.0028755239 -0.00117807 -0.0027837188 0.0015514337 0.003756984 0.0014935109 -0.003196652 0.0020234752 -0.0013605012 -0.0016163837 -0.0035059324 -0.00066018105 0.0003079359 -7.48242e-05 -1.8877665e-05 -0.00025663376 -1.9909072e-05 -0.0020365245 -0.003227414 -0.003139408 0.0020381517 -0.0032934935 -0.0009359861 0.0021614276 -0.00025553053 0.0035018818 -0.0039982847 -0.004013915 -0.0031992607 0.0014894767 0.003853149 4.1262203e-05 0.00023324226 0.0028764403 -0.0013418667 -0.0005548139 -0.0036886057 0.00047705465 0.00014387291 0.0038944269 0.001268481 0.0032163155 -0.0034822507 0.002183758 -0.0026711903 0.0017242801 -0.002933773 0.003951121 -0.0035726577 0.0016147216 -0.0024300995 0.0017804825 -6.760768e-05 0.0031572906 -0.0013080398 -0.0040712515 0.00222082 -0.003838793 -0.0032591154 -0.0013554037 -0.002692797 0.0033347835 -0.003711275 -0.0029867163 0.003815146 0.0014525607 -0.0026963796 -0.0009541986 -0.0008487498 -0.00065651967 -0.00029834977
172.016.112.050 -0.0032340628 -0.0017463764 0.0013433757 -0.00047034046 -0.0028784967 -0.0015341823 -0.0020547628 0.0035335117 -0.0039937785 0.0021451083 0.0004478068 0.0028075082 -0.0036420196 0.0027291244 -0.003198965 -0.0016459388 -0.001742422 -0.0033719388 -0.0021428743 -0.0024822534 0.00164673 -0.0021950852 0.0032193537 0.0010600064 0.0017327844 0.0035801413 0.0035321473 0.002919539 -0.00399547 0.0012809716 0.0009994892 0.0005272996 0.0021701867 0.0027207623 -0.0010751582 -0.0018385738 -0.0018822234 0.0010604452 -0.0019776626 -0.0003490551 -0.000119995835 0.0023519301 -0.0041537913 -0.0022725144 -0.003987683 0.0012865989 -0.0038542973 0.001789408 0.0004936332 -0.0043049017 -0.001305484 0.0007021878 -0.002532522 0.001444861 -0.0011630143 -0.0026197084 0.0016050761 -0.0018461164 -0.00021460815 -0.00021731174 -0.0007866256 -0.0010071907 -0.003633156 -0.0022963549 -0.00088198454 -0.0013384502 0.0036710121 0.002798865 -0.00039357026 0.001724532 0.0019726388 0.0027497408 -0.0021608872 0.0013650431 -0.0028808934 -0.0025487384 0.0034079116 -0.00028804198 0.00094536965 -0.003279041 -0.0035872846 0.0019814197 0.0030684764 0.0023638816 -0.0008233017 -0.002439852 -0.0017120463 0.0038534834 -0.0016442329 0.0021390636 0.00355116 0.00042865664 -0.0009782509 -0.0014546629 0.0013484743 6.0898186e-05 -0.0031431294 0.00021709932 6.079182e-05 -0.0017022585 0.0039555067 0.0013600753 0.0026249622 -0.0012740337 0.0012247894 0.0009171051 -0.003050099 -0.0019087987 0.001787474 0.0012886212 -0.0035964407 0.001626426 0.0012557455 -0.003691078 -0.00026125368 0.0021524671 -0.001697031 0.0024887996 0.00011845188 -0.004121784 -0.0016928071 0.0008932444 0.0034253423 -0.0014334999 4.031497e-05 0.0013567839 0.000903939 -0.0032310947
197.182.091.233 0.00082178775 -0.0019548652 -0.0011421884 0.0011281171 0.0018158116 -0.0012896521 0.0016284786 0.002116161 0.0005343768 -0.0038844242 0.0022570346 -0.0030580289 -0.0038440996 0.0044681714 -0.0015378769 0.0006501331 -0.0005643185 0.0008088367 0.0018126231 -0.00036834367 -0.0023031349 -0.00026111642 -0.0034572626 0.0029927546 0.0012274213 0.0020711746 -0.00386354 0.003745715 0.0010532821 -0.00018984806 0.0006134468 -0.002247891 0.0025066272 -0.00025089472 -0.0024176429 0.001986593 0.0011184218 0.002385963 -0.0032228143 -0.0017695288 -0.0024839123 0.0033000323 -0.0027483965 0.0011383805 0.001374191 -0.0036523722 -0.003558363 0.003633609 0.003356896 -0.0029648412 0.0032962258 0.0009162232 0.0005044976 -0.0027231534 0.0030603162 0.0030883753 -0.00097224873 0.002136877 0.0018815019 0.0025969255 0.0036136433 0.00024485317 0.0022846498 0.0020595847 0.0011120843 -0.0025594118 -0.0015508155 -0.00018556787 -0.0019969586 -0.0031588147 0.004191505 0.0015291254 0.0019715726 -0.0011341269 -0.004145755 -0.0012309259 0.0030602785 0.0031821637 -0.0041718055 -0.0033539666 -0.0019697214 0.0008063614 0.0024636956 0.0004529485 -0.0027472395 0.0009929504 -0.0021798303 -0.0022924081 0.0007817078 -0.00011763058 0.0029464944 0.0006705569 -0.0005675792 -0.0016480356 0.004296068 0.0018621401 0.0011287772 0.0014302671 -0.003480529 0.0013785227 0.0012626485 0.0026507024 0.0028645026 -0.0022468553 -0.0033495682 0.0009081806 -0.0028038244 -0.0013117786 0.0020763725 -0.0029686359 -0.004133843 0.00016533665 -0.0008527438 -0.0006761113 0.001849334 -0.00013727977 0.003272181 0.0005322073 0.00037876552 0.0017753873 0.000655608 -0.0004391094 -0.00026666303 -0.0007746528 0.0016818398 -0.0021618577 -0.0028695897 -0.00072245585
172.016.114.207 -0.0025882337 0.0026335164 0.002346473 -0.0012200726 0.00025273807 -7.060693e-05 -0.0020043964 -0.00075603276 -0.0006006564 -0.002571354 0.002114202 0.002241713 -0.0026648084 0.0035186051 0.001213989 -0.0023535923 -0.0034548813 0.0007003975 0.0005334587 -0.0015123809 0.0025007701 -0.0033857499 0.00090807996 -0.003671208 -0.0024532883 -0.0016174228 -0.0010435377 0.0028925547 0.003620999 0.00096741295 0.0012312072 -0.0034137506 -0.0008320514 -0.0023242352 -0.0002369223 0.001223635 0.0010507223 -0.0026504125 -0.0033406008 -0.00021446607 -0.00040763145 0.0011676924 0.0036149262 -0.0021473318 -0.0017404325 0.0025270071 -0.0015718447 -0.00030318848 0.001522487 -0.0031405366 -0.0036602416 0.003633663 -0.00057170255 -0.0019821175 -0.0022154201 0.003932956 -0.0038286222 -0.0003064527 -0.0019504132 0.001606298 -0.0024541991 -0.0010896 0.00015261263 -0.0020794468 0.0019424969 0.00051178655 -3.3828255e-05 0.002868353 0.0033401465 -0.00059897325 0.0009319159 -0.0030999274 0.0014526163 0.0012328748 -0.0003039888 0.00086836447 -0.000410648 -6.9591406e-05 -0.001300409 0.00078466674 -0.0030960767 0.0016308331 -0.002613106 0.0024712249 0.002988221 -0.003273978 0.0019957733 2.4030258e-05 -0.0011955118 0.0030509448 -0.002001486 -0.0011542494 -0.0032732019 -0.0007591449 0.0033988087 -7.536706e-06 -0.0015133952 -0.002947837 -0.0032706757 0.0038388977 0.002688323 -0.0021570118 -0.0032479377 0.0018050274 0.003211033 1.8731538e-05 -0.0039048526 0.00253401 -0.0016392776 -0.0011662936 -0.0037614424 0.0023274708 -0.0023087037 0.0024186897 0.00033524397 0.0022074315 0.0032988796 0.00095119665 0.0036880174 -0.0016003582 -0.003995707 0.00076793187 -0.0006438133 -0.0032041732 -0.003982796 0.0030333404 0.0013483267 -0.0034659533
196.227.033.189 -0.0003897196 0.003112295 0.0025836062 -0.0033778562 -0.0037777682 -0.0030449561 0.0027687938 -0.003170278 0.0029879056 0.0022290812 -0.00019319713 0.002136923 0.0010451749 0.0036219454 -0.0022739596 -0.0037124946 -0.002554142 0.0023040033 -0.0015317053 0.002893848 0.0011505148 -0.0029627574 0.0021867529 -0.0030557564 -0.0023518316 -0.0022650887 -0.002241963 -0.0035409345 0.0029446804 -0.002280596 -0.0001681897 0.003902351 0.0035288015 0.000178437 0.003482569 -0.0016007856 -0.0023909814 0.0020578206 0.0019510795 0.0002542968 0.0014313051 0.00077804533 -0.00095210504 -0.00020663258 0.0010315549 -0.00020688196 -0.002215544 0.0013089871 -0.0022964457 0.0018641762 0.0033937602 0.003085336 0.0003861505 -0.0007391389 -0.0009609221 -0.0037799457 0.0033505217 0.0015276702 0.0026619926 -0.0032748869 3.4266977e-05 0.0037659663 0.003226132 0.002874015 -0.0016331695 -0.00034242225 -0.0004778811 -0.0013197735 -0.0014786199 0.003605219 -0.0005953341 -0.0009645647 -0.002498425 0.0006418638 -0.00031496378 0.0010662529 0.0032007648 -0.0014955981 0.0032355476 -0.0032569394 -0.0019861483 0.0026812933 0.0033179235 0.0013796295 0.00015843875 0.0038676073 0.0021972444 0.0012369896 -0.0024014905 -0.00013442386 0.0036966589 0.0021483607 -0.0012331493 0.0027208782 0.0022003273 -0.002083119 -0.0035947345 -0.00079211686 -0.0025318116 -0.00278762 0.0036621203 0.0010688239 0.0015615151 -0.002988576 0.0019494814 0.0029526432 -0.003719211 0.0037732578 0.0038930287 0.003855025 -0.002736464 -0.001504098 0.0033423936 0.0004220549 -0.002632638 -0.0034200512 0.0020112905 0.00058433285 0.0028166566 -0.0019858552 0.0011202332 -0.0029197494 -0.0029875617 -0.0029321092 0.0007882914 -0.0008475 2.7443233e-05 0.0010984482
135.008.060.182 0.0031366805 -3.7120815e-05 0.0013756814 -0.0025412478 0.0018080308 -0.0023332809 -0.0008659632 -0.0031739287 -0.0033386387 0.0036508695 -0.0018396855 0.00081375486 0.002449805 -0.00040835736 0.00072865805 0.00024391594 0.0026586663 -0.0020914532 -0.0037225888 -0.0003077404 0.0026185338 -0.0022409384 -0.0035356309 -0.0018480102 0.0034550435 0.00079417526 0.0036644442 0.00057773315 -0.0033740266 -0.0001089797 -0.003100105 -6.6522174e-05 -0.002143958 0.0010293009 -0.0025412466 0.0038335922 -0.0026353165 0.0007535642 0.0033705595 0.0012461961 0.0034890817 -0.0019683775 -0.0034366513 -0.00053012004 0.0033592929 -0.0020492335 0.003673019 0.0019446666 0.0013680753 0.0016858573 0.0025829133 0.00036254735 -0.00050857343 0.001899821 -0.00074500276 -0.002731987 -0.0020862638 0.0029150173 0.0002506084 0.002804545 -0.0036658857 0.0007662123 0.0025252574 -0.003955605 -0.0009715689 -0.0027943973 0.0006211888 -0.0021700796 -0.0029795296 0.0037830672 -0.0004766669 0.0019850743 0.0019327354 0.0009938852 0.0016989046 -0.0031503201 -0.00032245502 -0.0005813077 0.0032548367 -0.00045971802 0.0009850563 0.0016711659 0.00023497296 -0.0029696515 -0.0029207785 -9.768379e-05 0.0018454955 0.0007693799 -0.002688687 -0.00013778996 0.0027490035 -0.0022374426 -0.0020930544 0.0006217183 0.0020803686 0.0032098053 0.0016728097 -0.0026676694 0.001145818 0.0020384514 -0.0025391048 0.0021943133 -0.0014893328 0.002894041 0.0012669731 -0.0020402644 0.0011702828 0.0009202804 0.0007787445 -0.000328777 0.0033397994 -0.0021278143 0.0022214113 0.0012987031 -0.00070884393 -0.0017416767 0.003649544 0.0018973877 -0.001452271 0.000871632 -0.0012231377 0.003622673 0.0026713335 0.00061335834 -0.00064926845 -0.0029764902 0.0023714912 -0.00118275
204.071.200.069 0.0011392315 -0.0020738554 -0.0014431807 0.0014943887 -0.001695813 -0.0018778576 0.0020635845 -0.000968316 -0.0019061748 0.0005571137 0.0025002083 0.0013591218 0.00011899945 0.00024719292 0.0012953783 0.0018896377 -0.00039016554 -0.0018879737 0.0008177776 -0.0016712567 0.0012526117 -0.0022911832 0.0007340977 0.0015197145 -0.00095903204 -0.002957791 0.0027618534 -0.00070841936 -0.0034145368 0.001649397 -0.0030801627 -0.0024446088 0.00253416 0.0015048552 0.00021060448 -0.0021128117 0.0023905027 0.0012443364 -0.003850083 0.003414914 0.0017939354 -0.0031606853 0.0034814307 0.00038972858 -0.0031006394 0.0022315066 0.0007139707 0.00022908565 -0.0013486431 0.0038079137 -0.0026492453 6.45509e-05 0.0009735465 -0.00042565714 0.0036313853 -0.0005010712 -0.003388611 0.0032836606 0.0012828532 -0.002082212 -0.0025721022 0.0034633467 -0.0034864037 0.00048653717 0.0035136936 0.0020175842 -0.0019455007 -0.0011891568 -0.0025964445 0.0036154704 -0.0036577454 0.0014372205 0.0018909345 0.00015303494 -0.0031168824 0.0028439064 0.0021065027 0.0033139016 0.0010393191 -0.0024386602 -0.0025369087 0.0018526445 -0.00089219667 0.0004363945 0.0029004493 0.0019020682 -0.00057937804 -0.0022495594 0.00014117731 0.0020633664 -0.0016626263 -0.002764373 0.0036661604 -0.0018604415 0.0034807764 -0.0013060649 -0.001627393 -0.0033906368 0.0019130076 0.0035496734 -0.002535797 -0.0026258957 -0.0023972816 0.0007600279 0.00026192778 0.00063616864 5.7892124e-05 -0.0037537299 0.0005812212 -0.00043355493 0.0032307229 0.00047487204 0.0012660228 0.00016476969 -0.0003627269 5.9541748e-05 -0.0007310455 0.0012066053 0.00060756714 -0.0016153156 -0.003314119 -0.0029349965 0.0028632688 0.0025078992 0.0012502128 0.0025335855 -0.0037406217 0.0025028347
172.016.114.050 -0.00040578682 0.0025156753 0.002162792 -3.5338955e-05 0.0013416018 -0.0035355831 -0.0011143469 0.0004307571 -0.0012935693 -0.003044129 0.0018877402 0.003558553 0.0026299 0.002803165 -0.0037046333 -0.0035455504 0.0025212767 -0.0031795837 -0.004081617 -0.0008511792 0.0013071469 -0.0033266258 0.0027986297 0.00345249 -0.00022271299 0.00040448376 0.002493429 0.0021250665 -0.001971159 -0.0009893776 -0.0037748788 -0.0013883355 -0.0010747386 -0.0015976363 0.0037013292 -0.00017524893 0.00411604 0.0031339305 0.0023255653 -0.0018351431 0.0014939875 -0.0028351652 -0.0032126517 -0.00070905295 -0.0023661978 -0.0005406586 -0.00026559527 0.0023436903 0.0011101441 0.001174365 0.00033619915 0.0016372134 0.0030239208 0.002878325 -0.0031056479 -0.0012582334 0.0035134663 0.00022948123 -0.00085049064 -0.0019939602 -0.0014717865 -0.003548443 0.0033209429 -0.0014894096 0.0006818395 0.0030657968 0.0019759338 -0.0012970385 0.0007072688 -0.00023656324 0.00011511089 0.0025437593 0.0030382306 0.0033873192 -0.0026895758 -0.0002444255 -0.0022113705 0.0038374334 0.0028665815 0.0008810787 0.0019479999 0.0032190497 0.002389839 -0.003659244 0.0026237876 -0.00026755908 -0.0008855856 0.0034341656 0.0021838779 -0.0037636668 -0.0008736924 0.0031887519 -0.0034446586 0.0028317575 0.0029842858 -0.0033951476 -0.0038008871 -0.0011815852 -0.002645903 0.003606092 0.0024113643 0.002913875 1.4845804e-05 -0.0008572039 -0.0028135132 0.001823876 -0.003654739 0.00028834373 -0.0031188454 0.0010033118 0.0023132036 0.0023066518 0.0016187362 0.0016362597 -0.0035942383 0.0027933314 0.0009930802 -0.003052448 -0.0028486815 -0.0024764272 0.0009982734 -0.00067169586 -0.0035800696 0.0007474998 -0.0032470147 -0.00052893785 -0.0033012687 -0.002633269
195.115.218.108 0.0010935391 0.00047987327 0.0021699688 0.0012311022 -0.0038539143 0.00077740516 -0.002680933 0.0034477382 0.0020496382 0.0018490365 0.0029711577 -0.00066074677 -0.0035874217 0.00017801362 0.0009198739 -0.0012907138 -0.00087983103 0.0021439504 -0.00048706788 -0.001163624 -0.003486329 0.0013013321 0.0034489408 -0.00023645772 0.0024647592 -0.0016294194 0.0019721955 -0.0024849211 -0.00024007868 0.001973906 0.003066519 -0.0018968615 0.0026447172 -0.002534734 -0.0010816768 0.0013610761 0.0037533415 -0.0029588586 0.0022714615 -0.002547749 -0.0036204683 -0.0021291485 0.0038029095 0.0024724358 0.0037310848 -0.00062096654 -0.0002343459 -0.0028375918 -0.0007540263 -0.0038123957 -0.0010693127 8.7623215e-05 0.0017251675 -0.0023563472 0.003681054 0.0037335153 -0.00013337341 0.0016640692 0.002624019 -0.003401603 -0.001329185 -0.00067266927 -0.0023519392 0.0009485406 0.0014115908 0.00021202979 -0.0021065308 0.0010519921 0.003494329 0.0030774067 0.001548807 -0.0034957542 -0.0017186167 -0.0027143613 0.00061089935 -0.00154444 0.0006040297 -0.0023995086 0.0017495268 -0.0030388911 0.0018984505 0.0031025212 -0.0035677536 -0.00011246474 0.002896004 -0.0017489421 0.00038048628 0.0007841208 -4.24522e-05 0.0026041407 -0.0023879327 -0.0021937625 -0.0011642654 -0.0031605903 -0.003464302 -0.0036761465 0.0030796884 0.0006925694 -0.00080595695 0.0016795894 -0.00054118526 -0.00066655205 0.0038503264 -7.766194e-05 -0.0001747506 0.0036966826 0.0015042435 0.0010376448 0.000453239 -0.003689935 -0.0037731412 -0.00018117444 0.0018729678 -0.001730728 -0.00020118705 0.003772365 0.0026531762 -0.0017809055 0.0028824671 -0.0016347512 -0.0019596664 0.0003007865 0.0023098795 0.00029908415 0.00031825714 -0.0033001946 -0.0026601555 -0.0033343213
172.016.112.194 -0.0019227283 0.0002154846 0.0011521954 -0.0035524643 -0.0003729706 -0.002155014 0.002284359 -0.0014787887 -0.0010306407 0.0022861399 0.003118043 0.002708634 0.00016683886 0.0017537742 0.003125816 -0.0024457038 -0.003564485 -0.0003975909 0.00010384347 -0.002207035 0.002951302 0.0009742818 -0.00026268672 -0.0014635847 -0.0028838967 -0.0009908646 -0.002160289 -0.002421161 -0.002363641 -0.00020051125 -0.0027994392 -0.0015571921 -0.002740688 -0.0024429827 0.00023526144 -0.0036368645 -0.00058144826 -0.0023628979 -0.0019355624 -0.002899555 -0.0026035744 0.0023288797 -0.0034916138 -0.0036265142 -0.0032929564 0.00062045135 0.00015718247 -0.0037062583 0.0017609315 -0.0021545594 -0.0019049372 -0.003111197 0.0015953607 0.0014156254 -0.0022382927 0.00015883252 -0.00065881765 -0.0003725573 0.003631119 -0.0012342131 0.00159374 0.0003525017 0.003554254 -0.0014090611 0.0034001193 0.0002748822 0.002707786 -0.003471325 -0.0040633343 0.0035147672 0.0012323492 0.00248139 -0.0026701416 0.0034199008 -0.0020673021 -0.001326741 -0.0017367575 0.002416684 0.00220996 0.0030479352 0.0013165608 -0.0010747082 -0.001248201 -0.0023956334 0.0028626532 -0.0018439993 -0.0039705005 0.0026669798 -0.0038550454 -0.003454924 1.0284662e-05 -0.003323054 0.0034766253 0.0030269118 -0.0034742288 0.0030921868 -0.00040035337 0.0022198285 -0.00014806393 -0.0013958473 -0.0015322807 -0.00090276974 0.0010527846 -0.0005926088 -0.00021210648 0.003744549 -0.0026490253 0.0027990248 -0.00011467269 0.0025017785 -0.0029998065 0.0001893445 -0.00030300982 0.0030601472 0.0017064777 -0.002880148 -0.0023828035 -0.0015500665 0.0021342835 -0.00342523 0.001995919 -0.001971724 0.00039104087 -0.0013233589 0.0030595013 -0.000294349 -0.0022022985 -0.0009203032
172.016.116.022 -0.0014649909 0.0014190357 -0.001591438 -0.0027999878 0.0028687234 -0.00077052164 0.0028936076 0.0027714109 0.0011086861 0.00069224497 -0.002682728 -0.003268865 0.0009857658 -4.4097324e-05 -0.0015119038 0.003634007 -0.0016477907 -0.0024617321 0.0017543713 -0.001999147 -0.0025579175 -0.003871619 -0.0013412975 -0.0024391746 -0.0031243898 0.003951685 -0.0028673045 0.0028344363 0.00028340204 -0.0015364735 -0.0028366395 0.0007753584 0.0016499072 0.001500428 0.0009035148 -0.0036500613 -0.0017433086 0.003616296 -0.0033823964 0.0027330872 -0.0008667684 -4.824894e-05 -0.0017656672 -0.002872195 -0.0025315878 0.0004729844 -0.0037318887 -0.0007412708 -0.0020968446 0.00075606175 0.0037494118 -0.002771081 0.0008861507 -0.003424096 -0.00022681477 -0.003127828 -0.0028136605 0.0024732195 -0.00027712304 -0.0019608343 -0.0023664676 0.00068193255 -0.0036876083 -0.0009057196 6.7641e-05 -0.00046557188 -0.002222024 0.0002302302 -0.0025192618 -0.00039255174 0.0038742372 -0.002291598 0.0010942377 -0.0027098306 -0.0030303702 0.0027818207 -0.0007332583 0.000626962 0.002582793 -0.0020866503 -0.0013424471 0.002792688 0.0012639919 -0.0001703172 0.0019313323 0.0023799657 -0.00010321985 0.0011278593 -0.001901824 -0.0035841987 0.0028659878 0.0036438159 0.0010364342 0.0019038159 0.00025333895 -0.0012282663 7.8252306e-05 0.003145855 0.0037039865 0.0006674776 0.0013592651 0.002956735 0.0016828037 -0.00091069296 0.0014970258 -0.0015425743 -0.0021627615 0.00076229975 0.0028110207 6.292419e-05 0.0035800852 0.0025713453 -0.00344528 -0.001192823 -0.0025995416 0.0024782438 -0.0024815244 -0.00058703806 -0.0014495526 0.0033117773 0.0035016073 0.0025834488 -0.00010149463 0.0026469473 -0.0013841748 0.0010000663 0.0021954707 0.00092156546
172.016.114.169 0.0026330238 0.0030976974 -0.0009498376 0.003871433 -0.0026671616 0.0012477159 0.0021269147 0.00020498013 -0.0025699784 0.0036481346 0.0025642996 -0.0027229197 0.002763894 -0.000114131806 -0.00010471464 0.0013134021 0.0037879008 0.0015437586 -0.0028793036 0.0014622334 -0.001803228 0.00064346986 -0.0019486365 0.00282773 0.00020261359 -0.0006424603 0.0036619706 0.0021559594 -0.0035159723 -0.0035426684 -0.0027134842 0.0034389403 -0.0029779698 0.0023220938 -0.0019068267 0.0035208496 0.00061483233 -0.0020639678 0.00026408833 -0.000962527 0.0026624918 -0.0016197157 -0.0017564241 -0.0025463752 -0.0005511602 0.0005173061 0.0005621325 0.0033659493 0.0014977222 -0.0028523814 0.0032350225 0.0035831642 0.00015160811 -0.0011644849 -0.0009795543 0.0025245107 -5.1279618e-05 -0.0020997263 -0.003675169 0.00041042126 -0.0018464474 0.0014750814 0.0012166735 0.0034169252 -0.0016946886 0.0035520843 -0.0022377109 -0.0026525066 -0.00076634047 0.0025828166 -0.00023859816 0.0018457036 -0.0011224501 0.0014087788 -0.0013690393 -0.0032524248 -0.0026677402 -0.0009831452 0.0024249363 -0.0033699435 0.0028094857 -0.0009028306 0.0021923843 -0.0012781047 0.00037492753 -0.0019343909 -0.0038981899 0.0026209261 -0.0028298555 -0.003425435 -0.002252683 0.00083110575 0.0030488635 -0.0018317291 0.0026994026 -4.613177e-05 -0.001210665 0.0031755036 0.0034869572 -0.0030791454 -0.0020886608 -0.0031814692 0.003867122 0.0015619117 -0.0004775986 0.0008478958 -0.0032235237 -0.0036692151 0.0038603307 -0.0004877968 -0.00085119135 -0.0029839 0.0004435238 -0.0027436 -0.0011167736 0.0016672959 -0.002996744 0.0029116385 3.2403223e-05 -0.00088638207 0.00027586598 0.0016267347 -0.0027234477 -0.0032544942 -0.0015641839 0.00046643158 0.0037975789 0.0022174737
172.016.114.168 -0.0024884765 0.00064928865 -0.0030275336 -0.0031371277 -0.0025140585 -0.001861587 -0.0035347345 0.00046593213 -0.003365974 -0.0018094259 -0.0008489061 -0.001879952 0.003331902 0.00036108904 -0.0019930492 0.0040093125 -0.0022882698 0.0037565993 -0.0027100048 0.0033563597 0.0009118086 0.0021016565 -0.002431098 0.00013743098 0.0020006679 0.0015623617 -0.0011633192 -0.0025963006 -0.00097163516 0.0016593551 0.0037270132 0.0015620029 -0.0007218612 -0.0012750713 0.0023774419 -0.0021685218 0.00017064232 0.0016610363 -0.0012610403 0.00026640855 -0.002885763 0.003514037 -0.0013896341 -0.0006144222 0.0019449329 -0.0020219896 -0.0021759823 0.00043359055 0.0023912094 0.0025800862 -0.0005930504 0.0008696163 0.0031929773 -0.0013145097 0.00052996195 0.0027077806 0.0021015436 0.0026461403 -0.00015648041 -0.0018099518 0.0023247642 -0.000262208 0.0018682078 -7.158828e-05 0.0007954205 0.0017499905 0.0035153336 -0.0024189898 0.0014189014 -0.0023198451 0.0010356894 -0.0026027223 0.0021942845 0.00073904236 0.0022425235 -0.0030416115 0.0010646909 -0.0010104481 0.003438134 -0.001124418 0.0017137247 -0.0016530472 -0.0023322615 -0.00019701019 -8.697155e-05 -0.002865064 0.003815095 0.0028048598 0.0012594295 0.0033227212 -0.0033123114 0.001773006 0.004110676 -0.0013135292 0.0019918347 -0.00027679052 0.0010811917 -0.0035904038 -0.0031215167 -0.00054847746 0.0033115714 -0.00056163705 0.0025030992 -0.0026054028 0.0012603931 0.0017207478 -0.0036508194 0.0028006989 -0.0033423584 -3.8731087e-05 0.0022342429 0.0031749671 -0.0005729849 -0.00046938128 0.0034562794 -0.00034554984 -0.0015019493 0.0008077196 -0.0036464161 7.2689465e-05 -0.0011422037 -0.0017431891 0.002320411 0.0010979641 -0.0029338198 0.00034013166 0.0015680133 -0.0032781349
172.016.113.105 -0.0021928032 -0.0036172757 0.0012732989 0.002938884 0.0007332544 -0.001311534 -0.0035893065 -0.001553676 0.0028777549 -0.0022041968 0.0036278463 -0.0037996161 0.0015595871 -0.002282896 -0.0019601553 -0.0013534777 -0.0009845439 -0.0028456254 0.0014668746 0.002264412 -0.0018644818 0.0013764503 -0.001979583 0.0024930811 0.0026246402 -0.0016256744 0.0024384274 -0.00020094529 0.00034679094 -0.0033388394 0.0032918388 0.0002750402 0.0009976524 -0.001909068 -0.00035537608 0.0005630103 0.0032635091 0.0024611845 -0.0025450748 -0.0018495873 0.003800694 -0.0012358256 -0.0020648367 -0.0007831182 -0.0022433961 0.0020565086 -0.0006234841 0.0036948326 -0.00070151925 0.0032508655 0.00079578784 0.0021228062 0.0014187972 -0.0034433943 -0.0033485296 -0.0011157666 0.0005791713 -0.00385136 0.0021512802 -0.0014167762 0.0008390923 -0.0025876719 0.0025937906 0.0030290836 -0.0015939254 -0.00070489506 0.0017756046 0.0035349263 0.00070676435 -0.00024644195 -0.001905204 -0.0012575266 -0.0031649414 0.00081757584 -0.0031199276 0.0021759348 -0.00021883546 -0.0004598987 0.0009901258 0.0032440894 -0.0021388168 0.0005403756 0.0023111205 0.0034826351 0.0028934341 -0.0008974098 0.0025413006 -0.00061554473 -0.0021497419 0.0027274035 0.00021919266 -0.0027564242 -0.0027693042 -0.00012359716 -0.0019700157 0.0022928293 0.0015734414 0.0032684936 0.0014253414 0.0033974093 -0.0025249114 -0.0007756905 0.0035694994 0.0018875441 -0.00029148342 0.0034537455 -0.002909275 0.0020037722 3.669143e-05 0.003703419 0.0027051112 0.0012193323 -0.002975118 0.0034215224 -0.0022953358 -0.0033951185 0.0014672017 -0.0017947153 -7.970773e-05 0.0026463133 -0.0014390509 0.0022600254 0.0007734868 -0.000531853 -0.0011792476 0.0005758089 -0.0029058512 -0.0032031757
