31 128
192.168.001.001 -0.00803341 0.00061061163 -0.0057928013 -0.0029417756 -0.016440228 -0.003974085 -0.008354805 0.0037813373 -0.010407812 0.0039076884 0.0016909447 0.006512311 -0.0069202436 0.017494496 -0.0041301916 0.007595196 -0.011914019 0.009468695 -0.022573957 0.010932009 0.008291374 -0.0012293444 0.00067273196 0.0028432128 -0.012086636 0.008497007 0.00815015 -0.006380647 -0.0038969603 0.0050944397 0.0066521578 0.011222281 0.00066794903 -0.0024770626 0.0031967908 -0.0066505414 0.010482163 0.0038374495 -0.0021426461 0.009677368 0.0092787305 0.0028032728 0.005968591 -0.010390263 0.0004799654 -0.0008252032 0.006656997 0.0105937105 -0.012762475 -0.016226057 0.014847452 0.0024971403 0.012959398 0.011015852 0.0013900028 0.0058530513 0.003914198 -0.0029624838 0.0092661595 -0.017711893 0.0037611485 0.002664482 0.0008211478 -0.0045856293 -0.011202399 -0.016236167 0.00016982394 -0.010222704 -0.0066213557 0.0038954874 0.007360466 -0.013671195 -0.011019047 0.0021487053 -0.0050736344 -0.004113962 -0.006079678 0.017863354 -0.011465682 0.008607231 0.0048964648 -0.012926664 0.008869501 -0.0076751257 -0.0035369413 -0.002972831 0.009453501 0.00645446 0.0025108317 -0.011265497 -0.003023548 -0.004352604 0.00911637 0.0075800964 0.0150514245 0.007275052 0.00024500937 -0.011413096 -0.0043805325 0.00041377117 -0.0017931447 0.009505539 0.0003681173 0.005363839 0.008229838 0.008750516 -0.01288435 -0.0013489446 -0.0018707059 -0.0073009264 -0.0045495764 0.0059816507 -0.0021126587 -0.005726368 -0.0030357707 0.0037646827 0.005362511 -0.010739163 0.0057361554 -0.0009792863 -0.0012682336 0.0005323565 0.0084809065 -0.0012792845 -0.002187441 0.005027878 0.002948284 0.008761968
194.027.251.021 -0.013971327 -0.0004066418 -0.011354362 -0.0020966537 -0.020672694 -0.010810021 -0.0072742463 -0.001938881 -0.015080399 0.0012048394 0.00062856555 0.011765381 -0.010703374 0.023424868 -0.008607761 0.014299344 -0.012080494 0.0068869903 -0.029309727 0.01545421 0.013339938 0.001199081 -0.005103828 0.0005254219 -0.013264808 0.009864323 0.011232387 -0.00630451 -0.009382058 0.008656681 0.006649891 0.0127296075 -0.0005758605 -0.007733671 -0.00017082981 -0.010531715 0.014461052 0.010006313 0.0030831832 0.010168893 0.008101003 -0.002956606 0.012161814 -0.009913509 -0.0063649095 -0.0059870146 0.0087828245 0.010154615 -0.0144086955 -0.019476723 0.018975934 -0.0042845667 0.018196886 0.013008531 0.004183871 0.0038941363 0.011442634 -0.00042498743 0.010498135 -0.020909803 0.003944094 0.0032572728 0.0039849305 -0.005802759 -0.0155866565 -0.02105 -0.0064705005 -0.009240934 -0.0039266027 0.0069639552 0.011787737 -0.017811904 -0.012487814 0.0041876724 -0.012161548 -0.0048216274 -0.0050299927 0.02254739 -0.016732391 0.013666598 0.0022884307 -0.0155594135 0.011673115 -0.0118973395 -0.0024952078 0.00015313554 0.009255068 0.0023861113 -0.003471971 -0.013650916 -0.006087347 -0.005247945 0.0136333285 0.0033402888 0.018449638 0.009157418 -5.872394e-05 -0.01228101 -0.01233702 0.0025735907 0.0021817477 0.010663771 -0.0013164864 0.00090489635 0.007343492 0.011027493 -0.013846933 -0.0003081335 0.0037214553 -0.0096784495 0.00014273218 0.008446764 -0.0064912243 -0.009500263 -0.010398338 0.005049794 -0.0007137388 -0.01409365 0.0069018253 -0.0034022143 0.0039223097 -0.0038775983 0.005327664 0.0010094764 -0.0049263234 0.002589336 0.009513531 0.009716768
192.168.001.005 -0.003327142 -0.0012452197 5.6650868e-05 -0.002449245 -0.0051338254 -0.0055290405 -0.00026339962 0.001940393 -0.005567895 0.00418288 0.004081377 0.0023392811 -0.004183251 0.008137941 -0.00019212697 0.0004580163 -0.0025691371 0.0055968184 -0.009645681 -0.0006457547 0.0043130494 0.0014592777 0.002974242 -0.00040580964 -0.0022914968 0.0018858281 0.002006527 0.002511252 0.000986017 -0.0010751369 0.001232233 0.00025504566 -0.00070617616 -0.0037909085 0.0022776297 -0.004226155 0.0063989763 0.0014171617 -0.00106622 0.0046148957 0.0056619574 -0.0006020546 0.004850345 -0.005687598 0.0026253948 0.0022074908 -0.0012078753 0.0063704173 -0.006906258 -0.0074957586 0.0031804168 0.001418902 0.007813928 -0.00031337427 0.0037549657 0.00451803 0.004429947 -0.0010176795 0.004575347 -0.0076964605 0.0024881398 0.0035303205 -0.0012035194 -0.0034283437 -0.00017253909 -0.002688568 -0.0023189231 -0.001118934 -0.002622882 0.0050857672 0.0006722613 -0.0073771197 -0.0048371754 -2.1417283e-05 -0.0041379556 -0.002406165 0.0012516624 0.005272804 -0.006207295 0.0040809233 -5.509583e-05 0.00028488596 0.00530452 -0.003764747 -0.0041818544 -0.0038413792 0.001659148 0.0027134512 0.003469385 -0.0071939416 -0.0031083382 -0.0025267678 0.006232583 0.003956839 0.0020785965 -0.00095044135 0.00309907 -0.005400564 -0.005967106 0.0038531157 -0.0009713797 -3.129299e-05 0.00037010328 0.0016113446 0.0034034157 0.0054838085 -0.004727281 -0.002837059 -0.00035831012 -0.0030920783 -0.00028336307 0.0033668685 0.0017935055 -0.0017201558 -0.003218227 0.0013750215 0.0011195787 -0.002957713 0.0042751273 0.0014185348 -0.0006485942 -0.001650246 0.0045034867 0.003240647 0.0014872401 0.0014319421 0.0009183455 0.0057203
197.218.177.069 -0.005052863 -0.003886398 -0.0024508096 -0.0023464058 -0.0044534416 0.0014826328 -0.0012647196 8.724566e-05 -0.0038125913 -0.0008546144 0.0037811338 0.0046620173 -0.0048533184 0.0034047617 0.00015554583 0.003616819 -0.0022944377 -3.634786e-05 -0.008169789 0.0045544947 0.0035848895 0.00065250613 -0.0039542466 0.0027870291 -0.0052012596 0.00386889 -0.00069177366 -0.0021908055 0.0010765299 0.00048037086 -0.0012309423 0.0019198507 -0.0029000288 0.0014820094 -0.0029118538 -0.00092976505 0.0037543823 -0.00025269587 0.0010819542 0.0021152962 -0.0007992322 0.002784572 -0.00050549296 0.002107661 -3.208718e-05 0.0023200153 -2.664946e-05 0.0007080119 -0.004737274 -0.004815728 0.003279561 -0.003621021 0.0045386376 0.0016594911 -0.00046630474 2.6459566e-05 0.0016327165 0.0029395684 -0.0007564159 -0.0056351963 -0.003207901 -0.00036738667 0.0014545402 -0.0029270067 -0.0005430405 -0.004072536 -0.003343807 -0.00066883204 0.0009777206 -0.002603613 0.004833893 -0.0040381094 -0.00261671 0.003505373 -0.004503847 -0.0027095885 0.0011832122 0.0030083433 -0.0009912539 0.0005009901 0.002271803 -0.0014618558 -0.0020190668 -0.00039039875 -0.0005043836 -2.0757438e-05 0.0046044313 -0.002059429 0.0005347433 -0.0043075825 -0.0013345231 -0.0024333352 0.0023554075 0.002790977 -0.0007726405 0.002387052 -0.0005515209 0.0006774397 -0.005466086 0.00036425766 -0.0032270118 0.0019490735 0.0011206985 0.00298759 0.00026348396 0.003430089 -0.0063599753 -0.00012156356 -0.0006653871 0.0016304819 -0.004558687 0.0011656935 0.001208709 0.0024303398 -0.0014886549 0.0021959213 0.0025808227 -0.0035805285 -0.0008296713 -0.0017696684 0.0040362584 -0.0018479677 0.0049140174 0.00065161777 -0.0039043343 -0.001411742 0.005009242 0.002373296
172.016.114.050 -0.0010434502 0.002357619 0.0017501514 3.3796277e-05 0.0005392175 -0.003964814 -0.0014544487 0.00055650895 -0.0017523983 -0.0029159163 0.0021410137 0.0040529734 0.002204667 0.003610959 -0.0039376966 -0.0029051902 0.002024694 -0.0029900207 -0.0052989344 -0.000495063 0.0019602834 -0.003258172 0.0027779746 0.0035532485 -0.0006905912 0.0010164495 0.0029583017 0.0019244932 -0.0022204083 -0.0008092256 -0.00355144 -0.00082541845 -0.0010488874 -0.0018423497 0.0037489599 -0.000728217 0.0045226635 0.003377716 0.0025272786 -0.0014336287 0.0019544829 -0.002852164 -0.002745886 -0.0011316238 -0.002593921 -0.000627811 6.0953076e-05 0.0028152817 0.0006532272 0.00041219927 0.0009382195 0.0014836761 0.0037353262 0.0032220026 -0.0030532358 -0.0012046713 0.0040699756 0.0003741241 -0.00041633908 -0.002835292 -0.001489744 -0.0035912127 0.0034534638 -0.0017392624 0.00011349065 0.002375256 0.0018509848 -0.0016313192 0.000674367 7.203841e-05 0.0006214703 0.0020009952 0.0027194985 0.003499283 -0.0030555958 -0.0005214022 -0.0022505668 0.0047064857 0.0023231867 0.0013130846 0.0020029948 0.0026991572 0.0026860002 -0.0041840565 0.002643011 -0.00020826259 -0.00032486767 0.0036065849 0.0021203563 -0.004441536 -0.0011327885 0.0030267062 -0.0032411346 0.0031203416 0.0037104902 -0.0031956646 -0.0038633693 -0.0015199457 -0.0031093122 0.0036109812 0.0025446431 0.0033471046 -4.537477e-05 -0.0007251898 -0.0025601597 0.0022270228 -0.0042093066 5.6476612e-05 -0.0029776618 0.000911416 0.0022408825 0.0025900176 0.0013996959 0.0014601154 -0.0039224364 0.0030779368 0.0009597208 -0.003625969 -0.0026478919 -0.002546784 0.0012487699 -0.00077886507 -0.003295582 0.00071341346 -0.0035138559 -0.0004289645 -0.002891998 -0.0022381786
131.084.001.031 0.0024861994 -0.0011996552 -0.0019330854 -0.00031909606 -0.004997241 -0.0033495794 -0.0023502216 -0.0002271567 -0.004076841 -0.0029922358 -0.0009347227 0.004341008 -0.001314461 0.0043098996 -0.0023770684 0.0023065219 -0.0035982237 -0.00031295238 -0.0014301242 0.003298981 0.0012416794 0.0032983131 0.0026051686 -0.0034547802 -9.9807046e-05 0.0031444142 -0.00060462015 -0.0036195423 -0.00025195332 6.123875e-05 -0.0031664153 0.0004467125 -0.0036543987 -0.0029136427 -0.0018524511 -0.0031010213 -0.0020285007 0.002255672 -0.0028342132 -0.00077422266 -0.001096575 -0.0011742101 0.00063939317 -0.0040124687 0.0016486062 0.0023241055 -0.00039879762 0.0019301807 -0.0031593922 -0.0042776545 0.0011677559 -0.0031672968 0.0015663264 -0.00085290417 0.0032172592 0.00022775348 0.0002156088 0.0015338535 -0.00020166516 -0.0029615695 -0.003486175 0.0017218471 0.0013740861 -0.0024585305 -0.0022287553 0.0009491016 0.0026313916 0.0030867364 0.001607636 0.0016729891 0.0024594273 0.00074092916 -0.0028108582 -0.00041057917 -0.00072008226 -0.00047115312 0.00054643286 0.0034191709 -0.0017501169 0.0030470465 0.0028814934 -0.0035386498 -0.0026359193 -0.0015522018 0.0002707953 -0.00071207114 0.0011529936 0.0007551388 -0.001626112 -0.0028693427 0.000698827 -0.0024847046 -0.0033527552 -0.00093797647 0.0009858308 0.0005805672 0.00062450964 0.0030068788 0.0014030178 0.000977853 -0.0026113575 0.0034884834 0.0005985367 -0.0005679218 -0.0023590534 0.0011211135 0.0017681813 -0.00051700976 0.0030029456 -0.0024131364 -0.00021306926 0.0031680542 -0.0041446774 0.0028926064 -0.0015083029 0.0012107779 -0.00021919084 0.0010165432 -0.0032040372 -0.001081628 -0.00036159292 0.0030275376 -0.003149722 0.00073490274 -0.00078816287 0.0029087502 0.0018197454 -0.0012733039
172.016.112.050 -0.0030917106 -0.001623279 0.0012112181 -0.00018758606 -0.0026937507 -0.0013759821 -0.0020396875 0.0034790523 -0.0037027418 0.002308078 0.00037814796 0.0029108806 -0.003170721 0.0021521486 -0.0030459927 -0.0013666415 -0.0015554866 -0.0034967114 -0.0020624953 -0.0026528402 0.0017586065 -0.002085802 0.0034426488 0.0011601396 0.0018850133 0.0035258026 0.003853558 0.0027782484 -0.0039184624 0.0011151496 0.00094117 0.00060737657 0.0022353963 0.00255554 -0.0009586907 -0.0019587735 -0.0022595804 0.00092966226 -0.0013868586 -0.00013476625 0.00015623998 0.0023190498 -0.0038104134 -0.0020461294 -0.003967084 0.0011794881 -0.0037406196 0.0016777383 0.00040491053 -0.0038073862 -0.0013994758 0.0007403609 -0.002580244 0.0012849468 -0.0010412724 -0.0029252137 0.0019934776 -0.0017296701 -0.00027011582 -0.00013888536 -0.0009242791 -0.0011918262 -0.0036246704 -0.002158139 -0.00094916153 -0.0011747187 0.0035359059 0.0027570277 -6.0920265e-05 0.0018615634 0.0017256461 0.002828365 -0.0019494316 0.0011681209 -0.002443042 -0.002512021 0.0034762484 -0.00046372725 0.0013226053 -0.0031773963 -0.0033987514 0.0020388796 0.0029781675 0.0023635135 -0.00073743676 -0.0022152283 -0.0015292614 0.003683455 -0.0014368818 0.0021818192 0.0034365684 0.0006668425 -0.001088654 -0.0014030869 0.0011090687 -0.00030081152 -0.00311057 0.00026166986 0.00036423642 -0.0020113187 0.003936178 0.0012440435 0.0024654306 -0.0010270093 0.0011999279 0.00081489864 -0.0025428955 -0.0022187366 0.0017784771 0.0016353544 -0.0032303154 0.0014028206 0.0015230651 -0.003553862 -6.555228e-05 0.002042925 -0.002026957 0.0024699825 -0.00012510609 -0.0039025424 -0.0015510793 0.0010000705 0.0034036087 -0.0012701155 0.00022295323 0.001304042 0.0010243123 -0.0031408516
172.016.112.149 -0.003051695 -0.0036894022 0.001165556 0.0034278145 -0.0010244271 -0.0018976489 -0.0008530902 0.0004382913 0.0022627471 0.000933214 0.0032814655 -0.002610824 -0.00423575 0.0010206159 0.0010506944 0.0014693215 -0.0023324322 0.0018433755 -0.0057119904 -0.0023070266 -0.0009729769 0.0017913386 0.00010480213 -0.0015907389 -0.0017459285 0.003514494 0.0033232667 0.00061102025 0.002293931 0.0009654291 0.0019490679 0.0014123907 -0.0014788045 -0.0026090727 0.0038628392 0.00092932174 -0.0011724159 -0.00051695626 -0.0006398783 -0.0012503278 0.004540324 -0.000102488906 0.0038407864 -0.0040173447 0.0016907053 -0.0024789749 0.004444316 0.0012729494 0.0026077495 -0.0028559375 0.00295084 0.0019502691 -0.0018088641 0.0044118017 0.00074783654 -0.0028728703 0.0013761824 -0.00093076576 0.0033250486 0.00012338272 -0.0012651611 0.0011123384 -0.00073718216 -7.296937e-05 -0.0016651361 -0.00076157966 0.0025377094 -0.0042403415 -0.0020158363 -0.0004193507 -0.0012419721 -0.0029697367 0.0027004858 0.0011353443 0.0020386283 -0.0026953514 0.0034358536 0.0044914586 -0.002263266 0.00042985263 7.489849e-05 -0.0023147624 -0.00013951509 -0.003856786 0.0016497878 -0.0027876648 0.004708122 0.0040525473 -0.0021231626 -0.0049977386 -0.0023423268 -0.0030110807 0.00018197588 0.0024959052 0.003329119 -0.00046082307 0.00088628597 -0.0032713728 -0.0035798268 0.0020207132 -0.002543889 -0.0017345403 -0.0002247959 -0.00064247416 0.0031396924 -0.0024666453 0.00063543656 0.00069211086 0.0016257314 0.0018016386 -0.003000787 -0.002148167 -0.000814117 -0.001960082 0.0007061134 -0.0027031368 -0.001851746 0.001930844 -0.00015387287 0.0034375566 0.003949822 0.0008829063 0.0007042791 -0.0024128847 0.00084818597 0.001755881 -0.0015957031 0.0012427912
206.132.025.081 0.0016771415 -0.0027508663 0.0025769107 -6.337315e-05 -0.0027591689 -0.004332726 -0.0028180033 0.0023787003 -0.0038180172 0.0033548577 0.0008701311 0.0017268386 0.0008829888 0.005117135 0.0021463714 0.0022114026 -0.0047811954 0.00029340686 -0.0019829078 0.0023379053 -0.00062979304 -0.0023375116 -0.0025171333 0.0017248227 0.0018726672 0.00016863963 0.0017447774 0.0032183551 -0.00043219404 0.0020286385 -0.0022182711 0.003753006 0.0020633573 -0.0031660418 0.0032186827 -0.0030107812 0.0046435534 -0.002302033 0.0011509729 -0.0008260153 0.0018356737 0.00052093493 -0.002603223 0.0013600532 -0.00083494646 0.0026630887 -0.0025589645 0.0010230781 -0.0007208887 -0.0013485394 0.0025842602 -0.0010215488 0.0027460693 0.0045050937 0.00072635716 0.00039548863 0.002372656 0.002222455 0.002854897 -0.0036074491 0.00021778853 0.0020016213 -0.0032423334 0.0018280835 0.0016388907 -0.004933636 0.003251983 -0.0042993254 0.00019470925 0.0028726375 -0.0015762625 0.0012084087 0.0025959199 0.002714959 -0.00339811 -0.0038655244 -0.0034346418 0.0042751194 -0.00036993445 0.0043789367 -0.0015003848 -0.004953164 0.0037375668 -0.0024157423 -0.00044231294 0.0021850895 0.0029391027 0.0012897041 -0.0012489344 -0.003564675 -0.00013022195 -0.0021298886 -0.0023232806 0.0043680263 0.002541822 -0.00096479116 0.0002631062 -0.00050353125 -0.00013053013 0.000767672 0.0032488732 0.0044449046 0.0008488631 -0.002275388 0.0034946743 0.004326404 -0.0016199367 -0.0007310864 0.0006807707 -0.0024011766 -0.0023924336 0.002034917 -0.0022284037 0.0016913996 0.00042246046 0.0037211273 0.0025761842 -0.0014504041 -0.0023488044 0.002343948 0.0008069801 0.0007424398 -0.00019095652 -0.0005318084 -0.0017638772 -0.0031170845 0.0030944787 0.0037730942
172.016.114.207 -0.0034879867 0.0025020095 0.0017363562 -0.0011846729 -0.0009080598 -0.00065952644 -0.0024812394 -0.0006871196 -0.0013208259 -0.0024212 0.002427547 0.0031443315 -0.0031208633 0.004644608 0.00080572616 -0.0014196024 -0.004142836 0.0009410622 -0.0012967986 -0.0009383018 0.0035187956 -0.003291138 0.0009102407 -0.003570033 -0.0031397755 -0.00082100654 -0.00028589278 0.0025655308 0.0032551493 0.0012468237 0.0014921287 -0.0026043092 -0.000842613 -0.0026919446 -0.00017281949 0.00047160054 0.0016374561 -0.002289254 -0.0029789729 0.00039423927 0.00031962746 0.0011684027 0.0043367883 -0.0027025775 -0.0021008407 0.0024722663 -0.0010736176 0.00034293602 0.0007565184 -0.004206572 -0.0027356844 0.003406005 0.00047990115 -0.0013671368 -0.0021649962 0.003939271 -0.0030183159 -0.00013653123 -0.0014183995 0.00032072657 -0.0025484469 -0.0011112433 0.00038206266 -0.0025461076 0.0011399738 -0.0004953061 -0.0002874285 0.0023361186 0.003341242 -0.00015196647 0.0015891612 -0.003956122 0.00094454456 0.0014572794 -0.00085586077 0.0004625875 -0.00058616576 0.001186535 -0.0019729992 0.001445993 -0.0029197196 0.0008794229 -0.0021059732 0.0017483231 0.002984881 -0.003265753 0.002812682 0.00030772205 -0.0012482948 0.0021423209 -0.0023749997 -0.0014181926 -0.0029146168 -0.00034357974 0.0043440536 0.0002719126 -0.001577938 -0.0034621824 -0.0038288634 0.0038203935 0.002860349 -0.0015858011 -0.0033532046 0.0020741138 0.0036749057 0.0006059368 -0.0046925237 0.002200528 -0.0014835512 -0.0012469182 -0.0038001372 0.0027239714 -0.0025488893 0.0022003236 -0.00018550694 0.0025627862 0.0031854915 9.520116e-05 0.0039513297 -0.0017900513 -0.0036725723 0.0007058451 -0.0001641712 -0.0032075194 -0.004382288 0.003171052 0.0019684776 -0.002956109
134.205.165.120 0.0010420575 0.0037229506 0.0024798547 -0.0021716112 0.0010525929 -0.003376879 -0.0022083158 -0.00036225055 -0.0037759836 0.0019291926 0.0006055966 0.0030823115 -0.0034965007 -0.0017431838 -0.0020476363 0.0017697281 -1.3715753e-05 -0.00059418724 -0.002300405 0.00014532208 0.0019115625 -0.0034855048 -0.0020930208 -0.0003708676 -0.0011924482 -0.003770188 0.0005645245 -0.001490462 -0.00023518562 -0.0004018518 0.0026956745 0.0026075037 -0.0014795671 0.003255396 -0.0019042098 -0.002789971 -0.0031330676 -0.0007534473 -0.0013028653 0.0009519867 -0.0016102155 -0.0036589135 0.0015000527 0.0011399931 0.00048583638 0.0023511897 -0.0028404866 -0.0015245101 -0.0028330781 -0.0025718482 -0.0029457714 -0.003135201 0.0031842352 -0.0008788236 -0.0033764374 0.001887989 -0.003357362 -0.0027258752 -0.0026433005 -0.0038344138 0.0033124855 -0.0011575453 -0.003130627 -0.0013279981 -0.0013143197 -0.0037001297 0.0019205239 0.00051475887 0.002222804 0.0031978213 0.00093974423 0.0035686211 0.0038120379 -0.0017088654 0.003762226 0.0016017684 0.0003821857 -8.553529e-05 -0.0017709308 0.0035857202 0.00054671214 -0.0008166636 0.0031891363 0.00200823 -0.00010108435 0.002441051 -0.0014400758 0.0018038866 -0.0035874115 0.002855015 -0.002634379 -0.003278509 -0.0016963272 -0.0037890058 -0.00030888832 0.0009049663 0.0014398537 0.0021049562 -0.0017162154 0.0003335772 -0.0035641808 -0.003348833 -0.0027016287 0.0027160654 0.002061491 0.002813254 0.00076094316 -0.00042420503 0.0018092981 0.0016917607 -0.00040132846 -0.0028569517 0.00029302938 0.0003599481 -6.784083e-05 -0.0036675164 0.00231167 0.001256172 -0.001515698 0.00047613122 -0.00319112 0.00064589625 0.0023371957 0.00070727005 -0.0017038911 -0.0035953324 -0.0032457998 0.0014482676
207.046.130.015 -0.0025717812 -0.0039552688 -0.0012965304 -0.0017726028 -0.0040355613 0.00070420833 -0.003072593 0.001643168 0.00065633416 0.001889494 0.00024591663 -0.0017843735 5.3817188e-05 0.0024354728 0.0013253803 -0.0023838426 -0.00020141652 0.0012991382 0.0027929568 -3.326872e-05 0.001048737 0.0037738585 -0.003530991 -0.0037373768 -0.0030812887 -0.00018781365 0.0002033672 0.0026822845 0.0028263899 -0.0011499848 -0.0008028486 0.0034121652 0.0017561378 0.0025881962 -0.002748655 -0.0037009579 0.0018317433 -0.0013869966 0.00017468793 -0.0024926756 0.003403982 0.0033571816 0.0023396604 -0.0025504408 -0.0037458336 0.00014620909 0.00039427527 -0.00087241293 0.0037541862 -0.0015458633 -0.0033163952 -0.0005790014 0.0013880251 -0.0016592285 0.000835327 0.0013837073 -0.00037443603 0.0001102991 0.00034015902 -0.0038208924 0.0013280127 -0.0037828446 -0.0010015819 0.002113362 -0.00257831 0.0025383 0.0020443175 -0.002158102 -0.0022508868 -0.0031300401 0.0008327817 0.000101662314 0.0031487434 -0.002385733 0.0012880347 0.0012910618 0.0026306345 -0.002522833 0.0014717374 0.0005634105 -0.002101926 0.0030845625 -0.0014514545 0.0032236835 -0.003390161 -6.813962e-05 0.0037616836 0.0012337379 -0.0023593623 -0.002828221 0.0007617185 0.00026919384 -0.00081921864 -0.0030839844 0.002481536 -0.0018280721 -0.0020181432 -0.0017593808 -0.0007478678 0.0008183474 0.0021660076 -0.00024998488 0.0017282593 0.0002473699 -0.0026704492 -0.00246026 -0.0021864432 -0.00069908967 -0.0002463453 0.0011080996 0.0025062237 0.0017402257 -0.0032976354 -0.000407724 -0.0037913045 0.002351661 -0.0018570435 0.0021252092 -0.001061169 -0.0004720286 0.0011827288 -0.0018499662 -0.0026151922 -0.00013578986 0.0012820008 0.001047326 0.00042616745 0.0021305887
207.025.071.026 0.0031268734 0.0031378693 -0.003441402 -0.0030311584 -6.5408705e-05 -0.00017198868 0.0030134334 -0.00014534782 0.0014883084 0.0011218999 0.002560621 0.0015939577 -0.001097144 0.00039317703 0.0005984942 -0.0020984903 -0.0002322656 0.0028067832 -0.0014749365 -0.0032257284 0.0018258737 0.0028814531 0.0019721363 0.00069396355 0.00250641 -0.0032655948 -0.0011693069 -0.0037678094 0.0005011333 0.0003896192 0.0026155354 0.0005346838 -0.0035134992 -0.0016211723 -0.001378368 -0.0004930971 0.002730618 -0.0023780551 -0.0010710872 0.0010334027 0.0021778827 0.00142019 -0.002395163 -0.002936628 0.0022833138 -0.0030715377 -0.003300938 -0.0012482862 -0.002552231 0.0020431727 -0.0033338163 -0.00016044435 0.002137978 0.004150694 -0.000740364 0.0035842478 0.0027127475 -0.0016941129 0.0010560371 0.002458732 -0.0018107751 -0.0028144855 -0.0018084726 0.0017452955 0.00066453515 0.000491601 0.0030570528 -0.0034247017 -0.0012376463 0.00013153104 0.0041160625 0.003173531 -0.0037899583 0.0011490517 -0.0033877483 -0.003415541 0.0016903592 0.002400382 -0.0043489477 0.0033310289 -0.0033534586 -0.0027407878 0.0013763371 0.00041765717 -0.0036621897 -0.0038720479 0.0029882493 -0.0011069963 -0.0034700355 -0.0034169038 -0.002612194 -0.0032764927 -0.0005325201 0.0006806338 0.0022017309 -0.00066216104 -0.0018138826 0.00067009084 -0.0005558597 0.0024710142 -0.0016376493 -0.0019941172 -0.0016872585 0.0011380933 0.0024553249 -0.0030047086 0.0008631972 0.0035255335 -0.00035647076 0.0019156872 0.0006550158 0.00097428466 0.0009834785 -0.002701636 0.0023239038 -0.0024647284 0.0023810233 0.00032275205 0.0025539517 0.0011670281 0.000112974376 -0.0028172364 -0.00010121138 0.00095233094 -0.0026282454 -0.00018691801 0.00042906887 0.0013607423
207.068.137.070 -0.0025642822 0.0020060842 -0.002953451 -0.002202635 0.0027835164 0.0026895672 -0.0029478138 -0.0007936486 -0.00015185296 0.002508242 0.0028593813 -0.00025319087 -0.0007662048 -9.128009e-05 -0.0027943214 0.0018293245 0.0027192233 -0.0022035204 -0.0004543874 -0.0029978824 0.002039866 -0.0015552886 0.001388386 0.0038574412 0.0018594684 0.004312074 -0.0005217601 -0.0030944175 -0.00034637132 -0.001584265 -0.0035250057 -0.0018907263 0.003339505 0.0030130865 0.0010062999 -0.0021025785 0.0038170144 0.0037607097 0.00017579547 -0.003202336 -0.0024399813 -0.002978556 0.0025661842 -0.0018686668 0.000538859 -0.0036254346 0.0013041162 -0.0019368888 0.0016675252 0.0025014891 0.0002957555 0.0023534033 0.00022677577 -0.001903235 -0.0023404935 0.0005241047 -0.0017414889 -0.0022294691 0.0029737784 -0.0045114933 0.0001382186 0.0019471219 -0.0020786664 0.0026518109 0.0020099138 -0.0015562519 0.00016858152 -0.00431033 0.00046474836 1.713686e-05 -0.001846387 0.0020214634 -0.00013279727 0.002418923 -0.0007082787 -0.0007215652 0.0022293176 -0.0014901957 0.002620672 -5.783551e-05 -0.0019819788 -0.00091717293 0.0002398175 -0.0017196995 0.0036732845 0.0023900701 -0.0009196262 -0.00062323257 0.0026273436 -0.00046594336 0.0020792533 0.0033471258 0.00328201 -0.0008485208 0.0028234366 0.0031325791 0.00077741424 -0.0008099082 0.0022797661 -0.0031650148 -0.00088800816 -0.00052772806 0.0013629332 0.0001308016 0.0021290204 -0.0028573817 -0.0038449448 0.0008747537 0.0015794956 -0.0016518827 -0.0012974576 0.0013260732 0.0025437241 0.0030893888 -0.0022270905 0.00075004285 0.00068251335 -0.0045406944 -0.0032717122 -5.612003e-05 0.0009714738 0.00013445278 0.0026490947 -0.0030114257 0.00035145774 0.0012803754 0.00043794507 0.0041825166
172.016.112.207 -9.189063e-05 -0.0024781465 0.00084966735 -0.0037790206 -0.0010724022 -0.0011447615 0.0007639298 -0.0007081182 -0.0030931688 0.001396112 -0.00083988556 -0.00023168096 -0.0035710074 0.0031920269 -0.0019669337 -0.0029170492 0.0015050446 0.00013091906 -0.0039869193 0.003130377 -0.0014661031 -0.0008534954 -0.0036838772 -0.0007079932 0.0005685432 0.00085980806 -0.0021189747 -0.001945743 -0.0031738563 0.0006433361 0.002209918 0.0019770989 -0.0011003544 0.0035509816 -0.0002919123 0.001136933 0.003454514 -5.3599084e-05 -0.0017087532 -0.0010994758 -0.0032533782 -0.0030401398 -0.003131031 -0.0014360985 0.00071731955 0.0037598712 0.0021488387 0.0002814812 -0.00055052235 -0.0030520363 0.0005294931 -0.0032199898 0.0013814354 0.0038086819 -0.0030383237 0.0013096047 -0.0030845818 -0.003917831 -0.0010045064 -0.001128914 2.6004273e-05 0.00076133746 -0.0012385254 -0.0020488682 -0.002837459 0.0005892852 0.002972751 0.0004618991 -0.0032920334 -0.0028669434 -0.00078696955 0.0012145423 -0.0017706454 0.0016157964 -0.0039592544 0.001836045 -0.001585116 0.0005260866 -0.0038921083 -0.0024956735 -0.0019989435 -0.0030391326 -3.8419123e-05 -0.0022469903 -0.00023830013 0.0003609419 -0.002620789 0.0040165693 -0.0007597728 -0.0009063572 -0.0029443158 -0.003918483 -0.00087631284 0.002280706 -0.0001823607 0.003663037 0.00021595528 0.0011946672 -0.0027415839 0.0028408316 0.0005441326 0.0016727834 -0.0006566585 -0.0020224925 0.00042303256 0.0008376847 -0.0035680623 0.0031358716 0.00036379183 -0.0028575028 -0.0007691772 0.0026545904 -0.0012424929 -0.0036743062 -0.0043436643 0.0037676375 0.0037323956 -0.0016005033 0.0012909666 -0.002697713 0.0009295649 -0.0019459955 -0.00028081116 0.00017322988 -0.0027826738 -0.0010624719 -0.0014524034 0.0015342163
135.013.216.191 -0.0006042214 -7.236176e-05 -0.0019749682 0.002431722 -0.0022862393 -0.002692292 0.003332578 0.0005319334 0.0015634602 -0.0035721795 0.00057002273 0.0038465664 0.0016213026 0.0011680997 -0.0040571345 0.0019875483 -0.0005351841 0.0020870978 -0.0014548255 -0.003480333 0.0032799423 0.0039263233 0.003796609 -0.0026545008 0.0019921206 0.0015919699 -0.002252076 0.0009000229 0.0015735866 0.0006321687 0.0009387011 0.002335107 0.0013147682 0.003304848 0.00013143463 0.00033422263 -0.00073275954 0.0036663695 -0.0017599474 -0.0029708939 0.0038921754 0.002112919 0.0035239565 -0.0021723937 0.0014729315 0.0022011008 0.003801652 0.0026207499 0.0026412206 -0.0031634807 0.0026626072 -0.0014829412 0.0013391946 0.0032091385 -0.0038628592 -0.00064999773 0.00035700115 0.0030568969 -0.0010786292 -0.003091705 0.0013103727 0.0035287426 0.001553988 -0.0032536655 0.0018173115 -0.0013717603 -0.0017935623 -0.0035978165 -0.00031283795 0.00053537084 -9.586777e-05 -0.00015371075 -0.0001663132 -6.146365e-05 -0.0019029805 -0.003298805 -0.00302123 0.00216301 -0.0031443299 -0.0006764652 0.0022370103 -0.00036357768 0.003438746 -0.004230599 -0.0038203986 -0.0029417677 0.0018820694 0.0037819596 0.00016552868 -6.608004e-05 0.0025823568 -0.0012675358 -0.00065588666 -0.0034431606 0.00040069828 -0.00011805094 0.0038716076 0.0012887683 0.0031588413 -0.0036751947 0.0022521475 -0.002658742 0.0015346634 -0.0027030096 0.0039766827 -0.0034515802 0.0017382505 -0.0027736295 0.0018332038 0.00033471192 0.00343363 -0.0013732591 -0.0039155534 0.0023413997 -0.003912023 -0.003176448 -0.0017147152 -0.0029637914 0.003171868 -0.0035771707 -0.0026067079 0.0037827867 0.0015547049 -0.002546289 -0.0009903476 -0.000935177 -0.00033804262 -9.952254e-05
172.016.113.084 -0.005006434 0.0015049466 -0.003905364 0.0009994406 -0.0035771183 -0.0001442375 0.00029396598 -0.0032647853 -0.002242422 0.0023280247 0.0011989344 0.003320676 0.002293274 0.0012608285 -1.6140883e-05 0.0022604142 -0.0014070354 0.00453318 0.00037111872 0.0030264435 0.004910892 0.0027764414 0.0014708734 -0.0024921375 -0.0037095696 0.0005858671 0.0020741713 0.0010198621 -0.0016802839 0.00019175859 -0.00080842734 0.0025597413 0.001743172 0.0023146577 0.0011645954 -0.002806375 0.0034625297 0.0008791683 0.0008628556 -0.00019890393 0.0046646367 -0.0028434459 0.0005690324 0.001400132 -0.0007818401 -0.0039798776 0.002421312 -0.00263717 0.001660808 -0.005015103 -0.0019728546 -0.0013017197 0.0039080526 0.0011509485 0.0019051908 -0.0018366632 -0.0017674364 0.0019139332 0.0033393407 -0.004702065 -0.00095769507 0.00024127187 0.00058697327 0.0026661817 0.0011543856 -0.0028346216 0.0010204549 -0.0018791433 0.0022477445 -0.0017762304 0.0005582185 -0.004050437 -0.0026301313 -0.0020929202 0.00076225563 0.0016766342 -0.00037243182 0.003963791 -0.0051713185 0.0011434632 0.0007365496 -0.0035404686 -0.0010167758 -0.0036647185 0.0010795441 0.0027986816 0.0032039208 -0.0034041086 0.003351685 -0.0045010853 -0.0032810923 0.0034413198 -0.0023742577 0.0025084103 0.0044876053 -0.0011522787 -0.0029340675 -0.00057013147 0.0021915263 0.0022114066 -0.0020604054 -0.00067816395 -0.0034047957 -0.002150969 0.0012241572 2.0372187e-05 -0.0015148255 -0.0040760473 -0.0012645661 0.0014335978 -0.0008187254 0.0022998704 -0.00045440753 -0.0015253912 -0.00180683 -0.00018689335 0.0009052609 -0.0018887211 0.0038172298 -0.0018185064 0.0020908304 -0.002544678 0.0040317113 -0.002948118 -0.0028666593 -0.0006295687 0.003048443 3.0619325e-05
206.069.052.176 -0.0015011805 -0.0008506626 0.00011859067 0.0018452762 -0.0014022111 -0.0011235189 0.00088202435 0.003334777 -0.00015867644 0.0023741354 -0.0019044739 -0.0013576044 -0.0019775114 -0.001747532 0.00059048954 0.0021684635 -0.0023897884 -0.0024244692 0.0017324995 -0.0024433124 0.0018307385 -0.00393251 0.0023544729 0.0013988216 0.00092139223 0.003950239 -0.00056058774 -0.0013115994 -0.0027897132 0.0019503423 0.003949476 0.0032447637 0.0022944051 0.0016650329 0.0011409672 -0.002841471 -0.0032088403 0.0028743315 0.0006347099 0.0034909665 -0.0024700295 -0.0033894 -0.0009147122 -0.0027228845 -0.00024789892 -0.0019713363 0.00034901127 0.0028502117 -3.950236e-05 0.002360958 -0.0017890001 -0.0013519257 0.0013757062 -0.002771731 -0.0023323228 0.0008839189 0.0023971712 0.0025550954 0.0006993883 0.0012289835 0.0001636231 -0.0032589794 -0.00038718595 0.001391835 -0.0020631033 -0.0013131159 0.001617212 0.0026396571 0.000108644395 0.003925977 0.0013463816 0.003119795 -0.0005366142 -0.0026543336 0.001062715 0.0027305402 0.0013405035 -0.00043568327 -0.00048629745 0.0004731163 -0.0008238609 0.0012296597 -0.0022219871 -0.002243412 0.002252002 0.00355426 0.0013980371 -0.0025905436 0.00033829402 0.0010347484 -0.0012654262 0.0016536694 -0.003222741 -0.0009053344 0.0029277364 -0.0009224858 -0.0013623288 -0.0010479678 0.000216158 -0.0036975688 0.0028589005 0.0036704696 -0.00338197 -0.00031504425 0.00037571014 0.002614242 0.003154927 -0.00211482 0.0023320129 -0.002073177 0.002645779 0.0026178127 -0.0030158428 -0.0010103929 0.0020337065 0.0027943512 0.0032050572 -0.0019996865 0.0018155146 -0.0019230746 -0.0028795346 -0.0009560606 -0.0008826576 0.0009349108 -0.0012691204 0.00084088405 0.0029254865 0.0032791975
198.133.204.003 0.0005254059 -0.0024936164 -0.0028657853 0.0018611436 0.00071352546 -0.0029439388 -0.002195302 0.0018904184 0.00063243764 0.0030259627 0.0035355687 -0.0007279373 0.0009198893 0.00071222254 -0.0015657634 0.003649686 -0.0022384815 -0.0034293865 0.0019681614 0.003247196 0.00082036585 0.0012209039 0.0036689136 0.0009637 0.00046221167 -0.002798013 0.0018565594 -0.002836763 -0.003519974 -0.0004660836 0.0021287967 0.0033113798 0.001037447 -0.0032317264 -0.0021292013 -0.0037117787 0.0029943022 0.0003069857 0.0032885785 -0.0009814203 0.0035993063 -0.003388646 -0.0035780517 0.00018424161 -0.0024803586 0.003031105 0.0026584887 0.00052403624 0.0012261078 0.0028625568 -0.0030030264 0.0035317198 0.0007219276 0.0030885264 -0.0004209311 0.00015853535 -0.0009342834 -0.0003654462 -0.002904563 0.0029965322 0.0022278046 0.0039346437 0.0033817212 0.0026557085 -0.0007353106 0.0029962547 0.0018749457 0.0032846627 -0.002021802 -8.954106e-05 0.003452468 -0.003299368 -0.0033174083 0.0019120261 0.0029700042 0.0032991662 0.0017975377 -0.00030575535 -1.0294112e-05 0.0029670976 0.0038857483 0.0029154152 -0.0009965177 0.0022534477 -0.001453109 -0.0022377784 0.0008375603 0.0012964702 0.0010264323 -0.0025930963 -0.001563014 -0.002960753 0.003389048 0.0017643922 -3.6833022e-05 8.672287e-06 -0.0005760148 0.00074085116 0.0008870546 0.0010728542 0.003689069 -0.0007033329 0.0014914222 0.0038680348 0.001073545 0.00028824172 -0.0012226626 0.0015443283 0.00036764555 -0.0024467418 -0.0028998167 -0.0023023007 0.0032387627 0.002574974 6.246235e-05 0.0036051234 -6.0608876e-05 0.001200227 0.00019961855 -0.00045378596 0.0031218128 -0.0004232855 -0.0009940267 -0.0017183528 0.00089782843 0.00025260355 0.002901046 0.004006949
192.041.018.106 -0.0029693334 0.0014552644 -0.0013295884 -0.0016114122 -0.0020529984 -0.0012781087 -0.0013168 -0.0011106264 -0.003086418 -0.0014014588 -0.0034353791 0.000177081 0.0015707074 0.0018749787 -0.003563561 0.003705636 0.002016137 -0.00016871461 -0.0035991566 0.0028509484 -0.00021434936 -0.0027035635 -0.0014211341 -0.0035124503 0.0026286142 0.0025600642 -0.0005745526 -0.0016810221 0.0006685952 0.004014294 0.00048107654 0.0019200273 0.0025274642 0.0012796788 0.0016074723 0.0009409024 0.001914309 -3.7393933e-05 -0.0017035883 0.00019578212 -0.001971371 -0.0022519543 -0.0007823288 -0.0022126737 -0.0020664714 -0.0005242448 0.00076792506 0.0032235761 -0.0028890641 0.0029301173 0.0023571574 -0.0016752358 0.004308264 -0.0012408544 -0.0014378848 -0.0012405708 0.0017417884 -0.0032136827 -0.00286064 -0.0027700665 -0.002717184 -0.00037743733 0.0032545421 -0.0027837562 -0.002841634 0.0020210133 -0.0037872365 -0.0026697002 -0.0001310118 0.0010559369 0.002196427 -0.003518513 -0.0017418673 -0.0002166027 -0.00083888724 0.003287573 -0.0008421503 -0.0008532319 -0.0022058373 -0.0032096286 -0.0021612102 -0.002239775 -0.0013033437 -0.00080465595 0.0030869683 -0.0021272916 0.0038223523 -0.0031441639 0.002519868 0.00081936794 -0.003919762 -0.0036843482 0.0002830675 0.003081895 -0.001825463 0.0012900108 -0.000734213 -0.00022278493 0.0011291162 -0.0020354139 -0.0012026207 0.0029093074 -0.0011540568 -0.0018757501 -0.0015037535 0.00080684636 0.00078891957 -0.0006828724 -0.003510018 0.00045513082 -0.0015826112 -0.0009416064 -0.001574404 -0.0026859227 0.0020547076 0.0016293852 -0.0022557485 4.4410495e-05 -0.0026639588 -0.0037697246 -0.001186362 0.00055586884 -0.0005778747 0.00020849118 -0.0033986825 -0.001624511 0.0023949228 0.0028288213
207.237.112.055 0.0005259014 -0.0020045731 -0.0005763697 -0.00380754 0.0005479097 0.0015187056 0.0028141094 -0.0027836848 0.0018898379 0.0030752358 0.0025358365 0.0017132307 0.0014454984 -0.001216253 0.0021145828 -0.0024668402 0.0025444785 -0.0012084462 -0.00013576561 -0.0018059126 0.00083866285 0.0022471459 -0.0034578727 0.0021725753 -0.0015923824 0.0021293343 0.0002927942 -0.0018873148 0.0025258185 0.0037593609 0.0035340479 -0.0023778302 -0.00042436275 0.00033033715 0.0034923083 0.0007464321 0.003083258 0.0015657321 0.0033489207 0.0010995539 0.0013206917 0.0010258582 -0.0021769607 -0.0017628205 -0.0037412841 0.0035552045 -0.0012542063 -0.0019700306 -0.0022572894 0.00021004514 0.00013284652 0.0013015652 0.00079729327 -0.0031001435 0.0034788637 -0.0021311443 0.0024385538 -0.00041297 0.0031561526 0.0019559623 -0.00067040516 0.0029868241 -0.00025540448 -3.7601734e-05 0.0015220774 0.0010189221 -7.5555115e-05 0.00261563 -0.00081094785 -0.00059797923 -0.00061573996 -0.0030200453 -0.0034884799 -9.8356424e-05 0.0017101391 -0.00048864 0.0020806296 0.0005856982 -0.0031391769 -0.0006153954 0.0025727425 0.0021393949 0.0021337965 -0.002635013 -0.0032192955 -0.00042488184 0.0023288066 -0.0022667036 -0.002345466 0.0031612376 0.0032600213 -0.0022855427 0.002229813 -0.0007005654 0.0038432926 0.0011255345 -0.0037567278 0.003231702 0.0028890215 0.0007550104 -0.0016553288 -0.0024789649 -0.0011063585 0.002151256 -0.0025548 0.0028623044 0.0026788122 0.0014389757 0.000248264 0.0014301093 0.0029380692 -0.0035589363 -0.0034780803 0.0019624962 -0.0029983222 0.0032938458 0.0024722712 0.00047501503 0.000250709 -0.002978338 -0.0024842275 0.0020586862 -0.0017877552 0.003514243 -0.0026204686 -0.0005121259 -0.0037557527 0.0011550371
152.163.210.015 -0.00063949917 -0.0012168916 -0.0016674292 0.0028076808 0.0026618445 -0.0021162112 0.0026113158 0.0035503504 0.0012327458 -0.0009123121 -0.0035788477 0.0005169458 -0.00057503674 0.00030104604 -6.9141097e-06 0.0033161237 0.0005685487 0.002669624 -0.0016766007 0.0043125157 0.0005254615 0.0012278081 -0.000899747 -0.0025421192 0.0019747256 -0.002496312 -0.0012074041 0.0010097891 -0.0039920914 -0.00035237244 0.0021042756 -0.0015211264 -0.0014111497 0.00082164875 0.0026731337 0.0005884081 -0.002620948 -0.0009658615 -0.0021962435 0.004118861 -8.587164e-05 -0.0035286362 0.0036034202 0.0012838172 0.00050198607 -0.0019329148 0.001610467 0.002768551 -0.004250505 0.0028448685 -0.0010779917 -0.0033156115 -0.001953815 0.003955006 -0.0030802405 0.0016234233 0.0031435569 0.0017850763 0.001936793 0.0023807916 -0.0037314866 0.00026338734 -0.0023064895 0.0007934637 -0.0007870683 0.0022197445 0.0033635772 -0.0012373129 -0.0028331825 0.0027667952 0.0012855867 -0.0010645423 -0.0011270522 -0.003232137 -0.0035476945 0.0028472482 0.0030096928 0.0022072832 0.0018339794 0.00023630328 -0.002989306 -0.0016449343 -0.0032047022 -0.00075754686 -0.0011260214 0.0027082323 -0.00038566356 -0.0012345455 -0.0026338487 0.0022749794 0.0005655911 0.000112387104 0.000408451 -2.9387578e-05 -0.00032209978 -0.0011187397 0.0012244324 0.0015662397 0.0017861873 0.0038504235 0.0017848801 -0.002083844 0.003632466 0.0014509639 0.0006596551 0.0033184416 -0.0025146455 -0.002708827 0.0039473283 -0.00033678976 0.0022895867 -0.0004060816 -0.0028210874 -0.0009166138 -0.003128765 0.0018650442 -0.00013741603 0.0030488742 -0.001443163 0.0011904688 0.00036136998 -0.0011849074 -0.003324173 -0.003299446 0.00031689228 -0.0019523684 -0.0005320725 0.004037614
168.123.004.010 -0.0025194164 0.0019483872 0.00069898664 4.628625e-05 0.0021396626 -0.002696809 6.655954e-05 -0.0008792864 -0.0024709494 -0.0018889274 0.0018987231 0.0010996194 0.0011764189 -0.0031919675 -0.002237052 -0.003530495 0.0033363146 0.0020625337 0.00072194595 -0.0027692793 6.8803914e-05 -0.003044553 -0.0034308638 0.0016197916 0.0033927178 0.002191822 0.0035190298 -0.001975153 -0.002857689 0.0022096895 0.0036775814 0.00020979493 0.0018603852 0.0005958315 0.0032981955 -0.001793099 0.003121572 -0.00091618695 -0.0035121955 0.0035940348 0.0007932017 -0.0037388743 0.00046013942 -0.0033790087 0.0035846317 0.0038884531 -0.0004030145 0.0018367175 0.0014127842 -0.002439545 -0.003779158 -0.0017184466 1.7261475e-05 0.0008957893 0.002487173 0.00021821217 -0.00350268 0.0017016586 -0.0038732826 0.0009609969 -0.0018508818 -0.0031256403 0.0008022775 -0.002576008 4.3938187e-05 -0.0032749267 -0.003509701 -0.0001966521 0.00331425 0.0015806946 0.0025664049 0.0026577106 -0.0016873849 0.00021764141 0.0038607274 0.0019440148 -0.00019233828 0.0014738385 -0.0024756137 0.0037320254 -0.0017069842 0.0028230716 -0.0033989835 -8.26686e-05 -0.0005070609 -0.00343705 0.0031104402 0.0037871439 -0.0017463386 0.0016608895 0.0014917612 -1.1710272e-05 -0.0021796445 -0.00041436125 0.0021987532 0.0015049287 0.0012180147 0.0027473287 0.0011655077 0.0030878957 -0.0016849405 0.0035102786 0.0029953811 0.0030959079 0.0024628015 0.0018171668 -0.0020879048 0.003050815 0.0019918839 0.0017905316 -0.0015632748 0.00070875103 0.00058771594 0.001998145 5.704121e-05 0.002178971 0.0033645518 0.00092808437 0.000816922 -0.0016048359 -0.002760206 -0.0027846447 0.0024304932 8.409325e-05 -0.0010748595 -0.002570889 -0.0020022404 0.0036307895
155.033.141.077 -0.002672743 -0.003362898 0.003117329 -0.0007074313 -0.0027003258 -0.0011675595 -0.0013805678 0.0023486183 0.0016176435 0.0027109499 -0.00027464615 -0.0038384912 0.0027535937 -0.0014989978 -0.0012830927 0.00054826704 -0.00014840675 -0.00369573 -0.0012190914 -0.0011234953 -6.804366e-05 0.0010521631 0.0015368352 -0.0010309371 0.0015429194 0.0003642206 -0.0023519828 -0.002814931 0.0020790077 -0.0009048433 -0.0037173112 -0.00078618596 -0.0006994007 0.0020959915 0.0029058007 -0.0020661792 0.00029740768 0.003898896 -0.0013026478 -0.0025756476 -0.00044226224 -0.0016771338 0.0014555666 -0.0021862586 -0.0032980966 -0.0031651773 0.0022924668 0.001049359 0.0012287966 0.0007635074 -0.00042215426 0.0011343843 0.00089476624 -0.002168862 -0.0011723742 -0.0032836332 -0.0011902443 0.002502982 -0.001101211 -0.001671828 -0.0014090926 0.0009989927 0.003160873 0.00189152 0.0021146403 0.0015446738 0.003111531 0.0005708893 0.0018356668 -0.00079944887 -0.0025983632 0.0023647412 0.0026804516 0.0016327964 -0.0020520894 0.0033733605 7.27612e-05 0.003683822 0.0015301765 -0.0016363051 0.00064448 0.0037366075 -0.0035965864 0.0037122043 0.0014855238 -0.003018222 -0.0014179546 -0.0023343689 0.0020521125 -0.0033960005 0.003776282 -0.002939508 -0.0038691778 -0.0018914614 0.00109623 -0.0035896953 -0.0021170839 0.0012030593 -0.0024360765 0.0025866677 -0.0029457307 0.0013238314 0.0007045789 5.6534383e-05 0.0018295938 7.382751e-05 0.0018174889 -0.0012587445 0.0010778622 0.001454624 0.0018284809 -0.0027119743 0.0018557616 0.0007944229 0.0019374792 -0.0027771003 0.0017740076 -0.0022874824 0.0020527758 0.002406902 -0.0027871155 -0.002542808 0.0037791252 -0.0005916262 0.003860084 -0.001138907 0.0037622869 -0.0010174714
197.182.091.233 -0.00022455514 -0.0021654794 -0.0018897153 0.0012567248 0.00058962085 -0.002010196 0.0011571934 0.002132498 -0.00020196033 -0.0035706197 0.0026622135 -0.0020226974 -0.0042843604 0.0055953055 -0.0019373341 0.0018636605 -0.0012745803 0.0010304725 -0.0003020271 0.0002027534 -0.0010885415 -7.334303e-05 -0.0034529325 0.0031197304 0.0005610632 0.0030021383 -0.0029451374 0.0033533988 0.0006648387 5.4620235e-05 0.00094594783 -0.0012853323 0.0025339534 -0.00079017784 -0.0022799128 0.001026298 0.0017514706 0.002784443 -0.0025938954 -0.001022384 -0.0015669098 0.0032049157 -0.001755306 0.0005558622 0.0010030103 -0.003767983 -0.00296039 0.004343076 0.0024508708 -0.004034337 0.0043354374 0.00058838946 0.0017748978 -0.0020731972 0.0031898564 0.002995227 0.0001404665 0.002353744 0.0025495393 0.0011329199 0.0034820004 0.00021572021 0.0025054188 0.0016089471 0.00019436202 -0.0036646766 -0.0019006946 -0.0008360857 -0.0018974184 -0.0025772357 0.0048329094 0.00055375445 0.0014630882 -0.0009247042 -0.0047305617 -0.0016866946 0.0029754688 0.0045795944 -0.004906347 -0.0025317916 -0.0018047446 -5.010696e-05 0.0030660615 -0.0004465928 -0.0027221348 0.0011187921 -0.0011796519 -0.0020539942 0.0007749995 -0.0012097044 0.002402431 0.00037130062 -0.00016170269 -0.001116967 0.0052440227 0.0020814377 0.0011461399 0.00087587826 -0.004123682 0.0013059945 0.0014739335 0.0032133877 0.0026813052 -0.0019239681 -0.002793904 0.0015828308 -0.003542002 -0.0017983369 0.002340943 -0.0029673278 -0.004058024 0.00056919 -0.0010698928 -0.00090740714 0.0012516893 0.00024450634 0.003026038 -0.00048697123 0.0006185977 0.0016939275 0.0011763405 -0.0005494816 0.00028880168 -0.0006936586 0.001312159 -0.002073937 -0.002077282 1.9225787e-05
206.048.044.018 -0.000982506 0.0038720074 0.0023737962 0.0027624017 0.001531729 -0.0030164167 -0.0013048725 -0.0021314991 0.002345571 0.0024103194 -0.0004951002 -0.00079172547 0.0025670235 0.00012405081 0.0026084967 0.0031113105 0.0009781022 -0.002149718 -4.7140624e-05 0.0023343514 -0.0016582067 -0.0034422332 0.0021000458 -0.0016159844 -0.0010334391 0.0023040413 -0.00029816985 0.00024172974 -0.0033584726 -0.001894838 0.003594766 0.00078663125 0.00066909014 -0.0011380613 -0.0037614587 -0.0031307533 0.0011514913 -0.0004934054 -0.0015355563 -0.0020595016 0.0014714368 -0.00095277705 0.0025143307 -0.0031711012 -0.003013288 -0.0011892722 0.0026715773 0.0024046882 -0.001606042 -0.0025184273 0.0030141657 -0.0015162983 0.0022471112 0.0014476898 -0.0013543665 0.0011264472 -0.0027501897 0.0015878162 0.0010732419 -0.000957286 0.0034166349 0.002852874 0.00062225846 0.0015732369 -0.0012859507 -0.002047391 -0.0015299647 -0.0018116378 0.0037981523 0.0016795928 0.003998917 0.0022538856 0.002069913 0.00046842417 0.0017907649 -0.0039422833 0.0002676523 1.915163e-05 -0.0024827134 -0.0035746915 0.0013913249 -0.0006966118 0.0027990632 -0.0010922516 0.0022943686 0.0027326625 -0.00048094313 -0.0019570724 -0.0013215196 0.00085418794 0.0027788393 0.001382054 -0.003758911 0.0016849431 -0.003689484 0.0033448841 0.00048607538 0.0034536202 -0.0017023379 -0.0019394228 0.002750226 -0.0015390525 0.002707909 -0.0037448173 -0.0027903651 -0.0017924297 5.969213e-05 -0.0035572443 -0.0023017006 0.0018525966 -0.0025089823 -0.0018130987 -0.0036611287 0.003547801 -0.0012986622 0.0008249507 -0.003144082 -0.002107225 -0.0004238736 0.0033866987 0.0017534081 -0.0034580668 -0.0005641452 -0.00350781 0.002414252 0.0029550407 0.0036859144 0.0032650696
192.200.128.197 0.001514424 -0.00032609355 -0.0023602946 -0.001405087 0.0034731282 0.000643685 0.0012892532 -0.0018358157 -0.00048006498 0.0012340916 -1.2538584e-05 0.00316985 0.002285039 -0.00038468384 0.0033261068 -0.0021017732 -0.00043460322 0.0010965766 -0.0013200046 -3.258995e-06 3.3647957e-06 -0.00085500965 0.0005942849 -0.003205198 0.0017483856 -0.0027990157 -0.0016038535 -0.0037864975 0.0004635512 -0.0015047792 -0.0015824293 0.0011996187 0.0038665368 0.0022094182 -0.0017188094 -0.003065619 -0.0020052053 0.0034851532 0.00057766045 -0.0014666062 0.0027937067 0.00086336036 0.0030490344 0.0028289696 0.0026238488 -0.00058737036 0.0025717595 -0.0002432602 0.00096122077 -0.00291086 0.0014439588 -0.0013368276 0.000557895 -0.001265691 0.002021124 0.0038509055 -0.0004245941 0.00036703906 0.003255306 -0.003320814 0.002854465 0.0026617036 -0.0003719476 -1.5660422e-05 -0.0013707865 0.0016674172 -0.0009471077 -0.0009748456 0.0018102626 -0.0032165674 0.0008442496 -0.00093586155 0.001993394 -0.0032659015 0.0026829944 -0.0008984415 0.0021590558 0.0033244898 0.0014109252 0.003817442 0.0036707136 0.0019824954 0.0035917219 0.0024551302 0.0008530155 -0.0033826774 -0.0004126652 0.003215292 -0.003206431 -0.00074666244 -0.0011481543 -0.0011888109 0.003546334 0.0027147655 -0.002568897 0.0015360628 -0.001577079 0.0014171938 0.0017249695 0.0032532609 -0.0020454319 -0.0019645032 -0.003483906 -0.0005722509 -0.0003686195 0.00020644155 -0.0024509914 0.0023778228 -0.0018482442 -0.0030137312 -0.0025908346 0.00029408094 0.0016112096 -2.516931e-05 0.0010446891 -0.003280834 0.0034312818 0.0016665936 -0.0031126384 0.0014980314 0.0033396382 0.00081505626 -0.0034644138 -0.0015488664 -0.0009363934 -0.0028771812 -0.0011317536 0.000584399
172.016.114.169 0.0015699939 0.0029646428 -0.0016817722 0.0037328505 -0.004343711 0.00044113764 0.0014904604 0.00034524384 -0.0036968011 0.0038554862 0.0028623105 -0.0018780008 0.001873143 0.0017888474 -0.0006740565 0.0023340927 0.0027404586 0.0022120387 -0.005260544 0.0024938264 -0.00074432744 0.0007053454 -0.002093728 0.0029651586 -0.00086131494 0.00030661386 0.004452027 0.0017525504 -0.0040416303 -0.0030055954 -0.0022338028 0.0044859434 -0.0029898628 0.0018788824 -0.0017833958 0.0026944852 0.0017637032 -0.0014597134 0.00032057587 -0.00018742873 0.0034975319 -0.0016372174 -0.0009651285 -0.0034669333 -0.0008294729 0.00029815946 0.0012001089 0.004351967 0.0004083267 -0.004546021 0.00465568 0.0034492514 0.0015917367 -0.00020304421 -0.00078653125 0.0029249652 0.0007402799 -0.0021068517 -0.0027958534 -0.001321076 -0.0016311817 0.0017280419 0.0014326513 0.0029045749 -0.0027994027 0.002017285 -0.0025156576 -0.0034567188 -0.0011582256 0.0031080325 0.0006823383 0.00051000644 -0.0020356774 0.0017123008 -0.0022506546 -0.0037581776 -0.0030511415 0.00083203893 0.0011342467 -0.0024616106 0.0030317693 -0.0020867018 0.0030705063 -0.002244352 0.00015218035 -0.002061692 -0.0030267357 0.0030387864 -0.0029045655 -0.0046784123 -0.0027053433 0.0003785827 0.003923099 -0.001338434 0.0041954564 0.000599246 -0.0012045265 0.0022413838 0.0026305988 -0.002904371 -0.00201074 -0.002342584 0.0038414786 0.0017723556 0.00015608108 0.0016841906 -0.0044699917 -0.0038437035 0.004014675 -0.0011222255 -0.0010894682 -0.0023565085 -3.613197e-06 -0.0033140583 -0.0018057495 0.0021324037 -0.0028379927 0.0018033797 0.0005995227 -0.0010925019 0.0004788924 0.0014668088 -0.002133412 -0.003316009 -0.0020143555 0.00074833556 0.00441727 0.0030210565
172.016.113.105 -0.0023630445 -0.0036065998 0.0010908553 0.0029881122 0.0004273569 -0.0014225949 -0.003724515 -0.0015408398 0.0027291335 -0.0020726605 0.003696577 -0.003605499 0.0015163419 -0.002046687 -0.0019989596 -0.0010613218 -0.0011658682 -0.0026959395 0.0009859346 0.002457377 -0.0016137592 0.0014190809 -0.0019358357 0.0025659455 0.0024101813 -0.0014514452 0.0027067924 -0.00033649907 0.0002800512 -0.0032783763 0.0033796143 0.00052842597 0.0010088988 -0.0020611018 -0.00026759217 0.0003448435 0.0034422923 0.0025199738 -0.00235542 -0.0015941059 0.0040983427 -0.0012484363 -0.0017761668 -0.0009162375 -0.0022629157 0.0019845876 -0.00045865262 0.0038784875 -0.0010004207 0.0030218407 0.0010597197 0.002132664 0.0017379103 -0.00328041 -0.003239574 -0.0010862906 0.0008607155 -0.0038358269 0.0023406963 -0.0017831621 0.000843224 -0.0025760995 0.0026206092 0.0029937923 -0.001847509 -0.0009797282 0.0016794814 0.0033320566 0.0007264137 -0.00010131797 -0.0018001962 -0.0015499208 -0.0033058398 0.00080970215 -0.003158338 0.0020870832 -0.0002862653 -0.00011240109 0.00081483176 0.0034858875 -0.0020204205 0.00028866992 0.0024697213 0.0032863766 0.002860375 -0.0008646089 0.002801008 -0.0005897549 -0.0020713771 0.0024456424 5.317724e-05 -0.0027902403 -0.0025842502 3.0887823e-05 -0.0017303664 0.0023145066 0.0016007472 0.0030695235 0.0013464388 0.0033572635 -0.0025609192 -0.0006489089 0.0035165932 0.00204934 -0.00015026703 0.003610963 -0.0030282373 0.0018688538 4.6132893e-05 0.0036696275 0.0027306254 0.0012877539 -0.0029701535 0.0033587217 -0.002357737 -0.0033209021 0.0014312107 -0.002046376 -2.2307213e-05 0.00269611 -0.0013593807 0.0022459743 0.0009074616 -0.000494824 -0.0012107579 0.00063396944 -0.0027418218 -0.0029501459
172.016.115.234 -0.00016854765 -0.003199182 -0.0007333406 0.0026472548 -0.0033436324 -0.0019398114 0.0012832821 0.0003923912 0.0012072439 0.00090714823 0.00077884365 -0.0016000242 -0.0038475427 0.0021868697 0.0011227311 0.0028612537 -0.0026421237 0.00075244636 -0.0026842267 0.003337905 0.0022781885 0.00267641 6.6374385e-05 0.00083452155 -0.00024179835 6.501583e-05 -0.0025526427 -0.0014249167 0.00192346 -0.0010829757 -0.00023460318 0.0038920192 0.0018453123 -0.0026965423 0.000907086 -0.0028279196 0.0037265907 -0.0029115567 0.0018007045 0.002375398 0.0026282102 0.0019985742 0.0028879053 0.0010018704 0.002016359 0.0036646703 0.0031856329 -8.40664e-05 -0.0021979036 -0.003265586 -0.0020372975 0.00011230323 0.0018208777 -0.0010771994 -0.00019650639 -0.00026508083 0.0036235158 -0.0004357495 0.003382429 0.0001317184 -0.002019589 -9.5395066e-05 -0.003604852 -0.0030675288 -0.0043292413 -0.00016622987 -0.0013038587 0.0017848886 -0.00068595423 0.003885974 0.0012662543 -0.002771865 0.0010734928 -0.001694882 -0.001667816 0.00037296469 -0.003876268 0.00027784865 -0.0021960957 0.0035451034 -0.0030245124 -0.0048288214 0.0030463506 0.00044841738 0.0022113482 0.0036351655 -0.0014803834 0.002678226 -0.00046114242 -0.0001393372 -0.0031542194 -0.0029632193 0.004679405 -0.0019815569 -0.0018641462 0.0033772744 0.0031202158 -0.0010678599 0.0021015299 -0.00079441495 0.0009308466 -0.0017183566 -0.0016449076 0.002760584 -0.0023587956 -0.0019065785 -0.0012436067 0.0032810343 0.0015409127 0.00084439974 0.0017174991 -0.003025153 -0.0032111192 -0.0016768572 -0.0028008493 0.0010881941 -0.0027073862 -0.0030309567 0.003971754 0.002614792 -0.0015928556 0.0022946314 -0.0010799107 -0.00016194947 -0.0013223258 0.000871991 -0.0026530437 -0.0007782631
172.016.116.044 0.00013295497 -0.00032707822 -0.0032956325 -0.0037730406 -0.0001855861 -0.0010352948 -0.0037351055 0.002410705 0.0026882095 -0.0025918249 -8.8342436e-05 -0.0016418481 -0.0012923146 0.0035235398 -0.0023470551 0.0030510945 0.0024974656 0.0033125118 -0.0052645686 -0.0012818608 0.0029767808 0.0038622885 0.00035374082 -0.001974099 -0.0012733259 0.0019302093 0.0009845346 -0.0021050156 -0.0029621061 0.00063229096 -0.0018678737 -0.002706577 -0.00075715117 0.0032604265 -0.0024012309 -0.001355243 -0.002446015 -0.0012133517 0.0027867851 0.0013688866 -7.503838e-05 -0.0013503073 0.00088011706 0.003265862 -0.0040125772 0.0028986074 0.0019097904 -0.0018195356 -0.0012408524 -0.00017285027 0.003226844 -0.0025713625 -0.0028894811 -0.0028565433 -0.0015319859 0.0014340157 0.0005251379 0.001921371 0.0041289916 -0.0034269756 0.003537842 0.002652755 0.00261956 -0.003999751 -0.0018684841 -0.0016898522 -0.0005419554 0.002953876 -0.0029960698 0.0011726266 0.0023355843 -0.003504693 -0.002120533 -0.003146006 0.0008178586 -0.0013966818 -0.0026597246 0.0013555866 -0.00392665 -0.003171875 -0.0037758863 -0.0039757374 -0.0031479911 -0.003011186 -0.002712424 -0.00025267483 -0.0018685552 0.0017733343 -0.0030099594 -0.0020353738 0.0025285243 2.0647465e-05 0.0015776925 0.0040399926 0.0048613017 0.0020697876 0.0011825896 0.0031902562 -0.0022768131 0.00091482996 0.0024248322 0.0035593691 -0.00050600816 -0.00032356253 0.002330636 -0.0028969885 -0.0018928126 -0.0005567734 -0.0023266154 0.0025600302 0.00235605 -0.0009457961 0.0024089226 0.0010023874 -0.0011356751 -0.0012441033 -0.003648413 -0.0041646985 0.00297418 0.0018808986 0.003283224 -0.0018116612 0.0028691676 0.001230955 -0.0040307357 -0.0037368198 -0.0014626395 -0.002430569
