43 128
192.168.001.001 -0.008036749 0.0064440207 -0.0013050209 -0.010342637 -0.023386773 -0.0096515715 -0.0016779474 -0.0044916854 -0.013407393 0.008860899 0.0002011717 0.00560698 -0.008062223 0.022766436 -0.012238292 0.0022324836 -0.01021397 0.006897856 -0.025066247 0.015382837 0.005762112 -0.0068594073 0.002066162 0.00418016 -0.01242924 0.0061254906 0.01569686 -0.010333141 -0.0105855735 0.0055876416 0.0034689729 0.015179581 0.00069298886 -0.0017874058 0.0034832729 -0.0038978714 0.01459218 0.0084329685 0.00086078234 0.0011160094 0.012135181 -0.0005037976 0.0021746352 -0.013385069 -0.0031982604 -0.008684291 0.005493103 0.009837734 -0.016903484 -0.0107873 0.016094388 0.00235292 0.011245434 0.014952992 -0.000861157 0.0022420296 0.008524008 0.00032600036 0.00934646 -0.02077373 0.0028525502 0.007837928 0.005663568 -0.0035949713 -0.012575988 -0.01917255 -0.0012710519 -0.01231184 -0.006220066 0.0058923946 0.003445799 -0.010092775 -0.009453525 0.0070882896 -0.00862553 -0.0046008024 -0.0020613186 0.017663551 -0.0030741142 0.0050229183 0.008066793 -0.01311611 0.013378644 -0.005873637 -0.0031649265 -0.0034874664 0.004590518 0.0044415807 0.0026618233 -0.010826001 0.00013658746 -0.0038721594 0.010255395 0.0037864123 0.016502088 0.00821755 -0.0015975942 -0.009810118 -0.00967882 -0.0019129582 -0.002996607 0.010932979 0.0039920104 -0.00097544893 0.012715938 0.0133503815 -0.017652884 0.0071317633 0.002758498 -0.0013072225 -0.0066719716 0.0056782346 0.0046609477 -0.0056388285 -0.009835081 0.0031827886 0.008587949 -0.009570844 0.005126303 -0.004390221 -0.0029507165 0.0002394693 0.0060281786 -0.0057020998 -0.0032908528 0.0015252201 0.0070545026 0.0046039824
194.027.251.021 -0.012280794 0.006090041 -0.0029796138 -0.010660759 -0.025729371 -0.01683165 0.003243427 -0.011742891 -0.015580721 0.0063224817 0.00021351984 0.008822549 -0.011015034 0.026046898 -0.017633835 0.0053323223 -0.0075068343 0.0011951218 -0.027240437 0.01734019 0.0082477685 -0.00677418 -0.0021149402 0.0024366812 -0.011735146 0.006665614 0.01830488 -0.008806003 -0.015998263 0.0079417825 0.0005912647 0.014877592 -0.0011339765 -0.0042782756 -0.0005561262 -0.0054340786 0.017124666 0.0140397195 0.006943925 -0.0036186785 0.010245202 -0.006603583 0.0052125975 -0.0116825765 -0.01083311 -0.01442394 0.0052920952 0.0076917596 -0.016067723 -0.00949634 0.016009659 -0.0044136937 0.012642196 0.015270775 -0.00078436325 -0.0016421104 0.01623052 0.005590394 0.007928182 -0.020768287 0.0007071143 0.008693486 0.009591722 -0.0036793312 -0.013889177 -0.02036161 -0.007202312 -0.009463022 -0.0010348132 0.0074612526 0.005680509 -0.009175273 -0.0063085756 0.010071451 -0.015527582 -0.00565911 0.0017644856 0.018266393 -0.002496913 0.0051779733 0.005192871 -0.01199053 0.014318291 -0.007629712 -0.0011851131 -0.00078308803 0.0015575738 -0.0007872635 -0.0036949802 -0.011006241 -0.0015485031 -0.0034097934 0.011776877 -0.002459883 0.016634677 0.008121873 -0.0023425422 -0.006317805 -0.01795476 -0.0009875032 0.0007143312 0.010063397 0.004060993 -0.0074880566 0.011767622 0.013542473 -0.017682098 0.0104912035 0.009410676 0.0016308988 -0.00329404 0.0067391503 0.0026164553 -0.005806284 -0.017518526 0.004180133 0.0029629236 -0.010617429 0.004712652 -0.0076056374 0.0016392763 -0.003786497 0.001025325 -0.0055193566 -0.00746841 -0.0027651621 0.013711295 0.002590918
172.016.114.148 -0.016336683 0.011308093 0.0140094 -0.028944919 -0.04883834 -0.03216071 0.021057688 -0.020004373 -0.017805241 0.014166027 0.011002089 0.007687664 -0.02405925 0.041909274 -0.034913983 -0.0073285983 -0.012424425 -0.0043931864 -0.032275166 0.024405323 0.0075317738 -0.024278685 0.013709324 0.009063959 -0.021763392 0.017518034 0.028485816 -0.012605576 -0.02504738 0.010105762 -0.01202984 0.02380983 -0.0019691112 0.008303635 0.00015878539 -0.009564197 0.029437361 0.021141121 0.012648699 -0.02777818 0.022271637 -0.0055262987 -0.0077796774 -0.023004882 -0.018404244 -0.0232849 0.0010063393 0.013207645 -0.025327103 -0.008876485 0.008943483 -0.0064616366 0.011311648 0.023289673 -0.016827706 -0.0057054544 0.028861044 0.02334682 0.0074567404 -0.035203192 -0.011344102 0.018804364 0.017760593 -0.0025897932 -0.014561522 -0.026303126 -0.0029797172 -0.010722689 0.0074013746 0.005772491 0.0063110483 0.00452726 0.00565514 0.018200148 -0.025897708 -0.015086588 0.014684252 0.025027389 0.014239136 -0.016911346 0.013023015 -0.012061834 0.015859436 -0.005131045 -0.0003301905 -0.008021167 -0.0040576975 -0.0003824457 -0.0023023558 -0.02109038 0.0018824722 0.001208512 0.009224241 -0.006761134 0.019759411 0.0043649627 -0.006022402 0.009487762 -0.028918551 -0.008269763 -0.0050316155 0.014047404 0.017011698 -0.015986789 0.027986249 0.015054296 -0.035738315 0.025551073 0.017804006 0.029044323 -0.019315522 0.010297434 0.013402067 0.011519794 -0.030545514 0.012004921 0.016793152 -0.015127847 0.005434817 -0.017969292 -0.004901429 -0.005426431 0.0047533093 -0.022872644 -0.025297645 -0.010716977 0.022309668 -0.0026477783
196.227.033.189 -0.021209506 0.016566392 0.015587785 -0.03363188 -0.059718356 -0.039817158 0.023242112 -0.02491432 -0.018664664 0.01934634 0.012288811 0.014394954 -0.023976967 0.05437391 -0.04261981 -0.01113566 -0.01591678 -0.001027183 -0.04440533 0.029391665 0.011881189 -0.027712325 0.014356011 0.006145757 -0.024357952 0.014063816 0.030916054 -0.018912159 -0.023745729 0.0061332113 -0.011783507 0.03428491 0.0030755862 0.007362273 0.004191652 -0.0095413225 0.028735455 0.025503037 0.015906513 -0.027809331 0.02683007 -0.005754032 -0.008919046 -0.024852727 -0.018425664 -0.02552909 -0.0016357761 0.016958797 -0.029691959 -0.007995358 0.019474253 -0.0019148455 0.014477511 0.024469404 -0.017426938 -0.013419826 0.03715678 0.027031677 0.01338839 -0.04346693 -0.011942912 0.024536185 0.02529766 -0.0017414431 -0.01871528 -0.02979357 -0.0056993593 -0.015773376 0.0032182871 0.013746633 0.006580632 0.00024625377 -4.7357702e-05 0.024120415 -0.031177187 -0.015571324 0.019630993 0.02483691 0.01978197 -0.019416953 0.009860042 -0.008449841 0.02478128 -0.0054076216 0.001068296 -0.0020478312 0.0010381452 0.0036329648 -0.006946793 -0.023519425 0.008914805 0.0009124344 0.0062679793 -0.0023154703 0.02842166 0.0038461399 -0.013099186 0.005305223 -0.038264386 -0.012253108 0.002157955 0.018802702 0.02033989 -0.02294979 0.031216562 0.025166022 -0.04689615 0.031579636 0.025559 0.033645317 -0.02519678 0.0075837774 0.020334402 0.008615655 -0.03961042 0.007396187 0.019903557 -0.014891186 0.009594949 -0.02261924 -0.0014954811 -0.008193983 -0.00024885888 -0.029484972 -0.024664959 -0.012881573 0.026058631 -0.0028276327
172.016.112.050 -0.006636422 0.00052292546 0.00277882 -0.0049218796 -0.011770634 -0.0072154887 0.000768671 3.8486294e-05 -0.007873102 0.005193202 0.0022024408 0.0050116614 -0.0071833404 0.010650327 -0.00952076 -0.002120462 -0.003606764 -0.003870378 -0.009748049 0.0017572152 0.0036465097 -0.00571021 0.0047911843 0.0027288524 -0.0014827934 0.0060801124 0.009594536 0.00019594806 -0.00854646 0.0025332193 -0.0007111489 0.0056337263 0.0019928939 0.0033115195 -0.0009941327 -0.00300231 0.0030841283 0.0046564545 0.00076487416 -0.004234137 0.0043092184 0.0011184498 -0.004739545 -0.00606704 -0.007057879 -0.002990932 -0.003343304 0.0042186403 -0.0042015566 -0.0057308027 0.0018025938 -0.00016495095 0.00010380574 0.005538866 -0.003227026 -0.0042469082 0.0073424038 0.0021101986 0.001641596 -0.006797278 -0.002598434 0.002015094 -0.00013849518 -0.0033018456 -0.0038608708 -0.0063188653 0.0024129201 4.4306624e-05 0.00032331102 0.00365278 0.0029302235 0.002475814 -0.0019949444 0.0050776294 -0.007557253 -0.005267147 0.005738419 0.004121625 0.0035414766 -0.0049680215 -0.0013388072 -0.00019714107 0.0066857254 0.00092870893 -0.0006853059 -0.0031661193 -0.0016212541 0.0040546446 -0.0020537963 -0.0016721836 0.0041459957 2.861194e-06 0.00043933478 -0.00212772 0.0056152856 0.0011105938 -0.0044490686 0.0006152108 -0.0054976167 -0.003207124 0.0035596946 0.0042684106 0.005268505 -0.004054043 0.005730955 0.0048425747 -0.009658709 0.0020662614 0.0051635876 0.005645032 -0.006615386 0.0029331446 0.0041784504 -0.002870684 -0.006151917 0.003839319 0.00073234027 -0.00017320566 0.000941051 -0.007097788 -0.001839848 0.00034316225 0.0040015336 -0.005205867 -0.0035505125 -0.0005932337 0.005425819 -0.0037153622
192.168.001.005 -0.0016666835 -0.0002240114 0.0009893693 -0.0027464423 -0.0032846646 -0.004704876 0.00075683853 0.00078275776 -0.004798445 0.00460464 0.0027971272 0.0009012708 -0.0025756075 0.0059493063 -3.31662e-05 -0.0010602393 -0.0007343757 0.0048641777 -0.0071211746 -0.0013724298 0.0025633173 0.0012175763 0.0028280106 -0.00052031426 -0.0006213242 -0.00010216091 0.0020750652 0.0025422482 0.0007913922 -0.0016819799 0.00078768906 -0.0007532735 -0.0007263768 -0.003784774 0.002349409 -0.0024993978 0.0054108985 0.0011031628 -0.0010898112 0.0034579292 0.0048575685 -0.0012375932 0.0039150454 -0.0047863084 0.0029109602 0.0016055926 -0.0017845222 0.0049980623 -0.0060912613 -0.0046259514 0.0021251764 0.0019305076 0.0059173573 -0.0009901619 0.0038432004 0.0039195684 0.0035184058 -0.0015919446 0.0036682407 -0.0056267013 0.0028860467 0.0037660168 -0.0011939085 -0.0027867532 0.0009502539 -0.0012434885 -0.0022536516 -0.00074565504 -0.002738541 0.005014364 -0.0013819381 -0.005948371 -0.0041868794 -7.126073e-08 -0.0030150374 -0.0014325322 0.0014406252 0.0030202658 -0.004140924 0.0037558256 0.00011372112 0.0013235282 0.005253395 -0.0025655765 -0.004216061 -0.003737048 -7.305974e-05 0.0019316145 0.0038976215 -0.0052116187 -0.002394603 -0.00216079 0.005833611 0.0030590447 0.00043859222 -0.0012444134 0.0031863295 -0.005070267 -0.0049839173 0.0036480087 -0.0012541882 -0.001015765 0.00033493512 0.00090973044 0.0028750005 0.0052150493 -0.003163503 -0.0019173723 -0.00040208676 -0.002764639 0.0006213032 0.002428819 0.0029753312 -0.0020029645 -0.0027900864 0.00033854024 0.0009440301 -0.001302751 0.003585131 0.0017661148 -0.0011821766 -0.0012136097 0.0034154134 0.0035730947 0.0027679994 0.0010592723 0.00026257682 0.004456175
197.218.177.069 -0.008935384 7.827635e-05 0.0022335218 -0.0103155 -0.016820509 -0.0075136684 0.00532702 -0.006424308 -0.008089475 0.0036918137 0.00658741 0.006496015 -0.009967087 0.01437651 -0.010065029 0.0001073688 -0.00391005 -0.0019270908 -0.016540162 0.010033242 0.004748908 -0.0060781008 -0.00069577363 0.004995514 -0.0092196725 0.0064917384 0.007501966 -0.00567099 -0.0055310056 0.00197155 -0.0051109223 0.00855851 -0.0032621694 0.003755011 -0.0028269398 -0.0011790788 0.010813651 0.0052997824 0.0048618913 -0.006708069 0.0050493996 0.00052819034 -0.0035309475 -0.0031008949 -0.004678401 -0.004568763 -0.00078382 0.0033845 -0.01057602 -0.00452505 0.005800813 -0.004601388 0.0063063465 0.007197403 -0.0048215874 -0.0031303891 0.009774835 0.009844449 0.000992197 -0.013772996 -0.0066106645 0.004956125 0.0072187865 -0.0035547954 -0.0033477223 -0.009609711 -0.0045441515 -0.0036586435 0.0026015255 -0.00044347567 0.0049145883 -0.0020380914 -0.00042311323 0.009549366 -0.011625012 -0.0063325176 0.0060409186 0.0073106065 0.005738358 -0.0046723466 0.005205911 -0.0025672154 0.0029201913 -0.0009273799 -4.039864e-05 -0.001459643 0.002873905 -0.0022118865 -0.0004189178 -0.008550817 0.0005225249 -0.002549962 0.0032071557 0.000637151 0.004037995 0.003183195 -0.002696802 0.0031940076 -0.014134513 -0.0021087886 -0.0038006394 0.005321889 0.0061098277 -0.0028177602 0.007193349 0.008382581 -0.0159113 0.00806046 0.004970603 0.010438956 -0.009967908 0.0025913746 0.006700438 0.0052491263 -0.010682401 0.004103436 0.007064 -0.006074221 0.00016241996 -0.006848786 0.0030016592 -0.0026960152 0.004406021 -0.006086905 -0.009808004 -0.005140861 0.011076309 -2.8620132e-05
196.037.075.158 -0.006376783 0.004785571 -0.00022693799 -0.008571592 -0.020307727 -0.008100132 0.0031518461 -0.0038694679 -0.011168044 0.006421231 0.0015694194 0.0035676379 -0.0101659205 0.015667273 -0.010310434 -0.003651859 -0.0021958482 0.0013841982 -0.016739074 0.0077217203 -1.7785293e-05 -0.0044482267 0.0011108003 0.0061958795 -0.0031798743 0.0025762436 0.013716675 -0.0057576853 -0.007556659 -0.0009661661 -0.0049897525 0.0069291443 0.0032501102 7.8005076e-05 0.0006318326 -0.003494265 0.010216032 0.0036226609 0.0030410073 -0.011746331 0.008840821 0.001197991 -0.0018945019 -0.009246561 -0.0061277887 -0.007095637 0.0041704597 0.0032589168 -0.0068649678 -0.00096812914 0.0045728567 -0.0005217535 0.003265291 0.0049846033 -0.0071307635 -0.0057909796 0.0076677613 0.006604501 0.0023450125 -0.014564607 -0.0016742361 0.0068689054 0.006488962 -0.00377971 -0.0039184787 -0.013563399 -0.0041684536 -0.007663411 -0.0014639505 0.0041826065 0.0016633213 0.0006989091 -0.00236004 0.01039286 -0.006832901 -0.0068653664 0.0066196155 0.009460628 0.0015383101 -0.0011178124 0.0068536466 -0.0076109576 0.0037498856 -0.0055046156 0.000113585185 -0.0014947193 0.0002584253 0.0014656169 0.002429695 -0.01136266 0.0044152983 0.0014894636 0.0015665693 0.00040752697 0.008526967 0.0018252888 -0.0062057064 0.00060084916 -0.013297049 -0.00078231614 -0.004097102 0.008675076 0.00803568 -0.00867924 0.0061690686 0.01051648 -0.01761703 0.009469176 0.003408181 0.0054684053 -0.0036049131 0.00015906239 0.007343705 -0.0008278656 -0.014267143 0.006842329 0.008081301 -0.0020289894 -0.0013408106 -0.0041284533 -0.0009260792 -0.0006170097 0.0024955326 -0.011185227 -0.0043950784 -0.0072757425 0.006177609 -0.0033370592
172.016.114.207 -0.003667736 0.0032754017 0.0029008721 -0.0024183958 -0.0022857317 -0.001967773 -0.0010512595 -0.0018332903 -0.0016975836 -0.0016408061 0.002779122 0.0030782705 -0.0036213233 0.005826723 -0.00083667034 -0.0024184692 -0.003915703 0.0002791505 -0.0018367487 -0.0005501585 0.003238064 -0.0044523 0.0015605799 -0.0031934266 -0.0032909114 -0.0008341071 0.00095576316 0.0022317064 0.002144372 0.0013361429 0.0007698409 -0.0018691494 -0.000937619 -0.0021959872 -0.00019436977 0.00088648 0.0024091825 -0.0015108936 -0.0023207231 -0.0013618104 0.00095266977 0.000682859 0.0036134569 -0.0032267733 -0.002757049 0.0011920244 -0.0014583353 0.0004914576 0.00020511962 -0.0034501466 -0.0028734934 0.0033287685 0.00022714693 -0.0006875004 -0.0028292197 0.0032642197 -0.0018217935 0.0010088442 -0.0014317485 -0.0003031885 -0.0030892782 -0.00032181974 0.001271867 -0.0024989462 0.0011046873 -0.00073238 -0.00033907685 0.002071044 0.0037673686 7.687387e-05 0.0011825183 -0.003033735 0.0017807824 0.0023562713 -0.0017929 -2.0831649e-06 0.00031634013 0.0012004299 -0.00028988652 0.00023619097 -0.002513955 0.0012011414 -0.0014405837 0.0019599746 0.003089142 -0.0035239516 0.0019955237 0.00023777218 -0.001367254 0.0019506802 -0.0018952542 -0.0013438897 -0.0029871347 -0.0009543995 0.0045893216 0.0001415574 -0.0018443575 -0.002769777 -0.0050196685 0.0033441898 0.002711194 -0.0013533161 -0.0025095704 0.0009361768 0.0045495415 0.0011016928 -0.0056857695 0.0036759516 -0.0005383247 0.00035060738 -0.0045356755 0.002744664 -0.0013675423 0.0027793914 -0.0014379901 0.0027393738 0.0037714979 0.000108641674 0.0038267602 -0.0025121742 -0.003897509 0.00070849294 -0.0005501474 -0.004264521 -0.005109143 0.002481197 0.0027152558 -0.0037252256
172.016.113.084 -0.0045158886 0.0019180177 -0.003019493 0.0005213021 -0.0031970495 -0.00017880087 0.0011488574 -0.003909793 -0.0018331378 0.0025956347 0.0010839108 0.0028172254 0.0026156735 0.0006697592 -0.00040708773 0.0012425354 -0.00064332085 0.0038257076 0.0013588916 0.002607632 0.004191642 0.0022911408 0.001725211 -0.0024342474 -0.0030671256 -2.3243389e-05 0.0022514623 0.0010288067 -0.0018728541 -0.00012126527 -0.0013970784 0.0023113943 0.0017073787 0.002746445 0.0010772729 -0.0020019456 0.003072214 0.00084332394 0.0010336747 -0.0014399228 0.004465213 -0.003024659 -0.0002916874 0.0017413415 -0.0009190026 -0.0043875566 0.0018929687 -0.0032455989 0.002052583 -0.0036644673 -0.0026564163 -0.0012390084 0.0028336814 0.00094494753 0.0014969643 -0.0024601736 -0.0018031215 0.0023283758 0.0028557878 -0.0039563407 -0.0012921396 0.0005047101 0.0008455821 0.0028963806 0.0017946674 -0.0021595983 0.0011408778 -0.0016012666 0.002504965 -0.0019012664 -0.00026753056 -0.002929965 -0.0018786408 -0.0017348294 0.0008806272 0.0017461171 0.00025905715 0.00287271 -0.003612937 0.00019309358 0.0007832979 -0.0027632576 -0.00112687 -0.0029629515 0.0012611863 0.0027643004 0.0023914762 -0.003683558 0.0033385435 -0.0037628904 -0.002674762 0.003629939 -0.002996069 0.0019542696 0.0037658939 -0.0014340372 -0.0031007263 0.00015167664 0.0021537095 0.0018890945 -0.0020973606 -0.0010608217 -0.00303223 -0.002796706 0.0012921796 -0.00010947106 -0.0013208429 -0.0033377279 -0.00095112366 0.002460825 -0.001031837 0.0018406302 0.00039374962 -0.0011162154 -0.0020231986 -0.0005215931 0.0010637756 -0.0011319205 0.0034419692 -0.002022556 0.0018854215 -0.002376004 0.0035739837 -0.0033765316 -0.0028102899 -0.001112845 0.0030873932 -0.00090852875
209.132.031.011 -0.00022642646 0.0031149546 -0.0020642625 -0.0032840827 -0.00761172 -0.005093058 -0.00040587567 0.0023849886 -0.0047827424 0.0034474032 0.003366779 0.0040583056 0.0008756467 0.006976722 -0.0029952647 -0.00053821213 -0.00060444867 0.0010964051 0.00016778207 0.0023470079 0.0021871955 0.0017250301 0.0035828105 0.0031150891 -0.0035998872 -0.0025965553 0.005826497 -0.002041529 -0.0024797823 0.00035716454 0.0024472673 0.0051633753 0.00010417597 0.0032585904 -0.001993839 -0.001324614 0.0056509385 0.0032396768 0.0013081152 0.0007563366 0.0036122156 -0.002396883 -0.0021025157 -0.0045282184 0.0010760116 -0.005503401 -0.0015575408 0.0023404146 -0.002243305 7.7428034e-05 -0.0018440494 -0.0037769128 0.0036607126 0.005440316 -9.066303e-05 0.0010690264 0.0029942403 0.0026832272 0.00035555934 -0.00036153838 -0.00027194552 0.002041942 0.0039033939 -0.00027317376 -0.003646385 0.0015387554 -0.00036426546 0.0010829458 0.0041321875 -0.0016051452 -0.0018144822 -0.0012575045 0.0040097795 0.0036731148 -0.0041069584 0.00010302017 -0.002221538 -0.00013806671 0.0013872253 -0.0046002115 -0.0010613165 0.0017737425 -0.0009975757 0.00047501732 0.0006927225 -0.0025852534 6.5776934e-05 0.0031052728 0.0018716466 -0.0031500226 0.00088836584 -0.001840863 0.0011541583 -0.004134501 0.0048560835 7.2011e-05 -0.0013700657 0.003210013 -0.0033836924 -0.0035255046 -0.0022610016 0.003925607 0.00065653375 -0.0042347223 0.0019298249 0.0007321362 0.0006836831 -0.0019841304 -0.0022537683 6.4232736e-05 -0.0019071503 0.0031732705 0.0025493384 0.0022592228 -0.0040857824 0.00371544 0.0033088194 -0.0013100619 -0.002578538 0.00063334836 -0.0031023975 0.0006981677 0.0013504858 -0.005096394 -0.002655163 0.000814483 0.0034864927 -0.00038386753
194.007.248.153 -0.0048547084 -0.00088199327 0.004466309 -0.0053158323 -0.009645224 -0.0005248111 0.0011110147 -0.0037419347 -0.0036938214 -0.00061150413 0.0008881856 -0.00239766 -0.0037722357 0.004728347 -0.006074924 0.001990419 0.0016505973 -0.0035479984 -0.005941695 0.006767333 0.0031851786 0.0011281618 0.0026810486 0.00015547883 -0.0023459664 0.0026054492 0.0018758448 -0.0033678175 0.0006027274 0.0016951801 -0.0005606531 0.006245914 -0.0030207133 -0.0023736125 -0.0015674095 -0.0004352663 0.005913909 0.0015125538 -0.0023935789 -0.005328093 -0.0005294583 -0.0044139824 -0.003140227 0.0008731319 0.0009348906 -0.00026685174 0.0015013574 0.001426366 -0.0056942604 0.0011996652 0.0060097035 -0.0028349357 -0.0019020832 0.0068230275 -0.0038371752 0.0029261657 -0.00031380923 0.0016524825 0.0046592504 -0.008450003 -0.0003476601 0.0045677694 0.003965163 -0.0040619215 0.00031830266 -0.006029988 0.00080093887 -0.003624941 -0.0032272874 0.0051301126 -0.00073395896 -0.0015690593 -0.003342296 0.0060290946 -0.002755955 -0.0020944346 -0.00042334947 0.0034512777 0.0041648843 0.002869705 0.0014600125 -0.0048064427 0.0064221793 0.001300517 -0.00031970933 -0.0030307167 -0.0005336059 -0.0021183635 0.0010012347 -0.0028250657 0.0037674557 -0.003192943 -0.0004754063 -0.00096373423 0.003719917 0.004801679 -0.0013986931 -0.0029051118 -0.0030566433 -0.0014763975 0.0009439128 0.0027815527 -0.0019000962 -0.0030064834 0.0066731353 0.005807377 -0.0071022194 0.001345803 0.0013122183 0.0047576125 -0.0043586497 -0.00024722907 0.0007505377 -0.0008866934 -0.006961984 -0.0022363316 0.001478616 -0.0004892526 0.0014115255 0.001399144 0.00037254253 -0.00180817 0.003990247 0.00060186966 -0.0045212936 -0.0005959088 0.0037507291 -0.00028097196
172.016.114.050 -0.0063332208 0.006196361 0.0053090663 -0.008044107 -0.013922303 -0.01368259 0.003997316 -0.005494073 -0.0075963326 0.0017915149 0.0051639783 0.0070263827 -0.004204822 0.016885016 -0.014669075 -0.005116006 -0.0011552961 -0.0039742286 -0.016631814 0.006358111 0.004432478 -0.009809992 0.0057657775 0.0060814535 -0.0061067287 0.0049059857 0.0121440925 -0.0021996729 -0.009547247 0.0013810913 -0.0065913172 0.0070536924 -0.0012721088 -0.00022475478 0.0040785037 -0.002200232 0.01289397 0.009595748 0.006165236 -0.009013829 0.008655352 -0.0047766725 -0.0047709597 -0.007592372 -0.0076806853 -0.0076556783 0.00023089876 0.006682191 -0.006599784 -0.0017278866 0.005254175 0.00035654544 0.007262848 0.010051058 -0.007151469 -0.0038499895 0.012914857 0.0069180434 0.0023577402 -0.013189075 -0.004403129 0.0018639087 0.009312066 -0.0030809168 -0.004250343 -0.0052311663 0.0004205202 -0.0056498307 0.0017125662 0.0027814745 0.002018366 0.002349447 0.003509356 0.00981468 -0.011070148 -0.0047403653 0.0019588456 0.011502491 0.007014792 -0.0026593844 0.005270249 -0.00020677506 0.008561984 -0.0059744907 0.0028339878 -0.0018899137 -0.00092360517 0.0041752285 0.0011697107 -0.010264969 0.0002727271 0.0024213719 -0.0011551387 0.0016884872 0.010474039 -0.0015372189 -0.0062174182 -0.00023788038 -0.012644594 0.0013327952 0.0019572005 0.007953319 0.004823335 -0.0060956166 0.005051273 0.008274458 -0.015396628 0.0077771964 0.0026452234 0.0086137 -0.003453658 0.0048855296 0.006216874 0.0033821787 -0.01367537 0.005758585 0.005677588 -0.007530639 -0.0010572007 -0.007913753 0.00052294804 -0.0018732694 -0.0027500147 -0.00606943 -0.009811146 -0.0036377155 0.0038125354 -0.0036437595
195.115.218.108 0.00031026357 0.0009439527 0.002526192 0.00026451822 -0.0058280528 -0.000677051 -0.002023385 0.0026747412 0.0011184101 0.0024490787 0.0033862526 -0.00021889855 -0.0045108097 0.0020959948 -0.00058236584 -0.001403937 -0.0013104848 0.0019618657 -0.002125389 -0.00029066278 -0.0030508803 0.00048466923 0.0037924827 0.00014944363 0.0017385011 -0.0010016254 0.0033761205 -0.0029395018 -0.0014266248 0.0023797492 0.0027456335 -0.0008183153 0.0025420948 -0.0023430816 -0.0011292591 0.0011585816 0.0050026355 -0.002020904 0.0027646727 -0.003491933 -0.0026762718 -0.0024925454 0.003679232 0.0015212523 0.0029669348 -0.0017029078 -0.000108275686 -0.002243332 -0.0017089637 -0.004237253 -0.00047979355 -0.00017078122 0.0023206894 -0.0013408785 0.003221503 0.0034328941 0.0011360161 0.002592646 0.003012387 -0.004760983 -0.0016540983 -1.35874725e-05 -0.0015397405 0.0006798295 0.00073932944 -0.0008879828 -0.0023071705 0.0004955316 0.0036965923 0.0034447273 0.0018156192 -0.0034902138 -0.0015053619 -0.0018906177 -0.0005761427 -0.0021576604 0.0010646284 -0.0013176617 0.002173363 -0.0034483457 0.0023103713 0.002622322 -0.0027437622 -0.00052267034 0.0028717502 -0.002030309 0.0002942122 0.0008695415 -0.00021179326 0.0017601869 -0.0023199269 -0.0023918801 -0.00081775547 -0.0034541166 -0.0024004404 -0.0033709367 0.002852199 0.0008513618 -0.0021524348 0.0014421019 -0.0006360854 2.0843509e-05 0.004440076 -0.0007999015 0.00080841355 0.004449289 0.00010614525 0.0020008015 0.0012183604 -0.002789706 -0.0044051935 0.00023376546 0.0023602732 -0.0015159912 -0.0015382196 0.0042566704 0.003207986 -0.002424093 0.0030923653 -0.0023354983 -0.0020402244 0.00023704232 0.002382331 -0.0005743094 -0.00057828403 -0.0036731493 -0.0016809555 -0.0035048174
172.016.114.169 0.0002872591 0.004545272 0.00010580942 0.0008908876 -0.008657256 -0.0027518147 0.0038422295 -0.0020430074 -0.0052334606 0.005582792 0.0037688212 -0.0013005862 0.00014108291 0.005565336 -0.0043880492 0.0008351422 0.0023520922 0.0013848223 -0.008067618 0.0043074144 -0.0004822486 -0.0017606649 -0.00089203706 0.003848151 -0.0021159926 0.0010665259 0.0074942843 0.00043198315 -0.006552755 -0.0025952216 -0.0035887153 0.006822344 -0.0030195462 0.0027785923 -0.0016883465 0.0027848198 0.0041433396 0.00048527075 0.0016277519 -0.0035287205 0.005483358 -0.0024576175 -0.0022606908 -0.005306569 -0.002559977 -0.0022628682 0.000862973 0.0051293224 -0.0015241689 -0.0042419615 0.0053919298 0.0031374115 0.0019466132 0.0017616063 -0.0024109066 0.001616989 0.0035416596 0.00031313824 -0.0023153315 -0.0040178625 -0.0027909386 0.0036419258 0.00352678 0.0027479795 -0.0037169517 0.00020152063 -0.0028813807 -0.0045303027 -0.00056426966 0.0039003096 0.0005110275 0.0015403329 -0.0011905628 0.003961796 -0.0046968865 -0.004994218 -0.0012578189 0.002158035 0.003784681 -0.004443243 0.004097287 -0.0023840615 0.0048090937 -0.0023192316 0.0004133197 -0.0025663965 -0.0038416116 0.0030605674 -0.0032123732 -0.006022402 -0.0018802343 0.000392335 0.0040375213 -0.00221871 0.0058946554 0.00087017077 -0.0021505936 0.0032652041 -0.00042044965 -0.0039000695 -0.002173146 -0.0011359002 0.0056887544 -0.0004560016 0.002527574 0.0034722632 -0.007877779 -0.00087311526 0.006043974 0.002067645 -0.0029970852 -0.0019850153 0.002143662 -0.0024069822 -0.005117333 0.0028280998 -0.001215446 0.0011096892 0.0008527413 -0.0030029556 8.679448e-05 0.0012111097 -0.0024478564 -0.0058996007 -0.0040205377 -0.00065109803 0.0065791393 0.0018817034
136.149.142.178 -8.2797626e-05 0.0010739027 -0.0017908396 0.0012878724 0.002231176 0.0029846188 -2.2988323e-05 0.0028822736 -0.003936437 0.0033286244 -0.0034237464 0.00072892895 0.0017505637 0.003513719 -0.0005659268 0.0011738205 0.0023537723 0.00041030874 -0.003478224 -0.0030623036 0.0033834376 -0.00062967127 -0.00089545216 -0.002686143 -0.002620168 0.003996764 0.0008101944 0.0031878983 -0.0020403445 0.0027895356 -0.0034583404 0.0031122593 -0.0027241786 0.0030329532 0.00026250115 0.0013614898 0.004082864 0.00078508613 -0.002896464 -0.0011531673 0.0023809464 -0.0031252904 -0.0020467662 -0.0038825697 -0.0039968886 -0.00022507968 -0.0002099864 -0.0033489678 0.00013496714 0.0036785624 -0.0028502645 -0.00266562 -0.002553838 -0.00015435288 -0.0035336083 0.0015415723 0.0025448992 -0.003352397 -0.0033173428 -0.0015715437 -0.0029528013 -0.0026931893 -0.0013596585 -0.00288039 -0.0014291677 0.00079922803 0.0035875249 -0.00091451686 0.0018589672 -0.0018062665 -0.0017871313 -0.0019145975 0.0031382514 0.00017515253 0.0011271199 0.00076981133 0.0020626683 0.0007675194 -0.002200033 -0.0004580284 -0.0006665613 0.0013202598 -0.0027960553 -0.0022655374 -0.0007936126 0.00017340948 0.0020114675 -0.0037889597 -0.0026388098 -0.0034054508 -0.0030116194 -0.0011570427 -0.0035879433 -0.0024430421 -0.0018549275 -0.000521608 0.0035529768 0.00018649595 -0.003791559 0.0005986652 0.00085658557 0.002518878 0.00032831272 0.0036017431 0.0012779301 0.00097026426 -0.00053994276 0.0018314708 0.001702488 -7.182704e-05 -0.0016858613 0.00093242317 0.002113146 -0.0025925818 -0.00018892436 0.0019264752 0.0014824612 0.0015866056 0.0024345256 0.0030819238 -0.0033598805 0.0026873834 0.003510267 -0.0011137103 0.0014783916 0.0036522527 0.0039263153 -0.0023353326
207.136.086.223 -0.0026268184 0.0038280943 -0.003084919 -0.005423405 -0.00344397 -0.00011419409 0.0050486764 0.0013569768 -0.0033548868 7.4030264e-05 0.0012241943 -0.0003321867 -0.00015101695 0.00631668 -0.0031896255 -0.0029614973 -0.0006127411 -0.0018361885 -0.00064807985 0.0015036679 -0.00029431147 0.002200533 -0.0023246286 -0.0028128326 0.0013382733 -0.00031262636 0.00016294757 -0.0040057646 -0.0006519732 -0.00017373024 -0.00434539 0.0043748002 -0.0035849677 -2.7607453e-05 7.0563565e-06 -0.00041008778 0.0018683025 0.00062026933 0.0016291487 -0.0020744558 0.0042608627 -0.00027612536 0.001807361 -0.0025662044 -0.0042856843 -0.0032994107 -0.002112601 -0.0025690217 -0.005204599 0.002461475 0.002650879 -0.0028404302 0.00034457375 0.0003787904 0.0016012164 0.001431725 0.003411293 0.004922379 0.00072233495 -0.0045014615 -0.003005934 -0.0021304293 0.0008288848 -0.0033586924 -0.000370276 0.0019288729 -0.00216302 0.00042460967 -0.0032026432 -0.0027397878 7.924723e-05 -0.002008282 -0.0022291264 -0.0021442168 0.0005267511 -0.0028849444 0.0012947511 0.0025366067 0.00086959515 -0.0028209286 0.0012108785 -0.002145694 -0.0013409372 0.00013871647 0.0036910742 0.0022541457 -0.0010281234 -0.0027657864 -0.0010018595 -0.002404417 0.0040937145 -0.0013772871 0.001338075 -0.0014811215 -0.0016625581 -0.002355419 0.0014284867 -0.0010187182 -0.0018136059 0.0023112637 -0.0017388393 -0.0016204942 -0.0023043158 0.0011937547 0.0035537658 0.0027290212 -0.0048279874 0.003940012 0.003241813 0.0019207807 -0.0051643946 0.0039326604 0.0023278994 0.00053530914 -0.0054216413 -0.0014803984 -0.002698033 -0.0006573573 -0.0012291725 -0.0019171475 0.00069056556 -0.00060747453 0.0037115638 0.0019975484 0.00088371936 -0.0033792055 0.0030488884 -0.0021850835
192.168.001.020 -0.0014338982 0.0022269776 0.0014814644 -0.0033822318 -0.000805516 -0.0022849452 0.0048107468 -0.005159055 0.0007628911 0.0011784793 -0.0027525174 9.1261274e-05 0.00031931346 0.004021151 -0.0036177544 -0.002208203 -0.0003435831 0.003790674 -0.004529084 0.0007114201 0.00035924045 -0.0021293457 0.00022161393 0.0007751745 0.00048748346 0.0008899101 0.0025345113 -0.0024277566 -0.00016941334 0.001968529 -0.0018681127 0.003282923 0.00026294566 -0.0019529265 0.0038265076 0.0017355257 0.0016796645 -0.0021278884 0.0027616518 -0.004998353 -0.0019874168 0.0003987611 -0.0036217293 -0.004781706 -0.0019267176 -0.0001687243 0.0015797404 7.713077e-05 -0.0018819399 -0.0008534511 -0.0020083261 0.00013307398 0.0021026365 -0.0018034943 0.0020808477 -0.0017930078 -0.0016708804 -0.0014478242 -0.0018354726 0.0011014816 -0.0015848358 0.0026676706 0.0019436214 -0.0025547347 -0.0008653605 -0.0049393824 -0.0016005251 -0.0016108655 -0.0012897667 -0.0019223187 -0.0024501896 0.0014270967 0.0035410172 0.002368725 -0.0029771808 0.0016528638 0.0011781882 -0.0016974077 -0.0004024049 0.0022212823 0.0039448957 -0.0013839244 0.004762119 -0.0005168922 0.0031828512 -0.0026781133 0.0009288527 0.0015134971 0.0036414736 0.001369147 0.0030408285 -0.0016693722 0.0014581382 -0.0033308947 0.005429859 0.0017772631 -0.0020731622 -0.00092645956 -0.004183923 -0.0022487405 0.001956121 -0.002368229 -0.002368373 -0.004870466 0.003943876 0.002888124 0.0011624643 -0.0005694572 0.0011710861 -0.0010922754 -0.0028101187 -0.0032628626 0.0034826023 0.0025895587 -0.0007373666 0.00022615207 0.00409562 -0.0018204562 -0.00059235556 -0.00017812358 0.003365298 -0.0022345125 -0.0020061298 -0.002800068 -0.004796368 0.00043582165 0.0020792945 0.0020065054
172.016.112.020 -0.0067747817 0.003879629 0.0019402923 -0.008281672 -0.010031141 -0.0094981305 0.003202124 -0.0071960106 -0.002960414 0.00587203 0.0017302787 -0.00021068545 -0.0077850875 0.008447284 -0.0076569025 -0.0023687559 -0.0038829602 0.0031376444 -0.009214079 0.0032327669 0.001213349 -0.004895519 -0.00071250985 0.0046444135 -0.0022607665 0.00013968779 0.011589244 -0.007284329 -0.009925708 -0.00077689986 -0.004560118 0.009320899 0.0006278155 -0.00019212988 -0.0007098416 0.0015703526 0.0062762247 0.0052160956 0.0012166988 -0.008276494 0.009452309 0.00134357 -0.004208945 -0.006091799 -0.0026517445 -0.008740879 -0.00017375553 0.0001826181 -0.006086468 0.0012437301 0.005825902 -0.0023398001 0.0029609203 0.0026296992 -4.8870686e-05 -0.0056518223 0.008332808 0.00927877 0.0054672053 -0.0063893814 -0.002725247 0.007672171 0.0046638665 -0.0017429633 -0.0031695869 -0.0074527347 0.00045756955 -0.004952364 -0.001898532 0.0008978033 -0.0014835894 0.0017692427 0.0028191397 0.009231761 -0.0073563745 0.00015311537 0.0040054587 0.0039026733 0.006115987 -0.0038617214 0.005258749 -0.0012260908 0.006934757 -0.0016637216 -0.0013602414 -0.0019713775 -0.0006402683 0.0027961258 0.0011691962 -0.005795725 -0.0027280368 -0.0024210692 -0.00067502237 0.00088603393 0.004011819 0.0043993676 -3.891182e-08 0.002539484 -0.00657597 -0.0043298285 0.0018751812 0.0061559584 0.0060541113 -0.0054503893 0.0102348495 0.008000876 -0.010516571 0.0055451244 0.0023553935 0.008002852 -0.0010696102 -0.0014159537 0.00085134874 0.0028952663 -0.00752154 0.0017322297 0.0073672207 -0.004410953 0.002164217 -0.0058606565 -0.003936633 0.0010183296 -0.002831106 -0.005810327 -0.0039889608 -0.0013598794 0.008945076 -7.419299e-05
172.016.112.194 -0.002239514 0.00055000803 0.0013196472 -0.004004454 -0.0013247245 -0.0027663675 0.0027012096 -0.0019440391 -0.0012951702 0.0027137713 0.0033590326 0.003007937 -6.8910536e-05 0.002427804 0.0024709818 -0.0024543528 -0.0037310482 -0.0005186571 -0.0006687508 -0.0017944329 0.0031964323 0.00058353815 4.7358233e-05 -0.001237594 -0.0032252162 -0.0007497676 -0.0013489366 -0.0028050302 -0.0028056458 -0.00014129952 -0.0030780495 -0.00094308064 -0.0027377915 -0.0024269945 0.00030717673 -0.0038194954 -0.00014860186 -0.0019992865 -0.0013652802 -0.003323857 -0.0019464239 0.0022073467 -0.0034333672 -0.0039744047 -0.003639255 5.4798045e-05 0.00021252828 -0.0034968725 0.0011650191 -0.0020687883 -0.0016423971 -0.003189966 0.0018571741 0.0018250826 -0.0024424598 -0.00017207615 0.00018095382 0.00019504064 0.0038046169 -0.0019653472 0.0012763361 0.0006505932 0.00398775 -0.0014327194 0.0030637577 -0.00016927991 0.0024950204 -0.003779302 -0.003804133 0.0037535073 0.001227175 0.0025212313 -0.0024943303 0.0037726294 -0.0024233486 -0.0016262186 -0.0013804622 0.002820596 0.002745195 0.002796215 0.0016627245 -0.001244064 -0.0009125552 -0.002509298 0.002948693 -0.001846543 -0.0038790118 0.0025965823 -0.0038015987 -0.00389555 5.0087838e-05 -0.0032622907 0.0035811295 0.0029594316 -0.0031434456 0.0030137503 -0.0005314743 0.0023469166 -0.0007025379 -0.0017060428 -0.0016308841 -0.0006497259 0.0013269521 -0.0008176024 0.0003263415 0.0041394252 -0.003216013 0.003189591 0.00027525309 0.0032514138 -0.003276167 0.00024993485 0.00019923705 0.0033236456 0.0011095279 -0.0027506305 -0.0022004833 -0.0018451781 0.002105866 -0.0036888244 0.0020257758 -0.0020032946 0.00045474517 -0.0017293367 0.002714622 -0.0005618986 -0.0016352239 -0.0009597823
172.016.113.204 0.0002005096 -0.00091299025 -0.00071901304 -0.0023849297 -0.0026708401 -0.00050152245 0.0026910894 0.0023310808 8.590297e-05 -0.002439578 -0.00082720426 0.0018821458 -0.0028174124 0.00038943472 -0.0026718006 -0.001309623 -0.0016711778 0.0035931203 0.0005632469 0.0006395258 -0.0027954679 -0.0011686455 0.0032134114 -0.0024606877 0.0036993027 -0.0033272272 0.0029103477 0.0013446644 0.0008847271 0.0023807841 -0.00402767 0.001932371 -0.0015984119 0.0032782794 -0.0037550717 0.0020754936 0.0010474579 -0.0007221132 -0.0022428525 -0.0020892394 -0.0035548874 -0.00253876 -0.0013142502 -0.0021215195 -0.0034692837 0.0013180989 0.0036560122 0.0019655814 -0.0032994365 0.00043384856 -0.0023659435 0.0011455371 -0.0011231102 0.0031262366 0.0024862713 0.002338241 0.0009785931 0.0004401995 -0.00023983707 0.0021815966 0.0012412142 0.00027974427 0.0012819258 -0.00329164 0.00025506658 -0.0030437447 0.0021066102 0.0037527322 -0.003598091 0.001072848 0.0027912955 -0.0010186944 -0.0012123053 -0.0028488925 -0.00271064 0.0008840831 0.0006533398 -0.0023136514 -0.0033027332 0.0013831515 0.002721409 -0.00089830277 -6.641621e-05 0.0024761488 0.001306956 -0.00030857846 -0.0021405797 0.002228636 1.5322741e-05 -0.0010428228 -0.00067519664 -0.0028072924 0.0030245678 -0.00012040675 0.0031050765 0.0009357065 -0.0010431658 -0.001193303 0.0014182236 0.0018606817 0.0017409064 0.0023080492 -9.3475675e-05 -0.0023377663 0.0017865801 -0.0008828448 0.0030404963 0.0038709124 0.0014476852 0.00093332113 -0.0038403275 0.002391338 -0.00040163248 -0.0024852175 -0.0027539607 -0.0019212967 -0.00095971255 0.0036608381 0.0020499767 -0.003755322 -0.0018316853 0.0030835907 0.00012717313 0.002536893 -0.001921484 0.0023654671 -0.003379032 0.0035982933
195.073.151.050 -0.00044744817 -0.0015038983 -0.0019668548 -0.0036304586 -0.007179195 -0.0052829934 0.0009920825 0.00065520144 -0.003554713 0.0039763357 -0.00030259736 0.0020065003 0.00040678115 0.006488633 0.00020467874 0.001597469 -0.0006258989 -0.00064162817 -0.0017451665 0.0024939936 -0.00073278707 -0.0048675467 0.0015550865 0.00068513385 -0.0023921388 0.0041960836 0.0037217678 0.00030888536 -0.00056685193 0.0038251563 -0.0038851968 0.00074682466 0.0009847907 0.002244171 0.00027613674 -0.00040537323 0.0060041556 0.00080759614 -0.00015951233 -0.0020151457 0.0036305005 -0.0041891495 -0.0020903838 -0.00509495 0.0017029967 -0.0007193226 -0.0022174332 -0.0011580652 0.001990895 0.0007921807 0.0045707175 0.0012900622 0.0006466926 0.003651777 -0.00245852 -0.00024714138 0.00071175385 -0.00016049412 0.004529625 -0.00041703787 -0.0018126818 -0.00011591514 -0.0016211479 0.00331813 -0.0034033237 -0.001996731 -0.00321262 0.0007775808 -0.0009217258 0.002908694 -0.0013207092 -0.0032576355 -0.0005313459 0.0038266024 -0.0016567399 0.0001822107 0.004777916 0.00039112364 0.0041553555 -0.0020775034 -0.0025848448 0.00091480213 -0.0008488296 2.1290194e-05 -0.0008458232 0.003181913 0.0014289434 -0.0031737231 0.0009812708 0.0013428229 -0.0010459959 -0.0041095046 -0.0020510335 -0.0029264626 0.004094403 0.0035241777 -0.0019476711 -0.001473829 -0.0043171896 -0.0014808192 0.0023659656 0.00090893265 0.00088178343 -0.0038815734 0.0019324875 0.003748192 -0.0009585243 0.0018826905 -0.0020040767 0.0034177545 -0.0047979224 0.0024463423 0.00036772093 -0.0033055355 -0.0054931752 -0.002008323 0.0003494397 0.001196724 0.0024763097 -0.003086305 -0.0038277379 0.0016917072 -0.0030460397 -0.0023679594 0.0021542427 -0.0033614843 -0.0013077869 0.0024103017
151.193.131.006 -0.0024304946 0.0013135775 0.00065775606 0.0013514811 -0.00042957425 -0.0022646808 0.0033132406 -0.004204604 0.0021776115 0.0022911015 -0.00029177233 0.0032257468 -0.0040557263 0.0028241281 -0.0008221179 0.002068583 -0.0026559376 3.6962247e-06 -0.0024645443 -0.0018708524 0.003294957 -0.00086093973 -0.0005464577 0.003141637 0.00024553615 -0.0005738892 0.0019769543 0.0025313913 -0.001952661 0.00092695106 0.00019838205 0.001917866 0.001112766 -0.0034277178 0.0005130891 0.0029670834 0.004155804 0.0014359454 -0.002226038 -0.0002637786 0.00011822677 0.0030216265 0.0015856714 0.0006165645 0.0007607964 0.0006514988 0.0016946854 -0.0012558986 -0.0010628357 0.0026990375 0.00023174589 0.0011649897 0.0012096949 0.002711245 0.0013024156 -0.00019341148 -0.0013446345 -0.0021867012 -0.00016104101 -0.003670878 0.0025332142 -0.0029234646 0.00050546916 0.00089113717 -0.0016566003 0.0008440311 -0.001821405 0.00027055998 -0.00024921738 0.0017506662 0.0010650466 0.0025478615 0.003821869 -0.0009393719 -0.001958583 0.0032412366 0.00023079566 -0.00044734133 -0.002601128 -0.0009560838 -0.0030566736 -0.0018090026 0.0009489885 -0.0034476384 -0.0022858554 -0.0025884495 0.00044640718 -0.0018535285 0.0024014902 0.0005003682 0.0030160556 -0.003262198 -0.0017802789 -0.0017478397 0.004202012 -0.0021617264 -0.0022773605 0.0002906446 -0.0045420513 0.0007307807 -0.0028660677 0.0030836682 -0.0012257801 -0.0018585346 -0.0025269978 0.0038293381 -2.660614e-06 -0.00075787946 0.0006947443 0.0029783433 0.003586604 0.00019104325 0.0026340084 0.0029836318 0.0026073304 0.001441499 0.0032465865 -0.002491604 -0.00028027606 -2.5772038e-05 -6.422131e-05 0.0021419143 0.0007287461 -0.002105352 0.0022572747 8.506674e-05 0.00037717458 -0.0007578275
192.225.036.003 -0.0017475208 -0.002545724 0.002897878 -0.002274086 -0.0010574969 -0.002563309 -0.0034934196 0.0013635975 -0.0037805792 0.0006200906 -0.00080969435 -0.0017923292 0.0008893233 0.0038173397 -0.00392283 -0.0023364509 -0.0006416628 -0.0038006536 0.00093848497 -0.0029457926 0.002602197 -0.0014008713 0.001804998 0.00073389127 0.00082778453 0.0010001853 -0.001622852 -0.0013880114 -0.0014770604 0.00010878647 0.00097015884 -0.00091148017 -0.0012383796 0.0031741292 0.0010497042 -0.0013550651 -0.00060666713 -0.0014414113 -0.000456648 0.0023491813 0.00086578715 0.0016407053 -0.0002518333 0.0036552136 0.0022587324 0.0009604338 0.0003388629 -0.0034186766 -0.0022384112 0.0036968736 -0.0015144842 -0.0017781254 0.0015147821 -0.0031810605 0.0026548451 -0.0011390866 0.0026631616 0.0032028968 0.0030552652 0.001643157 0.0020459394 -0.0015974676 -0.002949565 0.000116156836 0.0033913443 -0.003958306 0.0019914906 -0.0019612594 0.0028203034 -0.0014180379 -0.003065846 0.0021518401 0.0020121785 -0.0024356816 -0.001315833 -0.0027982222 0.0035350127 -0.001342892 -0.0021345285 0.0008026256 0.00042749767 -0.0033905376 -0.002136874 0.0019509421 -0.0019851674 0.0015207552 -0.00050984573 -0.0016924883 0.00055436627 0.002444993 -0.0007321433 -0.003825191 -0.0017590683 -0.0014578584 -0.00018606446 0.0017206132 0.0011098497 0.0032348204 0.0030623756 0.001332489 -0.002133904 -0.0016057732 0.00027841548 0.0030359467 -0.002825201 0.0019069462 -0.001993274 0.0009082559 0.00081610004 0.0012876127 -0.00020907942 0.0033884868 0.00091045245 -0.0030680266 0.00032369583 0.00072166184 0.002011729 -0.0038593856 0.0026479273 0.000918177 -0.0012251498 0.0014754393 -0.001996454 -0.0031866813 0.0037675502 -0.0007711286 0.0023734577 -0.0027237968
172.016.112.207 0.0005387258 -0.0023218316 0.0013180707 -0.0037909956 -0.00021412964 -0.0008414408 0.0012292633 -0.00088885485 -0.0025254113 0.001368262 -0.0010479356 -0.00074281555 -0.0030787748 0.002229065 -0.0017880275 -0.0035580362 0.0021435472 -0.0003246771 -0.0026745745 0.0025671546 -0.0021190739 -0.00096216163 -0.0035973417 -0.00076608063 0.0012197533 0.0002833945 -0.0024391904 -0.0017543475 -0.003022566 0.00033938672 0.0018979154 0.001448123 -0.0010823597 0.003789735 -0.00036808837 0.0016436444 0.0028254231 -0.00029341312 -0.0016710956 -0.0016605848 -0.00368174 -0.0030856947 -0.0036292595 -0.0009764579 0.0007899152 0.0037067397 0.0017343282 -0.00026286521 2.6471665e-05 -0.001988834 -0.00022715231 -0.0031636502 0.000543406 0.0033079153 -0.0031389785 0.0010137263 -0.0033874537 -0.0038358124 -0.0014926158 -0.00014596802 -6.3524196e-05 0.0007003376 -0.0012798512 -0.0017354173 -0.0022454516 0.0014368559 0.0030962024 0.00087732717 -0.0030792688 -0.0030949146 -0.0013659487 0.0020671983 -0.001199781 0.0015063464 -0.0035386446 0.0020794289 -0.0012861193 -0.0005027577 -0.0030390054 -0.0030640666 -0.0021081152 -0.0023586075 -0.00042597373 -0.0016902417 -0.00013452498 0.00045265243 -0.003229724 0.003753813 -0.00075516466 -0.00018844708 -0.0026218484 -0.003669096 -0.0013382551 0.0019160797 -0.0009928973 0.0033051623 0.00019391642 0.0017507647 -0.0023622974 0.0026891916 0.00053014816 0.001231141 -0.000573995 -0.0022809508 8.22601e-05 0.00042107186 -0.0028940958 0.0033500295 0.00039410632 -0.0024434286 -0.0006232785 0.0022898747 -0.00090600864 -0.0033941946 -0.0040614824 0.0034953349 0.0036228218 -0.0009356652 0.00093182403 -0.002620047 0.0008098107 -0.0018505442 -0.00071675284 0.00016337764 -0.0024932742 -0.0012909442 -0.0017213211 0.0010077622
206.015.106.088 -0.0024426053 0.0033134932 -0.00018518654 -0.002771906 -0.002622499 -0.0031304597 -0.0028704966 9.714393e-06 -0.0007634914 0.0025181992 0.0032295736 0.0008358037 -0.0043446673 0.0006187926 0.0016469165 -0.0010695257 0.0019767527 0.0011097005 -0.004656773 0.00043746873 -0.0020610015 0.00036305207 -0.0011606286 0.0006779159 0.0014009573 0.0030707556 0.0037002384 -0.003151902 -2.0534906e-05 -0.0023809946 0.00010069279 0.0008724564 0.0023338427 0.0014956584 0.0036679725 0.001575723 0.004223952 0.004783344 0.00011852539 -0.0017242052 0.0033699255 0.0013014463 -0.00020565056 -0.0031076332 -0.0035486235 0.0018806646 -0.00028905575 0.0007791759 -0.0007931874 -0.0038654974 0.0019761173 0.0009042473 0.0016783392 -8.477637e-05 -0.004020797 -0.001029944 0.0034175576 0.003387638 -0.0020166973 -0.00070193177 0.0029661092 0.0009015519 -0.0008343265 -0.0034342739 -0.003704894 -0.0007020817 -0.0009262477 0.00088611216 0.0027279337 0.0027549413 -0.0034058003 0.00090314454 0.001774869 -0.00010079716 0.00070247287 0.0024740244 -0.0023306818 0.003751423 -0.0003611456 0.0034410157 -0.0033525464 -0.0018831864 -0.0014332889 0.002821865 -0.0017142319 -0.00018402103 0.0019267567 -0.0023097426 0.0031180214 0.0014403295 0.0007121646 0.0019861846 -0.00051360525 -0.0020803646 0.0016565248 0.0013345457 -0.0033460686 0.0012420381 -0.00070911937 -0.0026959255 0.0018231986 0.0013095823 0.0038985773 -0.0027871726 -0.002479265 0.0012743486 0.00027548382 0.001567733 0.0031420076 0.0037508751 -0.0036772557 0.000943627 0.0002803011 -0.0017629173 0.00085792504 0.0011612189 0.0028600579 -0.0028793705 0.0005081892 -0.0006413227 0.0004808047 0.00018340595 0.0016887726 0.0029538393 -0.0011658771 0.0017468426 0.0021405856 -0.0021437174
172.016.112.149 -0.0035539512 -0.0026427717 0.0025541815 0.0016272864 -0.003300054 -0.0038980043 0.0008934566 -0.0011931136 0.0013347969 0.002127763 0.0037441573 -0.0025810546 -0.005140147 0.0030632522 -0.00131378 0.00020637206 -0.0021480422 0.0010417615 -0.0070222993 -0.001541961 -0.0012055724 0.00021225392 0.00073663995 -0.0009784023 -0.0020445841 0.0036680547 0.005409507 3.4683966e-05 0.0005327761 0.0011536633 0.00094394427 0.0026101647 -0.0016144157 -0.002053017 0.0038637042 0.0014736073 0.00022415785 0.00065677566 0.00021448667 -0.003651347 0.0056649833 -0.0007533561 0.0028651715 -0.0050045033 0.00061155047 -0.004294423 0.0039937147 0.0015362876 0.0016365724 -0.0021348656 0.0030963565 0.0017873534 -0.0019374889 0.0054912367 -0.00010700655 -0.0037953816 0.0031226075 0.00061236066 0.0033991383 -0.0010593593 -0.0019769366 0.0022156108 0.0005282912 -0.00016349045 -0.0019522788 -0.0014781341 0.0023345228 -0.004770359 -0.0015952531 4.1777967e-06 -0.0017631095 -0.0019408338 0.0036301245 0.0025305843 0.00056667073 -0.0033959425 0.004675031 0.0048885387 -0.00013806473 -0.0009530313 0.00070727634 -0.002154366 0.0009320285 -0.003711772 0.0017378384 -0.0032158324 0.0037593828 0.0039485265 -0.0022671083 -0.0054597105 -0.0017495637 -0.0030971295 0.00017746186 0.0016430039 0.0040103956 -0.00043438835 0.00046270335 -0.0025038035 -0.0054676337 0.0014945581 -0.002760746 -0.0011946608 0.0009899592 -0.0021743719 0.004461309 -0.00141399 -0.0011187957 0.002741654 0.0029694655 0.0038835655 -0.004028356 -0.0020196114 0.00078730093 -0.0014021295 -0.0012695163 -0.002343934 -0.00092846085 0.0018416699 -0.00024237565 0.002316832 0.0036278954 0.0009383875 0.0003076649 -0.003869863 -0.00017555014 0.0007334684 -0.0003461825 0.00016536991
137.245.085.134 -0.0012072775 -0.0014322818 -0.002049555 0.0024351536 0.00019138321 0.002525743 -0.00071130437 0.0021837298 0.0013776666 0.0038984474 0.00040759816 0.0012684014 0.00025722402 0.0013082514 -0.003246507 0.0026828647 -0.0014359029 -0.0009826459 -0.0026226 0.0033690226 0.0016495861 -0.0030230582 -0.00048191068 -0.003466233 -0.00096528715 -0.0035670316 -0.0020559372 0.002902266 -0.0031098037 -0.0013527534 0.002031063 0.0013298513 -0.0016824701 5.9312106e-06 -0.0032694312 -0.00315937 0.0004259313 -0.00017580889 -1.4737396e-05 0.002935514 -0.001365852 0.0022384422 0.0015715661 -0.00035107855 0.0009919225 0.0017843841 0.0017528279 0.0012305519 0.0031481993 0.0023414001 0.0031977086 -0.0017522295 0.0029248665 0.00097387127 0.0030500134 0.0026916417 0.0019168833 -0.00013921072 0.003607395 -0.002211846 -0.00015897916 -0.00027487797 -0.0018032716 -0.0020101846 -0.002968827 0.0012029671 -0.0012110287 -0.0011921988 -0.0015027273 0.0036093344 -0.0020584674 0.0019773769 0.0014395571 0.0033314875 0.00049129874 -0.0031951463 0.00012506654 0.0020772007 0.0006046186 -0.003297993 -0.0007614566 -0.0032057064 0.001815014 -0.0017951844 0.0020998537 0.0017335633 -0.0027425142 0.0012784251 -0.0029870514 -0.0004222845 0.002961923 0.0030959733 -0.0014242699 0.0010324431 -0.00020048197 -0.003217412 0.0033214914 0.00034813548 0.0024734547 0.00021673414 0.00030702943 -0.0019610445 0.0033038575 -0.0012463541 -0.0007872895 0.0018202666 -0.0011664103 0.002409904 -0.0017129385 -0.0028082605 0.00294813 -0.0014641855 0.0028589838 -0.0016685663 -0.0010072754 0.0039125434 -0.0033921027 0.0028923445 0.0004900578 0.002529666 -0.003482831 -0.00019242323 0.00030655004 -0.0029791715 8.7395936e-05 -0.0017556912 -0.0035457332 5.926148e-05
172.016.113.105 -0.002790036 -0.0032297557 0.0017113694 0.0021815 -0.0007260806 -0.0023975584 -0.0029649162 -0.0022333069 0.002337797 -0.0016553815 0.0041054813 -0.0034118579 0.0009789097 -0.0009343246 -0.003130667 -0.0014931668 -0.001246642 -0.0030472467 0.00014025322 0.0028134258 -0.0015020645 0.00063701905 -0.0015756888 0.002779874 0.0020735126 -0.0011406116 0.0035466927 -0.0005897784 -0.00041268897 -0.0031374206 0.0028953836 0.0011665663 0.00087707693 -0.0017213284 -0.00030957363 0.0004738186 0.0041040457 0.0030593686 -0.0019789475 -0.0026725489 0.0046721064 -0.0015040316 -0.0021664335 -0.0014265747 -0.0028158058 0.0012906755 -0.0006333957 0.0041285064 -0.0014550602 0.0031378332 0.0011578777 0.0020121217 0.0018086461 -0.0027768333 -0.0037914878 -0.001463328 0.0017225755 -0.0029667052 0.0023940548 -0.0025020961 0.00032390474 -0.0020967615 0.0032688365 0.002844276 -0.0019997063 -0.0013653089 0.0016044923 0.0031167269 0.0010134965 3.5644625e-05 -0.0017943161 -0.0011834088 -0.002864653 0.0015154979 -0.003949606 0.0016656475 0.00030544505 0.00020025353 0.0017204429 0.0028119078 -0.0017486927 0.00036319642 0.0028812937 0.0032851521 0.0030138136 -0.0010628466 0.0026081752 -0.0005952869 -0.0022108736 0.0020758882 0.0002499204 -0.0028460564 -0.0027288017 -0.00022731889 -0.0013026698 0.0023665072 0.0014045181 0.0034382492 0.00032291075 0.0031076688 -0.0025653057 -0.00036444503 0.004054472 0.0014112727 0.0005654934 0.004049226 -0.0040305555 0.0027831553 0.0006476719 0.0047433865 0.0020705261 0.0014132062 -0.0023532633 0.0038191192 -0.0033117454 -0.0031106665 0.0018943485 -0.0022482756 2.166981e-05 0.0021030183 -0.001463312 0.0022295355 0.0007759026 -0.0012741575 -0.0019685193 0.00022345237 -0.0020355394 -0.0033756709
143.158.016.069 -0.0031697727 0.0023241744 0.00015816046 -0.000614085 -0.0049267793 -0.0002535058 -0.0013689542 -0.00038030453 -0.002046981 0.0018002746 -0.001914459 -0.000651414 3.844306e-05 -0.001290726 -0.00372431 0.00067733723 -0.00057995337 0.0028286926 -0.002122331 0.002185889 0.0037446574 -0.0026329763 0.0034385787 0.0022040315 -0.00076996384 0.000576727 0.0036622917 -0.00021106142 -0.0015047002 -0.002804866 -0.0031457292 -0.00019643246 0.00247746 -0.0021118515 -0.003354992 -0.0010186061 -0.0018140648 0.00023038035 -0.00078425667 -0.003164096 0.0032708128 -0.0020330315 -0.00022738268 -0.0023621353 -0.002111455 -0.0015513002 -0.0015077265 0.0026210577 -0.002809871 0.0004195181 0.002773333 -0.002716148 0.0035092006 0.004321116 -0.003909004 0.0017839457 0.0021138212 -0.002480809 -0.0028699148 -0.002077872 -0.0027003135 -9.768194e-05 -0.0006346898 -0.0020377033 0.0033108566 -0.0033733784 -0.0023992353 -0.003876206 0.0013560122 -0.0023288599 -0.0021735188 -0.0027818978 0.0028935869 0.0033370545 -0.0035513032 0.0005564529 0.0006520961 -0.0015638651 0.0039467653 0.0026040045 -0.0018869657 -0.0012693132 -0.00044597255 -0.0031284026 0.0037997053 -0.0033044727 -0.0027382027 -0.0031559698 0.0015747842 0.0034056886 0.0015584639 0.0017857275 0.0015855838 0.0022073672 0.00192797 -0.0036378317 -0.0011232139 -0.0013595157 0.0012401291 0.0014274631 -0.0012572383 0.0034593747 -0.0021130987 -0.003869086 -0.0030670234 0.00039645037 -0.0045364415 -0.001392375 0.0034613074 0.0040226234 0.0012022322 -0.0014275203 0.00065060693 0.0031401461 -0.004353653 0.001739644 0.0003783767 0.0014408764 -0.0035618262 -0.0018644342 -0.0035472107 0.0009195186 -0.0021746862 -0.003600868 0.0024189807 0.001812056 0.003722267 -0.003484101
187.187.187.187 0.0017442204 0.00085511355 -0.0035701767 0.002649097 -0.004686323 -0.002946786 -0.00043601549 0.0013362577 0.002585515 -0.0027360823 0.0006888467 -0.000111260066 0.0027032865 0.0034640103 0.001717301 -0.0019205507 0.0005799598 -0.0029110396 -0.003402439 -0.0012940249 -0.00068352546 0.0016059115 -0.003449835 0.002366405 0.001559183 0.0029928521 0.0027477643 0.0010155034 0.0010177552 0.0014597755 -7.901483e-05 -0.0015993878 -0.0029141926 0.0031059335 -0.0036696272 -0.0039293217 0.0014128076 0.0031306094 -0.0027641223 0.0006605469 0.0029602658 -0.0022530775 0.0020094945 0.0001958933 -0.0012005303 0.0029219526 0.0028895275 0.0010976155 -0.0023091808 -0.0008058932 0.00280301 0.003097409 -0.0009807658 -0.0030790912 -0.0030992103 -0.002539454 -0.0016047856 0.002349569 -0.0011412982 0.0020569048 -0.0013386058 0.0021708626 0.0016023307 -0.003484889 0.00033115153 -0.002349393 0.0013406869 0.0024249097 0.00063018186 -0.0029197067 0.0007595559 -0.00326466 0.00073246565 0.003577585 -0.0027356597 -0.0014141325 -0.0017881941 -0.003368875 0.00034863295 0.00044980488 -0.001974693 0.0028634842 0.0013552355 -0.00083271606 0.0033287287 -0.00019872596 0.0038996558 0.00019096733 -0.000443556 -0.00097102753 0.002921501 0.0032695609 -0.0017760086 -0.0013178209 0.001027897 0.0016523774 0.0030599283 0.0022838914 -0.0016734587 -0.002206784 -0.001169645 0.001222355 -3.5694007e-05 -0.002694741 0.0031655068 0.004246429 0.0016557843 0.0030974096 -0.00010838822 0.0016415563 -0.0037260186 0.0035616027 0.0040678866 -0.0019047217 0.0005158911 0.0007431233 0.0038679163 -0.0028514806 0.0026573634 -0.0008360388 0.0015264807 0.0010107263 -0.0023889216 -0.00079422607 0.00061658106 0.0019795385 0.0039834618 0.0016913547
143.158.045.033 0.0018914421 0.0020309442 0.0025405393 -0.0048057684 0.0005772655 0.00018010329 0.0038858333 -0.0029915723 0.0013790617 -0.00021347645 0.0029891764 0.0035549668 -0.0014865249 0.001393935 -0.0050833263 0.0006463048 0.000119649514 0.0015439783 -0.0037596242 -0.0018305024 -0.0023223278 -0.0010852996 9.642844e-05 -0.0016076464 0.00095540786 -0.0028781 0.00055191416 -0.0016058879 -0.00065657427 0.0029360703 -0.0012825845 0.0027682462 -0.00049816456 0.00020950893 -0.0021444298 0.00019626705 -0.0010395222 0.001251925 0.003035192 -0.0010811625 0.0025487514 -0.0024688682 0.0006512561 0.0020129266 -0.0008346012 0.001504728 0.003482726 0.0025897701 -7.7033474e-05 0.0030351265 0.0024464787 -0.0027644557 0.0021485144 0.003724135 -0.0034839646 0.0023327658 0.001140998 0.0014165859 0.003084824 -0.004759798 -0.0030812735 0.0020872692 -0.0020853907 -0.0025388147 -0.0015293242 -0.0008390156 -0.0028862606 0.0017723696 -0.00061069295 -0.0015911787 0.0029844216 0.0037536619 -0.00049520197 0.0032985718 -0.004324575 0.0021670756 -0.0031323687 -0.0023013745 0.0026615618 0.00062095746 0.0016161988 -0.0018273096 -0.0013084686 0.0027727084 0.0033907453 -0.00078551023 -0.0015445596 0.0017656436 0.0034321037 -0.0039422456 0.0029384138 0.003267784 -0.002980952 0.0029798672 -0.0002116356 0.0040316936 0.0033232933 -0.0011290474 -0.0012940438 -0.002749022 -0.0009864257 0.0025685052 0.0016261617 -0.0034063167 0.00281438 0.0020384209 -0.0019049621 -0.0012950114 -0.0020073242 -0.0021398289 -0.0013366288 0.0021307988 0.004239661 0.0008389573 0.00057138863 -0.003188687 0.0029445454 -0.003819725 -0.0022367842 0.0018496484 -0.0031963496 -0.0032067632 -0.003380324 -0.0022757412 -0.0023943093 -0.0020286387 0.002763819 0.0014332043
205.181.114.100 0.0025652382 0.0036924598 0.0009705074 -0.0014125173 -0.0033773277 -0.0024762508 0.0013769955 -0.003480387 -0.0011935635 3.9829116e-05 0.0015042163 -0.0034934916 0.0007541329 0.00017505686 -0.0010140394 0.0012232196 -0.0012016993 -0.00079988106 0.00041999185 0.00384415 -0.00083453604 -0.0033074575 -0.0017864681 0.0039027324 0.002589015 0.0035565312 -0.0011384776 -0.00057602616 0.0014390885 -0.0025975716 0.0027218447 0.00040988237 -0.0028556534 0.0038714625 -0.002375349 0.0030788933 0.0010409722 0.0029064906 0.0031360628 -0.0038486335 -0.00022086738 -0.002679873 0.0028566911 -0.00081869983 -0.0032764543 0.0033733633 0.0014719013 8.377609e-05 -0.00061424647 -0.0024779995 0.00031024526 0.0017094214 -0.001049398 0.0038005442 -0.0030707666 -0.0038011356 0.0036308423 0.0038721906 -0.0019720607 -5.34585e-06 0.0019201384 0.0007328614 -0.0030547811 0.0021312744 0.0019707128 4.708796e-05 -0.0033819857 -2.7914633e-05 -0.003857217 -0.00039276498 -0.00011951555 0.00369177 0.003412557 0.0011213432 0.00048634788 0.0008970385 -0.0014527696 0.0031720328 0.0017609628 -0.00015278286 0.0013630223 0.00084216974 0.00015319875 0.001993891 0.0033991125 -0.0028373024 -0.0009043752 -0.0011203228 -0.00045138664 -0.0017825641 -0.0017443467 0.0021306013 0.0013972999 -0.0007062755 0.00035996834 0.00078098394 0.000894579 0.00090530905 -0.0013286589 -0.0034259006 -0.0015014152 0.0009579685 0.0007389887 0.0017188429 -0.0015277963 -0.0008736644 -0.0010610009 0.002049665 0.002058591 0.0012651447 -0.0024017736 0.0018039993 0.0040129935 0.003858359 -0.001231883 -0.00360698 0.0007197394 0.0026226498 -0.0015202101 -0.002783235 0.0004391278 -0.0028444435 -0.0019494573 -0.0017443823 -0.0017096819 -0.0014914621 0.0003116098 0.0012436662
209.021.141.133 0.0036325334 -0.000255944 0.0015669556 -0.00310833 -0.0028468596 0.0023949544 0.0036089127 0.00046470753 -0.0020974628 -0.0016963285 -0.00071935536 -0.0021365657 -0.0022604112 0.00021328102 -0.0030624242 -0.0020395627 -0.0029270586 0.0021201794 0.0031384665 0.0017863648 -0.003084887 0.0014271252 -0.00018963209 -0.0026375726 -0.0006879292 -0.0036612193 0.0034966024 0.0024831751 -0.0021797817 -0.0016048505 -0.0025393965 0.002284619 0.0037728315 0.0003424863 -0.00038201179 0.0032753504 0.0029600512 0.0030020778 -0.00053784216 0.0015982955 -0.0014186733 -0.0015983391 0.0038966676 0.0013539748 -0.0015003195 -0.0010323671 -0.00020142682 0.0033602524 0.0031362395 -0.0028710933 0.0010735658 0.0023218777 0.0012692717 -0.00013014079 -0.0029362123 -0.0026278542 0.0030259972 -0.0006868937 -0.00037400218 -0.000701629 0.0015341692 -0.0020030888 0.0019289822 -0.0029390347 -0.00021392627 0.0018966255 -0.0037028443 -0.00011522342 0.0031320413 0.0028033361 0.0013315233 0.0014941443 0.0026959686 0.00015342238 -0.0008181737 0.0009012709 -0.003434574 -0.0024111785 -0.0011043948 -0.0004188196 0.003738748 0.0033031597 -0.0019306182 -0.0010003891 -0.0037159384 0.0031864052 0.0006244792 0.0014691659 0.0025481626 0.00037663014 0.0028606807 -0.0027547511 0.0011437074 -0.0010315554 -0.002897444 0.0038122523 0.003483376 0.0023402537 0.0010891478 -0.0024481844 -0.0023204116 -0.0029334517 -0.0016560412 -0.0005662655 -0.0029769195 0.002671515 0.00039282904 0.0014530031 -0.002259762 -0.0025026747 0.0008265893 0.0012907684 -0.0023017782 0.0038270915 -0.0014236853 -0.0011171849 0.0035222585 0.0027881446 -0.00024269725 -0.00054364395 0.002649656 0.0008271356 -0.0029122646 0.0028229053 0.0009420892 0.0032948959 -0.002794755 -0.0037832737
209.021.136.005 0.0029309867 8.962878e-05 0.0031847463 -0.0022289837 5.6647696e-06 -0.0011787037 0.0032238641 -0.00047555345 -0.0012565868 0.0020688146 -0.0015294958 -0.0033081805 -0.00014421449 0.00015913334 -0.0033078745 0.00058906374 -0.0039658765 0.0037037877 -1.1938566e-05 -0.0009831383 -0.0022156432 -0.0031422535 -0.0036951553 0.00014185121 0.0034053118 -0.00083296234 -0.0024605626 -0.0013226301 -0.0036108883 9.589998e-05 0.003614269 0.00038286563 0.002464027 -0.0028880266 -0.00049483136 0.0019081429 -0.00064816535 -0.0008361214 -0.0021377162 -0.0036239193 -0.0026014447 0.0027088865 0.0008758632 -0.0038523546 -0.0011075133 0.0026262882 0.0009461882 0.0007626816 0.0024831789 -0.003473032 -0.002153358 -2.1747837e-06 -0.0015559513 -0.0012734814 -0.00029596704 0.0037225683 -0.0014062 -0.0025164261 0.0028257698 -0.004012986 0.000976995 -0.00033373333 -0.0028955047 -0.00014582598 -0.0009061448 0.003127571 0.0036154066 -0.002892635 0.0032431164 -0.0016471259 0.00024660988 0.0026010491 -0.001534881 -0.0012081403 -0.00065701397 -0.00032474022 0.002893971 0.0011941183 0.0031567598 -0.000619753 0.0038222638 -0.0032642512 -0.002790173 0.0020769448 -0.0023635996 0.0012253164 -0.002788344 0.002555116 -0.0010871507 0.002536671 0.0011264314 -0.00040687132 -0.001643062 0.0027826088 0.0026134928 0.000872931 0.00376195 -0.0028053373 -0.00043807473 -0.0031615132 -0.0019246463 0.0018324159 -0.0035440729 -0.0031451317 0.004006682 0.0008727018 -0.0022046587 -0.0019460545 0.0034209653 0.00038527424 0.0032573857 -0.0024253465 0.0039386377 -0.00014223476 0.0024373082 -0.0025401223 0.0016735275 0.0018800863 0.00232024 -0.0016284098 0.0031154722 -0.0004793885 0.0007164236 -0.0021086014 -0.0039545274 -0.003035967 0.0042713396 -0.00013867443
172.016.114.168 -0.0024399827 0.00056124374 -0.0028306474 -0.0030962934 -0.0022491175 -0.0018799866 -0.0032696475 0.00032930786 -0.0031378036 -0.0016979933 -0.0007147785 -0.0019400122 0.0034534535 -2.6028662e-05 -0.0019176466 0.003925931 -0.002007886 0.0034240806 -0.0024025983 0.00305566 0.00086731295 0.0020863244 -0.002366896 0.000118583295 0.0022420282 0.0015020334 -0.001168003 -0.002481203 -0.00092574087 0.0014664619 0.0035193057 0.0014337283 -0.0007925409 -0.0012302889 0.0023022336 -0.0021250055 -6.155965e-05 0.0014909233 -0.0009861217 4.8467482e-05 -0.0029526646 0.0033923613 -0.0014436996 -0.0003947779 0.0018551404 -0.0019629314 -0.0023531297 0.00020979217 0.0025477954 0.0029847936 -0.001003082 0.00072782626 0.002974847 -0.0015993176 0.0004717837 0.002451891 0.0022729612 0.0028392146 -0.00033003456 -0.0015239387 0.0020583824 -0.0003803575 0.0018637952 -6.0602406e-06 0.0010052999 0.0021587114 0.00351029 -0.002167305 0.0017265651 -0.0023253174 0.00083660503 -0.0022597024 0.0025565014 0.0007208531 0.0023033347 -0.0029953017 0.0013491173 -0.0014130678 0.0038726174 -0.0013541292 0.0015700433 -0.00134144 -0.0025615047 -4.1669882e-05 7.823117e-05 -0.0027520265 0.0036701497 0.0026383183 0.001207225 0.0034500204 -0.0033746455 0.0018056706 0.003820713 -0.0013678437 0.0015726218 -0.0005234507 0.0010749942 -0.003210885 -0.0031402097 -0.00063019793 0.0033363504 -0.0007889258 0.0024692595 -0.0026581977 0.0011531923 0.0015961058 -0.0033980582 0.0027949251 -0.0031938457 0.00045006632 0.0022636144 0.003042923 -0.00039148796 -0.00021130181 0.0034617963 -0.0003486915 -0.0016916235 0.0009760571 -0.0038106134 0.00011775506 -0.0009617258 -0.0017675454 0.0021789211 0.0011238626 -0.002978576 0.00018593468 0.0016852397 -0.0034063589
208.227.201.101 0.0024482997 -0.003151846 0.0004822265 -0.0018133321 0.0024151318 0.00044759223 -0.0008398847 -0.0016797597 0.0038247958 0.002900987 -0.0006298161 -6.8729487e-06 0.0032712892 0.0021754513 0.002352986 0.00039525685 -0.00025620495 0.0022785105 -0.0008745903 -0.0026521366 -0.0023251602 -0.0036408368 0.0019360752 -0.0008131702 -0.0002539913 -0.0022036396 0.0014989595 0.0029771933 0.00031054145 0.0028968698 -0.0007342095 0.0006386579 -7.812992e-05 -0.00034077515 0.0025406035 0.0015280528 0.0036899596 -0.0023615134 0.0033120418 -0.0036115397 -0.0010427563 -0.000445719 -0.0021624146 0.00018217404 -0.002829926 0.0026708792 -0.0011713245 0.0003888449 0.0035750687 0.00071039546 0.0012261056 -0.0026088576 -0.0018201419 -0.002529045 0.0004199149 0.0008995062 -0.00029050544 0.00054321025 -0.0006419125 0.0013479964 -0.0008878458 0.0038012469 0.0026227848 0.0037201615 0.003374424 -0.0026898193 0.001929396 0.0029114252 -0.00080743834 0.0037311576 -0.0018368266 -0.002700641 0.0029259895 -0.0026279648 0.0001799143 -0.0004642515 -0.0021175647 0.0037643202 0.000577584 0.0024042972 0.002385992 0.00022123982 -0.003626115 -0.0007014787 3.560596e-05 -0.0013096393 -0.0006249786 -0.0016070266 0.0012310725 0.0009099311 0.0031702218 -0.0011758332 0.00023249249 0.0010012928 0.0021273633 -0.0018052069 -0.001809402 0.0013879489 0.0033965067 0.0005367598 -0.003671585 -0.0035774615 0.0027107296 -0.0033244444 0.0036971176 0.0038766353 0.0015453127 0.00022507801 0.0029995919 0.002475927 -0.0036963178 0.0012217622 0.001908732 0.0016894743 0.0034696693 0.0025493728 0.0020519155 0.0009024092 -0.0023579884 0.0022558246 0.00027643042 -0.002906025 0.0027870329 0.00084258674 -0.0018456974 -0.0016173832 0.0012449065 -0.0010459982
197.182.091.233 -0.0006189962 -0.0010662966 -0.00039291364 -0.00071982626 -0.0017286731 -0.0037426502 0.0030814745 0.00049122237 -0.0008421055 -0.0024533798 0.0030988832 -0.0020323293 -0.0051021283 0.0073222914 -0.0042119864 0.00041661263 -0.0010697389 0.00018358558 -0.0011609722 0.0010700724 -0.0013938439 -0.0017360935 -0.002590963 0.0037052878 0.00018539085 0.0031542212 -0.0012261516 0.0026219832 -0.00081844 8.168559e-05 -0.00029390916 -0.00013214845 0.0025059949 7.5025586e-05 -0.0023862894 0.0013995304 0.0028383536 0.0038257383 -0.0017249781 -0.0036589345 -0.00054405304 0.0027769692 -0.0030857539 -0.000280307 -5.9996426e-05 -0.0053442945 -0.0035014914 0.0044670664 0.0015196132 -0.0031078078 0.0042880494 0.00037600996 0.0013768944 -0.0012043801 0.0019841746 0.001944504 0.0017018712 0.0040201913 0.0024920707 4.2562606e-06 0.0025941152 0.0014613018 0.003769979 0.0016492187 4.1476276e-05 -0.0043482934 -0.002060725 -0.001189199 -0.0013870866 -0.002278694 0.0043160864 0.0018481421 0.002356857 0.0004700773 -0.006035421 -0.0023643787 0.004359179 0.004687708 -0.002514371 -0.004301411 -0.0011327001 0.0001845038 0.0039070914 5.169757e-06 -0.002568951 0.00080626074 -0.0022146725 -0.0022863743 0.0006465618 -0.0015668151 0.0032681434 0.00062065513 -0.00034504867 -0.0019720953 0.0056470595 0.0020325966 0.00051895867 0.0020223095 -0.005696554 0.00045464197 0.0012595814 0.0036787996 0.0040038186 -0.0035206298 -0.0014349184 0.0024618164 -0.0053466954 0.00023318792 0.0036815908 -0.0004615601 -0.005282427 0.0005347724 0.00060910196 -7.130364e-05 -0.0006905074 0.00049646455 0.00404208 -0.00046260736 0.0005201401 0.0004958453 0.0007609065 -0.0006370436 -5.0546514e-05 -0.0023564177 0.00018450964 -0.0031751685 -0.00082625495 -0.001089194
172.016.117.052 -0.0034708967 0.0012399136 0.0036840702 0.0018554495 -0.005592148 -9.737036e-05 0.0036407663 0.0010869418 -0.0040724752 0.0030484116 -0.00035367825 -0.0023936308 0.0013096733 0.0058106314 -0.0053789034 0.002442333 0.0020318332 -0.0007902364 -0.004973463 -0.0009298009 -0.00035838134 -0.0040604984 0.0024006732 0.0032343348 -0.002881822 0.0043996926 0.0028909878 0.001153628 -0.0027020269 0.00071714964 0.0032701208 0.004225146 -0.0032877598 0.0038685927 -0.003197988 0.0027159702 -0.00047834794 -0.0026854635 0.0009546108 -0.0031695527 0.0014640784 -0.0027148726 0.003763038 -0.002386897 -0.0009578642 -0.0002973328 -0.0011407831 0.004193777 -0.0024560245 0.002507421 -0.0019140253 0.00085766666 0.0006672502 -0.0026016375 -0.0020762114 -0.0022271723 0.004839792 0.004491288 0.0013622909 -0.003504651 -0.0004135352 -0.00044500842 0.00043929528 -0.0025177898 0.0010739211 -0.0038927312 0.002166699 -0.003942262 0.001114174 -0.0007986729 0.00031703798 -0.0012324749 0.00079044496 0.0036388496 -0.003015255 -0.00027411338 -0.00040093326 0.002821543 0.0032993294 0.0031870655 -0.0004350883 5.1500538e-05 0.004918601 -0.0013736658 -0.0029033099 -0.0007957321 -0.0023591877 -0.0011296511 -0.00245238 -8.910673e-05 -0.002412722 -0.002293859 -0.0009760989 0.0035428694 -0.0013919815 0.0017730016 0.0017659707 -0.00064000895 -0.005219595 -0.003769143 -0.0009026201 0.0034416686 0.0015295122 -0.0013068672 0.0021308903 0.0002610891 -0.00056757865 0.004348652 0.0032568688 0.003054132 -0.003222099 -0.0008255062 -0.0001067641 0.0032329997 -0.00051666773 0.0018431044 -0.0015811668 -0.0035378544 0.00062849873 0.0026135605 0.00045291055 0.0024956071 -0.0030850593 -0.0039781327 -0.0033881264 0.0029243429 0.0021633198 0.0034976634
192.168.001.010 -0.00092572684 -0.001212823 0.002616577 -0.0011813939 -0.0042831097 -0.00844957 0.0019004857 -0.0065339194 -0.00073902524 0.0044382717 0.004387896 0.0027524463 -0.003387334 0.007732801 -0.007192501 0.0026661686 -0.0018700751 -0.0029520565 -0.010420358 0.0007246371 0.0035762151 -0.0050133765 0.0040039755 -4.725883e-05 -0.0045168377 0.0050083194 0.0040654982 -0.0026661758 -0.0052080373 0.0031451054 0.00093597686 0.005321689 0.0022046105 0.0039008502 0.004114698 0.00025321761 0.0055353018 0.0042998814 -0.0013592441 -0.0024039124 0.004943299 -0.0017461907 -0.00044267008 -0.002241379 -0.004880072 -0.0064411913 -0.0019643784 0.0038140728 -0.0054055117 -0.005686688 0.0010229237 0.0009510173 0.00049857877 0.0070870137 -0.0015373395 0.001990072 0.0032989841 0.0054287137 0.0015627458 -0.009446346 8.093304e-05 0.005756225 0.0059371595 0.0004932373 -0.00042074118 -0.0023778204 -0.001576291 -0.0036144587 -0.0006578029 0.0055304803 0.0040728496 0.0010853836 -0.0036031313 0.0008244676 -0.004017102 -0.004799205 0.0019864377 0.004938555 0.0049686357 0.0026038953 0.002776204 -0.0040184194 0.006690163 -0.00046574153 0.0015311495 0.002061631 0.0039208047 -0.0018187322 0.0034709405 -0.0036462164 0.0020177097 -0.0021449542 -0.0011205324 0.0026663216 0.0076752715 0.004855153 0.0018327034 -0.0024929277 -0.007898201 -0.0007930929 0.0013546168 0.0021998626 0.002553932 -0.0011170816 0.004250076 0.00042640715 -0.008371437 0.0064851847 0.001670043 0.0038687424 -0.0040841675 -0.00045786524 0.0053574955 0.0021967965 -0.0053157713 -0.00030010578 0.00025413954 -0.00284561 0.0026226814 -0.0055021867 0.0008459836 0.002746312 0.00092500495 -0.0040102126 -0.005796804 -0.0044532036 0.006082036 -0.0030894435
172.016.115.234 -0.00044353085 -0.0021918386 0.00062016014 0.0009729769 -0.005251484 -0.0035306918 0.0029890619 -0.0011344135 0.00075682654 0.0018507676 0.0011681564 -0.0015936181 -0.0045019854 0.0036752953 -0.0008296356 0.0015841752 -0.002498158 4.258824e-05 -0.0033612028 0.004098124 0.0019533092 0.0012327282 0.0008212947 0.0012584979 -0.00059032 6.535952e-05 -0.0010438613 -0.0020338017 0.000664951 -0.0010183292 -0.0012613763 0.004850373 0.0017899339 -0.0020722658 0.00090014073 -0.0024587642 0.0047360067 -0.0019559497 0.0025850749 9.794056e-05 0.003511355 0.0015146926 0.0018770423 0.0002861048 0.0011144851 0.0022102527 0.0027310676 -6.0681778e-06 -0.003012349 -0.0023757743 -0.0021121092 -3.7425285e-05 0.0015093448 -0.00023671257 -0.0011720696 -0.001175352 0.005018379 0.00096363423 0.0033231485 -0.00080620346 -0.002764611 0.0010125487 -0.0024601195 -0.0029420746 -0.00446113 -0.00063021865 -0.0014479774 0.0014845014 -0.00015699773 0.004121396 0.00074882706 -0.0017154985 0.001962912 -0.0004979171 -0.0027889342 -0.00014497404 -0.0027084532 0.00034573436 -0.00013806572 0.002018634 -0.0024565074 -0.004567728 0.003764051 0.0007934588 0.0024017312 0.0033435493 -0.0023372492 0.002486163 -0.00060743955 -0.0004456693 -0.002512359 -0.00279998 0.0045432285 -0.002718683 -0.0015636688 0.0032488427 0.0026498842 -8.498398e-05 0.00064304075 -0.0014326854 0.00072427443 -0.0013740382 -0.0005258681 0.0013417434 -0.001173013 -0.0011765575 -0.002669054 0.0051442506 0.0026775175 0.0029689642 0.0007102274 -0.0030199077 -0.0017711845 -0.00087226985 -0.004467471 0.0012813514 -0.0018384727 -0.0030103163 0.0038564247 0.0016330904 -0.0019196781 0.0022154094 -0.0014953788 -0.0015927702 -0.0022708077 -3.9371313e-05 -0.0016269688 -0.001722908
135.013.216.191 -0.0021293345 0.001284064 -0.000687222 -0.00022871734 -0.0067894943 -0.0058016316 0.0051706946 -0.001553034 -0.00022513774 -0.0019593867 0.0014259135 0.0046617314 -0.00029464765 0.005281099 -0.007491894 0.0011083138 -0.0014432969 0.0017544396 -0.0049077105 -0.0013191683 0.003883511 0.0017030255 0.004776875 -0.0018609045 0.0003331636 0.0026605586 0.0007182486 -0.0004659104 -0.00078522816 0.0012730819 -4.0266925e-05 0.004821237 0.0012551422 0.003811461 0.0002992765 -1.3680925e-05 0.00185251 0.0056496775 -0.0006215717 -0.0055044186 0.006019461 0.0014574595 0.0027760223 -0.0042721294 -0.00013733405 -0.00012213283 0.0037629737 0.0038111126 0.0003209461 -0.003598258 0.0039957725 -0.0017493243 0.002308247 0.005356165 -0.00516505 -0.0015321099 0.003144145 0.0050983033 -0.00025316986 -0.0062599583 0.00043643801 0.0053970306 0.00345702 -0.003556802 0.0004755606 -0.0037149643 -0.0022285222 -0.0048939036 -1.0969692e-05 0.0014364577 0.00015149997 9.9544035e-05 0.00012006528 0.0020080924 -0.0043771253 -0.004561453 -0.0016010382 0.0041672764 -0.0014104891 -0.0019717077 0.0033346484 -0.0011983917 0.0053872652 -0.0046515064 -0.0037766998 -0.003484098 0.0015665788 0.0039269454 -0.000111570436 -0.0017976663 0.0030907313 -0.0014125891 -1.7601415e-05 -0.003927755 0.0024777567 0.00040376684 0.0031065682 0.0017063327 0.0001320648 -0.004472782 0.002074839 -0.0012399026 0.0031608995 -0.004504771 0.0064480165 -0.0014982577 -0.0017623839 -0.00017875608 0.003654451 0.0028447402 0.0016437229 -0.00073243614 -0.0022471691 0.0029469728 -0.006998594 -0.0024201497 -0.00017465628 -0.0040472876 0.003633333 -0.005261972 -0.0029204937 0.0034411494 0.0015605354 -0.0047444445 -0.002888024 -0.0019586193 0.0018001806 -0.00057152536
135.008.060.182 0.0014837434 0.0010924314 0.0022450418 -0.004719535 -0.0025305734 -0.005287758 0.0006122757 -0.0049690334 -0.005121217 0.0051731756 -0.00095362717 0.0018043251 0.00067063945 0.0034758234 -0.0024101916 -9.43513e-05 0.0017435396 -0.0023828575 -0.007330909 0.0016840928 0.0035430763 -0.0040994724 -0.00263004 -0.0010378332 0.001877144 0.0020599444 0.0066835303 -0.0006900402 -0.0056514144 0.000517282 -0.0039605526 0.0024035717 -0.0022058599 0.0013631298 -0.002406301 0.0033041753 -0.0001777662 0.002566245 0.0047264895 -0.00082317914 0.0056978324 -0.002630424 -0.0037437782 -0.0024657345 0.0018242339 -0.004227545 0.003899032 0.0031183395 -0.0008317796 0.001054026 0.003959371 -3.5831326e-06 0.0007024016 0.003914048 -0.0018173077 -0.0036201323 0.0007971356 0.004925648 0.0011574352 -0.0003210085 -0.004550558 0.0022658939 0.0042629023 -0.004347259 -0.0024148654 -0.0051493216 0.00010911704 -0.003492218 -0.0025478094 0.004747018 -9.288572e-05 0.0019943018 0.0022356994 0.0027913933 -0.0005743744 -0.004439465 0.0009067442 0.0015819462 0.004590864 -0.0014057879 0.0020281335 0.00067757326 0.0020060623 -0.003694805 -0.0028550737 -0.00048417662 0.001836833 0.0008918062 -0.0029262027 -0.0019726043 0.0029577166 -0.0024479346 -0.0014941101 0.00023913103 0.0042000245 0.0036508504 0.0009986137 -0.0023632562 -0.0016305903 0.0013016647 -0.0026849725 0.003585926 -0.00015205215 0.0014323872 0.0034933987 -0.00022516167 -0.0019861814 0.0029930035 0.0024844273 0.0019830798 0.0018660033 -0.0014895862 0.003609505 0.0018039393 -0.0036026582 -0.0008926561 0.0048633562 0.00061086443 -0.0010142975 -0.00062418164 -0.0013287701 0.0033769463 0.0028116025 -0.0013294583 -0.0024672276 -0.0039152373 0.004507701 -0.0014701211
