8 128
194.027.251.021 -0.0029911473 0.0007346306 -0.003760183 -1.2460549e-05 -0.0029999113 -0.0030019337 -0.00027413946 -0.0038297288 -0.003151598 -0.0010645274 -0.0022894957 0.002845657 -0.0015274986 0.0035734747 -0.0027254235 0.004150468 -0.00081331277 -0.000784615 -0.004479457 0.0044637327 0.0023097727 0.00080565474 -0.00388597 -0.0010847365 -0.0017864264 0.00012041778 0.0029970352 -0.0016106615 -0.0040633073 0.0029576842 0.0012798592 0.0017070072 -0.0006064614 -0.0036096387 -0.0016478978 -0.0019452134 0.00235862 0.0039803977 0.0030118525 0.0014797751 -0.000648229 -0.0032308737 0.00417186 -0.0002100964 -0.003964425 -0.004231089 0.0021588826 -0.0002594858 -0.0024142514 -0.0016235602 0.00420332 -0.0032161765 0.0031178698 0.0027662518 0.0021853696 -0.0007741233 0.0038778957 -4.358771e-05 0.0012849371 -0.002412781 0.0013685636 0.00067414925 0.0018663271 -0.00018401943 -0.0040717847 -0.0045492896 -0.0038626194 -0.0007710288 0.0005798645 0.001769435 0.0022177084 -0.0035222138 -0.002242808 0.0012418897 -0.003352062 0.00011398725 -0.0006047515 0.0035334434 -0.0031413562 0.0040337006 -0.00040461068 -0.0030721214 0.00266082 -0.0021892218 0.0002803841 0.0018193361 -7.5059485e-05 -0.0023106688 -0.0033795582 -0.00075403147 -0.0015976591 -0.00050867425 0.0043442775 -0.002319994 0.0027363403 0.0022059227 -0.00017574264 -0.0021626672 -0.0038605242 0.00072218606 0.0017325637 0.0014573245 -0.0010808335 -0.001938974 0.00024788608 0.00196308 -0.000459767 0.0013668548 0.0027733028 -0.0028506955 0.0029805566 0.0015790096 -0.0022953758 -0.003595879 -0.0036078861 0.00019378182 -0.003270455 -0.0023191618 0.0006719335 -0.00111678 0.0024462356 -0.0023402618 -0.0016353242 0.0015295182 -0.0003829412 -0.0005674165 0.003531802 0.0011347111
192.168.001.001 5.2655654e-05 0.0020559863 -0.0008170714 -0.0015956413 -0.0044130892 0.0014185114 -0.003760477 0.0020340984 -0.0024621447 0.0025450378 -0.0011668415 0.0002649147 1.3651663e-05 0.0038669952 -0.00022779994 0.0006566851 -0.004337359 0.00448896 -0.0054642367 0.004174509 0.00045064348 -0.0016065815 0.0014655916 0.0016343059 -0.004361177 0.0013119788 0.0030322513 -0.0038249572 -0.0006849158 0.0014657675 0.0032418973 0.003963788 0.0006590959 -0.00023131406 0.002517257 -0.0006738748 0.002216283 7.031202e-05 -0.0020500883 0.004137902 0.0034644501 0.0021876758 0.000632685 -0.0040126937 0.0023762942 -0.00036152225 0.0026016152 0.0034798963 -0.004978456 -0.0036014884 0.0052462583 0.0035539726 0.0028022742 0.004548008 0.00053219264 0.002673299 -0.0013850125 -0.0032939273 0.003232251 -0.0050312416 0.002412108 0.001016241 -0.00041525066 -0.00043448835 -0.0039367545 -0.0052862614 0.0020963377 -0.004873661 -0.003956778 0.00054068887 0.00045571753 -0.0042147944 -0.0044611166 -3.603861e-05 0.001457727 -0.00021067877 -0.0036169228 0.005227636 -0.0022095714 0.0027596138 0.0036354046 -0.004941879 0.003120139 -0.0011609242 -0.0017039983 -0.0016971556 0.0029508013 0.0031991932 0.0027571474 -0.0023497934 -9.188424e-05 -0.0010470379 0.0032525805 0.003728601 0.004635589 0.0027383799 0.00020867321 -0.005222106 0.001998582 -0.0007790653 -0.0024590048 0.0035798762 0.00023171018 0.0035628562 0.003377008 0.002750381 -0.0032027543 0.00014954346 -0.0026456907 -0.003404221 -0.0020327424 0.0013724469 0.00080359535 -0.002295528 0.001818282 0.00013396311 0.003712931 -0.0026690871 0.0013728722 0.0007901267 -0.002575696 0.0017899578 0.0033521687 -0.00064875936 0.0015141086 0.0031661254 -0.0014677527 0.003013096
172.016.114.050 -0.00038969773 0.002535991 0.002125727 2.608916e-05 0.0014574124 -0.0034810347 -0.0011222538 0.00034995028 -0.0012129641 -0.0029696876 0.0018603621 0.003593316 0.0027831686 0.0025805417 -0.0036165859 -0.0034748062 0.0026104716 -0.003284616 -0.0040544756 -0.000888168 0.0013212063 -0.0032891 0.0027741026 0.0034692434 -0.00015926744 0.0003367186 0.0026023516 0.002054059 -0.0019590096 -0.001069814 -0.0037938554 -0.0014025151 -0.0010815663 -0.0017328504 0.0037316415 -0.0002282075 0.0039881715 0.0030576652 0.0025484245 -0.0017724243 0.0015092563 -0.0028890274 -0.003106646 -0.0006060902 -0.0024072798 -0.0005756806 -0.00025132307 0.0022302782 0.0010847675 0.0014022232 0.0002796268 0.0016014199 0.00300574 0.0027988288 -0.0030499462 -0.0014030992 0.0036410538 0.00021918966 -0.0008689335 -0.0019349344 -0.0015318348 -0.0036454939 0.003334116 -0.001433854 0.00066110893 0.0031566364 0.0019291422 -0.0012829774 0.00082398887 -0.00019739787 7.723925e-06 0.0025723288 0.003104581 0.003371565 -0.0025637106 -0.00018431552 -0.0021485984 0.0037397523 0.0030335938 0.0009566448 0.0019627016 0.0032511193 0.00232071 -0.0036370659 0.0027265637 -0.00015446974 -0.0008510834 0.003350041 0.0022044985 -0.0037383963 -0.00095153996 0.0032363157 -0.0034896478 0.0028854623 0.002832133 -0.0035008625 -0.0038208144 -0.0011549 -0.0026217813 0.003562095 0.0024052383 0.0028696852 -6.0526938e-05 -0.0007937039 -0.0028697532 0.0018500095 -0.0035050036 0.00024726908 -0.0031167516 0.0011279352 0.0024417029 0.0022452013 0.0017227764 0.0016575167 -0.0035457588 0.0027657351 0.0008535146 -0.003029878 -0.0029751027 -0.0023816125 0.0011301002 -0.0006944799 -0.003630369 0.0008386207 -0.0031573602 -0.0005638737 -0.0032545608 -0.0026249255
172.016.112.149 -0.0018379635 -0.0035327403 0.0019353572 0.0035266466 0.00069315254 -0.0011015536 -0.00015826718 0.00023548453 0.003349716 0.0008293978 0.0028904865 -0.0035562853 -0.0032377902 -0.00092207623 0.0016725452 0.00037454502 -0.0012156058 0.0012602749 -0.003309729 -0.003296708 -0.0021445525 0.0017798918 0.00016766397 -0.0017362644 -0.0006347775 0.0023924077 0.0025852455 0.0010306477 0.0028349345 0.000404527 0.0014520012 0.00034989382 -0.0014967618 -0.0022959386 0.0038305821 0.0018137416 -0.002280963 -0.0011234924 -0.0006353624 -0.0019583842 0.0037562153 -0.00013980082 0.0030900906 -0.0030897902 0.0020762044 -0.0023045372 0.003792852 0.00028944336 0.0036152408 -0.0010499605 0.001596685 0.0021351383 -0.0032189807 0.0034672231 0.000703622 -0.003250391 0.0006407953 -0.0010446373 0.002478574 0.0018727514 -0.0013895446 0.0009289224 -0.000983487 0.00049299025 -0.00057008374 0.00081979693 0.0027675752 -0.0035124854 -0.001741084 -0.0008762522 -0.0023488728 -0.001704392 0.0035838166 0.000809853 0.0029488811 -0.0021364586 0.0037621097 0.0026458574 -0.00092687435 -0.00035932547 -9.6035044e-05 -0.0011237249 -0.0008957064 -0.0028936937 0.0017662161 -0.00268518 0.003750964 0.003650873 -0.0020087895 -0.003772537 -0.0019510501 -0.0025926058 -0.00049236143 0.0020106728 0.0017434326 -0.0011583302 0.00097559777 -0.0024624038 -0.0026954215 0.0019027388 -0.002715413 -0.0026149517 -0.0002001432 -0.00082916266 0.0025051236 -0.003228896 0.0019900922 0.0009075048 0.0014757642 0.0023150253 -0.00260875 -0.0028022088 -0.00028440004 -0.0015112632 0.0014029518 -0.0032412598 -0.0020427145 0.0031074 -0.0007509216 0.0037509676 0.0037304012 0.0010534597 4.721799e-05 -0.002203561 0.0014699759 0.0014446018 -0.0022966133 0.0005208834
192.168.001.020 -0.0001506148 0.0014820263 0.000903578 -0.0017104469 0.0023489965 -0.00013858147 0.003795705 -0.0038847562 0.0021405965 0.00016795682 -0.0034617814 -0.0007042077 0.0017736882 0.0009894026 -0.0013143445 -0.0019226865 0.0004134918 0.0039313715 -0.0018130749 -0.000793189 -0.00036059544 -0.0008349993 -0.00029168994 0.00027576086 0.0017209983 1.7076376e-05 0.00055329205 -0.0015077125 0.0014458469 0.0014718634 -0.0012978531 0.0014834591 0.0003063264 -0.0022384601 0.003775985 0.002117756 -0.0002034442 -0.0034845422 0.0020202026 -0.0035774307 -0.0034454053 0.0008274968 -0.003287979 -0.0033981178 -0.0007964991 0.0013355939 0.0015113654 -0.0008094962 -0.0002590887 -0.00016637184 -0.003091473 0.0004495791 0.0011538239 -0.003290389 0.0028438538 -0.0013166121 -0.003601389 -0.002859339 -0.0025195573 0.0034482123 -0.0009963247 0.0015020726 0.0006437909 -0.0021792992 0.00015116535 -0.0032052768 -0.0012045093 -0.0007123314 -0.001451516 -0.0025856865 -0.0029032398 0.0015371242 0.0035384363 0.0009983217 -0.0011304857 0.0025827982 0.00035490034 -0.0032707795 -0.0012050455 0.0028763963 0.0032931245 -0.0006529095 0.0034347007 -3.570444e-05 0.0031113375 -0.0023987207 0.0009130946 0.0013789275 0.0038533795 0.0027330937 0.002799277 -0.0014325161 0.0009798711 -0.0031056448 0.003796117 0.0012825051 -0.0015801595 -0.0010740357 -0.0020233921 -0.0018245806 0.001986236 -0.0034240484 -0.0033524986 -0.0037619823 0.0023435403 0.0014719662 0.0037038913 -0.0021327513 -2.4707042e-05 -0.0025583657 -0.0015871738 -0.0038066579 0.0025394876 0.0023032993 0.0014226636 -0.00039656422 0.0031210748 -0.0008636845 -0.0010213532 0.001003302 0.0034422728 -0.0019758255 -0.0021489838 -0.0013917063 -0.0034158563 0.0011013612 0.0004997873 0.0022460553
192.168.001.010 0.0021864248 -0.0030771904 0.0012647153 0.00290518 0.0035780945 -0.0033069619 -0.00034423795 -0.0036174539 0.0028036656 0.0019241845 0.0028613317 0.00090126786 0.0002087943 0.0002809717 -0.0016498725 0.0033164632 7.902893e-05 -0.0028514392 -0.0035471902 -0.0030802581 0.0018913209 -0.0018782981 0.0026385202 -0.0013822865 -0.0014641291 0.0027735143 -0.00095163204 -0.00038761005 -0.0013064469 0.0018871672 0.002163918 0.0009408168 0.0022224877 0.0034490076 0.0037865906 0.0013133872 0.0008156766 0.00096128945 -0.0030179645 0.0009047652 0.0012465777 -0.00075204583 0.00024285982 0.0014268953 -0.002266641 -0.0028657487 -0.0023540447 0.001442258 -0.0012847306 -0.0038568857 -0.0018982913 0.0014996061 -0.0018882267 0.003242751 0.00031690198 0.0030473168 -0.0013140459 0.0023659316 -0.00030794516 -0.003487156 0.001222823 0.002881551 0.0029487715 0.0015024913 0.0022361742 0.002160509 -0.0007196689 -0.0011754343 -0.0007475803 0.0037688043 0.00304772 0.0015692479 -0.003340552 -0.0025257277 0.00030611773 -0.002568183 0.0001280286 0.00072810624 0.0033023593 0.0038495394 0.0010307377 -0.0019588764 0.0032115774 0.0008756874 0.0015836424 0.0029170255 0.0038328632 -0.002337625 0.0037500688 -0.00016020949 0.0014368906 -0.001603207 -0.002526511 0.0030315663 0.0035024416 0.0035868813 0.0030607812 -0.0024259815 -0.0027345943 0.00018412987 0.0015029246 -0.0005658948 0.00021686836 0.001511029 0.0002347342 -0.0031657533 -0.0021594854 0.002814309 -0.0010372818 0.0005798765 -0.0012620762 -0.0018317308 0.0031042064 0.0017866874 -0.00011037426 -0.0017989917 -0.0021867559 -0.00048334704 0.0015614762 -0.0028009133 0.0011403626 0.0033444774 0.00038623702 -0.0007517177 -0.002661579 -0.0030168984 0.0025280383 -0.0027465064
135.008.060.182 0.003237517 1.6575728e-05 0.0013663485 -0.0024269302 0.0019955216 -0.0022548067 -0.00084947684 -0.0032499386 -0.0031804899 0.0037345355 -0.0018715055 0.0008482848 0.002709833 -0.00074029434 0.0008427329 0.00030097077 0.0028113131 -0.002206671 -0.0036145095 -0.00041309244 0.0026308156 -0.0022058925 -0.003478483 -0.0018196122 0.0035696935 0.00070408673 0.0037826253 0.00052871276 -0.0033253706 -0.00022515889 -0.003159923 -9.73505e-05 -0.0021418543 0.0009256767 -0.0024865265 0.0038119322 -0.0028220818 0.00065907347 0.003669615 0.0013170202 0.0035690994 -0.002028358 -0.003311812 -0.00037993956 0.0033701994 -0.0020796193 0.0036885147 0.001833295 0.001365223 0.001998386 0.0024700721 0.0003658969 -0.0005565484 0.0017829989 -0.0006876443 -0.0029037828 -0.0019305929 0.0029460983 0.00018659173 0.0029159766 -0.0037628738 0.0006497827 0.0025316984 -0.0038726486 -0.0009600048 -0.0026205655 0.0005688074 -0.0021432245 -0.0027967277 0.0038239218 -0.00064601755 0.002072255 0.002076486 0.00092504924 0.0019140261 -0.003090521 -0.00026747532 -0.00074653584 0.0034948413 -0.00042060032 0.0010364096 0.001770581 0.00014406053 -0.0029393688 -0.0028396368 3.0824136e-05 0.0018949921 0.0006656306 -0.0026106385 -8.108723e-05 0.00267652 -0.0021348807 -0.0022011674 0.00066265464 0.0018756742 0.0030171138 0.0016768756 -0.0026140923 0.0012604281 0.0019500487 -0.0025573513 0.0021059471 -0.0015815411 0.0030019348 0.0011944222 -0.002090055 0.0014374326 0.0008154923 0.0007584702 -0.00014920412 0.0035279982 -0.0022389612 0.0023729897 0.0013950825 -0.0006186362 -0.0017905481 0.0035004597 0.0019286422 -0.0016110548 0.0009866107 -0.0011245696 0.003642643 0.0025989462 0.00071433495 -0.0005492132 -0.0030235653 0.0024104866 -0.0011718773
195.115.218.108 0.0010935391 0.00047987327 0.0021699688 0.0012311022 -0.0038539143 0.00077740516 -0.002680933 0.0034477382 0.0020496382 0.0018490365 0.0029711577 -0.00066074677 -0.0035874217 0.00017801362 0.0009198739 -0.0012907138 -0.00087983103 0.0021439504 -0.00048706788 -0.001163624 -0.003486329 0.0013013321 0.0034489408 -0.00023645772 0.0024647592 -0.0016294194 0.0019721955 -0.0024849211 -0.00024007868 0.001973906 0.003066519 -0.0018968615 0.0026447172 -0.002534734 -0.0010816768 0.0013610761 0.0037533415 -0.0029588586 0.0022714615 -0.002547749 -0.0036204683 -0.0021291485 0.0038029095 0.0024724358 0.0037310848 -0.00062096654 -0.0002343459 -0.0028375918 -0.0007540263 -0.0038123957 -0.0010693127 8.7623215e-05 0.0017251675 -0.0023563472 0.003681054 0.0037335153 -0.00013337341 0.0016640692 0.002624019 -0.003401603 -0.001329185 -0.00067266927 -0.0023519392 0.0009485406 0.0014115908 0.00021202979 -0.0021065308 0.0010519921 0.003494329 0.0030774067 0.001548807 -0.0034957542 -0.0017186167 -0.0027143613 0.00061089935 -0.00154444 0.0006040297 -0.0023995086 0.0017495268 -0.0030388911 0.0018984505 0.0031025212 -0.0035677536 -0.00011246474 0.002896004 -0.0017489421 0.00038048628 0.0007841208 -4.24522e-05 0.0026041407 -0.0023879327 -0.0021937625 -0.0011642654 -0.0031605903 -0.003464302 -0.0036761465 0.0030796884 0.0006925694 -0.00080595695 0.0016795894 -0.00054118526 -0.00066655205 0.0038503264 -7.766194e-05 -0.0001747506 0.0036966826 0.0015042435 0.0010376448 0.000453239 -0.003689935 -0.0037731412 -0.00018117444 0.0018729678 -0.001730728 -0.00020118705 0.003772365 0.0026531762 -0.0017809055 0.0028824671 -0.0016347512 -0.0019596664 0.0003007865 0.0023098795 0.00029908415 0.00031825714 -0.0033001946 -0.0026601555 -0.0033343213
