33 128
172.016.114.050 -0.17368074 0.31430757 0.22668564 -0.23389113 0.10641823 -0.3780478 -0.20223598 -0.16957048 -0.27032855 -0.04084681 0.23968633 0.1879175 0.12638488 0.40343097 -0.19194876 -0.12543975 0.14411671 -0.21309932 -0.44171986 -0.06270875 0.27541843 -0.31071946 0.3177428 0.06646358 -0.29819015 0.04555324 0.27663693 0.032532725 -0.25216922 0.02823918 -0.31839547 -0.15702932 0.023127493 -0.079560906 0.41583627 -0.23745346 0.28309605 0.40004078 0.3049999 -0.23330002 0.13130355 -0.38850334 -0.29893363 0.09965082 -0.27224615 0.101131506 0.10841271 0.23619355 -0.058950644 0.033526648 0.014598058 -0.11035812 0.4702192 0.19329613 -0.097083546 0.16190945 0.4905556 0.027559256 0.041011166 -0.41371953 -0.22856906 -0.21332888 0.14296578 -0.10283821 0.036185235 0.027343355 0.17366354 -0.33088976 -0.034352213 0.18082158 -0.16044654 -0.05529395 -0.07997962 0.1868437 -0.33814335 0.11909795 -0.17522024 0.36109635 0.11248521 0.11418493 0.13793588 0.1655975 0.3519236 -0.4655567 0.15936422 0.07057069 -0.048063114 0.38127118 0.047627382 -0.14946505 -0.24380119 0.28417638 -0.23410928 0.25196362 0.35623133 -0.1380645 -0.1332628 -0.05191582 -0.30409858 0.33844703 0.32201543 0.21443148 0.058295485 0.038265422 0.116903804 0.24983202 -0.32627204 -0.12657025 -0.015353196 0.16998124 0.17864627 0.21296543 -0.04105757 -0.11004359 -0.4851258 0.26445723 -0.025026402 -0.1163546 -0.20968717 -0.20127247 0.1810844 0.100982934 -0.1284094 0.093532614 -0.21518086 0.060814667 -0.34177428 -0.046749547
207.103.080.104 -0.17567284 0.30841538 0.21574779 -0.23098978 0.0987047 -0.36734983 -0.20130634 -0.1677394 -0.26782572 -0.035165712 0.23290424 0.1803881 0.11689077 0.40006286 -0.18374003 -0.11334366 0.13248648 -0.20029613 -0.43341437 -0.05679315 0.2709843 -0.29976094 0.30969864 0.059082873 -0.30093646 0.04364625 0.26988506 0.024298722 -0.2470027 0.033005264 -0.30261567 -0.15031716 0.027847774 -0.07843491 0.40748382 -0.2393088 0.27525312 0.3922501 0.2957572 -0.22418253 0.12547295 -0.3790644 -0.2843961 0.09944322 -0.26840758 0.10137414 0.10833325 0.22999638 -0.06525958 0.025835983 0.017336948 -0.11381552 0.46493256 0.18744838 -0.08560104 0.16736782 0.48304603 0.022431707 0.04502128 -0.4117666 -0.21904169 -0.20426759 0.13239819 -0.09706142 0.030591067 0.016562363 0.1662757 -0.32777324 -0.036567662 0.17967935 -0.15795247 -0.06778906 -0.092764124 0.17759109 -0.33304423 0.12188788 -0.17173482 0.35487428 0.09841795 0.11656492 0.13242643 0.15212013 0.3477295 -0.45517892 0.15355158 0.07171872 -0.045552902 0.37233582 0.043022927 -0.14008632 -0.24356806 0.27510625 -0.21923074 0.24422847 0.35091183 -0.12820436 -0.124273166 -0.052237906 -0.2984172 0.32761028 0.31743935 0.20797467 0.058451034 0.039193783 0.123056605 0.24871336 -0.3184153 -0.12690777 -0.0077104 0.16099444 0.17112297 0.20920397 -0.047966048 -0.11943024 -0.474597 0.25818983 -0.030120376 -0.11201855 -0.19953133 -0.19539502 0.17852399 0.10040715 -0.12098149 0.09156221 -0.20418473 0.06570814 -0.33353007 -0.037485592
192.168.001.001 -0.10239466 0.13288212 -0.15025131 -0.2605114 -0.46759614 -0.15037599 -0.08314271 -0.22525351 -0.34844857 0.14402679 -0.20505722 0.040115345 -0.20619607 0.36687994 -0.1789754 0.27777702 -0.31017467 0.13619533 -0.435442 0.5823005 0.1233475 -0.17088847 -0.06642464 0.025306867 -0.43972766 0.21481895 0.39186674 -0.2930288 -0.41850388 0.37507096 0.15371864 0.24970883 -0.061658967 -0.11528617 -0.02137195 -0.23469205 0.3541838 0.2881666 0.11703288 0.180792 0.21876909 -0.08863809 0.20153 -0.31048572 -0.14035416 -0.3454036 0.3422787 0.1837381 -0.51594776 -0.29382643 0.3598917 -0.11661351 0.30985215 0.47915506 0.054899603 0.20331867 0.13977055 -0.0894421 0.2154621 -0.43969578 0.13071011 0.17984685 0.034669105 -0.007637177 -0.4760269 -0.6749265 -0.051193487 -0.2732233 -0.09641744 0.09210787 0.15163502 -0.3060139 -0.27091902 -0.029688677 -0.11031898 -0.065229185 -0.20219313 0.5788429 -0.28342378 0.2618714 0.27749524 -0.5758067 0.24505831 -0.17757499 -0.1695441 -0.08662753 0.043970503 -0.06490708 -0.040089227 -0.18631797 -0.17204271 -0.049691312 0.5549366 -0.056977265 0.3132263 0.3218581 0.14355393 -0.23867957 -0.028650738 -0.0054790187 -0.22135149 0.24033314 -0.0005304268 0.17514327 0.37645903 0.106907606 -0.16431053 0.15453327 0.044283062 -0.2027902 0.09310235 0.2329375 -0.13376059 -0.17684321 -0.10205782 0.106954515 0.10653565 -0.3046375 0.10861953 -0.01156746 -0.14078496 -0.018394373 0.24761167 0.03984572 -0.07319488 0.084899925 0.17018121 0.2607812
194.027.251.021 -0.0894083 0.12575752 -0.14794978 -0.27250072 -0.47145617 -0.15802312 -0.06967201 -0.24318087 -0.35612616 0.15382177 -0.21806976 0.03525113 -0.21152672 0.35755667 -0.17924704 0.2841471 -0.3068198 0.12592196 -0.43194258 0.59386355 0.12470612 -0.17906481 -0.081465036 0.020121068 -0.43158007 0.22664711 0.4037459 -0.29154545 -0.438134 0.38658813 0.14491309 0.24874963 -0.07439886 -0.10957514 -0.043606795 -0.22843064 0.35248548 0.29195985 0.12986559 0.17918883 0.22820488 -0.09219065 0.20004329 -0.3197185 -0.13659012 -0.36686996 0.35593107 0.18292432 -0.5189165 -0.2913505 0.35843912 -0.125927 0.30034465 0.48927835 0.049257454 0.1952155 0.12998721 -0.07399339 0.21175542 -0.4271874 0.12168527 0.19081447 0.040175185 -0.015112373 -0.4853262 -0.6940807 -0.05556026 -0.26787582 -0.09253921 0.094974495 0.15759498 -0.29134625 -0.25394315 -0.033496276 -0.10281883 -0.08128202 -0.19676824 0.581069 -0.278357 0.25423613 0.28499985 -0.58468664 0.23504774 -0.17829028 -0.18452989 -0.09351093 0.040657595 -0.08267321 -0.05029586 -0.18803094 -0.16735677 -0.05672535 0.567258 -0.07296271 0.30676883 0.33524424 0.1577156 -0.23475057 -0.021377644 -0.005430404 -0.24457482 0.24108252 -0.0047193263 0.18214329 0.38624665 0.0865377 -0.15087746 0.16816045 0.050251376 -0.19926901 0.1055724 0.23104106 -0.13131152 -0.16159567 -0.098371945 0.105008855 0.1174192 -0.30504823 0.107704826 -0.007872956 -0.1520965 -0.015825238 0.26316622 0.04165503 -0.082650766 0.06945021 0.19235928 0.25985232
172.016.114.148 0.32578743 0.06364586 0.35007977 -0.5344529 -0.015466029 -0.36347827 0.12644325 -0.43507463 -0.3538616 0.31773192 -0.11862188 -0.07768662 0.011729556 0.015639571 -0.0726861 -0.05956321 0.1405019 -0.32524955 -0.21412861 0.20681056 0.17186491 -0.52351564 -0.00062746747 -0.013671174 -0.034397006 0.37932578 0.50129044 0.04170433 -0.59868413 0.25648013 -0.4602033 -0.11944415 -0.30322003 0.20046805 -0.17394419 0.04355157 0.14129171 0.2689225 0.42970556 -0.17964302 0.45326284 -0.24167003 -0.40298143 -0.2601718 0.08131179 -0.37405828 0.43326718 0.24321793 -0.14665806 0.082873076 -0.051330183 -0.14026503 0.04763063 0.42948288 -0.2944499 -0.020825667 -0.05823134 0.36689752 -0.03686379 -0.0003966987 -0.41036096 0.12671508 0.19659048 -0.28355905 -0.17223117 -0.44480738 0.20358144 -0.18051499 -0.028292654 0.16412075 -0.022363855 0.39305615 0.3914429 0.0028008611 0.10072334 -0.35497105 -0.042496536 0.33102018 0.29459304 -0.19502583 0.39876187 -0.11245261 -0.033087477 -0.3233907 -0.32059422 -0.23061833 -0.056368023 -0.043957084 -0.06472702 -0.20124632 0.004044599 0.022362724 0.057361968 -0.06606755 0.10995494 0.23527606 0.2781873 0.022355366 0.13759431 0.22806099 -0.49826044 0.2226764 -0.03173924 0.35852927 0.40106037 -0.36404592 0.055023618 0.23459873 -0.020025339 0.25051832 0.3289036 0.08990266 0.14078194 0.4133125 -0.10537605 0.14423266 0.47481745 -0.079465054 -0.18794629 0.013105967 -0.30447906 0.25421128 0.43817377 0.055719625 -0.37656948 -0.28467688 0.18327695 -0.042750005
135.008.060.182 0.35350975 0.0618389 0.36710814 -0.5641916 -0.015578457 -0.38085833 0.13438508 -0.4618904 -0.37523806 0.34411064 -0.13398623 -0.083668895 0.015442348 0.008703038 -0.07160227 -0.0595998 0.14985204 -0.34257805 -0.22652462 0.22046816 0.18135644 -0.55153257 -0.014094097 -0.018749572 -0.024845624 0.40088734 0.53251046 0.04359442 -0.6345565 0.2702637 -0.48455873 -0.12213511 -0.32467034 0.21421567 -0.19591047 0.057597637 0.13928306 0.2778544 0.4547529 -0.1809553 0.483936 -0.2513283 -0.42525986 -0.2787278 0.09771914 -0.40172222 0.46336785 0.25685292 -0.15235032 0.089852825 -0.047857333 -0.14418998 0.04141418 0.45453 -0.30993247 -0.030135876 -0.074510805 0.3914736 -0.038265295 0.012116393 -0.43518284 0.13881713 0.20977989 -0.30483967 -0.1862066 -0.47658604 0.21294862 -0.18957902 -0.03556664 0.17735606 -0.021347806 0.41871738 0.4179126 0.0014799081 0.116547205 -0.38285187 -0.04313911 0.34289402 0.31494954 -0.20739388 0.42107892 -0.1196946 -0.040302064 -0.33865467 -0.34717488 -0.2447002 -0.054080557 -0.05161115 -0.07393213 -0.21042497 0.013960946 0.013907632 0.061941095 -0.0724597 0.11435221 0.25754943 0.29952052 0.017744584 0.15351786 0.23838504 -0.5376156 0.23611964 -0.037459407 0.38445163 0.42370856 -0.39196056 0.06619183 0.25208116 -0.020130718 0.25938925 0.35091764 0.08723076 0.15399377 0.4401406 -0.10290474 0.14416774 0.50920784 -0.07893346 -0.1973654 0.019997058 -0.3275793 0.273651 0.4701481 0.05835003 -0.3938214 -0.30670974 0.20432828 -0.04552963
152.163.210.015 0.015316796 0.03632107 0.025659936 -0.102838896 -0.059346523 -0.07900297 -0.0021463525 -0.0843125 -0.09757807 0.053630326 -0.036631856 0.0043404293 -0.022846458 0.06802527 -0.0404186 0.030890943 -0.020534728 -0.02390812 -0.10322511 0.10643284 0.04778432 -0.093574256 0.001208685 0.0013376588 -0.07402396 0.07163247 0.12077237 -0.033581734 -0.14019597 0.08186296 -0.041048307 0.013262257 -0.043587685 0.0044658515 -0.0046331906 -0.035995606 0.07294986 0.08518798 0.0749194 -0.00018436811 0.08657586 -0.058762647 -0.025456093 -0.06693565 -0.020579882 -0.08861805 0.10284373 0.064650685 -0.094693 -0.026592359 0.043575317 -0.040455826 0.06435098 0.12639354 -0.032544717 0.033368062 0.03508384 0.032317575 0.029245857 -0.07409154 -0.041282393 0.03156973 0.030337114 -0.036296092 -0.08511813 -0.14091945 0.025717936 -0.07219338 -0.020709943 0.041552182 0.013516809 -0.0011055728 0.0024959624 -7.103541e-05 -0.020770097 -0.04179602 -0.03631048 0.13348576 0.00046157883 0.018779572 0.08557167 -0.087878086 0.040475074 -0.07993904 -0.054908924 -0.03223439 -0.0027142768 -0.0011230538 -0.014797708 -0.051398784 -0.032115124 0.006511978 0.07499762 -0.006369109 0.0688296 0.065253705 0.04794717 -0.030454848 0.00172468 0.042126797 -0.07298575 0.06435485 0.0023867772 0.067830145 0.10289432 -0.013706719 -0.031283487 0.040457286 0.008035958 0.0067182197 0.060133018 0.049876515 -0.007341527 0.01696579 -0.048471883 0.042877227 0.06691078 -0.05208653 -0.015917523 -0.0065507716 -0.046465054 0.029059442 0.07557422 0.012123273 -0.06072074 -0.020596273 0.031122347 0.03346232
207.046.130.168 0.0016656355 0.030872468 0.021989277 -0.07535256 -0.028646953 -0.056088842 -0.008455633 -0.061574135 -0.06904864 0.029256105 -0.014226645 0.004591221 -0.0053966874 0.05078725 -0.029042631 0.012648173 -0.002904101 -0.021725666 -0.077436715 0.05478412 0.034438297 -0.06849877 0.013956424 0.0054291263 -0.057431817 0.04389824 0.08189765 -0.015401516 -0.08667857 0.04683212 -0.040654242 0.0020577973 -0.02298264 0.0006216252 0.0048120525 -0.026881218 0.057289332 0.06693851 0.053534172 -0.0074130245 0.06048797 -0.047084104 -0.031155894 -0.039752357 -0.023558399 -0.045513015 0.06696837 0.041267715 -0.052054808 -0.012163346 0.025403889 -0.027658582 0.05624242 0.08107537 -0.023344567 0.02203697 0.03217785 0.018328652 0.018038446 -0.05684313 -0.028418707 0.012790051 0.020967769 -0.023615908 -0.047214225 -0.08714762 0.022703268 -0.056573026 -0.012603285 0.026962548 0.0026983228 0.0030508167 0.0027087536 0.004292641 -0.02386784 -0.02699425 -0.030277358 0.09049843 0.0028795048 0.01324102 0.058391117 -0.044218555 0.036485545 -0.06262175 -0.024285289 -0.019659838 -0.0058513186 0.011974144 -0.008315981 -0.040711705 -0.027545242 0.012935038 0.03567995 0.0022602947 0.050645407 0.03119271 0.02430613 -0.018026436 -0.012182266 0.0308582 -0.037196226 0.04844371 0.0030753892 0.041862503 0.06338467 -0.006389289 -0.027797101 0.018131606 0.0019471485 0.011136497 0.04268432 0.03337867 -0.0015951685 0.0111820195 -0.045319863 0.031595193 0.040011875 -0.032943346 -0.016069587 -0.0123109305 -0.024968207 0.019797748 0.040335253 0.011220265 -0.04399701 -0.008440833 0.009416828 0.013314234
172.016.112.050 0.014289665 0.024750859 0.02913394 -0.07990268 -0.0390896 -0.060339518 -0.003080929 -0.062396348 -0.07468677 0.043703098 -0.020669099 0.004488553 -0.014970612 0.04599703 -0.030444313 0.01243853 -0.008885349 -0.030133242 -0.07226896 0.063262455 0.037025943 -0.075574055 0.00686616 0.003423049 -0.046303585 0.058670916 0.09279204 -0.016243111 -0.10365819 0.057244837 -0.04027899 0.0048878463 -0.03127759 0.009788764 -0.007181184 -0.024063755 0.04866282 0.06268211 0.058995 -0.009404507 0.06575954 -0.04034046 -0.034938637 -0.04920666 -0.016008653 -0.059981182 0.069647424 0.04730565 -0.05779606 -0.018728212 0.024038969 -0.02601783 0.04183262 0.08758995 -0.027571583 0.016392864 0.022944942 0.02708644 0.01536539 -0.048702292 -0.036823265 0.019404009 0.022514649 -0.033283856 -0.05565273 -0.09865976 0.02394804 -0.047205105 -0.011994068 0.031247651 0.0071018543 0.013431548 0.0106426375 0.004666699 -0.012354339 -0.03840361 -0.022391608 0.08953859 0.009815279 0.0031965885 0.061437093 -0.05093962 0.030779244 -0.0575533 -0.040627457 -0.028949011 -0.0045656804 0.0056099053 -0.010325615 -0.036639396 -0.017563857 0.0070042415 0.042794745 -0.004868028 0.048181556 0.044911936 0.031548318 -0.018727753 0.0018630386 0.029908834 -0.05221141 0.048752315 0.0012188528 0.049025323 0.074193016 -0.017684195 -0.020671314 0.028992802 0.0035569835 0.014231667 0.041811954 0.035229336 0.002669595 0.017916108 -0.033773333 0.03235332 0.051179048 -0.033211302 -0.01569135 -0.0095493 -0.03654612 0.027175747 0.061882775 0.010170863 -0.048311643 -0.017458517 0.022542197 0.012743678
205.181.112.122 0.010976505 0.026417982 0.022453735 -0.0659976 -0.034724973 -0.052437004 -0.0038114523 -0.055315055 -0.061670482 0.03743077 -0.013738988 0.006612344 -0.013735985 0.036988042 -0.028478196 0.015199355 -0.009867384 -0.022283792 -0.06584278 0.05570165 0.029027801 -0.06327958 0.00083059224 -0.0010487399 -0.04707501 0.04679267 0.0757673 -0.015180522 -0.083853394 0.051692996 -0.033916537 0.003914314 -0.030328322 0.00089626 6.132177e-06 -0.020925565 0.048926063 0.05419614 0.053117048 -0.007868629 0.051864885 -0.0357932 -0.026311036 -0.042836107 -0.011503696 -0.052430514 0.065119356 0.035567977 -0.053744454 -0.011960244 0.024771044 -0.025273567 0.04161015 0.07426371 -0.021074504 0.017331634 0.023451969 0.02325335 0.014769677 -0.04540248 -0.025879845 0.01979551 0.021362716 -0.021700662 -0.04503183 -0.08067016 0.015691726 -0.042652145 -0.008736768 0.024651214 0.0068298886 0.0027011735 0.0072033694 0.0011379609 -0.012285463 -0.029577624 -0.026732387 0.08036442 0.0070858914 0.0076523162 0.051409855 -0.047602363 0.025640592 -0.052243773 -0.033578996 -0.017905029 -0.0004851354 0.0020476892 -0.010868212 -0.033652283 -0.018309139 0.0036924342 0.038318012 -0.002036349 0.039789956 0.03967482 0.02595485 -0.015125978 0.0013422498 0.02417544 -0.045130722 0.03852652 -0.004152893 0.044467647 0.0629828 -0.014188583 -0.021472668 0.022198038 -0.0018399346 0.0104726385 0.039157383 0.030566633 -0.0014381444 0.011642171 -0.028457096 0.022800345 0.044645876 -0.029499533 -0.012899816 -0.002256827 -0.03154689 0.020513013 0.047709577 0.010481723 -0.03721761 -0.016920079 0.014284732 0.0147403665
137.245.085.134 0.00028802385 0.019615661 0.0056726374 -0.048306555 -0.037416235 -0.035063043 -0.0068268636 -0.040182963 -0.049849488 0.02906539 -0.01666026 0.0056251446 -0.013713663 0.04217326 -0.026047185 0.021006947 -0.01793357 -0.00891543 -0.05915636 0.060378235 0.026109602 -0.047437474 0.00074029266 -0.00068251265 -0.04631824 0.03220164 0.059533518 -0.019119747 -0.070789546 0.042212352 -0.012608386 0.013495628 -0.019806856 -0.0028900458 -0.00352387 -0.026535483 0.04303001 0.045362726 0.035990953 0.0049524764 0.040072527 -0.025096606 -0.0058633783 -0.03557946 -0.013784781 -0.041569866 0.05245728 0.032815956 -0.048173547 -0.017915681 0.031793818 -0.020675905 0.04207173 0.06469728 -0.007504302 0.022457283 0.022618031 0.009203421 0.021211036 -0.048807103 -0.01258584 0.01563697 0.0131724775 -0.017543875 -0.050048508 -0.074769795 0.007218062 -0.039717115 -0.011635207 0.023020329 0.006174321 -0.007909909 -0.0060877707 0.0052354503 -0.012418129 -0.021679003 -0.022755051 0.073755115 -0.0077893725 0.012914034 0.043121926 -0.05297945 0.029178474 -0.041795105 -0.022587847 -0.013872506 -0.0025979057 0.002400319 -0.008693433 -0.028343955 -0.016962279 0.006305305 0.042583793 -0.0011180029 0.03915862 0.031276956 0.02470407 -0.019803531 -0.0010093511 0.017694458 -0.03282989 0.03293252 0.0032410894 0.03012244 0.051235385 0.0005215353 -0.020117205 0.0228151 0.0010869042 -0.004911422 0.029763728 0.026908895 -0.0033809817 -0.0010304067 -0.025807096 0.02523961 0.025547788 -0.02882632 -0.0034807036 -0.00245398 -0.024396263 0.0116992425 0.037418608 0.005008465 -0.027682748 -0.005949173 0.011285229 0.019058485
172.016.113.105 0.004963642 0.044246707 0.028539978 -0.11134469 -0.06969177 -0.08927478 -0.016191125 -0.096567996 -0.108807504 0.053061575 -0.027369097 0.006206744 -0.022499425 0.08406242 -0.05088816 0.030303227 -0.026581021 -0.029751532 -0.12043931 0.11530032 0.054457795 -0.101916976 0.006184958 0.008585465 -0.09077434 0.076644145 0.13781112 -0.041056246 -0.1484543 0.08674824 -0.04150182 0.017920243 -0.04033791 -0.004304843 0.002938158 -0.04777929 0.09339939 0.10376187 0.08272266 -0.006562633 0.09658344 -0.06687885 -0.031232975 -0.072352 -0.033881195 -0.088058084 0.108973704 0.07449721 -0.10386639 -0.032843817 0.054803208 -0.039732974 0.086625375 0.13236761 -0.032134213 0.03931076 0.048548095 0.02333166 0.03592129 -0.09860095 -0.0370742 0.0269212 0.038637448 -0.035244867 -0.09539787 -0.15657158 0.025799386 -0.08096325 -0.020007422 0.044543404 0.010141731 -0.0122938035 -0.0101127485 0.007967115 -0.03196636 -0.03922278 -0.048255194 0.15144601 -0.005998384 0.032045465 0.093880184 -0.094425164 0.060777802 -0.089684315 -0.04903081 -0.034649864 0.00073836185 0.0076090964 -0.013966592 -0.058062606 -0.042588092 0.009187093 0.07860665 -0.00112719 0.08281213 0.071538724 0.046843357 -0.035797626 -0.007854799 0.04864443 -0.07160506 0.07529883 0.0038668853 0.071317665 0.111333266 -0.0027481248 -0.04396172 0.044178993 0.005068375 0.008949955 0.06540685 0.061624303 -0.012515494 0.012131826 -0.06165769 0.045736615 0.06747211 -0.06660314 -0.016077155 -0.010252114 -0.045082208 0.033115733 0.07985515 0.01786359 -0.06716424 -0.01303325 0.023567276 0.03151462
159.142.001.199 0.015276578 0.0170548 0.029570794 -0.053786647 -0.01291991 -0.043486107 0.0007646993 -0.044079784 -0.04635703 0.029612904 -0.010792151 0.0028916271 -0.00088932435 0.02260901 -0.015067047 0.0039199134 -0.00023108855 -0.022751635 -0.04157258 0.03766716 0.02274035 -0.05697729 0.0017450453 0.002935864 -0.024276374 0.03458139 0.062261283 -0.0036405958 -0.0657323 0.033542402 -0.03508702 -0.005833654 -0.025053298 0.0051357937 -0.005310254 -0.012587815 0.031863768 0.044047814 0.041690305 -0.014692257 0.04717013 -0.029736888 -0.02663571 -0.03197959 -0.004898162 -0.035977498 0.052156806 0.028482355 -0.036211543 -0.0065496345 0.009149695 -0.017099965 0.028504634 0.05539404 -0.022003276 0.009150414 0.010330971 0.023611227 0.009006647 -0.030624961 -0.03235521 0.012226889 0.020131849 -0.026793618 -0.027931226 -0.059736587 0.020632034 -0.035154708 -0.006743268 0.020919932 -0.001418594 0.015951004 0.019081453 0.004228879 -0.0055895583 -0.029038489 -0.018352864 0.058890164 0.012529225 0.0014422482 0.04756766 -0.025933899 0.01882511 -0.04034913 -0.026766296 -0.018716544 -0.0015489911 0.0014068426 -0.0072077974 -0.022966465 -0.012979218 0.0077415816 0.023754012 -0.0043688905 0.028138332 0.026922308 0.019545306 -0.009423682 0.0013730642 0.029088646 -0.040914774 0.033604354 -0.0039279265 0.032083407 0.05009992 -0.018766556 -0.012656249 0.023645315 0.0015113152 0.011499617 0.036841314 0.020225115 0.0059869844 0.017423252 -0.027375178 0.02083805 0.039023142 -0.017729634 -0.015054064 -0.0072731813 -0.023946732 0.024666518 0.041948408 0.008984659 -0.03634314 -0.019759027 0.012683006 0.002000305
192.041.018.106 0.0014481817 0.013853558 0.0021284218 -0.03935346 -0.03318264 -0.02603839 -0.0029165414 -0.03310658 -0.040226504 0.019680846 -0.02084419 0.0006115595 -0.011153682 0.0281698 -0.018886045 0.01984147 -0.012819879 -0.0039290907 -0.041956056 0.049284637 0.015221247 -0.03430576 -0.0051058787 -0.0023208123 -0.028977932 0.030584527 0.04502792 -0.019632969 -0.050344516 0.03859339 -0.0072142524 0.013505066 -0.012610454 0.00047077355 -0.004860599 -0.0139359925 0.0316418 0.030671779 0.023154547 0.0048174 0.029530622 -0.018740699 -0.0030189133 -0.031813063 -0.009730425 -0.037070855 0.04003418 0.025000967 -0.04295065 -0.013157079 0.024570165 -0.0153154675 0.028393624 0.047121152 -0.008802601 0.012022186 0.010888677 0.004272871 0.010325482 -0.0334399 -0.009853119 0.015564174 0.013282472 -0.013873345 -0.040885318 -0.059241157 0.0006892992 -0.028666712 -0.007672892 0.014004925 0.010780804 -0.009858442 -0.00592542 -0.0014904165 -0.0059020636 -0.01345177 -0.016520333 0.051008515 -0.009856577 0.007650527 0.031274475 -0.04423891 0.015191782 -0.026103066 -0.01929957 -0.015817221 0.0043294122 -0.007979342 -0.0028121737 -0.019112717 -0.016180933 -0.005155356 0.038755737 -0.0025302568 0.024150267 0.031013673 0.018650267 -0.015330011 0.0031479145 0.007219363 -0.032963216 0.027680552 -0.0020864364 0.022983478 0.03870506 -0.004482205 -0.009155586 0.017826073 -0.0010417505 -0.00327925 0.017696142 0.018535929 -0.005658018 -1.0767719e-05 -0.010627422 0.014826737 0.021746432 -0.023377478 -0.0031471765 -0.0047558513 -0.020922082 0.008970518 0.031283304 0.0052991575 -0.022707008 -0.0062865904 0.01931445 0.01843733
195.188.052.008 0.010657204 0.014512906 0.015783899 -0.038016714 -0.009826183 -0.029197816 -0.0015744863 -0.028385371 -0.030787557 0.017580528 -0.0075098416 0.0013607059 -0.0048986534 0.020175245 -0.015109268 0.0030039959 0.00097590126 -0.017916456 -0.032939836 0.030299071 0.017731318 -0.033938512 0.0032499174 0.0043029 -0.025490068 0.028004758 0.04245501 -0.010272171 -0.045986474 0.025266882 -0.022494685 -0.0040126853 -0.015642606 0.0008417 -0.003079572 -0.007190626 0.027929548 0.033147763 0.03386365 -0.005983631 0.030345997 -0.022634052 -0.01695314 -0.020639624 -0.007703816 -0.02843255 0.03731329 0.02548911 -0.027586114 -0.0017520781 0.010194576 -0.011562551 0.026314706 0.04037647 -0.016777575 0.007438242 0.009169634 0.014493163 0.008176836 -0.023101967 -0.024139944 0.008372013 0.016932879 -0.018902227 -0.02580708 -0.042633723 0.010471069 -0.025453823 -0.0073712114 0.018794121 -0.003636664 0.009567909 0.0072555146 0.0006180414 -0.0071239695 -0.01786973 -0.00979192 0.04540057 0.010509026 -0.0012066928 0.03428018 -0.02368872 0.01779181 -0.032219324 -0.016617734 -0.014027899 -0.0039015329 0.0022876759 -0.0070289075 -0.0176007 -0.014348846 0.0028828408 0.018977022 0.0036745202 0.023417369 0.019476552 0.015617948 -0.0063545923 -0.002721691 0.016916674 -0.02414979 0.025154334 -0.00097165443 0.025319044 0.033086736 -0.012128908 -0.0068790605 0.012987953 -0.0013923678 0.008286461 0.021344647 0.018510044 0.004616512 0.014483859 -0.020389281 0.013108964 0.02335056 -0.015323376 -0.013982308 -0.007903307 -0.016465696 0.012425257 0.023833754 0.00812384 -0.02451165 -0.008383508 0.0042555146 0.007645732
207.046.130.015 0.0011572645 0.002594992 0.0024757085 -0.02251984 -0.018426923 -0.013175647 -0.003326133 -0.015822059 -0.018822402 0.013403259 -0.00829359 -0.0017947057 -0.0055685258 0.015152112 -0.0063937157 0.004558298 -0.0061246576 -0.0024215048 -0.016601725 0.022608418 0.009397991 -0.014115686 -0.004916816 -0.0032014544 -0.018274434 0.014838358 0.02443066 -0.0054047634 -0.024413168 0.016322425 -0.0072643226 0.007927283 -0.0069086826 0.0031765946 -0.0062123947 -0.010606302 0.016720213 0.014781919 0.01445231 -0.0015693066 0.020625072 -0.006057078 -0.0011973889 -0.017607225 -0.007157525 -0.018807635 0.02106964 0.010782532 -0.01574871 -0.008464835 0.0067345058 -0.0077425377 0.01335262 0.023322456 -0.004225336 0.0076113567 0.0040940857 0.0055519408 0.0062700473 -0.0184987 -0.004405407 0.004098753 0.004906519 -0.0046436735 -0.021147655 -0.028238393 0.005367403 -0.015567888 -0.00595416 0.0039627943 0.004454557 -0.0007786843 0.0032470175 -0.0027699543 -0.0008388057 -0.008223956 -0.005103136 0.023702318 -0.00030469103 0.0046843207 0.015791204 -0.016800504 0.006434069 -0.010763174 -0.015394954 -0.0075960695 0.0035627352 -0.00084645563 -0.005093296 -0.013326339 -0.0051901294 6.2712585e-05 0.017196778 -0.005778585 0.015487762 0.013064954 0.008340258 -0.008764223 0.00061666325 0.0067400485 -0.014958615 0.012680734 0.0011710783 0.013779944 0.018272813 -0.006617329 -0.006812012 0.009083065 0.0007310584 0.00085721596 0.013518496 0.011525922 -0.00440187 0.002931461 -0.01076867 0.0095399 0.011833996 -0.009302387 -0.0025585769 -0.0010775647 -0.009457404 0.0035250972 0.014359116 0.0026973472 -0.009886077 -0.0026011975 0.008873483 0.009103367
131.084.001.031 0.0025863366 0.011193506 0.005376443 -0.024696935 -0.017431663 -0.023400007 -0.006407369 -0.020482276 -0.02794812 0.0073102894 -0.005295502 0.007565735 -0.004661392 0.024176775 -0.013526671 0.0072210375 -0.007193349 -0.0074390713 -0.028251823 0.024932548 0.014099902 -0.019553203 0.0069895927 -0.0017560886 -0.021012079 0.018236768 0.028061008 -0.011496257 -0.031490583 0.01798446 -0.014543431 0.0022619287 -0.01140485 -0.0041682036 0.0025263748 -0.014532372 0.017843598 0.025526676 0.016417056 -0.003868026 0.017652733 -0.017471489 -0.00763789 -0.016751554 -0.007097936 -0.014499404 0.021802573 0.017306946 -0.02383122 -0.010474665 0.011560785 -0.012395887 0.021976642 0.02725472 -0.0030274666 0.009634716 0.013786556 0.0066662473 0.0065744584 -0.025235437 -0.012573549 0.00564936 0.009439208 -0.010353486 -0.020127684 -0.028998028 0.008795864 -0.016187642 -0.0026682478 0.011753942 0.0030044266 -0.0018742167 -0.005039281 0.0024269857 -0.009133172 -0.007013821 -0.010450048 0.035841078 -0.001977812 0.009671023 0.02285581 -0.020682324 0.011822739 -0.023390297 -0.008345941 -0.006549116 -0.00014931432 0.005445672 -0.0035235581 -0.015441494 -0.009871177 0.002577641 0.010793937 0.00075017475 0.020170238 0.012774425 0.008308645 -0.004894102 -0.0027879234 0.012600397 -0.013242873 0.019924384 0.0012176482 0.013164816 0.020377973 0.0020573805 -0.008667128 0.006767653 0.0038780675 -7.5225253e-06 0.01373052 0.016747622 -0.006388401 0.0032910132 -0.01715295 0.012937661 0.012084185 -0.01233362 -0.008262171 -0.0053180438 -0.0073417034 0.009834149 0.010815099 0.005259496 -0.015136844 0.0009188026 0.0036641557 0.004993675
152.163.210.009 -0.0007948647 0.008223164 0.0041630166 -0.024517648 -0.012451341 -0.01739675 0.0009408513 -0.021894787 -0.026000895 0.010128766 -0.006094259 0.000164408 -0.0048318217 0.02093751 -0.011012822 0.009027552 -0.0038460472 -0.0075207115 -0.023116417 0.02281532 0.008519537 -0.020037577 -0.0014913413 0.004765918 -0.01763906 0.011443725 0.027280673 -0.01172999 -0.028544769 0.020575887 -0.0065115443 0.0035918276 -0.005442307 -0.002508907 -0.0011367945 -0.008060561 0.021433245 0.023844402 0.018412972 -0.001025083 0.015307203 -0.012875355 -0.0060595763 -0.012576475 -0.010666956 -0.019902205 0.018066594 0.017739091 -0.020527309 -0.00693368 0.013035461 -0.01117303 0.020892486 0.02646357 -0.0028753043 0.0056865676 0.011589734 0.0061869845 0.0045363447 -0.023946838 -0.0022445866 0.005433951 0.008013707 -0.007815442 -0.017737586 -0.029174974 0.00444902 -0.014122903 -0.00199005 0.008086889 0.0055739963 -0.00062612956 -0.0059788316 0.00069507 -0.005854726 -0.009098416 -0.009875102 0.029019877 -0.0036407572 0.0045856703 0.01839903 -0.01850466 0.013287755 -0.018855566 -0.011577707 -0.009795275 -0.00022667498 0.0016726344 0.00071165385 -0.010918478 -0.007855763 0.005159891 0.019649923 -0.0016884299 0.014871394 0.010759578 0.006188437 -0.011823895 0.0017878385 0.009882705 -0.015943084 0.014923952 -0.00015187333 0.017082673 0.018888753 0.0018210039 -0.009010709 0.0077002393 0.0044602654 -0.0019072846 0.009981118 0.009191283 -0.0045104525 -0.0017116955 -0.008217584 0.010372911 0.011175889 -0.017226499 -0.0046402253 -0.0062485337 -0.0064495746 0.007854908 0.012678941 0.0039350484 -0.010621209 -0.004726331 0.0078757005 0.004736926
205.181.112.065 0.007608513 0.0055602062 0.0060371803 -0.020748422 -0.01124171 -0.013299145 -0.0021611457 -0.020380821 -0.01959106 0.008336138 -0.0066775116 0.0039375178 -0.0030446826 0.008725257 -0.007182676 0.005874348 -0.0055037206 -0.004743156 -0.020934146 0.021569643 0.006582166 -0.02050474 0.0020955454 -0.0007456494 -0.014552902 0.010386963 0.02344183 -0.0018618098 -0.02846836 0.017772097 -0.010732214 0.003987225 -0.006757048 0.001114561 -0.005059081 -0.0058531105 0.01013357 0.013708739 0.012888282 0.0017857419 0.013089294 -0.011489886 -0.0039822543 -0.012836885 -0.004704038 -0.019553691 0.020207943 0.011223611 -0.012458743 -0.0027939398 0.006076639 -0.0076136747 0.009077415 0.021659987 -0.006486128 0.007719664 0.009455791 0.008471796 0.0032519847 -0.01470861 -0.007148223 0.005950534 0.0042688986 -0.008940309 -0.012800173 -0.025255442 0.0049434775 -0.01485313 -0.0010338189 0.0069716806 0.0031263316 0.0005003614 0.004620595 0.0014542905 0.00021569827 -0.009756654 -0.0060583046 0.020739345 -0.0011434854 0.002413499 0.014361331 -0.013542781 0.009123266 -0.016529303 -0.013839878 -0.006578413 -0.001041333 -0.0031293891 -0.004126787 -0.009755532 -0.008755473 -0.00023177039 0.009388878 0.0020832894 0.015089559 0.015768752 0.007370422 -0.0030543408 0.0011626978 0.008616026 -0.015136501 0.014928754 0.002622628 0.014017932 0.016064724 -0.0017931097 -0.00869808 0.0095977625 0.0012106408 0.0019062932 0.012341359 0.0072881095 -0.001035499 0.0074836626 -0.0101582 0.009899246 0.013366146 -0.007101454 -0.0042275367 -0.0044419207 -0.012787668 0.0070358813 0.011779581 0.002887986 -0.01359885 -0.004223851 0.009083635 0.0076322155
187.187.187.187 0.011835717 0.0024208687 0.0018064925 -0.01732456 -0.015824817 -0.013657343 0.0035614814 -0.015645042 -0.013310928 0.010723434 -0.010198442 -0.0037085603 -0.0023869267 0.007286446 -0.0021725593 0.0037503187 -0.0029638214 -0.0082104625 -0.0149403205 0.018588869 0.004616632 -0.015418585 -0.008459133 0.001643542 -0.005936836 0.019122986 0.024202747 -0.004215018 -0.024481378 0.017492173 -0.008073762 0.0012912725 -0.014255032 0.0075968425 -0.01400474 -0.0052112765 0.010487831 0.013785933 0.010416455 0.0016166905 0.020599537 -0.008040216 -0.0032644048 -0.015607878 0.0011827232 -0.017385494 0.023251029 0.010317173 -0.017435167 -0.004709862 0.008817284 -0.0028522788 0.0024676048 0.01891366 -0.010174185 -0.00037449063 -0.0056440113 0.011526458 0.0019076054 -0.0029544565 -0.009196017 0.012064584 0.0070261965 -0.0115551315 -0.015905036 -0.031289615 0.0049552214 -0.005792992 -0.0020723217 0.0024670423 0.0049898177 0.0030863448 0.008061153 0.00086797704 0.001752587 -0.015205655 -0.005976499 0.015958533 0.002265906 -0.00097469764 0.015249291 -0.014913168 0.0018853538 -0.0102802375 -0.012164981 -0.009997655 0.0035918218 -0.0066126664 -0.004073956 -0.009719943 0.0016435551 4.4629443e-05 0.014546177 -0.0071959067 0.007453891 0.017557684 0.01650717 -0.0017137097 0.0055180145 0.0017014267 -0.025151238 0.011221309 -0.0018182638 0.012454028 0.022626657 -0.007830067 0.003574852 0.014965982 0.00019391518 0.003179901 0.0074283862 0.00923554 0.005786394 0.008422381 0.000105071405 0.004849623 0.021262418 -0.010699795 0.0010223371 0.0016267195 -0.012992814 0.007672579 0.01816457 0.0012254623 -0.010600492 -0.005809873 0.016771553 0.006600571
199.186.148.137 -0.00050328893 -0.0014260476 0.0007200487 -0.0063415812 -0.00345657 2.4727779e-05 -0.0030433945 -0.0058024554 -0.0007144569 0.0018789545 -0.0025474345 0.001496556 -0.0040189237 0.006000827 -0.004390864 0.0015140078 -0.00042119386 -0.00084885984 -0.0049143545 0.004881284 0.0028602644 -0.0065700696 -0.0036353965 0.0027577963 -0.00093412586 -0.0010062689 0.004668792 0.0022308007 -0.003791799 0.0031934732 -0.0010529043 9.436201e-05 -0.0011931818 -0.00030220137 -0.00030635233 0.0016802013 0.0035174098 0.00460493 0.0031394623 0.00033804512 0.0017862637 -0.0023503806 -0.00037187256 -0.0029081057 0.0016815725 -0.0032537358 0.005295705 0.005741572 -0.0055775754 -0.0040809675 0.00084871706 -0.0028388544 0.005264742 0.0055831596 -0.004361079 0.003009343 0.004134939 -0.0022973986 0.0018912926 -0.0011726159 -0.0027793995 0.0034516049 0.0012554628 0.0014071851 -0.0022329618 -0.0014768767 -0.0014380495 -0.0063306913 -0.0043627815 0.0043947077 0.0018314768 0.0027188114 -0.0038930909 -0.00090748013 -0.00021543464 0.00033278298 -0.0033383938 0.002060653 -0.002954884 0.00224837 0.0067663747 -0.004286583 0.0039250315 -0.001413602 -0.002786071 0.00025301566 0.0027848494 -0.0005320425 -0.0041656024 -0.0042874347 -0.0029620547 0.002065931 0.0056285844 -0.00026759133 0.00018368172 0.004334321 0.0015483613 0.0014205338 0.0026773622 -0.002214829 -0.0040518683 -0.0010874183 0.0021122608 0.0022188355 0.005709707 0.0031101555 0.001662007 0.0014677901 -0.0016017188 0.0017765731 0.0036834835 0.0047895773 -0.0033889206 0.00040488504 -0.005273183 0.0038892287 0.0027700511 -0.0005929703 -0.0019356483 -0.0036465505 0.0017899207 0.0038197124 0.0016314702 -0.00030925253 -0.0049760165 -0.0017692912 0.0049860496 0.004499367
206.064.046.005 0.002302408 -0.00018094515 -0.0020558266 0.0023584089 -0.0008057856 0.0036149782 -0.002079066 -0.0016595754 0.0017979022 0.000690644 0.0023562706 -0.0024173667 0.0013943563 -0.00041225593 -0.0026345775 -0.002095355 0.0030462462 0.00057106884 -0.0002666186 0.0038418104 0.00212718 0.0006057887 -0.0038754144 -0.0036464212 -0.0025925653 -0.002238033 -0.002055299 0.0019801836 -0.0027264864 0.003865122 0.0029806874 0.0010448371 0.0023988811 0.0018793272 -0.0028918174 0.0033458949 -0.00018185837 0.0009261485 0.0013735424 0.0023576093 -0.0016919867 0.0019398045 -0.0028700724 -0.0030823296 0.00086513767 -0.0029422275 -0.001984197 -0.002286903 0.0031807348 -0.0017849582 0.00017214823 0.0017127368 -0.0016164392 -0.002343 -0.003301122 0.00035578513 -0.0028467393 -4.649302e-05 0.0028467984 0.0037943101 0.0036550849 -0.0021847868 0.0007456391 -0.0018137007 -0.0016848011 0.0016808558 -0.002064745 0.003800565 0.0018000624 -0.0007419299 0.0025013525 0.0012669254 -0.0009991141 0.0025713674 -0.0011137553 0.0032621787 -0.0036643497 0.002211397 -0.0011271712 0.002307891 -0.0018980623 0.0024784082 0.0028686416 0.0023391875 -0.0035934818 4.3323627e-05 -0.0003742881 0.002596586 0.0035598595 0.0023097107 0.00070461986 0.0007844446 0.0025218818 -0.0003830287 -0.0025749684 -0.0013968546 0.00097447704 0.0033681707 -0.0032073415 -0.0021440887 -0.002257138 -0.00044969242 0.0032073914 -0.0011941995 0.0012313282 0.0007126193 0.0013309093 -0.0022502064 -0.003373993 0.003783086 0.0039596423 0.0036615815 -0.00017505164 -0.0010156466 0.0025670703 0.00072681974 -0.0032574309 0.0003999372 1.5626361e-05 -0.0036984903 -0.0012845948 0.00055836944 0.0035237214 0.0017766686 -0.0029108513 -0.0017363321 -0.00041445025 -0.0007395151
206.048.044.018 0.00551772 0.037554964 0.03216301 -0.07110942 -0.026446216 -0.065243155 -0.010197457 -0.0625346 -0.06644671 0.034747828 -0.009489759 0.007678412 -0.0034822705 0.052560423 -0.027545776 0.011324447 -0.0014432715 -0.030504819 -0.07521328 0.056240465 0.03754741 -0.07461175 0.016371142 0.0026583483 -0.053542364 0.049243614 0.08330103 -0.015585673 -0.094922334 0.04626537 -0.040112045 -0.00013779663 -0.025455577 0.0008394279 0.006774232 -0.031369966 0.05460612 0.06564668 0.058750425 -0.017220102 0.0599371 -0.05020655 -0.03204594 -0.038851228 -0.023913227 -0.04822719 0.06739426 0.04873974 -0.05354384 -0.015017825 0.026078548 -0.027955914 0.057337336 0.08037019 -0.0257158 0.024020752 0.03344134 0.025019761 0.016502917 -0.058108993 -0.032856386 0.012507189 0.0269639 -0.026960691 -0.046509504 -0.08295389 0.020811522 -0.05576177 -0.007514814 0.03254704 0.0031788289 0.0065194773 0.0072102305 0.009998673 -0.019662643 -0.028353266 -0.028121943 0.0888927 0.006570651 0.007452476 0.05983887 -0.04038875 0.039825656 -0.06741923 -0.024509694 -0.01630341 -0.0044989786 0.013398098 -0.0070485296 -0.036703583 -0.024277624 0.01682646 0.025980266 0.007899304 0.049052052 0.036254466 0.024086552 -0.014911163 -0.012227852 0.03611422 -0.0310724 0.04568983 0.004012861 0.03851311 0.062206507 -0.006410548 -0.027677137 0.017421227 -0.00095514045 0.017103173 0.04067406 0.034596305 -0.0054039257 0.015273355 -0.047232363 0.03554205 0.038674515 -0.03677428 -0.019943818 -0.00870169 -0.020060226 0.020969838 0.04265955 0.009335745 -0.0447072 -0.009103496 0.009064995 0.01595114
172.016.112.149 0.009259732 0.025532767 0.03248572 -0.06751229 -0.023454165 -0.059270956 -0.005383591 -0.05776431 -0.0604095 0.03354348 -0.0070458525 0.0021524287 -0.008396505 0.043266285 -0.02481412 0.006604271 -0.0012645633 -0.027703268 -0.07003902 0.04588046 0.03357641 -0.06670299 0.011746299 0.0015619516 -0.045274653 0.048376545 0.08132334 -0.011737528 -0.08430201 0.045400213 -0.04267879 -0.002140401 -0.028648654 0.0028736345 0.009269241 -0.021044806 0.04487901 0.05876347 0.05707197 -0.017275501 0.06066236 -0.045209806 -0.032361116 -0.037822966 -0.013886328 -0.04844764 0.06567705 0.043264825 -0.04271691 -0.010416338 0.02029852 -0.02241054 0.043617714 0.07714727 -0.0246488 0.0155401705 0.02966837 0.024831485 0.014931826 -0.04597069 -0.038606558 0.011467008 0.024333643 -0.0282632 -0.04187533 -0.075152785 0.024847314 -0.051737517 -0.011806266 0.027714126 -0.003098389 0.008426584 0.014478962 0.008600313 -0.01310286 -0.028880715 -0.02075065 0.082971334 0.011344821 0.0055915993 0.055782296 -0.036919665 0.029340139 -0.063811004 -0.026479404 -0.022709085 -0.00042270473 0.01545472 -0.008055795 -0.038748376 -0.024464598 0.010418599 0.026002347 0.0058651785 0.047838755 0.03080292 0.02577008 -0.017590435 -0.008871538 0.037432205 -0.04010342 0.040829867 0.00033485948 0.040913187 0.064023726 -0.013514093 -0.020182382 0.022735875 0.002319737 0.019050898 0.03917569 0.02922451 0.000627802 0.015385587 -0.03852865 0.028221907 0.041302636 -0.02742439 -0.020049358 -0.0060313838 -0.02007782 0.025869263 0.044114895 0.009385083 -0.04439696 -0.013576828 0.005779728 0.010617042
192.168.001.010 0.0022046259 -0.0031193828 0.0012965199 0.0029340582 0.0036648228 -0.0032938626 -0.00027805608 -0.0036113344 0.0028711827 0.0018852738 0.002898528 0.0008711096 0.00021119563 0.00018355317 -0.001619553 0.0032805046 0.0001495407 -0.0029166075 -0.0033959982 -0.003177171 0.0018604563 -0.0018466152 0.00264424 -0.0014027895 -0.0013835742 0.0027440065 -0.0010433864 -0.00031441287 -0.0012577629 0.0018390618 0.002111744 0.000860347 0.00222339 0.0034870328 0.003743032 0.0013271731 0.00076036144 0.0009273362 -0.0030194416 0.00083007826 0.0011807587 -0.000755209 0.00021282578 0.001506923 -0.0022799443 -0.0028192822 -0.0024283591 0.0013766136 -0.0011900198 -0.0037869536 -0.0020238368 0.0014557614 -0.0019616757 0.0031327722 0.00029407706 0.0030212835 -0.0013196636 0.0024202552 -0.0003718951 -0.0033901746 0.001184503 0.0028610823 0.0029292172 0.0015237214 0.0023354047 0.0022871352 -0.0007328392 -0.001073279 -0.0006759847 0.003741624 0.0030298524 0.0016589427 -0.0032654789 -0.0025448815 0.00030560407 -0.0025582719 0.0001940283 0.00060570834 0.003352731 0.0037660457 0.0009613955 -0.0018580075 0.0031287945 0.0009293632 0.0016044081 0.0029378692 0.0037735759 -0.002388475 0.0037266768 -0.00010478351 0.0014459318 -0.0015778873 -0.0026038168 0.0029786397 0.0033845585 0.0035228054 0.0030625276 -0.0023070131 -0.0027295584 0.0001803581 0.0015327884 -0.00064071995 0.000228846 0.0014656126 0.0001721735 -0.003223933 -0.002103482 0.0027995927 -0.0010102327 0.00065796624 -0.0012566696 -0.0018584484 0.003096143 0.001846099 -0.00010883189 -0.0017993835 -0.0022344503 -0.00042058332 0.0015438768 -0.0028083716 0.0011562163 0.0033257757 0.00034586995 -0.0007507354 -0.0026740467 -0.003061683 0.00252924 -0.0028016695
172.016.114.169 0.018742451 0.02533193 0.017566685 -0.07088566 -0.04807716 -0.050292715 0.002472244 -0.0623451 -0.07092993 0.0450926 -0.024857784 -0.0030890375 -0.01457088 0.042008143 -0.026390623 0.022108946 -0.012001103 -0.016578427 -0.07004622 0.07567895 0.028945213 -0.06542675 -0.0053173215 0.0045086127 -0.049008973 0.053790677 0.08936554 -0.022157524 -0.100117035 0.055611555 -0.0320023 0.015408249 -0.03534863 0.0073989034 -0.014488239 -0.018321112 0.050823506 0.05471535 0.053419642 -0.0018343348 0.06534859 -0.036660746 -0.020917585 -0.054111335 -0.010744098 -0.064710654 0.07350411 0.0454835 -0.06218625 -0.023575805 0.03439053 -0.021778885 0.040479288 0.0853405 -0.022544801 0.022075534 0.014888034 0.02181479 0.014759298 -0.0474279 -0.02810118 0.027494308 0.023829482 -0.023519563 -0.06291694 -0.10077932 0.01241245 -0.049163423 -0.013136882 0.028685573 0.010699474 0.005563343 0.0056583467 0.0011842905 -0.007875047 -0.039335642 -0.028129304 0.08864826 0.0021002716 0.006592311 0.06596718 -0.06463045 0.027716804 -0.05283883 -0.04211034 -0.029226769 -0.004996985 -0.0029861862 -0.012711787 -0.040861722 -0.02153746 0.0012234505 0.05910339 -0.010220691 0.04726612 0.050437264 0.03547994 -0.018633287 0.00869286 0.020724675 -0.063025124 0.042255737 0.0018116196 0.050355583 0.07251933 -0.017416783 -0.018561808 0.030247193 0.006733513 0.0038540484 0.039727006 0.029880896 -0.0009392755 0.014552781 -0.02689436 0.027717346 0.048122298 -0.03483572 -0.008520342 -0.0032922062 -0.037444744 0.023331536 0.057841524 0.006625552 -0.044293355 -0.015775621 0.032578073 0.023199998
172.016.113.084 -0.003538881 0.032189477 0.010087002 -0.067061335 -0.048089817 -0.052224614 -0.0089732325 -0.060048874 -0.06992197 0.03426397 -0.018020496 0.010019465 -0.012987016 0.055962086 -0.030613318 0.02288637 -0.019217089 -0.009330399 -0.07455492 0.07364833 0.038497247 -0.058255274 0.0070243706 0.0015077769 -0.06369955 0.04612117 0.08353664 -0.026027663 -0.091038026 0.055620737 -0.024570042 0.014681694 -0.021402452 -0.0013334958 0.0054345205 -0.034286566 0.05966499 0.06325214 0.05093651 -0.0016498334 0.05874693 -0.0426043 -0.014062988 -0.04136186 -0.022307593 -0.058024958 0.068126015 0.039627485 -0.06323142 -0.028326338 0.032805298 -0.02687816 0.057737987 0.08391424 -0.013325835 0.024689838 0.029559158 0.01486404 0.025179861 -0.066880174 -0.020594696 0.017920755 0.021279657 -0.018290017 -0.05711008 -0.09806004 0.014468169 -0.054276448 -0.01071327 0.024866385 0.007899785 -0.015251169 -0.011578245 0.0021955613 -0.018661328 -0.020423865 -0.031017125 0.09768774 -0.012557914 0.021630904 0.058388114 -0.06352647 0.036926903 -0.059606668 -0.028716985 -0.016356876 0.0018229397 0.0021532127 -0.0034785396 -0.040513836 -0.031004857 0.011333181 0.04971999 0.0022018019 0.05720578 0.04074715 0.023234878 -0.025600009 -0.004806311 0.028669475 -0.04112213 0.04553908 -0.002714293 0.03853077 0.06883046 -0.00016967999 -0.028007936 0.020775273 0.0021491563 0.00208758 0.03609573 0.04017489 -0.008148024 -0.0007603364 -0.038623236 0.029708896 0.037922584 -0.042283908 -0.0046728263 -0.010314728 -0.022905346 0.014573675 0.049830608 0.008387455 -0.040789884 -0.0060510775 0.017444082 0.022630963
194.007.248.153 -0.04936048 0.087494865 0.06296118 -0.08129498 0.007698716 -0.10811348 -0.056393072 -0.061148103 -0.0905801 -0.0036869517 0.055269647 0.046531405 0.02500889 0.12092227 -0.06020733 -0.020963304 0.031980723 -0.059258435 -0.13745743 0.010834537 0.08265362 -0.09205942 0.08447498 0.016639972 -0.09705432 0.025381098 0.09238763 -0.0033265608 -0.08654698 0.025215423 -0.08473184 -0.03171335 -0.0021472818 -0.025554594 0.1067957 -0.07206707 0.092342645 0.12033781 0.08766895 -0.061147813 0.045291323 -0.11434052 -0.08010658 0.01646425 -0.074435145 0.01302618 0.04835473 0.07261009 -0.039292686 0.0017134277 0.0199708 -0.038926296 0.13462555 0.07786143 -0.029539844 0.054935362 0.1326339 0.007904768 0.022034882 -0.13134646 -0.061172694 -0.046082836 0.04304066 -0.034210224 -0.00744801 -0.025793698 0.04846862 -0.10299071 -0.016574455 0.05839423 -0.039754495 -0.02324881 -0.030864213 0.05187396 -0.09333834 0.025277572 -0.05629035 0.12185659 0.025670871 0.041475892 0.051440913 0.018481787 0.10700347 -0.13302353 0.032077394 0.01105428 -0.012542115 0.096773714 0.010836906 -0.04867691 -0.068668745 0.07180166 -0.043071844 0.06368556 0.10867365 -0.018123182 -0.026898252 -0.024571484 -0.08013377 0.09246453 0.073702015 0.0690939 0.011972654 0.02007423 0.054497167 0.06952355 -0.09504375 -0.027497226 -0.0023034287 0.04389449 0.05310704 0.06510847 -0.015985569 -0.032960925 -0.13873121 0.07296291 0.0018102885 -0.041095495 -0.053619314 -0.05062517 0.040614445 0.028466541 -0.0161073 0.030164825 -0.066676505 0.016657058 -0.08218481 -0.0029390962
172.016.115.234 0.010228359 0.023141962 0.013335963 -0.07270979 -0.05514059 -0.054211207 -0.001984482 -0.06308698 -0.07065925 0.041082937 -0.027933627 4.0350133e-05 -0.023560543 0.052066997 -0.02850461 0.02784669 -0.023911467 -0.013259039 -0.076367065 0.08498175 0.034320183 -0.06295658 -0.0021100356 0.0033720734 -0.058506906 0.053723924 0.08612735 -0.031192522 -0.09725848 0.062119577 -0.024184676 0.019795038 -0.028107828 -0.0021927746 -0.0073917815 -0.030587865 0.059990752 0.05860488 0.05448902 0.0044636363 0.06453472 -0.03477267 -0.01071737 -0.0518989 -0.013414898 -0.06303274 0.07798903 0.0434275 -0.07354119 -0.028649002 0.035163254 -0.026736569 0.049384836 0.090213 -0.018225487 0.024210412 0.024592943 0.01789623 0.025784234 -0.057307616 -0.022985501 0.026394363 0.018123057 -0.027193008 -0.07134974 -0.110838555 0.011532567 -0.0494255 -0.01438904 0.030710515 0.013232482 -0.008406487 -0.0013862381 -0.0016150372 -0.012960571 -0.031661164 -0.03357474 0.097992696 -0.009289643 0.020605305 0.06173464 -0.07612983 0.035283316 -0.053182174 -0.038695555 -0.022137586 -0.002472075 -0.0015153324 -0.0099866055 -0.038603663 -0.027110253 -0.0013860986 0.06839976 -0.009615049 0.048278287 0.05583738 0.038730267 -0.027013196 0.004003053 0.02251739 -0.056525666 0.046363406 -0.0028971708 0.05090224 0.07368122 -0.01324029 -0.021224726 0.036831126 0.0053715277 0.00036484445 0.041948263 0.034114778 -0.008691366 0.00741749 -0.032138 0.028930653 0.04468148 -0.04541473 -0.0023604918 -0.0013206162 -0.037577067 0.021713635 0.057923462 0.010618057 -0.042284995 -0.010437084 0.024362667 0.024577789
196.227.033.189 -0.010657709 0.062242188 0.055419117 -0.08656897 -0.00687024 -0.09326017 -0.024367489 -0.068568446 -0.077662565 0.023134401 0.021481285 0.02812217 0.01337147 0.08338265 -0.044522565 -0.015473242 0.017118009 -0.047514398 -0.10366139 0.030512149 0.06152229 -0.09350317 0.04919949 0.006859653 -0.0696452 0.03877054 0.09083416 -0.007631613 -0.09392023 0.034512334 -0.07475039 -0.018688766 -0.015448621 -0.0036954796 0.05638291 -0.045807913 0.065786205 0.095066324 0.08363574 -0.04120326 0.061276395 -0.08068822 -0.06670656 -0.013984311 -0.042322252 -0.022867532 0.058163535 0.062350236 -0.042430725 0.0007977054 0.017225934 -0.02907732 0.090668336 0.07768449 -0.03345212 0.028831337 0.08284758 0.026823884 0.015744353 -0.08669752 -0.05836348 -0.0138896275 0.040217903 -0.03272382 -0.026802925 -0.0534795 0.03822719 -0.07704618 -0.013018714 0.04750752 -0.021450207 0.0034927523 -0.00072332774 0.029011033 -0.051832914 -0.0063859476 -0.035433777 0.100892685 0.028930511 0.012543322 0.057253703 -0.0021816683 0.06695734 -0.1011643 -0.0030545867 -0.00354286 -0.007145688 0.055859264 -0.0016263821 -0.044221245 -0.04151589 0.046140358 -0.01189123 0.035642907 0.07854694 0.0054049147 0.00017859897 -0.017014746 -0.04266923 0.065696836 0.01258603 0.059311677 0.008760207 0.034166783 0.06287575 0.022630347 -0.058259476 0.0052700187 0.0026263264 0.03928662 0.0514102 0.04723928 0.00034904922 0.00289472 -0.091016665 0.051975995 0.033532165 -0.034931686 -0.03834744 -0.033220425 0.0040228986 0.029562423 0.01622144 0.017156228 -0.06109359 -0.006823165 -0.03459957 0.0016861252
135.013.216.191 -0.02606275 0.07032401 0.064861014 -0.0637186 0.031743668 -0.09701413 -0.036279246 -0.04841481 -0.064171486 -0.0040500457 0.0548108 0.041763265 0.035060246 0.08439512 -0.045266557 -0.034028664 0.0435478 -0.05996001 -0.09860134 -0.023138348 0.068590455 -0.0805694 0.07698971 0.01049287 -0.057203807 0.02003278 0.06897697 0.01562216 -0.0670268 0.007873665 -0.08994527 -0.04284024 -0.002383959 -0.004838463 0.088353336 -0.046705343 0.059583075 0.09685948 0.079277866 -0.0658658 0.04445109 -0.09213423 -0.082454704 0.01849027 -0.053737067 0.02002519 0.036284287 0.06026565 -0.0048220833 0.013960845 -0.0037841196 -0.029161718 0.102178514 0.05103866 -0.03672928 0.031435657 0.105722725 0.023768606 0.0024740812 -0.08685296 -0.06747287 -0.0435926 0.039218977 -0.035931546 0.014422339 0.0035302418 0.04577922 -0.07906382 -0.007449234 0.045551747 -0.041123375 0.007179612 0.00040762243 0.042276245 -0.071991324 0.013014695 -0.039577805 0.08198203 0.038571104 0.012466733 0.041043125 0.045285866 0.07652513 -0.11651747 0.02428902 0.0069910362 -0.011955342 0.089772485 0.009062946 -0.03567658 -0.048547823 0.06445101 -0.063412935 0.052183133 0.077469826 -0.029448854 -0.018797537 -0.004212923 -0.059492238 0.08054796 0.062310755 0.047782965 0.0138420155 0.015079049 0.037063412 0.037832923 -0.06593491 -0.02690016 -0.0026606047 0.051952593 0.05305712 0.0442709 -0.005757831 -0.0048696576 -0.1147488 0.058752604 0.0066212257 -0.024398467 -0.052926727 -0.047786918 0.030551102 0.03650841 -0.01696316 0.019567924 -0.06035302 0.0013748942 -0.07505478 -0.017388409
172.016.116.044 0.017406207 0.027038723 0.021035017 -0.08750042 -0.045442197 -0.060696788 -0.004625576 -0.06739533 -0.07313314 0.04178393 -0.026915427 -0.00079223164 -0.017264027 0.051121294 -0.03211651 0.022368759 -0.010935962 -0.020193273 -0.08025742 0.07611509 0.038548797 -0.071651496 0.0007187262 0.0004106476 -0.05573573 0.06074376 0.09599573 -0.026729044 -0.10974601 0.06387776 -0.03893867 0.0066663935 -0.035942234 0.008967967 -0.011670448 -0.02617513 0.053411823 0.06390695 0.064113304 -0.003669025 0.06891938 -0.04378422 -0.025241587 -0.05029807 -0.017160531 -0.06600738 0.08140347 0.04563203 -0.06872802 -0.019904796 0.03484306 -0.031034766 0.04408872 0.09167302 -0.026903633 0.023432553 0.020993982 0.029132845 0.02317306 -0.057236176 -0.02882473 0.027967023 0.028808333 -0.034583177 -0.06566649 -0.111955546 0.018098611 -0.0500736 -0.016301513 0.03109485 0.011127488 0.0026240055 0.006640012 -0.0014151288 -0.008801318 -0.039290745 -0.031393107 0.09997474 -0.0005908898 0.0070433626 0.06597992 -0.06863121 0.026968604 -0.063450225 -0.046916127 -0.029189382 -0.004476587 -0.00015690533 -0.012959616 -0.043186154 -0.020159889 0.0041376315 0.05734861 -0.0024667743 0.0551938 0.054104175 0.039546065 -0.019602563 0.000991107 0.030846205 -0.060330186 0.054236718 -0.0021427197 0.052940663 0.081836335 -0.021556906 -0.020597177 0.034806687 0.00023117138 0.010743075 0.048823096 0.035988197 0.0015491362 0.020370284 -0.03386019 0.02948131 0.05197062 -0.044753134 -0.00976523 -0.002768459 -0.035883438 0.02355392 0.066737555 0.013034201 -0.052879184 -0.02167582 0.025169136 0.018234733
197.218.177.069 -0.0236388 0.057602827 0.038575895 -0.080730796 -0.018778063 -0.08282129 -0.032032285 -0.06238553 -0.08445368 0.016926466 0.020728027 0.03154248 0.0021543768 0.08989943 -0.044473 0.00012288848 0.0061716754 -0.03877376 -0.11327813 0.0437792 0.06115105 -0.0824279 0.040757652 0.01338677 -0.0828872 0.040656365 0.090814434 -0.015749268 -0.09339259 0.04195332 -0.060646117 -0.01191326 -0.016720474 -0.009862286 0.05251517 -0.0516362 0.07716866 0.09368911 0.075854376 -0.030654754 0.05346297 -0.07517512 -0.05136061 -0.013630062 -0.048607398 -0.02225843 0.05937881 0.059391942 -0.055641305 -0.0137330135 0.026656514 -0.035819735 0.09986175 0.08280886 -0.024319494 0.038591713 0.0846728 0.016723933 0.018225227 -0.09879342 -0.047786113 -0.015228272 0.03410932 -0.030784888 -0.034469582 -0.06503204 0.02908716 -0.078567 -0.012120323 0.03906097 -0.01247949 -0.015783068 -0.016652144 0.029835947 -0.059629478 -0.003019387 -0.04164346 0.11159805 0.011133883 0.02723725 0.06022632 -0.019802678 0.06790198 -0.09816602 -0.0015969775 -0.00466636 -0.003927341 0.04991101 0.0017246841 -0.046840895 -0.050928116 0.039850377 0.0069681257 0.033885017 0.079005145 0.013366412 0.0016855807 -0.021654055 -0.047582332 0.062482763 0.00960013 0.060280472 0.00901069 0.036704537 0.06228995 0.032916196 -0.06414995 0.0014279755 -0.00016055186 0.025717758 0.045133878 0.053547453 -0.008330707 -0.009090425 -0.0885097 0.05615443 0.025958199 -0.044436965 -0.034835473 -0.032788314 0.008960303 0.02412137 0.020700078 0.02086537 -0.0578515 0.0012274462 -0.029213555 0.01083936
