31 128
192.168.001.001 -0.00094315823 0.002807275 -0.001976099 -0.002486012 -0.007592019 0.0006143089 -0.00474041 0.001880294 -0.0044143237 0.0031962497 -0.0015399227 0.00068183226 -0.0013616564 0.006619636 -0.0014294168 0.0022385907 -0.0060159788 0.0058219153 -0.008344216 0.0068792673 0.00066149776 -0.0019431018 0.00085841474 0.0021487533 -0.0063297213 0.0022046936 0.0049667703 -0.0055465554 -0.0025201344 0.003176415 0.0048897727 0.0050832503 0.0008281577 -0.0013969078 0.0018412562 -0.0016639748 0.004666905 0.0012175282 -0.0016314622 0.0047506117 0.003694517 0.0020756316 0.0020950472 -0.0051142806 0.0020582266 -0.0024277135 0.0037746232 0.0042909645 -0.0073992317 -0.0056584594 0.0073263245 0.0032035531 0.005066934 0.0061536455 0.0014492597 0.003951675 -0.00031756595 -0.003480482 0.004873908 -0.007829034 0.003432392 0.0016983274 9.8648095e-05 -0.00035771364 -0.0061212466 -0.00863735 0.0012513093 -0.0064374316 -0.0042593786 0.00094167044 0.0018909408 -0.0064089284 -0.006319232 0.00014987322 0.0003500865 -0.0006405773 -0.0043541393 0.008129244 -0.0038627374 0.003932712 0.0051383516 -0.0074677793 0.0043212525 -0.0021402522 -0.0021781244 -0.0021510907 0.0032594863 0.002848894 0.002618877 -0.003315601 -0.0011065899 -0.0016210775 0.0059571974 0.0035354919 0.0061702677 0.0042646555 0.0009059265 -0.0065037035 0.0007407286 -0.0006858999 -0.003440278 0.0051815826 0.0012007594 0.004014968 0.004478349 0.0046526077 -0.004684109 0.0010558405 -0.0025080054 -0.005340271 -0.0024936057 0.00264717 0.00040633886 -0.0037332634 0.0011213293 0.0010802845 0.0042285 -0.004445087 0.0021442373 0.0005730531 -0.0029163691 0.0016492679 0.004474236 -0.00067392195 0.0013150849 0.003475932 -0.00081448164 0.003970383
194.027.251.021 -0.003989919 0.0017130014 -0.0051984917 -0.000743993 -0.006229261 -0.0038246126 -0.0014034942 -0.004130522 -0.005426167 -0.00039484003 -0.0030291192 0.003400553 -0.0026587164 0.006577121 -0.0040145325 0.00595246 -0.002496439 0.0006524296 -0.0078008194 0.0074193836 0.0026917048 0.00045539244 -0.0047140718 -0.0005332714 -0.0038782007 0.0010120692 0.0052916664 -0.0033428085 -0.006131555 0.0047135605 0.0030141124 0.0031842724 -0.0005052573 -0.004896591 -0.0021216816 -0.0029069504 0.0046501616 0.0053400015 0.0033885806 0.0024577593 -5.4805263e-05 -0.0034962022 0.0058079427 -0.0016829165 -0.004442505 -0.006525412 0.0036594504 0.0008674427 -0.004887412 -0.0037089367 0.0069217132 -0.003408192 0.005410379 0.0048232293 0.0032094144 0.00038593824 0.004967012 -0.0005661673 0.0030155978 -0.00524915 0.0026579315 0.0013890038 0.0025073434 -0.00014198793 -0.0066577913 -0.008309159 -0.004687624 -0.0027605027 -0.0001266519 0.0023133538 0.0035796056 -0.005945237 -0.004252592 0.0015978034 -0.004433593 -0.00030503073 -0.0016027176 0.006844313 -0.0050884304 0.0056699933 0.0010785953 -0.0059074247 0.004314906 -0.0034356778 -0.0003506138 0.0014481515 0.00038968146 -0.002469766 -0.0036242176 -0.0019542833 -0.0025075616 -0.0010884609 0.0072164307 -0.002353904 0.004932841 0.0039807246 0.00031334203 -0.0039898264 -0.0050792107 0.0007416929 0.0008945792 0.0033424415 -0.00039557635 -0.0015528861 0.0014765477 0.0038722178 -0.0019313092 0.002160528 0.0029911124 -0.0051290444 0.0027938976 0.002834941 -0.0027592848 -0.0054371757 -0.0043555633 0.00096050027 -0.0028377038 -0.00413098 0.0013922616 -0.0011805824 0.0021820033 -0.0024305824 -0.00069204986 0.0014745066 -0.00033353383 -5.0372993e-05 0.0042491555 0.0023553371
172.016.114.148 0.00082666526 0.00034348865 0.0029391295 -0.0046714717 -0.0047708205 -0.0021160196 0.0034655696 -0.0014134559 -0.0012339391 0.0006657403 0.001006998 -0.0032286767 -0.004911022 0.0013641632 -0.002053583 -0.00036105252 -0.0022063847 -0.0007535374 0.0018267975 0.0039216867 -0.0021012193 -0.0038617756 0.0037060634 0.002262266 -0.0044969046 0.0050967922 0.0025869787 -0.000858622 -0.0045312904 0.004692649 -0.0013432509 -0.0015066052 -0.0016079696 0.0015247279 -0.0011279875 -0.00367898 0.006084841 0.0020633354 0.0013377223 -0.0050940495 0.001047755 -0.0001445696 -0.0005356608 -0.0034237998 -0.0018257028 -0.0041570766 0.0013743424 0.0007308786 -0.00400033 -0.0023657845 -0.004000625 -0.0028006572 0.0010671702 0.0031967745 -0.0025687213 0.0040518413 0.0010747139 0.0025625976 -0.00038457854 -0.0038425946 -0.00084253045 0.0021272984 -0.0003432636 0.0011597347 -0.0012552688 -0.004005358 0.001088041 0.00021899788 0.0037397232 -0.0026232542 0.0014919223 0.0026384844 0.0030375915 -0.0015814656 -0.00061942986 -0.002380954 0.0007639738 0.005412625 -0.00046170436 -0.0035335333 0.0050969836 -0.0046574436 -0.0019783394 -0.00052597205 -0.0015388894 -0.004349647 -0.003504375 -0.0025155356 0.002012078 -0.0026911267 -0.0035658067 0.00195101 0.0051525165 -0.003264637 -0.0016447152 0.00011172862 0.0031780861 0.004318439 -7.471295e-05 0.00017656096 -0.005541318 0.00029343518 0.0028279943 0.0010570653 0.0045750313 -0.0022963271 -0.00075843337 0.003235871 -0.00058901706 0.0028192962 -0.0012417561 0.003782089 -0.0008220593 0.0041936045 0.00010962875 0.0046839714 0.0029082217 -0.0035025282 -3.4143428e-05 -0.0005874844 -0.0034645114 -0.00095076795 0.00433499 -0.00071996945 -0.0046825353 -0.00116873 0.00060033356 0.00081218383
197.182.091.233 0.0010799703 -0.0016957156 -0.00050833507 0.00020927849 -0.0005551523 -0.002216106 0.0020134703 0.0026925814 -0.00012614489 -0.0029092673 0.0037911003 -0.0041778125 -0.005374977 0.005433932 -0.0022371362 0.00096159667 -0.0010458775 0.0011624235 0.001179558 0.00038513198 -0.0035445213 -0.00079484424 -0.0025821012 0.0043506827 0.00060553465 0.0035275444 -0.0021490257 0.0031091652 -0.00041881486 0.000899743 0.0009031152 -0.0028563442 0.0025214741 -0.00067721325 -0.003326175 0.001342143 0.0036112804 0.0025288763 -0.0021837729 -0.0038904913 -0.0023985577 0.00344806 -0.0026884344 0.00041546562 0.0018594536 -0.0057998407 -0.0032699646 0.0039022304 0.002617111 -0.003888738 0.00235799 0.00031349607 0.0016650788 -0.0025772736 0.003013663 0.004504213 7.52956e-05 0.003588954 0.0025700093 0.0010001295 0.0031660157 0.00059376186 0.0027440756 0.002564346 0.00088230165 -0.0036127525 -0.0017355331 -0.00086750276 -0.00050521723 -0.0035747036 0.0050838655 0.0019174446 0.0030941162 -0.0014040426 -0.004557946 -0.0027189045 0.0038448877 0.004803189 -0.0036126822 -0.0052235182 0.00014694143 1.6396123e-05 0.0015346806 -0.00026992048 -0.0027023787 -0.00053580326 -0.0030111487 -0.0026137847 0.0014280183 -0.0012028173 0.0014857319 0.0008036954 0.0008232677 -0.002833561 0.0036322544 0.0015319483 0.002625205 0.003030055 -0.0044667227 0.0015322908 -0.0009127426 0.0031445294 0.005254789 -0.0019005308 -0.002542045 0.0016791847 -0.0035245344 -0.00039638166 0.0019960855 -0.0027089566 -0.0053025633 0.00098598 -0.00021145784 0.00015014816 0.0018171063 0.0018731216 0.004439171 -0.0004548179 6.818456e-05 0.0019681891 -0.00016970026 -0.00014551604 0.0015302305 -0.0013982452 0.0006024886 -0.0032891545 -0.003068849 -0.0012021161
195.115.218.108 0.0009632685 0.0009432453 0.0023208694 0.0003457518 -0.0066118944 -2.7589871e-05 -0.0028638926 0.0039425255 0.00089264626 0.002774603 0.003834682 -0.0013799557 -0.005147569 0.0019154566 7.5402e-05 -0.0008275951 -0.0017974467 0.0030377882 -0.0018630924 0.00021272048 -0.0043033794 0.0008071805 0.003937475 0.0007279749 0.0013489373 -0.00052524486 0.003682425 -0.0034285 -0.0017661464 0.0032645005 0.00384033 -0.0018093695 0.0026275434 -0.0029602554 -0.0018048469 0.00084823224 0.0062463377 -0.0026458425 0.0027604415 -0.0037051835 -0.003479396 -0.0021796646 0.0042349207 0.0014215795 0.004114952 -0.002425643 0.00036377963 -0.002275215 -0.001961319 -0.00535347 -0.0009874982 -0.00016100485 0.0031386428 -0.0016727104 0.003822532 0.0052362587 0.0005174029 0.0024371485 0.0035293882 -0.005351539 -0.0012660755 -5.8196645e-05 -0.0020159958 0.0011778232 0.00063002476 -0.0014479072 -0.0023623956 9.969284e-05 0.0041673845 0.0030339286 0.0025683409 -0.0040900693 -0.001819914 -0.0027696476 5.294865e-05 -0.0026851844 0.00059475965 -0.00048265536 0.0014960592 -0.003832104 0.003737839 0.0017453929 -0.0037881262 -0.000959289 0.002751298 -0.0031025729 -0.00011582713 0.0008080202 0.0002660982 0.0015758373 -0.0036131002 -0.0023757732 0.0006384091 -0.0039405082 -0.0031296 -0.003371262 0.0041797603 0.0011429433 -0.0017797867 0.0019198089 -0.0023178472 0.00013444526 0.0056593698 0.00018580655 0.00077738974 0.004722268 0.0003979772 0.0020002844 0.00034380757 -0.004391774 -0.004805081 0.0007132723 0.0020047126 -0.0017468756 -0.00046043267 0.005458668 0.0037263625 -0.0028816066 0.0030909693 -0.0016885229 -0.0028231016 0.00046844536 0.0037470567 -0.00030511944 -0.0005917215 -0.003781016 -0.0026112099 -0.0032957054
172.016.114.050 -0.00038919525 0.0025883296 0.002290527 -0.00017216499 0.0007271966 -0.0036515123 -0.0011705505 0.00059719564 -0.0013932149 -0.0026898175 0.002268506 0.0033072848 0.0022924822 0.0029195226 -0.0037779526 -0.0034579334 0.0024029696 -0.003040699 -0.0043213232 -0.00066853187 0.0009641161 -0.0033701425 0.0029969164 0.0037465945 -0.00034050012 0.0005995371 0.003015861 0.0018099117 -0.002253632 -0.0007905457 -0.003609977 -0.0014938905 -0.0010569117 -0.0018380518 0.003532045 -0.00029793044 0.004671458 0.002992699 0.0026775433 -0.0022439582 0.001479972 -0.002873333 -0.0030228135 -0.00080099236 -0.0021773265 -0.0009581926 -0.00015065163 0.0022967812 0.00085720903 0.0009996791 0.00013166366 0.0015589482 0.0033224525 0.002821804 -0.0030375528 -0.0009866321 0.0037674592 0.0004985515 -0.00065149646 -0.0024168806 -0.0016337357 -0.0035041105 0.0033638338 -0.0013520624 0.00061418326 0.0028927515 0.0018621857 -0.001447808 0.0011119348 -0.00022277229 0.00026143983 0.0024638774 0.0031485413 0.0033194586 -0.0026519084 -0.00054085336 -0.0020461872 0.0040957355 0.003110727 0.000561784 0.002481942 0.0030420132 0.002079218 -0.003819774 0.0027842673 -0.0005951168 -0.0009934183 0.003396792 0.0023187755 -0.0039698817 -0.0013192638 0.003159429 -0.0031202743 0.0026466155 0.0027251563 -0.0035682945 -0.003475076 -0.00087929785 -0.0028819328 0.0036688102 0.0018459314 0.002969798 0.00055505725 -0.0007202489 -0.0026547974 0.0021338896 -0.0037897085 0.00052813644 -0.0031776715 0.0010257069 0.0020510321 0.002418287 0.0018267103 0.0017472398 -0.0035853481 0.0032765989 0.0011946277 -0.0032619555 -0.0029357402 -0.002402564 0.00087620085 -0.0006160902 -0.0031907323 0.00063368597 -0.0034375892 -0.00078005245 -0.0033334205 -0.0027357524
209.132.031.011 0.0011364158 0.0022666578 -0.0026941192 -0.0016409167 -0.0045227306 -0.0027409797 -0.0016892488 0.0039003477 -0.003398901 0.0024726647 0.0027919668 0.002958403 0.002116549 0.0039416975 -0.00048106606 -6.797481e-05 -3.446883e-05 0.0015378533 0.0028423986 0.00093677617 0.0012328902 0.0031221532 0.0030296498 0.0026492644 -0.0024727515 -0.0033430643 0.0038453224 -0.0012803053 -0.0008325875 0.00013047093 0.0032958987 0.0031548147 0.00013874295 0.0027640346 -0.0021536907 -0.0009211281 0.0041277255 0.0016761406 0.00042470582 0.0021966978 0.0019843818 -0.0018698941 -0.0016095832 -0.0030929984 0.002562581 -0.0041632224 -0.0015064939 0.0014027084 -0.00073925854 0.00047512734 -0.0029878563 -0.0034365258 0.0029163826 0.0038878047 0.00091163494 0.0020736416 0.00077396573 0.0012798526 -8.2943436e-05 0.0018113949 0.00039862285 0.0008593779 0.0025137684 8.373088e-05 -0.0025747074 0.00306586 5.1334817e-05 0.0018689707 0.003937161 -0.0023949724 -0.0020612795 -0.0014407241 0.0038843807 0.0020731392 -0.0020709764 0.00095839053 -0.00318847 -0.0014871046 0.0003732168 -0.003857371 -0.0013754559 0.002233531 -0.0025371588 0.00086853036 0.00064035255 -0.002519367 0.00013515253 0.0028744387 0.0023450465 -0.001805501 0.00034189227 -0.0017627174 0.00091875397 -0.0038928646 0.0030909725 -0.00025924426 -0.0004342895 0.002931228 -0.0011987085 -0.00283486 -0.0026090038 0.002895804 -0.00017925163 -0.0027878047 0.00040624724 -0.0005604381 0.0032222115 -0.0034518996 -0.0037911274 -0.001831765 -0.0008918732 0.0027559968 0.0015073917 0.0019495836 -0.0016221775 0.0032783623 0.0025737984 -0.00051206956 -0.0029232986 0.002021155 -0.0032254981 0.001082786 0.0016310075 -0.0035163476 -0.001285411 0.0014795371 0.0016668648 -0.00013475723
172.016.112.149 -0.0017874222 -0.0035152861 0.0021204131 0.0033321332 0.00018288156 -0.0012105732 -0.0001034503 0.0004452399 0.003252782 0.0010403815 0.0032396736 -0.003854157 -0.0036275187 -0.0007187405 0.0015681435 0.0003474011 -0.001354866 0.0014242337 -0.003353925 -0.0031830338 -0.002460137 0.0016866495 0.00038758293 -0.001506846 -0.00076347165 0.00264454 0.0028146508 0.00089978834 0.0026309462 0.0006174256 0.0015399295 0.00021280532 -0.0014874494 -0.0022884444 0.0036415132 0.0017551811 -0.0017704029 -0.0012039291 -0.00057935755 -0.0024064828 0.0037023243 -7.4086754e-05 0.0030635833 -0.0032277931 0.0022650904 -0.0025830243 0.0038004569 0.000326345 0.0034889586 -0.0013301087 0.0013431945 0.0020765816 -0.0030389251 0.0034197948 0.0006675478 -0.0028885035 0.0006893341 -0.0007703303 0.0025920297 0.0015634643 -0.0014842816 0.0010499202 -0.0009788424 0.0005744414 -0.0005180939 0.00067475036 0.0027565395 -0.0035842964 -0.0014756337 -0.00097273604 -0.0021524539 -0.0016649042 0.0037184374 0.0007249287 0.0028985266 -0.0024243724 0.0038920077 0.002877861 -0.0008367241 -0.00077884825 0.0003023656 -0.0012547722 -0.0011510416 -0.00298135 0.0017690124 -0.003052817 0.003562982 0.0036399183 -0.0018784867 -0.003932045 -0.0022239308 -0.0026096154 -0.00022814926 0.0017881761 0.0015775064 -0.0012316427 0.0012776679 -0.0021258148 -0.0028559617 0.0019564382 -0.003185119 -0.0025754222 0.00030224086 -0.00077199965 0.0026741126 -0.0030874296 0.001798868 0.0011183193 0.0014206389 0.0023197166 -0.0029631928 -0.0026622934 -0.00019893353 -0.0013333329 0.0014406827 -0.0028236427 -0.001741587 0.002959868 -0.00073512236 0.0037482225 0.0034903577 0.0011161746 0.00042748736 -0.0023779038 0.0012211751 0.0012527651 -0.0023681638 0.00042596442
192.005.041.239 -0.0009928533 -0.00044968678 0.00023227785 -0.0009288539 -0.004408083 -0.0032860115 -0.001544791 0.0024968467 -0.0018212225 -0.000104200575 -0.0019071624 -0.0001764538 -0.001694575 0.0026534016 0.0035342874 -0.0015475785 0.002556885 0.0014202783 -0.003756695 -0.0006962444 -0.0005275877 -0.0031499192 0.00022528422 0.00044913084 -0.0042682094 3.3660264e-05 0.0018844156 0.0031317857 -0.0015497053 -0.00089946424 0.0042525358 -0.0028174263 0.0012886194 -0.0002450651 -0.0032696526 -0.0024747592 0.0015921025 0.0016803488 0.0016932506 -0.0019659337 -0.00136219 0.0017250759 0.0026384774 0.0013666345 0.00025985148 -0.0034004143 0.0014359715 -0.0006300994 -0.001833475 -0.0017026528 -0.0023207003 0.00032314318 0.003345823 0.0012539546 -0.00061768625 -0.00034259586 0.003715855 0.0014460427 0.0033226358 -0.004438769 0.0012233439 0.00014018058 0.00014516815 0.0020934683 -0.003326489 -0.0003363273 0.0022686059 -0.004246059 -0.0027819027 -0.00060521805 -0.0030481238 0.0026514262 -0.0042686327 0.0039619114 -0.0031651158 -0.0011054866 -0.0026571949 -0.0009668715 -0.0033969625 0.0006133956 0.003762102 -0.0034894673 -0.0003682059 -0.00019039353 0.0032905552 -0.0027788149 0.0025601236 -0.0019908382 0.0019782798 -0.0030181622 0.00025164004 0.00035087706 -0.002122064 0.0020546755 -0.00014510506 0.004047097 -0.00030540052 0.0002445368 -0.0018982706 -0.0009857398 -0.0018213886 0.00015853444 0.003241988 0.0019327247 -0.0005658057 0.0021928172 -0.0029970824 -0.0022643395 -0.0023096 0.0003135776 0.0004450107 0.0026334247 -0.0006136185 -0.0024601412 -0.003891719 0.0010117653 -0.003417938 0.0018405124 0.0030284165 -0.0028354374 0.0030650275 0.00017837461 -0.0033461843 -0.0027398954 -0.0037591846 0.0039347555 0.0006750351 2.736786e-05
172.016.114.168 -0.0024356216 0.00074045453 -0.002827546 -0.0033225855 -0.0031331063 -0.0020240303 -0.0035165795 0.00060110696 -0.0034942187 -0.0013971808 -0.00042825527 -0.00217074 0.0029906088 0.0004756925 -0.0020690968 0.00406776 -0.0023350874 0.0038158079 -0.002897053 0.0035118267 0.00054423563 0.001999715 -0.002220519 0.0004341152 0.0018960839 0.0017995351 -0.00060356234 -0.002854602 -0.0013670817 0.0018817361 0.0038584992 0.0013941036 -0.000745604 -0.0014876507 0.0021048638 -0.0022978545 0.0007726373 0.0015232302 -0.00085292966 -0.00025788677 -0.0029581762 0.0034060583 -0.0012712548 -0.00070790644 0.0020771169 -0.0025228902 -0.002106383 0.00035253118 0.0021641485 0.0024203411 -0.0009097969 0.0007199633 0.0034845101 -0.0013939651 0.0005787494 0.003021521 0.0023948245 0.0029659155 3.153699e-05 -0.002226961 0.002119161 -0.00023703866 0.0019410743 0.00010154878 0.0007414298 0.0016115766 0.0034343798 -0.0025450357 0.0018834438 -0.002297643 0.001184404 -0.0025593936 0.002382365 0.00067747815 0.0022151254 -0.00336719 0.0012705222 -0.0007852592 0.0037459775 -0.0015534641 0.002250208 -0.0017854972 -0.0026870556 -0.00034829666 9.676257e-05 -0.003217875 0.0035978996 0.0027148395 0.0013387728 0.0031063051 -0.0037993616 0.0017421737 0.0044099283 -0.001571265 0.0016546127 -0.00044100152 0.0014425889 -0.0031589263 -0.0033841212 -0.000488911 0.002724162 -0.00050837337 0.0031080546 -0.0024692933 0.0014202319 0.0020436298 -0.0037651279 0.0030537157 -0.003337104 3.7268626e-05 0.001922347 0.0033287879 -0.0003323324 -0.00032368535 0.0034395633 0.00020914525 -0.0013009816 0.00061352685 -0.0037255865 0.00012390685 -0.0012614604 -0.0016961037 0.0027176253 0.0009769743 -0.003180574 3.5964484e-05 0.0015711117 -0.0034168032
196.227.033.189 -0.0004017347 0.0031964271 0.0026122269 -0.0035712093 -0.004306798 -0.003211622 0.0026899725 -0.0030366764 0.002759609 0.0024033182 -1.2073193e-05 0.001992807 0.00074894546 0.0040094494 -0.0024282981 -0.0036378277 -0.0027713946 0.002514717 -0.0018359264 0.003176974 0.0010000698 -0.0030775894 0.0022761119 -0.0028422063 -0.0025890807 -0.0020328471 -0.0019244708 -0.0037301613 0.0026726085 -0.0020419029 2.785302e-06 0.003933924 0.0035534017 9.356066e-05 0.0033667772 -0.0016917925 -0.0018872253 0.0021415341 0.0020016339 6.4416876e-05 0.0014872041 0.00082804414 -0.0009285326 -0.00042795172 0.0011511396 -0.00056745554 -0.002103537 0.0014682227 -0.0025380822 0.0015400135 0.0034661996 0.0030827173 0.00069272646 -0.0005789186 -0.00092934264 -0.003459998 0.0034577078 0.0016537106 0.0028927976 -0.0036683632 7.533901e-05 0.0038786025 0.0033206346 0.0029175845 -0.001810731 -0.000699269 -0.0004861778 -0.0015458373 -0.0014160671 0.0035830166 -0.0003835241 -0.0010914686 -0.0025294318 0.0006352017 -0.00043677882 0.0008398532 0.0031855237 -0.0010789539 0.0031618623 -0.0034146544 -0.001617103 0.0024097222 0.003311629 0.0012190242 0.0001088486 0.0035979385 0.0021443518 0.0012699793 -0.0023086513 -0.00035577035 0.003495397 0.0020950625 -0.00089974015 0.002617023 0.002318417 -0.0019799045 -0.0033752238 -0.0007445044 -0.0027190077 -0.0027292385 0.0033051865 0.0012777644 0.0019305246 -0.00289484 0.002129934 0.003188596 -0.003990278 0.0039517563 0.0038363275 0.0036988927 -0.0029815582 -0.0013165257 0.0033893501 0.00041633807 -0.002652013 -0.0031192752 0.002292031 0.00035931615 0.0028683792 -0.0019737475 0.0009342814 -0.0028601133 -0.0026703284 -0.0030552312 0.0006397101 -0.0009209435 -1.8351773e-05 0.0011047439
136.149.142.178 0.00018880771 0.0010389542 -0.001954804 0.0014472586 0.0022379507 0.003284915 -0.00029393283 0.0032830378 -0.003931258 0.0033316924 -0.0034105969 0.00036249403 0.0016942611 0.003253685 -0.00020620943 0.0013802238 0.002305628 0.00068277837 -0.0031737452 -0.0030025705 0.0029913622 -0.00041684957 -0.00095359987 -0.0025527044 -0.0026280463 0.004069419 0.0007831743 0.0031332746 -0.0020837283 0.0030038632 -0.0031736968 0.0027191183 -0.002690282 0.002831169 6.194084e-05 0.0012770261 0.0043098275 0.00057724374 -0.0029321103 -0.001142391 0.0020682798 -0.0030427342 -0.001879533 -0.003823225 -0.0036806366 -0.0004000758 -5.254371e-05 -0.0034813588 0.00021741161 0.003466026 -0.0030443773 -0.0027104607 -0.00241513 -0.00032132544 -0.003298991 0.0020211686 0.0022834383 -0.0035059268 -0.0032185041 -0.001535238 -0.0027749506 -0.002816492 -0.0015589591 -0.002674673 -0.001438627 0.0007349035 0.0035764666 -0.00096708623 0.0019739151 -0.001962699 -0.0016265623 -0.0020493325 0.003097506 -0.00016067861 0.0014099774 0.0007103698 0.0018977844 0.00091195793 -0.0024965366 -0.00051339366 -0.00035614002 0.0011080302 -0.003190992 -0.0023829527 -0.0008434177 -4.0052953e-05 0.0018735852 -0.003888428 -0.0025437565 -0.0033812658 -0.0033748895 -0.0011372329 -0.0032130661 -0.002633058 -0.0021590714 -0.0005397053 0.003915454 0.0002946949 -0.0035415785 0.0007408849 0.0004071158 0.00250306 0.0005814395 0.0038953715 0.0011095933 0.0009440098 -0.00022637658 0.0017228524 0.0014320628 -0.00059806026 -0.0016591809 0.001035552 0.001927927 -0.0027249414 0.000215081 0.0022005104 0.0015175345 0.0015294241 0.002396857 0.003344728 -0.0035322416 0.0027576173 0.0038401478 -0.000938068 0.0016310107 0.0036447465 0.0035688356 -0.00227348
209.218.099.120 0.0007333213 -5.55945e-06 -0.0024183688 -0.00048008194 -0.0011715768 -0.0039285324 -0.0036083814 0.0010071056 -0.0012908359 -0.003455744 -0.0029927 -0.0020323666 0.003335694 -0.00041907455 0.003657048 0.00020940768 0.0006087124 3.9164595e-05 -0.002878735 0.0016874701 -0.0037750823 0.0028855605 0.0024864343 0.0011886908 0.002189092 0.0015803111 0.0012019685 -0.0010262748 -0.00030896557 0.0029091067 0.0021364628 0.0020288853 0.003132796 0.00015065688 0.0030547394 0.0031161946 -0.0011346891 0.0037533643 0.00210927 0.0011859469 -0.0008983278 0.00078301376 -0.003716738 0.0028164566 -0.0018613313 -0.0009445549 0.0010324983 -0.003021067 0.002915415 0.0013363325 0.00036147307 -0.0020173208 0.0036589368 0.0035003887 -0.0017533457 0.0028859612 -0.0004973448 -0.0026201366 0.003381832 0.0018200604 0.0014444079 0.0012373314 0.003703868 -0.0033181736 -0.0017713056 0.0013225224 -0.0013036226 0.0017514131 -0.0034087908 0.0011274213 0.003734514 0.00093890814 0.0031982919 0.0029533594 -0.003142917 -0.003340862 -0.00037196878 -0.0027371836 -0.0014610918 -0.0005539866 0.0016131735 0.00069037185 0.0013483034 -0.0003989165 -0.0034763012 -0.0027274156 -0.00018986023 -0.00019526786 -0.0015948369 -0.00020628763 0.000981233 -0.00015661772 -0.00073169614 -0.0020846487 -0.0035623177 0.00078413205 0.00035954034 0.0012175273 -0.0036774953 0.00027752758 -0.0019005982 0.0029340782 -0.0011326723 -0.00028938433 -0.0036114254 -0.00045093527 -0.0021301776 -0.0006734315 -0.002862891 -0.00031500674 -0.0017013878 -0.0007292321 5.443791e-05 -0.0026795985 0.00375705 0.0030017016 -0.0026608333 0.00023881615 -0.00091706886 0.0023574852 0.0028595563 -0.0027292718 0.0005901434 0.0021157444 0.00032604882 -0.0035537612 -0.0007595529 0.0027577379
206.040.172.012 -0.002111751 -0.0021397118 -0.0033304684 -0.0010114415 0.001919283 -0.003754801 -0.001331995 0.0030832463 0.0030284168 0.0035494964 0.0021161735 -0.002650477 -0.000764969 6.26022e-05 -0.0037979682 0.0031017303 0.0014225631 0.0020220298 0.0038803937 -0.0023214212 0.0018813933 -0.0022835492 -0.0024468366 -0.0027783972 -7.809421e-05 0.003891108 0.0022348068 -0.002227397 0.000102468344 0.0014078924 0.0016056296 -0.0028060526 0.0010019216 -0.0030870165 -0.0033837557 0.00039229682 0.0035579237 -0.000646183 -0.0024877412 -0.0020438612 -0.0013646277 0.000617556 -0.0030981824 0.002309781 0.0035580196 0.00012939822 0.00047857288 0.0031706768 0.0035532499 -0.0023349256 -0.0006386673 0.0012759973 -0.00017586903 -0.0027726402 -0.003041988 -0.00259391 -0.0038335458 5.9231323e-05 -0.0015398571 0.0011482635 -0.0013719641 0.002530379 0.0035058504 -0.0027412619 0.0018117613 0.0018637752 -0.0026417573 6.271831e-05 -0.0001789185 -0.00070263474 0.001869172 0.002231765 0.0006046212 -0.0036791814 0.0017913656 -0.0017740267 -0.00011064419 0.0030764116 0.00029829235 0.0020576816 0.0028777537 -0.0004262816 -0.0023933745 -0.0011735109 -0.0015039423 -0.0014308156 -0.002832439 0.0003913517 -0.002196754 0.0010978602 -0.0009360089 -0.0003249975 0.0010264843 0.0009629341 -0.0014469861 -4.1047104e-05 0.0026284936 0.0027169874 -0.002623695 0.0027434938 -0.003252186 -0.0013207318 -0.00059568125 0.0014515306 -0.00016625453 0.0030900622 -0.00043926694 -0.0011185845 -0.0005160357 0.00086119655 -0.00075088744 -0.0003751013 -0.0033705817 0.003781607 0.0037241091 -0.002975734 0.00056256796 0.0033038803 -0.0005957816 0.0015690788 0.0012950009 0.0016777916 0.0037303863 0.0032209218 -0.00031336249 -0.00018642448 0.00077781227 0.00198866
204.152.167.020 -0.0018931244 0.0013148368 0.0009342672 -0.002855834 -0.0018918278 -5.2237698e-05 -0.00035418483 -0.0023841418 -0.002837792 0.003932384 0.0033922694 0.00016616276 0.0004492785 0.0010947277 -0.0024915251 -0.00080928917 -0.0038396013 -0.0016468675 -0.0039933464 -0.0030705808 -0.0032105122 0.001887308 -0.0012688792 -0.0031713126 0.001604267 -0.0004027657 -0.0015924593 -0.0012757392 0.00096029695 0.0020316206 0.0016480605 -0.0023923626 0.000210202 -0.001161073 -0.0027154384 0.002133587 -0.001583519 0.0014412142 -0.00085345755 0.0019401257 0.0015915207 0.0009143807 0.00024625062 -0.00092000235 -0.0001711657 -0.00015869891 -0.0030200751 -0.0033199666 -0.002227445 0.0025990086 -0.0028119353 -0.00033302934 0.0006024309 -0.0026152558 0.00040560207 -0.0011679565 0.0009942414 0.0021006234 0.0024879691 0.0013377275 0.0013545719 0.0010228379 -0.0022241992 -0.0038427834 0.0030575288 0.002959231 -0.00072276295 0.0019091227 -0.0009709561 -0.0008517116 0.00282978 0.0025391122 -0.0024778743 0.0008457404 0.0009894206 0.0035609854 0.0032284067 -0.00078967214 -0.00153199 -0.0018294571 -0.0024328416 -0.0018679465 0.0034312045 -0.0023008233 -0.00053894665 0.0036244297 -0.0029167233 8.5079715e-05 0.003796158 -0.0009334543 0.0024054626 0.0018304065 0.0031686295 0.000819184 0.00041076663 0.0023170852 0.0010029436 0.0020028944 0.0012085258 0.0028541132 -0.0036195812 0.0018308203 0.0029214534 0.0022797 -0.00052230846 0.0011236147 -0.0036747055 0.0024515328 -0.0019952224 -0.0038576876 0.0004051273 0.00082081737 3.7253094e-06 -0.0035966742 -0.0021884842 0.0031236701 -0.003233103 0.0014738492 -0.0016074189 -0.0011834207 -0.0017616001 0.0033584284 0.00040851752 4.185153e-05 -0.00018360956 -0.0009163414 0.002869154 0.0012319225
205.147.050.068 -0.0007514664 0.0016075063 -0.0014514053 0.0005665047 0.0028129262 0.0033484616 -0.0038289716 -0.0030745044 0.0014822611 0.0014822248 0.002033412 0.00016778763 0.0016499247 -0.0033486628 0.00026967627 0.0025483947 0.0006899542 0.001279195 -0.0035578113 0.00066530204 0.0001083279 0.0027814333 -0.00010524466 -0.0025513517 0.0016201524 0.002117536 0.0022386396 -0.00024873743 0.0011890362 -0.0021849864 0.0011024722 -0.002820594 -0.0008154797 0.0017935811 -0.003483047 -0.00096528186 0.0036894735 -0.0015143317 0.00014486792 0.0017891515 -0.00030062423 0.002986437 -0.0036745649 0.001012389 -0.0037127093 -0.0032269668 0.0019525096 -0.0005773849 0.00058085367 -0.0020148186 -0.001715756 0.0036720282 -2.2187494e-05 0.0025202893 0.0020359505 0.00047753833 0.0015732476 -0.0037289748 -0.0027099822 -0.004024459 -0.00058921083 -0.0011547413 -0.0005055448 0.003310885 -0.0034360718 -0.0014211757 5.0009112e-05 -0.0015277984 0.0006372416 0.0013802951 0.0018617453 0.00081065507 0.0029171892 -0.0015157228 -0.0020360968 0.00044338798 0.0030650576 -0.00019041776 -0.0038234831 0.0005645311 0.0003081003 -0.002360528 0.00032595205 0.0025041974 -0.0037664114 0.003554844 0.0013156733 0.0028009661 -0.0033612456 -0.0011244221 -0.001902762 -0.0013262056 0.0022207326 0.0005228454 -0.002517948 0.0017958876 -0.0026508155 -0.0034911863 -0.0010594163 0.002079892 -0.0007767964 -0.001544909 0.0032371841 0.0030464807 -0.002654159 0.0013826377 0.0030383593 -0.002867217 0.0036756997 -0.0012417916 -0.0038524081 -0.0005358535 0.0029974284 -0.0030440234 -0.0032088384 0.00056199584 -0.00028547653 0.0027715652 -0.0027614632 0.0020528808 0.0035102828 0.002176479 0.002545958 0.0033957893 0.0017015012 -0.0020849595 0.0012934547 0.003510393
209.040.028.008 0.002887937 0.0035391871 0.0011678284 0.0007222589 -0.0012140416 0.00041890144 -0.0010569735 -0.0018496052 -0.0029743488 0.0032961888 0.002317636 0.00066184637 -0.0037342736 -0.00054147193 0.0009421335 -0.000537449 0.00088464195 0.0035629084 0.0022313774 0.0034702441 0.0004389794 -0.0036579429 0.0005859376 -0.0017938486 0.0016107989 0.00047689356 -0.00094756647 1.7575754e-06 0.002694832 -0.0009402126 0.00016294199 0.0033695772 -0.0026970578 0.0019605253 -9.752382e-05 0.0038090444 0.001367 -0.0017194321 0.000258735 0.0037048238 0.0032841798 0.0038075268 0.0025200278 0.0028735213 0.0016968244 -0.0031257784 -0.0011459042 0.003159659 -0.0032372726 -0.0018830856 -0.0020841789 -0.0030716395 -0.00050670793 -0.0032776103 0.0039059226 0.0020183 -0.0030692068 0.0019341863 -0.00081405713 0.0008125767 0.002270851 -9.075145e-05 -0.0038452058 0.003107829 -0.0029144029 0.0019529159 0.0022340575 0.001850957 -0.0002487854 0.003172098 -0.0015080409 0.003818297 0.0007093122 -0.001859487 0.0008875552 0.0033459843 -0.001465344 0.0037256267 -0.0033640433 -0.0029301422 -0.0014137215 0.0010514985 -0.00038373854 -0.0024000371 -0.0016143924 -0.0018096914 -0.001916339 -0.0014382779 -0.0003471405 0.00042637647 -0.0025240772 0.0031901451 0.002466818 -0.0020297035 0.0017175963 -0.0027579588 -0.0003915258 0.00078904384 -0.0031577963 -0.0038000434 0.0038728097 -0.0029275676 0.0032147402 -0.0029532302 0.0012652596 0.0033892852 -0.0018515346 -0.0012490914 -0.0006933714 0.003594625 -0.00034902533 -0.0022255697 -0.0012533345 -0.0013432264 -0.00077261997 0.0004534183 0.0012151927 -0.0019138871 0.0002471305 -0.0019716755 0.0022187356 -0.0035776007 0.0038784833 -0.0032347974 -0.0028679897 0.0023032776 0.00067785074 0.0005726048
206.040.161.056 0.002253845 -0.00016948614 0.0020272722 0.00084178906 -0.00023305693 -0.0025439463 -0.00014529315 0.0014347263 0.00015885213 -0.0029063143 0.0005797258 -0.0019163885 -0.0015050385 0.002197824 -0.0027909211 -0.0016407338 0.003840494 -0.0028483027 0.0005580111 -0.0023240661 0.0006071134 -0.0018605273 -0.0031660378 0.0029922263 -0.0021670049 -0.001597545 0.00065435306 -0.00093649636 0.0014050304 0.0005566635 0.0026099794 0.002014493 3.9416736e-05 0.0024190824 0.0022872002 -0.0019992234 -0.001489774 0.00034497402 3.210506e-05 -0.0007846539 0.001755648 0.001214039 -0.0014149462 0.0036150133 0.002303117 0.0028739083 -0.0009084191 -0.0016852682 0.003603715 -0.0031757883 -0.0002865529 0.00072953437 0.0031749436 -0.00085048313 0.00014291878 0.0022712154 0.0031044518 -0.0036508604 0.0025414184 0.0012881869 -9.149078e-05 0.0013252381 -0.0030894044 0.0025835494 0.0034629207 0.0007139681 -0.0019119536 0.0025734273 0.0012625837 -0.00150874 -0.0019777634 -0.002975514 0.003862391 -0.0017713761 0.0026109915 0.0027191213 -0.0009942402 0.0020910979 -0.001971583 -0.002966951 -0.0037536758 0.002198898 0.0025937876 0.0038487369 0.0022337106 -0.0025783987 0.0017708343 -0.0036273391 -0.0030085885 0.0025908372 -0.0021600623 0.0030753852 -0.0037032934 -0.002789703 -0.002076581 -0.003422642 -0.0018834005 -0.0018752766 -0.0013291067 -0.002260021 0.00036477827 0.0021211815 -0.0021326027 -0.0023531276 0.00052124565 0.0031334176 0.0012757023 -0.0035361995 -2.1200476e-06 -0.0009791361 0.00045510696 -0.0008438891 0.003160812 -0.002036245 -0.00063238037 0.0023164859 -0.00026758068 0.003704662 0.003670411 -0.000520193 0.0012457626 -0.0015095229 -0.0029997707 0.0022303103 -0.0011449286 0.0034246729 -0.0030514686 -0.00026790265
209.185.096.135 -0.002075128 -0.0013751538 -0.0018034644 -0.002223041 0.0026554675 -0.0028751402 -3.095631e-05 0.0005604683 -0.0029423072 0.00024028611 -0.0024656963 0.001468225 -0.0038982888 0.0038734232 -0.0013485538 -0.0011100624 -0.003266402 -2.4434232e-05 -0.0027292226 -0.0037835566 0.0032599545 0.002178598 0.0012708612 -0.0021095162 0.0014016597 -0.0029751998 0.0004785089 0.000993823 -0.0021440673 -0.002994254 -0.0038687019 0.0012700942 -0.0002683227 0.0035000795 -0.00076101336 -0.00046581653 0.0005691465 -0.00014478629 0.0022578377 0.00037947454 -0.0013666964 0.002289558 -0.0017067433 -0.0035889314 -0.003075346 -0.0009679337 0.0008340621 -0.0035065748 -0.0011159604 0.00018349076 -0.0028365399 0.0011812442 0.003841838 -0.0029359122 -0.0016349239 0.0030706755 -3.319078e-05 0.0021169789 4.815081e-05 0.0029539699 -0.0011750243 0.0021539368 9.212448e-05 -0.0007053151 -0.0008136666 -0.0018017181 0.0027325514 0.0026084098 0.0029249724 0.0035991208 0.0004755347 -0.0020250762 -0.0034045118 -0.0008770905 -7.2898474e-05 0.0013714096 0.002344034 0.0016879768 -0.0005922163 0.00027902878 0.0023571842 -0.0037410487 0.00049320195 -0.0030077335 -0.003118293 -0.0028465048 -0.0034893274 -0.002785134 -0.00207827 0.0006358633 -0.0018534022 -0.0010026488 -0.0004992077 0.0018440924 0.00091612054 -0.0013983335 0.0022197028 -0.0017863902 -0.0022761335 0.0038455487 -0.0016948119 -0.0011259952 0.0012844075 0.00037374406 -0.0030632298 -0.0035996963 -0.0031955433 0.0010734486 -0.0006078077 0.0011951653 0.0031428272 -0.0017835946 -0.0011208856 -0.0005884886 -0.0014403831 0.0018448944 -0.0029303133 0.0022119863 0.00031243154 -0.0013115369 -0.003102474 -0.0007549722 0.0006657508 -0.0029545047 0.0009473793 0.0020002434 0.0026687516 -0.0035934167
197.218.177.069 -0.0028716004 -0.0034986031 -0.0010838605 -0.002356432 -0.001810267 0.0028323987 -2.3506982e-05 -0.00020943201 -0.0019434683 -0.000860725 0.0032756256 0.0028132529 -0.0033552882 0.00013255287 0.001175524 0.0017288185 -0.0004140808 -0.00093968736 -0.003946485 0.0029979132 0.00132612 0.0006118947 -0.0036797293 0.002670593 -0.0033700524 0.0019879956 -0.0018307345 -0.0016783318 0.0018141811 -0.0003591392 -0.0019639994 -5.3654177e-05 -0.0029071989 0.002005151 -0.0032073315 0.0005267276 0.0022205182 -0.0013430214 0.0011708069 0.0005555373 -0.0022779405 0.0027443334 -0.0017715585 0.0036572148 0.00072753645 0.0023359754 -0.0011208721 -0.0010850758 -0.00313644 -0.0018150818 0.0007290412 -0.0033547129 0.0022240775 -1.3086654e-05 -0.0005527392 -0.00034618453 0.00035881618 0.0028724382 -0.0021249196 -0.0028085748 -0.0034127142 -0.0005314589 0.0010357974 -0.0018106241 0.001349625 -0.0014410925 -0.002998862 0.0005534038 0.0016658236 -0.0034548857 0.0030500698 -0.001833145 -0.0010899971 0.0028841712 -0.0029585615 -0.0019197941 0.0018096637 -0.00012302061 0.0013681288 -0.001144523 0.0022674184 0.00044706554 -0.0035025647 0.0012893479 -0.00027651255 -6.157327e-05 0.0027347046 -0.002848767 0.00079171406 -0.0021935918 -0.00082505523 -0.0017099823 0.0014745105 0.0017106013 -0.003717641 0.0012148741 -0.00017711951 0.00234972 -0.004000984 0.00014318482 -0.0038492915 0.00036667084 0.0015186145 0.0026795988 -0.00074924476 0.0021654675 -0.0040947977 0.00044715533 -0.00096949557 0.0024886513 -0.00408147 0.000106665044 0.0021935299 0.003307355 -0.00028732655 0.0015126342 0.0023879567 -0.0016595357 -0.0018254094 -0.0012209115 0.0035011105 -0.0015551464 0.0040144026 0.0008791866 -0.0029499272 -0.0020523146 0.0037710192 0.0010435366
172.016.112.194 -0.0018378589 0.00048445445 0.0011347823 -0.0036463717 -0.0011479608 -0.002298486 0.002127842 -0.001299547 -0.0012556645 0.0027295903 0.003370821 0.0025430843 1.7289414e-05 0.0020119548 0.0029994964 -0.0021932141 -0.003752321 -9.958535e-05 -0.00038090846 -0.001871856 0.0027135652 0.0008923977 -1.2419587e-06 -0.0010833843 -0.0031255803 -0.0007492951 -0.0013879958 -0.0028307147 -0.002780993 5.6387842e-05 -0.0025478988 -0.0014678763 -0.0026809985 -0.0027329477 0.00012716069 -0.0038007002 6.9865782e-06 -0.0023762046 -0.0014869381 -0.0031083422 -0.002377488 0.0023208288 -0.0031848694 -0.0038571125 -0.0030649146 -1.5430443e-05 0.00042116168 -0.0035647848 0.0013459234 -0.0023823248 -0.0018222565 -0.0030527408 0.002062086 0.001558724 -0.0020643442 0.00048292254 -0.00027659512 -0.00013904914 0.0039546555 -0.0018457882 0.0015635301 0.0004349353 0.0036890828 -0.00123109 0.0031090288 -0.0001439983 0.002579068 -0.003916758 -0.003762459 0.0036392098 0.0013805106 0.0022748196 -0.0026526395 0.0033350082 -0.0019722253 -0.0016895105 -0.0017416023 0.0029158213 0.0023871157 0.002876837 0.0020565453 -0.001427388 -0.0013298796 -0.002683374 0.0028919678 -0.0021748783 -0.003957428 0.0026777305 -0.003635754 -0.0037743666 -0.00041527214 -0.003297701 0.00395888 0.0028833372 -0.0034673596 0.0029904777 -4.765392e-05 0.0022836642 -0.00027127587 -0.0014683022 -0.002130809 -0.00068829843 0.0016000299 -0.0003329789 4.11878e-05 0.0041277846 -0.002767992 0.0029158127 -0.00019323341 0.002380789 -0.0031715664 0.00031246952 -3.408402e-05 0.0030595078 0.0017610922 -0.002447154 -0.0021742815 -0.0018731083 0.0020610853 -0.0032986125 0.0017986328 -0.0018142463 0.00083125517 -0.0014432907 0.0029799326 -0.00045343037 -0.002204234 -0.00087776256
196.037.075.158 0.0004749942 0.0008753912 -0.0034815506 0.00041883034 -0.0038127452 0.0028285037 -0.002478489 0.0030935053 -0.0041896794 0.0013423429 -0.0017595355 -0.0006310822 -0.0028440394 0.00013373478 0.0017130123 -0.0018789654 0.0018157507 0.0022301164 -0.002576621 -0.00038114324 -0.0039148335 0.0025992682 -0.0017344829 0.0037351972 0.003292927 -0.0021308549 0.0035588962 -0.0009539803 0.00029748358 -0.003326428 -0.0014476114 -0.0027101652 0.0035719497 -0.0014850296 -1.8832288e-06 -0.0013820342 0.0008516051 -0.0034607928 -0.00080512406 -0.0041122483 0.0007431732 0.003348067 0.00013272832 -0.0017434326 -7.9923615e-05 9.1229624e-05 0.0035975142 -0.0014363729 0.0016444407 0.0020951096 -0.0014395459 0.00082909525 -0.0011962675 -0.0030291874 -0.00246145 -0.0026813503 -0.0022980324 -0.00045794965 -0.0012142954 -0.0021639217 0.0016987011 0.00074880937 -0.00012648442 -0.0017022744 0.001438379 -0.0042840554 -0.0023438602 -0.002899305 -0.0018622306 0.0007180642 -0.00030943085 0.001223615 -0.002226235 0.0028949075 0.002496122 -0.0021937897 0.002079122 0.0012087963 -0.002972096 0.0021412894 0.0034936394 -0.0037701859 -0.0034227767 -0.0031807413 -0.0002114239 -0.00013719982 -0.000102933765 0.0007304048 0.0035689932 -0.0041597798 0.002678152 0.0024373152 -0.0005741439 0.001186843 -3.0178879e-05 -0.0006653314 -0.0031421243 0.00019460349 -0.0023104332 0.0016458413 -0.004130796 0.0032062726 0.0033293185 -0.002816622 -0.002689588 0.003235247 -0.004180023 0.0013032133 -0.002895799 -0.0030050885 0.0027404323 -0.002444469 0.0023232219 -0.0025324405 -0.002753686 0.004306317 0.0029687907 0.0026893623 -0.0035414463 0.0020301403 -0.0005638196 0.00088840595 0.0017796726 -0.0037813368 0.0028074242 -0.0038970876 -0.0019499658 -0.002392582
172.016.116.194 0.00032174314 0.0031674057 0.0030964816 -0.00253419 -0.0012603612 -0.0014684685 0.0014475419 6.87806e-05 -0.003985441 -0.00011434183 0.00090498925 0.0017303827 0.0016895352 -0.0013731513 -0.0028494566 0.0034291123 0.0010673029 0.0034118297 0.0017631109 -0.00013658707 -0.002528003 -5.2005384e-05 -0.0026512693 -0.00097095326 0.0033062417 -0.0002067735 -0.0033569718 -0.0021352263 0.0009968146 -0.0019272822 -0.0025448098 -0.002990275 0.00074333226 -0.0028826287 -0.0015465867 -0.0017176105 -0.0022230032 -0.0024066889 -0.0032801628 -0.0024409478 -0.0006018947 0.001957305 0.00069862005 0.0031660558 0.002839752 0.0018489831 0.003592253 0.00011947204 0.00032273887 -0.00036108636 0.0011286491 -0.0026479817 -0.001003114 -0.0023905751 0.0029627008 -0.0015081565 -0.00062243186 -0.00034113735 0.0035429443 0.0034212114 -0.003480392 -7.083226e-05 -0.0011081995 0.0012123786 0.0015785571 -0.0039367806 -0.003818872 0.00052247324 -0.0021464934 -0.0004775107 0.0032574893 -0.0017111301 0.00039952528 -0.0012913261 -0.00055621256 0.002909364 0.002874727 0.0022255536 0.0006440364 -0.0035276238 -0.0016673473 0.0032855386 0.0011916701 0.0013078976 -0.0014024347 0.0003038744 -0.0013045189 -0.0031179735 -0.0016593825 0.0025092938 -0.0016744448 -0.003725302 0.0012641638 0.0033127288 -0.0029177468 0.002559719 -0.0016818686 -0.0012138378 0.0024469388 -0.003182538 -0.00054604013 0.0001001005 0.002966227 -2.7908522e-05 0.0022963493 0.002197851 0.0014467352 0.00342558 -0.000936068 -0.0023700735 -0.00032924724 0.0014354046 0.0017249807 -9.35483e-06 -0.0028183365 -0.0029731381 0.0015533934 -0.0029736958 0.0001822888 -0.0025684766 -0.002605001 0.0033924123 5.5670316e-05 -0.0006691551 0.00055365986 0.0018650634 -0.0035560925 0.0004325145
172.016.117.052 -0.0025438757 0.0006926578 0.0034269013 0.002914887 -0.003309876 0.0014180721 0.003075916 0.0019445767 -0.00292108 0.0022950764 -0.00070594193 -0.0029444785 0.0022628016 0.003617187 -0.0037388122 0.00245914 0.0025600502 -0.0007665356 -0.0028601969 -0.0020405753 -0.0009141342 -0.0032215274 0.0021143595 0.0028106333 -0.0020415888 0.0037462292 0.0012984547 0.0017951137 -0.0014136339 0.00031972033 0.0035551349 0.0028622898 -0.00322306 0.003753296 -0.0032428033 0.0029515624 -0.001847239 -0.0036952973 0.00046808177 -0.0023195774 0.00033442842 -0.0023486118 0.0038584375 -0.0012904732 -0.00016497514 0.0008048374 -0.0013695529 0.0034788195 -0.001277193 0.0030818253 -0.002903831 0.0010564212 -8.634242e-05 -0.0038060718 -0.0016465329 -0.0019158253 0.0034689982 0.0036457907 0.0007973476 -0.001820737 -0.00016379607 -0.0012398096 -0.00041446587 -0.002190746 0.0019229123 -0.0024910592 0.0024364183 -0.0031301654 0.0011320569 -0.0013478147 4.346673e-05 -0.0010183929 0.0008725577 0.0026626058 -0.0017256761 0.00038013986 -0.0008087272 0.0015217364 0.0029144706 0.003375403 -0.000947797 0.0007629327 0.0038198242 -0.0008817793 -0.0028366353 -0.0005542656 -0.002379535 -0.0012896549 -0.0023261686 0.0009059152 -0.00253232 -0.002039135 -0.0014543928 0.0036883333 -0.0027349868 0.001302077 0.0020839465 -0.0005296139 -0.003803326 -0.003463142 -0.0008535312 0.002609732 0.00092227216 -0.0005491986 0.0010079109 -0.000772116 0.0011391001 0.003379486 0.0024238941 0.002225809 -0.0025434478 -0.0012206064 -0.0006820714 0.0032587762 0.0009942678 0.0014227037 -0.0021747372 -0.0028078074 0.0003249572 0.0033733738 0.0005082712 0.0025820003 -0.0031904124 -0.003059853 -0.0025399444 0.0032823468 0.0010432475 0.0035573624
172.016.114.169 0.0025742608 0.0032891892 -0.00091032754 0.0035561756 -0.003769901 0.0009239074 0.002027498 0.0004351777 -0.0030338557 0.003995731 0.0029013024 -0.0030008233 0.0021249342 0.00062584446 -0.00045479313 0.0014861583 0.0034233064 0.0019052405 -0.0034478793 0.002005767 -0.0021373983 0.00045049092 -0.0017520158 0.0032460513 -0.00024731836 -0.00020784908 0.0043654987 0.0017856748 -0.0041205552 -0.0030309805 -0.0023861758 0.0034751466 -0.0029469184 0.0021153463 -0.0021626719 0.0033150793 0.0016342889 -0.0019226257 0.0004485475 -0.0014282559 0.0027336983 -0.0016501077 -0.0015615633 -0.0029791852 -0.0004027387 -0.00022217107 0.0008056019 0.0036080345 0.0010282128 -0.0034736956 0.0033090569 0.0034946175 0.0007240406 -0.0008865579 -0.00091707945 0.0031135262 0.00021194418 -0.0018165995 -0.0032904814 -0.00038492784 -0.0017886636 0.0017040594 0.0013613264 0.0035089836 -0.00201742 0.0028593966 -0.0023515646 -0.0030543895 -0.00050964305 0.0025613848 0.00016789777 0.0015840185 -0.0011713591 0.0014002282 -0.0016018233 -0.0036997886 -0.0026761454 -0.00016779322 0.002283929 -0.0036517666 0.0035334574 -0.0014412712 0.002127189 -0.0016451422 0.00032576825 -0.0024633843 -0.0040859077 0.002635691 -0.0026894787 -0.0038605363 -0.0027221818 0.000768611 0.003734033 -0.0021331082 0.002875226 5.9234924e-05 -0.00078884454 0.0033321043 0.0030589262 -0.002961343 -0.002780962 -0.0028156629 0.004583433 0.001637399 -0.00012311625 0.0012898194 -0.00368291 -0.003292621 0.0038072113 -0.0008095856 -0.0012584858 -0.0026284154 0.000496782 -0.0027769096 -0.0012302059 0.0023539094 -0.0025399777 0.0024504098 0.000115616895 -0.00088175305 -6.230654e-05 0.0016862733 -0.0021669562 -0.0035113823 -0.0018886685 0.00027000374 0.0037722578 0.0022155626
172.016.113.105 -0.002133095 -0.003469874 0.0012846926 0.0028688533 0.00028275972 -0.0013648941 -0.00369818 -0.0014381686 0.0027739108 -0.0019383598 0.003779778 -0.0039247554 0.0014494882 -0.0021439295 -0.0020013063 -0.001223007 -0.0011315901 -0.0026437596 0.0012110075 0.0024821912 -0.002018359 0.0013232082 -0.001799639 0.0027183986 0.0024450233 -0.0014812009 0.0028722137 -0.00046836928 0.00013444606 -0.0031738968 0.0034502407 0.0003266479 0.0010294442 -0.0020757506 -0.00039322907 0.0004577942 0.0036339613 0.0024258215 -0.0022989963 -0.0019562047 0.0039386647 -0.0012203632 -0.0018847744 -0.00092109863 -0.0020894245 0.0016973191 -0.00046510185 0.00376231 -0.0009785612 0.0031116032 0.0008119814 0.0021701707 0.0016863865 -0.0033528693 -0.0032438154 -0.00088994316 0.0007852493 -0.003740124 0.0023526445 -0.0017802935 0.00082095625 -0.0025430734 0.002646645 0.0031472442 -0.001773886 -0.00095376105 0.0017261916 0.0032919105 0.00089405413 -0.00019800142 -0.0018263927 -0.0014032107 -0.0031510938 0.0007412021 -0.0030293523 0.0019839788 -0.00022421769 -0.00016369122 0.0010793271 0.0031509255 -0.001694947 0.0003092027 0.0022311565 0.0033432778 0.0029095826 -0.0011007558 0.0025655413 -0.0006225919 -0.0019957703 0.0025435144 -5.7485107e-05 -0.002752984 -0.0024721916 -0.00019200497 -0.0019932468 0.0022336205 0.001797805 0.0032957944 0.0013632475 0.0033633874 -0.002913912 -0.0006559529 0.003878043 0.0020793031 -0.0001314921 0.0036667446 -0.0029676713 0.0020957338 -4.3669577e-05 0.003640741 0.0025673243 0.0012991531 -0.0028120521 0.0034441578 -0.0022215375 -0.003138272 0.0016277122 -0.0019991358 -0.000109954824 0.0027461264 -0.0015813651 0.0023474884 0.0010582067 -0.0005982476 -0.0012203773 0.00050619844 -0.0029308219 -0.0031643638
143.158.016.069 -0.002752238 0.002039609 -8.891013e-06 -9.682608e-05 -0.0038553108 0.0004581363 -0.0016241381 2.354454e-05 -0.0015760235 0.0014242973 -0.0021029061 -0.0008966144 0.00048259023 -0.0023113247 -0.0029886079 0.0007383352 -0.0002985902 0.0027926634 -0.00116389 0.0016706476 0.0035000166 -0.0022107337 0.0032596623 0.0020446538 -0.00034939664 0.0002907718 0.002944399 0.000122372 -0.0009652378 -0.002977337 -0.0030256794 -0.0008367367 0.0024717124 -0.0021646894 -0.0034242822 -0.0009237612 -0.002447073 -0.00022408606 -0.0010022669 -0.0027651945 0.0027358064 -0.0018709817 -0.00017613202 -0.0018484255 -0.0017942699 -0.0010500416 -0.001584591 0.0023021311 -0.002262504 0.0006959252 0.0023142393 -0.0026854891 0.0031698777 0.0037801557 -0.0036992035 0.0019317049 0.0014946787 -0.0028762773 -0.0031545823 -0.0012926816 -0.0025660084 -0.0004951199 -0.0010342521 -0.0019264029 0.003702068 -0.0027563022 -0.0022870253 -0.0035004253 0.0013626796 -0.0026025586 -0.0022802239 -0.0026622252 0.0029346314 0.002894161 -0.0029905355 0.00083206 0.00044449992 -0.002134538 0.0037282703 0.0027446367 -0.0021176497 -0.0009894717 -0.0009471828 -0.0029271455 0.003809286 -0.0031949228 -0.002790775 -0.003254531 0.0016302312 0.0038501883 0.001516942 0.0019027801 0.0014033114 0.0022564474 0.0013015772 -0.0038326036 -0.0009631148 -0.0013036486 0.0019020744 0.0015792641 -0.0012630491 0.00309063 -0.0024103904 -0.0035295943 -0.0036226367 -0.00010000267 -0.0037279935 -0.0018701409 0.0030844037 0.0036160965 0.0015797474 -0.0015969062 0.00037088597 0.003132731 -0.0036644288 0.0015669345 4.7903115e-05 0.0017647933 -0.0037505068 -0.0014925809 -0.0034950683 0.0009651278 -0.0022061092 -0.0031486105 0.0028121273 0.0019629614 0.0032305273 -0.0034547783
172.016.113.084 -0.0038732402 0.0015976577 -0.0030993498 0.0011470602 -0.0017681419 0.0007356924 0.0009837819 -0.0034244573 -0.0010237615 0.0021144487 0.00091329555 0.0024243922 0.0031994577 -0.00079023145 0.0006234345 0.0011862211 -0.0002839062 0.003791148 0.0028652686 0.0019025995 0.0037633674 0.002742066 0.0016070235 -0.0026373875 -0.0025752513 -0.00042670226 0.0012225688 0.0014675214 -0.0010869631 -0.0003950386 -0.00134781 0.0013990946 0.001708469 0.0027696833 0.0010135468 -0.0018887124 0.002200982 0.00021040083 0.0008269279 -0.0010498001 0.0037569043 -0.002786829 -0.0002652463 0.002432218 -0.00047877038 -0.0037324114 0.0017194643 -0.003726632 0.0028128133 -0.003207507 -0.0034548044 -0.0011793751 0.002327184 0.0001408279 0.0016978603 -0.0023048248 -0.0025851007 0.0019226916 0.0023977817 -0.0028444848 -0.0012131889 1.2638923e-05 0.00032738587 0.0031966444 0.0023710618 -0.0011833898 0.0012971105 -0.0010190724 0.002674098 -0.0023473047 -0.00045396498 -0.0026387454 -0.0016363914 -0.0023709107 0.001672437 0.0021481481 7.9013764e-05 0.0020019335 -0.003754024 0.00013674097 0.00049506134 -0.0022691046 -0.0019549702 -0.0026244088 0.0013125878 0.0029121065 0.002266971 -0.0038521544 0.0034017283 -0.0031688376 -0.0027906129 0.0038892853 -0.003272911 0.0019894852 0.002805916 -0.0018504105 -0.0029153905 0.00044372608 0.0030486386 0.0020179118 -0.0021709176 -0.0016324512 -0.0033560302 -0.0023836072 0.0005673535 -0.00088430656 -0.00017518953 -0.0038921172 -0.0014157614 0.0021450527 -0.0005995655 0.0015908923 6.409488e-05 -0.0009064525 -0.0010629661 -0.00072206394 0.0006916284 -0.00068372017 0.0031824787 -0.0015695442 0.0019372912 -0.0023697882 0.003435879 -0.0028736263 -0.0023699868 -0.0009502558 0.0024154563 -0.0008534546
194.007.248.153 -0.0023294913 -0.0022592929 0.0036232583 -0.0022817366 -0.003630645 0.003359165 -0.00044714683 -0.0014668574 -0.00080738345 -0.002478449 -0.00023564578 -0.0038857947 -0.0010504887 -0.0010663671 -0.001788201 0.002248507 0.003154638 -0.0034033286 -0.00039460638 0.0038175432 0.0017853227 0.0034171916 0.0019562147 -0.0008739618 -9.344113e-05 0.00086712244 -0.002166491 -0.0015635282 0.0037464863 0.00060550135 0.0003234862 0.0027816521 -0.002827165 -0.0025948132 -0.0016536919 0.00017826808 0.0022380943 -0.0010096122 -0.0037095281 -0.00284819 -0.0033529326 -0.0035716891 -0.0027370092 0.0036486425 0.002994298 0.002552998 0.0009959505 -0.00030917092 -0.00257347 0.0026457182 0.0035771728 -0.0023084192 -0.0038045899 0.003763285 -0.0025388764 0.0037623746 -0.0037996431 -0.00071794906 0.0031751578 -0.0038943302 0.00062030496 0.0025397588 0.0016332993 -0.0030826218 0.002421812 -0.0023934294 0.0015145019 -0.0016437967 -0.003226209 0.0038309363 -0.0015987323 -0.0010242547 -0.0031321421 0.0033617206 0.0006111906 -0.00032460407 -0.001706656 0.0001277722 0.00292972 0.0035867023 3.533587e-05 -0.0031023542 0.0037742541 0.0024556413 -0.00038906097 -0.0023594878 -0.00074270956 -0.0024929955 0.0013328758 -0.00019407745 0.0033531256 -0.0025149973 -0.0015251905 -0.0006307292 0.0004086497 0.0036203754 -0.0005647117 -0.0026682024 0.00095766253 -0.0008327641 0.0011304583 0.00061498705 -0.0035373645 -0.001094922 0.0035777618 0.0029560132 -0.0023518596 -0.0014610481 -0.0007512009 0.0024133495 -0.0022341337 -0.0013003475 -0.00090809294 -0.0011182503 -0.0029513452 -0.0033401826 -0.00034077538 0.0013916767 0.0006567448 0.0034564738 0.00049394515 -0.0014856865 0.0035065692 0.0030460267 -0.0020726465 0.00051661837 0.0008734649 6.835574e-05
172.016.115.234 0.0009167819 -0.00299003 -1.8961906e-05 0.0026595106 -0.0020525984 -0.0012850021 0.0018669638 0.00024153835 0.0021207724 0.0008666348 0.0005039195 -0.002527489 -0.00309689 0.0005582316 0.0015977786 0.0019538223 -0.0017417572 0.00026273384 -0.0005766905 0.0025924 0.0010966453 0.0026080578 0.00021138675 0.0007658049 0.0006725962 -0.0008116618 -0.0030796418 -0.0011673596 0.0022372375 -0.0014480761 -0.0005946764 0.0028944514 0.0018438605 -0.002433562 0.00073819293 -0.0020860152 0.0029202062 -0.0034420844 0.0018189652 0.0015152214 0.0018704511 0.0020080518 0.002217706 0.0017715757 0.0023460393 0.0036365665 0.0026641763 -0.0009861215 -0.0013599977 -0.0017854995 -0.0032949527 0.00023375824 0.00061674835 -0.0018633034 -0.00027638485 -0.000484969 0.0029620605 -0.0004421848 0.0026867904 0.0015536607 -0.0021433148 -0.00016351877 -0.0037954622 -0.002509479 -0.0033942943 0.0011030409 -0.0010857182 0.0023809082 -0.00030443963 0.003424262 0.0004070447 -0.0016206412 0.0018786946 -0.0019815627 -0.00087730953 0.00072531943 -0.003555919 -0.0012382204 -0.0010012899 0.002655765 -0.0029781512 -0.0039337277 0.0022879639 0.0012776344 0.0023581376 0.0035884199 -0.0024163371 0.002282598 -0.00036184178 0.0009500579 -0.002875152 -0.002590155 0.00418381 -0.0025319527 -0.0033302107 0.0028207495 0.003297057 -0.00018341129 0.0028504818 -0.00092653505 0.0006132025 -0.0024750687 -0.0013900772 0.0025764946 -0.0028440652 -0.0025507873 -0.0001196286 0.003578229 0.0013822787 0.0012897395 0.0018952632 -0.003548843 -0.0027564636 -0.001222252 -0.002171712 0.00076564966 -0.0028218394 -0.0020482382 0.0034277851 0.0028648118 -0.0018708503 0.0024889156 -0.0015180642 -0.000114533555 -0.0008828284 0.0005589526 -0.0032544227 -0.0015096857
135.008.060.182 0.0032457374 7.167547e-05 0.0014483029 -0.0025643008 0.0015575188 -0.0023439934 -0.0008693213 -0.0031136125 -0.00331663 0.0038932457 -0.0017115071 0.00067273574 0.00243573 -0.0005103803 0.0007437952 0.00032546988 0.0026630773 -0.0020416996 -0.00376722 -0.0002415231 0.0024410295 -0.0022948342 -0.0033290132 -0.0016531411 0.0033960205 0.000890111 0.0040290738 0.00039346464 -0.0035157846 -3.5025012e-05 -0.0030293774 -0.000112758426 -0.0021245645 0.00089572335 -0.0025788778 0.0037317302 -0.0024334167 0.0006565705 0.0037099014 0.0010857086 0.0036008437 -0.0019989128 -0.003247966 -0.00055144035 0.0034773725 -0.0023271947 0.0037751154 0.0019100397 0.0011797501 0.0017636899 0.0024043098 0.0003524351 -0.00037870393 0.0018600229 -0.0006894575 -0.0026462087 -0.0018626017 0.0030685745 0.0003268994 0.0026136583 -0.0037694606 0.0007489615 0.0025296218 -0.0038171015 -0.0010471886 -0.002850766 0.0005750448 -0.0022777328 -0.002673816 0.0037789235 -0.0005200717 0.0020056015 0.002085334 0.00088726217 0.0018759667 -0.0032694992 -0.00024542614 -0.00047388367 0.003465868 -0.00060516474 0.0013452771 0.0015635806 5.7193487e-05 -0.003040907 -0.0028557123 -0.00022697951 0.001821679 0.0006753471 -0.0025078019 -0.00023792405 0.0024762186 -0.0021577699 -0.0019552216 0.00054923864 0.0018736646 0.0030307313 0.0018723499 -0.002504175 0.0011469336 0.001977542 -0.0028837507 0.0022043127 -0.0012645253 0.0030628545 0.0013690107 -0.0019626734 0.0012799953 0.00097068684 0.0007053213 -0.00022211604 0.00332151 -0.0021038936 0.0024100954 0.0014283343 -0.0006255646 -0.0015048307 0.003707453 0.0017733872 -0.0015704385 0.0009982616 -0.0013042747 0.0036954652 0.002857175 0.00058465276 -0.0007011313 -0.0030808505 0.0023667715 -0.0011790913
