28 128
192.168.001.001 -0.010208952 0.004665509 -0.010271145 -0.008846345 -0.023938628 -0.009181445 -0.0073635564 -0.004076539 -0.018465826 0.008334988 -0.003367835 0.004836699 -0.00300184 0.023625337 -0.010124762 0.011307895 -0.012890765 0.016560948 -0.037318453 0.02300475 0.009909405 0.0024072288 -0.0052965214 0.00048490547 -0.014200949 0.0039478876 0.01887122 -0.014065562 -0.012303553 0.008324 0.013553315 0.020752458 -0.0015631696 -0.0138716195 0.0068376865 -0.00857061 0.015005747 0.01402519 -0.0010024791 0.012911542 0.016895916 -0.002372807 0.0091584 -0.01948013 0.0030068478 -0.007351285 0.009221735 0.016657231 -0.021961661 -0.015542787 0.033690445 0.00712631 0.021634271 0.0155845415 0.0074390536 0.009525814 0.010658285 -0.009708541 0.017169502 -0.026016777 0.008135338 0.011591376 0.007004279 -0.0029763633 -0.020506939 -0.022557445 -0.0053636758 -0.021021057 -0.012856278 0.0127301095 0.0022559336 -0.026728677 -0.022156483 0.0053615817 -0.008960454 -0.0051249843 -0.0077228057 0.022393223 -0.012275638 0.018304007 0.010022668 -0.021002559 0.02345729 -0.011678952 -0.008478045 -0.005750407 0.0072334576 0.0103662945 -0.00077530154 -0.013779705 -0.0041168462 -0.0061571496 0.026647223 0.0041558375 0.021326214 0.012286236 0.0052665835 -0.02383733 -0.0059834174 -0.00053218723 -0.0037243355 0.008514941 0.0012270854 0.0039068577 0.018544395 0.019192941 -0.017269665 0.0014333316 0.0015821464 -0.012590566 0.0012817242 0.008968121 -0.0018441948 -0.016610738 -0.0066813147 -0.005973634 0.00042226713 -0.0089825345 0.0063117165 0.0027577565 -0.006367977 -0.00021994277 0.009057747 0.0027639712 0.0043851635 0.0077124005 0.008589331 0.015667949
194.027.251.021 -0.013124585 0.0035465995 -0.013378607 -0.007252955 -0.022760807 -0.013515656 -0.0043768585 -0.009840479 -0.019401371 0.0048952615 -0.0048086667 0.0072929324 -0.004392531 0.023502696 -0.012718728 0.014953989 -0.009496292 0.011430995 -0.03690549 0.023778554 0.011612453 0.004431966 -0.010890521 -0.0020570634 -0.011780504 0.0029462122 0.019492628 -0.012096878 -0.015963117 0.010010835 0.011702466 0.018956838 -0.0028124552 -0.017132698 0.0028689092 -0.009518955 0.015107255 0.018084303 0.0042314976 0.0105721345 0.0132358745 -0.007810561 0.012510399 -0.015963294 -0.0030700585 -0.011561689 0.009224036 0.01321135 -0.019509565 -0.013510864 0.03333442 0.00081456755 0.021925244 0.014269127 0.008963951 0.005879154 0.015890118 -0.006614733 0.015288385 -0.023359148 0.0068036104 0.0111334035 0.00928113 -0.0026670506 -0.02136769 -0.022145964 -0.0111128315 -0.017353442 -0.008485504 0.013781773 0.003971169 -0.026218709 -0.019862685 0.006742655 -0.013464372 -0.004840618 -0.0048397523 0.02098124 -0.013130941 0.01943404 0.0062432718 -0.019416332 0.023117973 -0.012854329 -0.0065411422 -0.0021075797 0.004661073 0.005141025 -0.0069939326 -0.012190047 -0.005581024 -0.0055333753 0.02764293 -0.0017780047 0.020165754 0.011903638 0.0047031543 -0.02126588 -0.011636896 0.00097463484 0.00029361786 0.0068807085 -0.00012262631 -0.001302345 0.015596679 0.018333035 -0.014696129 0.0027156156 0.006855302 -0.01218044 0.0061790496 0.009107803 -0.0047882795 -0.018239215 -0.012018601 -0.005844088 -0.006180551 -0.008528692 0.0053205774 0.0009948064 -0.0015374211 -0.0040173563 0.0041622412 0.0046762526 0.0024382863 0.0040422203 0.013677672 0.013862241
192.168.001.005 -0.0014271968 -0.0005435861 0.0008684409 -0.002639694 -0.002669406 -0.004714703 0.0011711234 0.0008359717 -0.004345224 0.004276906 0.002908171 0.0005378314 -0.001958323 0.0051140245 0.00015792716 -0.0010514731 -0.00045432878 0.00508236 -0.006702468 -0.0013924965 0.002477011 0.0018513409 0.0025679078 -0.000887271 -0.00019121013 -0.0005097201 0.0017545264 0.0026995332 0.00095254043 -0.0018440293 0.0009963717 -0.00076765445 -0.0008878662 -0.004248394 0.002394981 -0.0028538627 0.0047211456 0.0014911668 -0.00082905876 0.0035108575 0.004986325 -0.0013210644 0.0037166332 -0.0048698094 0.003395163 0.0019261921 -0.0022060627 0.005220777 -0.005731004 -0.0041025816 0.0024439325 0.002158267 0.0061052344 -0.0018991221 0.0041222293 0.0040648966 0.003934097 -0.0017705623 0.0036139737 -0.0051199202 0.0024804445 0.0040230835 -0.0010233547 -0.0022223475 0.0008688756 -0.00022644718 -0.0025386661 -0.0006052042 -0.002383628 0.0051644035 -0.001740886 -0.006200751 -0.004181077 -0.00033042036 -0.0030353968 -0.0015431708 0.0018120443 0.0021855575 -0.003971164 0.0033454145 -0.00011807181 0.001811397 0.005334305 -0.0024645682 -0.0043613473 -0.003852048 -0.00039798758 0.0023512277 0.0031372067 -0.005041954 -0.0024683573 -0.0017328068 0.006531974 0.0024648078 -8.590194e-05 -0.0018611851 0.003647093 -0.0048655323 -0.004453143 0.0034741317 -0.0012382865 -0.0018614519 0.0005131515 0.00095377024 0.0031581554 0.004926827 -0.0026727337 -0.0023921542 -0.00010979975 -0.0025052605 0.0011209437 0.0024453136 0.0026261893 -0.0019761894 -0.0024418137 -0.0004598464 8.4195686e-05 -0.0005753199 0.0032339192 0.002264257 -0.0015766516 -0.001461748 0.0032516848 0.0038561667 0.002991397 0.0011062732 0.00043383962 0.0049523045
172.016.113.050 0.0014297431 -0.00044626294 0.0024262648 -0.004198786 -4.2551837e-05 0.0025165358 0.0018893956 -0.0021857112 0.0009690254 -0.0006669157 0.003464397 0.0018363332 -0.0016506875 0.0028628039 -0.0016897584 -0.0020039289 0.0013739582 -0.0009644949 -0.0029243054 0.003437683 -0.0017428796 0.0026622673 -0.0039523942 -0.0007534828 -0.0044857366 -0.0006845646 0.00041488477 -0.002428408 0.00023416299 0.00044857978 0.0029519862 0.0052629435 0.0013044376 0.00093169464 0.00025014248 -0.00014918117 0.00077815127 -0.0012273153 0.001603468 -0.002405845 0.0017808425 -0.002254883 -0.00038650277 0.00014649617 0.002022882 0.0025822564 -0.0017432783 0.0029236034 0.00061299023 -0.0046720854 0.006423965 0.002887197 0.00274787 -0.0018497074 0.0036102177 -0.00035965035 -0.0014341483 -0.003320901 0.004135532 -0.0051342165 -0.0022138257 0.0021796355 0.000918092 0.002841504 0.0015289922 -0.0041877683 -0.0023783946 -0.0020912366 0.0023842491 -0.0013699485 0.00097274105 -0.002756069 0.00011593191 -0.0029950796 -0.0038702805 0.00052976084 0.0006834355 -0.0019206343 0.00031791508 -0.0017575554 -0.0014915281 -0.0034332087 0.0032883014 0.0020862832 -0.00086533953 0.0030700746 -0.0033640922 8.3739156e-05 0.0024661843 -0.004935512 0.0005215934 0.0016603973 -0.0010007545 -0.0017967942 0.0013071924 0.0030364178 0.00052869716 0.0018561541 -0.0027820412 0.00017931078 0.00010238294 0.0008878844 0.0013849105 -0.0031701878 0.0018511561 0.003234337 -0.00055575406 -0.0005530911 0.0013464425 -0.0022886225 0.0033635932 0.0038403822 -0.0021129234 0.0018065657 0.002780296 -0.0012562068 0.0031845802 0.0002649502 0.00023852024 0.0035162317 -0.004005616 0.0020973494 -0.0011641788 0.0012284117 0.0008111555 -1.1857206e-05 -0.0010128581 0.003130587
172.016.114.050 -0.0008457103 0.0025748636 0.0017564707 -0.0003394896 0.0006190677 -0.0039615366 -0.0012203859 4.0966974e-05 -0.0018805076 -0.0027313193 0.001813565 0.0037167454 0.002686809 0.0033774253 -0.004064069 -0.0029969122 0.0022930093 -0.0028122866 -0.0054259356 -7.564138e-05 0.0017343003 -0.0030656818 0.002451098 0.0033865108 -0.00053021417 0.00047676446 0.003273922 0.0015935742 -0.0024682414 -0.0007728752 -0.0033821603 -0.00062391633 -0.0012133775 -0.0023099552 0.003913734 -0.00055252854 0.0045195944 0.003670468 0.0025535212 -0.0015246283 0.002115466 -0.003103211 -0.0028593685 -0.0012863502 -0.002328244 -0.00085316924 8.389543e-06 0.0027867223 0.00043685734 0.0009630448 0.0015533261 0.0017503032 0.0037719528 0.0032497097 -0.002820653 -0.0011031535 0.0041358783 -1.8883075e-06 -0.0002365075 -0.0028267305 -0.0013612303 -0.0031416977 0.0037178393 -0.0015381948 -9.179523e-06 0.0024711112 0.0016275807 -0.0020192536 0.00043312984 0.00036170258 3.9140967e-05 0.001634293 0.0023713848 0.0036490255 -0.0030246307 -0.0004484225 -0.0022677025 0.0044055386 0.0027304343 0.0015804766 0.002231566 0.0025499493 0.003201481 -0.004073748 0.002441595 -0.00034627074 -0.00068078155 0.003669799 0.0020127548 -0.0042080297 -0.0010866183 0.0029800308 -0.0025165146 0.0028344006 0.0035328032 -0.0030387628 -0.0035571062 -0.0019189243 -0.0029444222 0.00353127 0.0023592531 0.0030178293 1.5237056e-06 -0.000827321 -0.0021303787 0.0025587063 -0.0041398294 0.0003234209 -0.0029209764 0.0008677037 0.00256185 0.0025519433 0.0015819783 0.0010931651 -0.003923508 0.0023871437 0.0006762216 -0.0032162738 -0.002794306 -0.002275648 0.0009135518 -0.00074979017 -0.0033635963 0.0009651509 -0.0030667786 -0.00041882295 -0.0027702283 -0.0021118077
196.227.033.189 -0.0029013497 0.0036597338 0.00036698353 -0.005328059 -0.008554038 -0.0055725365 0.0019173591 -0.004739909 -0.00087323156 0.0036139516 -0.000639142 0.0031128773 0.00045780535 0.008364234 -0.0047602975 -0.0010750884 -0.004589967 0.005172083 -0.009476029 0.00761161 0.0034652143 -0.0019318699 0.00040337513 -0.003353556 -0.0047783824 -0.0015244383 0.0016965197 -0.0062764334 4.723959e-06 -0.0005393607 0.0023022478 0.008303557 0.0028840739 -0.003104813 0.0046330886 -0.0034400045 0.00064002175 0.005463071 0.0021115937 0.0020941002 0.004836739 -0.00030712126 0.0007232516 -0.0040750713 0.0013513535 -0.0019175225 -0.0005240997 0.004529399 -0.0062242886 -0.00090815965 0.010645362 0.0040592314 0.004904519 0.0020821274 0.0005201326 -0.0021162045 0.006138151 5.629621e-05 0.006214338 -0.008442605 0.0011985409 0.006405911 0.005275186 0.0022446942 -0.005670539 -0.00451716 -0.002111888 -0.0056216447 -0.003783446 0.0065823714 -0.00022456558 -0.006383718 -0.006746333 0.002112165 -0.002817148 -0.00027751518 0.0021804462 0.0026618927 0.001164961 0.00045330194 -0.00027980833 -0.0014535955 0.008307959 -0.0012361717 -0.0014105403 0.0028570562 0.003271768 0.00317837 -0.0033235534 -0.0029759363 0.0028411942 0.0008405051 0.004351648 0.0027869036 0.006414993 0.00047743903 -0.0023151108 -0.0053628995 -0.0043261726 -0.002874726 0.0033151547 0.002276571 0.0018235468 -0.0029427677 0.005915637 0.006995059 -0.007304832 0.0041984664 0.0048591504 0.0018784804 -0.0020484538 0.00031750993 0.0026384676 -0.0029400352 -0.004595446 -0.0052024783 0.0012465403 -0.0008043071 0.0038537285 -0.0014491691 2.8443159e-05 -0.003240884 -0.0015361405 -0.0022322559 0.0014000434 0.00021118401 0.0025464369 0.00411312
172.016.112.050 -0.0033101677 -0.0015528523 0.0009710863 -0.00041430208 -0.0031895451 -0.0016111074 -0.0021358212 0.0033044615 -0.0041666585 0.002531096 0.00029606145 0.0029695348 -0.0032026912 0.0026430353 -0.0032569806 -0.0011131347 -0.0017562103 -0.0030978222 -0.002941879 -0.0020867554 0.001940266 -0.0019919344 0.0032210425 0.0011494458 0.0016150734 0.003536476 0.0043348502 0.0024917368 -0.004223053 0.0012829992 0.0012308351 0.001048085 0.0021417523 0.0021224148 -0.00082090264 -0.002138772 -0.0018749123 0.0012982627 -0.001389212 0.00012222576 0.00057765254 0.0021948693 -0.003594734 -0.0025184709 -0.0038606636 0.001011386 -0.0035786396 0.0020640197 -0.000121798184 -0.00409148 -0.0005696146 0.0009159023 -0.002033394 0.0015625362 -0.0007949991 -0.0026723258 0.002276042 -0.0019845744 9.440211e-05 -0.0006880559 -0.00078194396 -0.0008636518 -0.003442145 -0.0021888283 -0.0014259676 -0.0016060953 0.0032985017 0.0022612733 -0.00032450847 0.002189721 0.001685716 0.0021550043 -0.0024696027 0.0013302201 -0.0027033016 -0.0026310268 0.0033701789 -2.8367649e-05 0.0010615906 -0.0027082695 -0.003164044 0.0015878731 0.003552075 0.0020983107 -0.00096745795 -0.0023760574 -0.0014267565 0.0038898953 -0.0014988402 0.0018705202 0.003311285 0.00050746556 -0.00036065024 -0.001375406 0.001515389 -4.1546562e-05 -0.0029162508 -0.00030350135 0.00020146876 -0.0019790712 0.0037745917 0.0013288497 0.0025054403 -0.000946395 0.0016471769 0.0012961364 -0.0029127162 -0.0021843286 0.0018550224 0.0013518898 -0.0031828862 0.00161007 0.0014961165 -0.0039689154 -0.00025336578 0.001839778 -0.0020877584 0.0023731445 -4.9221737e-05 -0.0037619523 -0.0017099788 0.00096192147 0.0035693191 -0.001159874 0.0003815364 0.001473915 0.0013127517 -0.0027022527
135.008.060.182 0.0019158784 0.0002578286 0.00015016853 -0.003383203 -0.00053080183 -0.0036173365 -0.001256082 -0.0040217387 -0.0052037574 0.004482707 -0.0021097406 0.0013118814 0.0023990483 0.0017257298 -0.00046209432 0.0017206005 0.0017227189 -0.00065032043 -0.0078016696 0.0020017559 0.003862166 -0.0016251588 -0.0043475213 -0.0019508585 0.0023675333 0.0011458376 0.005880701 -0.0008699981 -0.004899927 0.0006858295 -0.0018803097 0.002252163 -0.002468309 -0.0007660321 -0.001913191 0.0028449644 -0.0011943209 0.002482148 0.0036541752 0.002255129 0.005454291 -0.002543969 -0.0024260043 -0.0025072908 0.00354956 -0.002939406 0.0045693526 0.0035280853 -0.00069077965 0.0005181635 0.006304051 0.0008583886 0.0017881086 0.0032684049 6.798316e-05 -0.0019855541 -0.0004712587 0.0021837244 0.0020093871 0.0002341629 -0.0031494077 0.0020953924 0.0035827202 -0.0041960543 -0.003113312 -0.0047776 -0.0003215848 -0.0044021467 -0.004024863 0.005434898 -0.00050019316 -0.0007862443 -0.0001901754 0.0017029018 0.000592091 -0.0038419939 -0.00078317954 0.001446815 0.0023582364 0.0015409783 0.0019552943 -0.0004017054 0.0028018733 -0.0043363073 -0.0037077765 -0.0005582991 0.00245506 0.0017017553 -0.0031127455 -0.0015443717 0.0022448087 -0.002895373 0.0008033882 0.000633866 0.0040769307 0.004363966 0.0024104156 -0.0049786116 0.00040184325 0.0018307513 -0.0027819849 0.0026577893 -0.0014061586 0.0030593665 0.0033637094 -2.7975126e-05 -0.00045072904 0.0009801978 0.0012841765 -0.0011254303 0.0038400136 -0.0013345169 0.0019605153 -0.00043425537 -0.0017018482 -0.0027790298 0.0030217464 0.0012267417 -0.001021553 0.0012305343 -0.0017642907 0.0035252122 0.0033759526 0.0010629068 -0.00020874946 -0.0024533297 0.0037952175 0.0004376358
209.132.051.187 0.0017536323 0.0028682745 -0.0011546729 -0.0029494446 0.0009408776 0.0011593074 -0.003101588 0.0034532426 -0.0022158665 -0.003352422 -0.0017222136 0.0028821696 0.00024952908 -0.00055672124 -0.0017898674 -0.001294014 -0.0023765548 -0.0013479074 -0.0018221352 0.0015955215 -0.0022296186 0.0030222756 -0.0023818568 -0.0010075995 -0.0015165706 -0.0019184599 0.004338298 -0.0020654977 -0.003422736 0.0015182658 -0.001412852 0.003244117 -0.0025861505 -0.0017691982 0.000656088 -4.2257183e-05 0.0020643244 -8.005532e-06 8.764815e-06 0.0012575829 0.003805635 -0.0016491553 -0.0016945075 -0.0039937226 0.0030943821 -0.0020723755 0.0024983005 -0.0016848326 -0.004306461 0.0001432895 0.0048276205 -0.0037536956 0.0017746337 -0.0012441655 0.0008092359 0.00035168428 0.0023100825 -0.0021804 -0.0026930328 -0.0016862968 -0.0024891002 0.0021847053 -0.002366424 -0.0021452033 -0.002981457 0.0014641806 -0.0011804285 -0.0023754858 0.0035852469 -0.0032841642 -0.0027150891 -0.0012423801 0.0011340668 0.00024117541 -0.0032166638 0.0025441286 -0.0036879352 0.0036992081 -0.0038215497 -0.0018638946 -0.0031211611 0.0007400743 0.004148242 0.002582623 0.002459804 0.003141355 0.002292565 0.002589385 -0.0018617172 0.003142518 0.0006778222 0.0028030665 -0.0011287613 -0.0016034713 0.0040563233 0.00056876853 0.0023729345 -0.0035500703 0.00029426132 0.003399411 0.0025892302 0.0029864116 -0.0016991107 0.002195523 0.002236026 -0.0009857079 -0.0034434241 -0.0023586776 -0.003321905 -0.00024322915 -0.0026586414 0.0008977725 -0.0020076686 0.002530008 -0.0014387071 0.0027188729 0.00016515293 0.00075008307 0.0012297751 0.00090671354 -0.0010622448 -0.0017146013 0.0026516186 -0.0014684388 0.003354078 -0.0010044792 0.0020643475 0.0019811902
172.016.114.168 -0.004613293 0.000978789 -0.004864588 -0.0047071665 -0.00635364 -0.003972344 -0.0040524164 -0.00097466056 -0.0064660055 -0.0005548076 -0.0011382903 -0.0010590678 0.0029918202 0.0040329676 -0.004037792 0.006255041 -0.0037951132 0.0060154935 -0.009442623 0.007191782 0.0029152867 0.0031641435 -0.00399079 -0.00020322083 0.00015676132 0.0021153658 0.0022614466 -0.004898392 -0.003419808 0.0029741733 0.0057763453 0.005347518 -0.0013435603 -0.004198307 0.003334359 -0.003748219 0.0024963808 0.0044894526 -0.0008965221 0.0017365318 0.00010492031 0.0024746424 5.7020916e-05 -0.003823129 0.0022218681 -0.0033304717 -0.00081249606 0.003059595 -0.0008535861 0.00048436393 0.0055346726 0.0016338134 0.00694073 0.0008463015 0.0018218451 0.0039293915 0.0046465583 0.0013842285 0.0027754097 -0.0060421494 0.003061532 0.0019804884 0.0036381306 -0.0005565636 -0.0025827014 -0.0014772267 0.0020143269 -0.00601737 -0.00034704246 0.0003339504 0.0011024254 -0.0071337004 -0.0012891188 0.0019591108 0.00014255932 -0.0041831383 0.00039197816 0.002230008 0.0019148851 0.001992005 0.0030380145 -0.005019992 0.0018898384 -0.0023654047 -0.0013160681 -0.0036503992 0.004659977 0.0044471705 0.00032922684 0.0009488385 -0.0040410846 0.0006583174 0.008781658 -0.0013287956 0.0052983197 0.0017211174 0.0022395083 -0.0073123924 -0.004566615 -0.00071553135 0.0030014704 0.00017425299 0.0026556065 -0.002545399 0.0046818564 0.005104867 -0.006511803 0.0030205809 -0.0023271374 -0.0013677207 0.0028981983 0.0045892918 -0.0011048873 -0.0032783942 0.0017810671 -0.002055545 -0.0024632677 -0.00015144466 -0.0028830005 0.00067117746 -0.001945671 -0.0020249926 0.0034912117 0.0017692352 -0.0023368597 0.0011829608 0.0038678178 -0.0006702699
172.016.114.169 0.0019043662 0.0032027096 -0.00173064 0.0034506335 -0.0040124357 0.00048533487 0.0019326968 -0.00017068541 -0.0037288195 0.004002468 0.0023611768 -0.0023666862 0.0025723043 0.0012676372 -0.0008496526 0.0021205507 0.0032293072 0.002424513 -0.0052443817 0.002772548 -0.0010747864 0.00096591766 -0.0024460093 0.0027892296 -0.000411632 -0.0003910515 0.0048460527 0.0014866792 -0.0044260235 -0.0030125768 -0.0019704981 0.004658138 -0.0031187802 0.0013527838 -0.001649597 0.0029563028 0.0015294739 -0.00094728975 0.0003383624 -0.00036535278 0.0037146283 -0.0019235893 -0.0011547264 -0.0037129438 -0.00051213696 8.7335095e-05 0.0010627697 0.004342257 0.00035625396 -0.0037301276 0.005343936 0.0038231274 0.0015377407 -0.0003908134 -0.0005155308 0.003023656 0.00082682905 -0.0025502166 -0.0027759965 -0.0010052515 -0.0015241356 0.0022214 0.0017584218 0.0032048298 -0.002967504 0.0023571935 -0.0028734892 -0.00383178 -0.0013507889 0.0034600403 -0.00013938641 0.00021454951 -0.0023720253 0.0017881456 -0.0021793654 -0.0036539428 -0.0029663036 0.0002598503 0.0015922526 -0.002213678 0.0032817638 -0.0020769443 0.0036581715 -0.002140976 -0.00017175493 -0.002253224 -0.0036292775 0.003174405 -0.0031458675 -0.004219193 -0.0024811323 0.0004531327 0.0047910674 -0.0019228093 0.0039158375 0.0006079427 -0.00079307536 0.0018719337 0.00302603 -0.0031117012 -0.00225761 -0.0029007865 0.003921142 0.0016218787 0.00064282055 0.0019207288 -0.0041765072 -0.0036679953 0.0042104656 -0.0011363873 -0.00059947104 -0.0024499446 0.00018248912 -0.0038495339 -0.0017641342 0.0011908796 -0.0033119745 0.002488127 0.00033494155 -0.0007529495 -7.561292e-05 0.0015440503 -0.0023341877 -0.0030322743 -0.0013820945 0.0008036326 0.004600323 0.0031585
192.168.001.010 0.001956426 -0.0031399834 0.0010970255 0.002765131 0.003252176 -0.0036003443 -0.00023321487 -0.0037360864 0.0025161868 0.0020280208 0.0029448764 0.00096499675 0.00014282987 0.00063108694 -0.0018606746 0.0035081443 1.2442411e-05 -0.0026163145 -0.004177489 -0.0028678384 0.0021183875 -0.0016691107 0.0025329131 -0.0014623501 -0.0015399755 0.0028276348 -0.0007061092 -0.00048480474 -0.0015189649 0.001968612 0.002313908 0.0012494808 0.0021517482 0.0031764507 0.0038648022 0.0011312395 0.0010582883 0.0012763131 -0.0030475648 0.00092948164 0.0015786476 -0.000849132 0.00038563777 0.0010820585 -0.0022257727 -0.0029010735 -0.0023277043 0.0017165258 -0.0015156762 -0.0040954803 -0.0013574392 0.0015447536 -0.001504369 0.0033310265 0.00044068552 0.0032225265 -0.0010218917 0.002322931 -4.6645175e-05 -0.0038819117 0.0012697187 0.0031739187 0.0031273144 0.0014269059 0.0020433029 0.0019969868 -0.00094846543 -0.0014794882 -0.0008943735 0.004081587 0.0030262093 0.0011435548 -0.0036706612 -0.0024205784 2.3943867e-06 -0.0027550412 0.00015650001 0.0009626316 0.0031315428 0.004114163 0.0011189564 -0.0021986412 0.0036353632 0.00062366726 0.0014033401 0.0027741527 0.0038100805 -0.0021589475 0.0036591347 -0.00043050305 0.0013751045 -0.0017355084 -0.002027984 0.0029395085 0.003710431 0.0037120315 0.0032768995 -0.0026981758 -0.002904381 0.00016423504 0.0014834058 -0.00065815006 0.00027747982 0.0014403262 0.0006027076 -0.0028617969 -0.0024274543 0.0027773161 -0.00087852095 0.0005193495 -0.0011849388 -0.0016881333 0.0030255166 0.0015486478 -0.0003363114 -0.0020301726 -0.002388487 -0.0005119135 0.0016671532 -0.0027664574 0.0010077875 0.0033204306 0.0005002507 -0.00066742924 -0.002599 -0.0029835878 0.0027962083 -0.002488193
172.016.114.148 -0.00034802244 0.00021817541 0.0015417482 -0.0046645273 -0.0046710144 -0.0025872353 0.0030324294 -0.0026087826 -0.0021154075 0.0005750239 -0.0001160118 -0.001959287 -0.0036855396 0.0021427106 -0.0024432894 0.0006561768 -0.0023819695 -7.550701e-05 -0.00090812636 0.004965812 -0.00011595586 -0.0027819206 0.0023693421 0.0011534715 -0.004614666 0.0042657624 0.0029778376 -0.001425394 -0.0045053065 0.004310409 -0.0007198544 0.00067993416 -0.0018184099 0.00025133506 6.942733e-05 -0.004043019 0.005239197 0.0033956023 0.0009123438 -0.0028850532 0.0025595922 -0.0006861798 6.857094e-05 -0.004283566 -0.001979047 -0.003303189 0.0017280356 0.0017330011 -0.004896041 -0.0023337766 -0.00035152963 -0.0020798638 0.0020098197 0.00402396 -0.0018718984 0.0034823692 0.0017824785 0.0010456427 0.0006368122 -0.0045918287 -0.00020031678 0.0028718377 0.00031699054 0.0006025656 -0.0026177592 -0.0045890342 0.0004131227 -0.0010273274 0.001824517 -0.0009052101 0.00072354276 0.00030596193 0.0007286385 -0.00073527935 -0.0013118224 -0.001884982 0.00012821585 0.0056190817 -0.0013018665 -0.0007518289 0.004178379 -0.0054529477 0.000783444 -0.001035265 -0.0021530169 -0.0035135164 -0.0023790624 -0.0015864237 0.0012516121 -0.0030265048 -0.0028048719 0.0012872373 0.006191395 -0.0024500822 0.0002113099 0.0012083875 0.0027450603 0.0014526718 -2.468063e-06 -0.00016238527 -0.0039480226 0.00018891454 0.0011970539 0.0008389714 0.005593187 -0.0011305297 -0.001449006 0.0024702002 -3.379362e-05 0.0022815478 7.316975e-05 0.0037363635 -0.0012985175 0.0023070208 -0.00075191574 0.0021699283 0.0014369915 -0.0031844939 0.0004124823 -0.00033675836 -0.0031592138 -0.0012088625 0.0036474683 0.00017660804 -0.0034001314 -0.00013958123 0.0018378443 0.0022847264
143.166.082.014 -0.004839907 -0.0027933414 -0.003851628 -0.0016034623 -0.0033130944 -0.00041465857 0.0027118486 -0.0006475652 -0.0036630537 0.00074675924 -0.00012538067 -0.0017972465 -0.003063342 0.0028036165 -0.0012097405 0.004917167 0.002670487 0.0041860393 -0.0027306946 0.0030478395 0.00023846453 -0.0017999304 -0.0033128434 -0.0021777395 -0.0041551786 -0.0020881786 0.00039401327 0.000138881 -0.0011676804 0.004162809 0.0035558962 -0.00083527836 -0.000613363 -0.0017239614 0.004078745 -0.00015476487 -0.0010846283 0.0050423397 0.0024888758 0.0010650794 -0.0013322381 -0.0029425276 -7.481167e-05 0.00059206574 0.0005760376 -0.00076876197 0.0012417252 0.0034658422 -0.004060056 -0.0007783872 0.0036554886 0.0034380504 0.0044492236 -0.00095439807 -0.003207909 0.0033316056 0.0044046654 0.0012191096 0.004335681 -0.0011839841 -0.003326421 0.00020663664 -0.000544981 -0.0023039174 -0.0035073538 0.0022734934 -0.0038659426 -0.0030784677 -0.0013072594 -0.0026372648 0.0011667922 -0.0035362835 -0.0044838022 0.0019811136 -0.0039232397 0.0023111473 0.00017921173 -0.0014079739 -0.002125211 0.00031911867 0.0030608496 -0.0044480385 0.0013529211 -0.003152719 -0.0044247666 -0.00047585968 -0.0027013416 0.0016273366 0.00074412505 -0.0018116012 -0.002455521 0.0032419078 0.0031574036 -0.0022321725 0.0006927238 -0.00077572896 0.0034514824 -0.003823109 0.0018516886 -0.0013429283 0.0008430344 0.0005714308 -0.0031634083 -0.0020755015 0.0013529652 0.004950879 0.001293818 -0.002210099 0.0007540996 -0.002853639 -0.0021501041 0.0025438934 0.0026715365 -0.00056109804 0.00041778613 0.00017582456 6.494421e-05 0.0009958097 -0.0032925075 0.0014770408 -0.0031963633 1.536907e-05 0.0032918204 -0.0036125646 -0.0009604101 -0.0012241038 0.0046879468 0.00507304
209.094.159.020 0.0010896019 -0.0031659354 -0.0030079787 -0.0010215667 0.0030227746 0.0032913073 0.0030999288 0.0035290322 0.0024025172 -0.0028127078 -0.0038877667 0.002352973 0.0020844473 -0.0026617283 -0.0010714529 -0.0007574824 3.0289219e-05 0.0035038076 -0.004994013 0.0025677988 0.0019321397 0.00056900666 -0.0006073887 0.0032115725 0.0018405395 0.0021714699 0.0009052544 -0.0040800082 -0.0023772174 0.0017563251 -0.00026871797 0.0025060624 0.002740182 -0.0030548614 -0.00067959435 -0.003892762 -6.106993e-05 0.0032894122 -0.00047763038 -0.0022472697 0.0036252202 0.003673186 -0.0031349591 -0.0018323379 0.0025796585 0.0029975232 -0.001597627 -0.0012363674 0.0028842026 0.003457754 0.0040425626 -0.0001626635 0.003875238 -0.0034172316 0.0036874523 0.0015497813 -0.0014314274 0.0017736896 -0.003048005 0.0023944357 -0.0025464094 -0.00020455981 0.0022773235 -3.6836012e-05 -0.0041630766 0.00036834087 -0.00339781 -0.0033804835 0.0008506439 0.0010039757 -0.0018241623 -0.0034683342 0.0005959041 -0.0008945207 -0.0014950791 -0.00068060326 0.001322596 0.0016627377 -0.0031855348 0.0039861025 -0.00022677332 -0.004095323 -0.0025245724 -0.004158535 0.00043797755 0.0011387831 0.00070775725 0.0022958023 3.4483455e-06 0.0017277934 0.0037658354 0.00048847945 0.0036421623 -0.0010944974 0.0028558066 0.00016497636 0.00080981257 -0.0025170373 0.0029635404 -0.0019657924 -0.0037984217 -0.0021044242 -0.0022279832 0.0021815286 0.0040959483 -0.0025495337 0.0003674923 0.0017677959 -0.0007164514 0.0010941785 -0.0028446328 0.00215074 -0.003801233 -0.0035416046 0.0016237847 -0.0035496338 -0.0004792099 0.0014792535 -0.002879913 0.001668562 -0.0032157414 -0.0015790967 -0.0034714702 0.0006987859 4.7255664e-05 0.0037276126 0.0018121524 0.0036652817
195.073.151.050 2.4937413e-05 -0.0022571874 -0.0036121518 -0.0024871638 -0.00531425 -0.0037735447 -0.0004221985 0.0015047556 -0.0034783774 0.0033032447 -0.0012753744 0.0014683595 0.0018048021 0.004765344 0.0019241002 0.0030299476 -0.0004891332 0.00057310634 -0.0015168447 0.002534636 -0.00064848457 -0.0028612656 0.00019245064 -4.165926e-05 -0.0018579154 0.0034201087 0.002801761 0.00030022068 0.00013205182 0.003947819 -0.0023051782 0.00029939198 0.0007763689 0.00070504704 0.0005741398 -0.0007207503 0.0049943766 0.00054929033 -0.0009910142 0.00034036482 0.003104114 -0.0040619834 -0.0010653764 -0.0048545394 0.0030661724 0.0003150574 -0.0017285633 -0.0010577282 0.0023347007 0.0005592955 0.0059754485 0.0018261104 0.0013075984 0.0029692773 -0.00096380943 0.0010423288 -0.00046355513 -0.0022375123 0.0050460156 0.0003546414 -0.00065166864 -0.00046059943 -0.0023125508 0.0034732677 -0.0037042948 -0.0015081456 -0.003485002 0.0002690352 -0.0019589858 0.0032044284 -0.0016297457 -0.005165049 -0.0022024608 0.0027634709 -0.00055043877 0.00071970915 0.003464346 5.4175965e-05 0.0023954795 9.275079e-05 -0.0026880924 0.00011044819 -0.00060037937 -0.0003994019 -0.0015388648 0.0031693303 0.0017397112 -0.0027207579 0.00091462914 0.0018851643 -0.0016420652 -0.004400019 -0.0003702673 -0.002737637 0.0036708883 0.003972622 -0.00080536597 -0.0032701022 -0.0025225992 -0.0010327625 0.0022498325 7.868874e-05 -0.00018207091 -0.002632664 0.001522265 0.0036394363 0.0006411186 0.00024866394 -0.0030194614 0.00094752165 -0.0031020737 0.002556976 -0.0010120099 -0.0048899027 -0.0037741845 -0.00337927 -0.0011710931 0.0017441798 0.0023182244 -0.001569138 -0.004120701 0.0018355072 -0.0026003143 -0.00041415458 0.0039808666 -0.0022918577 -0.0020472268 0.0037886126
172.016.113.105 -0.0034708611 -0.003346162 0.000121069126 0.0020065727 -0.001704941 -0.00261307 -0.0039474936 -0.0024239738 0.0009766466 -0.0013931558 0.0034208877 -0.0033201582 0.0013809352 -1.0774704e-05 -0.0031826287 0.00011270365 -0.0019524586 -0.0013469342 -0.0026266838 0.004644077 -0.000627002 0.001963641 -0.0027917903 0.0023363137 0.001395954 -0.0012713632 0.0045671985 -0.0016363658 -0.0011173108 -0.002482278 0.004557003 0.0025416159 0.00065046153 -0.0037213238 0.0003184822 -0.00044848645 0.0047523626 0.0042096586 -0.0022988694 -0.0008627625 0.0056914627 -0.0018427838 -0.0010527087 -0.002744875 -0.0020283174 0.0011386944 0.00026787102 0.005359103 -0.0028039706 0.0019712718 0.004521969 0.002663423 0.0037710844 -0.002039956 -0.0025277159 -0.00027709472 0.0021738522 -0.0045685368 0.004021155 -0.0040935655 0.00141168 -0.0012085616 0.003660372 0.0027547833 -0.0036789107 -0.002768265 0.0008481021 0.001268411 -0.0004092792 0.0013920434 -0.0018395327 -0.0040864106 -0.0053406083 0.0015348453 -0.004295417 0.0014725478 -0.00068254763 0.001635695 3.6233527e-05 0.005236575 -0.0011692123 -0.0015948568 0.0048982413 0.002104022 0.0020589798 -0.0014234193 0.0031305389 0.00032888708 -0.0025405344 0.0012320336 -0.0002983444 -0.0033906172 0.00017182372 -8.368192e-05 8.562865e-05 0.0034898787 0.0023265556 0.00088136084 0.00057941244 0.0032585028 -0.0027570594 -0.00028160482 0.0036492124 0.0019812628 0.001819032 0.0055427416 -0.0045789853 0.0021224096 0.0005511817 0.0028148836 0.0031406523 0.002092268 -0.0032349548 0.0017366703 -0.0032645788 -0.0044178693 0.00092914933 -0.0024921903 0.00039902143 0.003033289 -0.0019751578 0.002099306 0.0015404723 -0.000110382236 -0.0007817839 0.00111895 -0.0015404099 -0.0015407698
194.007.248.153 -0.0048203953 -0.001809825 0.0014595247 -0.0041333702 -0.008253337 0.0007722416 -0.0011254054 -0.0030633286 -0.0045338357 -0.0011368587 -0.00060284795 -0.002956674 -0.0016569272 0.003537724 -0.0042685596 0.004860686 0.001260747 -0.0006449728 -0.00815843 0.008274606 0.0040900484 0.004516839 0.00024063846 -0.0012461923 -0.0023391661 0.0016126184 0.0016562403 -0.0041443384 0.0008741175 0.00228348 0.0026747356 0.0070820837 -0.0034705305 -0.0057836906 -0.0005505988 -0.0015912694 0.00517881 0.0023816724 -0.0035717268 -0.0011750122 4.8434304e-05 -0.0046726363 -0.001055189 -0.00013447655 0.0032876008 0.00087885093 0.002610968 0.0028287696 -0.006336939 -5.74195e-05 0.0106544215 -0.0014205723 0.00055327266 0.0064870543 -0.0010972241 0.005362973 -0.0010149146 -0.0020305212 0.0066214884 -0.008912522 0.0017081196 0.0052132057 0.0036620013 -0.0037328138 -0.0014366426 -0.0063681137 -0.00017040197 -0.0058181183 -0.0054705157 0.00681063 -0.0012734594 -0.006281384 -0.007251313 0.004804561 -0.0018919427 -0.001719328 -0.0025984186 0.004122454 0.00092972344 0.007176583 0.0016769876 -0.0070720613 0.008702669 -0.00014514415 -0.0019579872 -0.0033721381 0.00026696 -0.000617143 0.00039571777 -0.0029876553 0.002543996 -0.0038476703 0.0039154077 -0.00067187904 0.0044559636 0.00608624 0.0007837675 -0.0070661902 -0.0008329046 -0.00094399886 0.0008422871 0.0016483819 -0.0032685958 -0.0011371438 0.0075287814 0.0068303663 -0.0058101146 -0.0010827415 0.0003007179 0.0005834744 -0.0015220965 0.0004136471 -0.0016218149 -0.0043889578 -0.004993768 -0.005178043 -0.001228924 9.8928824e-05 0.0016984992 0.003937601 -0.0005683662 -0.0017655911 0.004903417 0.0037413149 -0.0014980237 0.0014690356 0.0034417605 0.0029886505
172.016.112.207 0.00067624345 -0.0024005626 0.0013769738 -0.0036490124 0.00010579874 -0.0006275832 0.0012134594 -0.0007823369 -0.0022882046 0.0012566902 -0.0010448693 -0.00085294916 -0.0029523245 0.0018788332 -0.0015701752 -0.0036192373 0.0022350736 -0.00036117548 -0.0023143552 0.0023700444 -0.00222292 -0.00089388055 -0.003561993 -0.0008038736 0.0013451646 0.00021473 -0.002668573 -0.0016310943 -0.002808877 0.00026497478 0.0018704974 0.0012465769 -0.0010807458 0.0038251092 -0.00036812015 0.0017007258 0.0026284098 -0.00046034783 -0.0017385929 -0.0016636797 -0.0038236848 -0.003029597 -0.0036908835 -0.0008159647 0.0009027066 0.003884943 0.0016854799 -0.00038023753 0.0002423415 -0.0018533095 -0.00045045005 -0.0031176377 0.00036887132 0.0031248154 -0.003161007 0.0010210705 -0.0035932425 -0.0039035003 -0.0015994261 0.000106133106 -0.00010907361 0.0005850595 -0.0013911026 -0.0016720974 -0.0020715795 0.0016875025 0.0031859693 0.0010179431 -0.0030281246 -0.0032038642 -0.0014300843 0.002185541 -0.0010902118 0.0013961779 -0.0033463782 0.0021655117 -0.0012932492 -0.0007312707 -0.002988622 -0.0031399906 -0.0021730326 -0.002199365 -0.00062119454 -0.0015919271 -8.5514155e-05 0.00045240528 -0.0032406454 0.0037335062 -0.0007269235 -5.073743e-05 -0.002620095 -0.0036008665 -0.0015082572 0.0019261389 -0.001212416 0.0031845437 0.00021376944 0.0018492634 -0.0021570784 0.0027080942 0.00052290293 0.0010940301 -0.0006320636 -0.002204573 -4.403578e-05 0.00024043418 -0.0026595646 0.0032358386 0.00027865285 -0.002419591 -0.0005856123 0.0022045972 -0.0009487273 -0.0032870255 -0.0038485602 0.0034401827 0.0035881326 -0.0008081158 0.0008753003 -0.0025263336 0.00079904177 -0.0018277196 -0.0007383748 0.00022170389 -0.0024455867 -0.001260122 -0.001893007 0.00096982345
209.066.124.019 -0.001892153 0.003005015 0.0035066188 0.00053249334 0.0022500865 -0.0022641483 -0.0033608517 0.0012291473 9.7877026e-05 0.00022931406 0.003414121 -0.0036180257 0.001961744 -0.0005209972 0.0001745798 0.002675923 -0.00027450314 -0.00056730316 -0.0005546556 -0.002286872 0.00029855338 -0.00034045993 0.0033608207 8.245878e-05 -0.002047057 0.00030695702 0.001052623 0.0018929195 -0.0035751862 -0.0014636763 -0.0033260738 0.0039331596 0.0028585088 0.0011612016 0.0034596988 -0.0038101815 0.0034960222 -0.0019857453 -0.0035694134 -0.00015043316 0.0023909705 0.00318067 0.0022158918 -0.002400666 0.00353489 -0.0029026745 0.0031919456 0.0022459638 0.0005034215 0.0008971917 0.00423877 0.0014762172 0.001110368 0.001701492 -0.0020940832 -0.0017680197 -0.0016690401 0.0036151065 0.0023221606 0.00093301095 0.0010383775 -0.0023317544 0.0005396514 0.0010017076 -0.0031999995 -0.0012177718 0.0037980073 -0.0018200304 -0.00031180747 -0.0021487079 0.0021982114 -0.0020384735 3.879977e-05 0.001457247 -0.0012905796 -0.0009416229 0.0031987617 0.00060240633 -0.00019708244 -0.0012919469 0.0029123574 0.0013980154 0.00023915662 -0.0026876607 0.003359645 0.0023218927 -0.00033885383 0.000951493 0.0018811435 -0.0012710877 -0.002957409 -0.00022145509 0.0032040954 -0.0012211318 -0.0019869802 -0.0012820916 -0.0013125987 0.0026550293 -0.0009075691 -0.0009068005 0.0006702622 0.002784347 0.0004983965 0.00054226303 0.003178247 -0.0017668166 0.0035933463 0.002353586 -0.003300701 -0.0011604778 -0.000912158 0.0010945774 0.0021472303 -9.295891e-05 0.0017409484 0.001110546 0.0022081488 -0.002031785 -0.0030313586 0.0017687435 -0.0011657489 0.00021479493 -0.0009519487 0.003067889 0.0034492912 0.00075158 0.003011296 -0.0016618245
172.016.112.194 -0.0028333643 0.0003847245 0.00016317243 -0.0040299185 -0.0020241598 -0.0031957715 0.0021414238 -0.0021938218 -0.0023916853 0.0028891386 0.0029336743 0.0031452233 0.00012802085 0.0032431157 0.002244668 -0.0012007932 -0.004136943 0.00059073226 -0.0029811254 -0.0006358926 0.003946511 0.0015692562 -0.0008832576 -0.001579239 -0.0035964507 -0.0006931565 -0.0003967821 -0.003377066 -0.0035389254 0.00040145486 -0.0019661272 0.000107351225 -0.0030394355 -0.0039068633 0.00063455873 -0.0044011064 0.00042307103 -0.0010151133 -0.0015262553 -0.0021712065 -0.001055835 0.0018015215 -0.002507974 -0.0050663822 -0.003216555 -0.00015786219 0.00088949664 -0.0025594675 0.0002867452 -0.0030102509 0.00087148027 -0.0028667995 0.0033040862 0.0024235356 -0.0014872116 0.0006130741 0.0007274465 -0.00082282565 0.0048907455 -0.0030725542 0.0019312394 0.0013761207 0.0043531475 -0.0016091823 0.0018372021 -0.0011809762 0.0018127662 -0.0051419237 -0.0047200387 0.004834553 0.0011819571 0.00042364188 -0.0041092043 0.0039000963 -0.0029044119 -0.0019371418 -0.0019801003 0.003957473 0.001493036 0.004600771 0.002045663 -0.0025732126 0.00069095707 -0.0035358358 0.0022434872 -0.0021848548 -0.0035640264 0.0032656132 -0.004229915 -0.00459068 -0.0004137865 -0.0037986238 0.0057321317 0.002907413 -0.00205674 0.0038390604 0.0002430643 0.00053110265 -0.0007609414 -0.0015562141 -0.001738379 -0.0006981626 0.0010644756 -0.00050292315 0.0013381839 0.0051191477 -0.0036325587 0.002702399 0.0004138758 0.0019483145 -0.0024544836 0.0007012726 -0.0005120272 0.0017404107 0.00091537257 -0.0037042657 -0.0031094977 -0.0020118246 0.002410382 -0.0030929702 0.0017288812 -0.0020533446 0.0008743491 -0.0008848967 0.0034491427 3.332259e-05 -0.001030198 0.00034346926
196.037.075.158 0.000108822365 0.00082856504 -0.0038714882 0.00030445866 -0.0037799415 0.0026588333 -0.0025361783 0.0026430218 -0.004478918 0.0013063177 -0.0021051937 -0.000266567 -0.0024433923 0.0003700838 0.0015558291 -0.0015875386 0.001759385 0.0023820717 -0.0034013698 1.6346923e-05 -0.0032725716 0.0028756491 -0.0021644956 0.0033886079 0.0032062838 -0.002326732 0.0036558753 -0.0011377498 0.00029572344 -0.0034370543 -0.0013347908 -0.0020104751 0.0034457212 -0.0018310596 0.00038896827 -0.0015332631 0.0005829468 -0.0030040317 -0.00092207815 -0.003470387 0.0012550413 0.003196476 0.00019708039 -0.0020494098 -0.00015024107 0.00035314425 0.0036937061 -0.0010905521 0.0013542565 0.0021745695 -0.0003192739 0.0010484386 -0.00092567696 -0.0027407904 -0.002345209 -0.002885312 -0.0020673973 -0.00089479494 -0.0009255107 -0.0024016248 0.0018488202 0.001005505 0.0001306463 -0.0018825553 0.0010158408 -0.0044683735 -0.0025025893 -0.0032938106 -0.0024519837 0.0012047661 -0.0005589876 0.00057763926 -0.002869478 0.0031791655 0.0022854148 -0.002061236 0.0019203455 0.0012984842 -0.003163585 0.0029530972 0.0032225081 -0.0040546055 -0.0025642498 -0.003319345 -0.00044177604 0.00012550817 0.00021843627 0.0010057106 0.0033295276 -0.0043017142 0.0029382054 0.002289053 -0.00022313744 0.0014438017 0.0005492639 -0.00030639808 -0.0032954402 -0.000657872 -0.002286548 0.0015334415 -0.0036684652 0.0031766244 0.0028071962 -0.0028829772 -0.0023207208 0.003556529 -0.004446698 0.0011168759 -0.0027221397 -0.0030373419 0.0031521094 -0.0024279265 0.0021849102 -0.0030116632 -0.0030119768 0.0034948445 0.0025441379 0.0028070323 -0.003463623 0.002127769 -0.00048500387 0.00078412733 0.0016060369 -0.003505194 0.0031434582 -0.003601336 -0.0015295058 -0.0019145674
172.016.112.020 -0.0022459195 0.0007997203 -0.0010288305 -0.0017406107 0.0020246864 -0.0015256734 -0.001007863 -0.0024838506 0.0016922397 0.0020849132 -0.0009617283 -0.0030378578 -0.002143133 -0.0027146025 0.001045812 -0.000518264 -0.00096415926 0.0040584407 1.6412756e-05 -0.0022688308 -0.0010483166 0.0007646503 -0.0034883413 0.0025637455 0.0024953112 -0.0033692664 0.004393872 -0.003946315 -0.0042582517 -0.002491354 -0.0018616754 0.0029136473 0.0005343995 -0.0018902553 -0.0010082611 0.0030466076 -0.000583105 0.00037181025 -0.0017485942 -0.0021921059 0.0040751104 0.0027053345 -0.0025024829 -0.0009601772 0.0017535709 -0.003154937 -0.00031332287 -0.0029685118 -0.00015082663 0.0033785123 0.002692371 -0.0012687503 0.00014731783 -0.0030074804 0.003606375 -0.0033311383 0.0011803416 0.0036394158 0.003201619 0.0023081615 -0.00023188801 0.0034067498 -1.8491774e-05 -0.00055150467 0.00036993812 -0.0010058155 0.0014383614 -0.0019638187 -0.0028211996 -0.0012304564 -0.0031065242 0.0012273958 0.002148382 0.0040707006 -0.00082788453 0.0035732018 0.0004850887 -0.0018953204 0.0024537107 -0.00041187982 0.0027720155 0.0010778636 0.002443208 -0.0002694436 -0.0017657614 -0.0009114279 -0.0005816346 0.00243048 0.0017953723 -0.00078050484 -0.0039621103 -0.0020769527 -0.0016744212 0.0016370966 -0.0017922773 0.0030809804 0.0024022814 0.0012874176 0.0014449363 -0.002490372 0.0020212783 0.0019895996 0.002111895 -0.0010757477 0.004241358 0.0031357752 -0.0010184053 -0.00071559974 -0.0021370482 0.00158725 0.0039455765 -0.0032800469 -0.0030744453 0.0010492277 0.0006211918 -0.00095345406 0.0031187632 -0.00088857673 0.000631501 -0.0011568241 -0.0036080054 0.0020737266 -0.0033121079 2.3647004e-05 0.0015626673 0.0013495943 0.003535098 0.0011803072
172.016.112.149 -0.0028304125 -0.003316149 0.0010001151 0.002822128 -0.0012326462 -0.0021819004 -0.00045773393 -0.00037620252 0.0017457267 0.0014076497 0.0026986185 -0.0031640164 -0.0034850917 0.0010050666 0.00062060996 0.001442355 -0.0019756581 0.0024503856 -0.0066206073 -0.0014389749 -0.0011882462 0.002238592 -0.0005487346 -0.0018398294 -0.0015049634 0.0027002238 0.0042634606 3.6202662e-05 0.0015970105 0.0010587871 0.002433615 0.0021784666 -0.0017501534 -0.0036130352 0.00424079 0.0011123044 -0.0010404588 0.000328199 -0.00055345776 -0.0011918014 0.00524878 -0.00060396583 0.0038036671 -0.004713843 0.00222236 -0.0029562984 0.0044631716 0.0016709322 0.0020182491 -0.0022201808 0.004604304 0.0025441262 -0.0013846185 0.0045530177 0.0013395444 -0.002594629 0.0018463146 -0.0016524065 0.0038222042 -0.00017183856 -0.00097578333 0.002066341 -0.00017729728 0.00023563938 -0.0022600908 -0.00082214805 0.002006116 -0.005219679 -0.0026221345 0.00039090303 -0.002250064 -0.0039173486 0.0018799873 0.001389409 0.0018756033 -0.002725765 0.003390762 0.0042941016 -0.0018486606 0.0011066989 0.0005631015 -0.002712648 0.0012304842 -0.0039839773 0.0010520226 -0.0031170603 0.0041498346 0.0044688215 -0.0024418507 -0.0049332213 -0.0022738571 -0.003114796 0.0018260055 0.0019500117 0.0034842556 -0.00019816193 0.001515958 -0.004287822 -0.0034048078 0.0018544937 -0.0028654176 -0.0021857035 -5.9228412e-05 -0.00079943537 0.0041389023 -0.0016513302 0.00053120806 0.0009585981 0.0019654364 0.0015195837 -0.0022837173 -0.002122824 -0.000571749 -0.0029751244 0.000512771 -0.003952176 -0.00241693 0.0026130767 -0.0003141377 0.003967755 0.0032518758 0.00095436873 0.0006064465 -0.0019106338 0.0017116162 0.0018702401 -0.0011645872 0.0017870694
197.218.177.069 -0.0028498375 -0.003586651 -0.0011101543 -0.0021826378 -0.0012853955 0.0029872733 2.5845377e-05 -0.00029635563 -0.0017428567 -0.0010500186 0.0031007 0.0029265005 -0.0030760546 -0.00016041409 0.0013050853 0.0016615712 -0.00026079788 -0.0011057827 -0.003694306 0.0027390064 0.0014649391 0.0006918235 -0.0037769743 0.002503256 -0.0031724244 0.0018164192 -0.0021622698 -0.0014845354 0.002099579 -0.00057470234 -0.0021002677 -6.086872e-05 -0.0029048305 0.0020870655 -0.0030630373 0.0006334054 0.0017454306 -0.0013822081 0.0010502449 0.0007791252 -0.0022850393 0.0027588478 -0.001839418 0.0038276534 0.00065087056 0.0026548437 -0.0012353667 -0.0011632753 -0.0029158469 -0.0015247086 0.00073663366 -0.0033064336 0.0019477553 -0.00013230862 -0.00056693284 -0.0006165919 0.00023670337 0.0027241947 -0.0022778327 -0.0024257263 -0.0033980946 -0.00064720126 0.00096218433 -0.0018626881 0.00149253 -0.0011704332 -0.0029404308 0.0007218248 0.0015237418 -0.003480941 0.002877343 -0.0017302998 -0.001052325 0.0028846613 -0.0028541426 -0.00169241 0.0018263615 -0.00042719624 0.0013767637 -0.00098977 0.0019055671 0.0006809507 -0.0034205713 0.0014348283 -0.000284955 0.00019715012 0.002816126 -0.0028710407 0.0007503442 -0.0020084782 -0.00059120025 -0.0016711915 0.001147896 0.0018636048 -0.0037420606 0.0011747367 -0.00036770385 0.002245513 -0.0038272508 0.00010061447 -0.0035154934 0.00025048238 0.0011705385 0.0026271997 -0.0009140761 0.0019515831 -0.003886845 0.00027909558 -0.0009462205 0.0025964219 -0.0038969205 -5.12093e-05 0.0021543964 0.0032982652 -0.00021777402 0.0011981041 0.0021975343 -0.0014707459 -0.0018667725 -0.001180729 0.0036463353 -0.0015736531 0.0037467412 0.0009885457 -0.0027644138 -0.0019427204 0.0037473317 0.0010568236
009.009.009.009 0.00049653655 0.00039196905 -0.0026477762 0.0005534506 0.002957218 -0.0031597242 -0.0020936334 -0.0010894571 -0.0013289716 -0.0018550521 -0.0014963128 -0.0036537743 0.00021833598 0.0037493696 0.0025732594 -0.0016256524 -0.0022828102 0.0012891605 -0.002139688 -0.0012874955 0.0019096413 0.0009223444 -0.00072283135 -0.00055457215 0.001761288 5.980725e-05 -0.0027700707 0.0020147744 0.0016218156 0.00040341733 0.00284465 0.003922407 -7.4887714e-05 0.0007295012 0.0012740629 0.0023417717 0.0013556306 0.0037523026 -0.0020786698 0.00396763 -0.0020925733 0.0018846086 -0.0010530822 -0.0023397559 -0.00025788634 0.0037457931 -0.000105833366 -0.00052626093 -0.0021887997 -0.0022038748 0.0030847462 0.0006173084 -0.0024158792 0.0029509868 -0.0035178238 -0.00033961728 0.0017366115 -0.0032219489 0.0013525048 0.0019322678 -0.00314304 0.0010489896 0.0026948594 0.0011870589 -0.00095569494 0.0022191626 0.0011413906 0.00039198427 0.0022796832 -0.0016833348 -0.0016870527 -0.000961329 0.0017741057 -0.0015495323 0.003439368 0.00114317 0.00018837648 -0.003088517 -0.0024438878 0.0023151487 0.0031437855 0.0029288356 0.0030595202 0.0006022515 -0.0034165946 0.0020591102 -0.0030784772 -0.0020979117 -0.002586687 -0.0029479004 0.0024775362 -0.0014289361 0.0038635375 -0.0009949812 -0.0011626417 -0.0038148207 -0.0016225306 0.002577004 0.00072981295 -0.0017316189 -0.003722842 0.0029894263 -0.00051136996 0.00036326004 -0.0028315745 -0.0016176157 -0.0024583281 -0.0037369772 -0.0006417262 0.0029173812 0.0017725732 -0.0033393865 0.0034480696 -0.0036412028 0.0007633412 -0.0027227844 -0.00041296426 0.00075855694 -0.0018712784 0.0006742612 -0.0037620685 0.003449908 0.0005648538 0.002857484 6.293274e-06 -0.0028588152 0.0017885712 -0.0019397002
207.136.086.223 -0.0017091521 0.0030472 -0.004152308 -0.003908338 -0.00074084173 0.0017793406 0.003759524 0.002456605 -0.0025233575 -0.0007765988 0.00040922491 -0.0010017812 0.0012605258 0.0038465015 -0.0010764432 -0.0022072427 -0.00013363094 -0.0011568338 0.00078725576 0.0005937761 -0.00063713384 0.0039120894 -0.0032679385 -0.003391155 0.002318291 -0.0012052873 -0.0013330542 -0.00352061 0.00059486274 -0.00046958885 -0.0032633613 0.0031742293 -0.0036245733 -0.0010207462 0.00022021451 -0.00034231675 0.00035870596 -0.000277713 0.00077814405 -0.00016329192 0.0032547966 7.4068375e-05 0.0024594157 -0.0017085087 -0.003014118 -0.0019131098 -0.0018759328 -0.003009865 -0.0041542696 0.0026883848 0.0027506428 -0.002352587 0.00012947043 -0.00078354473 0.0027519779 0.0022389698 0.0017721377 0.003085989 0.0006366679 -0.0028868767 -0.002105264 -0.0029002503 -0.00020652142 -0.0031512463 6.898638e-05 0.0031202654 -0.0020478182 0.00061506714 -0.0038970462 -0.002889326 -0.00034577842 -0.002827201 -0.0030809608 -0.0033270405 0.002062817 -0.002101012 0.00019487106 0.0015474688 -0.0004500654 -0.001299435 0.0008279374 -0.0021178203 -0.0018433766 0.00015557036 0.0033752038 0.0023848617 -0.00084917445 -0.0024990952 -0.0008559866 -0.0015185737 0.0037254672 -0.0013935524 0.0018158848 -0.0011295641 -0.0027394774 -0.0023952588 0.0022202795 -0.002029733 0.00016538311 0.0027963093 -0.0017721686 -0.0025644996 -0.003342899 0.002414336 0.0024643068 0.001990852 -0.0027685405 0.0022845077 0.0020430638 -0.000115241804 -0.003667548 0.0036009322 0.0012293333 -0.00042910833 -0.003416983 -0.0024871468 -0.003909316 0.00011597008 -0.0015267673 -0.0005135746 0.0006536224 -0.0004034896 0.0038192358 0.0036975935 0.00255927 -0.002487835 0.0017763793 -0.0014176687
135.013.216.191 -0.0007065551 3.1932508e-05 -0.0021652563 0.0021223058 -0.0025649609 -0.0029947755 0.003510657 0.00012311686 0.0011587328 -0.0033374494 0.00033058997 0.0037074238 0.0017928465 0.0014166284 -0.00432348 0.0021171586 -0.0004883069 0.0024578248 -0.0021675373 -0.0029846882 0.0033345495 0.0041561956 0.003500257 -0.0028124722 0.0020011615 0.0013160829 -0.0017354228 0.0006250433 0.0011911959 0.0007826309 0.0012799305 0.002709976 0.0011701687 0.0026590289 0.00030414388 0.00025138407 -0.0004965131 0.0042223586 -0.0017410367 -0.002868837 0.004300682 0.0018379742 0.0037046564 -0.0026546298 0.0016404868 0.0019510633 0.0038465438 0.0029254085 0.0021751008 -0.0030815974 0.0035851288 -0.0012644291 0.0017601281 0.0033769612 -0.0035192121 -0.00042086514 0.0007153582 0.0027141117 -0.00071482244 -0.0034253597 0.0015056593 0.0040445854 0.0018329348 -0.0032072295 0.001426137 -0.0015848101 -0.0021626728 -0.004100706 -0.00061895535 0.0010132297 -0.00045942992 -0.0008298 -0.0007259877 0.000111414396 -0.0021427881 -0.003377734 -0.0029948745 0.0022995723 -0.003214146 -0.0001532996 0.0024813835 -0.0006854307 0.0041997265 -0.0044380343 -0.004169788 -0.0031754228 0.0016776413 0.0039639026 -3.6710771e-06 -0.00017820587 0.0025534218 -0.0014157607 0.00031277776 -0.003685444 0.00055622094 6.1554005e-05 0.0042364434 0.0006755206 0.003062182 -0.0036850285 0.0020876157 -0.0028565384 0.001574684 -0.0027969813 0.004551518 -0.0029380005 0.0015984407 -0.0026689558 0.0020413315 0.000103428654 0.0037264463 -0.0012323565 -0.0038720774 0.0017699953 -0.0041302308 -0.0037512856 -0.0020340532 -0.0027662376 0.0031677901 -0.0033323576 -0.0029138129 0.003740637 0.0016022881 -0.0022700801 -0.0005888604 -0.00082137645 -1.7194572e-05 0.00030021445
