33 128
172.016.114.050 -0.16767295 0.260752 0.20769829 -0.247658 0.17500328 -0.4269685 -0.20977917 -0.26020125 -0.29978094 0.0278332 0.21142024 0.1911913 0.11412643 0.37900305 -0.1314853 -0.06438235 0.14599036 -0.24348356 -0.42893153 -0.08684547 0.31078127 -0.29309633 0.19077756 -0.04586525 -0.21765329 0.0034867043 0.29330435 0.028112547 -0.28781205 0.026292516 -0.3176894 -0.19226742 0.036095954 -0.08092333 0.33719572 -0.2156078 0.13837062 0.42375228 0.36066765 -0.21547492 0.11363475 -0.42378575 -0.27579007 0.15783563 -0.2637847 0.1003669 0.12525244 0.22214466 -0.029487852 0.06905393 0.010560761 -0.18490024 0.45777777 0.10438519 -0.015758427 0.10846122 0.52379036 0.07492121 0.042781133 -0.33410838 -0.30909708 -0.1936833 0.13255289 -0.12845924 0.019439353 -0.011758413 0.12787783 -0.30738902 -0.05170396 0.26657075 -0.1916611 -0.08247394 -0.11490398 0.16763325 -0.35185593 0.12653016 -0.080791004 0.2587101 0.11207003 0.11207366 0.05675984 0.21745351 0.3296132 -0.4663573 0.1258016 0.13161737 -0.008085978 0.33990398 -0.10682183 -0.031323586 -0.2283508 0.22013189 -0.24924783 0.19576964 0.33086854 -0.07402205 -0.0651553 -0.028432162 -0.3375003 0.37543705 0.3282639 0.19239348 0.06895172 0.04636535 0.14120439 0.23908281 -0.24823163 -0.10127215 0.1364195 0.1595212 0.23529813 0.15917061 -0.070660844 -0.15304467 -0.5194157 0.21609384 -0.06465418 0.0011891333 -0.22504838 -0.19605622 0.22287147 0.17001869 -0.1165162 0.105898865 -0.16961983 0.014481433 -0.26932395 -0.051562432
207.103.080.104 -0.18867029 0.28288645 0.21139085 -0.26584506 0.17985986 -0.4563362 -0.23423333 -0.28161028 -0.32885966 0.03539273 0.22298019 0.2064509 0.11760523 0.41758445 -0.1383244 -0.056130413 0.14756279 -0.25116467 -0.47077754 -0.085045345 0.33860624 -0.30801156 0.19752036 -0.055965073 -0.24351011 0.0005561677 0.31757572 0.019478906 -0.3106897 0.03365878 -0.3285104 -0.1988354 0.04439689 -0.09217894 0.36276874 -0.2373827 0.14678797 0.4571488 0.38626122 -0.22088924 0.118830785 -0.45585832 -0.28427002 0.17181042 -0.2857828 0.10789343 0.13837513 0.23869975 -0.04099239 0.06515505 0.023993868 -0.2026137 0.50025856 0.11237991 -0.0031991005 0.1235466 0.5672182 0.07295597 0.054145552 -0.36799574 -0.3246233 -0.2044626 0.13780154 -0.13560915 0.011170963 -0.026196092 0.13010632 -0.3375464 -0.06252212 0.2926171 -0.20490271 -0.10931347 -0.1438897 0.17781234 -0.38142335 0.14245577 -0.08946549 0.2814096 0.106248066 0.131748 0.057087243 0.22222707 0.3618847 -0.502924 0.13354625 0.1474262 -0.003219869 0.36574566 -0.120824985 -0.028555628 -0.24937756 0.23133849 -0.25604582 0.21091211 0.36421618 -0.06958987 -0.066718034 -0.039892 -0.3670568 0.40037155 0.35843945 0.20854431 0.073239625 0.05078427 0.15817292 0.266985 -0.2679846 -0.11234512 0.15421492 0.1593779 0.25011092 0.17178324 -0.083322585 -0.18350746 -0.55950993 0.22959955 -0.077313446 0.0017846461 -0.23540786 -0.20892219 0.24486646 0.1830645 -0.122966684 0.11534831 -0.17254406 0.023064855 -0.28619823 -0.045316096
192.168.001.001 -0.21720982 0.11398949 -0.35954884 -0.07791956 -0.46350878 -0.120988905 -0.22102094 -0.18536234 -0.33862132 0.07201092 -0.2525722 0.1821109 -0.14113426 0.43591684 -0.18672188 0.40010056 -0.30046618 0.2032611 -0.5970906 0.5956008 0.18738946 0.025961027 -0.28293258 -0.02412945 -0.34120613 0.06723755 0.37053895 -0.34462565 -0.34669304 0.2962142 0.30375606 0.3407363 -0.018737491 -0.26492274 -0.05826464 -0.16871399 0.25330028 0.2623758 0.103144445 0.35945046 0.12226161 -0.114363 0.38007373 -0.20126387 -0.16322207 -0.33090252 0.30946898 0.14316987 -0.47313163 -0.3078456 0.5992665 -0.08232212 0.33783004 0.40050676 0.20252411 0.08796381 0.18346587 -0.1725754 0.29031274 -0.42190942 0.23920162 0.13872118 0.106978685 -0.02883005 -0.5356042 -0.6518355 -0.20520048 -0.26912493 -0.17592104 0.17057838 0.20668273 -0.5209835 -0.4397391 0.052761946 -0.15902944 -0.0013180717 -0.21580769 0.4968418 -0.3769663 0.44015753 0.120053604 -0.5361821 0.31985927 -0.17775938 -0.096919104 0.060432047 0.15880866 -0.06361357 -0.15942651 -0.13796557 -0.10535522 -0.13919806 0.5378264 0.0002118256 0.41365892 0.3692184 0.041296594 -0.39770222 -0.15755787 0.0031755622 -0.039001428 0.2731511 -0.059583336 0.06298509 0.21306205 0.27956104 -0.18779378 0.120692015 0.09791114 -0.3861153 0.117809795 0.16242898 -0.1449904 -0.38657993 -0.154012 -0.013642924 -0.06257835 -0.2979085 0.15130721 0.0019785475 0.05174242 -0.08156762 0.09692202 0.07483526 0.05789085 0.09914311 0.23314704 0.25632593
194.027.251.021 -0.21473135 0.11372836 -0.33085725 -0.0662683 -0.4113096 -0.123214066 -0.21064426 -0.17465262 -0.3143695 0.056462936 -0.22006506 0.17943227 -0.123454414 0.4122213 -0.17515358 0.36580414 -0.26451546 0.17719796 -0.5561751 0.53045964 0.18245752 0.027060086 -0.25575638 -0.02747353 -0.3148092 0.050335184 0.33731672 -0.31040004 -0.31585678 0.2656783 0.27072075 0.30268306 -0.009068694 -0.25323132 -0.03833391 -0.16321413 0.23132174 0.25243714 0.105403796 0.32093757 0.09973581 -0.12234715 0.34662813 -0.16518769 -0.16705886 -0.2923347 0.2754474 0.12831339 -0.42225665 -0.2768887 0.54651475 -0.0847768 0.3253873 0.35564286 0.19465531 0.08017921 0.19468115 -0.15944164 0.26418936 -0.3927427 0.21366958 0.11341744 0.10073101 -0.02578006 -0.48174244 -0.58002263 -0.19323052 -0.24997853 -0.15797935 0.1646375 0.18222845 -0.48630884 -0.4112052 0.0568854 -0.16502155 0.013452449 -0.19655722 0.45124823 -0.34580606 0.41154236 0.096552245 -0.47183064 0.30522752 -0.17618415 -0.07264566 0.07100713 0.1424344 -0.04662369 -0.15342647 -0.12096277 -0.10670547 -0.11721553 0.47662213 0.0052666035 0.38778302 0.3258192 0.025738847 -0.36375424 -0.16758147 0.014273774 -0.0029643262 0.2500339 -0.05485291 0.044121634 0.18432668 0.271837 -0.17814519 0.099344276 0.099529184 -0.35219315 0.11416352 0.1514015 -0.13978736 -0.37238622 -0.16356245 -0.0069560646 -0.079355285 -0.26733756 0.13160214 -0.008878984 0.07027414 -0.07764931 0.0658159 0.07462835 0.054239094 0.09407673 0.20158704 0.22960326
172.016.114.148 0.16267955 -0.0303968 0.1620694 -0.4535636 -0.1486434 -0.3294735 0.17959277 -0.4713792 -0.29794478 0.20660499 -0.17595609 -0.081237905 -0.15664002 0.034945715 -0.10785626 0.14577542 0.010635249 -0.24082601 -0.16089809 0.37712127 0.13264506 -0.3440554 -0.13369796 -0.06750907 -0.10455021 0.33933672 0.42395955 -0.047664538 -0.58168197 0.33308896 -0.26946875 -0.0615468 -0.27272153 0.10907297 -0.28817406 -0.06665491 0.16223988 0.2962827 0.35892773 -0.13914211 0.30501026 -0.22720398 -0.12044325 -0.21535033 -0.071054764 -0.41378745 0.4050331 0.13722514 -0.2812072 -0.0021644174 0.007867913 -0.30131653 0.044107795 0.37890762 -0.19124487 0.013194516 0.023679707 0.3144845 0.009215087 -0.08381903 -0.26614895 0.21881002 0.15466186 -0.17705682 -0.2610954 -0.55753183 0.027607901 -0.07567667 0.049615204 0.12251445 0.07504045 0.19859554 0.22531116 -0.052889112 -0.009421903 -0.29457337 0.024393374 0.33965042 0.07623157 -0.103363186 0.29415822 -0.2945486 -0.05036618 -0.20307708 -0.30378184 -0.17396851 -0.07412638 -0.24870309 -0.19877246 -0.12108673 -0.053609543 -0.043059528 0.29690427 -0.22371942 0.03727324 0.31144413 0.30962944 0.10582338 0.04349513 0.15176749 -0.45543888 0.14369911 -0.0033535338 0.23503843 0.41646227 -0.30114818 0.06133847 0.27445975 0.13390464 0.18059976 0.30422372 0.11002982 -0.01599089 0.30083978 -0.15036967 0.09624995 0.2706531 -0.12471539 -0.07616 0.013397047 -0.20619893 0.10460864 0.39973226 0.05988866 -0.33779258 -0.27255487 0.32686046 0.038075164
135.008.060.182 0.16613051 -0.020990273 0.17399237 -0.4868584 -0.1500932 -0.36649063 0.17522371 -0.5107135 -0.332159 0.22384399 -0.18231215 -0.07299226 -0.15553755 0.054686047 -0.11880876 0.15653616 0.018494535 -0.26241323 -0.1990843 0.39747864 0.15774107 -0.37300944 -0.14392856 -0.07639793 -0.11396703 0.3557486 0.46540442 -0.05168983 -0.6291435 0.35144934 -0.29495046 -0.067417264 -0.2877835 0.10849459 -0.2943804 -0.07243496 0.17218082 0.3302875 0.39676446 -0.14623074 0.33077383 -0.25899452 -0.13629039 -0.22163408 -0.080698475 -0.43628094 0.43870327 0.15676463 -0.2976174 0.00048615166 0.02165167 -0.32261005 0.066836104 0.40732846 -0.19882613 0.0126707265 0.044017203 0.3346729 0.015354481 -0.09977364 -0.2935246 0.2239859 0.1732575 -0.19742978 -0.2807233 -0.5952598 0.03097802 -0.09753806 0.042783145 0.1477328 0.07285459 0.2009866 0.22913197 -0.046093933 -0.022560755 -0.30874625 0.019338198 0.3690328 0.08514223 -0.09846554 0.31183106 -0.30256236 -0.035676576 -0.23763688 -0.31840602 -0.17507344 -0.07201902 -0.2468784 -0.21998416 -0.1289954 -0.060807727 -0.04289335 0.303176 -0.22547832 0.05982708 0.33279157 0.32453537 0.100146204 0.032343123 0.17682804 -0.46776274 0.1641771 -0.0042330185 0.2526954 0.44408193 -0.30552334 0.054884803 0.2857936 0.14856464 0.18913184 0.3358487 0.118098795 -0.017399069 0.3058181 -0.18088852 0.104563 0.28430268 -0.1302935 -0.08909047 0.008439708 -0.20736484 0.12121973 0.4180412 0.0686382 -0.3594311 -0.28914827 0.3390755 0.038379893
152.163.210.015 -0.028355245 0.039191026 -0.007150067 -0.09590951 -0.060941536 -0.11099568 -0.02777113 -0.11526805 -0.11904656 0.03989452 -0.038632993 0.036228407 -0.027923757 0.10729311 -0.054768912 0.07222062 -0.022498768 -0.02906793 -0.15430997 0.12779428 0.07937315 -0.07317693 -0.038089324 -0.02124274 -0.08293554 0.0516658 0.13963823 -0.04988505 -0.16241476 0.08770464 -0.027311143 0.015694734 -0.036483124 -0.03052739 -0.0070432723 -0.055435997 0.06859024 0.12260967 0.10082129 0.011400061 0.06997432 -0.098203816 0.009515861 -0.036493525 -0.061587263 -0.09163869 0.11311898 0.06555727 -0.11045663 -0.031401716 0.084613696 -0.0769041 0.10192282 0.121056125 -0.0020392134 0.027199462 0.09092354 0.028566156 0.0483964 -0.10413283 -0.04141559 0.027151093 0.04818783 -0.041213743 -0.10779126 -0.16385177 -0.007640048 -0.08296988 -0.026596421 0.073570095 0.018350605 -0.056572255 -0.045565523 0.015695443 -0.06693372 -0.022225972 -0.03207705 0.14435028 -0.02741683 0.06007853 0.058133487 -0.090580404 0.071211495 -0.10475968 -0.04087428 0.0036229491 0.011036248 -0.00588133 -0.065135986 -0.03535357 -0.04649853 -0.0009064273 0.08619856 -0.0083698295 0.09852087 0.08403954 0.041422863 -0.041837003 -0.052369967 0.06701982 -0.027238518 0.07595028 0.0030440278 0.04666859 0.101392575 0.028929764 -0.048011035 0.038881507 0.05201986 -0.011462314 0.08645536 0.053728003 -0.033571497 -0.03199422 -0.103827335 0.03627447 0.018957362 -0.0535278 -0.016168538 -0.018378645 0.0058934726 0.020702988 0.050043337 0.026872333 -0.055503983 -0.02358661 0.045950286 0.03880249
172.016.113.105 -0.05517084 0.06914082 0.007670988 -0.13096601 -0.06162357 -0.1660975 -0.063501105 -0.16145505 -0.16619243 0.046776462 -0.018311918 0.058852796 -0.019953432 0.1629952 -0.07914017 0.076909 -0.018527668 -0.057056524 -0.22255474 0.1415802 0.12021535 -0.10818066 -0.029705137 -0.023327189 -0.119940795 0.059132796 0.1940666 -0.06076347 -0.20894194 0.10169184 -0.053570334 0.00763418 -0.033576556 -0.05047544 0.022130892 -0.086575806 0.10067428 0.18605988 0.1484648 -0.007279377 0.09472671 -0.14993945 -0.014386959 -0.030317737 -0.10057891 -0.09244191 0.14062989 0.098128796 -0.13037236 -0.03441017 0.10920006 -0.09879654 0.16934602 0.14333719 0.0011065279 0.039766457 0.1541286 0.02877761 0.06416214 -0.16162787 -0.066129364 0.010122808 0.07334871 -0.056245368 -0.12854943 -0.19771352 -0.0021115458 -0.12294897 -0.03444932 0.10807789 0.001955736 -0.08296735 -0.07409247 0.03955275 -0.11198184 -0.012077674 -0.05141739 0.19199426 -0.028631901 0.090220444 0.072411016 -0.08662255 0.12438707 -0.16126043 -0.029571228 0.015174078 0.018482141 0.027518349 -0.08500161 -0.04452657 -0.07690567 0.015003852 0.07752431 0.010967757 0.1488632 0.09600109 0.03975409 -0.05584325 -0.09565863 0.11040948 -0.0013870324 0.10977815 0.0088285785 0.057331517 0.12869748 0.06257762 -0.082373805 0.03924902 0.0688603 -0.00087955187 0.12080185 0.07995182 -0.047342554 -0.05518708 -0.16859783 0.055514622 0.013758233 -0.07008536 -0.03525728 -0.038444497 0.028840225 0.041595347 0.04932796 0.04458907 -0.07771735 -0.01903268 0.025723204 0.0355786
207.046.130.168 -0.018571306 0.020960651 -0.008598546 -0.064001024 -0.038931604 -0.061231904 -0.015806532 -0.075250655 -0.07384548 0.023098433 -0.027309777 0.016564004 -0.015859546 0.061317842 -0.032139022 0.04526446 -0.012781141 -0.014958008 -0.09402274 0.0761967 0.0431161 -0.044954356 -0.023112562 -0.00998938 -0.054956917 0.03246116 0.0855354 -0.029237371 -0.09380082 0.053042583 -0.018001826 0.0123469755 -0.020678364 -0.018412149 -0.014097705 -0.031267595 0.04733802 0.07584686 0.0577315 0.010476025 0.046980634 -0.055768266 0.0044374927 -0.028624354 -0.03893524 -0.055295914 0.071891196 0.033534132 -0.06426998 -0.01937455 0.052900143 -0.046304956 0.062214524 0.07505552 -0.0010878386 0.0136068165 0.046899576 0.014253722 0.029759075 -0.062446583 -0.017316017 0.020713724 0.026609227 -0.022380106 -0.0668356 -0.108467326 -0.005237543 -0.051645253 -0.015084511 0.038987167 0.01420081 -0.030633235 -0.0248587 0.005992749 -0.038888313 -0.021027345 -0.02275964 0.08833753 -0.021378681 0.03586942 0.039238956 -0.058602124 0.042639524 -0.060023878 -0.023896419 -0.0021698673 0.004291884 -0.0077444203 -0.040423132 -0.027462417 -0.02788937 -0.0032958398 0.057861146 -0.010083087 0.05676156 0.050967935 0.026835635 -0.024783246 -0.032729622 0.031758435 -0.025100712 0.048966397 0.0008145808 0.028690169 0.061022803 0.009733826 -0.026247008 0.024168447 0.028829169 -0.008521048 0.05210678 0.029546678 -0.016877078 -0.014838898 -0.059738085 0.018005645 0.013079173 -0.03298923 -0.0064067384 -0.011385631 -0.0021331212 0.0094939815 0.032454833 0.016772982 -0.03343053 -0.012214133 0.034256343 0.020755045
172.016.112.050 -0.016287528 0.024299666 0.01019766 -0.067195036 -0.030974934 -0.074987754 -0.01736394 -0.07362291 -0.077628605 0.028416604 -0.014234265 0.023003897 -0.01686225 0.06460813 -0.035583843 0.032653473 -0.007322505 -0.032926112 -0.09096804 0.06270068 0.051977564 -0.056016825 -0.011602236 -0.01100546 -0.047297295 0.03881275 0.09081013 -0.02114605 -0.10335736 0.05243799 -0.03082847 0.000663097 -0.02090333 -0.011124564 -0.003356389 -0.03660272 0.039778374 0.080109164 0.068244025 -0.007729059 0.04539744 -0.06143675 -0.013496152 -0.021032427 -0.042901937 -0.04925412 0.06379493 0.04183939 -0.057854205 -0.017607745 0.03866311 -0.04791934 0.061176438 0.0698748 -0.006739489 0.012642384 0.059694514 0.022418147 0.022858188 -0.062385358 -0.03617104 0.011704386 0.028398365 -0.030976404 -0.057447925 -0.09481588 0.0034463182 -0.047040273 -0.011265929 0.04670075 0.00570223 -0.019450426 -0.019311229 0.013606949 -0.043016467 -0.019017546 -0.0144693665 0.083406396 -0.006334307 0.024768999 0.03537039 -0.04084318 0.046266034 -0.0664848 -0.024227517 -0.0028977257 0.0014007424 0.005030041 -0.039588902 -0.019899895 -0.02709261 0.0058117127 0.039392848 -0.0056052613 0.058343995 0.04592218 0.022654574 -0.017549014 -0.033961378 0.04354505 -0.012786739 0.047623023 0.004291214 0.028409403 0.06468288 0.011118166 -0.029603953 0.021945443 0.032284018 0.007013229 0.05199371 0.03462137 -0.015236169 -0.013712882 -0.06741322 0.027610332 0.012944457 -0.0271782 -0.016273445 -0.018731426 0.001823135 0.019740742 0.036421724 0.017703848 -0.040972095 -0.01634696 0.02371022 0.012421177
205.181.112.065 -0.0028765616 0.0076827896 -0.01387158 -0.0428048 -0.045325242 -0.037213594 -0.0075472337 -0.05637232 -0.05279811 0.019024689 -0.031235952 0.013550252 -0.020684287 0.03686086 -0.023694022 0.043090813 -0.022912193 -0.004047282 -0.06526795 0.076602876 0.025527008 -0.028496241 -0.029032102 -0.009282212 -0.037257917 0.02650944 0.06388988 -0.025793187 -0.07620916 0.0506322 -0.0015837597 0.021526061 -0.019971183 -0.013553679 -0.02642153 -0.019712398 0.029229056 0.044653777 0.036771554 0.018440219 0.02961343 -0.031678073 0.02031341 -0.02966664 -0.022236768 -0.058824476 0.056806315 0.022932041 -0.05395446 -0.020915436 0.045680508 -0.032077156 0.03134954 0.058935832 0.001083423 0.010821687 0.025652084 0.013058176 0.022228383 -0.04335539 -0.003994968 0.025280347 0.019203283 -0.018361734 -0.058370434 -0.09109027 -0.012591025 -0.031286918 -0.008203904 0.025105048 0.020814503 -0.027344469 -0.01580933 0.0027152612 -0.014029885 -0.021609738 -0.014446958 0.06277628 -0.024253583 0.027421352 0.028867219 -0.059326492 0.02586196 -0.035339173 -0.03226577 -0.0062716156 0.0062201163 -0.023543485 -0.030978516 -0.019381918 -0.017522493 -0.013494325 0.057453245 -0.011692763 0.04064262 0.054821413 0.024104934 -0.020413846 -0.011974822 0.016735785 -0.0339588 0.036227822 -0.0012183974 0.023966417 0.045755833 0.0039541507 -0.01616784 0.0300348 0.020203771 -0.014868633 0.035842516 0.020285316 -0.014128581 -0.006286133 -0.030820148 0.010322995 0.014187961 -0.029116374 0.0025736117 -0.003907898 -0.012284549 0.004071841 0.032499418 0.01145341 -0.024161747 -0.012927689 0.043244816 0.02473112
137.245.085.134 -0.016343901 0.020352557 4.084315e-06 -0.040982068 -0.020860864 -0.049201697 -0.017867217 -0.04932997 -0.052128885 0.020150553 -0.008194169 0.019857086 -0.0077251215 0.052034073 -0.02755484 0.028142046 -0.007497203 -0.01826932 -0.07216984 0.04934969 0.039444394 -0.038113296 -0.010455946 -0.011673661 -0.03925055 0.017234797 0.059088606 -0.01643117 -0.07062512 0.033245895 -0.01599548 0.004078265 -0.014037824 -0.014444468 0.0011073858 -0.030100996 0.03141654 0.057371646 0.0477526 0.0013733264 0.028234573 -0.04393569 -0.0019020266 -0.01141275 -0.029227382 -0.030324401 0.04765876 0.03073291 -0.03883065 -0.00988549 0.03726402 -0.034153596 0.054176327 0.04867097 0.0035520997 0.015263376 0.048173785 0.01130575 0.022965433 -0.051737443 -0.02125471 0.005540908 0.020654323 -0.021072116 -0.044227388 -0.06341608 -0.0027173832 -0.040164314 -0.012131123 0.037195645 0.00030260603 -0.022320665 -0.019249626 0.014645897 -0.032358393 -0.009674201 -0.015656587 0.06334804 -0.00881986 0.023099387 0.023998844 -0.032921497 0.038742613 -0.052819654 -0.010067019 0.00534444 0.0018374454 0.0076850867 -0.029489111 -0.015874188 -0.020666145 0.0077072997 0.026252951 0.0026924857 0.046193056 0.028017536 0.017024908 -0.017697318 -0.026498845 0.033134516 -0.0028272015 0.03283994 0.0046193283 0.017130772 0.041221246 0.017955495 -0.024914382 0.01589221 0.019907953 -0.0040987916 0.04061489 0.023279889 -0.010865147 -0.018029405 -0.051974636 0.022160225 0.002104746 -0.019243687 -0.010051934 -0.009622574 0.0040583126 0.01199501 0.017968018 0.0111255655 -0.025008425 -0.009231899 0.008009765 0.012607797
197.218.177.069 -0.057429392 0.07904705 0.039221507 -0.12795119 -0.011673566 -0.16661428 -0.06451605 -0.14320603 -0.15267563 0.035797805 0.021267863 0.06755718 -0.0005884676 0.15625401 -0.06586956 0.039454043 0.013249148 -0.075947925 -0.20415395 0.07616638 0.12416994 -0.115776606 0.008306973 -0.021586452 -0.1107339 0.043837283 0.16282569 -0.0327009 -0.17553148 0.07040168 -0.09090484 -0.028188793 -0.022155624 -0.036185533 0.058281697 -0.08554106 0.082704976 0.1778371 0.15234414 -0.039881084 0.07397779 -0.1552169 -0.055712525 0.008507095 -0.09955282 -0.04294598 0.10796419 0.091480404 -0.087841496 -0.01203739 0.06444836 -0.09755276 0.1727191 0.107995726 -0.004361422 0.04096372 0.17307706 0.039829995 0.04055051 -0.1498111 -0.097156614 -0.019913372 0.06542701 -0.059885927 -0.07310671 -0.12718181 0.01612683 -0.12279795 -0.026207894 0.10413759 -0.024408512 -0.05833406 -0.056431785 0.050664548 -0.12247164 0.004943779 -0.03955608 0.15791017 0.0037961993 0.06460001 0.059125625 -0.020227686 0.118405946 -0.1718545 -0.0047917236 0.02732755 0.009343763 0.06291577 -0.06838055 -0.035925735 -0.08259582 0.0428268 0.0128566595 0.035188537 0.13629885 0.049451947 0.017665412 -0.033487663 -0.11293159 0.124913536 0.041035008 0.0969617 0.015714074 0.04669053 0.104550004 0.06855773 -0.088348575 0.010382587 0.06374167 0.02967224 0.107345186 0.07270835 -0.03547177 -0.049126796 -0.1824342 0.07153946 0.0040543587 -0.042268533 -0.059659217 -0.05587144 0.052969202 0.05058381 0.021121044 0.044794615 -0.080512926 -0.016193008 -0.016723573 0.016103614
159.142.001.199 -0.021419886 0.022024248 0.00027404027 -0.025328776 -0.011976 -0.040701903 -0.023399383 -0.0330358 -0.04210652 0.009944685 -0.0021579445 0.02349519 0.0003242303 0.046178907 -0.018254213 0.020498509 -0.008723257 -0.0072291987 -0.060381044 0.033398047 0.030820288 -0.02640897 -0.0082545765 -0.0041834204 -0.031757757 0.005690531 0.04823623 -0.0136750415 -0.044905335 0.021930883 -0.007320175 0.0019183201 -0.0032900046 -0.021419182 0.012799316 -0.025451485 0.025752638 0.04942994 0.032143734 0.00040182332 0.019852016 -0.03630472 0.0037630196 -0.0063358834 -0.026389306 -0.014469493 0.03471666 0.021530405 -0.03559611 -0.014219606 0.031558353 -0.021001065 0.050289847 0.033831775 0.007410193 0.011103531 0.042118907 -0.00064681424 0.021009602 -0.049436763 -0.012619893 -0.00085327914 0.017228695 -0.015258722 -0.028955411 -0.0453048 0.0007259296 -0.03854569 -0.011972425 0.029173572 -0.0020102854 -0.030913904 -0.025796715 0.013539928 -0.03262093 0.0011056964 -0.019294646 0.0515724 -0.013275271 0.032565128 0.017967176 -0.018450899 0.04113973 -0.040952824 -0.0015489096 0.009556217 0.00889872 0.012622203 -0.020885943 -0.008115428 -0.02233402 0.0073153004 0.020918222 0.005871826 0.043374564 0.020024557 -0.00082623446 -0.021831881 -0.03060426 0.03109147 0.009724237 0.031690795 -0.0015606246 0.007348863 0.029766127 0.024515588 -0.027871296 0.007178941 0.01828411 -0.0109421 0.030546745 0.020151079 -0.01132267 -0.030375253 -0.04852217 0.014381907 -0.0039346768 -0.014789381 -0.0078277355 -0.015427393 0.014433763 0.012032075 0.006291714 0.012914894 -0.013263391 -0.0010745763 0.0007371409 0.007336616
192.041.018.106 -0.008995935 0.008771988 -0.008178889 -0.021563672 -0.022225581 -0.021800758 -0.0076376814 -0.026557297 -0.029590905 0.008035051 -0.016202746 0.0076844445 -0.0068883114 0.025223589 -0.015987495 0.023283869 -0.0073572583 -0.0027646094 -0.037953794 0.036736876 0.015410874 -0.015854057 -0.014590373 -0.007399385 -0.01680383 0.014995445 0.030977763 -0.016476104 -0.034672417 0.026135739 0.00017637949 0.010911135 -0.005877275 -0.007338916 -0.0049171075 -0.0105122775 0.018430293 0.025147852 0.018363025 0.0075007733 0.013321016 -0.019707222 0.0071309563 -0.0141734015 -0.014494622 -0.024962015 0.026990933 0.015738644 -0.030377772 -0.00804022 0.026728734 -0.01667167 0.02521859 0.027340464 0.00096545415 0.0038330555 0.017021295 0.00027657673 0.00950451 -0.026285946 -0.0053598965 0.009033095 0.014049735 -0.010890751 -0.031792313 -0.04070855 -0.009674196 -0.019799337 -0.006351823 0.015314775 0.009926392 -0.019555654 -0.014147574 0.0026228926 -0.012264846 -0.0036680792 -0.009774798 0.03227028 -0.013297979 0.012899762 0.011945292 -0.029296156 0.014457639 -0.02029962 -0.008044357 -0.0027808957 0.0077009583 -0.008720987 -0.0116758365 -0.008337267 -0.012801658 -0.007542723 0.027221493 -0.0011180997 0.020174788 0.02439323 0.0092336815 -0.013326714 -0.008544157 0.007829297 -0.011713767 0.020630218 -0.0027916885 0.008116668 0.021139 0.0062054656 -0.0079499 0.011052972 0.006511028 -0.0075121135 0.015803985 0.010780078 -0.008794317 -0.011513997 -0.015806438 0.0066796937 0.002062995 -0.015238007 -0.0021173917 -0.005953296 -0.0019978643 0.0027078725 0.013291193 0.0065561095 -0.013276463 -0.0057928134 0.017936962 0.013338856
131.084.001.031 -0.0015451123 0.0038231935 -0.014373474 -0.026677065 -0.03752916 -0.026199544 -0.005838579 -0.034386743 -0.037446667 0.011058053 -0.024245318 0.010446949 -0.016348273 0.029781373 -0.018068438 0.032069273 -0.019258598 -0.0011219904 -0.04230441 0.055242725 0.017993417 -0.0118319215 -0.02055746 -0.008556153 -0.02381263 0.022725191 0.040977452 -0.02524621 -0.048459753 0.03286069 0.0005909172 0.016212478 -0.018135618 -0.012715414 -0.019626837 -0.0154203065 0.019535087 0.031572826 0.02093929 0.01252741 0.020211233 -0.019280083 0.016160592 -0.025150705 -0.011304344 -0.036802918 0.03687817 0.016084628 -0.043123096 -0.020718616 0.0351711 -0.02291591 0.022262417 0.039840735 0.00550119 0.005326554 0.011763783 0.007164784 0.016349476 -0.029981859 -0.0031212538 0.020204097 0.015107511 -0.012522169 -0.045032643 -0.06255849 -0.007921979 -0.015466015 -0.0057641566 0.017445821 0.017402422 -0.018696912 -0.016433286 -6.0552265e-05 -0.010069441 -0.014640505 -0.0102610765 0.047134396 -0.018764712 0.022740096 0.023622964 -0.047715817 0.012777088 -0.021251446 -0.019852404 -0.0053165294 0.0060287006 -0.01548438 -0.021040048 -0.015771015 -0.0076957913 -0.012392478 0.0413263 -0.012336975 0.025517127 0.03661549 0.018103737 -0.013878706 -0.0052838265 0.008678582 -0.026875958 0.025517117 -0.0029723397 0.014163509 0.029542692 0.001954203 -0.0051685125 0.01982747 0.015467565 -0.015261019 0.021996615 0.01721529 -0.013075742 -0.0044472245 -0.017756898 0.0046925973 0.008778086 -0.021178855 0.0012677431 -0.0001961221 -0.0071760453 0.0034965207 0.021223348 0.008075575 -0.013714742 -0.00519991 0.031043746 0.014626067
195.188.052.008 -0.013699777 0.020280357 0.0032113525 -0.023967292 -0.0017862562 -0.034976184 -0.01847356 -0.026260694 -0.03106932 0.005477666 0.0029226532 0.016619962 -0.0011657502 0.03774354 -0.017628742 0.010496385 0.0011271923 -0.014879894 -0.047871415 0.021639932 0.02755323 -0.0194563 6.450212e-05 -0.002260034 -0.029821716 0.009041741 0.036342107 -0.013352178 -0.036199987 0.016193422 -0.013241341 -0.0056174765 -0.001625966 -0.015360318 0.0127669815 -0.017175108 0.0228416 0.04241407 0.034593046 -0.0029231752 0.013995469 -0.034246285 -0.0050140964 0.00082667114 -0.024805639 -0.011222753 0.026749985 0.023485173 -0.02365806 -0.0022967628 0.02026126 -0.018112058 0.044924553 0.024718678 0.00047833286 0.008559059 0.037269406 0.0031344413 0.0142047 -0.03635528 -0.02006334 -0.003810808 0.017274376 -0.0144285 -0.022300117 -0.029533736 0.000615697 -0.030199684 -0.010165457 0.028458238 -0.008818565 -0.017500943 -0.019516066 0.009033178 -0.029383847 0.0028519803 -0.008877642 0.040248424 -0.0007653239 0.01689174 0.014613127 -0.010498133 0.034551576 -0.03956373 0.0016191652 0.006411221 0.0017727333 0.014429409 -0.018742355 -0.006552359 -0.022854814 0.006517144 0.0086187245 0.012499802 0.035168163 0.012160901 0.0021887994 -0.011072271 -0.028285362 0.025407122 0.013649641 0.024996372 0.0020198857 0.009820892 0.02119384 0.016627816 -0.018321246 0.0005621393 0.012762773 6.84401e-05 0.021917293 0.01911616 -0.0066735144 -0.015258628 -0.04250202 0.011997119 -0.0050339093 -0.010141433 -0.014729612 -0.016343506 0.01215363 0.008441513 -0.0011769456 0.012206155 -0.013468577 0.001418364 -0.007926484 0.007735501
205.181.112.122 -0.004804317 0.0077173053 -0.008139977 -0.021801198 -0.02741525 -0.022868553 -0.0050073634 -0.028506437 -0.02922948 0.0152868 -0.013765486 0.009874236 -0.014803717 0.019183949 -0.017073464 0.025658736 -0.013912724 -0.0030455517 -0.038947515 0.039204918 0.013686055 -0.015676882 -0.020319762 -0.007672645 -0.023227287 0.017107751 0.035025463 -0.014532937 -0.039565206 0.0299488 0.00014750869 0.010731313 -0.01478811 -0.011181532 -0.009641233 -0.01085704 0.021715935 0.02582507 0.023347326 0.008671333 0.015278156 -0.015396304 0.008780347 -0.019656051 -0.010434583 -0.03199234 0.0336987 0.009247243 -0.034535848 -0.01083303 0.028273977 -0.01888581 0.01995097 0.0335256 0.0015438669 0.0039290693 0.014505256 0.0063435766 0.013611477 -0.023936257 0.0009347423 0.016770944 0.011140885 -0.005501223 -0.03152886 -0.04837326 -0.008430036 -0.01526137 -0.0044636186 0.013511528 0.013164887 -0.018261243 -0.010952872 -0.0012705189 -0.010629437 -0.012306402 -0.012317907 0.038195975 -0.01067334 0.015573364 0.013777877 -0.035309635 0.013190189 -0.01896862 -0.01703151 0.00032851286 0.0059773885 -0.011928968 -0.019480042 -0.011285178 -0.0065817432 -0.009361057 0.03388659 -0.007943439 0.019212656 0.030084943 0.0116883665 -0.011375427 -0.0049256473 0.005272773 -0.018479753 0.016321545 -0.0060137683 0.015373254 0.027506117 -0.0002685096 -0.010743297 0.012425536 0.006905431 -0.007896272 0.0202951 0.012560456 -0.008149809 -0.009298005 -0.013536999 0.00049512886 0.009199558 -0.015597835 0.0020297524 0.003111531 -0.008117942 0.00092798215 0.0192766 0.006818542 -0.008407497 -0.0096490085 0.01966691 0.012535065
207.046.130.015 -0.0065970873 0.00089811976 -0.005829124 -0.01471554 -0.017201439 -0.012598047 -0.007295455 -0.014809653 -0.016586073 0.007986161 -0.008030378 0.0031464556 -0.00541174 0.017777586 -0.0067781704 0.010336466 -0.006347196 -0.00022799056 -0.01964826 0.022018272 0.01123365 -0.0046735285 -0.012006372 -0.006258113 -0.015838146 0.0077686235 0.0206765 -0.0070117684 -0.020045262 0.013181437 -0.00089379726 0.009290462 -0.0036143614 -0.0031120318 -0.006819501 -0.011230595 0.0126383295 0.015009085 0.013149748 0.00234646 0.013305146 -0.00799335 0.007592638 -0.01027848 -0.011857734 -0.015615227 0.01737779 0.0072861593 -0.01423117 -0.00874708 0.012634953 -0.010264784 0.0151236635 0.01688986 0.0025136764 0.004792547 0.009662671 0.0021987576 0.008472949 -0.019298272 -0.00024407177 0.0023241134 0.005980336 -0.0031166673 -0.021411773 -0.025192607 -0.0018111225 -0.013368174 -0.0063900957 0.006172522 0.005798747 -0.010572759 -0.0051687537 -0.00053313654 -0.0062241056 -0.0030761927 -0.003271545 0.019057527 -0.0058502425 0.011187732 0.007045003 -0.014524746 0.008954456 -0.009459788 -0.010578946 -0.0004482926 0.0062834187 -0.00226217 -0.011497178 -0.008783121 -0.005072221 -0.002200366 0.0167829 -0.0057055145 0.016864723 0.013136573 0.0044038314 -0.010407086 -0.007108641 0.007241926 -0.004508026 0.011279644 0.0006790354 0.006705067 0.012036245 0.0012632702 -0.007976731 0.006846578 0.0062334137 -0.004193298 0.013776082 0.009413131 -0.008001578 -0.006358822 -0.0154772755 0.005629557 0.0008359896 -0.00785617 -0.0006440992 -0.0019110234 0.00073467323 -0.00048636412 0.006314923 0.0040355604 -0.00501466 -0.001525645 0.010375589 0.009028105
187.187.187.187 -0.0045072604 0.010433798 -0.0013023661 -0.015481922 -0.010867474 -0.0250545 -0.008109041 -0.020096287 -0.019382253 0.003598902 -0.0015332295 0.007736412 0.00052774866 0.024180593 -0.007829499 0.007461747 -0.00049841555 -0.0113198245 -0.031723924 0.015493764 0.015474588 -0.013618612 -0.0062766178 -0.0013020549 -0.014030149 0.011055453 0.027589556 -0.005888041 -0.026498374 0.014927157 -0.009197002 -0.002353699 -0.007677288 -0.0026926287 -0.0003023073 -0.015415493 0.013619751 0.02748519 0.0178437 -0.0012892964 0.01480205 -0.022535801 -0.0011994108 -0.0028101383 -0.014084758 -0.0086581055 0.021402126 0.013480577 -0.01820197 -0.0046677203 0.01528017 -0.010657383 0.020944476 0.015524631 -0.0031107306 0.0029547333 0.018737242 0.0073129926 0.0062020663 -0.018166797 -0.011567522 0.0031733657 0.010786267 -0.011552493 -0.015066985 -0.026929703 0.0016865168 -0.013985925 -0.0036007687 0.011409717 0.00038482226 -0.012550747 -0.0074038543 0.008485676 -0.01691133 -0.0031977876 -0.008242636 0.021197133 -0.0024505728 0.010950323 0.007837904 -0.007020253 0.016867734 -0.02305746 -0.0008055059 0.0018788242 0.005445332 0.0043257335 -0.0114009455 -0.006755665 -0.007557049 0.0064146817 0.007230154 0.00025566085 0.020097597 0.013156329 0.008327266 -0.004407666 -0.014210027 0.012829581 -0.0008123962 0.015372436 0.0007150859 0.0050272597 0.0200353 0.01102487 -0.008125004 0.007567781 0.0088831065 0.0022556977 0.012569621 0.013809287 -0.0017672642 -0.008624798 -0.021675292 0.0089271795 0.0055956068 -0.010997341 -0.0029476078 -0.0063700764 0.005571373 0.006849115 0.003943693 0.0055463533 -0.010071132 -0.0010268621 0.006705687 0.0061647138
199.186.148.137 -0.0011541478 -0.0026971623 -0.0002795342 -0.0027297745 -0.0013261181 0.0025487435 -0.00296352 -0.0029136895 0.0026048138 -1.7806742e-06 -0.0014248625 0.00143255 -0.0032541237 0.0037898386 -0.0030529718 0.0006791793 0.00031720573 2.2941646e-05 -0.001597409 0.0014562109 0.0013460361 -0.0032832182 -0.003820775 0.0025418282 0.0016515688 -0.0036037427 0.00057029125 0.0033589073 0.00078496814 0.00039125938 0.00044413185 -0.00040603505 0.00026280654 -0.00052039896 -5.488651e-05 0.0028919876 0.00090382394 0.0017709503 0.0005997885 0.0005097712 -0.0012026507 -0.00060108514 0.0006836109 -0.0004755637 0.0023027805 -0.00030145005 0.0018846914 0.0036493859 -0.0025261042 -0.0030483312 -0.00055184355 -0.0016692688 0.0030945449 0.0013867156 -0.003283325 0.0019012919 0.0032041203 -0.0033454725 0.0010265961 0.0013664966 -0.0015224426 0.0023712374 0.00020623377 0.0026538302 0.00057786086 0.003350215 -0.002278337 -0.0039474377 -0.0037951707 0.0031960115 0.0013996762 0.002571749 -0.004157118 -0.0009695613 0.00025447708 0.0019202158 -0.0019815746 -0.0024087208 -0.0029463135 0.001724138 0.003654826 -0.0013386896 0.0025304651 0.001211477 -0.00091446855 0.0015551522 0.0029072752 -0.0005336945 -0.003912837 -0.0023936408 -0.0018687759 0.0018203327 0.0030820435 -4.234187e-05 -0.0020870832 0.002135562 -5.1832096e-05 0.0024797407 0.002546064 -0.00343622 -0.0013700152 -0.003325285 0.002160005 -8.66837e-05 0.002229 0.0038132335 0.002599971 -6.340728e-06 -0.0016097751 0.0015140192 0.0018017902 0.0030662145 -0.0033031178 -0.0003380077 -0.0038947107 0.0024488475 0.00035669905 0.0013080777 -0.0014535509 -0.00339358 0.0035334325 0.0027873297 -0.0011299828 -0.0007951087 -0.0028784352 -0.0011513322 0.003926342 0.0035008346
152.163.210.009 -0.010676324 0.00819827 -0.0013080888 -0.009417078 -0.00023539294 -0.013901502 -0.006854125 -0.012952964 -0.017661413 0.00096742663 0.0023445224 0.0070560058 0.0017742291 0.021724751 -0.007871772 0.0071113557 0.0011232517 -0.005841899 -0.021287924 0.0066333422 0.009517232 -0.007015991 -0.0023968637 0.0018061213 -0.010192087 -0.0036279184 0.01450592 -0.008171093 -0.012147536 0.007374124 -0.0017460732 0.00010562467 0.0037801242 -0.008914016 0.0073623722 -0.006845352 0.010984292 0.019727247 0.013407194 -5.8807083e-05 0.0018881876 -0.0139247645 -0.0022138366 0.0035674507 -0.014285529 -0.0038007754 0.004487743 0.012366008 -0.0077118166 -0.0023934324 0.012734101 -0.008882635 0.022599045 0.008338437 0.0059605623 0.0017407362 0.020090299 -0.00013821921 0.003814347 -0.020662516 0.00030622445 -0.00434609 0.0065929615 -0.0045428313 -0.0067690033 -0.0080704065 -9.063515e-06 -0.010648348 -0.0026236016 0.00992336 0.0007678891 -0.00950487 -0.015273722 0.005383988 -0.012746467 0.0030823078 -0.0062709795 0.013554714 -0.0047825174 0.009512149 0.0022971346 -0.0010355711 0.016583446 -0.016759105 0.0012978158 0.0022150716 0.0028945543 0.009488995 -0.0025577853 -0.0017987886 -0.007218051 0.0068274755 0.003875122 0.0049001174 0.014539855 0.0004701384 -0.004628758 -0.011866074 -0.008857369 0.011899342 0.0075373803 0.009797362 0.0006267945 0.0053933696 0.003299599 0.015074426 -0.01115072 -0.0022108834 0.00873057 -0.004895658 0.0061293417 0.003933315 -0.00665489 -0.014631253 -0.013909458 0.0062436797 -0.0051750005 -0.008742314 -0.0056605395 -0.009215063 0.010125999 0.005418792 -0.005561702 0.0045839525 -0.0009104583 0.0001681184 -0.0018385302 0.00019299495
206.048.044.018 -0.027332664 0.03545834 -0.0029749414 -0.048931293 -0.030893112 -0.06876924 -0.030655451 -0.06617812 -0.06947843 0.021888284 -0.012825336 0.02827834 -0.0074833403 0.074135914 -0.030888656 0.040774386 -0.011599566 -0.018301377 -0.099502236 0.06629482 0.049636155 -0.044262305 -0.0133749 -0.011998311 -0.055576973 0.025281567 0.080082886 -0.029982269 -0.08928004 0.043234635 -0.011549394 0.010495001 -0.011482599 -0.026414296 0.0061542373 -0.04061066 0.043594357 0.07562134 0.05819886 0.0034631733 0.037678625 -0.060953774 0.0056137335 -0.017128691 -0.044890784 -0.042221427 0.061923865 0.041653194 -0.06005297 -0.023359966 0.057513133 -0.041199826 0.075327046 0.06479262 0.005818373 0.018982062 0.06179822 0.009091795 0.031177945 -0.07213192 -0.016815271 0.009003428 0.029759659 -0.021417536 -0.060085163 -0.08885341 -0.0072683063 -0.056856807 -0.013906206 0.047349274 0.0088497605 -0.041544974 -0.03605687 0.01739009 -0.044546 -0.0075478535 -0.024436697 0.083615996 -0.022011189 0.040154733 0.031226747 -0.043324262 0.058048192 -0.06884446 -0.010249013 0.011638004 0.009206741 0.009904218 -0.03601936 -0.019707013 -0.029613134 0.006253686 0.03626953 0.0076977313 0.06409698 0.045442156 0.014169744 -0.028517341 -0.04390743 0.03975358 0.0059797857 0.046716284 0.0035667603 0.017636389 0.04956013 0.029179871 -0.035508446 0.011618175 0.026072344 -0.008727373 0.044669375 0.031835243 -0.023940573 -0.029520748 -0.06955523 0.023428049 -0.0015637199 -0.033964403 -0.011076258 -0.013139666 0.01642483 0.009868064 0.017574064 0.015578456 -0.02450045 -0.0010254162 0.017177287 0.0232507
172.016.112.149 -0.011127631 0.01987062 0.01458584 -0.0641529 -0.024438316 -0.073588036 -0.0111419335 -0.07656096 -0.06747627 0.027201064 -0.011077115 0.013395596 -0.016928386 0.05556797 -0.029020965 0.031484455 -0.004416678 -0.030662347 -0.08506683 0.058395825 0.045597367 -0.053088445 -0.013609345 -0.013870173 -0.04587321 0.039029658 0.0868503 -0.019681387 -0.09519959 0.05052498 -0.033658292 -0.0026464886 -0.02620674 -0.012234066 -0.0012395559 -0.030563345 0.03745271 0.07524532 0.06850274 -0.013181079 0.04896338 -0.062194802 -0.009937825 -0.021940902 -0.034511726 -0.052212805 0.069956765 0.038727157 -0.05116398 -0.012047863 0.035441395 -0.046717726 0.05527814 0.06961053 -0.008134982 0.0109487055 0.0543018 0.02651237 0.022420438 -0.05496299 -0.039278734 0.014523199 0.030295217 -0.028540853 -0.053143207 -0.08927988 0.004285585 -0.04951065 -0.010504132 0.04173082 0.00088341767 -0.017008606 -0.00729978 0.0116429655 -0.034521736 -0.02097416 -0.0114568975 0.08222027 -0.0048327595 0.021896165 0.03885218 -0.041133694 0.037280973 -0.069101185 -0.023022972 -0.0055410746 0.0045877607 0.0026435582 -0.03925952 -0.025013816 -0.03069093 0.0027931808 0.037251834 -0.0044827485 0.053461377 0.043378815 0.028410548 -0.01534396 -0.033720415 0.046606988 -0.023053188 0.04091818 0.0018493594 0.028997494 0.06552128 0.001253888 -0.021586569 0.025853317 0.031197641 0.012018518 0.052207824 0.028667033 -0.015392296 -0.005227568 -0.0629653 0.022102578 0.015329942 -0.02427046 -0.017863156 -0.010200501 0.004433575 0.020441664 0.03486246 0.015884895 -0.04161525 -0.018954497 0.021177942 0.013821581
192.168.001.010 0.0022046259 -0.0031193828 0.0012965199 0.0029340582 0.0036648228 -0.0032938626 -0.00027805608 -0.0036113344 0.0028711827 0.0018852738 0.002898528 0.0008711096 0.00021119563 0.00018355317 -0.001619553 0.0032805046 0.0001495407 -0.0029166075 -0.0033959982 -0.003177171 0.0018604563 -0.0018466152 0.00264424 -0.0014027895 -0.0013835742 0.0027440065 -0.0010433864 -0.00031441287 -0.0012577629 0.0018390618 0.002111744 0.000860347 0.00222339 0.0034870328 0.003743032 0.0013271731 0.00076036144 0.0009273362 -0.0030194416 0.00083007826 0.0011807587 -0.000755209 0.00021282578 0.001506923 -0.0022799443 -0.0028192822 -0.0024283591 0.0013766136 -0.0011900198 -0.0037869536 -0.0020238368 0.0014557614 -0.0019616757 0.0031327722 0.00029407706 0.0030212835 -0.0013196636 0.0024202552 -0.0003718951 -0.0033901746 0.001184503 0.0028610823 0.0029292172 0.0015237214 0.0023354047 0.0022871352 -0.0007328392 -0.001073279 -0.0006759847 0.003741624 0.0030298524 0.0016589427 -0.0032654789 -0.0025448815 0.00030560407 -0.0025582719 0.0001940283 0.00060570834 0.003352731 0.0037660457 0.0009613955 -0.0018580075 0.0031287945 0.0009293632 0.0016044081 0.0029378692 0.0037735759 -0.002388475 0.0037266768 -0.00010478351 0.0014459318 -0.0015778873 -0.0026038168 0.0029786397 0.0033845585 0.0035228054 0.0030625276 -0.0023070131 -0.0027295584 0.0001803581 0.0015327884 -0.00064071995 0.000228846 0.0014656126 0.0001721735 -0.003223933 -0.002103482 0.0027995927 -0.0010102327 0.00065796624 -0.0012566696 -0.0018584484 0.003096143 0.001846099 -0.00010883189 -0.0017993835 -0.0022344503 -0.00042058332 0.0015438768 -0.0028083716 0.0011562163 0.0033257757 0.00034586995 -0.0007507354 -0.0026740467 -0.003061683 0.00252924 -0.0028016695
172.016.114.169 -0.009916529 0.018286884 -0.02001398 -0.052192435 -0.061825663 -0.052700236 -0.00993323 -0.07025872 -0.073810205 0.031233221 -0.036001943 0.013880613 -0.024176022 0.058697503 -0.033235304 0.05708463 -0.023491565 -0.005115189 -0.09243807 0.09852219 0.03829364 -0.034901023 -0.041215472 -0.007760317 -0.05080115 0.037855007 0.08980404 -0.038404193 -0.10182954 0.059631355 -0.002733179 0.0297288 -0.029627189 -0.018132444 -0.02772665 -0.025668304 0.045707837 0.06370521 0.053526208 0.019706223 0.04656297 -0.0456399 0.021589426 -0.039841034 -0.0312416 -0.071096905 0.074631356 0.036470145 -0.075850725 -0.034140073 0.06887625 -0.03832914 0.05124695 0.07908277 0.0028334572 0.015332733 0.034505025 0.010642083 0.029456563 -0.06023918 -0.008501789 0.032257233 0.030398663 -0.019294448 -0.083061025 -0.118488796 -0.019218115 -0.04565419 -0.01626606 0.03916356 0.024541972 -0.037862472 -0.030315246 0.006185108 -0.028036777 -0.027860716 -0.025151782 0.089466564 -0.028303185 0.037023205 0.043616354 -0.08052131 0.039621066 -0.05032208 -0.035166238 -0.007946912 0.0061302027 -0.019790241 -0.042069443 -0.029853519 -0.023802653 -0.013330875 0.08229708 -0.018309977 0.05823192 0.067182355 0.030531356 -0.030019747 -0.017754711 0.020388572 -0.040510897 0.043789763 -0.0012206932 0.030998785 0.06412556 0.008594554 -0.02349593 0.032155693 0.030795304 -0.021258842 0.046087217 0.027915286 -0.01857479 -0.02024854 -0.044564165 0.01386455 0.013104153 -0.04005028 0.0038120572 -0.0039279945 -0.007423917 0.0064949337 0.041766826 0.012907242 -0.030744903 -0.014307236 0.053553343 0.03194902
206.064.046.005 0.0022470371 -0.00020878493 -0.0021242767 0.002541552 -0.0007125684 0.0037162283 -0.0021247184 -0.0015181575 0.0019245641 0.0005959716 0.0024068279 -0.002375819 0.0014648928 -0.00046277326 -0.0025936072 -0.002132367 0.0030823709 0.0006223111 -0.00018926234 0.0036913073 0.0020879013 0.00075814733 -0.0038868184 -0.0036489884 -0.0024832985 -0.0023786146 -0.002215855 0.0020221726 -0.0025226064 0.003724636 0.0030629714 0.0010449708 0.0024801048 0.0018370767 -0.0028456482 0.0034018673 -0.00028867114 0.0008199322 0.0012636508 0.0023990555 -0.0018163199 0.001998882 -0.0028155553 -0.002970213 0.0008844327 -0.0028046758 -0.002132985 -0.0023586324 0.0033203172 -0.0017472289 0.000167082 0.0017928192 -0.0016706844 -0.0025124035 -0.003237401 0.00029586852 -0.0028615573 -0.00012160143 0.0028320204 0.003876819 0.0037270717 -0.0022605683 0.0007202688 -0.0017700673 -0.0015753745 0.0018987928 -0.0021019767 0.0038681955 0.0017956753 -0.0007717076 0.0024817197 0.0012197435 -0.0010488873 0.0025999816 -0.0011138198 0.0033509007 -0.0036341501 0.002037484 -0.0011350159 0.0023333319 -0.0020416132 0.0026252745 0.0028574357 0.0024228937 -0.0034866733 0.00012408454 -0.0003430478 0.0026417838 0.0035757814 0.0023796884 0.0007560376 0.0007802715 0.0023860019 -0.0003310239 -0.0026171743 -0.00150257 0.00086563686 0.0033572759 -0.0032421446 -0.0021796674 -0.0020879593 -0.0005152286 0.003202183 -0.001309008 0.0010518092 0.00080011017 0.0013384576 -0.002333874 -0.0033864274 0.003733296 0.0038873502 0.0035914225 -0.00016506585 -0.001097915 0.002598313 0.0006606316 -0.0033793799 0.00047055286 3.334738e-05 -0.0037018268 -0.0011784168 0.00051298074 0.0033651325 0.0017611885 -0.0028002565 -0.0016881775 -0.00048486024 -0.0007859302
194.007.248.153 -0.040013168 0.05838072 0.050420575 -0.07665045 0.023517465 -0.10797399 -0.047087662 -0.08141604 -0.0864275 0.012938892 0.03814687 0.039577704 0.016694581 0.09524626 -0.038135387 0.0009811793 0.031936333 -0.063919984 -0.11524333 0.0071772467 0.08179025 -0.07432585 0.035865437 -0.015493737 -0.060297973 0.014237459 0.08601778 -0.0033897746 -0.08833706 0.023469279 -0.076151654 -0.03766723 -0.0039126864 -0.02202516 0.06457037 -0.055164553 0.043201763 0.1112237 0.093195975 -0.05102815 0.0346665 -0.11152746 -0.06341667 0.030411905 -0.06305371 0.00683422 0.049564082 0.05785209 -0.027799489 0.012831354 0.017093716 -0.0581511 0.10917758 0.047106974 -0.0082133915 0.032040227 0.12096106 0.024175465 0.019020181 -0.091581255 -0.07563458 -0.031453837 0.038510818 -0.039274573 -0.011289724 -0.03655723 0.027895898 -0.080263376 -0.017247425 0.073534235 -0.040071364 -0.02382333 -0.031587426 0.040618327 -0.08395778 0.019235538 -0.023010364 0.07928734 0.023979483 0.03399918 0.024504105 0.026868196 0.083971016 -0.11498365 0.016074546 0.02351735 -0.0022361176 0.06599154 -0.034074433 -0.01265047 -0.05307298 0.043510173 -0.03903636 0.036345072 0.085042514 0.005001461 -0.0031518592 -0.012207687 -0.07827247 0.09066044 0.061139442 0.053988986 0.011341592 0.019019593 0.055376627 0.053099606 -0.060463674 -0.014393449 0.038423102 0.03866038 0.064103894 0.041440696 -0.021475831 -0.03425395 -0.13111289 0.048967313 -0.008204109 -0.0065995804 -0.050795957 -0.04059588 0.04647406 0.0403945 -0.007075796 0.031064207 -0.051036973 -0.003281669 -0.045506928 -0.005176045
172.016.115.234 -0.019322809 0.019175464 -0.016448367 -0.046717815 -0.05004822 -0.056529053 -0.019372918 -0.06296001 -0.06671687 0.023025813 -0.026564796 0.020498596 -0.021884568 0.065899424 -0.030998548 0.04987379 -0.024134174 -0.0070164944 -0.093630746 0.083912246 0.0446775 -0.031164736 -0.028960671 -0.009055346 -0.051292926 0.027952341 0.07691439 -0.037881806 -0.085543126 0.051575363 -0.0029273592 0.024291877 -0.01615543 -0.026555408 -0.007906695 -0.0341516 0.045651186 0.06378292 0.05390639 0.018865328 0.039862495 -0.045968212 0.019894728 -0.024566341 -0.032403056 -0.052142486 0.06718516 0.033379357 -0.06925138 -0.029599339 0.059363723 -0.037538983 0.06055737 0.06859068 0.0073386496 0.01406217 0.049465906 0.006298122 0.035148907 -0.06312415 -0.010611216 0.018793538 0.02393879 -0.02347597 -0.07440183 -0.10242511 -0.014413384 -0.045004997 -0.017665781 0.04256443 0.017032888 -0.04628723 -0.034232177 0.008255562 -0.0355231 -0.0123346895 -0.027754687 0.08395854 -0.029082675 0.046649866 0.030411994 -0.067018606 0.048057288 -0.053230856 -0.021021524 0.005625783 0.008758589 -0.0040535787 -0.036014747 -0.02220796 -0.028212644 -0.009110153 0.065979026 -0.0076612635 0.057640795 0.057543814 0.024503153 -0.035106804 -0.027318921 0.027983833 -0.016445324 0.04405903 -0.004440016 0.02639807 0.052742314 0.018121501 -0.027451461 0.028629245 0.027624186 -0.018348329 0.04604405 0.027561061 -0.022409234 -0.02896851 -0.054024063 0.015804648 0.00445377 -0.040077202 0.0028041857 -0.0056619705 0.0015594726 0.009289232 0.028262418 0.016687745 -0.025302004 -0.006733053 0.029209804 0.02454524
196.227.033.189 -0.040714793 0.06433511 0.045286566 -0.069606036 0.024186347 -0.10909532 -0.046749376 -0.075254135 -0.07782611 0.014240136 0.03993283 0.048087757 0.021392195 0.09985574 -0.037719492 -0.007043362 0.024603836 -0.053207733 -0.114795744 0.0019520959 0.07869395 -0.07522495 0.037202526 -0.016057625 -0.061026435 0.0056989463 0.07984633 -0.005214662 -0.08023317 0.015672104 -0.07101004 -0.03406096 0.006938911 -0.021658879 0.07405742 -0.05570465 0.03674424 0.10966592 0.092924416 -0.0439934 0.03539515 -0.1025328 -0.05807418 0.028285317 -0.06389645 0.008911879 0.04021196 0.05742981 -0.023722416 0.011226406 0.018374791 -0.04669447 0.11304628 0.03755789 -0.0033202134 0.02301387 0.12749426 0.020778144 0.018841792 -0.089933775 -0.07067184 -0.033533007 0.03822941 -0.030145803 -0.01290536 -0.026669597 0.02477138 -0.07865821 -0.016179461 0.070646405 -0.0390501 -0.027693715 -0.034507077 0.03885533 -0.084367625 0.024938801 -0.018898541 0.07345428 0.022089457 0.02951803 0.01815497 0.036137838 0.08444573 -0.11255717 0.021456944 0.032555673 0.0027584995 0.07313537 -0.034339823 -0.011622631 -0.051666465 0.048503436 -0.04201032 0.043451358 0.08688913 -0.0054868213 -0.011708491 -0.013345073 -0.082227044 0.08577863 0.06998324 0.052889757 0.016259039 0.013103833 0.046374436 0.05810165 -0.06310388 -0.012293961 0.040204838 0.035722427 0.058873016 0.039826803 -0.016469974 -0.037639014 -0.12749335 0.047030568 -0.009647915 -0.0068947244 -0.04667294 -0.046458535 0.049736306 0.036479786 -0.020246305 0.023668922 -0.042430885 -0.00032720604 -0.050756007 -0.0044985716
172.016.113.084 -0.022048708 0.022832507 -0.018262394 -0.051339723 -0.05103914 -0.056097936 -0.017958533 -0.06954466 -0.071271196 0.025841523 -0.0277741 0.024047982 -0.017118542 0.06348347 -0.032366913 0.04994394 -0.022598397 -0.005040056 -0.089714475 0.08574829 0.04729866 -0.03322149 -0.028703202 -0.012801183 -0.05447029 0.031154446 0.08364244 -0.0352932 -0.0926429 0.05512809 -0.0054674596 0.022236869 -0.01857445 -0.019985022 -0.010811958 -0.03379923 0.04579474 0.06849979 0.054927945 0.015058218 0.04369741 -0.051442206 0.016698766 -0.025901236 -0.03495614 -0.06303313 0.06885485 0.030964253 -0.06666935 -0.030954035 0.05835989 -0.04089161 0.06115817 0.07296105 0.007612105 0.012089657 0.042645514 0.011392787 0.03445366 -0.066931516 -0.011362654 0.021082874 0.028895397 -0.018856227 -0.07014016 -0.108478725 -0.011920724 -0.04798702 -0.013789067 0.03683319 0.017111251 -0.044776224 -0.034918457 0.0069374545 -0.031949688 -0.013739413 -0.023400713 0.088851295 -0.031072639 0.04231879 0.036191076 -0.0676867 0.042057328 -0.057553705 -0.024752893 0.0029501927 0.012535641 -0.013023946 -0.033308648 -0.027186932 -0.028053425 -0.0032995981 0.06104906 -0.0055647893 0.06277832 0.055072263 0.020985505 -0.033030543 -0.025887115 0.031265177 -0.023846738 0.045346737 -0.0064284015 0.023084644 0.05894955 0.016388267 -0.026123637 0.023609113 0.025388787 -0.016067082 0.04522288 0.033135664 -0.019318419 -0.025356364 -0.052601904 0.014820069 0.010461694 -0.039443 0.0022783787 -0.00959417 0.0030004708 0.004927579 0.03670976 0.01406225 -0.029299518 -0.010706481 0.03795064 0.025280017
135.013.216.191 -0.03215693 0.061394226 0.05697224 -0.083234 0.031860854 -0.12436795 -0.037867647 -0.089726284 -0.08806173 0.015790785 0.041346744 0.045086954 0.020559127 0.09478152 -0.04131228 -0.004408247 0.035157803 -0.06989676 -0.114606164 -0.0026452348 0.086083986 -0.08608642 0.041516215 -0.01859664 -0.056759715 0.020916933 0.09289811 0.0043528574 -0.10119034 0.025846606 -0.09042701 -0.047436338 -0.0050247805 -0.010122207 0.06509247 -0.055534817 0.041000817 0.1229241 0.10577098 -0.06233938 0.048597284 -0.11350158 -0.069623314 0.02434463 -0.066198334 0.0033139866 0.057580974 0.06409894 -0.020864459 0.013586686 0.0063672336 -0.06369053 0.11479769 0.049520835 -0.017605284 0.026627503 0.12842406 0.038559433 0.010340249 -0.088719726 -0.08852489 -0.030471606 0.041974094 -0.044109683 -0.00873677 -0.036555383 0.03039958 -0.08284305 -0.010729396 0.07277916 -0.042686854 -0.010090842 -0.016680345 0.037121527 -0.08753284 0.011099611 -0.021097656 0.08339873 0.02790507 0.02090016 0.032146156 0.0351378 0.080712974 -0.12847653 0.009162409 0.01968084 -0.003858491 0.071838275 -0.037994403 -0.01335377 -0.055653032 0.0489805 -0.04378924 0.0312464 0.082569405 0.00057168247 0.0063044964 0.00027577346 -0.075818315 0.09565621 0.055931613 0.05175926 0.018307783 0.022213303 0.062346373 0.037795935 -0.054613642 -0.012038064 0.043342393 0.048769288 0.07769363 0.042776223 -0.022318581 -0.018832348 -0.13825166 0.053887926 -0.0025570763 -0.00874977 -0.055401646 -0.04980372 0.0398854 0.051426843 -0.003663981 0.026367618 -0.060190015 -0.012607083 -0.04679568 -0.00984105
172.016.116.044 -0.010471909 0.020142522 -0.0045595793 -0.06688249 -0.039886173 -0.065763704 -0.015440244 -0.07264633 -0.06876456 0.024489034 -0.025457125 0.015180367 -0.020366654 0.06115866 -0.034287483 0.045162436 -0.010987863 -0.017893808 -0.09071789 0.07653845 0.04748003 -0.042935133 -0.025027623 -0.0137467645 -0.04930936 0.038903728 0.08684898 -0.031992912 -0.102056414 0.05688487 -0.021712977 0.0068847104 -0.026378948 -0.0116934 -0.016468083 -0.032396574 0.039563082 0.07129573 0.06576623 0.004117191 0.04448251 -0.05636046 0.0038017184 -0.023302129 -0.038509905 -0.057136647 0.072083466 0.03420654 -0.06636423 -0.019450061 0.05144039 -0.04880705 0.05270045 0.06989618 -0.004490653 0.01504397 0.046357915 0.022768198 0.029980173 -0.06208382 -0.020719588 0.02380432 0.03327378 -0.030199487 -0.06756436 -0.10637535 -0.007316764 -0.0421943 -0.01493147 0.04159891 0.014558166 -0.02987818 -0.0214911 0.005118326 -0.03210469 -0.022332216 -0.0213499 0.08589997 -0.019375224 0.027522953 0.036206983 -0.061526723 0.03524735 -0.06206077 -0.032252662 -0.0041155256 0.0027068222 -0.008725541 -0.041687477 -0.024993975 -0.02327035 -0.002946223 0.057983525 -0.0070196055 0.058505412 0.05696603 0.030671796 -0.018899243 -0.029206017 0.036722634 -0.025699057 0.048861165 -0.0016318234 0.02943513 0.06638792 0.0032660337 -0.023797674 0.029517872 0.026555168 -0.0013200501 0.054598678 0.030373985 -0.014498263 -0.009415413 -0.056909595 0.01819928 0.01283399 -0.03824861 -0.005331816 -0.0073307157 0.0005333534 0.011401303 0.041702807 0.018879002 -0.040786587 -0.021738544 0.033404812 0.018057032
