38 128
194.027.251.021 -0.0028592527 0.0004555787 -0.0034625735 0.00015027262 -0.0023975044 -0.0029605697 8.934957e-05 -0.003795021 -0.002698495 -0.0012587421 -0.0020662297 0.0026188241 -0.0014789955 0.003014611 -0.0025183868 0.0038383116 -0.00036417236 -0.0011792413 -0.0036820108 0.0037736641 0.002146441 0.00090744783 -0.0037671495 -0.0012131924 -0.0012978032 4.750565e-05 0.0025324922 -0.0011341078 -0.0037423328 0.002692303 0.00091810204 0.0011948723 -0.00062812574 -0.0033810243 -0.0017595065 -0.0018014888 0.0020234121 0.00377321 0.003048669 0.0009611578 -0.00096647284 -0.0032848471 0.0038896513 0.00017251431 -0.0039689997 -0.003985114 0.0017848796 -0.0006340869 -0.0017757884 -0.0011720704 0.0034017013 -0.0033882596 0.0026555785 0.0022047414 0.0019742178 -0.0009846546 0.0037916366 0.00030040293 0.00089127827 -0.0018318414 0.0010808288 0.00053204846 0.0017926418 -0.0001418882 -0.0034475739 -0.0037637793 -0.003801698 -0.000251152 0.00096161274 0.0015817517 0.0020362185 -0.0029241773 -0.0016572584 0.001150763 -0.0032909797 0.00010849773 -0.00018246958 0.0028291796 -0.0027662632 0.0035487828 -0.00073420565 -0.0024554445 0.0021382775 -0.001976412 0.0004334308 0.0018509763 -0.00029971421 -0.0024961403 -0.0034509334 -0.0005034329 -0.0015166552 -0.0003474904 0.0037538216 -0.0025776906 0.0021060791 0.0017869918 -0.00014865813 -0.001516395 -0.0038843406 0.0007866385 0.0018631335 0.0010106417 -0.0010658773 -0.0021862471 -7.018259e-05 0.0015288476 -0.000100873454 0.0013006794 0.0028737779 -0.0023263048 0.0029847648 0.0013661293 -0.0022460308 -0.0031442398 -0.0035348714 0.0001799809 -0.0034561963 -0.0019142454 0.00048831024 -0.001088205 0.002584231 -0.0024124603 -0.0018371049 0.0014979752 -0.0005078802 -0.00083528034 0.003473009 0.00074651215
192.168.001.001 0.0003036611 0.001751929 -0.00039082638 -0.0013739658 -0.0035592907 0.0015899175 -0.0031729257 0.0022535345 -0.0017617907 0.002201487 -0.0007747966 -5.1487485e-05 0.0001508994 0.002966027 4.788655e-05 9.1113114e-05 -0.0036867557 0.0040612887 -0.004107501 0.003164009 6.435487e-05 -0.0014730892 0.001788378 0.0015557373 -0.0035557514 0.0010052457 0.0022764516 -0.0031258927 -0.00015522003 0.00093998475 0.0025997937 0.0032700133 0.00067711883 0.000269198 0.0022761424 -0.00039729322 0.0017940094 -0.00037093138 -0.0021919974 0.0033257257 0.0028820378 0.0021916304 6.2312414e-05 -0.0034123093 0.0023194498 0.00018435433 0.001949594 0.002975288 -0.0041258084 -0.0029385737 0.003964927 0.003386144 0.0021267978 0.0035704325 0.00026076994 0.0025176357 -0.0015446435 -0.002821861 0.0026010491 -0.004140083 0.0020306057 0.0007988416 -0.00056016794 -0.00030914092 -0.0029196562 -0.0040380512 0.002238825 -0.0039807027 -0.0034282058 0.00021997474 0.00023935545 -0.003277042 -0.003710298 -0.0002447553 0.0014876535 -8.6817556e-05 -0.0030851157 0.0040593757 -0.0016555097 0.0019614964 0.0032322414 -0.0039582336 0.0023900033 -0.000669427 -0.0014271014 -0.0016393245 0.0024392956 0.002974553 0.0028095737 -0.0019379738 -5.387089e-06 -0.00077565777 0.002396329 0.0034001628 0.003682895 0.002077125 0.000144364 -0.004163826 0.0021840532 -0.0007752798 -0.0021778718 0.00293327 0.00035566057 0.0031820233 0.002865071 0.0022308743 -0.0027220517 -8.965484e-06 -0.0026130038 -0.0026190649 -0.0021584388 0.0011129216 0.00088846154 -0.0016355423 0.0019189914 0.00015671912 0.0034842817 -0.0020696048 0.0011871292 0.0006606726 -0.0025385546 0.0017470921 0.0029840437 -0.00068344 0.0013014561 0.0028702484 -0.0016690516 0.00253417
205.180.059.051 -0.00036896748 -0.00096235785 -0.002296079 -0.00014725311 -0.00038638443 -0.0004307254 -0.0007547591 -0.0015531277 -0.00066363235 0.0021545023 0.0015237737 0.0029139624 -0.0013684677 -0.0036045236 -8.815597e-05 0.001673271 -0.0031486517 -0.00245523 -0.00070214795 -0.0003528808 -0.00051380787 -0.00079014554 0.00066061516 0.0037531038 0.001241118 0.001390001 0.0027852904 -0.00047988378 -0.00010350051 0.0023270086 0.001940951 -0.0016975739 0.0011330113 0.0007895421 0.0009937533 0.0026772313 0.002262334 -0.0022374608 -0.00060439395 -0.0020588397 -0.0019234734 7.0474416e-05 0.0007141698 0.0013405393 -0.0038875015 0.002372233 0.0035132964 0.0011343707 0.003440578 -0.0005925589 0.00018693751 -0.00049536093 -0.0018472794 -0.00081296446 -0.00097056804 0.0008653615 0.0019050417 -0.001059739 0.0006859034 -0.003685736 0.00042010183 0.00078132976 -0.0014347695 -0.0016345447 -0.0014445365 0.000602487 0.0020477723 0.0038213257 -0.0030189822 0.0017982951 0.0014671972 0.001111264 -0.0013481582 0.0022004892 0.0013579711 0.0013830463 -0.002164877 0.0020160212 -0.0013294973 0.0029387109 0.0022728245 -0.0014107963 0.0017051197 -0.001578526 0.0007534369 0.0027068774 0.0023310937 -0.0035584609 0.0020891859 -0.0010083802 0.0035703052 -0.0008915509 0.0006864042 -0.00077849254 -0.0019661393 -0.0035517851 -0.0032679753 -0.0018154413 -0.0030734604 0.0017427012 -0.0011475888 -0.0023533837 -0.0011186642 0.0019494486 0.00090328814 -0.0022879962 0.0034662343 0.002404576 -0.0034961787 0.0019265121 -0.0027058856 0.0020264802 -0.002143325 -0.0018171394 0.0006513291 0.002284778 -0.0012938891 0.0014317544 0.0034780167 -0.0015000945 -0.0029736164 -0.003762352 -0.00048432214 -0.003499006 -0.000996448 -0.0033943087 -0.0017684869 0.00082859356
172.016.112.020 -0.0018459006 0.0007620313 -0.0006434497 -0.0014952786 0.002719088 -0.0010900039 -0.0009504452 -0.0022529499 0.0022914368 0.001877632 -0.00092627306 -0.0031970218 -0.0020600397 -0.0034328985 0.0014415005 -0.00094477826 -0.0006938438 0.0036000563 0.0012850432 -0.0029200753 -0.0014404313 0.0005365685 -0.0032001596 0.0026070727 0.0028070349 -0.0034994418 0.0037872684 -0.0035849607 -0.0037716464 -0.0027376602 -0.0022358196 0.0022430057 0.0006380233 -0.0013667735 -0.0011748383 0.0033464013 -0.0010524356 -0.00019763494 -0.0017638053 -0.0024402055 0.0034919265 0.0028611263 -0.0027844943 -0.0003244267 0.0017158102 -0.0029275748 -0.0005335133 -0.00347723 0.00039833266 0.0038348404 0.0015674953 -0.0013998002 -0.0005848486 -0.0033748748 0.0033585394 -0.0036005152 0.0007079614 0.0038458877 0.002704678 0.0030760646 -0.0003872533 0.0029686482 -0.00034414814 -0.0004526634 0.00097571546 -0.00044585604 0.0017679771 -0.0012977172 -0.0024997909 -0.0017215308 -0.0031374553 0.0020693804 0.0027945442 0.0038437059 -0.00038156382 0.003827154 0.0006103813 -0.0025199966 0.002813029 -0.0009955742 0.0025261696 0.0016908946 0.001651607 0.00018964036 -0.0015010328 -0.00072706235 -0.00070678274 0.0021052922 0.0019663312 -0.0003281324 -0.003827972 -0.0018664466 -0.0025934116 0.0016884889 -0.002413869 0.0027226626 0.0021491444 0.0019570962 0.0017254817 -0.002459296 0.0020860427 0.0019039694 0.0020499532 -0.0010672318 0.0036149644 0.002544799 -0.0004716187 -0.000723954 -0.002334343 0.0018742384 0.0038098297 -0.0035486044 -0.0029320738 0.0015928885 0.00095569354 -0.0006497403 0.0033336435 -0.00070506544 0.00047323538 -0.0012309103 -0.0034309526 0.002120137 -0.0035084453 -8.27432e-05 0.0014630703 0.0011962936 0.0030822472 0.000702201
192.005.041.239 -0.0007831073 -0.00073170796 0.00044936757 -0.00067097374 -0.0033733223 -0.003046252 -0.0011846935 0.0024268732 -0.0012358006 -0.0003998659 -0.0019423247 -0.00022544448 -0.0013124773 0.0018466824 0.0038640061 -0.0018983695 0.0030362913 0.00096638635 -0.0027962367 -0.001447383 -0.00048748354 -0.0030305341 0.00026375323 0.00020277669 -0.0037251671 -0.00024427354 0.0011727008 0.0036612116 -0.0009787797 -0.0013741562 0.0038007863 -0.0031441292 0.0012655506 0.00010027924 -0.0031715247 -0.0022456017 0.0007727041 0.0014282345 0.0015458119 -0.0020344402 -0.0015172712 0.001767974 0.0022874984 0.0017949111 0.00023159262 -0.0027912566 0.0010491929 -0.0009096339 -0.0011701309 -0.0010643225 -0.0028956386 0.00030086766 0.0026533543 0.0007436864 -0.0008231827 -0.00079374446 0.0034160714 0.0014957739 0.0028324346 -0.0035398484 0.0010121209 -3.7274072e-05 -1.549368e-05 0.0020690127 -0.002724397 0.0005376601 0.002414352 -0.0036818557 -0.0027105822 -0.0007681075 -0.0034299113 0.0032652146 -0.0038042045 0.0038720912 -0.0029218723 -0.0008500455 -0.002415219 -0.0018309829 -0.0030781508 0.0004076278 0.003158052 -0.0028018763 -0.00064040633 0.00018610749 0.0033506595 -0.0024860967 0.00244842 -0.0020937496 0.0019520168 -0.0026273443 0.0006275413 0.0005155446 -0.0028842785 0.0020872622 -0.00060408947 0.0037144297 -0.00052531424 0.0006068475 -0.0015609381 -0.0010564483 -0.0014152592 -0.00030780083 0.0028129057 0.0017490516 -0.000925451 0.00158379 -0.0024790987 -0.002556216 -0.00226464 0.00086554984 0.0006575442 0.0022784336 -0.00061412586 -0.002067614 -0.0037082739 0.0006199655 -0.003685066 0.0023541849 0.0028541223 -0.0027706528 0.0032478115 0.00014167349 -0.0037513634 -0.0026523652 -0.0036450736 0.0038864138 0.0005932594 -0.00016140853
152.163.212.125 -0.0017804041 -0.00097004976 -0.0010019405 0.0030488493 -0.00025855255 -0.002670634 -0.00057108223 -0.0032694603 0.0020986842 -0.0010392622 -0.0037876237 -0.002134444 0.0014240528 0.001906428 0.0010622134 -0.0028280981 -0.0017937124 0.0015938461 -0.0024127027 0.0007612176 -0.0033184118 -0.0036433274 -0.0029233466 -0.00017648794 0.0026230135 0.0029977108 0.0017155567 0.0019866973 -0.0015519947 -0.0025339343 0.001651866 -0.0029797528 -0.0011075645 0.0035454794 0.0020982027 -0.0024730074 0.0008634021 0.0019567811 -0.003570358 -0.0016229944 -0.0014482975 -0.0034534505 0.0016751143 0.00020058389 0.003433319 -0.00335261 0.0032548567 0.001782828 0.0031614779 0.0032510613 0.00205839 -0.0018337796 -0.0005125794 -0.0033831347 -0.00069548213 0.0030982106 0.00037109083 -0.0021358689 -0.0009232917 0.0012586608 -0.0027780032 -0.0009774223 -0.00043254223 -0.0035627955 -0.0020823362 0.000953149 -0.00061379105 -0.0030344776 -0.0021202015 -0.0029527962 0.0008012873 -0.0020667694 0.0011881815 0.0024075117 -0.0003920887 -0.0010474026 -0.0012896906 -0.002418554 -0.0031511514 0.0010743263 0.0017979286 -0.0016430066 -0.0031209996 -0.0013846143 -0.0037912184 -0.0021797062 0.0032301634 -0.0030631688 0.0007368838 0.0030565273 -0.0013854303 0.0012639598 0.0008454541 -0.000830259 -0.0021878576 -0.0024998966 -0.0023585751 -0.0022881187 0.00091687794 0.00069699215 0.0035509043 0.002710526 -0.0019878082 0.001982568 0.002325468 -0.0021388768 -0.0005998155 -0.0020381275 0.0010049411 -0.0019919449 1.3002928e-05 -0.0026151915 0.00033658146 0.0036615191 -0.001964066 -0.0027340886 -0.00029678183 0.0001978505 0.0012740999 1.3912325e-05 0.0010712058 0.002725648 0.0005510967 0.0031407417 -0.001382283 0.0024737555 -0.0013143031 -0.001577701
136.149.142.178 0.00025772926 0.0009278667 -0.0019770477 0.0016595235 0.0029210525 0.0035661075 -0.00026684636 0.0032187358 -0.0036043078 0.0031519453 -0.0036275536 0.0005089533 0.0020961375 0.0027698397 3.3719847e-05 0.0012278678 0.0025029036 0.00054125977 -0.0027907009 -0.0033719274 0.0031576997 -0.00031576926 -0.0009897628 -0.0028051895 -0.0023469576 0.0037721195 0.00036649386 0.0033588686 -0.0016490055 0.0026682417 -0.003380429 0.0027310776 -0.002672423 0.0030053523 0.00026002602 0.0014421107 0.0036597725 0.0004296435 -0.0031218575 -0.0008403262 0.0020482375 -0.0030065763 -0.0020231404 -0.003589514 -0.003707999 0.00012462922 -0.00019300402 -0.0036190704 0.0005015074 0.0038533413 -0.0031082057 -0.0025734317 -0.0028139052 -0.0005018899 -0.003352289 0.001679155 0.0020512014 -0.003715052 -0.0034617784 -0.0010551094 -0.0027826081 -0.0029478234 -0.0016943172 -0.0027474298 -0.0012053185 0.001178296 0.0037023616 -0.0007132954 0.0017766624 -0.0019662834 -0.00190216 -0.0019136397 0.0030875376 -0.0001987038 0.0016196292 0.0010100408 0.0018864113 0.0003763207 -0.002420652 -0.00033591507 -0.00077709096 0.0014326603 -0.0031643077 -0.002142779 -0.00083215814 0.00026582423 0.0020204205 -0.0038439522 -0.002559306 -0.0031235293 -0.0030831727 -0.0010948143 -0.0036906558 -0.0023889893 -0.0022408273 -0.00062741875 0.0036453565 0.00019944203 -0.0032012095 0.0006570436 0.00081089954 0.002289459 0.00012766558 0.0038754856 0.0009161945 0.0006609762 5.1165694e-05 0.0014801587 0.0014193121 -0.00039929623 -0.0014562836 0.00078407733 0.0019127761 -0.0026978701 0.00033946466 0.0017711979 0.0012908181 0.0018445728 0.0023592724 0.0033562917 -0.0033907369 0.0027638583 0.0035125841 -0.0008071298 0.0018617723 0.0038193227 0.0035440486 -0.002237045
172.016.113.050 0.0022893688 -0.0006024255 0.003238104 -0.0035919128 0.0016161347 0.0034085189 0.0021489954 -0.0016850168 0.0023742532 -0.0011698622 0.0036196944 0.0014934205 -0.0014160387 0.001204636 -0.00081114285 -0.002936721 0.002038502 -0.001978211 -4.7728452e-05 0.0018374402 -0.0025714221 0.0022585972 -0.0033296575 -0.000682589 -0.003696094 -0.000981431 -0.0010668517 -0.0015553966 0.0013320454 -0.00015555318 0.0021144568 0.0037097884 0.0015688908 0.0020916183 -9.4185765e-05 0.00046521434 -0.0003121571 -0.0024554664 0.0015503692 -0.0030505762 0.00047481497 -0.0018502836 -0.0009986168 0.0015856914 0.0019099291 0.0031465907 -0.0023814703 0.0017419261 0.0019918086 -0.0036250202 0.0038237895 0.0025562465 0.0011535946 -0.002847195 0.0030702238 -0.0009636917 -0.002424965 -0.0027672243 0.0029542465 -0.0033616915 -0.0025699881 0.0012270672 0.00023068339 0.0031066649 0.002992959 -0.0027315347 -0.0017383618 -0.00056921504 0.003191263 -0.0024586117 0.0008805822 -0.0008448586 0.0016064044 -0.0035059818 -0.0029436713 0.0010560557 0.0010590233 -0.0034250082 0.0011491191 -0.003087303 -0.002103177 -0.001979659 0.001479689 0.0030764989 -0.0002622919 0.0034899125 -0.0036899603 -0.0006402972 0.002831791 -0.0038871313 0.00080831366 0.0021548658 -0.0030277944 -0.0017643069 -0.00019282778 0.002154136 2.9460864e-05 0.003454063 -0.0022154094 0.00019920839 0.0003113923 0.0005182465 0.0012974055 -0.0032481477 0.0004213282 0.0018775975 0.0006824333 -0.00059539266 0.000953953 -0.001574472 0.003114265 0.003231456 -0.0018351616 0.0030607271 0.003521561 -0.0006405263 0.0035095671 0.00071815803 -0.00013190047 0.003311393 -0.0035919687 0.0021592572 -0.0016936064 0.0009770716 0.0005853556 -0.00040461836 -0.001954586 0.002015226
172.016.114.050 -0.00037277152 0.002489975 0.0021791125 5.0030623e-05 0.0015629621 -0.0034969286 -0.0010437237 0.00034871968 -0.0011367857 -0.0030291695 0.0019118019 0.0035667177 0.0027988858 0.0024832543 -0.003598639 -0.0035361017 0.0026916824 -0.003370718 -0.003911074 -0.0009928764 0.0012926561 -0.0032730207 0.0027840347 0.0034675098 -6.414913e-05 0.00030024748 0.0025136792 0.0021391285 -0.0019111515 -0.0011358415 -0.003865435 -0.0014853149 -0.0010922835 -0.0016913699 0.0037032382 -0.00020078791 0.0039310902 0.0030260193 0.0025618623 -0.0018551375 0.0014502985 -0.0028911757 -0.0031640592 -0.0005311364 -0.0024323768 -0.0005267638 -0.00032662367 0.0021939888 0.0011846619 0.0014824189 0.00015151499 0.001575823 0.002941834 0.002696333 -0.003083399 -0.0014454538 0.0036392517 0.00028496256 -0.0009420144 -0.0018140199 -0.0015847078 -0.0036723632 0.0033394082 -0.0014207578 0.0007669999 0.0033019618 0.0019329796 -0.0011874218 0.00088898616 -0.00022689965 -2.0975825e-05 0.0026974631 0.0032043422 0.0033685071 -0.0025713062 -0.00017606265 -0.0020941077 0.003624547 0.0031084896 0.0008784732 0.0019085841 0.0033661025 0.0022605213 -0.0035884858 0.0027691736 -0.00013999877 -0.00092339603 0.0033264612 0.0021980857 -0.0036899655 -0.0009246431 0.0032752112 -0.0035759152 0.0028505926 0.0027376078 -0.0035741555 -0.003837965 -0.0010487554 -0.002616277 0.0035789972 0.0024446414 0.0027964565 -5.50479e-05 -0.0008498026 -0.0029432431 0.0017859229 -0.0034514042 0.00022248244 -0.0031091948 0.0012256398 0.0024597703 0.002220554 0.0017183624 0.0017386386 -0.0035516922 0.0027629526 0.00080949167 -0.00296243 -0.0030133338 -0.002398244 0.0011632597 -0.0007103332 -0.0036876795 0.0008441904 -0.0031938895 -0.0006145245 -0.0032783388 -0.0026883513
208.228.229.225 0.0005557216 0.003246972 -0.0015500961 0.0037075584 0.0017989695 -0.00069273787 -0.002712962 -0.00038091096 0.001964545 -0.0008588968 -0.000587064 -0.0023503548 0.0023373808 -0.0014090659 0.0021749588 -0.00030701316 0.0032023513 6.563749e-05 0.00011325412 0.00016474337 -0.003728577 -0.0037950552 0.0029543645 -0.00027307833 0.0012080156 -0.00045688948 0.0029238134 -0.003010903 0.0032233812 -0.003823767 -0.0027002967 -0.0026435808 0.0013520662 0.0005222402 0.0008973248 0.0010488185 0.0021038936 0.0026845238 -0.0035574248 -0.0035615726 -0.0023298499 -0.0030339367 -0.003646017 0.000980642 0.00347569 -0.0038197152 0.002667314 -0.0008044004 -0.00025752894 -0.00076644734 0.0029355471 -0.0014770601 -0.0019204831 0.0037229776 -0.003541596 -0.0018738846 0.002656909 0.0016751803 0.0006063778 -0.0006588172 0.0017503056 0.0034641006 -1.1121901e-05 0.0023280894 -0.0023380988 -0.0028938293 0.0023960925 0.0010222652 -0.0014561231 -0.0017150103 0.003795849 -0.0016985099 -0.0015526607 -0.0031308148 -0.0006452257 -0.002638049 0.0027309495 0.0013845405 0.00014206578 -0.00035135236 -0.0014444779 -0.0013283473 -0.0031848617 -0.0022772574 -0.0023874324 -0.0007831219 0.0033241943 -0.0009642411 -0.0026784972 0.0014261268 -0.0013757205 0.0008093572 0.000118904405 -0.0025768725 0.0016484297 -0.0008162709 -0.0009338902 0.0020829977 -0.0011113569 -0.0035529742 0.0021779933 -0.0036041401 -0.0029867475 -0.0022834623 0.0032027054 -0.0029142073 0.0025767777 0.00064923416 -0.0028365967 0.0010469396 -0.002193071 -0.002102042 0.003804695 0.002038013 0.0018947802 -0.0030836056 -0.0010630725 -0.0037037435 -0.00252045 0.0022338065 0.00051501434 -0.0025791791 -0.0027350732 0.00108545 0.0012927596 0.002096453 0.0016370153 0.0033555883
207.046.131.013 0.00366222 -0.0033772984 0.0011900337 0.0019077001 0.0010489904 -0.0037437112 0.0024692093 0.0036072352 -0.0017673982 -0.0034280226 -0.0020994004 0.0035286688 0.0015360127 -0.0014021477 0.00044747823 0.001799833 -0.0013724539 -0.0030293153 0.0017931657 -0.0033105828 0.0019160912 -0.0016581923 0.0038166402 -0.001364501 -0.0008163191 0.0024168848 -0.0006657498 -0.0011280908 -0.00015959913 -0.0028415616 0.00022919444 0.002995005 -0.0029042903 0.002372566 -0.0037117598 -0.0020085047 -0.00036030682 0.0010641211 0.0016031867 -0.0012287946 0.0012217846 -0.0029613217 0.0011970238 -0.0019627805 -0.0013565522 0.0016938044 -0.0010958494 0.0018753329 -0.00022005601 -0.002533593 0.00023714622 -0.0029102664 0.00083232607 0.0006421167 -0.001606724 0.0019094441 -0.0022059106 0.00026231812 0.00058850006 -0.0024493556 -0.0010684883 0.0008344559 0.0026546821 0.00292415 -0.0006919141 -0.0017008407 0.0029318454 -0.0018574378 0.0008126313 5.238558e-05 -0.0032395434 -0.0033843413 -0.001426752 -0.0011318525 0.0033987262 0.0002824491 0.0008731602 -0.0018510164 -0.003790257 0.00036206638 8.307364e-05 -0.0014794777 0.0032316213 0.0016983326 -0.0024161614 -0.0015582988 -0.0031524515 -0.002814589 0.0037770371 0.0014880155 0.002156725 -0.0013983765 0.0014139237 -0.0019430215 -0.0022671877 -6.713858e-05 0.0030061777 -0.0013870884 -0.001598382 0.0030904666 0.0037250551 0.001457799 0.0012916134 -0.003356161 0.0030947872 -0.00023478527 0.0033915227 0.0009910516 0.0031628776 -0.0012302491 -0.00042385838 0.00039682954 0.002982255 -0.0032023813 -0.0021529621 0.003867069 -0.002272626 0.003871255 -0.0014805482 0.00109407 0.0006372514 0.001431951 0.0005536739 -0.00057087035 -0.0030146528 -0.0015472051 0.0011816712 -0.0031204312
209.132.031.011 0.001123399 0.0022100096 -0.0028223433 -0.0013765454 -0.0039183083 -0.002536688 -0.0017216527 0.003789025 -0.003179434 0.0023007959 0.002563452 0.0032179959 0.002553951 0.003570345 -0.00028059204 -0.00012336441 0.00018391012 0.0013858959 0.0030583802 0.0006320287 0.0014755359 0.0033070087 0.0028589955 0.00238023 -0.0021992652 -0.0036909604 0.0035020579 -0.0011107846 -0.00049461605 -0.00019938797 0.0031561486 0.0032160298 0.00014351739 0.0028170543 -0.0019934203 -0.0007756979 0.003536003 0.0015838064 0.00031707942 0.0025499472 0.0019317082 -0.0019175006 -0.0016545878 -0.0028429492 0.0024544452 -0.003720797 -0.0016176188 0.0012472856 -0.00046465677 0.0008175229 -0.0029087774 -0.0033673919 0.0026336024 0.0037311113 0.00093223 0.0017053582 0.00064816466 0.001034044 -0.00027553685 0.0022328615 0.00040023733 0.00070688414 0.0024579945 2.152221e-05 -0.0024382847 0.0034661554 5.737643e-05 0.0020619805 0.0037429612 -0.0022920938 -0.0022964266 -0.0014197145 0.0037882964 0.0021225957 -0.001966035 0.0012538106 -0.0032470392 -0.001976551 0.0004258486 -0.0035815113 -0.0018280109 0.0025654717 -0.0024499497 0.001041417 0.0007160036 -0.0021620963 0.00029477672 0.0029091265 0.0021945671 -0.0015589198 0.0006117051 -0.0017764685 0.0005122342 -0.003695085 0.003051491 -0.00031489728 -0.0007378182 0.002753563 -0.0009843861 -0.0029159843 -0.00212997 0.0027124549 -0.0006208131 -0.0028613629 0.00015776455 -0.00070136064 0.0034742104 -0.0037050883 -0.0037344096 -0.0017559882 -0.00063636026 0.0025197219 0.0014800023 0.0018404932 -0.0016083993 0.0028491605 0.0022480444 -0.00024523947 -0.0029363073 0.0019999177 -0.0029876265 0.0010436546 0.0012408092 -0.0033732003 -0.0010156506 0.0016296396 0.0017078957 -0.00012475727
204.123.002.093 -0.00090670655 0.0009860251 0.0021807568 0.0003765496 -0.0024623955 0.0007523792 0.002596039 -6.450271e-05 -0.0016865935 0.0014893727 -0.00048550178 0.001681506 0.000238169 -0.0003977485 0.0026878119 0.0026470353 0.0010709616 0.003058944 -0.0035029042 -0.0017325247 -0.002453208 0.00163325 -0.0027207541 -0.0020853353 0.0017108415 0.0037339083 0.0023662916 0.0030357973 0.002651157 0.003743482 0.0005946087 0.0027521623 0.0010473945 0.0038295947 -0.0017150437 0.0022141142 -0.0027127531 -0.0015168249 6.793366e-05 -0.0016359182 0.001679867 0.00069249567 -0.0002100862 0.00083680166 0.0014110403 -0.0004562842 -0.0026948808 0.0002843568 0.0018815426 -0.003333392 -0.0032434482 -0.0027736134 -0.0005688301 -0.0014921199 -0.0021354333 -0.0032640202 -0.0015370914 0.0008226346 0.0035849619 -0.0012502033 0.0021369413 7.013935e-05 0.0036652633 0.002244405 0.0013257269 -0.0038132877 -0.00079411693 -0.0012524236 0.0010073438 -0.0023106562 -0.00011495712 -0.0026730516 -0.0021825393 0.003591254 -0.0038305004 -0.0026768176 0.0013410858 0.00024605644 -0.0019621025 0.0020609705 0.0011626538 0.000822106 -0.00024343914 0.0017682238 -0.0033350002 0.0033867944 -0.0035549395 0.00083241105 -0.003360943 0.002508415 0.0020102984 0.0011821417 -0.0028814804 0.0011228034 0.0033187396 -0.0026277357 0.0022356147 -0.0031186834 0.0010207578 -0.0028838245 0.0005018911 0.00067154993 -0.0018512063 -0.0031294394 0.00067026657 -0.0009968168 -0.003489895 -0.0026787943 0.002766968 0.0003152065 -0.003071677 0.0017759657 0.0025931033 0.0031751774 0.0011488235 -0.0014329351 0.0016969793 -0.003559026 0.0008041456 -0.00036078095 0.0015363409 0.00022130943 -0.0026508796 -0.00257687 0.00046031925 -0.0010414041 0.0009346992 -0.0011124314
209.040.028.008 0.002887937 0.0035391871 0.0011678284 0.0007222589 -0.0012140416 0.00041890144 -0.0010569735 -0.0018496052 -0.0029743488 0.0032961888 0.002317636 0.00066184637 -0.0037342736 -0.00054147193 0.0009421335 -0.000537449 0.00088464195 0.0035629084 0.0022313774 0.0034702441 0.0004389794 -0.0036579429 0.0005859376 -0.0017938486 0.0016107989 0.00047689356 -0.00094756647 1.7575754e-06 0.002694832 -0.0009402126 0.00016294199 0.0033695772 -0.0026970578 0.0019605253 -9.752382e-05 0.0038090444 0.001367 -0.0017194321 0.000258735 0.0037048238 0.0032841798 0.0038075268 0.0025200278 0.0028735213 0.0016968244 -0.0031257784 -0.0011459042 0.003159659 -0.0032372726 -0.0018830856 -0.0020841789 -0.0030716395 -0.00050670793 -0.0032776103 0.0039059226 0.0020183 -0.0030692068 0.0019341863 -0.00081405713 0.0008125767 0.002270851 -9.075145e-05 -0.0038452058 0.003107829 -0.0029144029 0.0019529159 0.0022340575 0.001850957 -0.0002487854 0.003172098 -0.0015080409 0.003818297 0.0007093122 -0.001859487 0.0008875552 0.0033459843 -0.001465344 0.0037256267 -0.0033640433 -0.0029301422 -0.0014137215 0.0010514985 -0.00038373854 -0.0024000371 -0.0016143924 -0.0018096914 -0.001916339 -0.0014382779 -0.0003471405 0.00042637647 -0.0025240772 0.0031901451 0.002466818 -0.0020297035 0.0017175963 -0.0027579588 -0.0003915258 0.00078904384 -0.0031577963 -0.0038000434 0.0038728097 -0.0029275676 0.0032147402 -0.0029532302 0.0012652596 0.0033892852 -0.0018515346 -0.0012490914 -0.0006933714 0.003594625 -0.00034902533 -0.0022255697 -0.0012533345 -0.0013432264 -0.00077261997 0.0004534183 0.0012151927 -0.0019138871 0.0002471305 -0.0019716755 0.0022187356 -0.0035776007 0.0038784833 -0.0032347974 -0.0028679897 0.0023032776 0.00067785074 0.0005726048
187.187.187.187 0.0020753755 0.00063497137 -0.0036189873 0.0030584997 -0.0038288084 -0.0024353054 -0.0005731837 0.0015974891 0.003034948 -0.003013643 0.0005901412 -0.00032341797 0.0030470046 0.0026254784 0.0022943534 -0.0019194763 0.00085292413 -0.002970052 -0.0026334205 -0.0017430945 -0.0009004274 0.0018913697 -0.0035545852 0.0022313036 0.001902744 0.0027691019 0.0021782902 0.0012825149 0.0014744588 0.0012956309 -5.8187474e-05 -0.00211213 -0.002939031 0.0030902748 -0.003704625 -0.0038085645 0.0009012141 0.0027550475 -0.0028873603 0.00087607244 0.0025483926 -0.0021694314 0.0020145436 0.0006184597 -0.00094017683 0.0033154134 0.002803874 0.0008059905 -0.0018458968 -0.0005156465 0.0023950785 0.0031348327 -0.0012912247 -0.003542648 -0.0029676456 -0.0024792785 -0.0020486035 0.0021098242 -0.0013918048 0.0027097282 -0.0013117219 0.001881935 0.0013124807 -0.0033520788 0.00067715783 -0.0017918859 0.001417391 0.0027402064 0.0006791116 -0.003118133 0.00063813094 -0.0031153092 0.0008475216 0.0032599934 -0.002296403 -0.0011952716 -0.0018697584 -0.0038939842 0.00029059575 0.00047761312 -0.0021667958 0.0031732689 0.00093493063 -0.00065755955 0.003381028 -0.00010705565 0.0038603144 9.8418874e-05 -0.00043872185 -0.00062587287 0.0028484222 0.0033646603 -0.00199553 -0.0012961964 0.0004964033 0.0014429294 0.0031616644 0.0023975025 -0.0012099419 -0.002098566 -0.0011415066 0.0008933922 -0.00022378821 -0.0024612185 0.002734196 0.0038322248 0.002301213 0.0027735792 -0.00035911766 0.001441663 -0.003464029 0.0033721726 0.0038789785 -0.0018505362 0.0010181337 0.0005925909 0.003610471 -0.0025701106 0.002516618 -0.0005702243 0.0015807531 0.001040681 -0.002497401 -0.00048588665 0.0008780666 0.0020577635 0.0036133053 0.0017040155
172.016.114.148 0.0008469719 6.1240986e-05 0.0024999033 -0.0037687735 -0.0024874085 -0.0013234955 0.0033310358 -0.00184047 -0.00039340393 -4.7840324e-05 3.330165e-05 -0.0023541749 -0.0033961937 1.4226689e-05 -0.0012911011 -0.00057347794 -0.0015148672 -0.0013249195 0.002666129 0.0028915768 -0.0012129928 -0.003270998 0.00310494 0.0013110064 -0.0035750815 0.003911903 0.0012378434 -0.00022462511 -0.003208658 0.003535727 -0.0017874273 -0.0012749457 -0.0015124052 0.0017648459 -0.0004623767 -0.003193126 0.0038311593 0.0018072556 0.00088748627 -0.0036326363 0.0009835473 -0.0001657726 -0.0006756923 -0.0025392075 -0.0021402703 -0.0025383595 0.0010004041 0.00026805536 -0.0031219982 -0.0011343639 -0.003627206 -0.0024804766 -7.4064737e-06 0.0027297942 -0.0024818354 0.0027165432 0.00050209486 0.0016185119 -0.0010252789 -0.0022554921 -0.00073421554 0.0016053438 -0.0006498135 0.00091498916 -0.0008532866 -0.0027457278 0.0011801069 0.0009101771 0.0029168879 -0.0023525914 0.00060509035 0.0027274773 0.0026777855 -0.0014812949 -0.00014749018 -0.0012472492 0.0005294938 0.0037470772 -0.00044171925 -0.0024679482 0.003408798 -0.0036197149 -0.0015366653 0.00016396258 -0.0014217421 -0.0030138667 -0.0028468575 -0.0024396088 0.0016410277 -0.0017530841 -0.0024425616 0.0019473763 0.0036750997 -0.0024600981 -0.0016531491 3.0453606e-05 0.0021131902 0.0035294844 0.0008345944 -0.000107236876 -0.003836422 -0.0002863234 0.0010875141 0.0008868027 0.0037313818 -0.0029752147 0.00017229038 0.0022814367 -0.00046550581 0.0030595078 -0.0002398791 0.0029441223 -0.0009691551 0.0037998897 0.00025423645 0.0030705337 0.0018472708 -0.0025723586 -8.59275e-05 -0.00055213994 -0.0026709693 -0.0010555391 0.0029890556 -0.00015861519 -0.003653443 -0.00055406254 0.0006745169 0.00093026867
207.013.080.151 0.0026140208 0.0033504236 -0.0019900661 -0.003048371 0.0015645793 0.0037491312 -0.0005883921 -0.0020904215 -0.0018963736 0.0018099843 -0.003491496 0.0032938877 0.0027762104 -0.0011460696 -0.0029253892 -0.0006271035 0.0034185622 0.001905775 -0.0017596624 -0.0035338947 0.0026904293 0.0008776493 0.0034330054 -0.0025106957 3.9156257e-05 0.0026790805 0.0036500397 0.0008560881 0.00026205054 0.003549318 -0.0032652686 -0.0023672916 -0.0007547092 -0.0030873762 0.003838581 -0.0025425188 -0.0011856142 0.003703578 0.00288629 -0.0030719892 0.001999177 -0.0012578887 -0.003648067 -0.0024346847 0.0023220903 0.0027493287 -0.00015345414 -0.003677846 0.0037048422 0.003734393 -0.003560269 0.0014816276 -0.0004656124 0.0026430986 -0.0002932293 -0.0030449894 -0.0034238757 -0.0029068694 -0.0016203523 -0.0027250645 0.0036821128 -0.0014601679 0.0015008139 -0.0035956874 0.003873058 0.00052401115 -0.003176584 0.0024404884 -0.0037025972 0.0017950451 -0.00038065817 4.1850206e-05 0.00091204676 0.0034624296 -0.0031135685 -0.00048249413 0.0010856629 -0.003728127 0.0011326692 0.0013412255 -0.0003087715 0.000846012 -0.002943575 -0.00063773914 -0.0038451247 0.0015128801 0.0028181565 0.0036269804 0.0034599048 -0.0036968526 -0.0016372077 -3.1976408e-05 -0.0027979012 0.0009865206 0.0005674453 0.0010572288 -0.0035773492 0.003184008 -0.0036079213 -0.0034197345 0.00054850074 0.0008056135 -0.00345023 -0.002606236 -0.0009996865 -0.0017356628 -0.0031081098 0.0032994847 0.003612505 -0.0003907603 0.0032441642 -0.0029457747 0.0025040307 -0.00068709365 -0.0025036305 0.00014090871 0.0003232053 -0.0024775765 -0.0029039541 -0.0008821481 5.0079685e-05 -0.0013669165 -0.003363458 -0.0003572469 -0.0012879177 -0.00038266825 0.0036728936 0.0017659368
206.209.017.002 0.0024331356 0.001001982 0.0005788383 -0.0028978668 -0.0009109969 0.0024466005 -0.0026147102 -0.0011942371 0.00015273236 -0.0017154305 0.0034634874 0.0013810999 0.00036836692 0.0025596055 -0.0033411537 0.0011874831 0.0031045424 -0.0020972807 0.0022289269 0.0015676932 0.0033057418 0.0022774965 0.003016886 0.0034435343 -0.0019712306 0.0032522725 -0.00015237834 -0.0036912856 0.0013086543 0.0036076405 -0.0025571084 -0.0014741159 0.0035435187 0.0036085646 -0.0021971138 -0.0035905875 0.00053748116 0.00021476114 -0.00026494602 0.0031681657 0.0024856247 8.205836e-05 0.00072427304 0.002962069 0.0017652018 0.0010135706 -0.0027459709 -0.0034874089 0.0036727192 -0.0028468661 0.003636172 -0.002480745 0.0033529745 -0.0037013423 0.001593003 0.0022596412 -0.00049043325 -0.0008451621 -0.002540366 -9.388848e-05 0.000920738 -0.0023006194 0.0010077067 -0.00072442926 0.00045927725 -0.0022528912 0.00037293576 -0.0020769252 2.761435e-05 -0.0028699553 0.0037458318 0.0019920294 0.003683633 -0.0018353872 -0.0021561214 0.0024451625 0.00014932259 -0.0038581518 -0.0022897234 -0.0024651412 -0.0014264486 -0.0028896003 0.000998646 -0.002420163 -0.0027410784 0.002890969 0.0021472299 0.0002486965 0.00094536017 -0.00071277295 -0.0028777628 -0.0028649527 -0.0004029772 -0.00038861146 0.0023914936 -0.0027500857 0.0025905634 -0.0027405475 0.0016142926 -0.00069131027 0.0019511901 -0.0009227084 -0.000867023 0.0008151217 0.0026212304 -0.0020718887 -0.00061415596 0.0018968451 0.0023604115 0.00096849346 -0.00046561076 0.0026961342 0.003373712 -0.0002961207 0.00141105 -0.0017085555 0.0017850234 0.0015211335 -0.0011256477 -0.0005692197 0.00027235306 0.003093671 0.000886925 0.0029403705 -0.0023527308 -0.00021733223 0.00079205976 0.00088506035
204.152.167.020 -0.0018352177 0.0012472003 0.0009676858 -0.0027137594 -0.001514954 6.264137e-05 -0.0003054708 -0.0023955018 -0.0026443966 0.0038247565 0.0033512642 0.00021218843 0.0006437054 0.00082235434 -0.0023624795 -0.0009220238 -0.0036761856 -0.001769274 -0.0037398087 -0.003331623 -0.0031657522 0.0019694886 -0.0012814024 -0.0032735313 0.0018145457 -0.0005650036 -0.0018269992 -0.0011146533 0.0011870746 0.0018256578 0.001521371 -0.0024560967 0.00022020955 -0.0010800366 -0.002630964 0.0022356794 -0.0019105612 0.001341784 -0.00091660867 0.0020078213 0.001550348 0.0009200663 0.00015871391 -0.0007664645 -0.00017480315 9.22396e-05 -0.003134431 -0.0034113869 -0.0019967677 0.0028155977 -0.0029109507 -0.00028679485 0.0003800451 -0.0027732751 0.00037742662 -0.0013493667 0.0008872648 0.002043753 0.0023404502 0.0016398714 0.0013065522 0.00093324104 -0.0022823657 -0.0038528254 0.0032357152 0.0032685453 -0.0006797837 0.0020669766 -0.001005687 -0.0008555598 0.0026795827 0.0026735915 -0.0023942767 0.0008382924 0.0010840126 0.0036828832 0.0032675979 -0.0011062212 -0.0014340347 -0.0018254486 -0.002670726 -0.0016128558 0.0033898996 -0.0021813328 -0.00049233076 0.0037653407 -0.0028913796 0.00010834167 0.0037729137 -0.00078876416 0.0025570393 0.0018630276 0.0028760387 0.00088838616 0.00031295046 0.0022036145 0.0008703192 0.0020223723 0.0013435081 0.0028280367 -0.0034099051 0.001684191 0.0027380083 0.0022173189 -0.00067501416 0.0009669254 -0.0035032867 0.0023130716 -0.0019859744 -0.0037358236 0.0005019571 0.00067410176 1.830486e-05 -0.0035499614 -0.0021420466 0.002943005 -0.0033518455 0.0016571439 -0.001657999 -0.0011706994 -0.0016697189 0.0033539792 0.00022057575 8.443119e-05 -8.034521e-05 -0.0008957768 0.0028227435 0.0011720882
206.083.162.050 -0.0035099385 -0.0021863983 0.00023303373 -0.0020946695 -0.0008385329 -0.0013148981 -0.0012391444 -0.00021441998 -0.00049272703 -0.001264276 -0.0017451098 -0.0033540737 0.0022544428 0.0026529208 0.0020944653 0.002727553 -0.0035453879 -0.0004743431 -0.0027516938 9.122908e-06 -0.002578468 0.0014098492 -0.0019031495 -0.002223197 -0.001407264 0.0036476972 -0.0012838639 -0.0015955414 -0.0016979136 -0.003118724 0.0038313095 0.0010654457 0.0017060421 0.0020189916 -0.0006585557 0.0031765548 -0.0013970244 0.00030578693 0.00026536765 -0.0016421772 -0.00057032885 -0.0007022382 0.0003373618 -0.0030801673 -0.00082182954 0.00081648043 -0.002305677 0.00062475295 -3.4464316e-05 0.0038624618 0.0031064365 0.0015846806 0.0005846561 -0.0025774275 0.0029383472 0.001262542 -0.002926505 0.002383498 0.00020959969 0.00048318354 0.00020385644 0.0012263176 0.002929832 -0.00042817343 -0.00025166242 0.0037009923 -0.0020218864 0.0015168667 0.0030710888 0.0030034992 0.0012311552 0.0021226855 -0.0036980705 -0.0030952008 -0.003756602 0.002825412 0.0013453377 0.0015392874 -0.0016929682 -0.0017774518 0.00036012576 0.00030641572 0.0010062512 0.0028144887 0.0029337888 -0.0016088968 0.0003642575 0.0018690901 -0.00052537303 -0.0026736879 -0.0016791858 0.0022456401 0.0022965698 -0.00043448928 -0.0032196022 0.0033094517 0.00058170577 0.0005881978 0.001538758 0.0031135418 -0.003448685 -0.00021705544 -0.0034103314 -6.0177157e-05 -0.0019689882 -0.0038477187 -0.0008366221 0.0038646562 0.0018848493 0.00040759664 -0.0014273303 -0.002290835 0.00048392484 0.0014011184 0.00144629 -0.003317122 -0.0030095498 -0.0016827345 -0.0016221113 -0.000685311 0.0037626044 0.0024819584 -0.0028921065 0.00059610594 0.003738006 -0.00043335825 0.0007049683 0.0021894586
207.046.148.251 -0.0026783675 0.0023812482 0.0036224043 0.0032654179 0.001759366 0.0019522209 -0.002157176 -0.0016357712 -0.0028642423 0.00013502393 -0.0033453216 -0.0022039022 -0.0014430527 0.0021876346 5.556787e-05 0.0020459602 -0.0010059662 0.0003749101 0.0032217233 0.0022707838 -0.0027533462 -0.002599461 -0.0024832934 -0.0022528921 0.0008277736 0.00095604436 0.0020057491 -0.0022840593 0.0008802018 -0.0028391553 -0.000582637 0.003148556 0.0038708756 -0.00082917087 -0.0020668183 -0.0005568332 -0.0022360063 0.0005248654 -0.0024367974 0.002801086 0.0018001097 0.0029236055 0.0023491576 0.003177307 0.0019177782 0.002116737 0.0021963422 0.0033107607 -0.0025943192 -0.003050428 0.003887899 -0.002211446 -0.0035806287 -0.0030016538 -0.00039670747 0.0024786077 -0.003091533 0.00090735586 0.0027189828 -0.002818015 0.0026904556 -0.003490527 0.002523661 -0.0017178569 -0.0013581493 0.0030934212 -0.00050958496 0.002685742 -0.0035196212 0.0013480404 0.0033660377 0.0010023719 0.00265857 -0.00042658387 -0.0012850044 0.002597855 0.00343092 -0.0004909973 0.0032369532 -0.0017317742 -0.00092351774 0.0038637836 0.003698528 -0.0008071816 -0.0013662719 -0.0025802853 -0.00070743007 -0.00078911474 -0.00015196178 -0.0020933843 0.001627526 -0.0022387137 0.00042876732 -0.0015964516 0.0005964522 -0.0010371339 -0.00070412754 0.002085746 -0.0011418316 -0.0032720752 0.00093832304 0.0005122656 -0.0034672092 -0.0027717405 0.002983343 8.492255e-05 -0.0021026141 0.002830516 0.0028310316 0.0025636894 0.0032218602 0.001409217 3.0398633e-06 -0.00032964014 -0.0024268024 0.00030642652 0.002803374 -0.0008332157 -0.0037402932 0.0034265998 0.0032291242 0.0005842515 -0.0017639752 0.0019718013 -0.0023104257 -0.0013863002 0.003631291 0.0001264924
192.225.036.003 -0.00162571 -0.0026147764 0.0029106329 -0.002143704 -0.00077266124 -0.0023489196 -0.0035640188 0.0014731805 -0.0036067432 0.0005465454 -0.00083342375 -0.0018831006 0.0010203341 0.0035229633 -0.0036951343 -0.0023574054 -0.00059634756 -0.0037677137 0.0011919388 -0.0030945826 0.0025409735 -0.0013104384 0.001813842 0.00067371276 0.0009176472 0.0009241994 -0.0018266807 -0.0012998845 -0.0012691944 4.253277e-05 0.0009931558 -0.0010752864 -0.0012368426 0.0031553076 0.0010748657 -0.001319192 -0.0007800652 -0.0016003031 -0.00055312476 0.0024559912 0.0007683839 0.0016977754 -0.00025315612 0.003773309 0.0024031135 0.0011408282 0.0003155738 -0.0034906007 -0.0021045774 0.0037658883 -0.0016372198 -0.0016961296 0.001406547 -0.0033274055 0.0026885353 -0.001083088 0.0024530692 0.0030689063 0.0030075673 0.0018243749 0.0020508363 -0.0016872282 -0.0030726034 0.00015283602 0.0035191826 -0.0037716632 0.002059433 -0.0018773081 0.0027942045 -0.0014755899 -0.0031206291 0.0021601545 0.0020074912 -0.0025494562 -0.0011215612 -0.002714951 0.0034866144 -0.0015179878 -0.0021500632 0.0008246765 0.00038255262 -0.003288696 -0.0022583387 0.002019251 -0.0019688364 0.0015183992 -0.00047638002 -0.0016864444 0.00060247927 0.0025512397 -0.00074811664 -0.0037961567 -0.0018462326 -0.0013912792 -0.00035575297 0.0016525933 0.0011628226 0.003212151 0.0032632933 0.0013763601 -0.0021455553 -0.001725001 0.00018877533 0.0031679866 -0.0029169177 0.001786962 -0.0018036871 0.00077836105 0.0006770842 0.0012146785 -0.000150401 0.0033208407 0.0008662503 -0.0030366355 0.0005311372 0.0006371428 0.0019738215 -0.0037538346 0.0026356045 0.0010275472 -0.00124668 0.0015052472 -0.00198222 -0.0030838356 0.003871769 -0.00070200587 0.0022104199 -0.0027025412
172.016.113.204 0.0004453477 -0.001037422 -0.00086613337 -0.0021284693 -0.0021285673 -8.046084e-05 0.0024636884 0.0025565145 0.00032920588 -0.0026244693 -0.0009828525 0.0017662464 -0.002567431 -0.00014148938 -0.002222675 -0.001251376 -0.0015949913 0.0037009516 0.0010081559 0.00045073353 -0.0029226905 -0.00091798493 0.0031022045 -0.0025764746 0.0038829786 -0.0035381299 0.0025256819 0.0014298604 0.0012185333 0.002290888 -0.0038977442 0.0016336812 -0.0015626119 0.003194237 -0.0037458662 0.0021149402 0.00073388586 -0.0009707398 -0.002405325 -0.001743007 -0.0038549134 -0.0024382735 -0.0012323073 -0.0018559741 -0.0032286705 0.0016073433 0.0036729714 0.0018130317 -0.0030993733 0.0005103752 -0.0024987257 0.0012185586 -0.0012434643 0.002880968 0.0026683407 0.0024698423 0.00060876604 0.00014861333 -0.0003189882 0.0025442832 0.0014057958 0.000108334854 0.001058031 -0.0032367886 0.000407786 -0.0027948902 0.0021547088 0.003897375 -0.0036943054 0.0009818927 0.0027482607 -0.0010871161 -0.0013257114 -0.0031208976 -0.0023693985 0.0010763546 0.00046165945 -0.0025868271 -0.0035083906 0.001575938 0.002641375 -0.0008181928 -0.00028719584 0.0025752173 0.0012821517 -0.00022469487 -0.0020942134 0.002213949 9.260709e-05 -0.00081501727 -0.0007199694 -0.0027826957 0.0030144057 -2.1719557e-05 0.0028286064 0.0008988547 -0.0009460542 -0.0012903486 0.0018154312 0.0019418309 0.0017458067 0.0021435237 -0.00029549404 -0.0021012689 0.0015104385 -0.0010784907 0.0034662473 0.003614022 0.0011841328 0.0005884536 -0.0036330614 0.0023049216 -0.0005569454 -0.0025726624 -0.0023549765 -0.0020616392 -0.0010947669 0.003805059 0.0020089627 -0.0035452645 -0.0018155271 0.0031031822 0.00012741603 0.0028472475 -0.0016369099 0.0025087507 -0.0036838225 0.0037019344
205.181.112.065 0.0037638159 -0.0012754855 -0.000116952724 -0.0004245988 -0.00055643596 0.0015898276 -0.0016735177 -0.003518231 -0.0010503461 -0.0022530747 -0.00072236167 0.0034042473 0.0006773803 -0.003267495 0.00018450501 0.0013904306 -0.00249923 0.0012109169 -0.0022648526 0.003277297 -0.0024428822 -0.0020472668 0.0015834286 -0.0013814394 -0.0011941792 -0.0038922166 0.00037152026 0.0038673806 -0.0026118294 0.0026603101 -0.0013504133 0.0019631847 0.0016673536 -0.0002096881 -0.0033677404 0.0004064433 -0.003584567 -0.0023726518 -0.0022138986 0.0033155817 -0.003695173 -0.00084595627 0.00272904 -0.0001312276 -0.0012501703 -0.003297276 0.0010498138 -0.00052029995 0.003664179 0.0019790186 -0.0014783255 -0.0006251466 -0.002818962 -0.0011640103 -0.00021738964 0.0023026548 0.003896464 0.0017712923 -0.0013632658 -0.0012826658 0.0010393927 0.00019906313 -0.0022117293 -0.0013560171 0.0023481736 0.0010480982 0.00022262755 -0.0017473388 0.0021820825 -0.00047670625 0.0011694162 -0.0009541358 0.0025284055 0.00075768615 0.0030087489 -0.00071774604 0.0009789142 -0.0033612822 -0.0020847963 -0.00010629741 -0.0024387173 0.0016224523 0.0015131333 -0.0013422447 -0.003455916 0.0002669559 -0.0004596261 -0.0032345129 -0.0017822438 0.0004076784 -0.0030481895 -0.0015387749 -0.0034657167 0.003234731 0.0025227254 0.0035193563 -0.0016379905 0.0024254036 0.0008534621 0.00094021135 -0.00055965036 0.002501638 0.0029522255 0.0011999053 -0.003096495 0.0023911912 -0.003710456 0.0013957426 0.00060194527 -0.00036950858 0.0010125552 -0.0018047929 -0.0007759336 0.0028755458 -0.0016386244 0.0021563326 2.8035e-05 0.0027639417 -0.00090510235 -0.0030635684 -0.0036983828 0.0007978583 -0.0034180768 -1.4234365e-05 -0.0015083497 7.278587e-05 0.003102011 0.002793533
131.084.001.031 0.0031949987 -0.0011589043 -0.0014430862 -0.00019048939 -0.003852985 -0.002859949 -0.00186323 -0.00037894293 -0.003323722 -0.0031283917 -0.0011231408 0.0037611637 -0.000724437 0.0030188607 -0.001991624 0.0016435093 -0.0028388565 -0.0007940945 0.00015773685 0.0026054895 0.00051978807 0.003320291 0.0026449072 -0.0035720356 0.0006496605 0.002467877 -0.0011256434 -0.0032885966 9.394483e-05 -0.00031765737 -0.0035385322 -0.00028076136 -0.0036773116 -0.0026740944 -0.0019455934 -0.0025362766 -0.0027910788 0.0018557338 -0.0028011077 -0.0013271988 -0.0016530086 -0.0012097184 0.0001364974 -0.003338767 0.001805781 0.0024527158 -0.0008354573 0.0012320422 -0.002401934 -0.003121316 0.00020973524 -0.0031232475 0.00059572357 -0.0015170369 0.003131772 -9.841174e-05 -0.00023521813 0.0015459463 -0.0008019672 -0.001764039 -0.0036495903 0.0015783589 0.0012297586 -0.002107906 -0.0014746798 0.0020383906 0.0027579523 0.0036552607 0.0018883252 0.001343424 0.0018058852 0.0016193074 -0.0021587794 -0.000598554 -0.00017488556 -0.00014346045 0.0008371069 0.0021720522 -0.000872705 0.00244212 0.002699889 -0.0027191674 -0.003201992 -0.00091999955 0.00042416985 -0.000610309 0.00051643606 0.00045020666 -0.0016223736 -0.0020537982 0.00095592876 -0.0021971606 -0.0038844992 -0.0013045958 -8.8282024e-05 0.000110363326 0.00064118014 0.00365717 0.0019195923 0.0008931796 -0.0026587914 0.0028575484 0.0006163633 -0.00075835944 -0.0028255621 0.0005522504 0.0026440152 -0.0004006021 0.0029538497 -0.0019651316 3.4357484e-08 0.002707929 -0.0038396823 0.0032376386 -0.0010995242 0.0008792156 -0.00043246584 0.0017997352 -0.0036001862 -0.0009215286 -0.00041898212 0.0031071608 -0.0035975627 0.00081393716 -0.00047533345 0.0026686182 0.0014303691 -0.0018301337
152.163.210.017 0.0015592123 0.00046216714 -0.001387158 -0.0038525374 -0.00089043676 -0.0017495147 -0.0020103373 -0.0016235566 0.0028915398 0.002082094 0.0017351154 0.0017829499 0.002291831 0.0032793358 0.0008537891 0.00058412756 -0.000398991 -0.001097699 -0.0008021553 -0.0024696125 -0.0030270806 -0.0037556419 -0.0036845172 -0.00037538342 -0.0012468118 0.0014785809 -0.0023721904 -0.0013097806 -0.0013747795 -0.00060725084 -0.0022172767 -0.0038960534 0.0023916315 -0.00079529715 -3.7741887e-05 0.00095723604 0.002545827 0.003636603 -0.0017276144 0.0028198443 0.0036491046 0.0006238946 0.0037686625 0.0028921978 -0.0025829263 -0.0028484163 -0.002770937 -0.0015256979 0.0027585744 -0.0005040359 -0.0029576703 -0.00021533096 0.0026111498 -0.0023954273 0.00032129526 -0.00083489344 0.00035212233 -0.0021200054 -0.0010983044 -0.003015059 0.0034445007 -0.0010677011 0.0011301596 0.0013937553 -0.0012876219 -0.000780952 -0.0003530423 -0.0002625537 0.002900041 0.0012348623 0.0023470132 0.001125157 2.4327206e-05 -0.003323326 -0.00021510203 -0.0011993723 0.00036748414 -0.0020443376 -0.00027588068 0.0032819202 -0.0037951565 0.0025678645 -0.0037002233 -1.6673222e-05 0.00038288912 0.002579164 0.0010988537 0.0015574746 -0.0024454936 -0.0008999596 0.0037284745 0.0030352196 6.874241e-05 0.0031159548 0.0021963865 0.0015760487 0.003727468 0.0021714836 -0.0028464058 0.0022180674 -0.003227742 -0.00066873664 0.0018446166 -0.0033600382 -0.0006386254 -0.0009404894 -0.0016067266 -0.0020580054 0.00041596123 0.0024436747 -0.0026026373 0.002088046 0.0023926513 0.0036731109 0.00073221076 0.0014437949 -0.0024109674 0.00035763913 0.0013739994 0.0032459714 -0.002819736 0.00082624535 0.003489145 0.0012302033 -0.0017120622 -0.00016315989 0.0008351969 -0.003532366
172.016.115.005 -0.002253134 0.00068412314 -0.000533773 -0.0022888978 0.00094433344 0.0012331024 0.00040820235 -0.0038986527 0.000119100194 -0.0022219685 -0.00054173794 -0.0026229187 0.0012866075 -0.002132956 -0.0015672279 -0.0015877179 -0.0018910733 0.0021356042 0.0006514424 -0.000277397 -0.003251078 0.0027018706 -0.001916829 -0.0009045672 0.0029999225 0.00229652 0.0031119224 0.001506949 0.0031169576 -6.8600125e-06 0.00214349 0.00063703186 0.002151002 -0.0005069576 0.0014398792 -0.0031326353 -0.001749942 -0.0023307672 -0.0017796911 0.0004339943 -0.0034333903 -0.0020715687 0.0021798636 0.0007671864 -0.00036609606 0.0035778338 -0.0005629854 0.0022747302 -0.003849613 -0.0008776773 0.0025689548 -0.00041176128 0.002755933 0.0011317873 0.0025353823 0.00022011464 -0.00010978349 -0.0014365867 0.00026228616 -0.0007954166 -0.0036895273 -0.003823177 0.00018053193 -0.00023828934 -0.0007751396 0.0011522177 -0.003683334 0.00044801712 -0.0010614034 -0.0004879637 0.00052112323 -0.0013772906 0.0036127567 3.737941e-05 -0.0028711807 0.003305412 4.2809195e-05 0.00013009306 -0.0031839965 -0.0024636323 0.002070314 -0.00022839863 0.002219762 0.0029149847 0.0031321677 -0.002927292 0.00076591957 -0.0026927164 0.0027938858 0.0004594584 -0.00031982103 -0.0023651924 0.00096097356 -0.0018675469 0.000675098 0.00048408966 -0.0016053683 -0.00092692673 -0.00313885 -0.0021293897 -0.0032765083 0.0033840267 0.00023340798 0.0030315872 0.00074868515 0.0025376421 0.0013523453 0.0019936136 0.0003899954 0.003223471 0.0024449723 1.4983818e-05 0.00069571775 0.00076978054 0.002362176 -0.0038461487 0.00089993846 0.0027360048 -2.4773168e-05 -0.00059316424 0.003274261 0.0018959703 0.0028509668 0.0010297281 0.0015525412 0.00041326828 -0.0021246823 0.0009855686
172.016.116.194 0.00039998937 0.0030659025 0.0031464072 -0.0023747296 -0.0007737721 -0.0013461814 0.001559598 3.8161816e-05 -0.0037276 -0.0002782815 0.00084057497 0.0017507308 0.001897888 -0.0017084351 -0.002716221 0.003278523 0.0012674917 0.0032429553 0.0021101767 -0.00045097896 -0.0024887235 -4.0594587e-06 -0.0026456527 -0.0010845702 0.0035443013 -0.00035691273 -0.0036435751 -0.0018930424 0.0012580073 -0.0021534592 -0.0027495413 -0.00307853 0.0007444175 -0.0027499562 -0.0014416651 -0.0015935263 -0.002596134 -0.0024904425 -0.0033738369 -0.0024049955 -0.0006421757 0.001956033 0.0005547269 0.003334918 0.0027955389 0.0021390775 0.003453744 2.848496e-05 0.00060750643 -8.222344e-05 0.0009776816 -0.0025965606 -0.0013000784 -0.0025715264 0.002893988 -0.0017161294 -0.0007435201 -0.00039864046 0.0033362776 0.0038036425 -0.0035373345 -0.00016984619 -0.0011743471 0.0011943837 0.0017973449 -0.0035629235 -0.0037393798 0.0007416343 -0.0021881044 -0.0005263053 0.0030837795 -0.0014928356 0.0005482957 -0.0013200801 -0.00045617152 0.0030584803 0.0029388708 0.0018716115 0.00073302 -0.0035378623 -0.001936422 0.0035706426 0.0011494996 0.0014554455 -0.0013685651 0.00046878282 -0.0013085037 -0.0031244257 -0.0016644764 0.0026563457 -0.0015037665 -0.0036456315 0.0009097501 0.0033814039 -0.003028422 0.0024183046 -0.0018349793 -0.001147413 0.0026130718 -0.0031967713 -0.00029432902 -7.5757984e-05 0.0027283607 -0.00010079922 0.0021254865 0.001952939 0.0016487063 0.0032724787 -0.00091770117 -0.0021685378 -0.00021375158 0.0012714268 0.0017154793 8.121331e-05 -0.002753296 -0.0031869723 0.0014118897 -0.0027452363 0.00012613129 -0.0025536176 -0.0025070969 0.0033804243 -0.00018136387 -0.0006073695 0.0006426008 0.0018991613 -0.0036134976 0.00038233557
172.016.117.052 -0.0025361509 0.0006889362 0.003422228 0.0029498544 -0.0032468506 0.0014504285 0.0030696988 0.0019362915 -0.0028888101 0.0022830684 -0.00071740453 -0.0029190916 0.0023065782 0.0035606662 -0.003701571 0.0024404537 0.0025890763 -0.00077673444 -0.002838654 -0.0020845758 -0.0009042125 -0.003192182 0.0021066228 0.0027798007 -0.0019984187 0.0037009262 0.0012655728 0.001816912 -0.0013728194 0.00027713948 0.003527832 0.0028593116 -0.0032183656 0.003756782 -0.0032180264 0.00297338 -0.0019076557 -0.003718424 0.00045903027 -0.002303827 0.00032478862 -0.0023580026 0.0038506172 -0.00126019 -0.00017119359 0.00085768936 -0.0013796996 0.00344102 -0.0012328752 0.0031179849 -0.002907404 0.0010660711 -0.00012557078 -0.0038326941 -0.0016414492 -0.0019500485 0.0034548673 0.0036187063 0.0007757256 -0.0017833561 -0.00017476761 -0.0012609761 -0.00042830175 -0.002187802 0.0019498382 -0.0024315538 0.002438488 -0.0031054884 0.0011192603 -0.0013282142 1.4418505e-05 -0.0010154777 0.0008646075 0.0026668182 -0.0017081167 0.00040317522 -0.0008010339 0.0014495382 0.0029302535 0.0033821785 -0.0009896312 0.0008144561 0.0038070912 -0.0008647983 -0.0028115145 -0.0005217777 -0.0023534475 -0.0012799212 -0.002343144 0.0009252685 -0.0025135614 -0.002041973 -0.0015127595 0.0037007302 -0.002755543 0.0012780384 0.0020487492 -0.0005347792 -0.0037776805 -0.003468699 -0.00080671255 0.002575973 0.0008908552 -0.00055842916 0.0009783256 -0.00078226224 0.0011641637 0.0033580519 0.002433776 0.0022392138 -0.0025282502 -0.0012552437 -0.00066866574 0.003241465 0.0009900586 0.0013833563 -0.0022061619 -0.0027728141 0.00032755407 0.0033626212 0.0005324964 0.0025757968 -0.003232157 -0.0030539043 -0.0025094894 0.0032840786 0.0010423686 0.003541995
172.016.112.149 -0.0017954652 -0.003570217 0.0019889774 0.0035538138 0.0007800582 -0.001045668 -0.00011148985 0.00028499967 0.0034358914 0.0008253963 0.002932134 -0.0036148308 -0.0032303333 -0.0010264138 0.0017286037 0.00031351784 -0.0011652696 0.0012506832 -0.0031639524 -0.0034183562 -0.002198417 0.001798739 0.00022064676 -0.0017532796 -0.0005654079 0.0023762705 0.0024995913 0.001097102 0.0029194031 0.0003546835 0.0014049968 0.00028312122 -0.0014859166 -0.0022359225 0.0038245649 0.0018459288 -0.0023427976 -0.0011969995 -0.0006808883 -0.0020355307 0.0037125677 -0.000112569614 0.0030334909 -0.003044784 0.0021128592 -0.0022309683 0.0037302917 0.0002285999 0.0037084694 -0.0009913481 0.0014566663 0.002139134 -0.0033143593 0.0033663532 0.00067417737 -0.003253855 0.00059161463 -0.0010180563 0.0024237982 0.001955958 -0.0014224034 0.00091372716 -0.0010285786 0.0005093684 -0.00045840215 0.00094606774 0.0028018982 -0.0034355086 -0.0017027197 -0.00091925974 -0.0023855998 -0.0016248694 0.0036570956 0.0007744555 0.002988847 -0.0021299887 0.003828021 0.0025170255 -0.00087651133 -0.00045687333 -0.00013628209 -0.0010326689 -0.0009912109 -0.0028367923 0.0017771884 -0.0026973628 0.0037276442 0.0036399905 -0.0019912624 -0.0037331495 -0.0019428175 -0.0025820266 -0.0005919134 0.0019910957 0.0016352427 -0.0012216169 0.0009866843 -0.002353575 -0.0026585744 0.0018843061 -0.0027166747 -0.0026889816 -0.00017990114 -0.0008427835 0.0024741276 -0.0032903315 0.0020416898 0.0008910197 0.001475325 0.002391994 -0.0026561054 -0.002847036 -0.0002620637 -0.0014441828 0.0014496123 -0.0032471598 -0.0020431343 0.0031815248 -0.00076129613 0.0037651043 0.0037147088 0.0010660278 3.9322164e-05 -0.0022282498 0.0014723423 0.0014322668 -0.0023251965 0.00048038288
172.016.115.234 0.0009823585 -0.0030752083 2.4788655e-05 0.0028036586 -0.001640072 -0.0011670087 0.0019682006 0.00020984386 0.0023287386 0.0007496446 0.00046030327 -0.0024912697 -0.0029045453 0.00026861936 0.0017217121 0.0018409314 -0.0015514154 9.904397e-05 -0.0002674932 0.002312674 0.0011490574 0.002678158 0.00018885685 0.00065698836 0.00088632246 -0.0009626089 -0.003345952 -0.00097249437 0.0024621077 -0.0016529432 -0.00075187476 0.002819083 0.0018353447 -0.0023203634 0.00079029426 -0.0019738844 0.002574555 -0.0035375084 0.0017613374 0.0015634873 0.001815322 0.0019977132 0.002115729 0.0019414675 0.002319919 0.0038952276 0.0025195251 -0.0010843258 -0.0011162149 -0.001542943 -0.00342913 0.00024870073 0.00036449783 -0.0020506948 -0.0003200292 -0.000676639 0.0028557894 -0.00047242973 0.0025032808 0.0018937055 -0.002206377 -0.0002516954 -0.0038523625 -0.002520898 -0.0031928353 0.0014324359 -0.0010533171 0.0025772115 -0.00031163634 0.00340184 0.0002553146 -0.0014472853 0.0019945852 -0.0019967882 -0.0007965003 0.00085349445 -0.003497825 -0.0015803699 -0.00089219253 0.0026392725 -0.003245012 -0.003652958 0.0022366776 0.0014159755 0.0023904676 0.0037447098 -0.0024257398 0.002261646 -0.00040423492 0.0011101087 -0.0027145355 -0.002548118 0.0038762798 -0.0024910155 -0.0034588776 0.0027034548 0.0031770805 -0.000112678914 0.0029827824 -0.00096343923 0.00083019433 -0.0026372736 -0.0015876474 0.0025055583 -0.0030039938 -0.0027448363 7.799059e-05 0.0034377342 0.0014228282 0.001447935 0.0019947572 -0.003703529 -0.0027537746 -0.0011372941 -0.0021211246 0.0005822676 -0.002952322 -0.0018541459 0.0033767922 0.002881834 -0.0017740509 0.002475469 -0.0017192214 -6.8515015e-05 -0.0007937939 0.00056833506 -0.0032710133 -0.001566182
172.016.114.169 0.002648885 0.0031267905 -0.0009633204 0.0038620452 -0.0027113273 0.0012762783 0.0020965931 0.0002327626 -0.0026002452 0.0036800934 0.0025511433 -0.002719077 0.002772229 -9.4302646e-05 -0.000106713 0.0013203918 0.0037574805 0.0016134742 -0.0029273687 0.0014877919 -0.0018241617 0.0006187275 -0.0019132161 0.0028301417 0.0001788753 -0.00063647976 0.0037140844 0.0021412983 -0.0035281475 -0.0035234715 -0.0027210992 0.0034782973 -0.0029788387 0.0023451832 -0.0019010938 0.0035343983 0.0006465217 -0.002076991 0.00021862802 -0.0009574442 0.002676403 -0.0016287108 -0.0017693216 -0.0025940975 -0.00053309044 0.00050960033 0.00060616364 0.0033825052 0.0014724465 -0.002870449 0.0032547237 0.0036096126 0.0001519946 -0.0011257874 -0.0009782594 0.002569402 -5.334371e-05 -0.0021262546 -0.0036623226 0.00036562182 -0.0018339888 0.0014855664 0.0012054683 0.0034028352 -0.0017168842 0.003516203 -0.0022044545 -0.0026804537 -0.00080250093 0.0025813833 -0.00022152938 0.0018007081 -0.0011474926 0.0013964596 -0.0013575922 -0.0032557633 -0.0026844672 -0.0009624333 0.0023974332 -0.003366495 0.0028518615 -0.0009341489 0.0021942945 -0.001293477 0.00035029824 -0.0019603884 -0.0038695799 0.0026407605 -0.002813242 -0.0034613989 -0.0022882235 0.0008097399 0.003064604 -0.0018084458 0.0027357999 -2.5618872e-05 -0.0012126665 0.0031565516 0.0035106246 -0.0030916221 -0.002111935 -0.0031506075 0.0038808356 0.0015952679 -0.00043569403 0.00086435484 -0.0032433076 -0.0036496983 0.0038429836 -0.00051074976 -0.0008966918 -0.0029784038 0.00046458936 -0.002762391 -0.0011080502 0.0016741202 -0.0029627662 0.0029062086 5.157157e-05 -0.0008929081 0.00022327241 0.0016605101 -0.002699029 -0.0032677304 -0.0015612742 0.0005111538 0.003795283 0.002258367
172.016.114.168 -0.002370729 0.0005117122 -0.002851965 -0.0030141096 -0.0020468119 -0.001730802 -0.0033394995 0.00040633377 -0.003014786 -0.0017698574 -0.00073474576 -0.0019699272 0.0035379443 -0.00023590808 -0.0017577328 0.0038976169 -0.0019671822 0.00343234 -0.0022154115 0.0029477573 0.00082544016 0.0021774175 -0.0023769545 6.936914e-05 0.002329969 0.0014228043 -0.001324349 -0.002445168 -0.0007647177 0.0014034753 0.0035262264 0.0013133298 -0.00075833034 -0.0012516202 0.0023245271 -0.0021137763 -0.00019586245 0.0013911941 -0.0010460706 0.000108310094 -0.0030470283 0.003445466 -0.0014674945 -0.0002860844 0.0019346966 -0.0018383615 -0.0023834235 0.00012091699 0.0026602347 0.0030464449 -0.0010839396 0.00075337954 0.0028859365 -0.0017116383 0.0004916527 0.0024576243 0.0021334877 0.002760111 -0.00037183508 -0.001391765 0.0020680751 -0.00043859406 0.0017896282 1.6820239e-05 0.0011017804 0.0022927762 0.0035354125 -0.0020883183 0.0017101881 -0.002363016 0.00080103346 -0.0022452364 0.0025358645 0.0006534638 0.0024300031 -0.0029339148 0.0013360705 -0.0015545083 0.0038610792 -0.0013427101 0.0015192775 -0.0012590968 -0.002665355 2.2116456e-05 0.00010845491 -0.0027240247 0.003703846 0.0026363153 0.0012361573 0.0035333966 -0.0033490963 0.0018386509 0.0037350492 -0.0013402685 0.0014493841 -0.00057614036 0.001071319 -0.0032054766 -0.003012603 -0.0006068367 0.0033631949 -0.00086859276 0.0024141788 -0.0026025686 0.0010651622 0.0015295354 -0.003281056 0.002701032 -0.0032845782 0.00039852827 0.0023031146 0.0029857073 -0.0004168008 -0.00020775328 0.0035775132 -0.0004110105 -0.0017266155 0.0010602034 -0.0038366881 0.00017231876 -0.00095771876 -0.0017718077 0.0021820485 0.0011931232 -0.002892806 0.00020353128 0.0015825273 -0.003425437
152.163.210.011 0.003520833 -0.003749919 0.0030820798 0.002176231 -0.0007766515 0.0034721894 -0.00018944853 -0.00094958034 0.00032365567 -0.0033844856 -0.0010608399 -0.0025202155 -0.0016957237 0.001922088 0.000668263 -0.000995052 -0.00057230715 0.0018495012 0.0009828613 0.0007243037 -0.0036457705 -0.0028909908 -0.00070739584 0.0037476402 0.0008207639 0.0018090466 -0.0009584763 -0.0033926533 -7.320885e-05 0.002588046 0.0037296633 0.0004201482 -0.0029264805 0.002398056 0.0023909102 -0.0010375098 -0.0028047245 0.0027852873 -0.0021572118 -0.00041283102 -0.0004075195 -0.00016619502 -0.0013970961 0.0021626318 0.0019458081 0.0024392442 -0.0023455403 -0.0022188437 0.001286205 -0.0015429731 -0.002228382 -0.0011187658 -0.001573833 -0.0021112668 0.0027761103 -0.00034956078 0.0013703561 0.0025556334 8.5673455e-05 0.0010248789 -0.00071785215 -0.0008129949 -0.00014582192 -0.00095062965 -0.0013564606 0.0018222841 -0.0027317337 0.00239456 -0.0007921701 0.0022867522 -0.0022434178 -0.0037583646 0.0032670214 0.002507133 0.00081246067 -0.00015808713 7.3049465e-05 -0.0017626137 0.0017516783 0.0035408796 -0.0029899287 -0.001111957 -0.0017300362 0.003836931 -0.0003401191 0.002829056 -0.00085149327 0.0012166863 -0.0020464484 -0.0018874385 0.00074575056 0.0025323879 0.0035161653 0.0015102348 -0.00042145565 -0.0026490916 -0.0009798158 0.0034940988 0.0025866989 0.0031509548 -0.0023694355 0.0034913654 -0.0020925417 -0.0009710755 0.002680053 0.0016701694 -0.0021994852 0.0018580526 0.0038977799 0.0010792282 0.0021530436 -0.00046699995 0.0031712302 -0.00095882796 -0.0028869954 -0.0006362209 0.0011120602 -0.0033864889 -0.003535142 0.0016841206 -0.0008278962 0.003494582 0.0006830651 -0.0013232877 -0.0013207354 -0.0018530015 0.0027302895 0.00030029102
192.168.001.090 -0.0022034408 0.00040347455 -0.0010556998 -0.0014186235 0.0009297462 -0.002662934 0.0011898264 0.0023334844 0.0012070535 0.0035094412 -0.0018629014 -0.0008908306 -0.0038937419 0.0035254327 0.0030678785 0.0031137434 -0.0014473898 0.0023985389 0.003687539 -0.00025996994 0.00021076897 -0.0037760173 -0.0036261869 0.0022936391 0.0032088938 0.0021728578 -0.0006148924 0.0030799315 7.4861528e-06 -0.00061484677 -0.0030066608 -0.002725239 0.0015465724 -0.0032192853 0.0002121748 -0.00078538584 -0.0034689158 0.0007512607 -0.0008077337 0.00041372888 -0.0009285974 -0.0020375685 7.718871e-05 0.0022151275 0.0006284982 0.002218263 0.0028606239 -0.0035780554 -0.00040435838 -0.0038905903 2.1317373e-05 0.0005626215 -0.00209271 0.0022385698 0.0009921658 0.0016789006 -0.0011717681 0.0015569838 0.0021820546 -0.003538387 0.0026415105 -0.0016048435 0.00042512084 0.00030038116 -0.00044080292 -0.0017785378 0.0010393928 0.0011977105 0.00019236686 -0.002371322 0.0012142377 0.0006284458 -0.0013178966 -0.003827742 -0.0004938245 -0.00020549225 0.0014978197 0.002920167 -0.00089949515 -1.0463659e-05 0.0034038734 -0.0020738335 0.0038083075 -0.0035148652 0.0026053654 -0.0023201252 0.0022736364 0.0032322283 -0.0038574366 -0.0026341383 0.00037368364 0.003415471 -0.0009550146 -0.0025105402 -0.00024830407 -0.00084841717 0.002012675 0.0019523825 0.003621009 0.0009332973 -0.0029115437 0.0033037392 0.0023569777 0.0025448836 0.0026972147 -0.00028568323 0.0037802379 0.0034305626 0.00011825359 -0.00054130366 -0.0011844884 0.0033007644 -0.0021576057 0.00055303535 0.0025292612 -0.001336986 -0.0031932725 0.002838274 -0.0028104403 0.00087434554 0.0036933161 -0.0021107267 -0.0022346568 -0.0030686373 0.003607812 -0.0032933864 -0.0008587085 -0.0034719568
172.016.113.084 -0.0038701345 0.0016102341 -0.0031026893 0.001144713 -0.0017778719 0.00073783513 0.000978548 -0.0034156602 -0.0010331279 0.0021164943 0.00090557133 0.0024253079 0.0032052149 -0.0007822467 0.0006152337 0.0011819699 -0.00028512356 0.0038128567 0.0028490194 0.0019054128 0.0037553615 0.0027281174 0.0016208495 -0.0026343307 -0.0025739411 -0.00042994076 0.0012473161 0.0014697792 -0.0010933678 -0.00039491142 -0.0013642999 0.0014115504 0.0017040311 0.0027768787 0.0010163866 -0.001880819 0.0022090855 0.00021341373 0.0008147952 -0.0010563888 0.003762443 -0.002797341 -0.00027841068 0.002412934 -0.0004796232 -0.0037334284 0.0017365741 -0.0037168814 0.002805715 -0.0032050076 -0.0034492603 -0.0011640546 0.0023283772 0.00015790766 0.0016947694 -0.0022973302 -0.002581585 0.0019178414 0.0023984842 -0.002852096 -0.0012061072 1.4336954e-05 0.00033330376 0.003188648 0.0023666313 -0.0011919471 0.0013115705 -0.0010245808 0.0026549764 -0.0023466432 -0.00044891555 -0.0026453824 -0.0016423175 -0.0023709936 0.0016652521 0.0021489048 7.245328e-05 0.0020066367 -0.0037581413 0.00014286904 0.00051266234 -0.0022776006 -0.0019477722 -0.0026318494 0.0013075047 0.0029024314 0.0022699928 -0.00383551 0.003407181 -0.0031864315 -0.0028045021 0.0038876906 -0.0032718913 0.0020011975 0.0028263468 -0.0018439505 -0.0029227922 0.00043987605 0.0030569637 0.0020160186 -0.002169622 -0.0016195467 -0.003353557 -0.0023818163 0.0005791585 -0.0008828786 -0.00018373574 -0.0038826794 -0.0014200293 0.0021441954 -0.00060530246 0.0015920689 6.8125875e-05 -0.00091163005 -0.0010675639 -0.00072323135 0.0006954239 -0.0006825784 0.0031820387 -0.001577374 0.0019241645 -0.0023568913 0.003427639 -0.0028758403 -0.002375101 -0.0009306386 0.0024114004 -0.000838661
172.016.115.087 -0.0039024407 -0.0010542264 0.0019339436 0.0013733646 -0.0013301743 0.0008810122 -0.003771963 -0.0005096697 -0.0011381572 -0.002705393 -0.0014044526 -0.0021086654 -0.0016622732 0.0009926293 0.0029521722 -0.0014143814 -0.0016343365 0.0018558925 0.0025978752 -0.0017505948 0.0035202776 0.0009223483 -0.0024405797 -0.0028968232 -0.0022229357 -0.00010861644 -0.0023851627 -0.0026311402 -0.0007594804 -0.00073048857 -0.001378143 -0.0018848777 0.0031393396 -0.0028487553 0.001201561 -0.0028483546 -0.0007192029 0.00025674092 0.0011409994 -1.7007205e-05 -0.0030543702 -0.0020192948 0.00018595834 0.0004504591 -0.0019871674 -0.0028361415 0.0038821823 -0.0033591012 0.0013750249 -0.0010768234 0.0033115675 -0.00068133906 0.0017257151 0.0037298594 -0.003716404 -0.0011472974 -0.003129682 0.003496316 -0.0018202256 -0.00024269077 -0.00025080345 0.002812622 0.0019874484 0.0014967549 0.0010544191 0.0021242807 -0.0032444543 -0.00077054254 -0.002080634 0.0015504345 0.0008647988 -0.00069550885 -0.001372839 -0.0014884857 -0.0021118196 0.002756996 -0.00071619876 0.0006853846 0.002014309 0.002136093 -0.0018894207 -0.0025862155 -0.0031007763 -0.0023159443 -0.0017143169 -0.000841567 0.0007639162 -0.0032044637 -0.0017056825 -0.0011921346 0.001123609 0.0035390798 -0.00306238 0.0020321063 -0.0019327987 0.0023840342 0.000112855974 0.0016446991 0.001892317 0.0025615245 0.0016530297 -0.0030209257 0.0009174904 -0.0008860199 0.001620088 -0.0014548415 -0.00020492877 -0.0032791297 -0.000981243 -0.0014720787 0.0017944376 -0.0005035227 -0.0026685982 0.00175122 0.0027570832 0.0030037262 0.0026363966 0.0028402368 -0.00020849258 -0.0011815713 -0.0012194988 -0.00053650513 0.002376595 -0.0020715776 0.0022681456 0.0033224043 -0.0021967217 -0.0037952666
195.115.218.108 0.0010985542 0.00048893644 0.002169068 0.0012286835 -0.003872142 0.00078030897 -0.0026912726 0.0034562014 0.0020430011 0.0018515665 0.0029724864 -0.00065606774 -0.0035881072 0.0001870569 0.00091475865 -0.0012930805 -0.0008892992 0.0021594795 -0.0005053234 -0.0011503381 -0.0034938888 0.001294099 0.003461916 -0.00023147895 0.0024597228 -0.0016349169 0.0019888703 -0.0024929715 -0.00024498688 0.0019788651 0.003068563 -0.0018857106 0.0026462525 -0.0025338884 -0.0010810642 0.0013644793 0.0037660906 -0.0029614272 0.0022666561 -0.0025424953 -0.0036201763 -0.002131931 0.003803866 0.0024618849 0.0037348834 -0.0006236533 -0.00022399645 -0.0028255398 -0.0007681604 -0.0038244154 -0.0010571394 9.993443e-05 0.001734532 -0.0023431643 0.0036851657 0.0037474616 -0.00013097278 0.001658128 0.0026306242 -0.0034164658 -0.0013235088 -0.00067065586 -0.0023514975 0.0009465345 0.001403392 0.00019979227 -0.0021019033 0.0010426631 0.0034847662 0.0030841483 0.0015566213 -0.0035085022 -0.0017318216 -0.0027170542 0.0006099024 -0.0015479574 0.0005928608 -0.0023912336 0.0017448373 -0.0030341428 0.0019130518 0.0030942617 -0.0035605642 -0.000115894814 0.0028952141 -0.0017553291 0.00038217983 0.0007963741 -3.6070036e-05 0.0025973523 -0.0023944252 -0.0021987709 -0.0011548288 -0.003152534 -0.0034475212 -0.0036724035 0.0030763797 0.00068179815 -0.00079946866 0.0016806037 -0.00054391666 -0.0006561905 0.0038565153 -7.205987e-05 -0.00016885079 0.0037087202 0.0014948433 0.0010406738 0.00044761758 -0.0037011076 -0.003783448 -0.00017695542 0.0018780921 -0.0017391221 -0.00020378141 0.0037777382 0.002662354 -0.0017870548 0.0028878213 -0.0016425912 -0.0019708595 0.00030813977 0.0023133943 0.0003008714 0.000315911 -0.0032924265 -0.002667979 -0.003323256
